3167 100
Q117 0.141981 0.0154069 0.106732 -0.0843994 -0.196047 -0.0376093 -0.169696 0.115517 0.0283488 0.0599437 0.00352612 0.0940649 -0.114979 0.0366221 -0.0897418 0.132977 -0.111663 -0.138508 0.0921559 0.0465679 -0.0342063 0.154969 0.057579 -0.117192 -0.013052 -0.101004 -0.127384 0.0831952 -0.218924 0.169696 0.0979073 -0.0187502 -0.0753175 0.112765 -0.0371431 0.0193333 0.0741409 -0.0698377 0.118725 -0.0959799 -0.112117 0.0099786 -0.000339269 -0.0120052 0.0112887 -0.0102869 -0.0746166 0.187046 0.0207592 0.139802 -0.131594 -0.058121 0.116539 -0.0739619 0.139025 -0.117557 -0.114182 0.0278918 -0.0487512 0.178375 -0.00807285 -0.0413125 -0.0706945 -0.0356714 0.0740617 -0.0584568 0.193832 -0.0365631 0.0763295 0.0360074 -0.0699136 -0.0171687 -0.212516 -0.116036 0.00151177 -0.0371325 -0.0564488 -0.0602698 -0.142052 -0.100347 0.0338199 0.162054 0.167125 -0.12906 0.0586126 -0.11865 -0.0134135 -0.0444628 -0.0276373 -0.0941313 0.0235537 -0.0123931 -0.0803129 0.141392 -0.129513 0.0795143 0.205023 0.0739874 0.0900477 0.0111797
Q116 0.154421 -0.0843869 -0.0589078 0.0709806 -0.00783253 0.0486681 -0.091538 0.134472 0.023959 0.00880167 -0.0412959 0.148771 0.116287 -0.179823 0.0243169 0.148619 0.0197024 -0.211542 -0.106324 0.27966 -0.12616 0.0307321 0.0728523 0.0258201 0.0301312 0.058523 -0.0143561 0.0228541 -0.10867 0.143901 -0.0356741 0.0624123 0.00667378 0.120446 -0.0384826 0.0579434 -0.0466267 -0.115257 0.074848 -0.205033 -0.0339801 -0.0246692 0.0432028 -0.0157528 0.0156833 -0.00895371 -0.0553256 0.134208 0.188193 -0.0285707 -0.150999 -0.00289045 -0.0770986 -0.106808 0.0677936 -0.00223982 -0.0402994 0.0618767 -0.11991 0.163925 -0.105976 -0.0280525 -0.0564574 -0.193737 -0.159403 -0.0955773 -0.0777482 -0.131858 0.0690391 0.110242 -0.136386 -0.066021 0.0366187 0.0582155 -0.157994 -0.0744682 -0.00533975 -0.154303 0.0265102 0.00400006 -0.0707838 0.181415 0.138303 0.0486268 0.095782 -0.0597745 -0.021331 0.0886357 0.0873783 -0.124347 -0.0956783 -0.0373652 -0.0504611 0.107884 -0.131103 0.100702 0.0675673 0.0932963 0.151883 -0.0233836
Q200 0.150635 0.0786945 0.0288594 -0.0526319 -0.129147 0.0324821 -0.168469 0.0844531 0.0927744 0.145005 -0.138372 0.0854446 0.00337399 0.0316297 0.0209471 0.135045 -0.0911525 0.169093 0.0340191 -0.0530871 -0.0307699 0.0662125 -0.00289158 -0.0161902 -0.170936 0.0255009 0.0425356 0.0124103 0.0390265 0.084316 -0.210434 0.0293557 -0.172249 -0.0513894 -0.211212 0.0235889 0.00104487 -0.0748837 0.0202981 -0.140678 0.000594915 0.116938 0.050428 0.0587688 -0.0113161 -0.0327048 -0.109656 0.222185 -0.0439252 0.18113 -0.160502 -0.197972 -0.0629222 -0.101369 -0.011012 -0.0285605 -0.19114 0.061833 0.0292984 -0.0809682 -0.0461028 0.0031612 -0.0237368 -0.00572464 0.115873 0.0366405 -0.0497012 -0.288955 0.0117656 0.0368849 -0.0134743 0.087293 -0.0694128 0.0215987 -0.097768 -0.145646 0.0829548 -0.0427968 -0.0726302 0.0396105 -0.134151 -0.00709037 0.00104584 -0.204668 0.0646064 -0.0952854 -0.0815617 0.0560544 -0.0606123 -0.162241 -0.0871033 -0.136088 -0.0274445 -0.0104766 -0.109237 0.0917567 0.081404 0.0219429 -0.0448976 -0.156265
Q51 0.157247 0.0444694 0.0671499 -0.0223553 -0.0582281 -0.0646176 -0.124677 0.0353236 0.0688368 -0.0209314 -0.0640264 0.0616953 0.0244839 0.0934825 -0.0304074 0.130877 -0.0921972 -0.0384745 0.119615 0.114256 0.0241549 0.0512922 0.300627 0.0849286 -0.0645919 -0.0631234 -0.146884 0.0303889 -0.179412 -0.0516174 0.0729087 0.0107418 -0.0826506 0.111459 -0.0467239 -0.0122997 0.00750095 0.0686876 0.0315661 -0.106734 -0.0364472 0.067729 -0.0524824 -0.0370767 0.0963106 -0.200315 0.0265463 0.246118 0.0852749 0.114807 -0.11857 0.0718883 -0.0404168 -0.0583057 0.12926 -0.0270848 -0.121494 -0.102812 -0.0347886 0.0453867 -0.124922 0.0190364 -0.0780316 -0.0494416 0.0680298 -0.110858 0.0742939 -0.149987 -0.090878 0.068984 -0.0750387 0.11721 -0.143107 0.0893566 -0.26168 -0.132944 0.0717015 -0.0947726 -0.0649204 0.0785939 -0.0266885 0.0658424 0.141865 -0.0887668 0.16354 -0.0686328 -0.0879222 -0.0603033 -0.0459436 -0.217241 0.055241 -0.0743622 -0.157148 0.117659 -0.141661 -0.0255717 0.063962 0.0176864 0.0678872 -0.0339536
Q50 0.0247295 0.0944312 -0.0169712 0.051709 -0.0997592 0.112538 -0.142982 0.0443741 0.0410058 0.16051 -0.191851 -0.0210819 -0.0995099 -0.110765 0.0653477 0.117114 -0.00232643 -0.0683085 0.222801 0.16696 -0.0151643 0.0406991 0.301447 -0.0547057 0.0394596 -0.0308753 -0.0360942 0.00867504 -0.0811015 0.227508 0.101683 -0.0891986 -0.0568633 0.0294366 -0.0354391 0.0663251 -0.0939182 -0.13847 -0.0218041 -0.00202663 -0.0173879 0.0828904 -0.044167 -0.0897831 0.0755603 0.0525572 -0.0504365 0.097462 0.0994605 0.146249 -0.0720745 -0.0170601 -0.0582541 -0.188781 0.0614824 -0.136894 -0.0182442 0.178582 0.0122679 0.182813 -0.144051 0.0565447 -0.0303395 -0.0903384 -0.013114 -0.224451 0.101367 -0.120754 -0.136978 0.0485922 0.052172 -0.007142 -0.0582264 0.0939595 -0.0483575 -0.0445031 0.00090377 0.00917071 -0.107606 -0.00671889 0.0414486 0.0607779 0.0709917 -0.0792786 0.0670817 -0.101581 -0.129802 -0.115322 0.0874414 -0.202539 -0.0178766 -0.0388015 -0.142232 0.078016 -0.0618879 0.0141404 0.00250383 0.0579729 0.167701 -0.0671725
Q53 0.142593 0.0250713 0.0245539 -0.115296 -0.0349268 0.0560267 -0.0324121 -0.00362701 -0.0562111 0.086578 0.0386123 0.0321844 -0.124165 -0.0281634 -0.173889 0.107357 0.000812165 0.0223037 0.0949523 0.135597 0.0324147 0.0596384 0.266883 -0.150591 -0.0748754 -0.156886 -0.26998 0.0337894 0.0169152 -0.0161351 -0.140697 -0.108192 -0.0721159 0.147622 -0.124457 -0.0244162 0.144806 -0.0616108 0.151365 -0.0674653 -0.0680883 0.0975689 0.0387386 0.00169223 -0.00570881 -0.0809474 -0.149026 0.0237986 0.0899046 0.0938946 -0.214861 0.0387197 0.0416992 -0.17404 0.0290568 -0.103661 -0.0840193 0.0583177 -0.0167298 0.0106164 -0.118195 0.0214486 -0.0144938 -0.0539888 0.132134 0.0422369 -0.0976549 -0.0369602 -0.120276 0.0400151 -0.221708 0.0265684 0.0300099 -0.0546496 -0.0126099 -0.0381744 0.0379404 0.118607 0.0298437 0.100152 0.0584319 0.0891687 0.13281 -0.112117 -0.0305048 -0.0177794 -0.0140175 -0.0143266 -0.0499994 -0.214085 -0.130054 0.0289013 -0.0625547 0.0400383 -0.199449 0.104044 0.167609 0.0552229 0.148232 0.0489177
Q52 0.0576203 0.111523 0.210462 -0.0341917 -0.0689039 0.0719043 -0.119492 0.135195 -0.0155693 0.123568 -0.0549229 0.0303329 0.103431 0.0132232 -0.0325601 0.0822622 0.105722 0.00808782 0.221816 0.219128 0.0478256 0.030023 0.178495 -0.150352 0.120146 -0.0701418 -0.110125 -0.0103907 -0.265076 0.0316184 0.0605729 -0.0338139 0.0157946 0.135845 -0.115978 -0.161915 -0.0478285 -0.127868 -0.0643499 -0.0442668 0.0983935 0.0847117 0.00370414 -0.152362 0.10159 -0.115535 0.072597 0.103164 0.119489 -0.0283487 -0.0956835 0.102515 -0.0450734 0.00684121 0.116624 -0.103585 -0.0229007 0.080478 0.0438293 0.02827 -0.127617 0.0253843 -0.014787 0.0140184 0.0488186 -0.153939 0.0381695 -0.117588 -0.0577447 0.172186 0.0229073 -0.0498132 -0.0563884 0.0824658 -0.148848 -0.113284 -0.0146736 -0.0067956 -0.0438869 0.0295551 0.0546371 -0.0376394 0.0655107 -0.00482387 0.106628 0.0169551 -0.028 0.0256823 -0.0138362 -0.166817 -0.0562479 -0.0815522 -0.0986505 0.12699 -0.0952176 0.00363083 0.0982176 0.163724 0.236675 -0.144684
Q55 0.257041 0.0632651 0.123402 0.00906379 -0.144424 0.0968621 -0.115747 0.170858 0.0601945 0.232217 0.0512638 0.0591495 0.0418043 0.0402096 -0.0736124 0.159167 -0.0519729 -0.0420915 -0.0926201 0.0971049 0.123586 0.0283243 0.20662 0.0359577 0.0954953 -0.146972 0.0152827 0.104634 0.0335714 0.0651349 -0.16527 0.141589 -0.03796 0.173805 -0.0817502 -0.0305193 -0.0340237 -0.153316 0.0686077 -0.0666958 0.0776665 0.0977064 -0.140907 0.0388 -0.00861955 -0.0786109 0.0122392 -0.0394456 0.0302756 0.0161214 -0.0167475 -0.0355927 0.082071 -0.117409 0.0183085 -0.10809 -0.031208 0.0148899 -0.278708 0.068301 -0.100321 0.00743193 0.0151967 -0.139097 0.0128784 0.0513855 0.0625838 -0.0844456 -0.0645001 0.0472247 -0.157324 -0.0896609 -0.0122977 -0.0793569 -0.062015 0.0112778 -0.00208788 -0.0475426 -0.0514312 -0.0398328 0.171269 0.101541 0.224764 -0.0305875 0.0603037 -0.163674 -0.099773 0.0246423 0.108305 0.0709543 0.124864 -0.015328 0.0597439 0.111725 -0.0139609 0.148607 0.0309828 0.151831 0.0366395 -0.044985
Q54 0.0675722 0.145882 0.0795549 0.00466757 0.0374068 -0.0401926 -0.0835778 0.134202 0.100189 0.0840535 -0.0818425 0.161703 -0.0483855 -0.076245 -0.184439 0.140279 0.0594658 -0.121554 0.110694 0.234901 0.149727 0.075197 0.131858 -0.13459 -0.148851 0.0814537 -0.0891111 0.0308571 -0.0719705 0.197069 -0.062544 -0.0723979 -0.0611819 0.0223025 -0.0163303 0.110666 -0.194323 -0.0609392 0.0234038 -0.130034 -0.0995936 0.09497 -0.0020851 -0.0248149 0.143991 0.0885852 -0.0436919 0.131213 0.0461361 0.144583 -0.0989626 -0.016617 -0.0107787 -0.103453 0.0867386 -0.0228577 0.00810615 0.171937 -0.0341571 0.124436 -0.117054 -0.0594633 -0.112838 -0.178951 -0.0637029 -0.0322926 0.130742 -0.0902436 -0.0621914 -0.0755747 -0.0395011 -0.111243 -0.0229774 -0.0173138 -0.0997146 0.0371343 0.0638797 -0.0813499 -0.0476479 -0.0799546 0.149368 -0.0202396 0.0399279 0.0383035 0.123471 0.0762588 -0.0893577 0.0571192 0.144433 -0.0492699 -0.0634568 0.0168144 -0.0717774 0.266058 -0.0597331 -0.0852535 0.0316464 0.0302056 0.157719 -0.00386151
Q57 0.208221 0.134777 0.186832 -0.121172 -0.0612329 -0.0458978 -0.0604742 0.048811 -0.0739118 0.0448694 0.102493 0.0256114 -0.0438281 -0.00824275 -0.0847424 0.239287 0.00759039 -0.0131268 0.0729186 0.237114 0.0903039 0.0337098 0.251654 -0.0801257 0.00489129 -0.0322828 -0.0698351 0.0323802 -0.118712 0.0942867 -0.131758 -0.0303816 -0.00705238 0.127562 -0.0540714 0.0390562 0.0327528 -0.0981736 0.088321 -0.090585 -0.0593997 0.0821472 -0.0950288 -0.0336242 0.149593 -0.0243509 -0.00855594 0.109789 -0.00304672 0.183437 -0.156194 -0.0787898 0.118831 -0.0679091 0.0907427 -0.0837689 -0.00912757 0.108715 -0.109303 0.0957099 -0.0715186 0.0511257 -0.0397806 -0.0365322 0.0590173 -0.0517598 0.102803 -0.154344 -0.0124085 0.100583 0.0157364 -0.0751531 -0.0899558 -0.0582087 -0.209143 -0.168961 0.0109085 -0.19419 -0.0366101 -0.0292542 0.133829 0.00148294 0.141302 -0.104834 0.00672284 -0.0584951 -0.0712922 -0.0219883 0.115224 -0.230606 -0.00995882 -0.0968727 -0.024572 0.103221 -0.0558654 0.0830304 0.122552 -0.00124247 0.0632765 -0.0573054
Q56 0.0597411 0.132172 0.125616 -0.025173 0.0514164 0.0261448 -0.0685636 0.0992046 0.122767 0.150118 -0.109532 0.164445 -0.130259 -0.162953 -0.0287354 0.157941 -0.0174872 -0.0469091 0.13409 0.169356 -0.0187067 0.102389 0.220552 -0.0924356 0.069163 0.0762705 -0.111346 0.108569 -0.133802 0.221586 -0.0161891 0.0322791 -0.0353866 0.113117 -0.110134 0.0198643 -0.140743 -0.0591915 0.000669035 0.0231703 -0.0496071 0.0179797 -0.202486 -0.0862335 0.0149947 -0.0147903 -0.11692 0.11628 0.111024 0.0667601 -0.130566 -0.0376565 0.0424208 0.0117226 0.0205583 -0.0152387 -0.0685762 0.114218 -0.0438559 0.154146 -0.034701 0.0710945 -0.041825 -0.155849 -0.0239505 -0.0974409 0.0737753 -0.0827075 -0.0337267 0.0236888 0.0408026 0.0185333 0.0438654 0.0837577 -0.184318 -0.0208249 -0.0277965 -0.0567668 -0.0363014 -0.137505 0.0216597 0.114172 -0.0182784 -0.0239263 0.0709148 -0.0683691 -0.080953 -0.00321614 0.081004 -0.189549 -0.0366701 -0.0479191 -0.103363 0.230193 -0.144664 -0.00450013 0.135808 0.0363891 0.150666 -0.19516
Q59 0.0800905 0.171018 0.165274 -0.142115 -0.00128581 -0.0633771 -0.140994 0.080309 0.100253 0.0444665 0.0417384 0.257386 -0.0849119 -0.111192 -0.0714516 0.187718 0.0450717 -0.122581 -0.013579 0.166395 0.0640766 0.0441657 0.205056 -0.0573991 -0.0293463 0.0507715 -0.120641 0.0145808 -0.104089 0.167259 -0.0525053 0.0509074 -0.00397482 0.0539121 -0.143648 0.00576385 -0.212511 -0.0817547 0.0822113 -0.0329303 -0.0996107 0.0343929 0.000647475 -0.065592 0.0751443 -0.0119118 0.00695548 0.113938 0.0114623 0.15044 -0.101797 -0.082052 -0.0316562 -0.0131658 -0.000136238 -0.0125763 -0.0678239 0.133142 -0.110252 0.123406 -0.0352105 0.0297866 -0.0852265 -0.0850889 0.0603083 -0.113832 0.0160031 -0.167933 0.0306551 -0.115377 -0.0367753 -0.0365783 -0.047579 -0.0955647 -0.110128 -0.105202 -0.0704155 -0.10863 -0.0394202 -0.126656 0.020182 -0.0698276 0.0223678 -0.0709971 0.0385481 -0.0611627 -0.120199 -0.0152359 0.0627287 -0.145646 -0.121829 0.0162425 -0.194309 0.267909 -0.0421066 0.0348261 0.166174 0.0814149 0.11364 -0.0348286
Q58 0.149056 0.0769292 0.078627 -0.0751933 -0.0245288 -0.0025973 -0.00734075 0.15764 0.0226835 0.181799 -0.162042 -0.0814701 0.109617 -0.0388148 0.0227595 -0.0075439 0.0065504 -0.0709723 0.123295 0.268824 -0.00186736 -0.00260185 0.186772 0.0080935 -0.0387551 -0.059429 0.0806718 0.0354858 -0.0781698 0.203977 0.0565802 0.0971056 -0.111317 0.0433 -0.13722 -0.0591073 0.00854714 0.0097727 0.070295 -0.0446438 -0.0834951 0.0726522 -0.049507 -0.0208075 0.0539352 -0.105406 -0.0217012 0.193032 0.0921269 0.0653388 0.0517817 0.0508779 0.0964757 -0.0236878 0.106759 -0.0626029 -0.00641933 0.130884 -0.0781865 -0.0858309 -0.0871397 0.107206 0.0406461 -0.164028 0.0658518 -0.19055 -0.0380419 -0.16819 -0.0583732 0.0781867 -0.111716 -0.0282443 -0.0958169 0.0263741 -0.0860988 0.0863898 0.0398429 -0.0162116 -0.0717491 0.173685 -0.0292181 0.0865284 0.146702 0.0310808 0.0144636 -0.0836627 -0.106797 -0.00597631 0.119073 -0.161857 -0.0804742 -0.0762491 -0.217658 0.1845 -0.146732 0.0185313 0.141387 0.0351278 0.195298 -0.0363354
Q148 0.0441762 0.0176018 0.146912 -0.120476 0.0737403 -0.00856404 -0.128724 0.11048 -0.0259375 0.139033 -0.0410134 0.045043 0.084592 -0.068097 0.0150992 0.21136 0.0633082 0.0325981 0.0741191 0.115557 -0.0329034 0.0217075 0.337711 0.0243745 -0.0464496 0.103268 -0.199422 -0.016598 -0.142489 0.0967414 -0.0386065 -0.0660827 -0.10106 0.0990814 -0.014401 0.0265966 0.044929 -0.144536 0.0517132 -0.169447 0.0142825 0.107851 -0.136602 -0.203208 0.00901832 -0.0975276 -0.0440591 0.0566528 -0.0165094 0.0778404 -0.103021 -0.115168 -0.00795266 0.0494141 0.0733461 -0.115784 0.0583224 0.0707967 -0.0738937 0.0143914 -0.255814 -0.00870201 -0.106842 -0.156553 -0.0780474 -0.0822952 0.00313438 -0.0785518 0.00802544 0.0479625 -0.0554688 0.04805 -0.00693531 -0.082313 -0.151295 -0.128259 -0.00318426 -0.0749381 0.0283744 0.0766077 0.0172729 -0.0443563 0.158385 -0.0252592 0.119331 -0.130933 -0.0161345 0.00469619 0.276521 -0.0929545 0.0248183 -0.0404875 0.0726152 0.115109 -0.0252736 -0.0307337 0.0397259 0.125856 0.135468 -0.0387622
Q149 0.309409 0.0369993 0.0806823 -0.114 -0.157986 -0.194227 -0.133344 0.0884062 -0.0333295 0.0564863 0.0637733 0.0463299 -0.0025619 0.0681983 0.123053 0.119673 0.0216893 -0.0439915 0.00420492 -0.0409507 0.00977443 0.0109729 0.185559 -0.0757448 -0.0378734 -0.028446 -0.0345738 0.0185287 -0.147906 0.0176601 -0.171291 0.00427785 0.0875699 0.11314 -0.116277 0.111816 -0.164483 -0.0319766 0.0588728 0.0744719 -0.0657612 0.0330371 -0.114574 -0.12552 0.0952074 -0.000485315 -0.109696 0.143978 -0.0162151 0.0763485 0.0151871 -0.0951544 -0.0391496 -0.0352873 0.0365557 -0.00391748 -0.102863 0.201526 -0.0270917 0.0947293 -0.0955614 0.097614 -0.0300838 -0.151352 0.0606467 -0.0215175 0.11831 -0.174324 0.0119439 0.00974084 -0.0450288 0.0167329 -0.0401353 -0.02894 -0.210786 -0.125173 0.0471235 -0.100995 0.0296843 -0.0402687 0.130671 0.0310941 0.0460073 -0.110583 0.174765 -0.154769 0.00873209 -0.0444394 0.0995481 -0.223839 -0.0252636 -0.114105 -0.0455358 0.102868 -0.0168156 0.0539528 0.0403745 0.134019 0.19515 0.0583065
Q145 0.00553433 -0.057341 0.0124303 -0.109517 0.0862544 -0.0794575 -0.0924363 0.0766942 -0.0431616 0.205434 -0.170613 0.112894 0.0766541 0.0126025 0.0547085 0.246412 0.0837178 -0.0319122 0.095425 0.147716 0.0199825 0.0840094 0.0864734 -0.00531512 -0.0322481 0.0753574 -0.103039 0.00842968 -0.188552 0.134363 0.107616 0.0562288 -0.0810852 0.00699666 -0.147252 -0.0911509 0.0320321 -0.0113332 0.0320881 -0.0470953 -0.0394019 0.0340296 -0.216651 -0.163571 0.0813248 -0.105899 -0.0556993 0.144677 0.112184 -0.00851689 -0.0937189 0.00814924 -0.0233165 -0.0148924 0.149278 -0.0486258 -0.117992 0.182156 -0.1119 0.0120978 -0.131531 0.0373357 -0.100668 -0.0492231 -0.0480996 -0.118075 0.0907558 -0.180874 -0.00683069 0.0625064 -0.0147533 0.0137254 -0.120769 0.037534 -0.159708 -0.154521 -0.0179479 0.0360928 -0.0196334 -0.0684972 -0.049855 0.113904 0.0403159 -0.0998432 0.146729 -0.130723 -0.12778 -0.029432 0.0215272 -0.210584 -0.0101907 -0.0428007 -0.0571248 0.148924 -0.143669 -0.00646737 0.0491962 0.00564335 0.115011 -0.196796
Q159 0.0343606 0.0805743 0.155629 -0.0144481 0.109573 -0.132475 -0.16661 -0.0473688 -3.48476e-05 0.0650143 -0.0292681 0.0946663 0.0606368 0.111228 -0.0987672 0.145222 0.0614106 0.0724222 0.0441745 0.00372288 0.186987 0.014923 0.196895 -0.0216209 -0.00473037 -0.0864179 -0.170797 0.0330224 -0.182774 -0.0860369 0.0144168 0.045183 -0.0609669 0.110377 -0.0503087 -0.0622099 0.0223839 -0.115322 -0.00233933 -0.0518236 0.0287428 0.0261087 0.0112722 -0.111338 0.135725 -0.139518 -0.0344917 0.124207 0.230047 0.0782965 -0.0795457 0.0490296 -0.155102 -0.0371152 0.0846488 -0.0663975 -0.164202 -0.137659 0.0205603 0.076451 -0.0289743 -0.0956144 -0.0956653 -0.028481 0.0593375 0.0426149 0.0475209 -0.151557 -0.214831 0.00709744 -0.0280479 0.0221895 -0.0569131 0.0296826 -0.102903 -0.14428 0.0359751 -0.0701738 -0.071613 -0.00810243 -0.119752 0.0487151 0.131812 -0.0643774 0.168472 0.0057993 -0.0692696 0.0706141 -0.00650656 -0.20934 0.0240065 -0.282061 -0.135948 0.0805975 -0.0864324 0.0451484 -0.0890067 0.0545805 0.154075 -0.0489735
Q158 0.193102 -0.0913751 0.152342 0.0977483 -0.058839 -0.0970355 -0.0390065 -0.0308652 0.0176315 0.170464 -0.066485 0.0888025 0.0693683 -0.0471094 0.159926 -0.141999 0.00500476 0.00969634 0.0932271 -0.00279934 -0.0179323 -0.0388663 0.0453344 -0.0421595 0.00441169 -0.083781 0.00626926 0.0406068 -0.0771447 0.232555 -0.0187628 -0.0423497 -0.053742 -0.0176198 -0.248863 -0.0120929 0.116591 -0.122479 0.0135404 0.050408 0.00782007 0.127527 -0.0503503 0.0710829 -0.0121712 -0.0388674 -0.00408525 0.107768 -0.0083453 0.137293 -0.203516 -0.0153203 -0.00299956 -0.155035 -0.0407832 0.124313 -0.0573386 -0.171039 -0.122181 -0.0486989 -0.0294105 -0.0424604 0.0741516 0.0341059 0.271836 0.0550838 0.168352 -0.169943 0.0290992 0.1112 -0.0397807 0.051449 -0.0961139 -0.131701 -0.107359 -0.104051 -0.0382568 -0.20868 0.0414132 0.0748955 -0.0477727 0.054464 0.176405 -0.0158237 0.0883582 0.0362561 -0.0520515 -0.0196174 -0.0769696 -0.0468028 -0.00271944 -0.233206 -0.0733961 0.0518225 -0.129322 -0.0186449 0.10102 -0.11172 0.119023 -0.0742026
Q46 0.0375748 0.0834574 0.139619 0.0417757 0.0453926 -0.0486481 -0.0926519 0.0314919 0.08655 0.0446283 -0.0770737 0.0186168 0.202793 0.129516 -0.0745607 0.108979 -0.0499286 -0.0122908 0.120968 0.0351117 0.116992 0.0879444 0.251512 -0.032119 -0.0275573 -0.0835583 -0.150417 0.0330985 -0.22626 -0.11582 0.0114142 0.0571832 -0.0682558 0.0826475 -0.015991 -0.0230066 -0.0809127 0.0404862 -0.0344549 -0.07938 0.0129698 0.0832911 -0.0320593 -0.0238501 0.223318 -0.138224 -0.0565166 0.207262 0.147488 0.145219 0.00545658 0.0789255 -0.0419301 0.000847794 0.197102 -0.0852347 -0.0684102 -0.169825 0.021409 0.031264 -0.0893314 -0.0919698 -0.096162 -0.0701383 0.0361726 0.0194278 0.065946 -0.127619 -0.170597 -0.00327417 -0.0314319 0.0204093 -0.0969501 0.0579535 -0.175929 -0.132098 0.063772 -0.027751 -0.0585046 0.0883914 0.0160389 -0.0375101 0.142305 -0.0722632 0.143632 0.118236 -0.0132548 -0.0263402 -0.00713168 -0.247385 0.0598112 -0.129885 -0.104693 0.0661406 -0.119896 -0.00261883 0.00376625 0.0440646 0.202659 -0.0119288
Q47 0.028316 0.122079 0.205617 -0.155463 0.00880566 0.00202918 0.00587744 0.132752 -0.00558022 0.00239105 -0.0989506 -0.0299935 -0.0790082 -0.0598413 -0.104932 0.188627 0.0514979 -0.105306 -0.0852272 0.174189 0.0426357 0.0381061 0.186136 -0.014888 0.0277287 -0.0377543 -0.186831 -0.0192138 -0.151765 0.120737 -0.015689 0.203546 -0.163761 -0.0117539 -0.0479776 0.0353153 -0.0505135 0.021572 -0.0296865 -0.0564017 -0.116461 0.048559 -0.0308209 -0.162524 0.110781 -0.0359146 -0.0965197 0.222665 0.0565058 0.0821361 -0.158528 0.021361 0.111121 0.00700406 0.0977703 -0.065021 -0.0352618 0.208791 -0.0462982 0.0239821 -0.10482 -0.0722008 0.0531257 -0.0854208 -0.0628466 -0.13936 -0.0103661 -0.143951 0.0916626 0.0890263 -0.159641 0.0499515 -0.0801706 -0.0099683 -0.143015 -0.14538 0.0647361 -0.0539627 -0.102438 0.0114954 -0.000898708 -0.0134075 0.103974 -0.0369328 -0.00840908 -0.0605333 -0.0549709 -0.127678 0.101903 -0.0999339 0.00726899 -0.0284055 -0.143749 0.115229 -0.066286 0.0977107 0.129184 -0.0153214 0.0931619 -0.230934
Q44 0.139191 0.0728846 0.156718 -0.157992 -0.0718801 0.0387488 0.0740884 0.0729773 -0.0114542 0.0653661 0.0245756 0.021681 0.0575373 -0.0996525 -0.0841776 0.129093 0.0213665 0.0501218 0.119336 0.203652 0.0767007 -0.00972702 0.292324 -0.0783869 -0.152324 -0.0250084 -0.139349 0.0321031 -0.0349938 0.137714 -0.0707737 0.0156921 -0.0948772 0.10501 -0.166824 0.0402296 -0.0267737 -0.151092 0.0631038 -0.061529 -0.0762306 0.079727 -0.00980072 -0.0626234 0.00681056 0.00711559 -0.118788 0.156868 0.104659 0.0309925 -0.0457448 -0.0573271 0.155604 0.0167329 0.051836 -0.094587 -0.0043669 0.0818612 0.0197537 -0.0147804 -0.213775 0.00880681 0.112417 -0.0761209 0.0492618 -0.0467689 0.123506 -0.0544818 -0.0142231 0.0925689 0.0194978 0.0359237 -0.0204109 0.0590861 -0.211322 -0.113362 -0.0572027 0.0441906 0.0265796 0.0587197 0.241747 0.0397146 0.150137 -0.126536 -0.0681311 -0.196576 -0.00239518 -0.0803717 0.174493 -0.073821 -0.077479 -0.059856 -0.0662244 0.181036 -0.0556486 0.0361495 0.00947707 0.00186074 0.173027 -0.0981659
Q45 0.0785576 -0.021555 0.0548573 0.0028013 -0.11627 0.0261336 -0.0522093 0.118469 -0.113937 0.0967038 0.0488323 -0.0511165 -0.0743778 0.00383221 -0.133912 0.0623811 0.0613572 0.00186623 0.00545586 0.0378553 -0.125033 0.056851 0.166728 0.00147826 0.0207936 -0.0741767 -0.00504101 0.100344 0.0188304 0.125216 -0.173563 0.0120769 -0.0962219 0.094182 -0.199714 0.0163989 -0.0105896 -0.195348 0.202749 -0.138776 0.0200654 -0.0670046 -0.172383 0.225873 0.0224395 -0.17325 -0.0235848 0.246417 0.251699 0.153865 0.117384 -0.0957539 0.07064 0.0264446 -0.102959 -0.129119 -0.0344269 0.145455 -0.201829 0.00985891 -0.0926041 0.0450344 -0.0248845 -0.0435597 -0.060487 -0.164757 0.0671999 -0.0969106 0.00237582 0.196106 0.0212417 0.0219792 -0.000581426 0.00884804 -0.0151345 0.0009664 0.0796954 -0.0813527 -0.0507103 0.146813 0.0736322 0.0268367 0.065045 -0.0404587 -0.006057 -0.0976961 -0.0369906 0.0246552 0.0868379 -0.0358784 -0.103818 0.0643055 -0.0350894 0.147333 0.0340108 0.0431375 0.193288 0.00914923 -0.0681864 -0.00278537
Q42 0.199393 0.114336 0.0203679 -0.0112768 0.0940686 -0.0504576 -0.210968 0.0765832 -0.0469681 0.242552 0.142502 -0.0809788 -0.0646178 0.102734 -0.169298 0.0753782 0.0351109 -0.0208289 0.118206 0.245209 -0.0241433 0.0100908 0.278381 -0.120976 -0.0989156 -0.0728004 0.0456859 0.163672 -0.192752 -0.0131328 -0.0924057 -0.0134006 -0.00389004 0.126466 -0.0978042 -0.0312569 -0.0285304 -0.01491 0.0888866 -0.142656 -0.0218719 -0.0395997 -0.0198056 -0.00629176 0.132671 -0.134106 0.0536118 0.048955 -0.0787716 0.150014 -0.116767 0.0423755 0.0139182 -0.0701009 0.00542424 0.171299 -0.0671919 0.0493429 -0.0417776 0.00745051 -0.133245 -0.0731644 0.0314789 -0.05699 0.0681261 -0.00773688 -0.0836705 -0.179105 -0.105447 -0.0135173 -0.0838251 0.0599774 0.00783301 -0.047857 -0.0651376 -0.0811888 -0.034712 0.0103486 0.0582245 0.0626765 0.0784756 0.0255569 0.10746 -0.265759 0.0206084 -0.0591139 0.0364989 0.0360117 0.0590853 -0.146991 -0.0726958 -0.0928082 -0.0926763 -0.0410267 0.0820941 0.0252254 -0.101905 0.0836151 0.135019 -0.00997788
Q43 -0.062022 0.095383 0.153395 -0.075407 -0.104775 -0.0717467 0.0474343 0.149005 -0.0488735 0.129899 -0.100148 0.041177 0.0484401 0.0895707 -0.0380845 0.0534277 -0.00149208 0.064363 -0.0948922 0.161269 1.16571e-05 0.0553746 0.266626 0.0332594 -0.0530558 -0.126141 0.00224575 3.15595e-05 -0.0482446 0.0516308 -0.0270221 -0.0375554 -0.112879 0.154313 -0.155073 -0.112782 -0.208523 -0.0127401 -0.0548396 -0.00875034 -0.0803927 -0.0241107 -0.0533785 -0.0956052 0.197665 -0.106945 -0.0927939 0.143129 0.103888 0.0895547 -0.0596444 0.00647748 0.066087 -0.0176432 0.087986 -0.0688323 0.0395837 0.209202 -0.0936568 -0.0118921 -0.0337413 -0.00103049 0.11089 -0.0822946 0.116271 -0.191917 -0.0936587 -0.0828344 0.0141787 0.173669 -0.0124503 -0.0221237 -0.0954895 0.0324596 -0.069041 0.222579 0.0371592 0.021556 -0.139458 -0.00166405 0.0324339 -0.0271242 0.131701 -0.0293276 -0.0285443 -0.225748 0.0368262 -0.0461456 0.188176 -0.0179151 -0.035928 -0.0700058 -0.168092 0.112793 0.059432 0.0530017 0.142011 -0.0498924 0.154833 -0.0686151
Q40 0.190309 0.0363418 -0.000116455 -0.0391766 0.0711391 -0.0210941 -0.0542075 0.0314036 0.0191019 0.148616 0.0442677 0.0519685 -0.027909 0.003688 -0.153077 0.0622263 0.0597236 -0.0698613 -0.0201558 0.186044 0.101747 0.0978016 0.312415 0.0210543 -0.202952 -0.117659 -0.0516405 0.0703998 0.0355582 -0.0567869 -0.0828391 0.0513978 -0.147931 0.122634 -0.193049 -0.016341 0.0255305 -0.0599723 0.117862 -0.00352926 -0.0899603 0.00812736 0.0470781 -0.0136363 0.179279 -0.114315 -0.0941996 0.191922 -0.0443567 0.105398 -0.00956747 0.00246279 -0.0517147 -0.114472 -0.0581734 -0.107926 0.0625915 0.0750989 -0.100086 0.0643252 -0.135255 0.00244359 0.00272624 -0.00565266 0.176404 -0.00237561 -0.102401 -0.0776256 0.0432325 0.159366 -0.148761 0.00378295 -0.00762463 -0.00503339 -0.00250633 0.0954754 -0.0394219 0.0863967 0.057169 0.166204 0.20818 -0.0274679 0.117455 -0.181357 -0.00709785 -0.0618054 -0.00408686 -0.114764 -0.0290783 -0.0807843 -0.140306 -0.161011 -0.085767 0.0387855 -0.0800404 0.0199938 0.0873064 0.0791318 0.185731 0.0840003
Q41 0.0293735 0.0322519 0.0869089 -0.0589893 -0.117212 0.0694857 -0.117578 0.0115434 -0.0171984 0.194196 -0.0813046 -0.0702805 -0.202592 0.0229516 -0.0374209 0.0687315 0.0521694 -0.134927 0.171695 0.178844 0.0449641 -0.0533631 0.273667 -0.0950759 -0.0509689 0.0259536 -0.125652 0.0152501 -0.0646188 0.27548 0.084572 -0.0750963 -0.0498853 0.130819 0.0296122 0.0420196 -0.0542895 -0.0787642 0.145272 -0.0412986 -0.0394675 0.114318 -0.0443347 -0.0251102 0.0946957 0.0604418 -0.162783 0.0270153 0.0926119 0.174567 -0.159114 -0.0263847 -0.0214588 -0.20285 0.132021 -0.0484963 -0.0813974 0.0655626 0.0506819 0.116555 -0.0684309 0.104347 0.02345 -0.18633 0.00694079 -0.156054 0.102678 -0.153918 -0.146772 0.0312367 0.00336724 -0.00995316 -0.0938568 -0.0384181 0.0301155 -0.0732746 -0.100494 -0.128882 -0.0340354 0.0690492 0.0263627 0.063928 0.00625692 -0.0655903 0.0234714 0.064733 0.038787 -0.0966639 -0.0176535 -0.193885 0.0118923 -0.0732954 -0.084717 0.0171897 -0.0112461 0.0511157 0.0611086 0.11748 0.167495 -0.0624923
Q155 0.204292 0.0868617 0.144622 -0.0788853 0.00898268 -0.0672032 -0.0990592 0.164489 -0.0719769 0.188856 0.0606088 0.0765019 -0.0199737 -0.0368753 -0.0107406 0.127528 -0.00672128 -0.0144094 0.0194217 0.120941 -0.0560611 0.0295476 0.113826 0.00731763 0.034544 -0.0352883 -0.145345 0.166008 -0.128495 0.0793624 0.0591706 0.116556 -0.0673463 0.0425162 -0.114927 -0.0871467 -0.113474 -0.120776 0.112728 -0.0561517 -0.0635233 0.000665982 -0.135051 -0.00252365 0.00188762 -0.0685908 -0.0531081 0.252534 -0.00884129 0.0829031 -0.139967 -0.117592 0.0388799 -0.183408 -0.0591574 -0.0565847 -0.103417 0.0613504 -0.0625156 0.070689 -0.170288 -0.0262899 -0.0121301 -0.10778 0.112353 -0.0586576 0.087641 -0.0711589 0.0908331 0.145382 -0.111679 0.0984035 -0.160617 0.0642751 -0.0334168 -0.0342939 -0.0217646 -0.115388 -0.084182 -0.120393 0.0794198 0.0134558 -0.0509582 -0.0448983 0.0219149 -0.0889386 -0.0561209 -0.111433 0.135296 -0.199342 -0.05789 -0.127722 -0.0652513 0.053959 -0.151182 0.0580598 0.162938 -0.170022 0.153692 -0.0776661
Q154 0.0614302 -0.0405264 -0.0318613 -0.0697393 -0.10144 -0.163773 -0.2268 0.0310634 0.0870807 0.180372 -0.09912 -0.00474602 -0.042924 0.0728456 0.0612218 0.0289659 -0.0757739 -0.0827253 0.0790124 -0.116892 -0.0489744 -0.0137032 0.136878 0.000979508 -0.150326 -0.126271 0.154518 -0.0962593 0.0191833 -0.0581578 -0.104525 -0.0863149 0.124815 0.00768345 -0.0650311 0.0531371 0.0405458 -0.0640867 0.0481262 -0.0196687 0.0441786 6.41116e-05 0.0673055 -0.0102536 0.0611592 0.0687795 0.0223228 0.052603 -0.101573 -0.0613267 -0.0170962 -0.190156 -0.171895 -0.092122 0.0174893 -0.097886 -0.0277506 0.149024 0.0427548 0.0821315 -0.01161 -0.00829156 0.0346944 -0.265706 0.0779813 -0.0345057 0.0295593 -0.109483 0.0759987 -0.0903191 -0.292702 0.144891 0.0454387 0.00577334 0.00111967 -0.034908 0.131776 -0.0905045 -0.177974 0.0110196 -0.0618359 0.044416 0.0376078 -0.0626732 0.152539 -0.174177 -0.0537735 -0.0748593 -0.0468961 -0.322393 -0.0613698 -0.0165665 -0.0742027 0.126725 0.0100469 0.0078552 0.157194 0.0833879 -1.89237e-05 -0.0132739
Q157 0.0707319 -0.0717881 -0.128774 0.155627 -0.167229 -0.174914 0.0394812 -0.0240179 -0.0554683 -0.0402737 -0.222188 0.109652 -0.0124102 0.0108803 0.0515304 0.0180687 -0.0867945 0.130202 0.0602268 -0.00815747 -0.134395 -0.0317491 0.0255527 -0.0299554 -0.046328 -0.125169 0.0319459 -0.183323 -0.0268179 0.0110683 -0.20779 -0.0197929 0.0444469 0.0320786 -0.10146 -0.00132823 -0.0485224 -0.0566174 0.0819738 -0.129925 0.0892056 0.206492 0.0217101 0.112213 -0.0530565 0.0182911 0.0225478 0.103651 0.0821562 0.0455843 0.0620524 -0.0995929 -0.113201 -0.0954965 -0.132879 -0.0391743 0.0955607 -0.114152 -0.0661219 0.142976 0.0701234 0.0286187 -0.0733041 -0.04108 0.0436611 -0.178622 0.233274 -0.00493275 0.0455781 0.111635 0.0378254 0.0736125 0.088958 0.148121 -0.138937 -0.135664 0.188194 -0.0215271 0.105977 -0.00984169 -0.0391429 -0.054551 0.0230502 0.139561 -0.0158648 -0.0675169 -0.122001 -0.0294822 0.057896 -0.190176 -0.017879 -0.0994617 -0.0857098 0.0574754 -0.170985 0.139328 0.163643 -0.104887 0.0174169 -0.112807
Q156 0.070254 0.0734293 0.00464073 -0.0380518 0.00236298 -0.0275388 -0.141822 0.0966616 -0.0731477 0.0519503 -0.143529 -0.000783514 -0.078308 0.05864 -0.0863699 0.185684 0.0243466 -0.0506874 0.193726 0.15503 0.0160196 0.0297379 0.265769 -0.0666532 -0.130273 -0.00488645 -0.0926364 -0.00824637 -0.106035 0.0324324 -0.0115927 -0.174604 -0.0715215 0.134624 0.0092701 0.101527 -0.0290953 -0.047191 -0.0775911 -0.0563632 -0.0754934 0.0170962 -0.0301175 -0.028992 0.154892 -0.142743 -0.0942767 0.215106 0.116311 0.144851 -0.203425 0.00773289 -0.00911652 -0.07733 0.0775131 -0.0388177 -0.067022 0.0564736 0.0319455 0.0140615 -0.141825 0.0314132 -0.0480804 -0.0813713 0.0612309 -0.140625 0.154645 -0.171396 -0.159123 0.0710453 -0.00863548 -0.0372222 -0.106754 0.0678071 -0.177913 -0.105358 0.0118318 -0.0266784 -0.0759925 0.053239 0.0490082 0.0517238 0.156305 -0.151829 0.238676 0.0205489 -0.0740397 -0.0370518 0.0558274 -0.180197 -0.0174727 -0.125568 -0.0741883 0.062225 -0.0563591 0.0559977 -0.0898282 0.0314282 0.115084 -0.0581555
Q151 0.0571564 -0.070816 0.00433264 0.0489715 0.146604 -0.0355406 -0.152445 -0.075797 0.0902861 0.157828 -0.0691432 0.0611581 -0.0185694 0.12476 -0.125349 0.0608331 0.186046 -0.0755526 0.0926263 0.0590157 0.0646112 -0.0333337 0.233308 -0.0340232 -0.0439126 -0.0623246 -0.0678127 -0.0246519 -0.131786 0.0630565 0.090762 -0.0795366 -0.0360001 0.0205445 -0.128174 -0.0173685 0.048728 -0.0752751 -0.060144 -0.105119 -0.122247 -0.067903 0.0223649 -0.139492 0.0854474 -0.0849097 -0.084153 0.225663 0.116408 0.131918 0.0470345 -0.0145339 0.0438503 -0.0436416 -0.0225086 0.164243 -0.0223502 0.00826962 -0.0783853 0.0661927 -0.00919785 0.0135338 0.0709132 0.0117808 0.030629 0.00131336 0.0512468 -0.134569 -0.110241 0.172506 -0.0449004 -0.0795031 -0.0283592 0.0110872 0.0456761 -0.0793844 0.057925 -0.109614 -0.238506 0.0597735 -0.0200113 -0.0227719 0.0840761 -0.151175 0.164703 -0.197971 -0.075873 0.0379559 0.236158 -0.221078 -0.0832801 -0.047124 -0.075047 0.0606779 -0.157745 -0.019226 -0.173824 0.0409343 0.15252 -0.0334636
Q150 0.0291432 0.0797262 0.0352387 -0.0353911 -0.0471875 0.151035 -0.0864218 0.0400677 -0.065399 0.175334 -0.150069 0.10335 -0.0900731 -0.12915 -0.125207 0.149418 0.0394449 -0.0981382 0.128797 0.261283 0.00966263 0.118777 0.171933 -0.113764 0.00486345 -0.0874192 -0.173651 0.139604 -0.102549 0.101302 0.0274152 -0.00260015 -0.0527631 0.145736 -0.039571 0.0649219 0.0810523 -0.137051 0.119848 -0.129467 0.0113275 0.133275 0.0905018 -0.0764726 0.146985 -0.0316944 -0.143463 0.0190131 0.0511093 0.0516744 -0.0424912 -0.0189757 -0.0894591 -0.113228 0.040799 -0.0597025 -0.148756 0.142788 -0.0411655 0.041044 0.0166181 0.0255991 -0.0018227 -0.024664 0.0287888 -0.114558 0.0183801 -0.0770567 -0.13834 0.000181818 -0.0977214 0.126878 -0.0063847 -0.00620655 -0.0231896 -0.11213 -0.0539082 -0.189622 0.0153381 0.00250993 0.0395535 -0.0186298 0.0105126 -0.0850807 -0.0036135 -0.0682252 -0.0798379 -0.0576199 -0.0249846 -0.280209 0.126519 -0.0447275 -0.136024 0.124038 -0.139683 0.147552 0.0611451 0.118426 0.0932568 -0.105656
Q48 0.249238 -0.0651086 0.11372 -0.0796083 -0.132435 -0.0103494 -0.190308 0.174096 -0.0303505 -0.0516842 0.115871 0.0980233 0.0953872 0.0361433 0.0480092 0.0653313 -0.0532828 -0.138504 -0.0200464 0.0642049 0.173358 0.196097 0.0994847 0.0179538 -0.0177588 0.00901278 -0.15033 0.116953 -0.0866856 -0.13786 0.0581527 0.16504 -0.039269 0.161141 -0.0362831 -0.0245714 -0.0854677 -0.0450778 -0.0756929 -0.0263628 -0.0635177 0.175437 -0.0159937 -0.04122 0.161053 0.0853303 -0.0149232 0.0445018 -0.0307844 0.166522 0.00979471 -0.0267639 0.156773 -0.0907426 0.08212 -0.0899498 -0.103936 0.0964316 -0.0986774 0.0585459 -0.045228 0.125604 -0.0654337 0.0617591 0.00573869 -0.0316191 0.0268847 -0.145377 0.0245759 0.16697 -0.00393174 -0.0355987 0.0643122 0.00489011 -0.142037 0.0770078 -0.00319521 -0.154296 -0.0714391 -0.106887 -0.00777998 0.0303019 0.110366 -0.123059 -0.0395884 -0.175227 -0.0901987 -0.0908287 0.184722 -0.0726485 0.0636344 -0.152329 0.0945635 0.128053 -0.138047 0.0882594 0.0252606 -0.0613618 -0.0101538 0.101165
Q49 0.172759 0.14787 0.19211 -0.0216854 -0.10468 -0.130947 -0.0822773 0.112481 -0.068162 0.163196 -0.0107289 0.150546 0.0191138 0.0197415 -0.0153212 0.0545602 -0.0445704 0.0935795 -0.00497058 0.0151791 0.00927917 0.0165417 0.051647 -0.0870743 0.111668 -0.00666435 -0.0135636 0.0387058 -0.172075 0.0460158 -0.0678772 0.105122 -0.0289159 0.182499 -0.0983299 -0.0320209 0.0734461 -0.148792 -0.105146 -0.0920141 0.0691653 0.20904 -0.0874679 -0.0889652 0.191993 -0.0744474 0.0781434 0.179331 -0.201699 0.0683191 -0.115389 -0.0129929 -0.102364 -0.243699 0.0433761 0.00834382 -0.0372367 -0.0675508 0.0307231 -0.0658659 -0.158298 -0.0320836 0.0317675 -0.0479262 0.0887998 0.0574346 0.00758095 -0.0782652 0.0430177 0.247348 -0.0169594 0.0623894 -0.102269 -0.0383499 0.00632422 -0.0216961 0.00622816 -0.0314589 -0.0394546 -0.17226 0.0543657 -0.00883362 0.018957 0.105158 0.0548451 -0.0906364 -0.0545956 -0.0715826 0.0871924 -0.0907275 0.00905864 -0.19934 -0.00993695 0.183757 -0.11865 0.0706859 0.186127 -0.036125 0.0747858 0.0331035
Q153 0.0649462 0.277782 0.0368126 -0.0360931 -0.0443295 -0.002491 -0.082357 0.0203919 -0.0800538 0.0720274 0.142016 0.117028 0.0481083 -0.0125956 0.0304709 0.123762 0.0129643 0.022337 -0.0661115 -0.017187 0.0424532 0.0442947 -0.0263467 -0.149131 0.0852294 -0.135563 -0.117401 0.00252214 -0.0218875 0.0286001 -0.0625947 0.117 -0.0528249 0.130722 -0.145316 -0.0934326 -0.177294 0.130672 0.0854255 -0.0597645 -0.0407649 0.00462172 -0.106981 -0.0875455 0.0991861 0.110557 -0.0193951 0.0566924 -0.0131281 0.009858 -0.0784477 0.0106314 0.0656231 -0.115406 -0.100948 -0.0641408 -0.0108225 0.113885 -0.0397898 0.0866715 -0.117252 0.0162169 -0.0084319 0.133351 -0.103409 -0.133477 -0.14906 0.026958 0.199197 0.0176072 0.0482461 -0.0374151 -0.0442775 -0.146948 -0.179773 -0.124957 0.192969 -0.128993 -0.186523 0.0506616 0.0488677 -0.0929205 0.148191 0.0439853 0.0499912 0.0408549 -0.127442 -0.124047 0.0974273 -0.0848968 -0.133008 -0.0874017 0.111234 -0.0402577 -0.0594062 -0.0319134 0.290813 0.0517517 0.156867 -0.0561291
Q152 -0.0152979 0.0130663 0.0374614 -0.0576981 -0.0127567 0.0569984 -0.13861 -0.0554466 -0.0164749 0.10714 -0.115662 0.0507371 -0.177224 0.0427031 -0.120127 0.0248572 0.223383 0.0690264 0.116942 0.211989 0.113219 0.0620426 0.254156 -0.0574589 -0.0841118 -0.0138447 -0.125182 0.0243684 -0.161486 0.142972 0.0482479 -0.100597 -0.0874165 -0.0404902 -0.140204 -0.00391089 0.0885298 -0.0349761 -0.0114251 -0.0772289 -0.168285 0.00535359 0.0419693 -0.116352 0.0185613 -0.014337 -0.0943145 0.246406 0.0143035 0.154776 -0.060723 0.0184548 0.0181182 -0.11828 0.0794239 0.0876716 -0.0464524 0.0349416 0.0351034 0.0325737 -0.00690803 0.0657659 -0.0022024 -0.084597 0.0407656 -0.087566 0.111061 -0.0910223 0.0243672 0.169437 -0.0158624 -0.0424494 -0.0650884 0.0463226 -0.050955 -0.0943624 0.0553525 -0.126271 -0.16263 0.0619816 0.0353509 0.0239436 0.16608 -0.0403797 0.0805993 -0.0693434 -0.0695491 -0.00723656 0.208884 -0.2043 -0.135202 -0.0111794 -0.125375 0.10143 -0.161509 -0.00345355 -0.10904 0.0942975 0.142189 -0.0928385
Q128 0.0077442 -0.0578002 0.106308 -0.00956261 -0.107275 -0.0499721 -0.0323726 0.026138 -0.0288026 0.173894 -0.190621 -0.148337 -0.0894591 0.0292329 -0.0631616 -0.0646403 0.115918 -0.130494 0.120964 0.207342 0.0411794 -0.0102047 0.194945 -0.104184 -0.0258701 0.0106027 0.00938943 -0.0114037 -0.103028 0.303577 0.0282563 -0.0963268 -0.00774207 0.149473 0.0114838 0.0154795 -0.00267991 -0.0435143 0.0422063 -0.0391467 -0.00322027 0.0687211 -0.145557 0.00919958 0.137586 -0.0733873 -0.118359 -0.0278825 0.125165 0.207953 -0.0958827 -0.035339 0.133879 -0.12106 0.100616 -0.105978 -0.0816493 0.117672 -0.0866712 0.139654 0.0136434 0.0379527 0.0624544 -0.0630618 -0.00131441 -0.107992 0.125423 -0.273792 -0.113714 -0.016465 -0.0589893 -0.10986 -0.0412734 -0.0358831 -0.0944168 -0.0995296 -0.00353738 -0.0781071 -0.0119912 0.0123643 0.124949 -0.00756545 0.0320348 -0.144737 0.0355963 0.0715355 -0.0330926 -0.188387 0.0907161 -0.171626 0.0138038 0.01122 -0.041066 0.0479503 0.0038721 0.0869797 0.0623953 -0.0277027 0.154206 -0.138106
Q129 0.0970184 0.161949 0.0741545 0.048287 -0.155802 -0.149729 0.0127246 0.0464862 0.095511 0.0896594 -0.0765064 0.0799021 0.0711519 -0.0178634 0.0561395 0.280725 -0.149855 -0.0687491 0.0447575 0.0296624 0.0357056 -0.118912 0.150053 0.084514 -0.0465269 -0.113368 0.0612273 -0.0305624 -0.15861 0.0470749 -0.106384 -0.153258 0.00205711 0.128573 0.0358616 0.0453126 -0.072915 0.0803774 0.0129154 0.0473429 -0.0141734 0.118079 -0.0661484 -0.0189603 0.0285187 0.0266514 -0.000117398 0.266358 0.00569639 0.0877184 -0.106303 -0.195481 0.0278832 -0.00175796 0.0105793 -0.162657 -0.0231658 0.0301314 -0.079627 0.144066 0.131616 -0.0143367 -0.0917418 -0.190632 -0.00862791 -0.177395 0.0412757 -0.170005 -0.0134322 0.0522027 -0.130616 0.122304 -0.0504247 0.0748435 -0.227768 -0.0758919 0.0906038 -0.114548 0.03237 0.0247979 0.0285437 0.0585863 0.0476721 -0.0174595 0.134328 -0.0407186 -0.14663 0.127517 0.0663511 -0.141799 -0.105585 -0.173288 -0.0605132 -0.0239685 -0.00155255 0.0597262 -0.0180413 0.0105818 0.0896078 -0.0289396
Q120 0.0667822 0.0858906 0.154514 0.0333323 0.12775 0.0243954 -0.0804506 0.0546136 0.119954 0.0577282 -0.0864862 0.0324563 -0.0521328 0.0741324 -0.113672 0.179379 0.0289389 0.0467501 0.041373 0.0863687 0.121948 0.0885572 0.327191 -0.0307426 -0.046555 0.051774 -0.119759 -0.0137277 -0.133123 -0.102255 -0.00710188 -0.0519921 -0.087518 0.100803 -0.0560928 0.00402855 0.0149127 -0.036926 -0.0152564 -0.0626592 0.0628568 0.0209046 -0.0175619 -0.0702263 0.113599 -0.132161 -0.194484 0.184733 0.122254 0.115619 -0.0752635 0.0184485 -0.0510146 -0.0355735 0.0630749 0.00988095 -0.11798 -0.143727 -0.0855838 0.0267026 -0.0622419 0.0283296 -0.159191 -0.0815492 0.10458 -0.079027 0.060333 -0.0796427 -0.14436 0.0453479 0.02194 0.0147525 -0.0203741 0.0258607 -0.130627 -0.165697 0.143232 -0.0550763 -0.00125295 -0.0172441 -0.0374415 0.0351345 0.0841294 -0.162046 0.198296 0.0382513 -0.0244193 -0.0652681 -0.00535564 -0.239241 0.0755426 -0.221799 -0.18296 0.121177 -0.10946 0.049218 -0.079146 0.117276 0.0795167 -0.0301094
Q121 0.0330535 0.108906 0.0274072 -0.0809731 -0.0209407 -0.039566 -0.182732 0.0928161 -0.0623005 0.170072 0.00201162 -0.0156052 0.11712 0.00381705 0.0134717 0.177016 0.0639911 -0.0172985 0.11182 0.104771 0.113205 0.115592 -0.00591273 0.0776379 -0.0290308 0.0277723 0.0443337 0.0148593 -0.146986 0.299765 -0.0824973 0.0328839 0.0268611 0.0549364 -0.14257 -0.0170372 0.0566522 -0.0918192 0.0494182 -0.0325963 -0.0716188 0.0133307 -0.0133409 -0.119613 0.0837309 -0.0300534 -0.0246699 0.0852724 0.143376 -0.00400715 0.0448754 -0.0655002 0.0179314 -0.0144289 -0.0731044 -0.0867279 0.0794149 0.0521686 -0.267098 0.00601067 -0.129565 0.0207239 -0.0028185 -0.0413612 -0.0427865 -0.0982857 0.059001 -0.136445 -0.20495 0.00885528 -0.215871 0.0645312 -0.116057 0.0455438 -0.123156 -0.150966 0.109722 -0.132087 -0.167479 0.0570347 -0.0632345 0.0224824 0.0520116 0.00557604 0.0830897 -0.0738096 -0.0803357 -0.0442774 0.00472861 -0.306501 -0.0524195 -0.0769152 -0.0592326 0.141228 -0.0245855 0.0928669 0.172351 -0.00466298 0.12334 -0.10236
Q122 0.0462782 -0.0116359 -0.0349157 -0.0245072 -0.0606046 -0.0276318 -0.0744353 0.0986967 0.0660666 0.0649451 -0.0579474 -0.00271107 -0.0445359 0.0119388 0.045797 0.214289 -0.083828 -0.130479 0.118899 0.139735 0.0220574 -0.107026 0.265089 -0.0799143 -0.0792184 0.0523134 -0.125909 -0.0187466 -0.255836 0.0453899 0.00593278 -0.0966909 -0.0928598 0.126653 -0.0689505 0.0928884 -0.0626359 -0.0313492 0.0239843 -0.0672913 0.0226412 0.0524007 -0.0488059 -0.0439382 0.173233 -0.141908 -0.0372129 0.127029 0.0282763 0.134834 -0.130946 0.05712 0.036162 -0.152374 0.200216 -0.00865144 -0.0977257 -0.0176549 0.0698875 0.0704267 -0.0328915 -0.0320751 -0.115249 -0.146392 -0.0275664 -0.113123 0.0437286 -0.265153 -0.0699732 0.0230984 0.00544585 0.0625124 -0.12578 0.0706933 -0.16708 -0.0141342 -0.0396774 -0.0558676 -0.0788977 0.0706349 -0.0144442 0.0903239 0.149462 -0.0607848 0.187111 -0.0166393 -0.0221133 -0.0280211 0.0545292 -0.155679 -0.0386996 -0.130782 -0.0778555 0.0917959 0.0481617 0.0137531 -0.00376373 0.150503 0.202922 -0.155456
Q123 0.210182 -0.0351911 -0.0151661 0.0565426 -0.0291978 -0.0362639 -0.0345782 0.0708376 -0.0360302 0.234476 0.151456 0.0794135 -0.131248 -0.127127 -0.148838 0.0468983 0.0544346 -0.103069 -0.0531545 0.0767054 0.107771 -0.0556036 0.15128 -0.0437047 -0.140145 -0.109344 -0.0745484 0.0751577 0.0502607 0.0918794 0.0259146 0.0596073 0.0172339 0.00223754 -0.108049 -0.0968911 -0.11713 -0.0232725 0.122516 0.0221582 -0.138381 0.126932 -0.0974212 -0.0740937 0.206986 -0.0877746 -0.0795546 -0.0436537 -0.0369991 0.16673 -0.0366509 0.0890291 -0.0930222 -0.167229 0.0226274 -0.0352905 -0.0088657 -0.0666106 -0.233207 0.114957 -0.0763134 0.0324879 0.0140983 -0.0617908 0.235917 0.0678302 -0.03298 0.048446 0.0492941 0.0220922 -0.145919 -0.02685 -0.0563187 -0.0450672 -0.103885 -0.0129468 0.0210007 0.0182062 -0.0166436 0.0286907 0.117888 0.0685586 0.141328 -0.16567 0.0153774 -0.05371 -0.00357173 0.041727 0.156581 -0.0863767 -0.109872 -0.197136 0.0550975 0.0877349 -0.00397778 0.10119 0.112478 0.180475 0.144015 0.111036
Q124 0.0737376 -0.025197 0.115488 -0.0312267 -0.100304 -0.124613 -0.180412 0.148072 -0.0732683 0.035152 -0.102492 0.199764 -0.0380373 -0.0955549 0.0158291 0.161795 -0.0703426 -0.0689534 -0.0257384 0.0869637 -0.0765328 0.00367826 0.149458 -0.0661357 -0.000265704 -0.00157874 0.0304381 -0.179247 -0.187731 0.101052 -0.0801966 -0.00295797 -0.169736 0.118019 -0.170469 -0.0375249 -0.0849433 -0.0540588 0.0628489 -0.0430997 -0.0763033 0.0749522 0.000742947 -0.0108116 0.190418 -0.10535 0.0404102 0.00397005 -0.0120959 0.0338281 -0.0834726 -0.0920326 -0.196665 -0.00978509 0.0339794 -0.149059 0.126172 -0.00251457 -0.0936383 -0.134313 -0.0420337 0.0455692 -0.0306722 -0.0179667 0.00813766 -0.134025 -0.0889772 -0.101257 -0.0946222 0.135656 -0.0183542 0.116345 -0.192484 -0.000385424 -0.0943063 -0.128896 0.218346 -0.0447642 -0.187756 -0.0247101 -0.0815089 -0.0513016 0.0363832 0.0471941 0.0920945 -0.0011945 -0.121384 -0.129814 -0.0284226 -0.122508 -0.16514 -0.00176315 -0.040494 0.201392 -0.0767907 0.0314543 0.10026 -0.0975631 -0.00238013 -0.0588539
Q125 0.073615 0.0754064 0.118215 -0.137431 -0.101167 -0.154856 -0.100158 -0.0242518 0.00123444 0.0983233 0.000168453 0.154712 -0.023175 0.120764 -0.00255075 0.0252668 -0.159951 -0.0363731 0.0506391 0.0343162 -0.024322 0.00245042 0.158311 0.0345819 0.041556 -0.0446262 -0.102855 0.130851 -0.244399 0.00801736 -0.0203301 -0.106019 -0.0265891 0.105022 -0.0501788 -0.0156882 0.0701935 -0.0180488 0.0587842 -0.0601148 -0.0498378 0.109214 -0.000301747 -0.0369897 0.0773345 -0.125868 0.0777001 0.177356 -0.0963609 0.10826 -0.123886 -0.0104781 0.028964 -0.107109 0.12798 -0.112411 -0.108242 -0.067833 -0.0854984 0.135139 -0.0690552 -0.134025 -0.170603 -0.0722739 0.0695408 -0.0220629 0.0413289 -0.14241 -0.0738779 0.133641 0.0400622 0.0241638 -0.216606 0.00443782 -0.187237 -0.15778 0.0259469 -0.11547 -0.225614 -0.13167 0.0892358 0.0515784 0.0623053 -0.159866 0.131659 -0.0875745 -0.0148174 -0.0415669 0.0157336 -0.16969 0.0757776 -0.0962483 -0.0345637 0.105915 -0.0709196 0.0850737 0.169954 -0.0217484 0.124821 -0.0127538
Q126 0.108168 0.148734 0.119242 -0.0421158 -0.0255661 -0.0890956 -0.0185121 0.0915504 -0.114766 0.0988753 -0.040389 0.0475134 -0.0759878 0.00459784 -0.0784379 0.0137499 0.0183793 -0.178633 0.166888 0.245824 0.0774376 0.0124208 0.235483 0.0196148 0.0333837 -0.00411293 -0.263353 0.0146438 -0.0675514 0.130936 0.0568558 -0.0446943 -0.0527154 0.0612889 -0.0917979 0.0444601 -0.07385 -0.0589307 0.108423 -0.0894273 -0.0863309 0.0353544 -0.0747252 -0.0118093 0.134918 -0.161956 -0.127858 0.0197415 0.0162821 0.0691071 -0.0941115 -0.0471704 -0.0356208 -0.145463 0.241224 -0.00750696 -0.000576274 0.0379647 -0.146656 0.0392926 -0.0811301 0.062598 0.0504462 -0.012663 0.0581797 -0.00404456 0.0113181 -0.209972 0.0373479 0.0702663 -0.0244948 0.0545833 -0.115905 0.0154867 -0.0449014 -0.0849238 -0.0295894 -0.150757 -0.00541823 0.0267995 0.0318739 -0.0642794 0.124963 -0.0236216 0.0367624 -0.168369 0.0533559 -0.0100793 -0.00169091 -0.202982 0.00637553 -0.196121 -0.139435 0.136859 -0.0908709 -0.0625479 0.164711 -0.0219841 0.203756 -0.00998418
Q127 -0.0519616 -0.0420145 -0.0493249 -0.0478963 -0.0467166 0.110674 -0.136369 -0.0523967 -0.00390017 0.228037 -0.135306 -0.121857 -0.176932 0.0431262 0.0258631 0.0765241 0.0932963 -0.0414008 0.175373 0.19343 0.133722 0.000934471 0.279382 -9.12503e-05 0.0052532 0.0453538 -0.135598 0.00890766 -0.119181 0.24332 0.0104438 -0.101199 -0.0052551 0.0558894 0.0779564 -0.0360032 -0.0802448 -0.0755148 0.0789798 -0.0798149 -0.0297459 0.0788925 -0.00636631 0.0643174 0.0260151 0.0549969 0.0583609 0.0560804 0.0360517 0.0666047 -0.107349 0.0228132 -0.0684242 -0.205766 0.0745786 0.0186332 -0.13619 0.200783 0.082553 0.0617985 -0.147295 0.00376053 0.0276237 -0.0736003 -0.102003 -0.203909 0.10551 -0.170402 -0.135992 0.0919485 -0.0105097 -0.0700582 -0.0373534 0.0378373 -0.0921662 0.051127 0.111527 -0.137487 -0.0572637 0.105741 -0.0107926 0.0995937 -0.00894642 -0.0750537 0.00376995 0.0230663 0.0204687 -0.0777529 0.0768962 -0.176165 -0.0828141 -0.00789801 0.0168805 0.0810591 0.0517218 0.145341 -0.039784 0.0240278 0.203155 -0.043088
Q33 0.150681 0.0919799 0.136877 -0.0634513 0.0606065 -0.0193286 -0.023129 0.127721 -0.0283414 0.00291354 -0.0949194 0.187484 0.00512836 0.0202127 -0.131362 0.160726 0.0649543 -0.10818 0.0481648 0.221666 0.0913376 0.0452459 0.28529 0.0561632 -0.173192 0.0569923 -0.115855 0.00863179 -0.051245 0.0618758 0.02438 0.019782 -0.0920052 0.11948 -0.149644 0.0221993 -0.161289 -0.116393 0.00914753 -0.0626973 -0.169892 -0.0588777 0.00946161 -0.0434075 0.0689845 -0.0680417 -0.117679 0.274132 -0.0111657 0.128558 -0.0786024 0.0478218 0.0614517 -0.0562079 0.030445 0.0904776 -0.0139207 0.149433 -0.116747 0.0922954 -0.0413831 0.03089 0.0142417 -0.120326 0.0361321 -0.0451986 0.0367992 -0.138399 -0.0251708 0.116318 -0.0072582 -0.0551572 -0.0706255 0.0606585 -0.124794 0.0836981 0.00697695 -0.01145 -0.102393 0.0369134 0.074558 0.0217691 0.0601198 -0.0609134 0.0588291 -0.10522 -0.0538712 -0.04522 0.2211 -0.101735 -0.0878191 -0.0690566 -0.182876 0.196076 -0.0981366 0.0360942 0.0966876 0.0269496 0.109467 0.0359385
Q32 0.0961225 0.130534 0.100942 -0.137694 -0.0420893 -0.0762668 -0.133822 0.141065 -0.110693 0.0979723 -0.000710653 -0.0354272 -0.143701 0.018793 -0.0560259 0.10697 0.0217987 -0.154443 0.1835 0.168242 0.0549114 0.0834504 0.248809 -0.138975 -0.0742988 0.0529622 -0.04668 0.116422 -0.204538 0.173274 0.0241373 -0.103023 -0.0696634 0.134001 -0.0889379 0.106913 -0.0513093 -0.0232791 0.131999 -0.0702327 -0.0482549 0.0354888 0.0173852 -0.0691883 0.14662 -0.0767817 -0.03318 0.0855955 -0.0108788 0.0839778 -0.119833 -0.0523374 -0.128041 -0.133774 0.105807 0.0214949 -0.0564053 0.0651725 -0.0192642 0.00814165 -0.0354761 0.0510346 -0.018578 -0.0921188 0.0346887 -0.159709 0.103741 -0.269089 -0.084657 0.0176876 0.0715093 0.024196 -0.117589 0.0482098 -0.184519 -0.109342 0.00446814 -0.0310144 0.0731602 0.0519249 0.075409 0.0382254 0.136537 -0.069621 0.0739675 0.024821 -0.0499305 0.0378249 0.0206253 -0.17417 0.0224627 -0.119945 -0.0189175 0.0794544 -0.0367316 0.030393 -0.0662221 0.161056 0.124834 -0.132339
Q31 0.0522774 0.00970274 -0.0236346 -0.0333436 0.0313116 0.0289528 -0.137411 0.0134998 -0.0613027 0.136382 -0.0592268 0.0188433 -0.0792732 0.083003 -0.148219 0.101967 0.1159 0.00512973 0.158264 0.150869 0.15609 -0.0335935 0.277791 -0.039466 -0.0906174 -0.0353744 -0.0932926 -0.0175211 -0.156562 0.114869 -0.00620564 -0.0340766 -0.0629185 -0.0112693 -0.0755312 -0.0148386 0.0268237 -0.107349 0.040367 -0.124637 -0.0630404 0.0115364 -0.0344277 -0.122676 0.0727033 -0.180259 -0.0540118 0.236612 0.127448 0.153023 -0.0508904 -0.0636957 -0.0694446 -0.07261 0.0905154 0.0782127 -0.108521 0.103314 -0.00892472 0.0443603 -0.0482005 0.133364 -0.0847759 -0.0864178 -0.00417827 -0.137585 0.154555 -0.106129 -0.153663 0.129381 -0.0181657 -0.0227221 -0.0342155 0.00826259 -0.0808978 -0.0264259 0.171022 -0.1643 -0.161106 0.0819176 -0.00882345 -0.0225855 0.189442 -0.0215819 0.142676 -0.109211 -0.0346027 -0.112766 0.127813 -0.198169 0.0252154 -0.0595827 -0.0333983 0.149689 -0.0739162 0.137426 -0.00722954 0.029745 0.0921017 -0.0258613
Q30 0.149667 0.168938 0.123533 -0.070113 -0.0323791 -0.18134 -0.0650861 0.034045 0.0084315 0.344105 0.091161 0.0617542 0.00736517 0.150784 0.0429911 0.0355087 0.0563159 0.021539 0.0857333 -0.182311 -0.0203446 0.0333166 0.127355 -0.165178 0.0628252 -0.154005 -0.131085 -0.0335423 -0.263288 0.145807 -0.0479919 0.0698539 0.110273 0.0351369 -0.0859926 0.0147124 0.102088 -0.150992 0.0870065 -0.138449 0.0764223 0.133187 -0.0858825 -0.0905339 0.00943639 -0.0671616 0.0734065 0.176897 -0.0305117 0.0391011 -0.1615 -0.112941 0.0326126 -0.0923223 -0.0717272 -0.0608199 0.00559465 -0.144497 -0.078984 -0.0188748 -0.063768 -0.0742764 -0.00652357 -0.00371078 0.052715 0.0173087 -0.0508771 -0.0210517 0.185348 0.167561 0.0346989 0.0123527 -0.0915706 0.000123158 -0.0340137 -0.0718474 0.024593 -0.0456532 0.0227297 -0.0651765 -0.0257513 -0.0052099 0.036498 0.0255709 0.125776 -0.104196 0.0141492 -0.00994148 0.167441 -0.0102318 -0.127501 -0.0944126 -0.110743 0.133234 -0.0207165 0.127411 0.112545 0.0190675 -0.0538329 -0.0645983
Q37 0.284012 -0.00384055 0.16255 -0.00266179 -0.0933761 -0.135278 -0.0138415 0.0466749 0.0864692 0.124209 -0.173998 0.0667334 0.0551192 0.0598926 0.0498293 -0.0543555 0.009672 -0.028501 0.0534263 0.0976482 -0.00654025 0.0205153 0.155091 -0.0802883 -0.0358693 -0.121445 -0.0336245 -0.0196799 -0.0778623 0.10738 0.0213518 -0.0350523 0.0521365 0.0160754 -0.231882 -0.00707633 -0.0216631 -0.19241 -0.0328888 -0.0500226 -0.034138 0.0178484 -0.0650947 0.0582413 0.0153172 -0.0820588 0.0278964 0.103882 0.00834745 0.101599 -0.167647 -0.0244999 -0.106157 -0.112603 0.0461338 -0.0730309 -0.0676273 -0.0458484 -0.0845712 0.0124457 -0.0704451 -0.0456413 0.0120511 -0.0439178 0.144708 -0.0046465 0.0679293 -0.250328 0.0029854 0.206973 -0.0639222 0.0545467 -0.122663 0.0437477 -0.174473 -0.131925 0.0550706 -0.14088 -0.116763 0.0244548 -0.136621 -0.0297166 0.166876 -0.0567343 0.0262186 -0.110676 -0.0914403 -0.0394705 -0.113042 -0.173195 0.0222777 -0.22512 -0.113499 0.096464 -0.101378 -0.00914807 0.133939 -0.113666 0.114354 -0.0980453
Q36 -0.0115513 0.0291404 -0.110989 -0.0665976 -0.00577765 0.0157189 -0.200479 0.0438682 -0.0486612 0.0819495 -0.110299 0.0831705 -0.168971 0.0751155 -0.141768 0.15169 0.0917215 -0.17357 0.180953 0.155915 0.184057 -0.0422746 0.26325 -0.0439149 -0.0336579 0.0515822 -0.0971491 -0.0063935 -0.0747624 0.160642 -0.00797189 -0.0903126 -0.0869341 0.0767594 0.0736672 0.174824 -0.126546 -0.0588541 -0.042042 -0.104708 0.004577 0.01063 -0.176147 -0.00122388 0.175921 -0.0616401 0.00681982 0.152406 0.0180788 0.131758 -0.119646 0.0735616 -0.0298335 -0.144554 0.125749 0.0821122 -0.164399 0.0964738 -0.0746488 0.141602 -0.0779343 0.0118427 -0.0196632 -0.157912 -0.00999539 -0.00779268 0.139602 -0.208971 -0.089396 0.0765053 0.00447465 -0.0659284 -0.0787505 -0.00849075 -0.0855871 0.0168891 0.0254713 -0.0564716 -0.022923 0.0299982 0.0113981 0.0739415 0.0519506 -0.0436304 0.158856 0.0925989 -0.0253678 -0.0353395 0.127407 -0.0243527 -0.0551145 -0.0244388 0.0577508 0.115818 -0.0406183 0.0777875 0.0148452 0.0044803 0.185989 -0.0813674
Q35 0.278837 0.00259702 0.0805584 -0.099011 0.0530815 -0.0872519 -0.156621 0.0973513 0.0142029 0.00842564 -0.0136017 0.18828 0.00176675 0.190964 0.0559814 0.0978407 0.100418 -0.123069 0.0153644 -0.0680937 0.0254241 -0.0244074 0.128467 0.0976194 -0.00145387 -0.0297409 -0.0807755 0.00871909 -0.0961222 -0.057395 0.00240914 -0.0345855 -0.151256 0.07027 -0.0524685 -0.0433873 -0.147538 -0.0823488 0.0517576 -0.0632813 -0.0706725 -0.0749882 -0.0080519 -0.0284592 0.0374035 0.0147669 -0.218696 0.185949 -0.0757153 0.00539037 -0.0286299 0.0372369 -0.0197611 -0.080438 0.0185039 0.00818958 -0.0519921 -0.00683284 -0.0987556 0.0589778 -0.0430555 0.018102 0.0135394 -0.00969577 -0.0217166 -0.00425795 0.0633018 -0.124293 -0.0312257 -0.031259 -0.128602 0.125345 -0.102493 -0.136151 -0.204139 0.0408141 0.107378 0.0394176 -0.035742 0.040631 0.155512 -0.0740837 -0.102096 -0.108553 0.174149 0.111718 -0.0653545 0.00173222 0.210664 -0.207044 -0.0366823 -0.202962 -0.0312825 0.155851 -0.067253 0.186853 0.135498 -0.0720595 0.199983 0.0375685
Q34 0.0238965 0.168532 0.023025 -0.0496515 0.0364321 -0.086215 -0.190173 0.0306524 -0.00659548 0.0777142 -0.144147 -0.0845731 -0.00288307 -0.0549877 0.0263512 0.115917 -0.0186756 -0.105102 0.213387 0.119012 -0.0225614 0.0903002 0.243964 0.0335819 -0.068197 0.114842 -0.154953 0.044329 -0.0599123 0.261365 -0.0416225 0.0596347 -0.0121332 0.0414998 -0.0191135 0.0490943 -0.140807 -0.0288242 0.0644336 -0.0201276 -0.164246 0.107784 -0.0765053 -0.13107 -0.0379775 0.0716957 -0.0123925 0.156443 0.0429046 0.176722 -0.089347 -0.0866442 -0.0355295 -0.0731442 0.124146 -0.00671011 -0.0270881 0.200157 0.00616379 0.100986 -0.20062 0.103976 0.0298527 -0.0982369 -0.018691 -0.0321201 -0.00439544 -0.0532688 -0.0481899 -0.0182321 -0.0281855 0.110509 -0.0915088 0.0572705 -0.130029 -0.0335315 0.0851248 -0.12204 0.0394159 0.0534753 0.0252904 -0.0179906 -0.0203933 0.0500012 0.134996 -0.0410162 0.0636781 0.0259758 0.149179 -0.186902 -0.167692 -0.100895 -0.101754 0.19429 -0.0647681 0.014277 0.0588504 0.162401 0.14303 0.0261131
Q39 0.00382202 0.0736132 -0.0556327 -0.0221086 -0.144766 0.0599513 -0.199862 0.0199069 -0.0860944 0.04828 -0.122891 0.126455 -0.071166 -0.178204 -0.13769 0.113136 0.085838 0.11636 0.0319868 0.16923 0.0406368 0.048547 0.201311 -0.0729461 0.18093 -0.0328222 -0.00486585 0.0770199 -0.123563 0.21763 0.0810182 0.148019 -0.0023124 0.065585 -0.14927 0.0281068 0.144314 -0.0807395 0.0419386 -0.0386969 0.0143939 0.0226713 -0.0210436 -0.219631 0.133918 -0.0982698 -0.0357603 0.01462 0.0590066 0.167895 -0.0870004 0.0125121 0.0335856 -0.0074953 0.0527368 -0.149861 -0.0255664 0.109697 0.0435735 0.0818425 0.00968777 0.0367607 -0.062554 0.00220307 -0.0446287 -0.14465 0.0595523 -0.227952 -0.109676 0.0914687 -0.0327448 0.176604 -0.0626625 -0.0972386 0.00536106 -0.0870181 0.0292285 -0.0805613 -0.139756 -0.0302582 0.0533109 0.0534618 0.0384296 -0.0339429 -0.0262451 -0.0276747 -0.0621425 0.0323861 -0.00698897 -0.139278 -0.0207255 0.0522564 -0.0777217 0.094249 -0.226242 0.147636 0.149692 0.013318 0.133571 -0.104666
Q38 0.046231 -0.0484433 0.101323 0.0362456 -0.151302 0.0727321 -0.162578 0.0379542 -0.0825516 0.171313 -0.123091 -0.0489935 -0.144181 0.0558421 -0.0372081 0.066205 0.0221864 -0.0666358 0.145083 0.187209 -0.00228832 -0.0035365 0.240349 -0.0655605 0.0293914 -0.0443255 -0.0736343 -0.0380213 -0.157257 0.246685 0.184021 -0.174163 -0.0627288 0.0940492 -0.0216356 0.05725 -0.0702843 -0.0221281 0.0703453 -0.0831389 -0.0139593 0.0696757 -0.0681996 -0.0390537 0.0587608 0.0789812 -0.0202698 0.0784504 0.19767 0.155273 -0.155097 0.0210444 -0.0293443 -0.206256 0.142643 -0.16054 -0.100858 0.0976908 0.0634462 0.11346 -0.118454 0.0505517 0.00524015 -0.154646 0.0220266 -0.126977 0.10824 -0.12062 -0.0528676 0.090515 0.0356274 -0.0626122 -0.03611 0.052948 -0.00351143 -0.0635476 -0.0857954 -0.0770824 0.037512 0.0949977 0.0305653 0.0215206 0.054224 -0.0837364 -0.00503699 0.0149456 -0.0573481 -0.111986 -0.025813 -0.235405 -0.000381211 -0.119164 -0.0262553 0.00573969 -0.0840206 0.0364678 0.0164141 0.101169 0.139137 -0.136495
Q142 0.240742 0.116675 0.145038 -0.071469 -0.0494373 -0.0591721 -0.0800306 0.175504 -0.00646912 0.150669 0.103025 0.112505 -0.067174 0.0184887 -0.105606 0.127026 -0.0269658 -0.182759 0.155064 0.163661 0.116356 0.026444 0.102002 -0.120238 -0.027362 -0.00634213 -0.120582 0.0240855 -0.0516759 -0.033845 -0.00827728 -0.0820491 -0.0524556 0.153439 -0.00468514 0.12073 -0.090604 -0.00286888 0.117274 -0.217367 -0.0750468 0.165253 0.00687358 -0.0608185 0.270939 -0.0908644 0.0447283 0.13257 -0.0155558 0.0233526 -0.0582823 -0.0312842 0.0224745 -0.0550692 0.143167 -0.00350116 -0.0677349 0.0703142 -0.17462 -0.023828 -0.158611 0.00383279 -0.0829882 -0.0533321 0.0266487 -0.0474679 0.0461293 -0.113385 0.0532727 0.0300224 -0.0221764 0.00899499 -0.0421065 0.00808787 -0.17519 -0.0738699 -0.0195739 -0.148961 -0.00320148 0.0667612 0.175227 -0.035951 0.0623947 -0.106378 0.0474067 0.0484495 -0.0127571 -0.0313954 -0.0493766 -0.167638 0.108725 -0.124216 -0.037482 0.194686 -0.0632847 -0.000143075 0.0335537 0.0547482 0.170108 -0.0570275
Q143 0.247618 0.154064 0.0654978 -0.0953124 -0.0366594 -0.0233969 -0.145427 0.0366933 -0.134176 -0.0192946 0.0849364 0.133149 -0.0333327 0.000524388 -0.0697043 0.200397 -0.0960633 -0.0618892 0.0257062 0.062027 0.0214445 0.0573022 0.0739549 0.000678643 -0.140539 -0.122817 -0.0496516 -0.0460029 -0.113029 0.0945502 -0.14921 0.153536 -0.00441788 0.0718574 -0.132277 0.101479 -0.0140051 -0.0368261 0.077356 -0.039085 -0.123528 0.038793 -0.00138355 -0.0750694 0.0522952 -0.0391461 -0.0636042 0.133423 -0.0293804 -0.0298598 -0.0436086 -0.00063831 0.126294 -0.135123 0.0867467 -0.0216606 -0.119323 0.094943 -0.238138 0.118578 -0.155535 -0.0254144 -0.0169113 0.047612 -0.233997 -0.0274802 0.0981286 -0.168081 0.0834442 -0.0239423 -0.0597759 0.0322203 -0.0226138 -0.0666611 -0.12922 -0.122688 0.0966866 -0.148262 -0.12103 -0.0241044 0.0238749 0.00815756 0.159753 -0.0705939 0.0244535 -0.0442825 -0.0085685 -0.127074 0.0962459 -0.233326 -0.00368207 -0.0751169 -0.118579 0.0572877 -0.0391631 0.0223376 0.215325 0.0603033 0.136214 0.0121502
Q140 0.085204 0.184281 0.0610759 -0.090749 0.049391 -0.0348317 -0.0352234 0.0773175 -0.0293839 0.110751 -0.0454527 0.0858251 0.107781 -0.0184046 0.00351109 0.143815 -0.094536 0.0567482 0.0769216 0.242393 -0.139805 0.127131 0.311542 -0.0605619 -0.0714187 0.0235045 -0.0200481 0.00594239 -0.0421908 0.0921647 -0.0155575 -0.0556541 -0.0609886 0.101692 -0.227574 0.0304048 -0.0683149 -0.100804 -0.0028152 0.0285534 0.0360698 0.0383905 -0.116523 -0.0987183 0.00455523 -0.0755193 -0.0104311 0.228588 0.0958292 0.148605 -0.109492 0.0409694 0.0780957 -0.115592 0.0554995 0.0334967 0.0102176 0.194719 -0.0679747 0.0797792 -0.0855097 0.0355378 0.08034 -0.0421386 0.0467845 -0.0667629 0.0607179 -0.115368 0.0216105 0.10582 -0.0241771 -0.0061381 -0.00194549 0.104723 -0.237805 0.00287725 -0.0634206 0.0150585 -0.00338336 0.0500863 0.114403 -0.048456 0.0332267 -0.049179 0.0401329 -0.161385 -0.0110738 -0.178492 0.0906954 -0.127123 0.0439 -0.0640444 -0.101823 0.178266 -0.0903923 -0.0846807 0.155984 -0.0753678 0.199197 -0.0181529
Q141 0.0598444 -0.0052889 -0.0758258 0.0729148 -0.142359 -0.144523 -0.181766 -0.0789188 0.00606568 0.00610033 0.00750585 -0.193529 -0.151678 0.0895635 0.218069 0.188613 0.0371 0.00568466 0.125881 -0.0626441 0.0297319 -0.211518 0.242174 0.132025 -0.000251833 -0.151111 0.0744775 -0.0449435 -0.260065 0.0857932 0.00917401 -0.0930434 -0.104566 0.0467378 -0.0569678 0.022555 0.0175096 0.0724486 0.0498895 -0.272063 -0.0466203 0.00124874 0.038892 0.0212255 -0.00313397 -0.0705346 -0.0496446 -0.00821634 -0.007649 0.0506343 -0.154861 -0.0402434 -0.0642401 -0.113006 0.0433388 -0.0537476 -0.00821537 -0.0306269 0.0331599 0.0815018 -0.0266364 -0.0154037 -0.0729486 -0.202231 -0.0554972 -0.0130559 -0.0482845 -0.0547697 0.0943211 0.0486867 -0.0703542 0.00699064 -0.00026713 0.0802493 -0.157787 -0.0476004 0.061638 -0.187397 -0.129918 -0.12245 -0.068977 0.0767536 0.0846159 -0.0752758 0.162273 -0.0878746 3.62329e-05 0.0116219 0.0242644 -0.0643879 0.0423271 -0.0370863 -0.130757 0.00579984 -0.105799 0.00566058 0.133882 0.144163 0.131537 0.0241337
Q146 0.0766678 0.0531179 0.0252605 -0.0103253 -0.178757 0.0204103 -0.145069 0.0884189 -0.214315 0.113386 -0.129382 -0.151587 -0.00799269 -0.105794 0.120804 0.0921023 -0.0973936 -0.0279368 0.0347198 0.102532 0.00854634 0.00653127 0.19232 0.0525536 -0.0149717 -0.134955 0.0866893 -0.11647 -0.130783 0.136182 -0.14175 -0.0452633 -0.0546127 0.0769507 -0.243451 -0.0124584 0.128742 -0.1319 0.0686986 -0.00785489 0.077163 -0.0106571 -0.0528206 -0.0532413 0.0973474 -0.00173524 -0.0147369 0.0577667 -0.0290778 0.0493723 -0.0607273 -0.0866924 -0.0776543 0.076015 -0.0221547 -0.0975815 0.00702355 0.137822 -0.0985804 -0.0924108 -0.0501979 -0.0165366 0.111844 -0.0670654 0.0339257 -0.127168 0.0519369 -0.227253 -0.0519734 0.0191049 -0.091751 -0.0455188 -0.0959433 0.0486545 -0.0897299 -0.238733 0.0494698 -0.0430348 -0.151391 0.0456226 -0.0317018 0.0258493 0.0346378 -0.223727 0.14096 0.0268484 -0.0711182 0.0564558 -0.00686709 -0.230587 0.0171313 0.0676915 0.0866293 0.216327 -0.0373373 -0.0265624 0.11164 -0.0415714 0.0915205 -0.0463252
Q147 0.0246587 0.0781121 0.127022 -0.147491 0.0091096 -0.0890495 -0.124697 0.059283 -0.0944259 0.0504347 -0.0539302 0.0157568 0.0599856 -0.0495993 0.123624 0.189171 -0.0186271 -0.0302054 0.134802 0.117916 -0.0773743 0.0873512 0.147285 -0.112791 -0.0796266 0.0522383 -0.179804 0.0245321 -0.153152 0.211841 -0.0237927 0.0332359 -0.0549249 0.160109 -0.0564363 0.0463602 -0.124699 0.0673299 0.0563495 -0.073066 -0.0872255 0.0622323 -0.148678 -0.0798269 0.0313486 0.1039 0.0170685 0.153598 0.0668988 0.178078 -0.0846553 -0.17064 0.0142164 -0.112502 0.151579 -0.0968449 0.013931 0.0221775 -0.00752672 0.0575681 -0.171901 0.0462759 -0.0537806 -0.163388 0.110459 -0.0241706 0.0509335 -0.0852075 0.109916 0.0519637 -0.0206507 0.0753478 -0.0444793 0.0417281 -0.182398 -0.0389841 -0.0508488 -0.0740737 0.00021196 0.0179501 0.104951 0.113061 0.0177783 -0.048745 0.156555 -0.0139622 -0.0969921 0.0318984 0.113094 -0.0763431 -0.0895185 -0.0958737 -0.0273169 0.192439 -0.245598 0.0397944 0.0119935 0.127251 0.19518 -0.00145298
Q139 0.205696 0.123198 0.203007 -0.0955607 -0.148825 0.0035409 -0.110604 -0.108414 -0.0679099 0.168022 0.0964388 0.170236 -0.051194 -0.0827243 -0.10355 0.116353 0.00236523 -0.16292 0.0563091 0.11825 0.121198 -0.086169 0.204303 0.0454467 -0.0814544 -0.0998736 -0.0605387 0.0783048 0.0248665 0.0864939 -0.0871111 0.0171721 0.063857 0.0808993 -0.0280887 -0.0498895 -0.0721782 -0.161416 0.094411 -0.19766 -0.00330113 0.0362386 -0.0278225 0.0695697 0.149871 -0.118367 -0.0234491 0.0920682 -0.0137623 0.062182 -0.144157 -0.0348018 0.0745684 -0.0829582 -0.0368137 -0.0239263 0.0543061 0.0892197 -0.131639 -0.0630989 -0.107631 0.0120482 -0.114739 0.0167616 0.0936998 -0.0137485 0.126808 -0.147356 -0.0464796 -0.0119849 -0.00334832 0.0594204 0.0431799 -0.158066 -0.0976215 -0.0369043 -0.0332628 -0.157149 0.0167959 -0.0266537 0.149391 -0.0994402 0.106008 -0.119522 0.10581 -0.0756162 0.0124783 0.0424487 0.0331519 -0.290755 0.0844048 -0.0559145 0.0938938 0.100771 -0.048441 0.106189 0.0884532 0.0247383 0.0788904 -0.0942138
Q138 0.0113326 -0.0260166 0.0668292 -0.00145223 -0.0742203 -0.0362086 -0.159724 -0.0369181 -0.0787331 0.109882 -0.018025 -0.0135459 -0.0769693 0.0798239 -0.0874097 0.225976 0.0307136 -0.172847 0.127361 0.228546 0.0704451 0.098898 0.312522 0.0531314 0.103135 0.00497664 -0.0865102 -0.00553664 -0.129356 0.140602 -0.0329292 0.0222301 -0.0318111 0.100085 0.0141401 0.0892593 -0.0247971 -0.154716 0.0670251 0.00930983 0.0464142 0.043525 -0.0663754 -0.196522 0.107127 -0.0224633 -0.0246272 0.0889171 0.10308 0.0911794 -0.245028 -0.031375 0.0157965 -0.0634765 -0.000366932 -0.142228 0.106674 0.155064 -0.137162 0.0206921 -0.0809137 0.0201046 -0.0706763 -0.0612399 0.108445 -0.0790618 0.103742 -0.135403 -0.015245 0.0671133 0.0413808 -0.108585 -0.0902798 -0.0826558 -0.0609598 -0.0465594 -0.0221419 -0.00195174 -0.0238953 -0.0359696 0.106051 -0.0173026 0.187737 -0.0095926 0.0234573 -0.0286672 -0.0640544 0.197882 0.068041 -0.288779 0.0426048 -0.0143071 -0.0328242 -0.0258431 -0.121936 -0.008393 0.0501473 0.0802555 0.0451347 -0.109302
Q144 0.19004 -0.0547746 0.0827173 -0.0422661 0.10386 -0.0723151 -0.136318 -0.0806443 0.0788376 0.105101 -0.0455597 0.00653417 -0.0864545 0.137987 -0.133832 0.103662 0.0168539 -0.0605728 0.11698 0.174051 0.111695 0.0382575 0.352225 -0.0211063 -0.0976433 -0.0256063 -0.0612819 0.0160023 -0.0997076 0.0419502 -0.0562711 -0.00450846 0.0055316 0.144168 -0.0681326 -0.0950696 0.00136998 -0.066118 0.017965 -0.0724289 -0.0620469 0.0289964 -0.053942 -0.0500815 0.180181 -0.209746 -0.10389 0.0920526 0.109498 0.159297 -0.0842451 0.0096999 0.0273525 -0.00788918 0.0702518 0.0491184 0.00284466 -0.140043 -0.0873125 0.0261097 -0.12437 -0.0312651 0.0230344 -0.0214801 0.130892 0.0433194 0.0725494 -0.136105 -0.079952 0.069468 -0.0568024 -0.00319145 -0.082941 0.0494849 -0.075988 -0.146127 0.0578642 -0.0389894 -0.0893202 0.00997098 -0.00899939 0.00148363 0.12145 -0.209465 0.177976 -0.0503524 0.000916896 0.0192805 0.126265 -0.295803 0.0173838 -0.108905 -0.103394 0.0390567 -0.092628 0.0620834 -0.074172 0.0655385 0.149913 -0.0177263
Q133 -0.0350034 -0.00209626 0.0787728 -0.0414406 -0.11232 0.100048 -0.127592 0.00239315 -0.0879108 0.227929 -0.0575969 -0.0929309 -0.0816603 -0.0390946 0.0156174 0.0570864 0.126304 -0.0729636 0.201982 0.262506 0.0210203 -0.0181716 0.266123 -0.0286888 -0.0427896 0.00550985 -0.121403 -0.0172905 -0.0869346 0.263241 0.072274 -0.0357526 -0.123163 0.106133 -0.0753378 0.0404762 -0.0831858 -0.115694 0.0686514 0.0358929 -0.0580696 0.0580863 -0.0530797 -0.0975587 0.0619541 -0.0253212 -0.127139 -0.00167314 0.120018 0.152122 -0.0567815 0.0111381 0.02586 -0.188979 0.0317151 -0.124109 -0.0905892 0.177586 0.0209696 0.112562 -0.0494866 0.0826871 -0.0478402 -0.119858 -0.00682507 -0.184201 0.0564109 -0.167016 -0.140198 0.0199667 0.00119835 -0.0043372 -0.0591319 0.0643683 -0.0619455 -0.0829471 -0.0380192 -0.0835891 -0.0780033 0.0293128 -0.00891451 0.0792292 0.119764 -0.114637 0.0923068 0.047462 -0.102012 -0.125448 0.0161565 -0.0957863 -0.108928 -0.0421773 -0.0517754 0.112004 0.0289553 0.075122 0.0224902 0.0915639 0.177708 -0.133469
Q132 0.169208 -0.00975708 0.211349 -0.00746092 -0.110104 -0.0975997 -0.00832981 0.163433 -0.0374258 0.0215638 -0.0813194 0.137501 -0.0131354 -0.00437863 0.0610447 -0.0456158 -0.0681962 0.0360987 0.0520514 0.132028 -0.0235018 -0.0292767 0.0889149 0.0264618 0.0663657 0.0711493 -0.0958268 -0.165907 -0.13015 0.198977 0.109907 -0.0461971 -0.071354 0.072559 -0.0254173 0.0604221 -0.0637789 -0.133608 -0.0241461 -0.0329588 -0.0463897 0.091332 -0.0694328 -0.0178716 0.0337639 -0.0157335 -0.0419773 0.114368 0.0212429 0.0632672 -0.213476 0.0683098 -0.0626734 -0.119555 0.0783004 0.0835929 0.0354473 -0.0169086 -0.130422 -0.00686471 -0.0414398 0.0343784 0.0360267 -0.0647046 0.108164 -0.00347601 0.0581052 -0.201033 0.062088 0.099093 -0.0235729 0.0975147 -0.14136 -0.0564565 -0.155438 -0.0677165 0.0995705 -0.193496 -0.00177462 -0.0236279 0.0725523 -0.0332235 0.198443 0.0234149 0.0598661 -0.0114173 -0.0676438 -0.123171 -0.0268567 -0.0425499 0.122236 -0.23634 -0.237063 0.226818 -0.0182843 0.042061 0.108291 -0.0836084 0.0734584 -0.229271
Q131 0.08268 0.0747693 0.0484541 -0.0314432 -0.133066 0.0931728 -0.175817 0.0438735 0.0222285 0.26036 -0.0345145 -0.0787545 -0.133944 -0.0628738 -0.101667 0.037813 0.0251743 -0.0551504 0.220658 0.15426 0.0467112 0.0803044 0.187081 -0.139093 0.018314 -0.027976 -0.0942618 0.0794333 -0.0633188 0.327286 0.019316 -0.193725 -0.046996 0.0657235 0.0254913 0.108143 -0.125805 -0.200855 0.0300239 -0.00477788 0.0352401 0.0638858 0.0786262 -0.0157169 0.00599996 0.0670273 -0.029008 0.0725337 0.121792 0.114162 -0.15462 0.0278062 -0.043132 -0.0812791 0.0774159 0.0675892 -0.00565784 0.0890434 0.00676699 0.0873086 -0.143282 0.0393958 0.0487865 -0.144585 -0.0802348 -0.188115 0.182575 -0.0965924 -0.152443 0.065544 -0.055401 0.0995826 -0.107475 -0.00362445 -0.0796738 0.00162942 -0.0272175 -0.022669 0.0142661 -0.0656594 -0.0590574 -0.0290384 -0.0619068 0.0210417 0.0404477 -0.0217924 -0.00337365 -0.0702599 0.161552 -0.114726 0.00655102 -0.00407049 -0.0331212 0.0889004 0.0483951 0.130513 0.0376086 0.0659078 0.20447 -0.0256262
Q130 0.0362179 0.0343785 0.0919631 -0.0512814 -0.00121581 0.018464 -0.139521 0.0717688 0.00866029 0.0936909 -0.0655544 0.0668284 -0.0464176 -0.0189259 -0.150474 0.181058 -0.0867484 -0.118681 0.0913034 0.14973 0.0111827 0.108997 0.213528 -0.115001 0.0535842 0.0499256 -0.117947 0.141603 -0.131868 0.0764723 0.00575995 0.0638479 -0.0363536 0.0824053 -0.0753018 0.0673612 0.158179 -0.12529 0.0989326 -0.0483884 -0.05201 0.0148156 -0.0642764 -0.0975939 0.0908428 -0.0673226 -0.0754273 0.140389 0.0227722 0.165324 -0.0931165 0.0775118 0.130283 -0.0341064 0.064465 -0.0154614 -0.0164188 0.225001 -0.0797992 0.0640209 -0.0362187 -0.0683104 -0.148089 -0.128498 0.0876326 -0.158044 0.107249 -0.0960789 0.0487374 0.0892002 -0.0722271 0.0460348 -0.152715 -0.0303768 -0.0637516 -0.105598 -0.0122138 -0.194223 -0.0703911 -0.068532 0.0871336 0.155627 0.147799 -0.028045 0.0292468 -0.153012 -0.0678096 -0.101526 0.0621519 -0.1942 -0.0359847 -0.0010658 -0.158727 0.203569 -0.0606961 0.0669758 0.141708 0.0712887 0.0649138 -0.0235642
Q137 -0.0246 -0.0909256 0.0348178 -0.0339161 -0.0661439 0.0651407 -0.115755 0.0282111 -0.173721 0.154959 -0.0826991 -0.11465 -0.0787062 0.0248085 0.00618265 -0.0169758 0.09499 -0.111281 0.232743 0.221939 0.0517637 0.00421441 0.249376 -0.0559508 0.0533021 0.0624306 -0.0810837 -0.0729026 -0.066733 0.244207 0.0657643 -0.161912 -0.0321429 0.0828335 0.0812073 0.0535913 -0.0266622 0.0387625 0.0722102 -0.112874 0.0212002 0.0263715 -0.0840533 0.047601 0.0630874 -0.0767965 -0.0801118 0.00970509 0.113547 0.201154 -0.0818207 0.0986534 -0.05914 -0.20955 0.120613 -0.0680892 -0.118438 0.113598 0.0147402 0.106432 0.0322296 0.0861801 0.0359688 -0.20375 -0.0371697 -0.169015 0.114993 -0.187219 -0.0918079 -0.0435672 -0.0723283 -0.0829725 -0.058097 0.0325523 -0.0221021 -0.00733222 -0.0586167 -0.171075 -0.0353522 0.0950419 -0.0141196 0.0990129 -0.0163351 -0.0380065 0.0051982 0.107079 0.0311647 -0.0262693 0.0403671 -0.154076 -0.0357559 -0.14987 -0.0179 0.0517568 0.0310356 -0.0184368 0.0271512 0.0974443 0.219593 -0.0514876
Q136 0.231969 0.047878 0.200272 -0.100127 -0.0718867 0.0387428 -0.0575691 0.0022647 -0.0193986 0.177751 0.130494 0.0982621 -0.0111705 0.0527738 -0.0353084 0.0961521 -0.0812145 -0.00787272 -0.152061 0.154529 -0.0408596 0.0651321 0.199944 0.138848 0.149167 -0.0970619 0.013597 -0.00659247 -0.0738949 -0.0289285 -0.104368 0.052773 -0.0432507 0.161248 0.00714305 -0.0926668 -0.0982162 -0.105537 -0.000998942 -0.0965867 0.0370973 0.0930851 -0.269036 -0.089084 0.0831688 -0.188308 -0.0658338 0.0928383 -0.0617444 0.0162159 0.0294452 -0.0892368 0.0632063 -0.136356 0.100954 -0.0631049 -0.0213025 -0.0218493 -0.096087 -0.0425774 -0.189719 -0.0127599 -0.0103851 -0.117812 -0.0190081 0.0707072 -0.0974028 -0.0436162 0.067565 0.0445982 -0.0622566 -0.0550311 -0.0138869 -0.11263 -0.0995735 0.074137 -0.142931 -0.00361948 0.09681 -0.0453689 0.0924297 0.000445095 0.00720187 -0.0567016 0.0396539 -0.202288 -0.0302699 -0.0296726 0.276364 0.0746185 0.0501374 -0.130657 0.0760741 0.0191518 -0.118414 0.141258 0.0690093 0.143108 -0.000896961 0.0595145
Q135 0.0500145 0.236875 0.218066 -0.161467 -0.118675 0.0905299 -0.0253148 0.00179163 -0.104158 0.147561 -0.070492 0.132547 0.0539546 -0.0825002 -0.0219589 0.0843474 0.0370946 -0.0991924 0.144234 0.105648 0.0582599 -0.0362346 0.12792 0.0127065 0.0205695 -0.0742467 -0.163646 0.0336454 -0.0789037 0.23105 -0.114358 0.0945504 0.0432811 0.203743 -0.0339339 0.0812018 -0.00114806 0.00145108 -0.0188914 -0.0108738 -0.125302 0.0440626 -0.0582142 -0.0348273 0.178135 -0.12642 -0.00232118 0.0691957 -0.0165364 0.0245766 -0.199783 -0.00738362 0.0033026 -0.0866086 0.0187776 0.0255631 0.143551 0.0327871 -0.274379 0.0115346 -0.086896 0.00717099 -0.0163279 0.00605276 0.0553954 -0.0901788 0.0867995 -0.148609 -0.125234 0.0898948 -0.00924479 0.0299097 0.0431788 -0.0289864 -0.0563671 0.0807274 0.0451116 -0.0798147 -0.0821145 -0.00942205 -0.0279253 -0.0117824 0.0448723 -0.0796573 0.182461 -0.0981578 -0.0607656 0.0419027 -0.0309968 -0.178184 0.0506137 -0.220988 -0.0018361 0.0166312 -0.0609176 0.0424465 0.154228 0.0841096 0.189978 -0.0636023
Q134 0.137235 0.130623 0.0290381 -0.00249084 0.0110834 -0.105398 -0.212567 0.0513571 0.000660232 0.127013 -0.132431 0.0824637 -0.0412338 0.114111 -0.116637 0.108747 -0.0282788 0.00142564 0.107728 0.106543 0.048624 0.0577327 0.265116 0.0637336 0.00624705 0.00200539 -0.0353142 -0.0769279 -0.104766 0.122629 -0.00639129 -0.0622443 -0.0767262 0.084332 -0.0325451 0.061764 -0.14665 -0.0231978 -0.0724724 -0.12734 -0.0371987 0.0896141 -0.0443469 0.0109177 0.136552 -0.210275 -0.0028641 0.210369 0.0455911 0.0768895 -0.122511 0.0655203 0.00345791 -0.0276498 0.113376 -0.0233395 -0.0312041 -0.0397014 -0.0971803 0.113403 -0.169622 -0.0980658 -0.129357 -0.124803 0.0548268 -0.0260102 0.0885517 -0.0580588 -0.101263 0.0722005 0.0349844 0.0616848 -0.0956297 0.0250522 -0.106723 -0.0919854 0.0676218 -0.0195651 -0.0866606 0.0365662 -0.00200433 0.0309598 0.149241 -0.155549 0.230141 -0.0405574 -0.0164577 -0.00748067 0.109012 -0.25757 0.0769619 -0.0926006 -0.0372512 0.0975525 -0.138418 0.0694344 -0.108101 0.00696643 0.192813 -0.088897
Q20 0.0520566 0.0392624 0.104507 -0.00378626 -0.0492208 0.146703 -0.069595 0.0146801 -0.00762505 0.189728 -0.134434 -0.0585744 -0.128071 -0.0597877 -0.0278664 0.105862 -0.010929 0.0212423 0.193461 0.165539 0.0045261 -0.028602 0.285794 -0.0829099 -0.0130336 -0.0717584 -0.0961084 0.0439034 -0.174159 0.147911 0.159625 -0.0686515 -0.0726833 0.0653186 -0.0769041 -0.0626707 0.0226722 -0.162695 0.0583255 0.0616612 -0.0138168 0.0679291 -0.0898522 -0.0971535 0.0835142 0.062869 -0.0990276 0.0553448 0.0921711 0.151554 -0.112631 -0.00700956 0.0473514 -0.177873 0.0749922 -0.0737296 -0.123666 0.135535 0.040226 0.0983401 -0.180478 0.0647291 0.0211683 -0.0590735 -0.0920323 -0.215788 0.0707305 -0.138812 -0.218077 0.122319 0.0439561 0.0417613 -0.0657507 0.0935484 -0.0616496 -0.0972831 -0.0285085 0.0777502 0.0571138 0.0667887 0.00900486 0.0787489 0.0900473 -0.0467712 0.00344875 0.00993467 -0.0194337 -0.166521 0.0390429 -0.170351 -0.0362616 0.0649455 -0.121932 0.00177644 -0.0628635 0.0746203 0.0667901 0.00647504 0.17617 -0.104431
Q21 0.170231 -0.021165 0.148794 -0.0752717 -0.15525 -0.104175 -0.109887 0.0724476 -0.110788 0.0810578 0.0935008 0.171239 0.0527161 0.183833 -0.0185792 -0.00670599 0.0680604 -0.0678599 0.0649106 0.109355 0.0462736 -0.0539303 0.060688 0.0107211 0.0573045 -0.0514399 -0.150014 -0.0166835 0.0902595 0.114751 -0.0871287 -0.000801677 -0.0528303 0.032578 -0.0238206 0.133819 -0.0895525 -0.112757 0.0482545 0.00733669 -0.0981619 -0.000142513 -0.0118545 -0.0177148 0.016142 -0.0542989 -0.0989572 0.0449484 0.0456741 0.0770875 -0.230176 -0.0526247 -0.0351514 -0.134478 -0.0705037 -0.17543 0.00618544 0.0937685 -0.132539 -0.00851692 -0.107351 -0.124947 -0.0747621 -0.0256889 0.0189948 0.122702 0.105183 -0.0933713 0.0505633 0.0885745 0.0389788 -0.0914403 -0.0780369 0.0409288 -0.0127264 -0.0683141 0.0810699 -0.0604252 -0.0574718 -0.20311 0.201283 0.0164702 0.0660653 -0.147086 0.0315884 -0.0941508 0.0319794 0.219662 0.144934 -0.235292 0.030364 -0.0211395 0.284203 -0.0294385 -0.116234 0.11591 -0.0224955 0.0577958 0.114439 -0.0586966
Q22 0.0475202 0.119387 0.0609628 0.0362217 -0.0556206 0.0702216 -0.0982183 0.00758155 -0.0791022 0.180855 -0.100518 -0.0542448 -0.14887 0.0902135 -0.112199 0.136524 0.027373 -0.00288504 0.268896 0.262248 -0.0304899 0.0872826 0.209044 -0.0856531 0.0737827 -0.0407181 -0.0937871 0.0497885 -0.0892443 0.0971913 0.0411847 -0.10533 -0.0837638 0.0572229 0.0342756 -0.0107442 -0.0352595 -0.0702228 0.0227734 -0.0634162 0.01832 0.0254836 0.0466749 0.0366938 -0.028104 0.074353 0.0211277 0.0493837 0.102983 0.115558 -0.210199 0.00936378 0.0387898 -0.129238 0.0557145 -0.0305061 0.0411557 0.128498 -0.0662575 0.0823047 -0.0979941 0.054749 0.0926514 -0.141143 -0.0396734 -0.285011 0.232047 -0.084863 -0.131004 0.0749086 0.00623767 0.0114548 0.0138925 0.0241143 -0.136054 -0.094119 -0.0167967 -0.0324326 -0.0480709 0.109119 0.0337514 0.0584417 0.0115471 -0.0641189 0.0551031 0.00216781 -0.133658 -0.0635725 0.151857 -0.198518 -0.05615 -0.110104 0.0819645 0.0244461 -0.0684173 0.051069 0.0122838 0.0837342 0.229249 -0.0626819
Q23 0.161732 0.152912 0.0423948 -0.138103 -0.0547359 -0.00579055 -0.138037 0.00166924 -0.0719981 0.109347 0.0418008 0.074137 -0.124255 -0.0159908 -0.07973 0.0887567 -0.196226 -0.0428714 0.0596197 0.113449 0.133067 -0.0696519 0.14076 -0.0432993 -0.0498247 -0.0720611 -0.059424 0.022594 -0.0226873 0.122623 -0.141712 0.0283375 -0.102365 0.0660326 -0.0445149 -0.11507 -0.13063 0.0199334 0.0136119 -0.134795 0.00378588 -0.0326344 -0.110325 -0.126068 0.218381 0.00347322 -0.0857715 0.0617442 -0.000570776 0.0484903 -0.0448409 -0.0545676 0.0656936 0.0508513 -0.0255179 -0.0515929 0.032267 0.150547 0.0508043 -0.00382446 -0.0808165 0.0296109 0.103364 0.0547129 -0.00128142 -0.079267 0.057924 -0.126049 0.085386 0.0432051 0.0443026 0.163062 0.0187221 -0.132698 -0.0949622 -0.253209 0.0982711 -0.10856 -0.132824 0.106181 -0.0120326 -0.0952418 0.0319316 -0.156597 0.0823289 -0.159456 0.00558231 -0.101117 0.0275712 -0.304017 -0.0451107 0.0109085 -0.0405597 0.13639 -0.112477 0.0742651 0.206982 0.00977333 0.157575 -0.0419569
Q24 0.0380792 -0.0412195 0.0390323 -0.0792869 -0.0967333 0.0317409 -0.128723 0.0624172 -0.0870477 0.276424 -0.07832 0.218069 -0.0689702 0.0214448 -0.00316383 0.0871533 -0.0547955 0.130147 0.0923472 -0.0231649 -0.0600826 0.203392 -0.0132566 -0.0465615 -0.065511 -0.0984865 -0.0610866 -0.0178269 -0.131603 0.127305 -0.237873 0.0194313 -0.18551 0.118652 -0.195297 0.0526941 0.0556862 -0.102876 -0.0051873 -0.124668 -0.102726 0.105634 -0.0163656 -0.0783809 -0.00889316 -0.0563658 -0.113371 0.164806 0.0766053 0.117424 -0.0722563 -0.0755673 -0.0574519 -0.112619 0.0385158 -0.0577564 -0.107413 0.0470806 0.00194776 -0.0748689 -0.0792193 -0.041436 0.0621429 0.0387457 0.103064 -0.00441736 -0.14218 -0.218438 -0.0050122 0.0439219 0.0190859 0.0363857 -0.103145 0.0604044 -0.125605 -0.0484862 0.0802582 0.0373282 -0.0655629 -0.0201857 -0.138602 0.0114141 0.00450812 -0.149207 -0.0143099 -0.141716 -0.164633 -0.0673475 -0.0700882 -0.214814 -0.0245713 -0.0185378 0.111333 -0.0504483 -0.0599334 0.0645482 0.183292 0.0196806 0.0925391 -0.103527
Q25 0.0786112 0.137461 0.122602 0.0365127 -0.0400726 0.052713 -0.138224 0.0635776 -0.0356502 0.0910619 -0.125281 -0.112484 -0.0245328 0.0372075 -0.0118703 0.175598 -0.00566204 -0.0446509 0.249374 0.193612 0.0285267 0.0520951 0.274289 -0.201691 0.0423287 -0.0221524 -0.105327 -0.0112814 -0.108769 0.160565 0.0474809 -0.108562 0.0498305 0.0926362 -0.0425734 0.0584153 -0.0316742 0.00704013 0.0230438 -0.0448356 0.04931 0.0551542 0.0129033 -0.129421 0.0373168 0.0384737 -0.0156025 0.111337 0.14284 0.0330279 -0.220061 0.00941976 -0.0715993 -0.039395 0.0034667 -0.104122 -0.0268951 0.0941358 0.0610278 0.0506787 -0.221554 0.0584389 0.00414319 -0.120428 -0.0368486 -0.193022 0.117842 -0.133875 -0.130885 0.0727119 -0.156048 -0.000566159 -0.0226228 0.0844592 -0.0734787 -0.0363216 -0.0231977 0.00105046 0.0661299 0.0817858 -0.0494766 0.0187386 0.09217 -0.108675 0.15407 -0.0344807 -0.159919 0.0286178 0.0766894 -0.217316 -0.0712947 -0.0298277 -0.0959305 0.0233015 -0.12211 0.0871055 0.0336708 0.123119 0.113132 -0.0873843
Q26 0.0823113 0.122932 0.0882462 -0.0584051 0.00669784 0.0729111 -0.0679472 0.0582916 -0.00249358 0.0824167 -0.131827 0.0193451 -0.0979883 -0.0857287 -0.110231 0.110541 0.000374351 -0.0697908 0.145634 0.2089 0.0483245 0.142025 0.217307 -0.040542 0.0484373 -0.0465852 -0.145426 0.066583 -0.0638931 0.120278 -0.0169575 -0.0447108 -0.0666454 0.116175 -0.157994 -0.00357197 0.0726359 0.0253359 0.0187197 -0.0012801 0.0484172 0.0999044 0.0260265 -0.044956 0.105825 -0.140215 -0.188138 0.0323635 0.0331962 0.114494 -0.0863268 0.00947711 -0.115402 -0.196748 0.0917108 -0.165294 -0.0952159 0.111508 -0.0465524 0.107241 -0.0119322 0.0480337 0.00372072 -0.109451 0.151905 -0.145836 -0.0703609 -0.149762 -0.0360149 0.0753073 -0.0593932 0.0558039 -0.141021 -0.00188028 0.0121298 -0.139353 -0.0470636 -0.0609059 -0.0197992 0.0836017 0.103774 0.0952625 0.0686607 -0.103276 -0.00152219 -0.126999 -0.0158134 -0.0573621 -0.0116003 -0.30325 0.088464 -0.093138 -0.100483 0.0928945 -0.124317 0.0312666 0.229982 0.0348549 0.114055 -0.0338792
Q27 0.130719 0.0451161 -0.10203 -0.0477583 -0.0657132 -0.0312045 -0.131676 -0.0533186 0.0231664 0.0392014 0.0467104 0.169747 0.00788541 -0.0180524 -0.0943163 0.105121 -0.158826 0.120334 -0.0255787 0.10642 -0.020877 -0.0281032 -0.0163237 -0.135936 0.188302 0.011432 -0.130924 0.0191081 -0.169035 0.103662 -0.0578416 0.17602 -0.0566799 -0.0166816 -0.11021 0.122911 0.0968915 0.0553806 0.00885048 -0.106495 -0.146082 0.0147367 0.0385788 -0.0623826 0.131592 0.0145234 0.0649195 0.0212052 -0.0916649 0.258123 -0.0545907 0.0184609 -0.00659513 -0.0923943 -0.0531039 -0.137763 -0.0537234 0.0818363 -0.0189058 -0.0048777 -0.0191647 -0.101204 -0.188684 -0.0289013 0.0118418 -0.0237309 0.00377934 -0.136867 0.0202821 0.202143 0.00733227 0.115902 -0.195943 -0.117152 -0.105673 -0.137382 0.11783 -0.140913 -0.0625248 -0.16198 0.0700704 0.221673 0.169802 0.0493093 0.0761568 -0.0720646 -0.0981424 -0.0868224 -0.041484 -0.102608 0.110552 -0.0499802 -0.00900968 0.139583 -0.026058 0.0375909 0.150338 0.0373359 0.0781573 0.0946619
Q28 0.0771822 0.0568321 0.102597 0.0287067 -0.0518871 -0.0476407 -0.0722843 0.0176635 -0.0226078 0.108497 0.00629398 0.180349 -0.192098 -0.0510469 -0.0475487 0.138192 -0.111932 0.0577947 0.0357585 0.0260079 -0.0764499 -0.10491 0.181452 -0.0067431 -0.0755156 -0.0797505 -0.0268236 0.0597467 -0.184159 0.178296 -0.0302 0.00113161 -0.0256046 0.187844 -0.0790658 0.0601703 0.0238688 0.0582749 0.109812 -0.173229 -0.0666872 -0.0680047 0.00386115 -0.111107 0.178551 0.0324152 -0.0679488 0.0644977 -0.0823346 0.148977 -0.217005 0.0459329 0.0176908 -0.149772 0.00345265 -0.26132 -0.0357437 -0.00095332 -0.0109304 0.0158272 -0.101644 0.00049344 -0.0161579 -0.0656323 0.0152147 -0.0829586 0.0308911 -0.0405205 -0.0370567 0.0697738 0.0758962 0.131339 -0.294953 -0.0133142 -0.0908408 -0.0187022 0.00342688 -0.201873 -0.168258 -0.087594 0.0745577 0.011141 0.140831 -0.131217 0.0207604 -0.0172235 0.0423965 -0.0654603 -0.0735473 -0.138936 0.123677 -0.00409753 -0.0414738 0.075773 -0.111412 0.0136117 0.209603 0.021561 0.068471 0.041013
Q29 0.054158 0.140405 0.02986 -0.136947 -0.0797641 -0.0492285 -0.0443493 0.12002 0.190488 0.0797793 -0.104235 0.0947761 -0.195479 -0.0793492 -0.0570352 0.156288 -0.0497841 -0.16578 0.155535 0.0626809 0.0771213 0.112864 0.151382 -0.145378 -0.137189 0.10922 -0.105272 0.114502 -0.233555 0.185743 -0.0842837 -0.00516235 -0.0803819 0.0819656 -0.0995411 0.116003 -0.04665 -0.0281228 0.0765679 -0.0643228 -0.0511039 0.147755 -0.0266552 0.100941 0.188312 -0.0433134 0.0161199 0.0453473 -0.0120483 0.0388432 -0.158298 0.0678795 0.0174446 -0.0856636 0.0708457 0.16194 0.0492098 0.13111 -0.0967304 0.079405 -0.0387636 -0.0105868 -0.0477522 -0.0608192 -0.0975925 -0.161571 -0.0338786 -0.197541 0.110338 0.0211184 -0.00414206 0.0213944 -0.0398596 0.12767 -0.125005 -0.0237492 -0.0872801 -0.0365 0.0357113 -0.0470801 0.0866399 0.019855 0.0135034 0.0215709 0.168799 0.0241817 -0.0526494 8.36577e-05 0.158213 0.0127989 -0.134866 -0.00685183 -0.00911245 0.0977182 0.0322967 0.0453781 0.0197591 0.113083 0.0752483 -0.193708
Q188 0.169235 -0.0550244 -0.010237 0.0233346 -0.0869562 -0.0818602 0.0335275 -0.0121566 0.0177135 0.198384 0.0526589 0.0284509 -0.0307141 -0.0970885 0.00978177 0.224373 0.00587627 -0.0561072 0.155568 -0.0246645 -0.0302892 0.051852 -0.0363007 -0.0478591 -0.0851677 -0.0487369 -0.0242641 0.0779043 -0.240233 0.0347738 -0.0838154 -0.067681 -0.0612797 0.0900236 -0.0601779 0.0690819 -0.0608789 -0.103777 0.116352 -0.161713 -0.0896877 0.144553 -0.132128 0.10677 0.0723006 -0.0518916 -0.100123 0.241839 0.143802 0.163918 -0.116952 -0.0998983 0.0248352 -0.0404207 -0.0644299 -0.120798 -0.171085 0.00630829 -0.08937 0.0917644 -0.054596 -0.0204287 -0.143702 0.127073 0.075741 -0.116341 -0.0592046 -0.0765516 0.0763581 0.089194 -0.0631898 -0.00826108 -0.120443 -0.0793074 -0.153009 -0.169747 -0.0416423 -0.0319262 -0.113041 0.137771 0.00563767 0.159881 0.113054 -0.121395 0.140645 0.073702 0.0487943 0.0436055 0.0303808 -0.181461 0.0239449 -0.109616 0.0192425 0.0762803 -0.0891309 -0.0743672 0.0784198 0.0059613 0.0151068 -0.173681
Q189 0.137168 0.0412822 0.0402394 -0.093414 -0.0898198 0.0256662 -0.145488 0.0703345 0.0309852 0.0960757 -0.173937 0.0107427 -0.0686303 -0.0863525 0.0488266 0.0885019 -0.099839 -0.0427185 0.119322 0.175818 -0.062353 0.0269086 0.15413 -0.0714951 -0.068497 0.0148913 -0.0639499 -0.0313204 -0.191284 0.172656 -0.00878473 -0.0210635 0.0329622 0.00867529 -0.0304451 -0.0112941 -0.121862 -0.173736 -0.00859018 -0.00378096 -0.0872418 0.130831 -0.0677809 -0.0487086 0.0654743 -0.0785273 0.000898322 0.0994467 0.0623666 0.110475 -0.125759 0.0266902 0.0232691 -0.110772 0.168438 0.0123477 -0.0455033 0.14826 -0.178099 -0.0281057 -0.078016 0.000471267 -0.0505901 -0.125555 -0.0682419 -0.147019 0.0554271 -0.107385 -0.0473392 0.107403 0.102363 -0.0111644 -0.0625903 0.128106 -0.247838 -0.0861114 0.087305 0.0335174 0.0279399 -0.124136 0.0278238 -0.0345289 0.0177599 0.0559281 0.138754 -0.0460094 0.0541052 -0.0394071 0.235194 -0.217987 -0.130592 -0.0713545 -0.109843 0.194366 -0.159904 0.00459505 0.100649 0.0521701 0.148465 -0.0615966
Q186 -0.0251964 0.0513462 0.0302959 0.000416218 -0.0234097 0.0202086 -0.100967 0.0484145 -0.0250164 0.101077 -0.0809825 0.0044963 -0.0667707 0.0305661 -0.134775 0.215109 0.13793 -0.0782612 0.0338514 0.0840017 -0.0197299 0.0672663 0.317482 -0.0794001 0.0933581 -0.0482577 -0.0601887 -0.00422754 -0.109034 0.0945166 0.0843438 0.110079 -0.0399644 0.0833751 -0.0588446 -0.052641 -0.0111946 -0.101497 0.00601005 -0.114288 0.0117801 -0.11072 -0.135891 -0.177321 -0.0557009 0.0407818 -0.0933063 0.073241 0.108659 0.144718 -0.177501 0.0306285 0.140945 0.0615548 0.121765 -0.138054 -0.104812 0.161048 -0.105788 0.0227451 -0.04648 0.081511 -0.0198445 -0.109253 0.00201027 -0.116308 0.0383758 -0.262101 -0.0148392 -0.0415258 -0.148213 0.0327168 -0.0442121 -0.00567803 -0.0631125 0.0178774 -0.0861597 0.00358304 0.0309451 0.0591755 0.0247313 0.0488614 0.0196315 0.0265584 0.152117 -0.0816438 -0.0824866 0.0445595 0.114442 -0.219257 0.0404898 0.159002 -0.107105 0.124057 -0.170014 0.0952515 0.188513 0.00989971 0.0026476 -0.157757
Q187 0.19409 0.017293 0.0426599 -0.0655848 0.0273421 -0.184023 0.0606826 0.0950235 0.0310921 0.142187 0.125422 0.111937 0.0676846 0.0417171 -0.0491924 0.167102 -0.0124051 -0.0546284 0.0192808 -0.0161888 0.0531069 0.0804523 0.146384 -0.19669 -0.03964 -0.10424 -0.0953031 0.0331071 -0.119658 0.0593702 0.0880594 -0.0467337 -0.038343 -0.0764133 -0.126494 0.037768 -0.0410493 0.0958353 0.0444111 -0.0601396 -0.133235 0.205633 -0.0539868 -0.0424944 0.0973742 -0.0583256 0.0555431 0.114395 0.0642983 0.152339 -0.0613323 0.0294281 -0.0650891 -0.0552501 0.0302153 -0.134179 -0.102096 -0.0264918 -0.174691 0.162528 -0.0720345 -0.0250836 -0.19473 -0.0796324 0.0741544 0.0129066 0.00112015 0.0185485 0.0395415 0.121202 0.0159657 -0.0272095 -0.086141 -0.0160236 -0.292895 -0.127876 0.0491436 -0.145055 -0.083445 0.100818 0.00271385 0.0312183 0.152417 -0.0725634 0.122734 -0.00483078 -0.00857531 -0.0696176 0.0892308 -0.175484 -0.0022839 -0.201972 -0.00413534 0.170631 -0.0859127 0.0717405 0.146273 -0.0207102 0.139454 0.0441408
Q184 0.113653 0.0538452 0.206998 -0.0979363 0.0225296 -0.0620637 0.00809832 0.150323 -0.113117 0.0737998 0.0883286 0.141613 -0.0419188 0.0434865 -0.0856893 0.158196 0.0749968 -0.201721 0.0284339 0.157608 0.129502 -0.0538029 0.213022 -0.0239182 -0.0839024 -0.131351 -0.188332 0.0417726 -0.0689773 0.00546373 0.00597085 0.0439278 -0.0859398 0.0506035 -0.0680987 0.0875164 -0.169003 -0.222208 0.0338241 -0.0384706 -0.0066933 -0.0075021 -0.127308 -0.103288 0.0458051 -0.0543486 -0.0389351 0.146274 -0.0915253 0.0332855 -0.178387 -0.0625575 0.0513647 -0.085308 -0.0663581 0.0129326 -0.0106259 0.111589 -0.130669 0.0828124 -0.137712 -0.0107035 -0.0277361 0.0184274 0.124859 -0.0744079 0.0663865 -0.180021 0.0872085 0.126237 0.0452762 -0.110292 -0.00069899 0.146978 -0.0223382 -0.05199 -0.100305 -0.0814149 0.100273 0.0154462 0.151593 -0.00516751 -0.0296923 -0.0809774 0.0228514 -0.0302007 0.0654011 0.0121587 0.0255892 -0.297056 -0.141597 -0.0608122 0.0833169 0.0999873 -0.0521637 0.137194 0.00321547 0.0319389 0.0297961 -0.0761197
Q185 0.232761 0.0718763 0.108192 -0.0637787 -0.0852643 -0.242168 -0.00432306 -0.0666488 -0.0618535 0.0504169 0.00912462 0.114423 0.0995344 0.112002 -0.136516 0.036776 -0.0529404 -0.0467702 0.0887651 0.148481 0.0237187 0.034051 0.237841 -0.0234397 0.121903 0.0172476 -0.0510049 -0.0266516 -0.130596 0.0239252 -0.0640592 -0.031017 -0.0176378 0.0931288 -0.135826 -0.0117865 -0.0951551 0.0782962 0.00473072 0.039157 -0.0258056 0.0537847 0.000214308 -0.0670625 0.116781 -0.0732234 0.0303559 0.218643 -0.137662 0.0330977 -0.108494 0.0276353 0.0849307 -0.127695 0.0638517 -0.174562 -0.18437 -0.12746 -0.00303846 0.142876 -0.158439 0.0250496 -0.129507 -0.0672788 -0.00590492 0.150729 -0.0766637 -0.135352 -0.0160348 0.104841 -0.0975108 0.0558963 -0.0681456 -0.0398523 -0.14341 -0.108452 0.0175397 -0.138711 -0.112699 -0.127631 0.0177947 -0.110517 0.0316934 -0.183955 0.168037 -0.0126256 -0.0149525 0.0150946 0.0673384 -0.116085 0.0127852 -0.175843 -0.135127 0.0568919 -0.073092 0.0749849 0.0489758 -0.0404304 0.0511394 -0.0825333
Q182 -0.0447438 0.0571127 0.17086 -0.0906068 -0.151622 -0.0957366 -0.0643089 -0.112486 -0.0583316 -0.0106997 0.0614377 0.11206 -0.0887431 -0.0184522 -0.0827382 0.192705 0.0474567 -0.144709 0.117529 0.181157 0.0801148 0.00633112 0.320438 0.0366676 0.0342628 -0.0588802 -0.114713 -0.0337263 -0.0359664 0.214547 -0.0553605 0.0531771 -0.0630288 0.0965893 -0.0350371 0.0441395 -0.0419545 -0.0938321 0.0965466 -0.0558381 -0.0157681 0.112586 -0.0676276 -0.125329 0.18015 -0.0620155 -0.0870854 0.0350308 0.095018 0.121906 -0.286587 -0.0752221 -0.0110734 -0.0347775 0.0341049 0.0231909 0.0998372 0.158314 -0.0961413 0.0532514 -0.0758633 0.0683604 0.0228453 -0.165925 0.0557694 -0.0191156 0.00335999 -0.0533344 0.0807315 -0.01429 -0.0163445 -0.0701817 -0.0509549 -0.10357 -0.0937952 -0.0460565 -0.00911633 -0.0726214 -0.0312323 -0.0335785 0.119113 -0.0705399 0.137804 0.0969745 0.038405 0.0480913 -0.0542168 0.0907922 0.132799 -0.194028 -0.0501776 -0.0198443 -0.11249 0.0255837 -0.0599311 -0.0129685 0.098636 0.203517 0.0765494 -0.145035
Q183 0.0272431 0.0451905 0.0566605 0.0315393 -0.105281 0.0949235 -0.121215 0.019596 0.0186246 0.220358 -0.143856 -0.144956 0.0158192 0.00366289 -0.0180721 0.0548062 -0.0314129 -0.0759221 0.150184 0.286808 0.0689154 0.0218444 0.215914 -0.0622847 0.0823738 -0.128529 -0.120701 0.0416866 -0.132046 0.205 0.0180882 -0.0432644 -0.0372571 0.108559 -0.056879 0.0734413 -0.0400062 -0.041899 0.0731886 -0.0246307 0.0259788 0.134042 -0.0339639 -0.104082 0.103141 0.0773248 -0.0458781 0.0142888 0.152775 0.129164 -0.160304 -0.0201243 -0.00587769 -0.121881 0.129847 -0.142069 -0.0881115 0.139583 0.00755728 0.111771 -0.0435146 0.0868539 0.0225407 -0.159675 -0.0449436 -0.203421 0.133327 -0.222012 -0.161925 0.0390962 0.0385351 -0.0808751 -0.00139779 -0.0676874 -0.0723147 -0.0322006 0.0462666 -0.00716241 -0.0993533 -0.0158091 0.0070553 -0.0517121 -0.0465891 -0.00877044 0.0268506 -0.0299098 -0.061391 -0.141666 0.0664099 -0.174624 0.0687004 -0.0527842 -0.047077 0.0993014 -0.0991106 0.0434824 0.0935789 -1.04041e-05 0.195628 -0.0896838
Q180 0.157831 -0.048607 0.0822849 -0.0640654 0.138667 -0.0250862 -0.143473 0.0138387 0.102926 0.0890114 -0.0370484 0.171821 0.0647331 0.0412632 -0.0989953 0.0810537 0.0278905 -0.147693 0.12051 0.100874 -0.000953482 -0.136986 0.225528 0.122985 -0.069989 0.041017 -0.198785 -0.0212012 -0.0530169 0.172972 -0.0402733 0.0234255 -0.0776234 0.182571 -0.0853143 0.069127 0.0170674 -0.116924 0.0758359 -0.0201249 0.0245364 0.0658884 -0.147471 0.0153513 0.113968 -0.0602673 0.0381179 -0.000710505 -0.117593 0.0570158 -0.0465725 0.0309809 0.196246 -0.146984 -0.0807502 -0.0345872 -0.0460539 -0.0302755 -0.128131 0.00052003 -0.0697015 -0.0367008 -0.0749075 -0.13183 0.102565 0.207993 -0.03885 -0.0515461 -0.0746102 0.0755032 -0.025339 -0.0583814 -0.058681 -0.0176241 -0.148092 -0.109318 0.0456143 0.133845 -0.0268532 0.0261969 -0.115751 0.0329908 0.0690064 -0.120069 0.0545101 -0.17304 -0.113525 -0.09814 0.18302 -0.168608 0.0515082 -0.127886 -0.0657238 0.0835063 0.0167858 0.109648 0.146837 -0.171002 0.0453728 -0.0634974
Q181 0.107487 -0.00918984 -0.0102892 0.0568787 0.0330854 0.107202 -0.15825 -0.0056965 0.0260715 0.302179 -0.193552 -0.0881336 -0.16824 0.0280388 -0.0450627 0.102167 0.0337564 0.0183602 0.174976 0.148609 -0.0671421 0.0779522 0.249401 -0.0642215 -0.0330635 -0.0369831 -0.0596144 -0.0958703 -0.0890081 0.193807 0.125178 -0.0743714 -0.0202935 0.0146055 0.0355665 -0.0598905 -0.0543136 -0.0908206 -0.0125479 -0.0657491 -0.00411947 0.0660637 -0.0958644 -0.0281652 0.00106718 -0.116755 -0.0106826 0.0484758 0.058995 0.258286 -0.140481 0.056722 0.0965529 -0.189315 -0.0053878 -0.154311 -0.028904 0.110944 -0.0132809 0.135613 -0.0950769 -0.00485934 -0.0391668 -0.12275 -0.0617928 -0.139396 0.155745 -0.232828 -0.044073 0.0183041 -0.0118649 -0.0565964 -0.0266313 0.156763 -0.0661716 0.00983887 -0.0644882 -0.0368457 -0.0742396 0.0550155 -0.0466459 0.0792196 0.0818896 -0.0861928 0.11597 0.0526169 -0.0743037 -0.0208938 0.0598738 -0.163944 -0.104732 -0.0633747 -0.02248 0.0720336 -0.0950733 -0.00658132 -0.0352263 0.0872289 0.137554 -0.0234679
Q106 0.108748 0.0383348 0.213493 -0.0748378 -0.103065 0.0744208 0.0361032 0.0356695 -0.0454202 0.22573 -0.155157 -0.1122 0.135192 -0.033359 -0.00548264 0.10798 0.0491826 0.00560777 0.0967339 0.236793 0.0220745 -0.0198358 0.222731 -0.0544648 0.0480331 -0.0907735 -0.077655 0.0396244 -0.111224 0.0933267 -0.00948691 -0.0168584 -0.0931549 0.0928283 -0.243505 -0.101405 0.022132 -0.060281 -0.0119808 -0.0589432 -0.0544705 -0.0117014 -0.0693919 -0.188333 0.088878 -0.0295982 -0.0608357 0.0703703 0.195719 -0.0391723 0.027901 0.0895605 -0.0392918 0.049728 0.062676 -0.115211 0.00655035 0.19749 0.0538913 -0.0962606 -0.0951965 0.0220077 0.00636584 0.0062146 0.00432174 -0.186298 -0.00167612 -0.141679 -0.0749131 0.124259 0.071521 -0.141389 -0.0199666 0.123094 -0.180762 0.0401488 -0.0148092 0.138738 0.0297582 0.0712397 0.0823925 0.00412968 0.0892616 -0.102958 0.0432159 -0.0910729 0.0258799 -0.112252 0.0952322 -0.0513189 -0.0838881 -0.0262615 -0.104598 0.141052 -0.0967079 0.0032904 0.0840197 0.114656 0.178721 -0.110244
Q107 0.122747 0.0148309 0.128947 -0.206967 -0.108916 -0.0381695 -0.093093 -0.0225612 -0.0305258 0.0091342 -0.0107447 0.0226928 -0.163269 -0.0321986 -0.0142847 0.165901 -0.0458386 -0.0509079 0.117167 0.191857 0.0142992 0.117302 0.209759 -0.0796983 -0.123757 -0.0173863 -0.150233 -0.0105656 -0.100629 0.178491 -0.162404 -0.0558774 0.00595306 0.0640398 -0.080405 0.0832446 -0.0521226 -0.00722251 0.134851 0.0395544 -0.133922 0.0130138 -0.0243128 -0.017069 0.158538 -0.160666 0.00210862 0.0505219 -0.00559649 -0.00161533 -0.180994 0.0366473 -0.193313 -0.196372 0.135298 0.0923992 -0.0472591 0.0896492 -0.104915 0.0107759 -0.112331 -0.0130697 0.0239332 -0.102563 0.0269777 -0.0839901 0.0893882 -0.0794014 -0.104314 0.179073 0.0215366 0.000774928 -0.0331756 0.0175128 -0.0743637 -0.0468709 -0.00153178 -0.0739437 -0.0235772 0.0230622 -0.00923931 0.0908566 0.217289 0.0655317 -0.0158821 -0.134723 -0.0574605 0.105981 0.0241879 -0.16566 0.057405 -0.0734005 0.00748322 0.112247 0.0292142 0.0650754 0.201471 0.110779 0.135232 -0.148537
Q104 0.0613937 0.196315 0.13791 -0.0803513 0.066321 0.0463804 -0.0812829 -0.0264518 -0.0354063 0.215066 0.0694347 0.105276 -0.129229 -0.000966286 -0.072049 0.280271 0.0643748 -0.116293 0.0667409 0.0222495 -0.0505002 -0.0215345 0.0209492 0.199574 0.0119145 0.0342885 -0.18141 -0.0427914 -0.0148455 0.0677345 -0.17459 0.195745 -0.0852032 -0.0879893 -0.120361 0.0721211 -0.0098078 0.0367174 -0.00864132 -0.066817 -0.000698568 -0.116359 -0.0749078 -0.0498916 0.0720829 -0.0172416 0.0318837 0.198697 0.0270287 0.044149 -0.122463 0.0930696 0.0573687 -0.039644 0.0386819 -0.106636 -0.0915887 0.0855891 -0.121973 0.0607914 0.051886 -0.0221268 -0.0458837 0.194434 0.151388 0.134191 -0.101093 -0.159507 -0.135871 0.0847158 -0.0515805 -0.111324 -0.087311 -0.0570337 -0.0656731 -0.129934 0.155736 -0.116516 -0.00524662 0.0406422 -0.0501087 -0.0843818 0.0914186 -0.202286 0.0965047 -0.0329778 0.108682 -0.074989 0.0613854 0.0095857 -0.0561195 -0.0958747 0.000225441 -0.0444924 0.00403997 0.0640502 0.0363177 -0.00951544 -0.150042 -0.165414
Q105 0.0625675 0.080067 0.0671815 -0.0368962 -0.0678056 0.0991443 -0.0880676 0.0819527 0.0423294 0.231321 -0.166993 0.0326558 -0.140554 -0.0859163 -0.110825 0.0758931 0.0282217 -0.107085 0.176014 0.238792 0.0460104 0.0482154 0.159637 -0.0662709 0.0247759 0.0583043 -0.104274 0.106474 -0.116974 0.255202 0.0190099 -0.00653506 -0.00766551 0.112465 0.0237741 0.0336378 -0.0926658 -0.096044 0.115075 -0.0317611 -0.024226 0.0822673 0.00297272 -0.0608019 0.0618521 0.0614597 -0.0591753 0.0860367 0.094184 0.117427 -0.171082 -0.0822604 -0.0426203 -0.0876957 0.10401 -0.0657004 -0.00529573 0.175493 -0.116338 0.101691 -0.0368654 0.0756403 0.0209785 -0.183336 -0.0151171 -0.207241 0.0373317 -0.136603 -0.110495 0.0492716 0.0186411 -0.0175249 -0.0413135 0.0103192 -0.0541874 -0.100189 -0.0173799 -0.111023 -0.0769825 0.00120121 0.0635979 0.0436159 0.0577829 -0.0296783 0.0361207 -0.053658 -0.0049721 -0.116085 0.0527481 -0.201197 0.0427783 -0.0825657 -0.142275 0.0999003 -0.0590231 0.0771866 0.129283 0.0735247 0.243689 -0.132082
