1999 100
Q133_R79 0.0999171 0.0518009 0.0344244 0.116906 -0.135355 0.21519 -0.0936395 0.0381819 -0.00295972 0.241981 -0.183393 -0.138638 -0.141624 -0.0538689 -0.0217155 0.143925 -0.0609555 0.0176528 0.198918 0.172205 0.0116637 -0.0167522 0.272914 -0.110807 0.00497748 -0.058248 -0.0859251 -0.0258984 -0.0578754 0.119771 0.139089 -0.0791578 -0.128216 0.0711166 -0.0227932 -0.0398154 -0.0138746 -0.0750914 0.0137369 0.0619073 0.0337963 0.0481962 -0.0242326 -0.112754 0.0531591 0.07941 0.0121955 0.0209318 0.0954943 0.132131 -0.121763 0.00834359 0.0681974 -0.181267 0.0239747 -0.197342 -0.0478063 0.123723 0.0663811 0.125104 -0.161225 0.0702197 -0.0165675 -0.117769 -0.00611199 -0.128201 0.0459395 -0.0713717 -0.191881 0.107748 0.0519842 -0.00176035 -0.00386876 0.0953327 -0.0538535 -0.0636273 -0.00347029 0.0316287 0.00394493 0.0811363 0.00738666 0.088547 0.0716698 -0.0690825 0.0477128 -0.0146351 -0.118802 -0.175749 -0.00487766 -0.204321 -0.0837791 -0.0204052 -0.0889802 0.00833023 -0.0734448 0.0721398 0.0177748 0.070715 0.147894 -0.0833798
Q188_R16 0.134014 0.0358386 0.0291219 -0.0165619 -0.101025 -0.194948 -0.0642433 0.0184762 0.0658755 0.166002 -0.0227396 0.0490077 -0.0332433 0.108294 0.0151829 0.162867 0.00855263 -0.118097 0.112277 0.112354 -0.0150255 0.10385 0.215655 -0.16546 -0.0725725 -0.0130938 -0.0622837 0.112463 -0.228437 0.0504667 -0.0267378 -0.0510171 -0.0629545 0.184016 -0.0362399 0.0610214 -0.0851507 -0.0768202 -0.00139191 -0.149005 -0.146386 0.137109 -0.0170121 0.0165322 0.095938 -0.0786755 0.0719316 0.161826 0.139464 0.136521 -0.201339 -0.0520472 -0.0493975 -0.0264223 0.0787115 -0.0501438 -0.0653073 0.0801321 -0.0517438 0.106678 -0.0762423 0.00678454 -0.184097 -0.0879831 0.0604875 -0.116607 -0.0316954 -0.169665 0.00800413 0.0179607 -0.0015551 -0.0720609 -0.105797 -0.0396988 -0.228325 -0.049641 -0.127624 0.0489961 -0.0931465 0.0833247 -0.0280107 0.0391983 0.134513 -0.167133 0.188743 -0.0207131 0.0276675 -0.0103885 0.0252639 -0.124084 0.0245047 -0.132682 -0.0645285 0.137197 -0.0989716 -0.0421545 0.0859751 0.0193784 0.00523748 -0.03225
Q5_R4 0.261959 0.104353 0.274827 -0.201666 -0.103768 -0.0740775 -0.00583607 0.0856947 0.128026 0.0439673 0.0495239 0.104185 -0.0200366 0.0664743 -0.0931743 0.123715 -0.107317 -0.105031 -0.0560843 0.0164492 -0.0184447 0.0840354 0.0903233 -0.0581227 0.120447 -0.103375 -0.163011 0.014924 -0.170777 0.0497589 -0.00841949 0.0188602 -0.0746126 0.0633894 -0.0158848 0.0926139 -0.0267228 0.0555666 0.0821969 -0.163328 -0.0656901 0.104539 -0.159523 0.0323104 0.0410827 -0.100496 -0.0956747 0.261924 -0.052456 0.115243 -0.03517 -0.0396248 0.10446 -0.103731 0.0420222 -0.0853175 -0.155606 -0.0248756 -0.0973922 0.0616788 -0.111053 -0.183199 -0.0975597 -0.0524979 0.0238376 0.0150754 0.0445071 -0.0578025 0.0442431 0.0668562 -0.0806967 0.00434157 -0.183973 -0.0566392 -0.13299 -0.091378 -0.0538909 -0.0514572 -0.0729981 -0.00675046 0.0526157 0.0920305 0.12145 -0.0872949 0.000464113 -0.0762862 0.0929755 -0.0199683 0.0674759 -0.0528229 0.0193733 -0.110705 -0.110904 0.0790433 -0.148996 0.0310165 0.196983 0.0474414 0.0850182 -0.0833883
Q188_R10 0.0789205 0.0658117 0.0174853 -0.0481085 -0.186288 -0.0833509 -0.0887396 0.0880581 0.0375138 0.156537 -0.030084 -0.00436806 -0.0431572 -0.0409427 -0.0409104 0.159688 0.0487374 -0.187407 0.183833 0.0716492 0.138677 -0.0814623 0.108412 -0.0436828 -0.142824 -0.155923 -0.0371603 0.162976 -0.186716 0.0939821 0.104361 -0.113187 -0.187241 0.0919665 -0.0658575 0.0860331 -0.0766927 -0.0756224 0.108426 -0.228601 -0.118268 0.0559866 -0.088703 0.0197721 0.161132 -0.017928 0.0882204 0.175264 0.192725 0.116375 -0.0938302 -0.0516257 -0.025941 -0.0337821 0.0387843 -0.0727471 -0.068395 0.0803127 0.0659292 -0.00264937 -0.000311961 -0.120972 -0.128121 0.0578838 0.0921743 -0.0728346 -0.00431681 -0.122627 0.0263041 0.0892117 -0.0786177 -0.010382 -0.0861514 -0.0705253 -0.0886618 -0.129343 -0.0212743 0.0525007 -0.0460544 0.159179 -0.0718074 0.0663523 0.148568 -0.175521 0.14798 0.0399503 0.0304186 0.0494721 0.0199281 -0.110068 0.0700842 -0.0896851 -0.0471321 0.0198273 -0.0579682 -0.131901 -0.00476031 -0.0692878 0.0565418 -0.129178
Q51_R37 0.118748 0.0142153 0.17554 -0.0611577 0.122896 -0.0332326 -0.0885657 0.123137 0.0322568 0.0574123 -0.088017 0.0999287 -0.0350046 0.0340453 -0.0445969 0.16699 -0.0929467 -0.0451393 0.0640823 0.150992 0.0450529 0.105184 0.241401 -0.0457729 -0.00411759 0.0614213 -0.0682486 0.0247622 -0.081923 -0.102955 0.101105 -0.0588554 -0.0672188 0.058796 -0.0937134 -0.00643935 -0.121983 -0.103618 0.00430371 0.03409 0.00679447 0.0774911 -0.0212305 -0.0950868 0.0712986 -0.108416 -0.0299501 0.240617 0.0558641 0.0416501 -0.154009 -0.07547 -0.0646864 -0.0583807 0.120942 -0.0624368 -0.0244934 -0.0161387 -0.090509 0.0684382 -0.1392 0.0455434 -0.165121 -0.056307 0.031582 -0.0686577 0.0809019 -0.184673 -0.140406 0.0496683 -0.0330658 -0.0267107 0.00811497 0.0133791 -0.17823 -0.178671 0.113072 -0.045531 -0.0196689 0.00128517 0.154373 0.0976284 0.218953 -0.130865 0.154358 0.0306539 -0.10094 -0.0956499 -0.0131062 -0.216544 -0.00789765 -0.143997 -0.179147 0.156974 -0.0451201 0.0359988 -0.0427111 -0.0636345 0.101611 -0.0976177
Q49_R15 0.151446 0.0857895 0.185352 -0.0225573 -0.0358537 -0.0912858 -0.0176482 0.13134 0.0420843 0.150576 0.0162271 0.147673 0.0597008 -0.0338165 0.0963626 0.0294968 -0.0365904 -0.00201395 0.037163 0.111279 -0.0214805 -0.00225591 0.0370262 -0.15035 0.152261 -0.0349617 -0.075728 0.0886228 -0.201433 0.00478108 -0.0472545 0.138476 0.0354682 0.113473 -0.11894 0.02121 0.121499 -0.140445 -0.0121701 -0.157703 0.0631712 0.132848 -0.0421807 -0.0797378 0.138603 0.0127095 0.0403413 0.284358 -0.054112 0.145071 -0.194359 -0.00725431 -0.093985 -0.201654 0.128518 0.00686714 -0.0293176 0.00554153 0.0968142 0.04098 -0.0762657 -0.0717763 0.0092468 -0.0856871 0.0715731 0.00671012 0.0710944 -0.087326 0.0206921 0.191276 0.00712477 0.100086 -0.0807855 -0.0620878 -0.0857489 -0.0444497 0.0354038 -0.11754 -0.0415464 -0.034139 0.0813066 -0.00945112 0.0916667 0.0669328 0.0325964 0.014462 -0.0808951 -0.152219 0.00113379 -0.0642059 0.00792212 -0.189238 -0.0322709 0.257632 -0.102198 0.0614241 0.210241 0.000481138 0.0925429 0.0330283
Q25_R2 0.011033 0.0603836 0.0964946 -0.00537953 -0.018287 0.0643572 -0.133444 -0.0220505 -0.0048385 0.106877 -0.113641 -0.122301 -0.00451004 -0.0384834 -0.109706 0.125853 0.0223733 -0.0433079 0.267564 0.157703 -0.0133762 0.049301 0.332152 -0.177785 0.0208622 -0.0196495 -0.128537 -0.0783087 -0.132779 0.176086 0.0839569 -0.0955869 0.0075974 0.123313 -0.0226413 -0.0875624 -0.0575844 -0.0750573 -0.0233441 -0.0365695 0.0323719 0.0512453 0.0505264 -0.114799 0.055792 0.0489018 0.0226967 0.0285355 0.120265 0.0662155 -0.223462 0.107041 -0.0824119 -0.0164159 0.0126037 -0.129109 -0.019555 0.17491 0.0229738 0.0683058 -0.18034 0.0114733 -0.0271054 -0.0305211 -0.0755287 -0.200015 0.156555 -0.0725759 -0.0382376 0.141956 -0.04838 -0.0413601 -0.0883163 0.106125 -0.12279 -0.102126 -0.0796301 -0.0608664 0.0716861 -0.0177244 0.0117657 0.0553888 0.127463 -0.040709 0.151525 0.0469787 -0.174658 0.0669736 0.0967538 -0.14006 -0.0669015 0.000821116 -0.0619697 0.146514 -0.104113 -0.0221782 0.0740202 0.0891395 0.0405753 -0.0310641
Q58_R64 0.184845 0.0764762 0.100634 -0.00291803 -0.109378 0.0319899 0.0112799 0.107398 -0.0990644 0.105136 -0.0922835 0.0412817 0.0178092 -0.0127063 -0.0189738 0.114646 0.039958 -0.00781692 0.0365317 0.270152 0.0257739 0.0688505 0.290973 0.0518533 -0.0635542 -0.0310473 0.0220051 0.0438967 -0.0788801 0.11928 -0.0283082 -0.000488512 -0.138901 0.0621872 -0.153055 -0.0618684 -0.11425 -0.0148483 0.0550625 -0.0792445 -0.176709 0.00905446 -0.0332429 -0.0535484 0.109114 -0.105966 -0.0982983 0.127449 0.0734975 0.117574 -0.0764146 0.0123351 0.120325 -0.119399 -0.00384659 -0.0267223 0.0260649 0.168868 -0.0887891 0.0289832 -0.0950321 0.0290712 0.0787237 -0.0203298 0.0806232 -0.195569 -0.000330535 -0.128047 -0.064349 0.23125 -0.0705703 0.00868029 -0.121045 0.0315913 -0.136757 0.0321808 0.0534512 0.061806 -0.061622 0.0683877 0.112558 -0.0787368 0.179487 -0.0858371 -0.0112089 -0.0914672 -0.0220197 -0.0531209 0.0374994 -0.10664 -0.115836 -0.155884 -0.181774 0.0748998 -0.145025 -0.000609774 0.158811 -0.00022799 0.179004 -0.0653776
Q122_R17 -0.0178295 -0.00199543 0.0821432 -0.156703 -0.14364 0.0283978 -0.143293 0.0294809 -0.0154033 0.129484 -0.0655445 -0.0677787 -0.101749 -0.0149656 0.00726373 0.11672 0.0224054 -0.102996 0.115547 0.166438 0.0784698 -0.0319923 0.237779 -0.00993016 -0.127951 0.0703193 -0.114008 -0.101545 -0.151263 0.264976 -0.0333022 -0.0258278 -0.0664739 0.120681 -0.0598408 0.0699829 -0.0396228 -0.0376402 0.0492257 0.0448877 0.047862 0.0785207 -0.0964481 0.0948624 0.115581 -0.111989 -0.0416178 0.0624856 0.141663 0.10616 -0.118765 0.012216 -0.0933526 -0.162136 0.116398 0.0464002 -0.113818 0.15502 -0.0416607 0.00445915 -0.0217144 0.072969 0.0498333 -0.158038 -0.0855375 -0.21892 0.156829 -0.174631 -0.166982 0.0294729 0.0505717 -0.0467506 -0.0742051 -0.0304542 -0.10429 -0.0537011 -0.0114968 0.0334196 -0.0864923 0.0830531 0.0169383 0.105657 0.114118 0.0631941 0.0995547 -0.0649912 0.0784579 -0.0431384 0.0257853 -0.120848 0.0296785 -0.0824535 0.0131631 0.0990559 0.0765888 0.120402 -0.00427787 0.0753943 0.251656 -0.0764115
Q68_R24 0.121434 0.108737 0.0452348 -0.183511 0.0799992 -0.131035 -0.264843 -0.211865 -0.0510306 0.12077 -0.0624479 0.213244 -0.0431754 -0.072586 -0.0510363 0.117616 0.0473027 -0.121234 0.181853 0.00990376 0.0887996 0.101605 0.164083 0.0238115 -0.0293814 -0.0306489 -0.0662297 0.115965 -0.124313 0.157699 -0.0148916 -0.0584422 -0.0692265 0.165255 0.0227888 0.161533 -0.058056 -0.0370806 0.0366995 -0.0223089 -0.0706609 0.00839336 -0.0841922 0.0759807 0.26072 -0.0676122 -0.0943011 0.077447 -0.201056 0.0600939 -0.134635 -0.0310865 0.011273 -0.0667645 -0.00799813 -0.0363381 -0.0233065 0.0697194 -0.154853 0.0731597 -0.108801 0.00971622 -0.0386103 -0.0482482 0.0147594 0.0324606 0.010402 -0.280845 0.162172 0.0610208 0.065718 0.0263168 -0.0602454 0.0345029 -0.109408 0.0314197 0.0324439 -0.0918972 0.089047 0.165924 0.023324 -0.0964657 0.0274024 -0.0125435 0.117099 0.107021 -0.0370778 -0.0507768 0.0380349 -0.0875443 -0.0159956 -0.0292633 -0.0628141 0.0314261 -0.112115 0.0316029 -0.000539987 0.0722378 0.079009 -0.0352301
Q99_R52 0.0539818 0.0126424 0.146727 -0.0954684 -0.0806473 -0.0094967 -0.0645127 0.0938157 0.00347285 0.157012 -0.0723564 -0.0915405 -0.131594 0.131654 0.0319981 -0.046251 0.1455 -0.070072 0.0495986 0.224927 0.132202 0.0595876 0.331485 -0.132867 0.0550766 0.0876007 -0.0575625 0.0781959 -0.0591542 0.237846 -0.0113108 -0.0788395 0.0474358 0.134842 -0.00392064 0.132172 -0.0139073 -0.131039 0.120559 0.0285493 0.0997335 0.17635 -0.0414612 0.00812419 -0.0111255 0.0119228 -0.140569 0.0442721 0.0568336 -0.0203073 -0.152064 0.0026325 -0.127478 -0.0776336 0.153558 0.0860167 0.000305365 0.00359432 0.0817269 0.0726107 0.0551038 0.0218597 -0.00168973 -0.104056 0.00214554 -0.161383 0.110086 -0.0902996 -0.179479 0.0721782 -0.035038 -0.0504207 -0.120051 -0.031691 -0.065594 -0.0825919 0.00740894 -0.0794719 -0.00792614 0.162133 0.00410944 0.0253275 -0.0316425 -0.0894059 0.0716408 0.0142315 0.0910322 0.00386598 0.144277 -0.159828 0.107387 -0.190736 0.0231876 0.0187411 0.0021119 -0.0323939 -0.0124198 0.150548 0.158352 0.0206111
Q68_R22 0.256706 0.0184622 0.0664698 -0.12405 -0.0967358 -0.206684 -0.168613 0.0741413 0.0213774 0.0716736 -0.028857 0.072676 -0.0720333 -0.0930804 -0.0263267 0.164257 0.0562397 -0.110023 0.0698347 0.158513 -0.0228427 -0.00907309 0.214236 -0.125182 -0.108071 -0.104706 -0.146977 0.0756042 -0.199288 0.171521 -0.206395 -2.83856e-05 -0.14118 0.189803 -0.0242327 0.0547714 -0.0470873 -0.083928 -0.0306012 -0.129297 -0.0930831 0.0547495 -0.0877531 -0.0140005 0.168163 -0.015542 -0.0103163 0.100691 -0.0106734 0.0780624 -0.0661978 -0.0120949 0.0850065 -0.0861884 0.047898 -0.00762294 0.0908781 0.167509 -0.0409 -0.0456542 -0.152282 -0.0242532 -0.0831671 -0.249528 -0.00801145 0.0557465 0.0154183 -0.11405 0.079522 -0.131083 -0.0111439 0.0621749 -0.0371247 -0.033931 -0.137945 -0.00982036 -0.0310776 -0.036562 -0.0150854 0.0152792 0.00805966 0.0820831 0.0290002 -0.114786 0.0901753 0.00272655 -0.0439979 -0.0889328 0.173412 0.00182684 -0.0227311 -0.0117996 0.0680806 -0.102979 -0.12931 0.0219243 -0.125111 0.0965538 0.0107132 -0.067971
Q68_R29 0.237319 0.0751919 0.109661 -0.0707273 0.0141019 -0.107062 -0.196387 -0.0270242 -0.020546 0.0677758 -0.0165284 0.0948064 0.0482916 0.104647 -0.0981494 0.171776 -0.0398354 -0.182599 0.115756 0.126481 0.112628 0.0591329 0.237268 -0.00170123 -0.0894238 -0.0504251 -0.0804152 0.0398777 -0.219359 0.0296722 -0.0374351 -0.0410661 -0.154798 0.0552404 -0.105261 0.127785 -0.0787824 -0.0667112 -0.00211022 -0.0236547 0.0036274 0.0990827 -0.0918941 -0.0130321 0.117963 -0.0301574 -0.0825354 0.228975 -0.04851 0.0161496 -0.132947 -0.016329 -0.053951 -0.0752447 0.0633019 0.0715714 0.00108467 0.134912 -0.158782 0.159693 -0.139843 -0.0749063 -0.0732456 -0.0522796 0.0495989 -0.00352988 -0.0331977 -0.211719 0.112087 0.0964395 0.0134083 0.0339787 0.00139267 0.0373029 -0.205879 0.026464 0.0840556 -0.0478984 -0.0390815 0.11834 -0.0188484 0.0154512 0.102553 -0.107127 0.165287 -0.0374926 -0.0141739 -0.00491921 0.0698273 -0.230761 -0.0194309 -0.0473218 -0.111957 0.117854 -0.0945349 0.066664 0.0329556 0.0131388 0.051673 -0.0164389
Q95_R21 0.0645511 -0.00898753 0.0466672 -0.0623383 -0.0304818 0.0141848 -0.157227 0.0940542 -0.144865 0.102671 -0.146527 -0.124622 -0.0156579 0.059241 0.0719315 0.0980724 0.0239796 -0.0416789 0.285933 0.16106 -0.0130602 0.131846 0.268542 -0.0280601 -0.0464435 0.0958809 -0.144754 -0.0525992 -0.0317959 0.204119 0.0520517 -0.064624 0.00140696 0.0418143 0.016813 0.0411835 -0.0809171 -0.0689106 0.0555839 -0.0557462 -0.103041 0.0589189 -0.156504 -0.0543884 -0.0184793 -0.0182409 0.0410693 0.114202 0.0996478 0.155216 -0.144577 -0.0196921 0.0196072 -0.156071 0.104164 -0.0697172 -0.0148514 0.264873 0.0351599 0.11354 -0.178103 0.00302849 -0.00508351 -0.0993285 0.039002 -0.093247 0.110904 -0.131102 -0.105197 0.00696811 -0.0410797 -0.0526584 -0.0668058 0.032941 -0.116822 -0.0642832 0.0266971 -0.0861211 -0.063351 0.0974465 0.097034 0.0563416 0.0327374 -0.0779559 0.0631795 -0.0187994 0.02785 -0.0129295 0.0751493 -0.155351 -0.0403632 -0.170666 -0.056502 0.140138 -0.0558814 0.0813252 -0.00461491 0.0935575 0.233443 -0.0333556
Q34_R85 0.140672 0.099145 0.0535725 -0.00878962 -0.0913116 0.0203436 -0.136691 -0.00215661 0.0809304 0.155022 -0.184655 0.0538692 -0.0268286 0.0115016 -0.0362139 0.145612 -0.060993 0.0152333 0.119708 0.143696 -0.0452147 -0.0110341 0.262389 -0.188558 -0.10442 -0.0789862 -0.117494 0.0304952 -0.153334 0.200019 -0.0165088 -0.0318479 -0.0434368 0.139616 -0.104772 -0.0162929 -0.0969189 -0.0892773 -0.0130013 -0.123886 0.00848276 0.00934648 -0.152284 -0.0808917 0.0242949 -0.0776718 -0.0110063 0.134895 0.0742709 0.101963 -0.165314 0.0662752 -0.0205605 -0.0494738 0.0631527 -0.078427 0.0977925 0.0480995 0.0352394 0.0659697 -0.190426 -0.0690036 0.0179155 -0.138719 0.0698849 -0.239843 0.0516509 -0.11013 -0.0148486 0.0380487 -0.0357459 -0.0148203 -0.00378433 0.0421425 -0.133491 -0.0662836 0.0605253 0.0301415 -0.0331076 -0.00745757 0.0531859 0.0181709 0.0752272 0.0068623 0.262374 0.022167 0.0191382 -0.065497 0.0959766 -0.117418 -0.113216 -0.164572 -0.105295 0.048776 -0.099554 0.0480723 0.0636958 0.137273 0.172905 -0.116148
Q33_R27 0.197324 0.0790665 0.0930706 -0.11878 0.0491294 -0.0123277 -0.0434213 0.0997532 -0.00410257 -0.0393694 -0.0975374 0.132938 0.0128856 0.0655602 -0.093742 0.192888 0.00518947 -0.0731797 -0.00250389 0.151197 0.0602463 0.0209357 0.272626 0.0459467 -0.0953325 -0.0153677 -0.0621434 -0.0271326 -0.117055 0.0449637 0.110611 0.0284253 -0.143701 0.113463 -0.187451 0.0112847 -0.179346 -0.0818845 0.0143446 -0.0923296 -0.123471 -0.102902 0.0571099 -0.0435275 0.100628 -0.0204131 -0.0426201 0.322991 -0.0410152 0.0733687 -0.0504264 0.0623726 0.0418671 -0.0975442 0.0416551 0.00036477 0.0588527 0.101666 -0.114772 0.0701499 -0.0576332 0.0405576 0.00120913 -0.0939808 0.0572067 -0.0966397 -0.00180146 -0.170396 -0.0133976 0.172364 -0.0289773 -0.00341834 -0.128003 0.0485343 -0.133087 0.047969 0.107931 0.0918315 -0.101248 0.0493688 0.175245 -0.0123432 0.0686227 -0.042893 0.054825 -0.0717506 0.00803926 -0.0999315 0.17035 -0.0907394 -0.117357 -0.163241 -0.172768 0.114555 -0.133658 0.00689737 0.0502316 0.0163879 0.0986184 0.0111863
Q33_R26 0.0178997 -0.0122405 -0.0199686 -0.0374344 0.0604508 -0.00966695 -0.120725 0.0246452 -0.0869675 0.0819261 -0.0454983 0.0545597 -0.150114 0.0802265 -0.160254 0.0418169 0.144893 -0.0289817 0.102885 0.144696 0.101661 0.00533199 0.208944 0.0551034 -0.0286666 -0.0242196 -0.0576011 -0.0638306 -0.118159 0.144474 0.0888839 -0.135183 -0.0394637 -0.0172027 -0.122151 0.0644441 0.0433249 -0.1216 -0.0644524 -0.159869 -0.0941648 -0.0780601 -0.0827723 -0.129901 0.0168132 -0.0367595 -0.0415003 0.308886 0.00213985 0.208694 -0.0207488 0.0648499 -0.0848449 -0.146 0.0648356 0.11007 -0.062681 0.0418506 -0.0147682 0.0954591 0.0509729 0.1314 -0.061341 -0.0933882 0.00456184 -0.0227182 0.0545504 -0.121725 -0.0117163 0.175081 0.0372826 -0.0655009 -0.025075 -0.0042879 -0.0117738 0.0542716 0.0992153 0.000448482 -0.228546 0.122299 -0.0142437 0.0514475 0.130691 0.017538 0.0812747 -0.161802 -0.038857 -0.0593948 0.243525 -0.146558 -0.134961 -0.0284846 -0.0804792 0.100584 -0.180054 0.0422083 -0.0983721 0.0498327 0.13588 0.0534439
Q83_R34 0.0633417 0.115546 0.0994112 0.0156488 0.0515621 0.00677405 -0.117249 0.0157053 0.00708551 0.118665 -0.0424724 0.0581757 0.0765665 0.0484198 -0.0588139 0.174744 0.0246957 0.0209493 0.12086 0.053831 0.171965 0.0695288 0.22332 -0.0976683 -0.0593883 -0.0451902 -0.179833 0.102577 -0.165896 -0.046837 -0.00886025 0.0164188 -0.0796226 0.064775 -0.0710366 0.0311779 -0.00797225 -0.00727581 -0.0863167 -0.0713026 0.0443873 0.0779696 0.00759266 -0.0276817 0.114349 -0.141196 -0.0452601 0.186647 0.143199 0.109467 -0.0425771 -0.0078348 -0.11136 -0.0254563 0.0941008 -0.0634814 -0.0604864 -0.0795544 -0.0659762 0.0327303 -0.111177 -0.0449214 -0.219926 -0.0973561 0.0768043 -0.0569311 0.0485474 -0.11782 -0.18092 0.0508172 -0.0110362 0.0480781 -0.0440346 0.123739 -0.158391 -0.174305 0.0734571 -0.0224425 -0.0296141 -0.0331261 0.00697515 0.0145375 0.147522 -0.0874595 0.181167 0.0555349 -0.087342 -0.0193193 -0.0513033 -0.295597 0.0346529 -0.116607 -0.130401 0.104072 -0.0907957 0.0903543 -0.0702644 0.146197 0.198284 -0.124648
Q83_R31 0.0356398 0.149669 0.039342 -0.0695065 -0.0113839 -0.131654 -0.0531259 0.0420958 0.115977 0.0742089 -0.118915 0.0741998 0.00443942 -0.011526 -0.0455403 0.105169 -0.147414 -0.0713023 0.083442 0.1284 0.122041 -0.011729 0.309582 -0.106462 -0.094218 -0.0589668 -0.0587567 0.0119173 -0.157036 0.158008 -0.00402257 -0.092 -0.0540981 0.182975 0.0488994 0.143284 -0.057952 0.0766669 -0.0834935 -0.0941788 -0.0957065 0.0513885 -0.0204213 -0.0363083 0.126546 -0.166604 -0.0876848 0.234167 0.0928368 0.120576 -0.133928 0.0391643 0.132145 -0.00475952 -0.033329 -0.0272808 -0.02422 -0.128772 0.0033593 0.0291729 -0.19395 -0.0750777 -0.0392369 0.0134715 0.0466113 -0.0737663 0.123017 -0.0779526 -0.126935 0.0682957 -0.0903482 0.0964724 -0.0517945 0.0947459 -0.177158 -0.0470166 0.0440031 -0.0773033 0.0347681 0.0261369 -0.0198223 -0.081651 0.152141 -0.0497942 0.190476 0.018633 -0.0681012 0.00551373 -0.0312311 -0.131083 -0.0226301 -0.00824319 -0.112632 0.204267 -0.0378638 0.00421952 -0.0423668 0.13075 0.138361 -0.107336
Q5_R9 0.157777 0.158804 0.182137 -0.159595 0.0571268 -0.0782301 -0.119279 0.0321005 0.0775032 0.219543 0.0300634 0.0360997 -0.100829 0.010225 -0.0488226 0.209737 -0.0871046 -0.167159 0.0222034 0.0555221 0.10123 -0.0115086 0.166412 -0.0876977 -0.0225133 -0.072539 -0.162707 0.00625267 -0.208492 0.0527627 -0.095861 0.145395 -0.110586 0.0761102 -0.0658101 0.0366561 -0.0760174 -0.0446466 0.0309378 -0.129305 0.0359308 0.00333153 -0.195999 -0.0190033 0.260147 -0.114461 0.0477039 0.150245 -0.0338952 0.043741 -0.108371 -0.0146895 -0.0209705 -0.071588 -0.0432459 0.057802 -0.0223622 -0.00132468 -0.169601 0.0858667 -0.173375 -0.0922696 -0.119286 -0.0433303 0.0801117 0.0285235 -0.125048 -0.196967 0.0595812 0.112751 -0.0161716 0.0690023 0.00960195 -0.0260523 -0.17724 -0.0286898 0.00248183 -0.110427 -0.0588102 0.126752 -0.0126752 -0.0333783 0.0738842 -0.0904616 0.0892522 0.0274437 -0.0258609 0.00743651 0.0157925 -0.151723 0.00184782 -0.0221893 -0.0638637 0.0646929 -0.153726 0.0647603 0.081307 0.0845815 0.043403 -0.0172644
Q24_R78 0.152245 0.0424264 0.0726875 -0.0419631 0.0132721 0.0735381 -0.234972 -0.0480521 -0.0996188 0.104563 -0.0609301 0.0187561 0.0243827 -0.0580562 -0.205367 0.115005 0.0200437 0.0632452 0.109226 -0.0522729 -0.136749 0.0448741 0.0953959 -0.145876 0.0423758 -0.0928378 0.0316087 -0.123427 -0.0954548 0.20845 -0.0835242 0.194777 0.0125712 0.0108466 -0.131474 -0.0262882 0.0648025 0.109847 0.00958999 0.0317633 -0.0425854 0.0430479 -0.0814346 -0.150813 0.139191 0.0433157 -0.00727042 0.0482409 0.313654 0.0840383 -0.075113 -0.053496 -0.0403398 -0.0337339 -0.0620612 -0.0622645 0.119425 0.123741 -0.101142 0.0435881 -0.0773129 -0.0690831 0.0507205 0.0887098 -0.0882698 -0.0304127 0.153801 -0.152469 0.0254968 0.103032 0.0548349 0.0697397 0.0293485 0.00419613 -0.17911 -0.0626944 0.105583 -0.0505855 -0.0771838 0.0687006 -0.0125948 0.108574 0.105404 0.00779615 0.137823 -0.0121505 -0.0765891 -0.0337321 -0.0254985 -0.244452 -0.0141274 0.127141 -0.0588233 0.0821327 -0.0618474 0.0705808 0.02796 -0.0812317 0.230147 -0.072451
Q24_R70 0.148375 0.0538934 0.127845 -0.0301602 -0.118487 0.0383916 -0.112865 0.0731497 0.0240949 0.104253 0.077404 0.0459203 -0.0261941 -0.09001 -0.0421712 0.137926 -0.0688195 -0.0581553 0.111897 0.104726 0.160935 0.0808215 0.137841 -0.134642 0.0314796 -0.0595635 -0.0342367 0.0245971 -0.151826 0.073198 0.0270934 0.16442 -0.0222098 0.0658925 -0.218821 0.000841053 0.123428 -0.212838 0.0890371 -0.0220417 -0.0610498 0.0467074 -0.0655624 -0.0756012 0.108579 -0.0387157 0.0225495 0.107445 0.00963831 0.0785344 -0.117612 -0.0772255 -0.0419617 -0.184577 0.0961672 -0.103089 -0.0141654 0.0754134 -0.097266 0.00770926 -0.0991124 0.0870721 0.0380672 -0.100491 0.0998119 -0.05105 0.073012 -0.0810544 -0.117227 0.159806 -0.115955 0.0578719 -0.0867567 -0.00628044 -0.0995881 -0.0635661 -0.0167115 -0.190555 -0.104783 -0.100318 0.0142962 0.0593001 0.193648 0.00340417 0.0143902 -0.12073 -0.120792 -0.0657724 0.089121 -0.0560471 -0.0285577 -0.0767637 -0.0763013 0.247725 -0.097771 0.0544758 0.2311 -0.0180702 0.0895074 -0.168773
Q181_R11 0.0419889 -0.0243475 -0.0447185 0.0478471 -0.0632211 0.109363 -0.15956 0.040418 0.0228644 0.259009 -0.254633 -0.116783 -0.0969333 0.053321 -0.0223979 0.046741 0.0357641 -0.049815 0.192544 0.155591 -0.0140618 0.0504524 0.236794 -0.128039 -0.0185041 -0.0245289 0.00614371 -0.0565392 -0.0961921 0.235426 0.110307 -0.0800789 -0.0316963 0.0353068 0.00180018 -0.0439672 -0.00756564 -0.101052 -0.0279627 -0.0273838 0.0200588 0.0794696 -0.100437 0.0158022 0.0323068 -0.0677512 -0.105578 0.0732895 0.13698 0.228474 -0.200186 0.0191224 0.00427366 -0.118485 0.0802016 -0.0830037 -0.0504534 0.134446 -0.0909413 0.123855 -0.154673 0.0256141 -0.0392752 -0.0920805 -0.0555276 -0.164091 0.126859 -0.186401 -0.0892042 0.0439615 0.0288577 -0.0590745 0.0268521 0.0720865 -0.0680794 -0.055898 -0.0212854 -0.0286613 -0.0281085 0.106026 0.0272724 0.00480919 0.0396169 -0.0836326 0.0834386 -0.0164197 -0.0950669 -0.105847 0.0739386 -0.215635 -0.065768 -0.0250987 0.0334862 0.0879671 -0.0715201 0.15411 0.0413483 0.0200824 0.138194 -0.118713
Q22_R24 0.0853151 0.037539 0.149689 -0.017496 -0.0170385 0.0959027 -0.165858 0.172431 0.0244536 0.143313 0.0303325 -0.0502529 -0.00487492 -0.0325603 0.026592 0.124943 0.0951359 -0.0734907 0.153435 0.188457 -0.0271088 -0.017181 0.23972 -0.171062 -0.01178 -0.178701 -0.178888 0.0871415 -0.187773 0.0284015 0.0982506 -0.0514795 -0.0102207 0.162545 -0.0625263 -0.0599975 -0.0921085 -0.165459 0.0676676 -0.115679 0.0780836 -0.00658528 -0.00918636 -0.225664 0.1098 -0.0423032 0.0698067 -0.0246845 0.12783 -0.0101312 -0.0607422 0.000336815 -0.0270781 -0.101121 0.128536 -0.103586 -0.078742 0.0409605 0.0903919 0.0601247 -0.083098 0.0975688 -0.0662768 -0.0564446 0.0795099 -0.181914 0.0697751 -0.101027 0.0292947 0.132666 -0.0474478 -0.0796605 -0.0487838 0.0486945 -0.202427 -0.060588 -0.0863637 -0.123943 0.0125398 0.144961 0.0318893 0.0320901 0.104433 -0.0403762 0.0713674 0.0397589 -0.0939671 0.0060409 -0.0111709 -0.152028 -0.0398621 -0.111633 -0.12689 0.0856802 -0.120114 -0.0133427 0.0692359 0.140073 0.0817681 0.0272804
Q108_R14 0.0562062 -0.0799144 0.251476 -0.0691174 -0.0883242 -0.171623 -0.0510425 0.155774 -0.00618295 0.115947 -0.0535367 0.0272678 -0.015027 -0.00456803 0.0117912 -0.064625 -0.156276 0.0321684 0.0915517 0.241026 0.0576022 -0.0109766 0.214885 -0.0379378 0.00666596 -0.0946987 -0.085931 0.0855685 -0.0584926 0.0985573 -0.0405534 -0.134273 -0.020866 0.0962237 -0.0675794 -0.0673167 0.00378546 -0.239451 -0.0186447 -0.0806827 -0.085195 0.0612355 -0.177872 -0.0709707 0.103777 0.0379443 0.033814 0.243292 0.05826 0.109231 -0.109987 0.143893 0.033076 -0.10445 0.0299749 -0.0626861 -0.0329988 0.0983626 0.0276416 0.020983 -0.16435 -0.0713127 0.079517 -0.106493 0.03496 -0.0457009 0.100215 -0.216808 0.0495379 0.148646 -0.011026 0.0560108 -0.0695114 0.044102 0.0339198 -0.146492 -0.0360451 -0.179902 -0.0116655 0.00644929 0.0882651 0.00969154 0.104437 0.0362001 0.0290435 -0.0777733 -0.106518 -0.0632876 -0.0220193 -0.140467 -0.0690953 -0.166609 -0.00193323 0.0587324 0.00187787 -0.0727187 0.160187 -0.0215835 0.0469737 -0.153814
Q198_R27 0.216815 0.0728995 -0.0363727 0.0610807 -0.05064 -0.0965707 -0.131687 0.222262 0.158803 0.237773 -0.0752217 -0.0586827 0.137618 0.0433431 0.0518421 0.173273 -0.049576 -0.0819849 0.109977 0.046238 0.0295561 -0.121448 0.147879 0.00951248 -0.0783842 -0.0352989 0.080735 -0.0393365 0.00342087 0.138557 -0.189085 0.0241582 -0.011767 0.00924276 -0.107854 0.0542582 0.0382562 -0.114079 0.126569 -0.00787471 -0.0457061 0.126004 -0.106847 -0.0566313 0.0391214 -0.0476395 -0.0080847 0.154628 -0.0337729 0.0502062 0.00810043 -0.0115244 0.0683833 0.0136408 -0.0967386 -0.0314277 -0.0763319 0.13615 -0.00873931 0.143588 0.0165247 0.0986065 -0.101125 -0.108556 0.0429023 -0.0142139 0.073021 -0.206061 -0.0280855 0.133621 -0.120916 0.0469429 0.143378 -0.0179602 -0.187547 -0.15602 -0.0688144 -0.0514128 0.0205096 0.143606 0.0317734 -0.0976692 0.0807996 -0.0164086 0.210807 -0.138429 -0.104822 -0.0664511 0.0596033 -0.187397 -0.0980258 0.0264401 -0.128839 0.0663518 -0.00992285 0.0676553 0.0893847 -0.043419 0.0703811 -0.0761307
Q110_R20 0.0342223 0.103812 0.179795 -0.0212682 -0.0918293 -0.0411656 0.0576539 -0.0052597 -0.0835195 0.103239 0.00386509 0.117584 0.0661866 -0.0445163 -0.0497531 -0.0171971 0.146514 -0.0660822 0.0491561 0.128121 -0.073171 0.0315538 0.261781 -0.00901239 -0.153014 -0.0235085 0.0356493 0.0199547 -0.106455 0.175798 -0.0471027 0.15996 -0.00080203 0.145736 -0.216423 0.0246861 -0.120754 -0.0528419 0.0670273 -0.0784641 -0.0133889 0.10938 -0.058669 -0.127577 0.0709708 -0.135397 -0.17672 0.126734 0.0927915 0.0184186 0.0425588 0.105812 0.0850118 -0.0932591 0.0160885 0.0252727 -0.0252043 0.25682 -0.0903302 0.0621326 -0.0764562 -0.0364764 0.0327218 0.148065 -0.063339 -0.136937 0.0446398 -0.0406077 0.00605821 0.149794 0.0350924 0.161866 0.00710824 0.1538 -0.0619273 -0.00623883 0.0772478 0.0231319 -0.166748 0.025694 0.113634 0.0881853 0.077553 -0.0731851 -0.0527544 -0.207158 0.0659564 -0.0362496 -0.0563523 -0.0791258 -0.0579883 0.045015 0.0045165 0.0561337 -0.153743 0.0881426 0.0931179 -0.0442262 0.238158 0.00777861
Q110_R23 0.013354 0.113099 0.213368 0.0686909 -0.149033 -0.0652151 0.0108012 0.0361987 -0.173822 0.114036 -0.0350375 0.276977 -0.0907353 -0.0355078 -0.132171 0.0346864 0.223502 0.0658012 -0.0129915 -0.0639106 -0.196177 -0.0431764 0.169984 0.0151504 -0.191843 -0.00495869 0.0366844 -0.0714266 -0.104096 0.105481 -0.0128152 0.095588 0.0197282 0.0166484 -0.16989 0.116078 -0.10595 -0.0097566 -0.0170321 -0.121853 0.0613701 0.104927 -0.107434 -0.0677028 0.0533194 -0.0435466 -0.141352 0.0318684 0.0441798 -0.0676132 0.0353967 0.0149285 -0.0105159 -0.0966781 0.030206 -0.0429568 0.0420107 0.148707 -0.165308 0.120715 0.0118574 -0.0384394 -0.0448985 0.152906 -0.0336395 -0.128424 0.0880957 -0.0685471 -0.0455526 0.11383 -0.0153923 0.261722 0.0146213 0.0261846 -0.0411817 -0.0862437 0.10461 -0.148052 -0.0904286 0.0793633 0.0233635 0.111958 0.0950981 -0.116756 0.110298 -0.0693181 -0.00982297 0.0433322 -0.174777 -0.0802284 -0.0507906 0.072851 0.12428 0.0629871 -0.0989147 0.0409402 0.0943434 -0.0844804 0.012933 0.00633805
Q167_R58 0.148375 0.0538934 0.127845 -0.0301602 -0.118487 0.0383916 -0.112865 0.0731497 0.0240949 0.104253 0.077404 0.0459203 -0.0261941 -0.09001 -0.0421712 0.137926 -0.0688195 -0.0581553 0.111897 0.104726 0.160935 0.0808215 0.137841 -0.134642 0.0314796 -0.0595635 -0.0342367 0.0245971 -0.151826 0.073198 0.0270934 0.16442 -0.0222098 0.0658925 -0.218821 0.000841053 0.123428 -0.212838 0.0890371 -0.0220417 -0.0610498 0.0467074 -0.0655624 -0.0756012 0.108579 -0.0387157 0.0225495 0.107445 0.00963831 0.0785344 -0.117612 -0.0772255 -0.0419617 -0.184577 0.0961672 -0.103089 -0.0141654 0.0754134 -0.097266 0.00770926 -0.0991124 0.0870721 0.0380672 -0.100491 0.0998119 -0.05105 0.073012 -0.0810544 -0.117227 0.159806 -0.115955 0.0578719 -0.0867567 -0.00628044 -0.0995881 -0.0635661 -0.0167115 -0.190555 -0.104783 -0.100318 0.0142962 0.0593001 0.193648 0.00340417 0.0143902 -0.12073 -0.120792 -0.0657724 0.089121 -0.0560471 -0.0285577 -0.0767637 -0.0763013 0.247725 -0.097771 0.0544758 0.2311 -0.0180702 0.0895074 -0.168773
Q198_R22 0.272268 0.0398142 -0.0182363 0.0453963 -0.118459 -0.155951 -0.0965178 0.131547 0.108998 0.180746 -0.0155586 -0.01709 0.0846359 0.0968112 0.12815 0.122714 -0.0166378 -0.0752715 0.0410927 0.0147243 0.027871 -0.18525 0.1155 -0.0398909 -0.0764325 -0.109791 0.0615843 -0.105174 -0.0893492 -0.0421782 -0.221294 -0.133691 0.167417 0.130375 -0.134859 0.0612988 0.0393288 0.00462849 0.0730114 -0.0055421 -0.0945053 0.158453 -0.0458152 -0.103694 0.0665878 -0.021989 -0.00435216 0.0600004 -0.0266314 -0.021705 0.0235615 -0.0280649 0.073386 -0.0576137 -0.13728 -0.0404064 -0.0808448 0.0702175 0.0244296 0.151076 0.0486411 0.102107 -0.0990916 -0.118497 0.00968012 -0.0661884 -0.0115917 -0.133288 0.0742298 -0.0323714 -0.131331 0.0259671 -0.0609537 0.163796 -0.153793 -0.0900468 0.0508287 -0.0673293 0.0110137 0.109271 0.0311479 -0.043794 -0.0234694 -0.0507838 0.215108 -0.103644 -0.0521787 -0.0132535 0.0357181 -0.250835 0.0391666 -0.129033 -0.106095 -0.0450577 -0.0230808 0.118032 -0.0108429 -0.0155526 0.241094 0.0336519
Q95_R9 0.125456 0.110378 0.190413 -0.0895012 -0.0765293 -0.0832375 0.0240837 0.116781 -0.052183 0.0293191 0.0785555 0.0388417 0.0601295 -0.129626 0.0305688 0.220211 -0.00946798 0.0307055 0.0118975 0.0888261 0.101421 -0.0185124 0.295431 -0.0080387 -0.0528777 -0.0234391 -0.16225 0.0152382 -0.167018 0.087483 -0.122676 0.106305 -0.0642249 0.0381939 -0.0861889 0.0190588 -0.055927 -0.0283527 -0.0251793 -0.087628 -0.0577769 -0.00463043 -0.0101648 -0.0445599 -0.00971733 -0.0752197 -0.0400648 0.155144 -0.00486677 0.131929 -0.136601 -0.111105 0.160936 -0.0395814 0.0693172 0.0970453 -0.0385762 0.191931 -0.179741 0.172813 -0.0255245 0.0284419 0.0138452 -0.0725825 0.0154261 -0.146399 0.105308 -0.0858919 0.0279701 0.0759713 -0.109737 -0.0107626 -0.0693268 -0.0621045 -0.14807 -0.0816255 0.045023 -0.147924 -0.0893748 0.143703 0.157715 -0.0997831 0.151013 -0.191957 0.031613 -0.0813302 0.0105659 -0.125473 0.0147921 -0.128783 -0.02165 -0.0406789 0.0200927 0.064816 -0.0344282 0.0397584 0.217526 -0.0166891 0.102733 -0.0988802
Q167_R53 0.00829915 0.204125 0.0769624 -0.109095 -0.0612058 -0.0246759 -0.154303 0.0499497 -0.111438 0.0565052 -0.122242 0.0463379 -0.0326751 -0.139358 -0.208593 0.238486 0.0322212 -0.133793 0.0373681 0.155601 0.0936928 0.0248731 0.182672 -0.0901644 -0.0629135 -0.0904668 -0.0910968 0.0361005 -0.161333 0.198548 -0.0834178 0.0505863 0.036603 0.0232277 -0.0545701 0.0691747 -0.026376 -0.00324199 0.0897959 -0.0564859 -0.0353745 0.110731 -0.0959549 -0.119473 0.120777 -0.109606 0.016177 0.18922 0.0683893 0.128012 -0.0774543 0.0138871 0.0764098 -0.0864464 0.0254877 0.0909645 0.00815187 0.089006 -0.178381 0.0753533 -0.044087 -0.113489 -0.0651465 -0.198663 -0.0056262 -0.100028 0.0740805 -0.162113 0.0384254 0.0234779 -0.0479759 0.01495 0.0365129 0.000573691 -0.211748 -0.00994536 0.120262 -0.0601968 -0.0462579 -0.0802955 -0.00146543 -0.028739 0.0667536 -0.0951136 0.128133 0.05679 -0.0857862 -0.0328525 0.117355 -0.089309 -0.0980716 -0.0257573 0.00792479 0.224327 -0.0469151 0.0660558 0.108254 -0.0699482 0.127762 -0.0751303
Q167_R52 0.18406 0.198499 0.211592 -0.107968 -0.0714533 -0.146217 -0.139688 0.192256 0.127164 0.00156456 0.0494461 0.173077 0.047809 -0.0612942 -0.119697 0.142323 -0.0156685 -0.126012 0.0410222 0.157943 0.0270547 0.0554987 0.17816 -0.101215 0.0371909 -0.0327126 -0.00627567 0.0445754 -0.10907 0.0585438 -0.0321846 0.0445905 -0.00317789 0.0250592 -0.0734411 0.063503 -0.12185 -0.051595 0.0600483 -0.0981553 -0.0252231 0.103433 -0.0202398 0.0604361 0.156763 -0.023249 4.77179e-05 0.169729 0.0782774 0.0991463 -0.0328162 0.0136204 -0.10458 -0.047081 0.10727 -0.0180459 -0.0383458 0.106272 -0.0474713 0.125563 -0.05005 -0.0684228 -0.138883 -0.202495 -0.0125503 -0.0115951 -0.0394515 -0.102796 -0.0326541 -0.042152 -0.0349722 -0.0241016 -0.140827 -0.0611225 -0.154151 -0.0431195 0.0216088 -0.154023 -0.0907353 -0.00233508 -0.0100472 -0.0364228 0.0360084 -0.0490574 0.107441 0.000656239 0.0369712 -0.0652408 0.0556087 -0.0808332 -0.109895 -0.0458139 -0.105743 0.328624 -0.14742 -0.0274984 0.213906 0.00471004 0.0465286 -0.0419817
Q49_R9 0.244925 0.191971 0.224316 -0.0508062 -0.0737076 -0.123833 0.025949 0.206477 -0.0305073 0.09481 0.0630032 0.126137 0.00910359 0.0399374 0.021435 0.115759 -0.120195 0.0826034 0.0133785 0.0498662 0.0317716 0.00953313 0.0904071 -0.12896 0.159503 0.0048052 -0.0150035 0.00942059 -0.142543 0.0026641 -0.0682418 0.0723686 0.0185507 0.219145 -0.106274 -0.037423 0.0876977 -0.0877523 -0.0849836 -0.073504 -0.0262279 0.134127 -0.086589 -0.0748093 0.2244 -0.0970339 0.136041 0.209925 -0.122911 0.063565 -0.103417 -0.0268116 -0.147544 -0.149217 0.0487988 -0.00746772 -0.0843831 0.0116346 0.0524539 -0.0217199 -0.156519 -0.0551573 0.00343736 -0.018144 0.0579775 -0.0168848 0.0492936 -0.0837857 -0.0880559 0.217279 0.00402415 0.03141 -0.122419 -0.0445721 -0.00105591 -0.0129776 0.0063916 -0.0508278 -0.0505396 -0.104795 0.0740891 -0.0236997 0.0867905 0.0774546 0.035251 -0.0335065 -0.0706017 -0.0906201 0.0183195 -0.0736069 0.0633302 -0.18711 -0.00016554 0.212671 -0.106862 0.0506274 0.136621 -0.096449 0.0827618 0.0102063
Q13_R30 -0.0503939 0.0396844 0.0877307 -0.0258176 -0.0179877 0.0667865 -0.0620992 -0.0402018 -0.181679 0.144412 -0.0194817 -0.0693232 0.0303122 -0.0147758 0.0334364 0.125219 0.0759211 -0.0554101 0.156118 0.216765 0.0355029 0.0244394 0.179742 0.0573408 -0.0116385 -0.0794171 0.0471215 -0.0704827 -0.254847 0.13911 -0.103037 0.0250784 -2.09537e-05 0.0311798 -0.136364 -0.0785092 -0.0284644 -0.134473 0.185229 -0.0740855 -0.0431718 -0.0107675 -0.03739 -0.110728 0.113247 0.0215399 -0.0803435 0.0246939 0.00354531 -0.0577763 0.00895201 0.0364723 -0.0658807 -0.0408087 -0.00501619 -0.0552245 0.0649071 0.131695 -0.130355 0.0504078 -0.023813 -0.108584 0.0580489 -0.0624203 -0.195006 -0.0654957 0.0374566 -0.0774294 -0.091099 0.0707455 -0.0509475 0.0138064 -0.150799 0.0135027 -0.144542 -0.195361 0.205014 -0.0486506 -0.126815 0.0530246 -0.0578018 -0.0383639 0.197504 -0.184684 0.139913 -0.109633 -0.01718 -0.0186422 0.0113863 -0.246378 -0.0521013 -0.00540586 0.0673446 0.142411 -0.00373925 0.0193226 0.106919 -0.101648 0.145507 -0.159787
Q49_R6 0.151802 0.104346 0.177208 -0.0725319 -0.0899526 -0.0788467 -0.0600322 0.101165 -0.0788048 0.100161 0.0213795 0.0992859 -0.0845505 -0.0462348 -0.0237991 0.111722 -0.10853 0.0988376 0.00626988 0.0540917 0.04505 0.0429104 0.114594 -0.0674202 0.109363 -0.0292324 -0.0926296 0.0248697 -0.171282 0.072046 -0.149656 0.129865 -0.00652084 0.211321 -0.116069 -0.0121998 0.124733 -0.108106 -0.0894114 -0.0600663 0.0498993 0.154552 -0.0250835 -0.0468355 0.216903 -0.0808681 -0.00544638 0.0895846 -0.129274 0.0438478 -0.124254 -0.019029 -0.125408 -0.259474 0.0704757 -0.036939 -0.0374606 0.0570858 0.0815944 -0.0527438 -0.184526 0.0307929 0.0738983 -0.034437 0.0185891 -0.0116468 0.0125025 -0.140204 -0.0775564 0.235345 0.00897774 0.0443579 -0.0458206 -0.00126862 0.0654024 0.0380705 0.0583013 -0.0218924 -0.0366538 -0.140735 -0.0196117 -0.0241795 0.0503645 0.182083 -0.0418043 -0.0866474 -0.103497 -0.0813408 0.0507493 -0.117027 0.0212742 -0.141916 -0.0380494 0.143008 -0.138325 0.127507 0.227753 -0.0526364 0.115271 -0.0315899
Q13_R32 0.0685959 0.0519307 0.209392 0.0270721 -0.0410556 0.0584892 -0.117065 0.0213728 -0.029963 0.0973389 -0.04445 0.134208 -0.000937858 -0.0710445 -0.157776 0.238438 -0.096308 -0.0185666 0.0692939 0.105882 0.0776883 -0.108008 0.218147 -0.0858931 -0.00576029 -0.132325 0.0357016 -0.0852987 -0.123349 0.150444 -0.137394 0.0549872 -0.0890154 0.105534 -0.146507 0.0742714 -0.115065 0.0639165 0.132036 -0.115664 -0.0644407 -0.00903906 0.0316443 -0.0993255 0.000469963 -0.0911172 -0.0861133 0.0080163 -0.0293461 0.121355 -0.170286 -0.0409654 0.0597595 0.0440446 -0.141527 -0.057611 0.0501631 0.0136683 -0.136529 0.0253097 -0.0871208 0.0674128 0.00741466 0.0891115 -0.0844777 -0.104639 -0.0117604 -0.0582467 -0.18496 0.0608542 -0.0160146 0.116798 -0.0430879 -0.090924 -0.124102 -0.13831 0.14124 -0.157027 -0.0183215 0.0530302 0.0862724 -0.0223508 0.000628798 -0.128204 0.166705 -0.0730969 -0.0625878 -0.137966 -0.139677 -0.22236 -0.0652199 -0.0355331 -0.0915786 0.0898633 -0.021845 -0.0408231 0.199136 0.0185142 0.071517 0.0258084
Q13_R33 0.0829193 0.0276369 0.180349 0.0166331 -0.0239056 0.073304 -0.112158 0.146956 0.00475346 0.169628 -0.0958669 -0.0692864 0.114389 -0.0317927 -0.0175324 0.118502 0.118851 -0.0957964 0.194878 0.257274 -0.0202537 0.0143435 0.229022 -0.161999 -0.0147993 -0.108382 -0.145587 0.0494916 -0.248757 0.0431579 0.111358 -0.0840451 -0.0498784 0.133286 -0.099251 -0.0994435 -0.0829387 -0.168946 0.0494386 -0.109552 0.0980185 0.0611605 -0.00698733 -0.186572 0.102465 0.0193404 0.0550904 0.047322 0.170424 0.0242435 -0.105807 0.00398462 -0.019688 -0.00665376 0.103783 -0.144938 -0.060947 0.109546 0.0434467 0.0765852 -0.102104 0.0293062 -0.0851671 -0.00498976 0.0215241 -0.176665 0.0316179 -0.11855 -0.0502783 0.103409 -0.0337615 -0.0625522 -0.0043752 0.0325574 -0.197678 -0.0820071 -0.0392089 -0.00250671 0.028914 0.0153873 0.0364897 -0.068113 0.11257 -0.0338674 0.0592688 0.0114383 -0.0556248 0.0422564 0.0413472 -0.137118 -0.0565893 -0.0535477 -0.0718114 0.100523 -0.120468 -0.0561848 0.0379213 0.0969738 0.189405 -0.0653372
Q49_R3 0.150964 0.0882617 0.177625 -0.0204429 -0.0536013 -0.00947903 -0.10405 0.13755 -0.117747 0.286775 -0.0647089 -0.0114681 0.0259072 0.084551 0.0165751 0.220855 -0.0151838 0.0357362 0.0858303 0.0982265 -0.0686515 -0.0120856 0.202194 -0.089563 0.0753514 0.013091 -0.0451653 0.0454085 -0.188398 0.00858425 -0.0803377 0.0382011 -0.0121814 0.122866 -0.019643 -0.0990465 0.0512622 -0.0843822 -0.136695 -0.0535296 0.0324762 0.134246 -0.108951 -0.0771684 0.15676 -0.0299144 0.0185748 0.122478 -0.0444783 0.0782258 -0.156773 0.0110005 -0.097973 -0.143748 0.100359 -0.15508 -0.0386007 0.147994 -0.0264861 0.0300003 -0.151206 0.0120621 -0.0508604 -0.0982102 0.0561931 -0.0901422 0.0401906 -0.130263 -0.0109153 0.150345 -0.0504904 0.00489445 -0.0956446 -0.0452132 -0.136123 -0.00118574 0.0566869 -0.00674219 -0.031995 0.0407003 0.0931119 -0.0205988 0.0443592 -0.0809642 0.080922 -0.0310683 -0.115602 -0.00589171 -0.0610488 -0.180103 -0.0276615 -0.232806 0.00467257 0.167655 -0.0925923 0.148397 0.095825 0.0258955 0.186228 -0.0782133
Q162_R41 0.0278784 0.0496879 -0.0604499 0.0202144 -0.121193 -0.0132914 -0.244024 0.0301333 -0.0412614 0.105074 -0.0719162 0.0342779 0.0124275 -0.12919 -0.0659564 0.141444 -0.0626302 -0.0311927 0.0807197 0.10563 -0.0155103 -0.0371482 0.152094 -0.0656454 0.00305229 -0.0248592 -0.00766629 -0.0399732 -0.153126 0.208616 -0.0920036 0.197734 -0.023891 0.0582435 -0.15368 -0.0232125 0.108869 -0.00588979 0.18181 -0.121394 -0.0363018 0.112604 -0.0489861 -0.190241 0.0948983 -0.0208681 0.0104951 0.063251 0.0858478 0.145479 -0.00335897 0.0855875 0.0168058 -0.107608 0.00482159 -0.152895 0.081308 0.124518 -0.118417 0.0340239 -0.000862067 -0.0372544 -0.185739 -0.00149691 -0.0582389 -0.112265 -0.027008 -0.133995 -0.0192083 0.0121833 -0.0123265 0.205995 -0.150327 0.0575057 -0.135113 -0.162726 0.0577989 -0.219183 -0.0893247 -0.00642906 0.0597684 0.135245 0.126857 -0.0110015 0.0526012 -0.133211 -0.0888783 -0.0767539 -0.0363506 -0.161714 0.0243795 -0.0868676 -0.038326 0.102499 -0.17137 0.0863344 0.133825 0.0308125 0.0580028 -0.0594919
Q165_R95 0.0244633 0.0399616 0.0214984 -0.0193804 0.0766951 -0.0700363 -0.192374 -0.00320805 -0.11488 0.201825 -0.0901102 0.0319186 -0.0260049 0.0472861 -0.108049 0.0922819 0.097013 -0.0664199 0.147903 0.157295 -0.00282973 -0.0496684 0.294885 0.0317739 -0.0115381 -0.0439735 -0.0879691 -0.0489866 -0.137829 0.142425 0.052561 -0.00837968 -0.121272 0.0538608 -0.129772 -0.0556578 0.0211635 -0.0632972 -0.118921 -0.158874 -0.0880955 0.0959694 -0.0350888 -0.068022 0.08275 -0.12862 -0.0497523 0.221588 0.10144 0.229755 0.0385517 0.0445813 0.0219881 -0.0935444 0.048276 -0.0241466 0.019059 0.191802 -0.113416 0.093826 -0.0246177 0.0253416 0.00901328 -0.0992433 0.0449905 -0.0491643 0.0631611 -0.0857873 -0.019212 0.0192813 -0.010328 -0.111499 -0.137337 0.0801826 -0.0705422 0.0158779 0.0645667 0.00774988 -0.139089 0.10959 0.0533508 0.0159033 0.0835785 -0.12428 0.129696 -0.0685946 -0.160966 0.00745415 0.23971 -0.18201 -0.0466519 -0.141658 -0.0697072 0.123072 -0.0765727 -0.0178546 -0.0819031 0.0900061 0.0691972 -0.0556699
Q198_R28 0.163431 -0.0593259 0.0209532 0.0330397 -0.0176962 -0.0887767 -0.127149 -0.00642863 -0.0566876 0.0940114 -0.00333882 0.0248867 0.110086 0.0171388 0.115997 0.0574928 -0.127995 -0.00701199 0.00433721 0.0908381 0.0612644 -0.0660344 0.139444 -0.074004 -0.2022 -0.0537471 0.0997015 -0.236101 -0.0931476 0.165892 -0.176396 -0.0110276 0.0259848 0.176683 -0.0238382 -0.0656744 0.058568 -0.0826599 0.168727 0.0684754 0.0113232 -0.00387745 0.0497866 -0.157354 0.0703211 -0.125794 -0.0801177 0.226659 -0.0171186 -0.0124327 0.00210326 -0.0114072 0.116895 0.0701799 0.0511858 0.120825 -0.0643916 -0.0312028 -0.103712 0.0313176 0.155228 0.0934391 -0.0684317 -0.0445114 0.0322321 0.0289028 0.154782 -0.0164269 -0.154411 0.0712164 0.097237 -0.00758291 0.102027 -0.0719087 -0.118506 -0.159104 -0.0103043 -0.0825277 -0.146222 0.116022 0.0870274 -0.0488324 0.132467 0.0555728 0.143718 -0.115509 -0.0923542 -0.169977 0.0184698 -0.246354 -0.136867 0.037685 0.0732522 0.0995986 -0.0208676 -0.0671073 -0.0399623 -0.0592809 -0.0127116 -0.136222
Q149_R19 -0.0355397 -0.0497506 0.0651199 -0.0797286 -0.204985 -0.106074 -0.0301048 0.173307 -0.168739 0.229382 -0.0560034 0.0847866 0.0531883 0.0253042 -0.0921969 0.117516 -0.07196 -0.170314 0.0111748 0.0910298 0.0267887 -0.0616409 0.2274 -0.0984581 -0.041949 -0.123565 0.0652489 -0.0496209 -0.0945713 -0.0356658 -0.0864437 0.0874692 0.054169 -0.178727 0.00981748 0.153019 -0.113842 -0.167794 -0.000583563 0.144786 -0.0256652 0.0778028 0.0718529 0.0348834 -0.000354741 -0.113175 0.0237726 0.00855135 -0.00591123 0.0304777 -0.131795 0.0169997 0.0907264 0.0781005 -0.104891 -0.0126241 -0.0206205 -0.0429071 0.00586411 -0.0470678 -0.0334136 0.0338838 0.0674097 -0.0669698 -0.114351 0.0236723 -0.08809 -0.0454917 -0.0567748 -0.0628579 0.0559774 -0.0575155 -0.131404 -0.0607328 -0.0295197 -0.0792773 0.179426 -0.241822 -0.00359324 0.0756973 0.0668447 0.239212 -0.0325141 0.035384 0.0939465 -0.127002 0.0335781 -0.0659161 0.0550848 -0.1193 -0.0048616 -0.104112 -0.0147297 -0.0289182 -0.34015 -0.00335215 0.0414598 -0.0236033 0.048692 0.118926
Q63_R13 0.142407 0.0104531 0.119462 -0.114097 -0.0423353 0.018519 -0.0889507 0.132903 -0.126089 0.230008 -0.0238586 0.0874907 -0.0187314 -0.0211532 -0.0479326 0.0745526 -0.0429589 -0.114536 0.18499 0.155123 0.00619992 -0.00631004 0.191134 -0.0766954 -0.0350181 -0.0661621 -0.0954617 0.117579 0.0426094 -0.0874293 -0.0795065 0.00312239 -0.0196322 0.0938117 -0.125773 -0.058049 0.0803615 -0.10573 0.0308924 -0.095883 0.0529495 0.252038 -0.0772515 -0.0838874 0.217467 -0.114838 0.00307506 0.045528 0.0791917 0.0566054 -0.0920412 -0.136603 0.0406905 0.00152681 0.0697123 -0.0816514 -0.0244801 0.105005 -0.159604 -0.0311143 -0.0976778 0.0533492 -0.0568372 -0.061841 0.119855 -0.170794 0.101568 -0.0656127 -0.0577368 0.0486352 -0.0943965 0.0657085 0.133188 -0.0135928 -0.145535 -0.00268054 0.0681922 -0.137798 0.0344502 0.0653403 -0.010314 -0.153013 0.0288048 -0.141957 0.0906148 0.0551262 -0.1241 -0.171638 -0.00405117 -0.271868 0.113095 -0.074423 0.0126859 0.103039 -0.0510993 0.0850493 -0.0270721 0.0759361 0.0904815 -0.00599387
Q63_R11 -0.0490656 -0.0183649 0.127791 -0.031433 -0.0745834 0.00772939 -0.110272 0.0238664 -0.0702106 0.101211 -0.0700699 -0.00864181 0.0145428 -0.179571 0.0231809 0.0788333 0.0253022 0.00292128 0.134372 0.237995 -0.0226191 -0.0114405 0.199427 -0.0460788 0.105412 -0.0458672 -0.0554621 0.0327285 -0.0562549 0.230569 0.106955 0.0900037 -0.0599508 0.136812 -0.0956206 0.111253 0.0405173 -0.0214541 0.0654714 -0.0126382 -0.0684694 0.0703732 -0.126922 -0.134526 0.00800581 -0.132579 -0.0823973 0.114072 0.0735882 0.151111 -0.0504281 0.0205485 0.0798106 -0.222799 0.0698032 -0.0597524 -0.0152343 0.188889 0.0177342 0.111974 -0.0902043 0.0404527 0.0729772 -0.0883067 0.0303383 -0.117422 0.0550681 -0.110611 -0.0095449 0.106489 -0.0428027 0.0242839 0.0936665 0.117735 -0.0783157 -0.0273638 0.0384176 -0.0704835 0.0688602 0.00902093 0.00716448 0.0551162 0.170547 0.00736478 0.167662 -0.0726661 -0.140533 -0.178147 -0.0198916 -0.110793 0.0195213 -0.152475 -0.0685468 0.0403035 -0.193068 -0.0193934 0.234443 0.0483756 0.165374 -0.159566
Q5_R47 0.0925563 0.0186892 0.2451 -0.17891 -0.0396341 -0.0613509 -0.0454184 0.203698 -0.0409203 0.0620162 -0.0513507 0.0227161 -0.117501 -0.172649 -0.0686758 0.194375 -0.0137467 -0.0824495 0.0514369 0.195375 0.0635961 0.0549574 0.203699 -0.143845 -0.070844 -0.0467738 -0.115902 0.119024 -0.109404 0.154278 -0.0326946 -0.0220207 -0.0283477 0.0738546 -0.0846331 -0.0132957 -0.0244311 0.0128933 0.0124011 -0.0372294 -0.0654215 -0.0343608 -0.0348686 -0.0461627 0.0889854 -0.0650007 -0.0732614 0.083128 -0.0239203 0.126143 -0.128942 -0.066557 0.126637 -0.0318646 0.0289626 -0.0556325 -0.0899938 0.0543566 -0.127916 0.12099 -0.135049 0.0376001 0.136058 -0.0381776 -0.0447006 -0.11311 0.0773616 -0.120281 -0.039166 0.0182768 -0.0620724 -0.0416646 -0.0378576 -0.107989 -0.162901 -0.156875 -0.0897088 -0.149935 0.0275244 0.0323655 0.0632081 -0.077928 0.068439 -0.171987 -0.00128856 -0.0413924 -0.0207572 -0.0701803 0.00944569 -0.232304 0.0778874 -0.0332079 -0.10358 0.159249 -0.00126512 0.187141 0.087098 -0.0299616 0.179768 -0.113988
Q5_R44 -0.0263567 0.17893 -0.107114 -0.00738941 -0.0329244 0.0249083 -0.136284 -0.0433591 -0.0631094 0.145025 -0.0610705 0.082728 -0.140621 -0.0641171 -0.0120012 0.205735 0.0232268 -0.00590462 -0.0191132 0.13222 -0.0692498 -0.0825708 0.0899365 -0.0561119 0.0832444 -0.171787 -0.0171035 0.0231367 -0.158688 0.120158 -0.0306245 0.0823989 -0.0643868 0.0538597 -0.116383 0.0789347 0.113319 -0.0336845 0.0543762 -0.0786565 -0.0607934 -0.236043 -0.070759 -0.153148 0.115228 0.0261671 -0.0668017 0.0102176 0.0200859 0.145853 -0.190652 0.0596819 0.100771 -0.0617292 0.0884139 -0.190394 -0.0297937 0.0110415 0.0291863 0.0248801 -0.0795378 0.076971 -0.118495 0.142969 0.060651 -0.104628 0.0828437 -0.152573 0.0522965 0.0712708 0.0321536 0.120104 -0.135966 -0.0822276 -0.0909357 -0.02013 -0.0610545 -0.133076 -0.0834966 -0.0810883 0.106621 0.00143596 0.0417285 -0.0322355 0.0225528 -0.040901 0.0316 -0.0169992 0.0403195 -0.32129 0.122555 0.0898166 0.0384634 0.0775736 -0.105572 0.0344208 0.244813 0.0364491 0.114063 0.0631695
Q72_R71 0.110188 0.120156 0.15142 -0.146928 -0.0167435 -9.78453e-05 -0.0821746 0.107996 -0.0290897 0.203179 -0.035557 0.0689121 -0.123227 -0.0405508 -0.0976788 0.130396 0.0310736 -0.205042 0.133578 0.190551 0.151234 0.0274501 0.247521 -0.0891631 -0.0866771 0.120126 -0.173829 0.0941793 -0.00142749 0.238695 -0.00882213 -0.0250566 0.0117327 0.100704 -0.023064 0.0277649 -0.145499 -0.0116837 0.134539 -0.0744434 -0.116048 0.122362 -0.0314967 0.0172135 0.120294 0.0175691 -0.117569 0.0822194 0.0586278 0.0593225 -0.165581 0.0245592 -0.0801549 -0.181686 0.128974 0.0499708 -0.0401316 0.06179 -0.152504 0.0669028 -0.0448124 0.0598169 0.00544708 -0.163251 -0.0270591 -0.082767 0.0756024 -0.145635 -0.0377612 0.0167553 0.00617643 0.00583121 -0.112015 -0.0100089 -0.113706 -0.0538743 -0.0421196 -0.110572 -0.0932687 -0.082237 0.0708348 -0.0134244 -0.0382731 0.0132911 0.0141477 -0.0815349 0.0108847 0.0117586 0.111366 -0.142803 -0.0204093 -0.159793 -0.0561235 0.0887975 -0.000608035 0.0475822 0.0730843 0.140885 0.151377 -0.0326518
Q73_R33 0.0742391 0.0993141 0.0928538 -0.0972985 -0.17396 0.00683914 -0.124199 0.156575 0.04932 0.0606321 -0.268956 0.00362732 -0.223181 -0.108079 -0.0420224 0.0175604 -0.0518292 -0.00863583 0.161085 0.173837 -0.0149782 0.0773779 0.0955312 -0.106023 -0.100932 0.0323678 -0.00921173 0.0122349 -0.21715 0.205136 -0.0193637 -0.0252233 -0.0563762 -0.030826 -0.0396674 0.0387579 0.0257777 -0.0861494 0.0233692 0.00388512 -0.108101 0.112333 -0.0378685 0.0535322 0.104578 -0.0658202 0.0775895 0.0919781 0.0422844 0.0271438 -0.114765 0.0944052 0.0383858 -0.150946 0.124316 0.0422461 0.084259 0.0376223 -0.16512 -0.0538972 -0.0654693 -0.0115338 0.0247795 0.0354143 -0.043419 -0.221042 -0.039111 -0.171468 -0.0114674 0.147243 0.0146599 -0.0968026 -0.101454 0.140288 -0.164607 -0.0305017 -0.0511819 -0.0850163 -0.0531483 -0.0883169 0.0449092 -0.0205169 0.109317 -0.0537285 0.150371 0.0135763 0.0500632 0.0321194 0.148925 -0.0519939 -0.0387138 -0.0966116 -0.145579 0.127197 0.00533507 0.0259303 -0.0091568 0.211975 0.115186 -0.120546
Q127_R51 -0.00239317 0.0701639 0.068453 0.0109533 -0.0235952 0.0817147 -0.180135 0.00597742 -0.0409901 0.215275 -0.126156 -0.156549 -0.113844 -0.0131272 0.0547377 0.0608456 0.0342025 -0.0430666 0.234323 0.15893 0.0660605 0.0450092 0.294802 -0.0808182 -0.00174927 0.0396635 -0.174335 0.00195703 -0.0959462 0.244448 0.0589266 -0.121064 -0.0467212 0.028118 0.0578374 0.0571259 -0.102132 -0.0900451 0.0371027 -0.0185103 -0.0312947 0.12503 -0.0312863 -0.0738967 0.0367385 0.0370258 -0.0676432 0.0767472 0.0785408 0.151814 -0.136113 -0.00609968 -0.0546134 -0.156409 0.0740495 -0.0410172 -0.0854414 0.169947 0.0996417 0.116209 -0.137283 0.0639001 0.0220966 -0.1318 -0.0460765 -0.197707 0.0802673 -0.111052 -0.159692 0.040817 -0.0226342 0.0115638 -0.0801848 0.0520082 -0.110589 -0.000292746 0.0421237 -0.0551745 -0.00280484 0.062257 0.00774472 0.106136 -0.0224519 -0.00410871 0.0503115 0.0642667 0.00368154 -0.0283629 0.0830218 -0.213299 -0.0425246 -0.106495 -0.0181392 0.0972185 0.00489126 0.0423261 -0.052909 0.155376 0.219048 -0.0454173
Q5_R48 0.0973601 0.0272059 0.00692959 0.0389386 -0.207559 0.00768157 -0.0666922 0.0935923 -0.0222581 0.0663764 -0.047903 0.00940044 0.0456256 -0.0678322 -0.00169062 0.216664 -0.175244 -0.0209414 0.0547086 -0.0883517 0.017493 -0.0336717 0.122523 0.045983 -0.1113 -0.00118842 -0.122717 0.132347 -0.1296 0.175793 0.0508909 0.00636166 -0.156118 0.0416659 0.0174736 0.0778528 -0.0975772 0.0172055 -0.06101 -0.0477773 0.0978622 0.0849917 -0.144587 0.0695197 0.111617 -0.0713496 -0.108463 0.240248 0.033345 0.109035 -0.121434 0.0122399 0.12165 0.0135702 0.130706 -0.0577836 -0.0289069 -0.0475714 -0.0243195 0.119333 -0.0916391 -0.107345 -0.088878 0.0494036 0.208424 -0.108888 0.056099 -0.0258463 -0.0601377 0.0891596 -0.109788 -0.0342374 -0.00791668 -0.00277479 -0.106272 -0.130454 -0.100851 0.00600464 -0.0883795 0.192863 0.0555344 0.150289 0.215575 -0.0933756 0.136059 0.0358527 0.157827 -0.0652674 0.0227445 -0.144743 -0.16465 -0.052118 -0.0672627 0.222844 -0.0818583 0.00872615 0.0793761 -0.0192366 0.0543868 -0.0810752
Q193_R41 0.028246 0.12391 0.12858 0.0487024 0.0402096 -0.0505682 -0.164921 0.0529499 0.0424994 0.0358735 -0.0918619 0.0655981 0.0994984 0.0338926 -0.0643661 0.0777386 -0.0720283 -0.083271 0.0630775 0.144407 -0.0323706 0.045632 0.206814 -0.0134697 -0.0245143 -0.0682103 -0.0122893 -0.0784052 -0.212515 0.102001 -0.12482 0.0894813 -0.103834 0.113588 -0.0702661 0.0940327 -0.118294 -0.0468883 -0.130611 -0.102305 0.0202966 0.137462 -0.086284 -0.0410982 0.197914 -0.117699 -0.00835689 0.124701 0.143513 0.152923 -0.0617298 0.00998042 0.0359772 0.0984444 -0.0527886 -0.169102 0.033116 -0.126454 -0.115768 0.117466 -0.201619 0.0135966 -0.034414 0.054642 0.0066703 -0.0372894 0.025477 -0.0582291 -0.0725522 0.0863003 -0.0550419 0.154628 -0.195335 0.0168177 -0.0545904 -0.00538831 0.0243694 0.0616152 -0.136551 -0.0432876 -0.0300838 -0.136165 0.16417 -0.0766834 0.15788 0.0296734 -0.0206057 -0.073285 0.0891929 -0.181465 0.127444 -0.0455592 -0.180697 0.0918336 -0.0596649 0.215006 0.024882 0.0700932 0.0728134 0.0765739
Q193_R43 0.0954241 0.0844925 0.122883 -0.0464686 0.0943951 -0.110223 -0.0659455 0.0988494 0.0931023 0.0124313 -0.101771 0.118859 0.0341947 0.0475419 -0.0536217 0.163861 -0.0884023 -0.0927991 0.0570798 0.110495 0.0870658 0.0901562 0.234917 0.0479555 -0.0732077 0.021764 -0.0758619 -0.0334097 -0.177392 -0.0288342 0.0248265 -0.0270289 -0.00851559 0.128327 -0.0144757 -0.0166243 -0.0793836 0.00308041 -0.0998798 -0.0864669 -0.0730802 0.0577731 -0.00198129 -0.0210508 0.164626 -0.157758 -0.0302577 0.24116 0.0612324 0.0990317 -0.133193 0.0116365 -0.0219334 -0.0114466 0.148883 -0.0535189 0.00640385 -0.0789499 -0.148689 0.0908451 -0.110299 0.0169732 -0.147662 -0.0626964 0.0361877 -0.0343391 0.0304713 -0.194432 -0.163195 0.0476921 -0.0189387 -0.0111904 -0.149158 0.0180236 -0.219853 -0.158212 0.125261 -0.0641812 -0.0650125 -5.14114e-05 0.037082 0.0389942 0.150022 -0.124193 0.195209 0.0609093 -0.111813 0.0162771 0.0297726 -0.177612 0.0336257 -0.129848 -0.117987 0.165918 -0.122047 0.0434044 -0.0482262 -0.0311447 0.149345 -0.0169727
Q193_R46 0.0718036 0.104025 0.130878 -0.0481311 0.0964852 -0.189518 -0.0602736 0.109758 0.180315 0.0215868 -0.0616159 0.0277738 -0.00502727 0.0183845 -0.076706 0.00916202 -0.0989679 -0.10849 -0.0169009 0.133827 0.108219 0.0211851 0.230162 -0.00847924 -0.0143833 -0.124719 -0.0658099 -0.124949 -0.0876102 0.0260025 -0.028859 0.0320485 -0.0300778 0.113597 -0.0216413 -0.00467372 -0.0344117 -0.0261945 -0.104743 -0.0456005 0.0634495 0.0855922 -0.0157131 -0.0297375 0.281985 -0.20922 -0.102952 0.252494 0.0600494 0.214674 -0.00173827 0.070528 0.0468946 0.0701998 -0.0602142 -0.0598981 -0.0282718 -0.184397 0.0821233 0.0182931 -0.194651 -0.0281812 -0.104206 0.0921323 0.027033 -0.16204 0.142673 0.00473203 -0.157223 0.0218401 -0.000962606 0.130419 -0.139893 0.054096 -0.0414979 -0.00332885 0.110135 -0.1496 0.0526414 0.0338886 -0.0661827 -0.160299 0.051489 -0.0490787 0.225205 0.0421758 -0.0163847 -0.0223798 -0.0101643 -0.0946982 0.0936905 -0.0830367 -0.0117938 0.1536 -0.0587403 -0.00299346 -0.0288573 -0.0154841 0.0821653 -0.0159476
Q193_R49 0.0633417 0.115546 0.0994112 0.0156488 0.0515621 0.00677405 -0.117249 0.0157053 0.00708551 0.118665 -0.0424724 0.0581757 0.0765665 0.0484198 -0.0588139 0.174744 0.0246957 0.0209493 0.12086 0.053831 0.171965 0.0695288 0.22332 -0.0976683 -0.0593883 -0.0451902 -0.179833 0.102577 -0.165896 -0.046837 -0.00886025 0.0164188 -0.0796226 0.064775 -0.0710366 0.0311779 -0.00797225 -0.00727581 -0.0863167 -0.0713026 0.0443873 0.0779696 0.00759266 -0.0276817 0.114349 -0.141196 -0.0452601 0.186647 0.143199 0.109467 -0.0425771 -0.0078348 -0.11136 -0.0254563 0.0941008 -0.0634814 -0.0604864 -0.0795544 -0.0659762 0.0327303 -0.111177 -0.0449214 -0.219926 -0.0973561 0.0768043 -0.0569311 0.0485474 -0.11782 -0.18092 0.0508172 -0.0110362 0.0480781 -0.0440346 0.123739 -0.158391 -0.174305 0.0734571 -0.0224425 -0.0296141 -0.0331261 0.00697515 0.0145375 0.147522 -0.0874595 0.181167 0.0555349 -0.087342 -0.0193193 -0.0513033 -0.295597 0.0346529 -0.116607 -0.130401 0.104072 -0.0907957 0.0903543 -0.0702644 0.146197 0.198284 -0.124648
Q118_R43 -0.022464 0.23945 0.0741942 0.0171566 -0.171129 0.0282953 -0.185502 0.012203 -0.0585963 0.105134 -0.0994924 -0.226685 -0.0505942 -0.0727739 0.00427947 0.0495963 0.091639 -0.0979764 0.0507524 0.177202 -0.125533 -0.0509994 0.148542 -0.124987 -0.0335175 0.0133816 -0.0754235 0.0368396 -0.208956 0.0850333 0.0104221 0.115808 0.00885393 0.00985115 -0.0807009 -0.0464873 0.0150723 -0.0753878 0.147276 -0.0953237 0.0241188 -0.0375791 0.0342808 -0.0561911 0.173564 -0.168694 -0.131984 0.0991215 0.110197 0.0624388 -0.0489977 0.0393044 -0.0506942 -0.0174908 0.0321784 -0.0765772 0.115082 0.0713486 -0.106156 0.0226787 -0.0591535 -0.00750275 -0.062745 -0.0272519 -0.234831 -0.104468 -0.0617668 -0.0810852 -0.0776166 0.0898796 -0.0616322 0.0670431 -0.102497 0.00333545 -0.0461521 -0.0710649 0.0599109 -0.0480078 -0.0838808 0.0692556 -0.0240342 0.108954 0.0690681 -0.158621 0.129617 -0.0683382 -0.103576 -0.0633282 -0.000317051 -0.25078 -0.106607 0.0336889 -0.122798 0.233585 -0.0698146 0.00960197 0.176088 -0.0158928 0.0689897 0.0121485
Q70_R38 0.129816 0.164602 0.113723 -0.0560075 -0.0142376 -0.0687724 -0.0368507 0.0386994 -0.0328011 0.0964716 -0.0908975 0.0394538 0.147343 -0.0412616 -0.0590588 0.213356 0.0791827 -0.0568883 0.139353 0.121617 -0.0521938 0.0375133 0.153551 -0.0896188 0.145904 -0.116044 0.0047209 0.0325714 -0.0913096 0.187167 -0.124207 0.21373 0.00704792 0.0771764 -0.132407 0.112534 0.00980416 -0.0649402 0.0197114 -0.105525 -0.021401 0.142642 -0.142422 -0.0905055 0.145426 -0.0478393 0.00748827 0.238251 0.0373911 0.130254 -0.0842099 0.0301506 0.0773901 -0.0941845 -0.00356163 -0.0703118 0.0575629 0.071672 -0.145905 0.00621377 -0.135798 -0.0691703 -0.0445352 -0.0729507 0.0316683 0.0216586 -0.0473524 -0.153013 0.111947 0.131609 -0.115927 0.141735 -0.0353316 -0.00241234 -0.0825377 -0.115557 0.10774 0.0583246 -0.153166 -0.0207991 -0.0252738 0.0354142 0.124408 -0.0619113 0.112764 -0.127382 -0.0689189 -0.139617 0.0442086 -0.152049 0.0639538 -0.0548168 -0.0473525 -0.000509706 -0.115108 0.0491127 0.122733 -0.0276814 0.168559 -0.110471
Q96_R21 0.0311242 0.0994719 0.112171 -0.0576865 -0.0454685 0.0585747 -0.124422 -0.00109487 0.026889 0.122344 -0.154995 -0.0840855 0.127337 -0.0253633 -0.155084 0.179289 0.078783 -0.0375008 0.112415 0.200551 -0.0919614 -0.0104992 0.242078 -0.108048 0.0694498 -0.0556998 -0.067259 0.0755622 -0.154598 0.136271 0.0333144 0.157036 -0.0575195 -0.0216972 -0.157447 -0.0691919 0.0332694 0.00978319 0.0406954 -0.137294 -0.00336317 0.0669343 -0.0335545 -0.173382 0.14328 0.00207241 0.0972473 0.0380109 0.156545 0.0636237 -0.079306 0.0656104 0.0105658 0.0568336 0.0995186 -0.0194672 0.00794266 0.160395 -0.0323085 0.00663449 -0.063164 -0.139031 -0.0645981 -0.0341502 -0.0308938 -0.196312 0.0066648 -0.177751 -0.0251516 0.207705 -0.0884376 0.00429665 -0.0235635 -0.00953794 -0.149535 -0.176543 -0.0387158 0.0176493 -0.078316 0.077492 0.0252134 -0.0226979 0.173104 -0.0113465 0.0278112 -0.0839223 -0.0476614 -0.0738661 0.0653572 -0.0981417 0.0253205 -0.0652175 -0.0483436 0.145919 -0.165765 -0.00411109 0.143163 0.0538773 0.184995 -0.1049
Q96_R24 0.120218 0.0646371 0.0609996 -0.0955216 0.00639301 -0.0966566 -0.0948909 0.0991778 0.063221 -0.00515167 0.00811162 0.199479 -0.123892 0.0638853 -0.202751 0.128752 -0.00139736 -0.184287 0.0148652 -0.0294923 0.0921368 -0.0847403 0.232294 0.0675505 -0.054254 -0.0355367 -0.126983 -0.0875695 -0.0268706 0.0515537 -0.0346226 0.0478983 -0.106186 0.0181524 0.0278802 0.0199803 -0.107879 -0.0527992 -0.043574 -0.148735 -0.0251672 0.0304115 -0.0949007 -0.0703975 0.233482 -0.156413 -0.0693141 0.286957 0.0147149 0.139516 -0.0934395 0.109242 0.0859146 -0.0386279 0.0386944 0.0475163 -0.0682184 -0.0297525 -0.0974929 -0.0125022 -0.101792 -0.0659678 -0.0274452 0.0434357 0.0624212 -0.00491837 0.09681 -0.111533 -0.108569 0.0536773 -0.0121411 0.0991866 -0.0837152 0.0036846 -0.11707 -0.102985 0.119279 -0.0608939 -0.0336453 0.0754833 0.000357858 -0.0628513 0.158012 -0.143917 0.26357 -0.0085011 -0.0100228 -0.120627 -0.00314163 -0.245206 0.0210481 -0.106846 -0.0747966 0.0687829 -0.0928651 0.0968431 -0.0435213 0.107755 0.0510111 0.0063985
Q70_R30 0.126972 0.0569267 0.100843 -0.0525342 -0.0761739 0.00787112 -0.149555 0.0207971 0.0842569 0.228237 -0.0571698 -0.114315 -0.0638881 0.0771291 0.0190321 0.0973196 0.0677663 -0.0846837 0.189538 0.202349 0.121211 0.0175445 0.226758 -0.127772 0.079567 -0.0400061 -0.0981999 0.0512371 -0.129358 0.176177 0.0806902 -0.124207 -0.0720428 0.0844578 0.0622962 0.0986082 -0.115761 -0.0351034 0.0592415 -0.0225509 -0.0181115 0.144532 -0.0234428 -0.0309224 0.0894814 0.0421686 -0.020779 0.0367509 0.196439 0.109954 -0.10327 0.00618726 -0.113246 -0.130704 0.0963731 -0.0509596 -0.123947 0.0797108 0.0639992 0.165597 -0.0771059 0.0153442 -0.0658237 -0.214131 -0.0294249 -0.165881 0.0845742 -0.147087 -0.187402 0.0977684 0.00725391 -0.0315238 -0.0239091 0.0298806 -0.0917546 -0.0807074 -0.0235428 -0.104529 -0.0110707 0.092332 -0.0087942 0.0493706 0.0694499 -0.0668624 0.0425096 0.0442719 0.0783073 -0.101657 -0.00402956 -0.179151 0.0240897 -0.131296 -0.0475292 0.0494629 -0.0466626 0.0165937 -0.00767081 0.104849 0.208479 -0.0874952
Q70_R35 0.0600756 0.0335909 0.109797 -0.0254741 0.0462285 -0.211462 -0.0212383 0.0102022 0.108139 0.22751 -0.0689822 0.0295967 0.0660425 -0.120151 -0.0360058 0.193409 -0.0576626 -0.0865765 -0.0428654 -0.0768218 -0.0904938 0.0915361 0.0326038 -0.0473429 0.0479129 -0.113859 -0.149756 -0.0710146 -0.117801 0.0806188 -0.0300525 0.0693424 -0.114336 0.124381 -0.115256 -0.0975402 -0.0319218 -0.0148251 0.107566 -0.211421 -0.0555244 0.105677 -0.156057 -0.0378335 0.0527306 0.0133293 -0.149713 -0.0191244 0.0731543 -0.0175162 -0.110307 0.0363418 0.0755411 0.0271694 -0.0821642 -0.266016 0.126088 0.0952402 -0.168144 -0.0163538 -0.102681 0.0221825 -0.105838 -0.0299913 -0.0156744 0.0569527 -0.0376887 -0.00976661 -0.00557994 0.0844731 -0.115611 -0.00168517 -0.0195779 -0.0958982 -0.0913641 0.0296455 0.207771 -0.101899 -0.0446337 0.100742 -0.0193079 -0.0669584 0.201468 -0.11083 0.239464 -0.00193316 -0.0619634 -0.116999 0.0218945 -0.182321 -0.0220867 0.142376 -0.091418 0.114985 -0.0313465 0.0439367 0.13292 -0.0449692 0.0750119 -0.00188485
Q70_R37 0.0101041 0.0284245 0.159038 -0.0431426 -0.0368215 0.0453522 -0.0537941 0.110619 0.0511968 0.107589 -0.164449 0.0940523 -0.0143268 -0.167706 -0.140576 0.205997 0.0438039 -0.219499 0.141405 0.187152 0.0338991 -0.0263296 0.19518 -0.140916 -0.0402562 -0.0539381 -0.177906 0.0238468 -0.195552 0.140723 0.000941792 -0.0128918 -0.0580441 0.224859 -0.0278637 -0.0351495 -0.118144 -0.0282411 0.0788516 -0.138985 0.00537434 0.0225575 -0.0248177 -0.0812964 0.162431 0.0249374 0.0301446 0.0395153 0.119214 0.0570456 -0.100969 0.0191239 -0.0737801 0.051012 0.119189 -0.00481701 -0.07494 0.201694 -0.0672043 0.0701343 0.037699 -0.0648373 -0.0694136 -0.0862782 -0.049483 -0.0363431 0.0433613 -0.123121 -0.00901624 0.0365804 -0.0556546 -0.00617579 -0.0197711 0.0222883 -0.198099 -0.0752122 -0.0712276 0.036375 0.0137633 0.0359256 -0.0267024 0.0478937 0.102887 0.0464439 0.138642 -0.0474946 -0.0245861 0.0819049 0.097748 -0.112528 -0.107309 0.00449783 -0.119482 0.224667 -0.0420247 -0.0445288 0.00532357 0.0951396 0.206604 -0.133898
Q70_R36 0.098184 0.0671573 0.0860144 0.0521901 -0.127768 0.0235887 -0.161888 0.118464 0.0230378 0.182343 -0.113881 -0.127126 -0.0569906 -0.0904204 -0.0936573 0.13423 0.0446632 0.0406835 0.130428 0.114691 0.110105 0.0805163 0.311788 -0.100118 -0.0570357 -0.0513838 -0.0749746 0.141059 -0.060061 0.204614 -0.0744818 0.102573 -0.0438227 0.0710537 -0.0940233 0.0559725 0.0619096 -0.158951 0.134334 -0.178524 0.0852587 0.0591421 0.0212346 -0.09907 0.0157523 0.0257784 -0.0637307 0.0799262 0.179288 0.162161 -0.11554 -0.043129 0.0217175 0.0145477 -0.0348668 -0.0143025 0.0124069 0.00489855 0.0877867 0.0781556 -0.095693 -0.0387837 -0.00849491 -0.114598 -0.0485173 -0.0500362 0.0396623 -0.0934984 -0.0477895 0.117267 -0.0688685 0.127102 -0.00496517 -0.103112 -0.067741 -0.109437 -0.0444559 -0.0585198 -0.0554393 0.0208277 0.0186393 0.0510228 -0.00296651 -0.143256 0.040375 -0.095313 -0.121648 -0.0845976 -0.00501253 -0.278454 -0.046798 -0.0202129 -0.179083 0.0746922 -0.143498 -0.0462466 0.128901 0.0375224 0.0299766 -0.130596
Q144_R14 0.195939 0.0610584 -0.0318032 -0.105644 -0.0275639 -0.0773165 -0.0925467 0.0126882 0.0432094 0.0758837 -0.0981494 0.0782635 -0.0258738 0.213052 -0.192973 0.125075 0.042731 0.00843314 0.164034 0.000712414 0.038803 -0.129862 0.257715 0.00732466 -0.052086 -0.20913 -0.0443508 -0.0461773 -0.0806803 0.160795 -0.148402 -0.0697505 0.0393739 -0.014306 -0.0837459 0.0627068 0.107378 -0.168714 0.0671309 -0.0989536 0.0293345 0.00155837 -0.0967373 -0.0351206 0.0932597 -0.0202119 0.00505509 0.0106288 0.0311703 0.0503451 -0.130196 0.0205466 0.151824 -0.0179176 -0.187807 0.0790395 0.0131179 -0.00459042 0.00340535 -0.0226279 -0.0735401 -0.0126204 0.139325 -0.0609056 0.0376655 0.0621333 -0.0298351 -0.170026 -0.0522801 0.0224368 -0.0187404 -0.0380306 -0.021378 0.0265084 -0.00224148 -0.0276893 0.0847851 0.00552815 -0.140372 0.0552117 0.112285 -0.0179942 0.0321521 -0.140841 0.211173 -0.122143 -0.0539433 -0.16916 0.222184 -0.243771 0.0408397 -0.1752 0.0232517 0.0703453 0.0197479 0.101325 0.0932407 -0.131629 0.0366926 0.00918278
Q144_R15 0.153893 -0.083798 -0.120056 0.0364868 -0.0181007 -0.00201569 -0.141621 0.0261651 -0.025379 0.253295 -0.130723 -0.00912261 0.036062 0.144863 -0.0979597 0.145421 0.00995003 -0.00141452 0.0915658 0.0660275 0.0822223 -0.0519399 0.237312 -0.0106433 0.0391016 -0.16989 0.0492238 -0.0108854 -0.106732 0.143179 -0.067729 -0.139708 0.0197975 0.0904312 -0.0941219 -0.0786775 -0.0150592 -0.120836 0.0577055 -0.135823 0.0158503 -0.103664 -0.0572468 0.0578201 0.1092 -0.153445 -0.0627129 0.107827 0.0687072 0.105441 -0.00664661 -0.0105201 0.0783437 0.0245817 0.0839308 0.023396 -0.00430674 0.145789 -0.141133 0.0465241 -0.0193704 -0.0694947 0.0312241 -0.0157882 0.00976558 0.0350226 0.0731427 -0.204225 -0.0650497 0.0685844 -0.0242235 -0.125664 -0.0015645 0.0970966 -0.00413761 -0.12213 0.0952222 -0.0517268 -0.0813744 0.104983 0.00857619 0.00998883 0.0770025 -0.220795 0.218165 -0.0929278 -0.128804 -0.031495 0.183025 -0.305924 -0.105032 0.0361931 -0.00580451 0.0996123 -0.00123292 0.09076 -0.0538015 0.0543403 0.0333079 -0.0116083
Q152_R70 -0.0193768 0.0270447 0.056432 0.0325033 0.000713606 0.193141 -0.170059 -0.0298945 -0.0430692 0.217603 -0.153625 -0.0100306 -0.0438314 -0.0268135 -0.061748 0.10077 0.160017 0.0596226 0.183912 0.234752 0.0708772 -0.0349723 0.253284 -0.0089283 0.0527331 -0.136778 -0.186704 0.0464227 -0.123405 0.181089 0.0657186 -0.154552 -0.077632 0.00908321 -0.048998 -0.0639998 0.062285 -0.0621959 -0.0112215 -0.0365472 -0.0871007 0.0799923 0.0400682 -0.0490113 0.0479132 -0.0355579 -0.0403401 0.177251 0.0280535 0.139867 -0.0463514 0.00279424 -0.0317798 -0.140717 0.012945 -0.00345918 -0.105766 0.124554 0.0368551 0.109657 0.0227349 0.0304765 -0.00648727 -0.032995 0.036202 -0.0848483 0.113179 -0.177471 0.00591498 0.0444806 -0.114915 -0.137335 -0.114008 -0.0274059 -0.0491677 -0.066538 0.0625677 -0.130098 -0.136485 0.0574898 -0.0504999 0.0415973 0.0267516 -0.069099 0.0417664 -0.0898005 -0.0758536 -0.0339426 0.178678 -0.239188 -0.0155031 -0.0227987 -0.0197693 0.109055 -0.123853 0.0429212 -0.00606055 0.162932 0.171032 -0.0142753
Q144_R11 0.241226 -0.127651 -0.0720626 -0.0185 0.0645797 -0.024133 -0.0509831 -0.0587832 0.130007 0.113167 -0.160329 0.0243009 -0.00363684 0.254279 -0.142183 0.0196674 0.0188842 -0.078643 0.107991 0.00789568 -0.0540632 -0.135725 0.184751 -0.129172 0.00682455 -0.145297 -0.0170122 0.0215309 -0.0791409 0.121506 -0.0529 -0.0669841 0.0719401 -0.0082239 -0.142667 -0.00851971 -0.00789023 -0.156125 0.0645582 -0.15595 0.0402796 -0.0784814 -0.0313947 0.0250852 0.10931 -0.0275325 -0.00946439 0.0379175 0.0806975 0.114798 -0.00482538 0.0404728 0.143778 -0.0847162 -0.0130969 0.0665774 0.022813 0.0895016 -0.108016 0.0830957 0.0135887 -0.000210162 0.240969 0.0242156 0.0088978 -0.0209178 0.0774384 -0.243047 -0.08984 0.020552 -0.0576377 -0.0850429 -0.055214 0.102077 0.0400037 -0.116131 -0.0572144 -0.0653094 -0.140536 0.130948 0.0632439 0.0240963 0.0554248 -0.246718 0.251678 -0.117084 -0.0536378 -0.0492198 0.188755 -0.16641 0.048504 -0.046921 -0.0101451 0.0289895 -0.0123278 0.00447623 0.0175583 0.057556 0.00762623 -0.0640738
Q47_R24 0.151928 0.0719891 0.0724563 0.0121928 -0.104568 0.0314081 -0.104728 0.113049 0.0390005 0.075628 -0.106059 0.0465105 -0.00670442 -0.0773364 -0.0183486 0.135784 0.0138181 -0.0908318 0.267146 0.202211 -0.0115402 0.0674961 0.251333 -0.00641875 0.0468535 -0.0271102 -0.149854 0.102267 -0.193194 0.175136 0.123674 0.00035764 0.0181237 0.0851574 -0.0588428 -0.0328887 0.0542548 -0.0510254 0.105112 -0.0532526 -0.0221573 -0.03562 0.0232531 -0.205771 0.158202 -0.0623876 -0.0433084 0.104372 0.0304899 0.139479 -0.0338182 -0.112758 0.0134271 -0.0457698 0.131085 -0.0938715 -0.113709 0.0895467 0.0105837 0.017847 -0.0464166 0.0377935 -0.015662 -0.0817845 -0.0721348 -0.204833 0.0342015 -0.138974 -0.0609957 0.0262456 -0.0462602 0.0607053 -0.111615 0.0371586 -0.113675 -0.0767064 0.0148982 -0.0684675 0.0155061 0.138094 0.0638261 0.00578017 0.124594 -0.0343148 0.127125 -0.00240701 -0.0440765 -0.102654 0.0824624 -0.20376 -0.0456534 -0.065967 -0.123317 0.147652 -0.120331 -0.0340137 0.141772 0.0452108 0.191903 -0.120916
Q47_R26 0.0655315 0.174857 0.179981 -0.107411 -0.0813652 0.0818951 -0.040057 -0.0119913 -0.0397187 0.148495 -0.103337 0.0121943 -0.194914 -0.0023678 -0.0377278 0.0601663 0.0138637 -0.0193744 0.0489648 0.217833 0.0633474 0.14231 0.265627 -0.0748259 -0.0838069 -0.0958925 -0.109674 0.145643 -0.0608893 0.222324 -0.0716583 -0.03268 -0.105683 0.028416 -0.113249 0.0582762 -0.0507723 -0.0571702 0.142092 -0.169347 -0.0680858 0.0731003 -0.0018014 -0.064991 0.085532 -0.0591479 -0.0763667 0.103077 -0.0269043 0.0297223 -0.15152 -0.108316 0.042383 -0.177839 -0.0225357 -0.00960113 -0.0146604 0.041131 -0.0528542 -0.0448467 -0.125401 0.0465806 0.0117651 -0.106482 -0.0402905 -0.115559 0.0577499 -0.169286 -0.0185996 0.0476611 -0.026687 0.0484218 -0.0644588 0.00908675 -0.132391 -0.122417 -0.0569679 -0.083086 0.0287961 0.0335607 0.0564171 -0.0178526 0.0654322 -0.154702 0.0412456 -0.0865032 -0.0539923 -0.191297 -0.0892871 -0.242859 -0.0652709 -0.0338193 -0.146105 0.0771763 -0.160932 0.100376 0.127229 -0.0195339 0.0449403 -0.0454638
Q47_R27 0.202801 0.153246 -0.0140457 0.000745237 -0.027408 -0.0120226 -0.0780638 0.0401691 -0.0557504 0.13312 -0.0164465 0.0314067 -0.116709 -0.0114044 -0.144877 0.26746 0.0118838 -0.0142369 0.0932327 0.116409 0.0125312 0.0310761 0.161388 0.0785852 -0.0614407 -0.0918271 -0.0882773 -0.00595237 -0.127274 0.084124 -0.154487 0.163061 -0.0465406 0.104945 -0.055241 0.0552994 0.0809361 -0.0133286 0.0116933 -0.0922125 -0.0694515 -0.074791 0.0382868 -0.103327 0.16765 -0.0275947 -0.100282 0.0159638 0.119052 0.0997502 -0.152811 -0.0215871 0.109909 -0.0765817 -0.111805 -0.00975182 -0.0125345 0.0370202 -0.192768 -0.0243744 0.00516044 -0.0432673 0.0787251 0.020876 0.0513297 -0.0353828 -0.0234026 -0.142883 -0.0886729 0.120085 0.0419328 -0.0635885 -0.0148556 -0.0477871 0.0140876 -0.154693 0.0150035 -0.0453848 -0.110837 0.121515 0.0321808 0.0370866 0.139135 -0.135424 -0.0051542 0.011633 -0.102551 -0.161303 0.0777959 -0.335225 -0.00674948 -0.0540608 -0.0272674 -0.0239316 -0.181713 0.141302 0.18293 0.0401105 0.114248 -0.12769
Q37_R71 0.113727 0.01202 0.127999 -0.0193906 -0.0984989 -0.0711896 -0.0455059 0.19609 -0.000221752 0.00476824 -0.0811708 0.0458702 -0.0512215 -0.0526145 -0.00790156 -0.000514969 0.0104097 0.00536389 0.0233204 0.121718 0.0169566 -0.0455152 0.285196 0.0461351 0.0432147 -0.0522571 -0.0263897 -0.0339374 -0.0886209 0.158604 0.145405 -0.156117 -0.0215011 0.0956779 -0.138029 0.13618 -0.10836 -0.0793207 0.16221 -0.0873552 -0.0860502 0.0590354 -0.0457827 -0.000179564 0.051428 -0.0241204 0.109896 0.179635 0.128521 0.245804 -0.203393 -0.0165447 -0.0562551 -0.0742045 0.214149 -0.0621601 -0.114862 -0.0113774 -0.0367232 -0.0828826 -0.053926 0.0777118 0.0431443 -0.0692612 0.0539742 -0.0617014 -0.030096 -0.147814 0.0280649 0.201952 -0.0690489 0.0760556 -0.0342846 0.0926914 -0.0304727 -0.105454 -0.000488976 -0.123648 0.0174835 0.00152667 0.113474 -0.0324867 0.142699 -0.0083918 0.0682066 -0.0827479 -0.0816519 -0.102143 0.00723837 -0.122622 0.0103747 -0.185941 -0.0653838 0.226919 -0.129395 0.0453044 0.114374 0.0258677 0.0221983 -0.141369
Q31_R27 0.193581 0.0956117 0.085742 0.0385907 -0.040098 -0.0771767 -0.15888 0.0673302 0.0258061 0.187497 0.0371058 0.0585024 -0.054052 0.091801 -0.125142 0.159301 0.167215 -0.0301612 -0.0613693 0.158585 0.0977024 0.0413058 0.177992 -0.0322038 0.00500788 -0.085967 -0.0457027 0.0552218 -0.00682482 -0.0221363 -0.113427 0.0600574 -0.0684069 0.120055 0.0681941 -0.0929179 0.00893101 -0.0119123 -0.0310024 -0.13462 0.0763734 -0.14491 -0.119217 0.0587183 -0.0653723 -0.0415873 -0.129868 0.029747 0.0803269 0.136953 0.0307271 0.0212104 0.0896041 -0.162541 0.101187 -0.00249376 -0.0817952 0.0731452 -0.0911666 0.016545 0.0560853 0.234749 -0.0173355 -0.0341478 0.0265949 0.092821 0.0323125 -0.0573045 -0.0242034 0.101515 0.00780582 -0.00620964 0.0819539 -0.111127 -0.192122 0.00561787 0.177175 -0.186491 -0.0857316 0.0724812 0.168719 -0.0531488 0.0960256 -0.122737 0.170692 -0.0188408 -0.100803 -0.0830309 0.108711 -0.256298 -0.020101 0.0458418 0.0881805 0.129138 -0.0570956 0.0650139 0.0683268 0.172672 0.00109408 -0.0576762
Q141_R48 0.0639268 0.0209492 -0.0195003 -0.033123 -0.195517 -0.179061 -0.160536 0.0212735 0.0715488 0.0706797 0.0107399 -0.060765 -0.0633057 0.0628813 0.167871 0.22543 -0.022989 0.00517715 0.0808634 -0.0149508 0.0405768 -0.247395 0.164674 0.036481 -0.0965395 -0.142121 0.10851 -0.0190873 -0.170893 0.0524912 -0.129532 -0.191729 -0.0173851 0.149822 -0.0615185 0.0280841 0.000620143 0.0781045 0.110633 -0.106561 -0.0651509 0.0743695 0.0303825 0.0199536 -0.0136084 0.112892 -0.0175229 0.192445 -0.0965468 0.0416568 -0.122836 -0.080504 -0.159948 -0.118138 0.0365445 -0.0667264 -0.0703065 0.0486534 -0.00309215 0.115508 0.00816397 -0.0489473 -0.0613466 -0.205067 0.0556314 -0.104027 -0.0150194 -0.0776879 0.0357844 0.0759534 -0.0614688 -0.0573247 -0.0531718 0.115735 -0.166663 -0.0584403 0.0490327 -0.128582 -0.103253 -0.0480634 0.0166056 0.0580627 0.122606 -0.00210989 0.224561 -0.11187 -0.0345023 0.0622003 -0.00523949 -0.171584 -0.0319957 -0.0205286 -0.104215 -0.0222327 -0.121512 0.145356 0.0103852 0.0750571 0.14595 -0.00651576
Q31_R23 0.315236 0.120065 0.124393 0.00297806 -0.0695411 -0.0286311 -0.088461 0.0237073 -0.0311809 0.195248 0.0944596 0.109976 -0.0745565 0.0260608 -0.0342754 0.167055 -0.00686129 -0.0238117 0.0542316 0.104727 0.00204579 0.155718 0.124607 -0.0217191 0.000738886 -0.0709777 -0.122847 -0.0721278 -0.100836 0.130499 -0.186541 -0.0154597 -0.0771198 0.0426423 -0.179235 0.0253118 -0.091777 -0.004782 -0.0190991 -0.00895518 -0.137457 0.00850384 -0.0460338 -0.0487745 0.133425 -0.037677 0.0394218 0.102908 0.055512 0.117435 -0.0391894 0.11367 0.122958 -0.183412 -0.0613766 -0.126776 0.0244285 -0.0309158 -0.0533857 0.0617361 -0.229931 0.0185818 0.0222666 0.0333013 0.0604318 -0.131016 0.0264723 -0.0381569 0.0976024 0.174881 0.128979 -0.035808 -0.0537224 -0.164849 0.012912 -0.0729079 0.105071 -0.112276 -0.171508 -0.0165913 0.0961547 -0.0759539 0.0976128 -0.150642 -0.137538 -0.0212108 -0.0765987 0.0266151 0.0977328 -0.194235 -0.0552809 -0.0670842 0.0125281 0.116229 -0.0952735 0.122051 0.11821 -0.0181579 0.0379956 -0.0204967
Q31_R22 0.023596 0.092102 -0.114346 -0.0804923 -0.0578064 0.112303 -0.074331 0.0985432 -0.0247742 0.0439717 -0.079358 0.0424923 -0.0891481 -0.0875036 -0.189019 0.205238 0.0164531 0.0989003 0.0710705 0.0627945 0.0212447 0.0248345 0.122041 -0.056217 0.0692599 -0.0223653 -0.021255 -0.0216828 -0.166626 0.128186 -0.0317145 0.201647 -0.0108434 0.0434112 -0.143415 0.0721471 0.207842 -0.133485 0.0609003 -0.0951767 -0.0127652 0.024371 -0.0722799 -0.165447 0.146578 -0.0535915 -0.00705438 0.107052 -0.0360233 0.229621 -0.0433986 -0.0256107 0.122243 0.0248957 -0.00153997 -0.0984646 -0.0137771 0.117308 -0.018072 0.0221434 0.0865387 -0.0644672 -0.202646 0.00836254 -0.0521154 -0.140924 0.126487 -0.221866 -0.0490896 0.0970009 -0.0315389 0.139191 -0.0241004 -0.0634311 -0.0317863 -0.204669 -0.0691422 -0.12855 -0.0699296 0.00173252 0.0285538 0.0140372 0.141128 0.0377437 0.00795599 -0.0160362 -0.0867045 -0.0734731 0.0331351 -0.0652027 0.124782 0.0473637 0.0213502 0.0842169 -0.1245 0.163598 0.167246 0.0543726 0.221689 -0.0581251
Q184_R21 0.112935 -0.0278577 0.0172849 -0.136231 0.0181869 -0.0647212 -0.0871128 0.0129453 -0.0642464 0.0899444 -0.0186059 0.130918 0.125556 0.141448 -0.207865 0.184671 0.00286018 -0.133319 0.0779148 0.0592156 0.160041 -0.110676 0.246623 -0.0422021 -0.0246382 -0.0521327 -0.0822636 0.0604483 -0.067535 0.0215288 -0.115341 0.0197185 -0.110903 0.145974 -0.0307014 0.0967959 -0.140312 -0.135941 -0.0519632 -0.110839 -0.0671625 0.07436 -0.168812 -0.062068 0.247435 -0.0728418 0.0180613 0.140964 -0.0935122 0.0549521 -0.137111 0.0276097 -0.034461 -0.105655 -0.0657259 -0.0693805 0.0755595 0.0787135 -0.241469 0.073586 -0.157376 0.00728423 -0.0293634 -0.10424 -0.00150616 0.0710279 -0.041291 -0.181736 0.00533305 0.16298 -0.0424619 0.0154287 -0.0507055 0.0739609 -0.051955 0.141433 -0.024446 -0.0610876 -0.00203839 0.0868992 0.0138283 -0.0174054 0.0272964 -0.133366 0.140421 -0.0266875 -0.0160848 -0.15493 0.0807916 -0.142288 -0.0963348 -0.147529 0.0364972 0.0123646 -0.0793275 0.013811 -0.0249945 -0.133101 0.0466667 -0.00474808
Q31_R20 0.00715423 0.0421722 0.000575294 -0.0148152 -0.0537633 0.0701261 -0.162535 -0.0744297 -0.0716106 0.260208 -0.0520066 -0.151042 -0.24519 0.0087603 -0.0299223 0.102454 0.0459286 -0.0434851 0.188469 0.124205 0.0589815 -0.0954032 0.281939 -0.0245436 0.0377672 -0.0268781 -0.0146653 -0.0135816 -0.109761 0.249809 0.0356012 -0.0522412 -0.203152 0.0777253 0.0841543 0.015342 -0.0399575 -0.0153269 0.0252855 -0.011958 -0.0218942 0.0625316 0.0588817 0.0652067 0.0249166 0.0454294 -0.0943732 -0.041452 0.0458211 0.15154 -0.046605 0.0841212 -0.0583537 -0.143393 0.0645276 -0.0313752 -0.0146739 0.122698 0.125573 0.040919 -0.0344723 0.0669475 0.00907582 -0.238032 -0.0518648 -0.176347 0.134846 -0.173696 -0.182674 0.0784756 -0.05101 -0.0405319 -0.0220921 -0.016386 -0.0263769 0.0111569 0.0161153 -0.043285 -0.0523961 0.0571418 -0.144803 0.130083 0.0133455 -0.0713604 0.0468928 0.125539 0.00714092 -0.0927915 0.0746755 -0.104766 -0.0282041 -0.106005 0.0121304 -0.000143205 0.0396547 0.118514 -0.0130752 0.100067 0.211576 -0.11704
Q88_R44 0.180927 0.0649293 0.0589237 -0.0832973 -0.0981595 -0.0104602 -0.170247 0.158072 0.0140153 0.180883 -0.0831632 0.155516 -0.0393498 -0.0359839 -0.029879 0.138236 -0.0246199 0.0927001 0.0656095 0.0352254 -0.0694179 0.10416 0.0540077 -0.0494625 -0.136822 -0.0569944 -0.0714082 0.0809352 -0.017523 0.155313 -0.154297 0.0753805 -0.148265 -0.0675123 -0.233628 -0.0180386 0.0351464 -0.0891703 0.157049 -0.11781 -0.0648641 0.148353 0.00789171 0.0293434 0.0140426 -0.0698911 -0.0693278 0.178598 0.0597758 0.113596 -0.142022 -0.113284 -0.0795411 -0.0882177 0.0212986 -0.108068 -0.17691 -0.0200466 -0.032116 0.0093541 -0.0633321 -0.0213227 -0.0706872 0.0778395 0.167731 0.00996653 -0.0758746 -0.170674 0.048668 0.0684127 -0.127328 0.0218516 -0.0972413 0.0267978 -0.208679 -0.142467 0.0654451 -0.080126 -0.00863309 0.0514638 -0.0698557 0.0324605 0.0400704 -0.207763 0.02133 -0.0662421 -0.0574563 0.0378888 -0.0707596 -0.170352 -0.0716627 -0.088367 0.00535301 0.0663396 -0.0990607 0.0346798 0.208952 0.0591982 -0.00886184 -0.111073
Q84_R18 0.316252 -0.00938793 0.119508 -0.107912 -0.129243 -0.0690147 -0.129506 0.169452 -0.00433582 -0.0525278 0.059321 0.113226 0.0540143 0.0646901 0.0783451 0.0833307 0.0215264 -0.116223 -0.0409673 0.084374 0.126594 0.116366 0.230358 -0.0944286 0.0276333 0.0152726 -0.111945 0.0482493 -0.0653675 -0.0442573 0.086643 0.0736864 -0.0449141 0.145767 -0.0794956 0.0109976 -0.128648 -0.0651478 -0.0688015 -0.0510898 -0.0444357 0.212668 -0.00983692 -0.064804 0.242554 -0.0359118 0.00580754 0.041836 -0.00634108 0.158735 -0.0698771 -0.0370961 0.0326072 -0.0747976 0.0850341 -0.0478849 -0.103846 0.0646248 -0.0605476 0.0245732 -0.0227787 0.110159 -0.0928886 0.00324109 0.0479462 -0.0884024 0.0272765 -0.150554 -0.0221304 0.206499 -0.00450853 -0.0249144 -0.00881206 0.0331252 -0.170934 -0.0298307 0.0937542 -0.164451 -0.078413 -0.083089 -0.00744805 -0.0365606 0.161541 -0.118162 0.0187441 -0.137739 -0.0722483 -0.0113263 0.099541 -0.105513 0.0352593 -0.257725 0.00618035 0.158587 -0.122486 0.037736 -0.0186627 -0.00943109 0.039026 0.0552675
Q88_R41 -0.00624202 -0.0117106 0.0875012 0.0431172 -0.133445 -0.0400096 -0.102497 0.10372 0.0243076 0.102537 -0.167324 0.00793635 0.014681 -0.0480741 -0.0597178 0.175392 -0.0856189 0.164833 0.0323519 0.16355 -0.0538301 0.126049 0.268884 -0.0371852 0.105237 -0.110171 -0.182886 0.215033 -0.051635 0.260714 -0.0871283 -0.0773487 -0.0829631 0.0757727 -0.0398347 0.155965 -0.15527 -0.0548465 -0.0113234 -0.116394 -0.022672 0.00786063 -0.0697378 -0.118794 -0.0211625 -0.041232 0.0810228 0.104455 0.177031 0.075126 0.0351286 0.048625 -0.0481035 0.0401319 -0.0122644 0.0700623 0.035231 0.0734407 -0.00180045 0.0589807 -0.166678 -0.125583 -0.0164986 -0.205639 -0.0893168 -0.117247 0.0330668 0.00345355 0.16167 0.00655046 0.0626901 0.0368843 0.0542778 0.0599586 -0.186431 0.0815623 -0.0386472 0.113033 0.0763468 0.0109799 -0.113148 0.037889 0.0399112 -0.0760868 0.0026571 -0.0762878 -0.0650648 -0.0619208 0.104243 -0.198474 0.0694549 -0.0602029 -0.111166 0.0305614 -0.0608622 -0.0675833 0.0904545 0.0752669 -0.0004777 -0.123857
Q184_R29 0.163068 0.105865 0.170175 -0.13516 -0.045063 0.0789089 -0.103873 0.166998 -0.0687762 0.219081 0.0307593 0.0710154 -0.0277269 0.00992768 -0.0412667 0.196549 0.0436094 -0.14181 0.0363712 0.200535 0.0921475 -0.0144572 0.159007 0.0175758 0.0201239 -0.027401 -0.139083 0.0490767 -0.0676402 -0.0250931 -0.0571447 0.1283 0.0387081 0.0964766 0.0471425 -0.0399492 -0.139698 -0.123533 0.0662035 -0.0719544 -0.0273661 -0.015913 -0.169259 -0.114217 0.134667 -0.0934375 -0.04105 0.0861773 -0.0449195 0.0714925 -0.0354402 -0.0135451 0.125055 -0.157294 -0.0353619 0.0756231 -0.00418737 0.0456217 -0.232063 -0.0989716 -0.0845266 -0.045653 -0.109287 -0.0270791 0.00420085 0.0533626 0.055038 -0.109875 0.120848 0.0381675 -0.0746898 0.00926273 -0.0192947 -0.0116642 -0.228324 0.0701609 -0.0342626 -0.119096 0.0313344 0.0468107 0.126021 -0.148927 0.0276285 -0.128879 0.0502248 -0.102041 -0.0384448 -0.0185641 0.112361 -0.208344 0.0457648 -0.104091 -0.0155664 0.0536454 -0.0898271 0.128812 0.154159 0.177958 0.0465494 -0.0302079
Q31_R28 0.148384 -0.0669059 0.0205172 0.0111297 0.0105701 -0.0702651 -0.0365519 0.0760128 -0.0520865 0.134192 0.0532604 0.0446217 -0.113922 -0.061582 -0.0230356 0.0568684 0.0643088 -0.0753223 -0.036101 -0.0654292 -0.0333797 0.103939 0.142476 -0.209319 -0.0980766 -0.125478 -0.142252 0.0544719 -0.0505451 0.22516 0.1134 -0.00634546 -0.0915525 -0.0838746 -0.212841 0.103119 -0.0655077 0.0185581 0.138289 -0.0401067 -0.0679745 0.19669 -0.0138526 -0.03951 0.030427 -0.0565152 -0.0556875 0.0513079 0.135791 0.199756 -0.0929079 0.0454808 -0.0909924 -0.146899 -0.00696351 -0.0924042 -0.0625182 -0.0471392 -0.085308 0.0792875 -0.0813368 -0.00251063 -0.132749 -0.0228611 0.181099 -0.0484108 0.00316496 -0.00578104 0.0691608 0.159262 -0.00875662 0.0227072 -0.0439195 -0.0450348 -0.192025 -0.0163558 0.0745752 -0.207496 -0.0601668 0.100098 -0.096262 0.0614196 0.15461 -0.125088 0.0779463 0.0205195 -0.082007 -0.0986233 0.1356 -0.152996 -0.0781626 -0.152309 -0.0981983 0.103558 -0.0687006 0.136631 0.19109 0.08079 0.0417534 0.0230163
Q136_R12 0.201786 0.0289196 0.178029 -0.181924 -0.0931909 0.0287821 -0.0716945 0.021972 -0.00383173 0.194706 0.0581771 0.0961756 0.00575537 0.050667 -0.135082 0.148368 -0.0963081 -0.0618981 -0.0231204 0.0957639 0.0181099 0.0195496 0.139936 0.0627152 0.0863858 -0.0623008 -0.0888971 -0.0421636 -0.0688902 0.0279114 -0.0382743 0.000737257 -0.00318884 0.105734 0.00280101 0.0239616 -0.118288 -0.0567816 0.0716972 -0.15607 -0.0159064 0.174961 -0.26761 -0.05749 0.141396 -0.205401 -0.0429008 0.0463406 -0.190305 -0.00263795 -0.00676434 -0.0753712 0.0706205 -0.155716 0.111365 -0.00402812 0.00424415 -0.0563019 -0.127207 0.0699495 -0.17968 -0.0960607 -0.0443626 -0.145023 -0.0391761 0.127496 -0.0760159 -0.110071 0.0736362 0.0545435 -0.0789897 0.0358688 -0.136535 -0.101734 -0.0970981 0.0071818 -0.0896033 -0.0346921 -0.0183737 0.00608407 0.0713053 0.0341988 0.0291807 -0.0537167 0.103881 -0.104478 -0.0478385 -0.0211689 0.191641 0.0101381 0.220521 -0.192203 0.0402606 0.00516883 -0.148915 0.0996087 0.0264441 0.097851 0.0758455 0.030605
Q136_R15 0.278006 0.100235 0.158183 -0.120588 -0.0285366 -0.0393246 -0.0692198 0.075333 -0.0321976 0.077436 0.161807 0.176119 -0.0443903 0.0634551 -0.0441886 0.189872 -0.0623005 -0.0842145 -0.0250914 0.0631372 0.0520933 0.0350234 0.112896 -0.0400136 0.0184823 -0.0752109 -0.171495 0.0668199 -0.00864226 0.0558243 -0.0745688 0.0118654 -0.0142527 0.0874226 -0.139896 0.04872 -0.0256378 -0.0247256 0.0648844 -0.132132 -0.0691289 0.0523464 -0.0638256 -0.00954618 0.122987 -0.0660896 -0.0371676 0.221081 -0.0914523 0.107465 -0.100312 -0.155797 0.0515387 -0.114025 0.0319608 -0.0315542 -0.0542725 0.0454718 -0.225529 0.0946376 -0.184292 -0.0436458 -0.0489334 0.0098605 -0.080241 -0.018445 0.0717074 -0.118829 0.0985553 0.0514926 -0.00743677 -0.0205377 -0.0782111 -0.145144 -0.187934 -0.176819 0.0486262 -0.114984 -0.108598 0.0570442 0.10407 0.0187825 0.0499878 -0.153323 0.0647818 -0.0907063 -0.0421297 -0.112469 0.0990896 -0.161565 0.0484075 -0.0741982 -0.0946072 0.102065 -0.161109 0.0800615 0.153114 0.0450601 0.0737902 0.0798341
Q136_R16 0.229319 0.080057 0.250469 -0.17159 -0.0928746 -0.00337794 -0.0745826 0.0376033 -0.0406696 0.103063 0.0802078 0.176322 -0.0184267 0.0693142 -0.0368071 0.11697 -0.132456 -0.00531557 -0.0606229 0.0698349 -0.0341252 0.0064204 0.143472 0.118292 0.131022 -0.0439979 -0.0370837 -0.00239355 -0.14914 0.0720274 -0.103118 -0.0440179 0.0651982 0.114825 -0.0486218 -0.0227531 -0.11628 -0.0781299 0.0252591 -0.13395 0.0109217 0.138855 -0.169124 -0.00958448 0.112277 -0.153368 -0.121418 0.119009 -0.199523 0.0273978 -0.0186256 -0.113814 0.123054 -0.15125 0.0143557 -0.0942961 -0.036176 -0.0541499 -0.196656 0.0883862 -0.19057 -0.115571 -0.0964195 -0.087198 0.0268334 0.104486 -0.00653789 -0.0830786 0.0304518 0.0423628 -0.116875 -0.00828176 -0.167107 -0.0757206 -0.111022 -0.0433596 -0.115885 -0.0486095 -0.0604741 -0.0692091 0.113075 0.0237171 -0.0113077 -0.130586 0.0682218 -0.0845743 -0.0302134 -0.00422862 0.193844 -0.0196503 0.123689 -0.131774 -0.0359956 0.0280516 -0.0723161 0.0959901 0.105446 0.020007 0.0113906 0.0413233
Q196_R26 0.106188 0.0129915 0.109834 -0.0649621 0.0157031 0.0465219 -0.105599 0.091098 0.00490183 0.200876 -0.110134 -0.0343319 -0.0326085 -0.0337391 -0.105749 0.14321 0.0731488 -0.0565876 0.216012 0.198706 0.0379324 0.0929161 0.180904 -0.111958 0.00814005 -0.0148165 -0.034306 0.020142 -0.175952 0.304884 0.00155624 -0.0198375 -0.00789512 0.0836272 -0.0760708 -0.00695421 -0.0680131 -0.147765 0.0448085 0.0104194 0.0197822 0.0768244 -0.0741604 -0.0642437 0.0508364 -0.0107314 -0.0671178 0.156565 0.159134 0.120864 -0.125014 -0.0143329 -0.046473 -0.0725276 0.147388 -0.0394751 0.0172539 0.110781 -0.159069 0.101969 -0.108866 0.1148 -0.0412405 -0.167913 -0.0226393 -0.18714 0.0619887 -0.135926 -0.0884843 0.0504621 -0.0155507 0.0151778 -0.0563193 0.0736874 -0.136153 -0.101247 0.0402621 -0.066366 -0.0633202 -0.0287458 0.0152479 0.0339175 0.0639318 0.0202107 0.0857776 -0.0114634 0.00368869 -0.0176103 0.131033 -0.17979 -0.0198575 -0.0381934 -0.119347 0.118957 -0.0574037 0.09102 0.150355 0.0473305 0.22186 -0.10873
Q196_R27 -0.0926705 0.0216169 0.0659963 -0.0752142 -0.0798544 -0.0489282 -0.117027 -0.057031 0.0374351 0.172466 -0.141188 -0.0525863 -0.0140805 -3.60991e-05 -0.0898514 0.209826 0.0770252 -0.134646 0.177814 0.22135 -0.0172567 0.123033 0.232536 0.0160528 0.0850612 0.0773549 -0.101472 -0.0116489 -0.133944 0.209773 0.0295738 -0.0868404 0.0393318 0.0889102 0.0112787 0.110948 -0.140384 -0.0723032 0.0752618 -0.0206835 0.00796667 0.0183017 0.0514869 -0.064304 0.0964956 -0.0389814 0.0343119 0.0578931 0.0493132 0.15333 -0.105201 0.0305594 0.0455712 -0.103604 0.102193 -0.0663496 0.0310898 0.229139 -0.039107 0.0945115 -0.0259995 0.0279527 -0.141558 -0.222506 0.0716577 -0.253921 0.030004 -0.122584 -0.0615921 -0.018562 -0.0877462 -0.0532628 -0.0477731 -0.0602288 -0.0755878 -0.0479023 -0.048998 0.0416564 -0.120253 0.0654651 -0.0244148 0.0880847 0.0461651 -0.00628307 0.0503745 -0.0131079 -0.142346 -0.121651 0.152023 -0.0797995 -0.00205021 -0.0980991 -0.0816038 0.088898 -0.00707055 -0.0463656 0.031025 0.13579 0.127374 -0.166778
Q75_R52 -0.00612739 0.104282 0.00297327 0.0126588 0.125239 -0.020953 -0.143093 0.0794981 -0.00545297 -0.0525128 0.0500832 0.0518131 0.0377606 0.0567213 -0.124425 0.0296114 -0.110942 -0.0840708 0.0180025 0.21623 0.0792051 -0.00389056 0.204647 -0.0335744 -0.00535153 -0.0366229 -0.045711 -0.0189233 -0.177938 0.0302084 0.0101514 0.142344 -0.0520848 0.163603 -0.129789 0.0664424 -0.17069 -0.113826 0.0221853 0.00272746 0.0544086 0.0923907 -0.119396 -0.0170967 0.0642486 -0.0421374 0.0593262 0.0886107 -0.104684 0.272322 -0.083269 0.0268279 -0.0508245 -0.0920301 0.135847 -0.0316136 -0.0438456 0.0794036 -0.0702606 0.0720156 -0.0528964 0.00821692 -0.122211 0.119611 0.0666952 0.135528 0.0699129 -0.113292 -0.0246007 0.0605393 -0.107111 0.0439896 -0.2331 -0.00114895 -0.110853 -0.00186936 -0.0754174 -0.210667 -0.0747801 0.0933901 0.0720611 -0.0650442 0.158264 -0.0933017 0.185543 -0.177443 0.111995 0.0162975 0.0408955 -0.132572 0.115317 -0.107298 -0.124464 0.197619 -0.0321836 0.0533115 0.0634532 -0.0962564 0.0277412 0.0803535
Q3_R25 -0.0321969 0.0194168 0.0827143 -0.113099 -0.106788 0.0296164 -0.153156 0.0452492 0.00904472 0.285933 -0.105494 -0.0407803 -0.169709 -0.0304372 -0.052227 0.0419714 0.125598 -0.12131 0.220818 0.218258 0.123055 -0.0144145 0.187422 -0.0444827 -0.045349 0.0527198 -0.12597 0.00586196 -0.0696858 0.285043 0.0819882 -0.0765869 -0.0123731 0.167395 0.00742682 0.0245444 -0.0703106 -0.0746989 0.0790583 -0.0489263 -0.0297681 0.117656 -0.0127341 -0.0193936 0.13364 0.0571371 -0.130715 0.0346251 0.15144 0.103678 -0.10468 0.0706069 -0.0638148 -0.204473 0.116183 -0.0221814 -0.0443385 0.0977531 0.0169729 0.109512 -0.016323 0.124989 -0.00749663 -0.178207 -0.0232069 -0.167868 0.106108 -0.17653 -0.125607 0.0486245 0.018195 0.00196203 -0.105918 -0.0379911 0.00784832 -0.0056484 -0.0367042 -0.0897229 -0.0659112 0.00060634 0.0601846 0.0263284 -0.0524974 -0.0451129 0.0385558 0.00497255 0.0450204 -0.0639948 0.0604527 -0.102308 -0.0302035 -0.120936 -0.0519968 0.0750239 -0.0317572 -0.00584187 0.0287559 0.137334 0.183298 -0.0684866
Q75_R55 0.151868 -0.00672549 -0.00202933 0.00276297 -0.0444781 -0.100709 -0.198488 0.0458717 0.0486187 -0.0163776 -0.0762239 -0.0202056 0.0372449 0.299878 -0.0592567 0.1731 0.0829116 -0.116554 0.0736614 0.1388 0.137061 -0.0822109 0.242822 -0.157817 -0.141867 -0.0674046 -0.0264875 -0.0603913 -0.0157524 0.0931457 -0.0406563 0.0380113 -0.0328595 0.0837008 -0.0735008 0.0757984 0.00218253 -0.120164 0.0719304 -0.0484219 -0.0334987 0.0854007 -0.0200868 -0.0709008 0.0293189 -0.0918748 -0.0395275 0.140682 -0.00502068 0.0384177 -0.018303 0.0178936 0.0467481 -0.0164357 0.0592419 0.133965 -0.114873 0.145655 -0.077853 0.145373 0.0712525 -0.0806855 0.0267233 0.0460511 0.0053591 0.0240843 0.171347 -0.130133 -0.0747833 0.0399353 0.0197089 -0.0175319 -0.09265 -0.00978374 -0.0727729 -0.119263 -0.0812036 -0.0717523 -0.0317244 0.180828 -0.0643079 -0.0212716 0.169079 -0.1377 0.216248 -0.113809 -0.0942862 -0.0284423 0.287704 -0.161591 -0.0303245 -0.0870131 -0.106666 -0.0201591 -0.0193152 -0.0418998 -0.0383 -0.057458 0.141193 0.0156395
Q21_R71 0.146546 0.0121927 0.0296153 0.0470134 0.0817862 -0.145052 -0.154833 0.034758 0.0764683 0.152593 -0.00706163 -0.0540428 0.00333179 0.252454 -0.078918 0.151968 0.0534233 -0.128847 0.139168 0.051867 0.000679998 0.0337411 0.234708 -0.228525 -0.0188716 -0.167627 0.0690369 0.118274 -0.134124 0.0400453 -0.045307 -0.103229 -0.052365 0.122003 -0.0989082 0.000402013 -0.0600121 -0.0925343 0.00968774 -0.155177 -0.000949544 -0.0268257 0.0441217 -0.0384495 0.135673 -0.0839161 0.0102791 0.0308494 0.10582 0.140086 -0.066605 -0.0560331 -3.25099e-05 -0.0125293 0.0769967 0.120209 -0.0442569 -0.00210899 -0.0462425 0.0731186 -0.0725947 -0.0948926 0.0532875 -0.0364612 0.0227818 -0.0437499 0.0510152 -0.194027 -0.183052 0.0949898 -0.0717257 -0.0618871 -0.00731149 0.0279996 -0.0830956 -0.181851 -0.0849186 -0.0817292 -0.109751 0.116156 0.0167742 0.0989166 0.177986 -0.238198 0.0984372 -0.124771 0.0361696 0.0190325 0.139038 -0.189819 0.00816737 -0.0524403 -0.0596175 0.00153528 -0.0301904 -0.00886829 -0.0786503 0.106126 0.0394951 -0.0702505
Q21_R77 0.102922 0.177783 0.20009 -0.0893022 -0.0279745 0.0089712 -0.0958652 0.0816956 -0.159252 0.0287121 -0.135501 0.00998566 -0.0563257 -0.0747726 0.107017 0.182953 0.0119362 -0.106761 0.0293921 0.124505 0.0448275 -0.0387652 0.179954 -0.0290212 -0.0130952 -0.014896 -0.0732413 -0.0270567 -0.0666758 0.147431 -0.108145 0.0904253 0.0394526 0.0168657 -0.201997 -0.00599783 0.0326506 -0.0416298 0.126868 0.0153337 -0.134939 0.0177874 -0.0147728 -0.0930551 0.0379488 -0.0261473 -0.0606591 0.166774 -0.0815426 -0.00936118 -0.0252224 -0.0103961 -0.0510818 -0.0105751 0.099478 -0.080679 0.051331 0.187008 -0.0942085 0.0842964 -0.0796339 -0.0287568 0.0382234 -0.0794926 -0.12304 -0.0890674 0.0377779 -0.113046 0.0432738 0.143486 -0.0579633 0.00818777 0.0125365 -0.0506846 -0.0759184 -0.251029 0.0691275 -0.0388225 -0.0654132 0.029615 -0.0226005 0.012298 0.207039 -0.172699 0.106191 -0.123998 -0.12419 -0.113615 -0.0287148 -0.253688 0.0227249 -0.0324658 -0.115829 0.140881 -0.0496988 0.0435807 0.1716 -0.0517195 0.195975 -0.101029
Q123_R49 0.265852 0.0959452 0.00462273 0.00644208 -0.132476 -0.0326134 -0.119505 0.162679 -0.0669678 0.0669932 0.00753196 0.0563765 -0.141709 -0.0769613 -0.0948789 0.124764 -0.044724 -0.144768 0.142299 0.223964 0.0217382 0.0687749 0.278643 -0.05361 -0.0668554 0.00499331 -0.0630008 0.0883981 -0.145295 0.157954 -0.000698781 0.0589017 -0.0254417 0.0622016 -0.131389 -0.000660216 -0.0996727 0.0359288 0.0911229 -0.20762 -0.0800602 0.109854 0.0445416 0.0273781 0.167318 -0.0829111 -0.0122323 0.126831 -0.0497983 0.0183567 -0.0985694 -0.0162197 0.0239913 -0.0923576 0.0503595 0.0908655 0.00348928 0.0383287 -0.135383 -0.0513711 -0.152426 -0.0657413 -0.117606 -0.0225222 0.028305 -0.0533437 0.0581666 -0.174659 0.0523597 0.095864 0.0181996 0.0468687 -0.114573 0.0490708 -0.17098 -0.172853 0.0796837 -0.103977 0.0179764 0.0317557 0.134881 -0.0467768 0.157178 -0.100193 0.0608807 -0.00909162 0.014657 -0.0125109 -0.00154231 -0.112682 -0.033293 -0.167601 -0.0720545 0.0234414 -0.0581689 0.00806018 0.14998 0.0759539 0.087223 -0.0887367
Q164_R30 0.152245 0.0424264 0.0726875 -0.0419631 0.0132721 0.0735381 -0.234972 -0.0480521 -0.0996188 0.104563 -0.0609301 0.0187561 0.0243827 -0.0580562 -0.205367 0.115005 0.0200437 0.0632452 0.109226 -0.0522729 -0.136749 0.0448741 0.0953959 -0.145876 0.0423758 -0.0928378 0.0316087 -0.123427 -0.0954548 0.20845 -0.0835242 0.194777 0.0125712 0.0108466 -0.131474 -0.0262882 0.0648025 0.109847 0.00958999 0.0317633 -0.0425854 0.0430479 -0.0814346 -0.150813 0.139191 0.0433157 -0.00727042 0.0482409 0.313654 0.0840383 -0.075113 -0.053496 -0.0403398 -0.0337339 -0.0620612 -0.0622645 0.119425 0.123741 -0.101142 0.0435881 -0.0773129 -0.0690831 0.0507205 0.0887098 -0.0882698 -0.0304127 0.153801 -0.152469 0.0254968 0.103032 0.0548349 0.0697397 0.0293485 0.00419613 -0.17911 -0.0626944 0.105583 -0.0505855 -0.0771838 0.0687006 -0.0125948 0.108574 0.105404 0.00779615 0.137823 -0.0121505 -0.0765891 -0.0337321 -0.0254985 -0.244452 -0.0141274 0.127141 -0.0588233 0.0821327 -0.0618474 0.0705808 0.02796 -0.0812317 0.230147 -0.072451
Q197_R11 0.13697 0.0658517 0.104711 0.02375 -0.0281033 0.135703 -0.0407219 0.146985 -0.126744 0.145571 0.255611 -0.0220372 -0.0655991 -0.0790405 -0.0257186 0.0466029 -0.0548431 -0.0538444 -0.00254919 0.119944 0.139115 0.10865 0.187936 0.0641316 -0.0710946 0.0964291 -0.0073707 0.037529 -0.00388312 -0.0237383 -0.0812668 0.0697031 -0.0965308 0.177084 -0.200997 -0.107093 -0.163143 -0.0322087 0.000129231 0.00753907 -0.145805 -0.0450192 -0.0565481 -0.0776201 -0.0221916 -0.010222 -0.0585515 0.107812 -0.133366 0.148561 -0.000611782 0.0807041 0.045765 -0.0901597 -0.01406 0.0805797 -0.0202331 0.121277 0.0599441 0.0777128 -0.0515414 -0.035084 0.0379783 0.139145 0.0713457 -0.169116 -0.0697355 -0.104894 0.0823104 0.151572 0.0985787 -0.0500168 0.0358906 -0.0235557 0.0173378 -0.107317 -0.0615956 -0.156639 -0.119395 -0.0752987 0.103904 -0.0799518 0.120473 -0.198436 -0.115729 -0.141098 -0.00414244 -0.12478 0.00482457 -0.0241747 -0.0738514 -0.111081 0.0857962 0.063943 -0.152232 -0.0949018 0.10648 -0.00975013 0.23009 0.0821251
Q72_R1 0.157994 -0.00587964 0.107992 -0.10101 -0.0825075 -0.0497347 -0.124265 0.0901417 -0.0697666 0.161805 0.0860752 0.147215 -0.149212 -0.0923447 -0.0412461 0.154804 -0.0043516 -0.248738 0.0149868 0.0768898 0.215659 -0.0669032 -0.00292839 0.0520918 -0.123756 -0.0874956 -0.109156 0.0426057 0.0652322 -0.00151469 0.0546758 0.0619709 -0.00464737 -0.0104504 0.00597965 -0.0151002 -0.0911187 -0.0487783 0.035373 0.0267342 0.0238381 -0.0229188 -0.0561492 -0.0610233 0.258932 -0.0559981 -0.050026 0.0404545 -0.0609031 0.134978 -0.0973083 0.0516415 0.113347 -0.122743 -0.0454773 0.0401611 0.0471741 0.061662 -0.277861 -0.124595 -0.0167597 -0.0119971 -0.0387137 0.109058 -0.0288131 0.0462274 0.129013 -0.116117 0.0615248 -0.000143104 0.0221659 0.0161731 -0.0257707 0.0199829 -0.0640199 -0.0214962 -0.0105718 -0.166298 0.0194202 -0.0442188 0.154549 -0.208954 0.0882319 -0.0955232 -0.000888162 -0.12215 -0.109649 0.0185034 -0.0859916 -0.246642 -0.0210636 -0.128198 0.00531539 0.00120688 0.0237213 0.119801 0.146859 0.218835 0.0611834 0.0476005
Q145_R19 0.166532 0.0345221 0.0861766 -0.0056099 -0.0876772 0.0307163 -0.152212 0.0557557 0.0225357 0.167413 -0.0374561 0.0701549 -0.0937176 0.00397661 -0.132715 0.0582849 0.03014 -0.104 0.0375757 0.142424 0.0891845 0.0199502 0.262125 0.0356845 -0.0507498 -0.0465386 -0.0560415 0.0348229 -0.0394009 0.196098 -0.0857743 0.15009 -0.284624 0.0530532 -0.200215 -0.100813 -0.056436 -0.114705 0.164571 -0.126013 -0.057961 0.0136033 0.045016 -0.0428283 0.0829669 -0.151351 -0.112272 0.0967184 0.0501672 0.0578281 -0.0734464 0.0603054 0.182575 -0.0538764 0.0620695 0.000745705 -0.0433062 0.00578051 -0.0966471 0.027734 -0.190861 -0.0643388 -0.0147714 0.00196907 0.133759 -0.118676 -0.0292008 -0.0610054 0.0176193 0.0406825 -0.00800026 0.0764737 -0.036379 -0.0265863 -0.145182 -0.106298 -0.0689466 -0.104143 -0.0931993 0.0556265 0.120492 -0.0261873 0.127699 -0.216519 -0.0472963 -0.0276489 -0.0164327 -0.0698533 -0.0881295 -0.0885963 -0.147015 -0.0048707 -0.0727139 0.0708578 -0.0586286 0.0127812 0.205396 0.0255791 0.112075 -0.11684
