3167 100
Q117 0.0573262 -0.015932 0.0373328 -0.0255977 -0.0650288 -0.0180224 -0.0190161 0.00996056 0.0194659 -0.019039 0.0816953 0.0607988 -0.0405288 0.0511099 -0.0607355 0.0428024 -0.147089 -0.0347961 -0.0281227 -0.103487 -0.0639614 0.0488036 -0.0882329 -0.0425831 0.0490306 0.00751307 -0.0534299 0.0946855 -0.0479602 -0.099966 0.00558073 0.0612156 -0.0460718 0.0280545 -0.00716411 0.00770164 0.13004 0.0416185 0.00404977 -0.0105206 -0.0740573 0.0132797 -0.0389039 -0.0353436 -0.00468074 0.028358 -0.0141815 0.0382944 -0.0631565 0.0348521 -0.00708586 -0.0312884 0.0634675 -0.0179144 0.00847538 -0.0381309 -0.0292682 -0.0376524 0.00883651 0.0471687 0.0316744 -0.0637556 -0.0575566 0.0575934 0.0573987 0.0653266 0.0316878 0.0518471 0.104904 0.0236462 -0.0489005 0.020519 -0.12968 -0.124802 0.0315425 -0.0456688 -0.0774479 -0.0510748 -0.0237282 -0.0839594 0.0617699 0.0911168 0.0262822 -0.0201479 -0.012923 -0.0462137 0.0602804 -0.00808564 -0.0657709 0.0281847 0.0874571 0.0119451 -0.0256348 0.0257013 -0.03267 0.0240689 0.0803254 0.0204987 -0.0774387 0.0984638
Q116 0.0400213 -0.0142637 -0.0458082 0.0822462 0.000817769 -0.103325 -0.0285735 0.0411606 0.022076 -0.0319158 0.0298642 0.0143452 0.0739676 -0.0374123 0.0744707 0.0319013 -0.0442534 0.00801024 -0.0630409 0.000234779 -0.0798065 0.020516 -0.0320059 0.0137151 0.0750571 -0.0398608 0.0961217 -0.0340239 -0.0606904 -0.0273454 -0.00191463 -0.0096634 0.0257179 0.0129217 -0.0603213 0.018479 -0.00881436 -0.00829536 0.0202573 -0.0901082 -0.0230797 -0.00170644 0.0112464 -0.00721395 -0.0320911 -0.0128067 0.0864922 0.0174082 0.0293426 -0.0494444 0.0303421 0.00293512 -0.0335812 0.0302197 -0.0440631 -0.044223 -0.00779199 -0.0191776 0.0236642 0.0275476 0.0160337 -0.0149484 -0.0656967 -0.0320863 0.0438775 0.0322669 -0.0382328 -0.00616503 0.0666834 0.0613392 -0.0396554 0.0521763 0.00439018 0.0174335 -0.0509331 -0.0127489 0.0349885 -0.0382982 -0.00699853 0.00507242 -0.0647308 0.044563 0.053569 0.0428231 -0.01607 -0.0105595 -0.0344172 -0.041619 -0.0557478 0.0170479 -0.0375012 -0.0372935 -0.0230456 0.0151741 -0.0619727 -0.00873421 0.0408383 -0.0281703 -0.0160088 -0.0166692
Q200 0.0845462 0.00151431 -0.021041 -0.0272213 -0.0485994 -0.0386155 0.0219118 0.011015 0.0434847 -0.0220564 -0.0622655 0.100776 0.0752349 -0.0284625 0.097051 -0.0028349 -0.0763879 0.0931917 -0.0567097 -0.133306 -0.0153197 -0.020057 -0.11457 0.0755094 -0.0615822 -0.0208048 -0.00448362 -0.0549512 0.0159678 -0.0552413 -0.10483 0.0646941 -0.0477641 -0.0389362 -0.11533 -0.0522112 0.0403714 0.00648764 -0.0128433 -0.0189445 -0.0116356 0.0675639 0.0340889 0.0282101 -0.0626432 0.0304939 0.0135934 0.0355677 -0.102381 0.07925 -0.00120604 -0.154681 -0.0130652 -0.0289306 -0.0189511 -0.0641615 -0.062433 -0.0297673 0.0230692 -0.0475962 -0.0324108 -0.0483616 -0.00179935 0.0754536 0.0573504 0.131051 -0.155838 -0.0347124 0.103731 -0.0318603 0.0233775 0.0300863 -0.00288421 0.0244955 -0.00715318 -0.040751 0.0602551 0.03394 -0.0288858 -0.0339102 -0.0208476 0.0200033 -0.0178616 -0.0476113 -0.00633937 -0.0429084 -0.0667597 0.0238466 -0.0441871 -0.0196362 0.00259365 -0.0487532 0.0283369 -0.0416665 -0.0736225 0.000974504 0.0411314 -0.111206 -0.0673375 -0.0258237
Q51 0.0418952 0.030605 0.00170358 0.00505176 0.0366379 -0.0604155 0.0144951 0.0276658 0.0679419 -0.108756 0.00394688 0.0514189 0.0513488 0.0411736 -0.038302 0.00416841 -0.10713 0.0178295 -0.0249469 -0.0370207 0.019261 0.0463667 0.00859487 0.0652156 -0.0079805 0.0183485 -0.0516494 -0.0104004 -0.0517623 -0.1351 -0.0191022 0.0326365 -0.042869 0.0233264 -0.00948299 -0.0232852 -0.00811136 0.0315617 -0.0739222 -0.0537099 -0.00486241 0.0234378 0.00927101 0.0336376 0.036089 -0.0799128 -0.0150368 0.136201 0.00245597 -0.00371938 0.042052 0.0223982 0.0182498 0.0297465 0.0464003 0.00893534 -0.0499262 -0.125989 -0.00531292 0.0106654 -0.0108788 -0.0443337 -0.0954422 0.035017 0.0246739 0.0431241 0.000895394 0.0240015 -0.0208091 0.0302754 -0.0126744 0.0272344 -0.0586002 0.0296823 -0.0634821 -0.0503295 0.0731315 -0.00804133 -0.0327947 -0.011632 -0.0368197 0.0259668 0.0438113 -0.023148 0.0491769 -0.00784771 0.00741684 0.00835543 -0.0626609 -0.0263652 0.056391 -0.0240406 -0.0712598 0.0230072 -0.0539374 -0.00738477 -0.00532086 -0.0596143 -0.0251687 0.00543167
Q50 -0.0622941 -0.00287563 -0.0594018 0.035748 -0.0157738 0.07918 -0.0166881 -0.0389137 -0.0232299 0.0257485 -0.0777725 -0.0763188 -0.0395128 -0.00569969 0.0279168 0.00137561 0.0423543 0.00381495 0.0686428 0.0435505 -0.00772934 -0.00448098 0.0494566 0.00190156 0.0329708 0.0179431 0.0123621 -0.0139809 0.022905 0.0601564 0.0541711 -0.0451006 0.0251302 -0.00023627 0.0440912 0.00524582 -0.00277588 -0.00665228 -0.00791654 0.0487162 0.0196027 0.00804835 0.0164811 -0.0117691 -0.0424798 0.0530306 -0.00673048 -0.037251 0.019241 0.0233719 -0.00965495 0.00297339 -0.0294038 -0.00177665 0.0160259 -0.0102256 0.00432267 0.081767 0.0642809 0.0606503 0.00938708 0.0486338 0.0149874 -0.0626845 -0.0640353 -0.0787226 0.032617 -0.00105366 -0.0696982 -0.0161173 0.0290849 -0.000224165 0.00603071 0.0552222 0.0263604 0.00590651 0.000134334 0.020245 -0.027985 0.0127555 -0.0290969 0.0358394 -0.0363766 0.0195123 0.00420836 0.0195185 -0.0112534 -0.0169456 -0.0143327 -0.0341424 -0.00472704 0.0295414 -0.000990621 -0.0106717 0.0139487 0.0175253 -0.0515337 0.0197491 0.0573764 -0.00669089
Q53 0.0455459 0.00642252 0.0237327 -0.0186665 -0.000617162 0.0423927 0.04941 -0.0537684 -0.00992548 0.0336682 0.0725825 0.0371857 -0.00823534 -0.00954431 -0.0516347 0.0183281 -0.00443858 0.024717 0.0374126 0.00882243 -0.0281127 0.0299756 0.0507701 0.0203515 -0.0265348 -0.0882108 -0.0853906 0.0246079 0.0645516 -0.108406 -0.00516043 -0.014598 -0.0495304 0.00791601 -0.0158959 -0.0713679 0.0383907 0.0412079 0.0374882 -0.0631029 0.0160416 0.0296591 0.0488726 -0.0567923 -0.00114676 -0.0656159 -0.0659607 -0.0268518 0.00622198 -0.0218999 -0.0161836 0.0323078 0.00747474 -0.0441847 -0.00304827 -0.0893157 -0.0453386 -0.0752976 0.0345423 -0.0420752 -0.0978416 -0.0337843 -0.0431699 0.0736121 0.0882434 0.0871542 -0.0329313 0.0424838 -0.00670281 0.0141062 -0.0634562 -0.0220659 0.00839546 -0.0384948 0.00513756 0.0268218 -0.0325694 0.0745452 0.0705217 0.0267388 0.0963918 0.00739589 0.0687432 -0.108262 -0.0515408 0.0216074 0.0300771 0.0809263 -0.0510283 -0.0268686 -0.0147184 0.0192239 -0.0100679 -0.0261985 -0.0494375 -0.00352324 0.0462782 0.0564239 -0.0164021 0.066647
Q52 -0.00475666 0.0408199 0.0747915 0.000930297 0.0369692 0.0284641 0.0232455 0.0304658 0.0314656 -0.0191138 0.00173709 -0.0110972 0.0925085 -0.0130686 0.00336249 0.00682409 0.0240109 0.0494862 0.0389651 0.0245236 0.00575101 -0.00444255 0.000231155 -0.0797311 0.0862052 -0.0092863 -0.0533518 0.000789461 -0.0816368 -0.0630672 0.0347574 0.016966 -0.00129368 0.0236666 -0.0297962 -0.0329053 -0.00892626 -0.03407 -0.0588478 -0.0108958 0.0627382 0.00271143 0.0311115 -0.0964021 0.0460253 -0.016319 0.0381949 0.0197385 0.050962 -0.0453864 -0.0199866 0.0246147 -0.0107509 0.0195213 0.0173504 -0.0242164 -0.0196215 -0.0339176 0.0324124 -0.0152358 -0.0453627 -0.029427 -0.00543176 0.0124445 0.00933755 -0.0383064 -0.0304392 0.0249737 0.00284021 0.0336683 -0.0180626 -0.0374597 0.0449005 0.0301527 -0.0251597 -0.0501142 -0.0182839 0.0558572 0.00516249 -0.00145433 -0.00765678 0.00258273 0.0328343 0.0180131 0.000941866 0.0248794 -0.012419 0.00316441 -0.0080825 0.0120262 -0.0173818 -0.0104062 -0.0418296 0.0411089 -0.0247902 -0.0178372 0.0155203 0.03993 0.0202856 -0.0271412
Q55 0.157264 0.00135935 0.0838295 0.0245261 -0.00494355 0.00297683 0.0191313 0.0280877 0.0183848 0.0855114 0.14863 0.0258157 0.0429678 0.0384454 -0.0709375 0.057809 -0.0285179 0.00402711 -0.124532 -0.0223629 0.0450814 0.0399127 0.0155084 0.0891047 0.0679511 -0.0805115 0.0209982 0.0322182 0.0783066 -0.0773371 -0.103754 0.078844 0.048557 0.0348558 -0.0194915 -0.0139509 -0.00389047 -0.0406194 0.0406428 -0.0505719 0.0370285 0.0448547 -0.116388 -0.0141638 -0.00381814 -0.0726472 0.0120496 -0.0816874 -0.0626444 -0.058797 0.088743 -0.0472503 0.097769 -0.0259034 -0.00932733 -0.00772683 -0.0125206 -0.0588125 -0.113944 -0.0163893 -0.0124725 -0.0143028 -0.00325501 -0.046007 0.0431954 0.105896 -0.0227615 0.00627527 0.00818514 -0.00389796 -0.0913328 -0.0358189 0.0431613 -0.115086 -0.00807668 0.0360079 -0.0334834 0.0192647 0.0157501 -0.0450746 0.0651844 0.0756212 0.0579186 -0.0457503 -0.039247 -0.0957971 -0.0406344 -0.00760663 0.0972555 0.104135 0.0669384 -0.0574476 0.0956154 0.0204146 -0.0139129 0.0842364 -0.00701965 0.0297749 -0.0854289 0.0680973
Q54 -0.0379759 0.0602362 -0.0193337 0.00517364 -0.0244811 0.0182039 -0.0208804 0.0195056 -0.0103167 0.0615891 -0.013513 -0.0223054 -0.0757535 -0.0123366 -0.0140428 0.030824 0.0395335 -0.0224534 0.0649581 0.0830423 0.0297008 -0.0247971 0.0308836 -0.0268776 -0.0614068 0.0394748 -0.0177596 -0.00708524 0.0150733 0.0160415 -0.0319482 -0.0374358 -0.0352393 -0.0100721 0.0692247 0.0294337 -0.0265113 0.0259983 0.0256615 -0.0104205 0.00532248 0.00382773 0.0461206 0.0122586 0.0526978 -0.00713674 -0.0146391 -0.0020666 -0.0167653 0.0196484 -0.0400315 -0.0287592 -0.0841818 -0.0188874 0.013231 -0.00482402 -0.00164109 0.042058 0.0492796 0.0082472 -0.0236862 0.0165095 -0.0155896 -0.0852399 -0.0682611 -0.0204363 0.0426088 -0.0114153 -0.0615323 -0.0335577 -0.0156626 -0.00509768 -0.058751 -0.0188891 0.00101581 0.0549069 0.0183124 0.0371162 0.0363801 0.00642846 0.0418173 -0.0186844 -0.0180855 0.0612013 0.0378078 0.140883 0.0175153 0.0814696 0.00283819 0.0293982 -0.0177575 0.0164679 0.0109641 0.0368022 0.0306237 0.00768058 -0.0415874 0.0541772 0.0398957 0.0194399
Q57 0.035715 0.00664473 0.00521578 -0.0268319 -0.0296567 -0.0166799 0.00927621 -0.0459177 -0.0241192 -0.0470186 0.10763 0.0778376 0.010522 0.0112542 -0.0244314 0.0426922 -0.0342539 -0.00777591 -0.0646494 -0.0363727 0.00673676 -0.0275479 -0.0375877 0.00188706 0.0165004 -0.0311004 0.01554 0.0268546 -0.00114843 -0.0490739 -0.0812375 0.0595766 0.0100538 0.0118566 0.00610869 0.0130046 0.0103041 0.0231576 -0.00572992 -0.0421455 0.00050557 -0.00578186 -0.0159758 -0.00117299 0.0273923 0.0175158 0.0167967 -0.0180547 -0.0727066 0.0113258 0.00818148 -0.0352734 0.0648548 0.00444618 -0.0177878 -0.0123668 0.00522519 0.00150115 -0.0418824 -0.00856569 0.00805252 -0.02934 0.0219339 0.0320841 0.00193107 0.0586924 -0.00542894 0.0263535 0.0508368 -0.0269487 -0.00772194 0.0092869 0.0192422 -0.0797982 0.00823123 0.000949159 -0.0127125 -0.0678175 -0.0130945 -0.0330391 0.0638566 -0.00636574 0.0214258 -0.0235985 -0.00968976 -0.0457299 0.0154669 0.0138165 0.0247263 -0.0030989 0.0167754 0.00681117 0.0381597 0.0139332 -0.0154198 0.023289 0.0387433 -0.016883 -0.051775 0.033044
Q56 -0.0303983 0.0741198 0.0362414 0.0126449 -0.00121643 0.0236558 -0.00440553 0.00991003 0.0075447 -0.0362417 -0.0451672 0.00833509 0.0195992 -0.0556808 0.0137871 0.0768955 -0.0106385 0.0109367 -0.0064121 0.00896883 -0.0467695 0.0325531 0.036353 0.00642664 0.0259101 0.00227983 0.0272132 0.0389966 -0.0213711 0.00484644 -0.0222467 0.047196 0.00525226 -0.0119828 -0.0103189 -0.0130974 0.0113694 -0.0129954 -0.0139137 0.0464606 -0.0110438 -0.00450372 -0.0373637 -0.0158602 -0.0342334 -0.00833463 0.00683108 0.0424155 0.00280653 -0.0248386 -0.017948 -0.0453716 0.0223865 0.063647 -0.00852292 0.0162313 0.0386314 0.05043 0.00452317 -0.00224636 -0.0130497 -0.0193221 -0.0152798 -0.0234836 -0.0371568 -0.0533685 0.0312552 0.0442844 0.0106836 0.0140958 -0.00872847 0.0289969 0.0139013 0.0530948 -0.0423465 -0.00647827 0.0201508 0.0162479 -0.0169732 -0.00194538 -0.0194131 0.0144563 0.000304797 0.0159273 0.0222169 -0.0588094 -0.00105897 0.0171774 -0.0417648 0.0161922 -0.00119865 0.0423004 -0.00368453 0.0231223 -0.0562795 0.011517 0.0666551 -0.000613535 0.0440079 -0.0436935
Q59 0.0270959 0.0579354 0.0264824 -0.0473689 -0.0226633 -0.0227946 -0.0187003 -0.0124651 0.00356038 -0.0442209 0.0664803 0.0722717 -0.0462913 -0.0223643 -0.00229955 0.0355695 -0.0146907 -0.0428384 -0.0615596 0.0155293 0.0774076 -0.00788364 -0.0271223 0.0241139 -0.0350728 0.0101137 -0.0116466 5.38266e-06 0.00490348 -0.0187814 -0.108268 0.0523871 -0.0218721 -0.0156321 0.0122963 0.0209797 -0.0478723 0.00858936 0.0228306 -0.0122235 -0.00296814 0.0128071 -0.00827304 -0.0175256 0.0316913 0.00498294 -0.0175749 0.0376853 -0.0576704 0.00308433 -0.0242632 -0.0709426 0.0071212 0.048533 -0.0445748 0.00293866 -0.00886686 -0.0077585 -0.045294 -0.0266519 -0.0298913 -0.0083292 0.0136913 0.0516897 -0.0225058 0.0527467 -0.0216338 -0.00889409 0.0515184 -0.0310658 0.00662169 0.0098546 0.0115269 -0.0413106 -0.000425205 -0.0380795 0.0142229 -0.0109425 0.022574 -0.0266405 0.0652051 -0.0756745 0.00424498 0.0120333 -0.00358603 0.0232483 -0.00945028 0.0336697 -0.0537261 -0.0242289 -0.018855 0.0618168 -0.00814779 0.0190683 -0.0261029 0.00882974 0.0331974 0.029954 0.00623994 0.003087
Q58 0.0331327 0.0183755 0.0262347 0.0307208 0.00178942 -0.0159892 0.0923735 0.127805 -0.00705965 0.0271582 -0.049249 -0.0618003 0.107966 -0.0322882 0.0243485 -0.0255414 0.0336782 0.0346209 -0.0624939 0.0989015 0.0146414 0.0487929 0.056946 0.0792412 -0.0884641 -0.0117998 0.0403311 -0.0277761 0.0584152 0.0138074 0.0290066 0.020617 -0.0747375 0.0283146 -0.0876374 -0.0319369 0.00637374 -0.00106621 -0.00794483 0.00483085 -0.0386894 -0.0299566 -0.012616 -0.0432127 -0.000583837 -0.0563467 -0.027646 0.0589002 0.0727607 0.00101017 0.0778505 0.000502272 0.080729 0.0158879 0.00348082 -0.0391478 -0.00360565 0.0172183 -0.0140582 -0.041863 0.0153247 0.064802 0.0306708 -0.0253788 0.064657 -0.0511038 -0.0544588 -0.0256543 0.00980002 0.106663 -0.0400391 -0.00848842 -0.000173102 0.0376505 -0.00343559 0.0753315 -0.0568137 0.0388726 -0.0213086 0.0456784 0.0434587 -0.00625401 0.0765094 0.0533464 -0.106062 -0.0490731 0.0166111 -0.0466119 0.0475692 0.0575359 -0.0529036 0.00414691 -0.0830993 0.0354915 -0.00730211 -0.0262299 0.0348199 -0.0367679 0.0208725 0.0154105
Q148 -0.0188925 0.0190163 0.0821718 -0.0366543 0.0315817 -0.00364612 -0.0567784 0.0326263 -0.00349646 -0.0295992 -0.0367987 0.0639513 0.0454481 -0.0488692 -0.0572382 0.0971741 -0.0290156 0.0366254 -0.00625854 -0.0421734 -0.0655016 0.00128828 -0.0289156 -0.0193167 0.063009 -0.0124815 -0.0475553 -0.00854493 -0.0198263 -0.0206592 -0.0166226 0.0288775 0.00384197 -0.0403476 -0.0165125 -0.03087 0.040619 0.0262602 -0.00613164 -0.0302137 0.00709852 -0.00348963 -0.0388896 -0.0270548 -0.0206759 -0.0173224 0.0692677 -0.0323748 -0.0101725 -0.0402812 0.0265235 -0.000650272 -0.0305765 0.073891 0.0180756 -0.0693005 0.0290532 0.0124333 -0.0630111 -0.0250547 -0.0503458 -0.0352544 -0.112851 -0.00504416 -0.0154865 0.0390916 -0.0414124 0.024268 0.00579482 -0.0407699 -0.0101391 0.0240947 0.0265798 -0.0844591 -0.0237721 -0.00218104 -0.0152415 0.00216855 0.01596 -0.00412832 -0.0276742 -0.0119069 0.0536617 0.0589582 0.0407118 0.0055037 -0.0221625 0.0669565 0.051572 0.00295013 -0.0133132 0.025302 0.0198885 0.0611722 -0.0105071 0.00269481 -0.0166875 0.0124566 -0.0420393 0.00103495
Q149 0.121179 0.027574 -0.0257977 -0.000787239 -0.00628838 -0.0969634 -0.0119999 0.0342568 0.0437316 -0.0394945 0.0995127 -0.00829499 0.0684034 0.085837 0.0674868 0.0395623 -0.0577202 -0.0439131 -0.0544476 -0.055483 0.0268232 -0.0430839 -0.0493704 0.00686458 -0.00251936 0.0211036 0.0236808 -0.0173844 0.0331002 -0.0961398 -0.131192 0.0323372 0.0510202 0.0150247 0.00409316 0.0407175 -0.0606149 0.028531 0.0227897 0.030736 -0.0415916 0.0345365 -0.0176648 -0.0249435 0.037021 0.0412646 0.00998628 0.0384567 -0.116835 -0.016554 0.0352841 -0.0520049 0.0118382 0.0195933 -0.0562754 -0.021121 -0.0331324 0.0409107 -0.0205874 0.0421277 -0.0062234 0.0107497 0.0160962 -0.0277754 -0.0171605 0.0366548 -0.011252 0.0132673 0.0394529 0.00477018 0.00468051 0.0197062 0.0246644 0.00857086 -0.0359203 -0.0366401 0.0595622 -0.0115737 0.0121805 -0.0325163 0.0786419 -0.0402234 -0.00679557 0.0199195 0.0467198 -0.0418521 -0.00173617 0.0125357 0.00967234 -0.0140513 -0.0386921 0.00261462 0.00649405 0.0194791 0.00887693 0.023115 -0.0164678 -0.00724952 0.00903344 0.0615629
Q145 -0.0394425 0.00910199 0.0202304 -0.0206882 0.0160769 -0.0370149 -0.025477 0.0449306 0.00899221 -0.0425334 -0.0673638 0.0531822 0.0721278 0.000228962 0.00226214 0.0527231 -0.0257792 0.0218708 -0.0097189 -0.0612943 -0.0399355 -0.0107164 -0.0461791 -0.0127208 0.0547605 0.0484744 -0.024203 0.0218783 -0.0704302 -0.0368276 0.0401252 0.0418389 -0.0173063 0.00459512 -0.0508413 -0.0414393 0.0415184 -0.0206844 -0.0234016 0.0197891 -0.0449807 0.00853975 -0.0395012 -0.0290412 -0.017398 -0.00590955 0.0246454 0.0572139 -0.00647367 -0.00413179 0.0370079 -0.0159276 -0.00643921 0.039253 0.00891377 -0.00388343 -0.0196196 0.011275 0.0077173 0.00798315 0.00332686 -0.0367167 -0.0417954 0.0260026 0.00767862 0.0205288 -0.0175966 -0.000955471 0.0191697 -0.00703032 -0.0109178 0.0157157 -0.0427683 0.00376805 0.00580593 -0.0557781 0.0139989 0.0492894 -0.0284431 0.0112396 -0.026439 0.0529051 0.0178372 0.01259 0.0502086 -0.0232968 0.0184562 -0.029485 -0.0552139 0.0369132 0.0257239 -0.0171109 0.0130998 0.00842108 -0.0256549 -0.0276158 0.038956 -0.0118468 0.00583116 -0.0267015
Q159 0.0209725 0.0215206 0.0308962 0.00996106 0.167239 -0.0815283 0.00517445 -0.0124075 0.107218 -0.0497691 -0.00348947 0.0941014 0.0648296 0.0947601 -0.038521 0.0522154 -0.0183 0.0195992 -0.00250767 -0.121617 0.0912744 -0.0250069 0.015988 0.00914315 0.016659 0.00768496 -0.0656568 0.00851645 -0.0557694 -0.170326 0.0387613 -0.0164855 0.00326369 0.0386315 0.0433416 -0.0319802 0.0431002 0.00988326 -0.0595534 -0.0568237 0.00540834 0.0246791 0.00853176 0.0280964 0.0704126 -0.105193 0.0232185 0.124341 0.0304088 0.00562189 -0.000921114 0.00150883 -0.0625666 0.0279748 0.0535263 0.0125595 -0.0666397 -0.203512 0.0378766 0.0267876 -0.0454246 -0.06686 -0.0861011 0.00177775 0.0524114 0.132242 -0.00166152 0.0173462 -0.0743399 -0.0355775 0.00455585 0.00366717 -0.0529709 0.0196568 -0.00537954 -0.0839954 0.0476812 0.00656491 -0.0211562 -0.00576362 -0.0313456 0.0283345 0.0426513 -0.0186111 0.119445 0.0674175 -0.00376477 0.0334685 -0.03861 -0.0393129 0.0340062 -0.112409 -0.0586533 -0.00773741 -0.0431944 0.012204 -0.109419 0.00340723 -0.0276482 -0.00482437
Q158 0.0625899 -0.0843808 0.106325 0.0527613 0.00529003 -0.10645 0.0570402 -0.0163609 0.0273693 0.028712 -0.0141137 0.0635187 0.0536921 -0.0555131 0.107241 -0.149191 -0.0339878 0.0355729 -0.114725 -0.148034 -0.0367275 -0.0330122 -0.134661 0.013216 0.0347625 -0.03335 0.0238449 -0.0576649 0.047174 0.0559015 0.0315116 0.0348152 0.045614 -0.0281905 -0.104092 -0.0387474 0.0692073 -0.083204 -0.0396214 -0.0115902 -0.0199195 0.0339572 -0.068491 0.0683812 -0.0713572 -0.0198686 0.0439383 0.0307946 -0.0143699 -0.0214273 0.0171954 -0.00299049 -0.0102046 -0.0986945 -0.0547176 0.0262377 -0.0257521 -0.122784 -0.0103532 -0.010649 0.0428701 -0.0143058 0.053433 0.054374 0.126909 0.106328 -0.0149142 -0.00375119 0.0865039 0.0954604 0.0111528 0.022426 0.000865641 -0.0293096 0.0656664 0.0108744 8.10034e-05 -0.0110959 -0.0171265 -0.0363354 -0.0767277 0.0136491 0.0145639 0.069917 -0.0670756 -0.0220398 -0.0607273 -0.0752448 -0.016907 0.0875048 0.00845949 -0.0982345 0.00663213 -0.104424 0.000178504 -0.0463523 0.0389781 -0.130791 -0.0198223 -0.0325619
Q46 0.0022513 0.05805 0.0234877 0.0160419 0.116851 -0.054185 0.0281802 0.0379611 0.12235 -0.0434823 -0.0382645 0.0219738 0.0964596 0.0987051 -0.0344486 0.034604 -0.0620509 0.028929 0.016593 -0.0330523 0.0960673 0.0261407 0.0480001 0.0236097 -0.0347927 0.0238113 -0.0737661 -0.0050868 -0.0438485 -0.168944 0.0112368 0.00663852 -0.0536258 0.0520818 0.0246435 -0.054661 0.00484325 0.0446194 -0.0626832 -0.00714035 0.0256144 0.00581173 0.0559886 0.0105313 0.11937 -0.125046 -0.0207809 0.115414 0.0597059 0.0327319 0.0249298 0.0222806 -0.0176469 0.0504163 0.0806361 -0.0304276 -0.0622838 -0.173557 0.0497701 0.0151774 -0.045201 -0.043901 -0.0870011 -0.00778467 0.034351 0.0203585 -0.0219878 0.00124206 -0.101437 -0.0244562 -0.012834 0.0143216 -0.0671008 0.0600595 -0.0255196 -0.102453 0.0377241 0.0246119 -0.0307439 0.0154175 -0.0125961 -0.0132723 0.0491215 -0.0648427 0.0945887 0.115309 -0.00861795 0.00175818 -0.0837839 -0.081349 0.0531233 -0.0567217 -0.120044 0.0201965 -0.0317197 0.015309 -0.0828654 -0.038615 0.0280071 -0.0101593
Q47 -0.0379108 0.0799637 0.0591382 -0.0291799 0.0293279 -0.0121527 0.0383407 0.0353346 0.00769704 -0.0797103 -0.0134581 0.0161291 0.023285 -0.0747025 -0.0437992 0.00555827 -0.018835 8.05612e-05 -0.063562 0.0520534 0.0472074 0.0404931 0.0041016 0.0297585 0.0130268 0.049784 -0.0593466 0.00612198 -0.0411764 -0.0353872 -0.0211659 0.103521 -0.0327035 -0.0677299 -0.03671 -0.0154005 0.00468322 0.0332972 -0.0248082 0.0323497 -0.00682354 -0.0368425 0.0286651 -0.048759 0.00352201 -0.0159802 -0.0283987 0.0879343 0.0331973 0.0124269 -0.0268495 0.0177816 0.0582722 0.0717473 -0.0115325 0.00914974 0.00736283 -0.0245979 -0.0187299 -0.0657283 -0.0507067 -0.0408431 0.00528692 0.0544501 0.00106235 -0.0385922 -0.0389158 0.0126834 0.0391515 0.0192228 -0.0227064 0.0417791 -0.0241471 0.0111653 0.0054041 -0.0528135 -0.0178771 -0.0176004 -0.00616048 -0.0200806 0.0320885 -0.047037 0.0450252 -0.0182458 -0.00888533 0.00906344 -0.00303771 -0.0149538 -0.0746604 -0.0267503 0.00909357 0.0609674 -0.0740368 0.0426693 -0.0321872 0.0378186 0.0592658 -0.0102073 0.0164113 -0.0513946
Q44 0.0101054 0.0298244 0.0400969 0.00402029 0.00556469 0.023264 0.0841591 0.01744 -0.0476132 -0.01207 -0.01861 -0.0175329 0.0981038 0.0187512 0.00191796 0.00363215 0.0558956 0.0666962 -0.0198003 0.0722083 -0.0195746 -0.0525333 0.0920067 0.0443144 -0.026816 -0.0305904 -0.00913019 -0.00678644 0.0502379 -0.0561798 0.0122032 0.0436815 -0.0407902 0.0390722 -0.086802 -0.0736639 -0.0214973 0.00232725 -3.27705e-05 -0.0253966 0.00371674 -0.00175361 0.0221683 -0.0120517 0.00371434 -0.0425193 -0.0132756 0.00502233 0.0260456 -0.0406137 0.0468723 -0.0124285 0.0593299 0.0240493 -0.0109069 -0.031944 -0.00905971 0.0389324 0.0526097 -0.0391617 -0.0738449 0.02112 0.0814539 0.0278768 0.0323112 -0.0240087 -0.00672498 0.0149914 -0.0265458 0.0576425 -0.0128765 -0.0054034 -0.0113363 0.0546535 -0.0170808 0.0588602 -0.0365021 0.0862709 0.0111656 0.0382223 0.0934974 0.00480381 0.0785688 -0.0343495 -0.0623824 -0.0565334 0.0280079 0.0172356 0.0579204 0.0134951 -0.0361981 -0.0269917 -0.0253469 -0.012216 -0.0238378 -0.0361409 0.00287061 -0.0280545 0.047044 0.0350125
Q45 0.0704462 0.0314146 0.0610468 -0.011471 -0.053582 -0.00531284 0.0622716 0.0363427 -0.0667755 -0.0276803 0.0351369 0.0306039 -0.00559321 -0.0372056 -0.0630269 0.0285066 -0.00441097 0.0279967 -0.0727349 0.00974862 -0.082492 0.0505841 0.0268722 0.0787084 -0.0763418 -0.083944 0.0257014 0.0293279 0.052356 -0.000955935 -0.0514083 0.0597033 -0.0374395 0.010692 -0.0728787 0.0132121 -0.0481089 0.00356431 0.0152398 -0.0596959 -0.077566 -0.0266211 -0.0462476 0.0420311 -0.0354044 -0.068995 -0.0229057 0.0524456 -0.00177695 -0.0142281 0.0400319 -0.0843518 0.0864622 0.0481265 -0.0429711 -0.0350931 0.0416531 0.0188005 -0.0950945 -0.0517107 -0.0276259 0.0294149 -0.00884931 0.00562084 0.00253363 -0.000316507 0.039805 0.0442838 0.0743372 0.0551321 -0.0141894 0.0126017 -0.0284268 -0.0524764 -0.0914943 0.0419836 0.014552 -0.0269644 -0.0254244 -0.0580631 0.0483222 0.0378744 0.0326945 0.0184151 -0.113621 -0.135485 0.0445853 0.0332475 0.066591 0.0348364 -0.0029937 0.0411636 -0.017704 0.0649304 -0.0482697 0.0135637 0.0859098 -0.0157868 -0.0822116 0.0578572
Q42 0.100941 -0.0069999 -0.0681325 0.00600372 0.0835514 -0.0727227 -0.0256635 -0.0164778 0.0405787 0.0243062 0.0917149 0.0052362 0.00479039 0.0775557 -0.0801312 0.00493204 0.0195075 0.0310603 -0.022989 0.0168855 0.0228521 -0.0291156 0.0206857 -0.00982945 -0.0374481 -0.0566054 0.118855 0.0284878 0.000838779 -0.0441258 -0.0700487 -0.00292962 0.000994458 0.0177388 -0.0127191 0.00247603 -0.00881453 -0.00747801 0.0343192 -0.0596746 0.021384 -0.0569793 0.0311495 0.0116403 0.0309607 -0.0597389 0.0183591 -0.0368507 -0.039886 -0.011146 0.0006882 -0.0149396 0.0422789 0.0262262 -0.0375225 0.0983314 0.00602736 -0.0100658 -0.0112783 -0.036959 -0.0354978 -0.0612327 0.0778748 0.0236175 0.0376167 0.0972164 -0.0917922 -0.0232379 -0.0132527 -0.0246672 0.00601154 -0.0390171 -0.000931353 -0.00284681 0.0486894 -0.0231986 -0.0519957 0.04184 -0.00407878 0.0152395 0.0684959 -0.00403366 0.0507553 -0.130988 0.0580487 -0.00937206 0.0356578 0.0517074 0.0908336 -0.00636864 -0.0209203 0.00904139 0.0585633 -0.0547197 0.0601636 -0.0144558 -0.0822401 0.014182 -0.0290148 -0.00241344
Q43 0.0113372 0.00481001 0.0135741 -0.0451637 0.018161 -0.0307915 0.140075 0.0656136 -0.0333626 -0.0318741 0.0074521 -0.00546029 0.108949 0.0273538 -0.0277195 -0.0162904 0.037125 0.0132838 -0.0791433 0.0680993 -0.0151997 0.0333568 0.088393 0.0570162 -0.0942835 -0.015848 0.0259142 0.0185192 0.0455452 -0.0763242 0.0207185 0.0282455 -0.0302708 0.0398048 -0.116645 -0.00653605 -0.0199533 0.0118221 -0.00464634 0.0208149 -0.0984232 -0.0618018 0.021995 -0.0307167 0.0116008 -0.0378919 -0.0515203 0.0644468 0.0256993 -0.00981256 0.0332306 0.0140657 0.054307 0.0496094 -0.00412038 0.0332823 0.0683473 0.0804076 -0.0263086 -0.0718905 -0.0350261 0.0222391 0.0733214 0.00376524 0.052155 -0.0636613 -0.0684974 0.00600303 0.0216159 0.102438 -0.00180859 -0.00281249 -0.0133777 0.0643404 -0.00817814 0.145422 0.00736433 0.0632505 -0.0313227 0.0250801 0.10076 -0.0217718 0.0657325 -0.00365903 -0.0499413 -0.12548 0.0142034 0.0056001 0.0802757 0.0709335 -0.0406632 0.00995874 -0.0603724 0.0214045 -0.00711733 0.0312774 0.0418763 -0.0322198 0.0298511 0.00217274
Q40 0.118042 0.0331087 0.0189973 -0.0315168 0.0793643 -0.0263313 0.0996578 0.0699734 0.00639989 0.0295852 0.0560691 0.0379947 0.0593361 -0.00989557 -0.0453024 -0.000614492 0.0352439 0.00034402 -0.0990593 0.0692853 0.0759397 0.0361524 0.0567601 0.0746464 -0.130118 -0.0335089 -0.0252867 0.0273316 0.118024 -0.108205 0.0246719 0.0376231 -0.0807132 0.0174704 -0.078318 -0.0280661 -0.046631 0.0478974 0.0361191 -0.00567151 -0.0483937 -0.0281589 0.0379556 -0.0318062 0.0699355 -0.10196 -0.0439311 0.0735105 -0.0392384 0.0218248 0.0593918 0.0303173 0.0149999 -0.0275837 -0.00291173 0.0290682 -0.027773 -0.0260357 -0.0479538 -0.0217017 -0.0244882 0.0334334 0.0355504 0.0154009 0.114317 0.0367951 -0.0879605 0.0204671 0.0456259 0.0438418 -0.054468 -0.0367263 -0.0252304 0.035978 0.016894 0.121187 -0.0682264 0.109215 0.000461772 0.0504101 0.124892 -0.0384622 0.0924368 -0.0347641 -0.0940336 -0.00327397 0.0502008 0.0212666 0.04805 0.0404133 -0.0640917 -0.0781042 -0.081721 -0.0125492 -0.0249707 -0.0366648 -0.0109025 0.00958293 0.039873 0.0817017
Q41 -0.0595663 -0.0261997 -0.0246621 -0.00702522 -0.0400377 0.070283 -0.0256508 -0.0232809 -0.000604182 0.0778103 -0.0386208 -0.101419 -0.125051 0.0232424 0.00808281 -0.0405756 0.0500448 -0.0484336 0.0723528 0.0466117 0.0396461 -0.0358748 0.0548821 -0.0422526 0.000594273 0.051997 -0.0214779 0.00758601 0.0222411 0.105033 0.0647005 -0.0879856 -0.0061803 0.0234001 0.100043 0.0169462 0.00549281 0.0146213 0.0785671 0.0102842 0.0216259 0.0284634 0.00290627 0.0107479 0.0225389 0.0609124 -0.0452262 -0.0713628 0.039673 0.0309571 -0.0399575 0.0256953 -0.0483174 -0.0654516 0.0650928 -0.0343285 -0.0705998 0.0231594 0.0800446 0.0491627 0.0282606 0.0343344 0.0132288 -0.0638839 -0.0455367 -0.0445416 0.049501 -0.0473358 -0.0790658 -0.0379776 0.0301441 -0.00453752 -0.028413 -0.0345719 0.0680862 -0.0111814 -0.0420991 -0.0547782 0.0236372 0.0262666 0.00670555 0.0269275 -0.0590265 -0.00144208 -0.0359112 0.107209 0.0320898 -0.0463026 -0.0540175 -0.0169437 0.0112527 -0.00827562 -0.00573201 -0.0416716 0.0608688 -0.0190121 -0.0389361 0.0597466 0.0504727 -0.00523443
Q155 0.0759468 0.0434218 0.0546864 0.0110784 0.0226276 -0.0389323 0.0241241 0.0299208 -0.0277118 0.0214605 0.0559964 0.0487315 0.0287796 -0.0450675 -0.00610325 -0.0130402 -0.0517632 0.065772 -0.0940974 -0.0903463 -0.0432061 0.00701408 -0.0967087 0.0423685 0.0322425 -0.0178811 0.0207684 0.0485854 0.0328961 -0.0538589 -0.00080478 0.0908994 0.0228624 -0.0184633 -0.0536258 -0.0412728 0.0473725 -0.0174539 0.0118962 0.00909446 -0.0181866 -0.0798964 -0.00795334 0.014745 -0.0223719 0.0218704 0.00684338 0.0789289 -0.0658126 -0.0152391 0.00466603 -0.0384421 0.0312382 -0.041703 -0.0997414 0.0474691 0.0065481 -0.0284289 0.0280673 -0.0315396 -0.0474574 -0.0391991 0.053615 0.0106652 0.0800352 0.0633857 0.000229955 0.0514818 0.102503 0.0618173 -0.0457469 0.0661838 -0.0408157 -0.0451201 0.0474233 0.0100534 -0.0491546 -0.0125063 -0.0340626 -0.0513569 0.00426459 -0.00285249 -0.0427001 0.025652 -0.0664506 -0.080522 0.037209 -0.0658774 0.0152535 0.0499242 -0.0050435 -0.048642 -0.0140526 -0.00398884 -0.0521694 -0.0042835 0.0958554 -0.114548 -0.0347788 0.0103881
Q154 0.102558 0.0102887 -0.119081 0.0536784 -0.0228759 -0.0621608 -0.0448977 0.0452802 0.0513986 0.0601249 -0.0406075 -0.0294845 0.0379085 0.0596031 0.123832 0.0485189 -0.0601752 0.0265904 -0.0491978 -0.09577 0.0026883 -0.0414663 -0.0880099 0.0398969 -0.0128902 -0.0708321 0.101474 -0.0897672 0.0842913 -0.0565892 -0.18719 -0.0174855 0.075271 -0.029754 -0.00991192 -0.0116696 0.0548051 -0.0155575 0.0550644 0.0512646 0.0195618 0.00723566 0.0117282 -0.039514 -0.060138 0.069898 0.0463599 0.00402537 -0.0833334 -0.0110167 0.0175987 -0.149195 -0.0870032 0.0231827 -0.03268 -0.104244 -0.044166 -0.00647348 -0.0312286 0.0473715 0.0384766 0.0345332 0.00835065 -0.0784095 0.012943 0.0928844 -0.0316191 -0.0416492 0.0311413 -0.0717744 -0.102003 0.0480421 0.0475945 0.0386317 0.0447439 -0.0164885 0.0528509 -0.0721203 -0.00905001 -0.03862 -0.0237245 -0.0274422 -0.0389745 0.0461857 0.047531 -0.0851102 -0.103233 0.0463038 -0.032912 -0.139599 -0.0467893 0.0668633 0.00898015 0.00949678 0.0211881 0.0983475 -0.00379194 -0.0717143 -0.0687402 0.0413315
Q157 0.0106908 -0.00186881 -0.138626 0.10939 -0.117114 -0.114402 0.0895377 -0.021044 -0.012823 -0.0831418 -0.15128 0.0833328 0.0238648 -0.0379274 0.129989 -0.0314511 -0.0893962 0.161258 -0.0225559 -0.0919658 -0.138555 -0.0276834 -0.108465 0.0265875 -0.0175536 -0.066018 0.113809 -0.183567 0.013352 -0.053456 -0.126041 -0.038764 0.072866 -0.0511713 -0.0576654 -0.0548804 -0.0376043 -0.0452865 -0.0533349 -0.0122041 0.040926 0.100463 0.0360845 0.0910895 -0.128932 -0.0198476 0.0466507 0.0745668 -0.0215566 -0.0386512 0.0566767 -0.0822833 -0.103691 0.0141393 -0.107468 -0.0478835 0.0666571 -0.0995691 -0.0360861 0.0482204 0.0387963 0.0406599 -0.085584 -0.0461724 0.0153369 -0.0350625 0.116911 0.0518457 0.0446375 0.035717 -0.00647971 0.0793372 0.0277266 0.128766 -0.109009 -0.0815772 0.158288 0.0416836 0.0512878 -0.0591578 -0.0171729 -0.0634698 -0.0322299 0.133506 -0.0262445 -0.0502481 -0.0953045 0.0212617 -0.00692517 -0.0476223 0.0108766 -0.0718192 -0.0648909 0.00496463 -0.0754881 0.0709942 0.0593468 -0.123653 -0.0182917 -0.0492205
Q156 -0.0266936 0.0402297 -0.0432312 0.0276463 0.0779369 -0.0241018 -0.027771 0.0147628 0.0462132 -0.0306045 -0.041118 -0.00462938 0.00325024 0.0461108 -0.0413598 0.0260449 -0.00114388 -0.0134601 0.0727352 0.00411003 -0.00825352 -0.0214127 0.0556481 -0.0350671 -0.0164738 0.0157909 -0.0269178 -0.00273877 -0.0293765 -0.0720412 0.0565626 -0.0578928 -0.0296215 0.0182333 0.0536099 -0.0108566 -0.00540938 0.0397503 -0.0310711 -0.0281711 0.00022898 -0.00960457 0.0472589 0.0141398 0.0584514 -0.0362285 0.0183013 0.0768705 0.0352943 0.0330898 -0.0465816 0.0591118 -0.0294268 0.0216996 0.020515 0.00139509 -0.0175702 -0.0274873 0.06711 0.00897113 -0.028648 0.00961638 -0.0366658 -0.00563411 -0.0107218 -0.0086611 0.0328023 -0.00724641 -0.0712687 -0.00862323 0.0506507 -0.00546063 -0.0428528 0.0573255 -0.0248323 0.00351541 0.020505 0.0326608 0.00198302 0.000732131 -0.00808657 0.0139177 0.0305418 -0.0222479 0.118468 0.0884287 -0.0141971 0.0141528 -0.0365963 -0.0249402 -0.0273217 -0.0381643 -0.0425772 0.00837366 0.0125164 -0.0382038 -0.100443 0.0106061 0.0162873 0.020909
Q151 -0.0336513 -0.0727767 -0.0903732 0.00972277 0.18789 -0.028552 -0.0349067 -0.0647732 0.0620184 -0.0457596 -0.0413554 0.0416719 -0.00753388 0.164241 -0.117975 -0.0212159 0.102647 -0.0337311 -0.00795296 -0.0700665 0.0750731 -0.0477133 0.0540947 0.0214968 -0.0253205 -0.0387174 0.0220669 -0.0246108 -0.00744548 -0.0279098 0.0397308 -0.0269426 0.029081 -0.026231 -0.0100801 -0.00958858 0.0586716 -0.0128266 -0.0392994 -0.0342405 -0.0453722 -0.116722 0.0228095 -0.00751163 -0.0105053 -0.0378943 0.00581158 0.0879953 0.0326585 0.0122318 0.064655 -0.0229242 0.0674783 0.0498065 -0.000169671 0.186621 0.0373494 -0.00954035 -0.0179383 0.0521153 0.101459 0.0202841 0.054439 0.020946 0.0292083 0.0911095 0.0232224 -0.00914211 -0.0460703 -0.00707466 0.035224 -0.0784022 -0.0170807 0.0271262 0.0874634 -0.00750587 0.0373743 0.0075712 -0.129728 0.0417197 -0.0190759 0.00465659 0.0225912 -0.0551312 0.116987 -0.0505998 -0.0126856 0.0125177 0.158458 -0.0541925 -0.0491678 0.0232472 0.00195692 -0.0474845 0.0224071 -0.0192555 -0.171135 -0.0224056 -0.0242383 0.0373386
Q150 -0.0460459 0.0107746 -0.0194613 0.00584539 -0.0294998 0.0834123 -0.0449582 -0.0105829 -0.0423796 0.0621112 -0.0229027 0.00690211 -0.044116 -0.0714253 -0.0339673 0.0676763 0.0549657 -0.0287831 0.0617524 0.0429069 -0.00283602 0.0289626 0.0122422 -0.0447569 0.0180072 -0.0220101 -0.0370778 0.0704196 0.0345581 0.00605242 0.0183903 -0.0392609 0.0087634 0.0344924 0.0645178 -0.0129122 0.0707681 -0.0367587 0.0492828 -0.0477586 0.0311539 0.00520126 0.0440199 -0.0235823 0.00964732 0.0143249 -0.000812867 -0.0648266 0.0108822 0.00272085 0.0437508 0.0256131 -0.00565914 0.0400404 0.0556372 -0.0431296 0.0294432 0.0223024 0.0238493 -0.00800612 0.0310626 0.0394554 -0.0550935 0.00841243 -0.00766484 -0.0262638 0.0613511 0.0178531 -0.00198843 -0.0688982 -0.0223192 0.0139042 0.026729 -0.0285057 -0.00375874 -0.0137148 -0.043524 -0.0711365 0.0244967 -0.0156213 -0.0028228 0.0141275 -0.0200703 0.0150652 -0.0314107 0.0151552 0.0259251 -0.0115513 -0.0422559 -0.0819618 0.0335779 -0.00858793 0.00910325 0.0439731 -0.0042721 0.0148449 -0.0145197 0.0775733 -0.017146 -0.00821936
Q48 0.126688 -0.0600518 0.0261341 -0.043462 -0.0630154 0.0212387 -0.0807228 0.0776609 -0.0505972 -0.0658775 0.161866 -0.0233312 0.114229 0.0419339 0.0531588 0.00689889 -0.0903041 -0.0476923 -0.0640214 -0.072577 0.0856319 0.117381 -0.0296815 0.0362295 0.0154124 0.0105601 -0.0536198 0.0696215 -0.0182411 -0.164473 0.0166374 0.127107 -0.0256253 0.0523442 -0.0302118 -0.0177186 0.0271329 -0.00307204 -0.0929232 -0.00516685 -0.0426613 0.0945179 -0.0189609 -0.0244229 0.0391853 0.0615279 0.0192914 0.03066 -0.0785165 0.0725354 0.038208 -0.0365242 0.121333 -0.0315166 0.0218443 -0.0215257 -0.0368637 0.0446696 -0.0189971 -0.00215858 -0.0126997 0.0413309 -0.0144431 0.0945777 0.0120083 0.0168087 -0.0235278 -0.00533322 0.0873618 0.0543335 -0.0572826 0.00255779 0.0489995 -0.0503871 -0.0786962 0.0611273 -0.0161747 -0.0395042 -0.0455248 -0.0423775 -0.0274019 0.0263526 0.00406136 -0.0465882 -0.0357311 -0.118672 -0.0408372 -0.0914952 0.076598 0.0313097 0.0437776 -0.0711999 0.0208367 0.0744899 -0.0712339 0.0771826 -0.00888012 -0.0868165 -0.0588005 0.109132
Q49 0.0924832 0.0558031 0.109703 0.0140704 0.015331 -0.0423677 0.043502 0.0587843 0.0176307 0.0361531 0.0651539 0.128861 0.082516 -0.00660307 0.0633516 -0.0282453 -0.102065 0.119542 -0.091971 -0.13611 -0.0283174 -0.0288282 -0.146171 -0.0764399 0.132916 0.0211033 0.0208472 0.00921616 -0.0668115 -0.0907942 -0.0151549 0.125489 0.0560899 0.0375212 -0.0768894 -0.0443004 0.120353 -0.079957 -0.0667663 -0.00399774 0.047751 0.0305846 -0.0310044 -0.0208325 0.0495496 0.00367724 0.0819974 0.0912839 -0.151148 -0.000768509 -0.00560099 -0.0291186 -0.0609371 -0.100635 -0.0268216 0.0286504 -0.0209104 -0.103338 0.0306462 -0.0259649 -0.0412115 -0.0884243 0.0652702 0.00863157 0.0566609 0.0758731 -0.0244916 0.064272 0.0855574 0.064582 -0.0264529 0.0437482 -0.0187187 -0.0343433 0.0664718 0.0172972 -0.0462015 0.0204751 -0.0141063 -0.104836 -0.0314228 0.00647385 -0.0209746 0.126064 -0.0446967 -0.0336997 -0.0681676 -0.0450227 0.0630657 0.137699 0.0296782 -0.0912686 -0.0188713 0.0703183 -0.0337062 0.0315579 0.101879 -0.065919 -0.0758119 0.0438811
Q153 0.0337324 0.0667174 0.0111547 0.0257754 -0.0121191 -0.0499531 0.0184059 -0.0350865 -0.0193271 -0.0111244 0.150477 0.144013 0.108782 -0.0862419 -0.0213692 0.0687808 -0.017398 -0.00145584 -0.0802406 -0.114569 -0.0180634 -0.0446885 -0.12135 -0.0245923 0.0214745 -0.0460815 -0.0107761 -0.00561486 0.0183861 -0.00979658 -0.075655 0.119905 0.0254033 -0.0308931 -0.0923967 -0.00149323 -0.0751213 0.0284372 0.0141093 0.0167891 -0.00931843 -0.0575644 0.0159218 -0.0392039 -0.0158019 0.0546311 -0.0356122 -0.0444196 -0.00256671 -0.0317648 -0.00347046 -0.0385374 0.0566092 0.0280629 -0.187014 -0.0297484 0.0278778 0.0443135 -0.0914065 -0.0541512 -0.0507895 -0.0461201 0.0120138 0.0534225 0.0502196 -0.0112144 -0.0762651 0.0356978 0.117156 -0.0300619 -0.00340945 0.0389814 0.0765991 -0.0760196 -0.0850501 -0.0400182 0.0946457 -0.0188674 -0.0249529 0.00425418 0.00940263 -0.0471049 0.00474721 -0.0429878 0.0191375 -0.0315712 -0.0685013 -0.00230391 -0.0340723 0.0486331 0.00204346 0.0657466 0.0365582 0.0250447 -0.0740793 0.0444216 0.150712 -0.0146252 -0.0181008 -0.00953441
Q152 -0.058956 -0.00667052 -0.0823437 0.00509058 0.0728648 0.0444044 -0.025321 -0.0432627 0.00238543 -0.0207258 -0.116388 0.0241041 -0.0650476 0.0151326 -0.0857359 -0.0233585 0.0763832 0.0405401 0.00337724 0.0250395 0.0292418 -0.0227926 0.0205686 0.00739208 -0.0623392 0.0200352 -0.0283054 -0.0276671 -0.0424586 -0.00935607 0.0517511 -0.010728 -0.0564798 -0.072364 -0.0228839 0.00724971 0.0663778 0.0138297 -0.0465806 -0.0197702 -0.0495343 -0.110749 0.0890859 -0.0161684 -0.0320701 0.0181578 -0.0110713 0.0830808 -0.0193894 0.0339552 0.0414426 0.0055895 -0.00483009 -0.00440827 0.00203282 0.109636 0.017532 0.028781 0.00851232 0.0106903 0.0875764 0.0157024 0.0128459 -0.0227909 0.00442352 -0.00321861 0.0167131 0.00544422 0.0178323 0.0380626 -0.000966942 -0.0344997 -0.0260649 0.0235847 0.0369383 0.044349 0.0334138 0.0184511 -0.0584044 0.0239469 0.019679 0.0108356 0.0358072 0.0183351 0.00267229 -0.0143858 0.0083334 0.013477 0.0877984 -0.0294908 -0.0672098 0.0401581 -0.0624984 0.0024447 -0.0134748 -0.0119729 -0.112892 0.0149255 0.00964778 0.0144294
Q128 -0.100697 -0.0531477 -0.018943 0.00920531 -0.0481749 -0.0329588 0.0259095 -0.0350552 0.013525 0.0550394 -0.0520206 -0.11314 -0.0261536 0.0343893 0.0148028 -0.0859577 0.0670324 -0.0292478 0.0393228 0.03539 -0.000633822 -0.0187504 0.00526129 -0.00805669 -0.0463729 0.00612429 0.0594159 -0.0289475 0.0335736 0.112338 -0.0296078 -0.0576927 0.016351 0.0196638 0.0553791 -0.0354166 0.021547 0.00946828 0.0200968 0.0408787 0.0565008 0.0116379 -0.030995 0.0153501 0.0385466 -0.0408187 -0.0465295 -0.0725665 0.0628419 0.0312869 -0.0063244 0.00743287 0.0534234 -0.00120388 0.0346299 -0.00630671 0.00519706 0.0151258 0.0154241 0.0181764 0.0537855 0.036813 0.0729378 0.00658805 -0.00609017 -0.0483201 0.0474906 -0.0627292 -0.0537105 -0.0720292 0.0237218 -0.0540007 0.000604438 -0.0120862 0.0551647 -0.0244204 -0.0561926 -0.0227805 0.0126543 0.0190448 0.0203707 -0.0232412 -0.0418373 -0.0467119 0.0192938 0.0582369 0.0501884 -0.0504682 0.013197 -0.0240657 0.00396836 0.0302684 0.027118 -0.0635242 0.0681669 -0.0355701 -0.027168 0.023734 0.0234333 -0.0472141
Q129 -0.00662354 0.0143949 -0.0852629 0.046536 -0.0598965 -0.100793 0.0540949 0.0137113 0.0593196 -0.0196825 -0.0260595 0.0638927 0.08697 0.00117294 0.134808 0.0647068 -0.0661601 0.0230391 -0.0550765 -0.073299 -0.00930194 -0.0392888 -0.0470126 0.0597433 -0.0469461 -0.000229007 0.0802779 -0.0870717 -0.026249 -0.0378684 -0.117087 -0.0310077 0.0422012 0.0392345 0.0248339 -0.00565554 -0.0336694 0.0563761 0.00322516 0.0324235 0.000946141 0.0799859 -0.0244425 0.022862 -0.0328813 0.0260318 0.00382509 0.055799 -0.0274629 -0.00744747 0.0100817 -0.0985165 0.0212696 0.0424392 -0.0400674 -0.0806042 -0.0352595 -0.0132218 -0.0277197 0.0672041 0.0869008 0.022745 -0.0930694 -0.0698483 -0.0211843 -0.00386912 0.0463861 0.00225396 0.0565639 -0.0440435 0.0132699 0.0394622 0.0124105 0.0618468 -0.103101 -0.0192683 0.0465081 -0.0270787 -0.0353413 0.0410123 -0.0107236 -0.00664211 -0.0237629 0.0135225 0.0599554 -0.0253423 -0.0752543 0.0330597 -0.0226067 0.00363231 -0.0211093 -0.00174978 -0.0265278 -0.049406 -0.0491563 0.0111637 -0.0158069 -0.0397117 -0.00793923 -0.0238503
Q120 -0.0108815 0.0526583 0.0220527 0.0147759 0.114146 -0.0300463 0.0020479 0.024503 0.0747752 -0.0770931 -0.00611232 0.0555595 0.0543598 0.0494176 -0.0735853 0.051957 -0.0116778 0.0359795 -0.0200964 -0.0730354 0.0687744 0.0277993 0.0675407 0.0274124 -0.0110793 0.0350885 -0.0761576 -0.00294273 -0.0590781 -0.186373 0.0518723 -0.0071476 -0.0244066 -0.000699209 0.0193718 -0.0574347 0.0055594 0.0339946 -0.0917788 -0.0384606 0.0263468 0.0222474 0.0108816 0.016253 0.0594958 -0.114868 -0.000514145 0.100198 0.0211991 0.00764031 0.0428923 0.0484329 -0.0776263 0.0498354 0.0772226 0.00628558 -0.0421265 -0.189368 -0.0229848 0.0265824 -0.0255332 -0.0218017 -0.145817 -0.00688428 0.0373234 0.0488059 -0.0318817 0.0543331 -0.0683085 -0.0217783 0.032241 0.0128052 -0.0313096 0.042429 -0.0459168 -0.0739392 0.0746728 -0.00239098 -0.0140433 -0.0355137 -0.01752 -0.00109892 0.0393845 -0.0534593 0.111486 0.0517147 -0.000659676 0.0182784 -0.0425012 -0.0664273 0.0218178 -0.0918436 -0.0789015 0.038021 -0.0229847 0.0144569 -0.118821 -0.000469994 -0.00358707 0.0121963
Q121 -0.0193325 -0.000901483 -0.0708648 -0.00179407 0.0277495 -0.0417634 -0.0458806 0.0126225 -0.033792 0.00263428 0.0257678 -0.00965528 0.0199485 0.00451292 0.0481716 0.0715879 0.0242275 0.00867722 -0.0327015 -0.0634684 0.00954803 0.00184377 -0.0473778 0.0582362 0.00490855 -0.00495632 0.0784836 -0.053567 -0.0133246 0.0428439 -0.0926473 0.0485505 0.0286718 -0.0359421 -0.02576 0.0166205 0.0478 -0.00236431 0.0336646 0.0248116 -0.0432219 -0.028011 -0.0177117 -0.0604916 -0.0227274 0.0134619 -0.00437266 -0.0187656 0.0123184 -0.0306795 0.0862508 -0.0752705 0.0338575 0.0108365 -0.0845122 -0.0297693 0.0354286 0.0159596 -0.0784868 0.00610445 0.0420163 0.0159457 0.0145585 -0.0152688 -0.00897443 0.0585047 -0.0442701 -0.0114332 -0.0270027 -0.029669 -0.0602329 0.0098198 -0.0234372 -0.0196583 0.0182827 -0.0453123 0.0512562 -0.0458685 -0.0694277 0.0187429 -0.0490435 0.020117 0.0114108 0.0241383 -0.0138666 -0.0392279 0.00933592 -0.00680377 0.00691039 -0.0676506 -0.0486813 0.041785 0.0451248 0.00797474 0.0148054 0.0344669 0.03391 -0.0344 -0.045441 0.0159053
Q122 -0.024689 -0.00573 -0.048793 0.00490224 0.0170457 -0.0679488 0.00136047 0.0217747 0.0951005 -0.0400886 -0.0554702 -0.00760868 -0.00143208 0.0832798 0.029999 0.032693 -0.0454093 -0.0193065 0.0245258 -0.0138821 0.0179071 -0.060486 0.0341865 -0.0426416 0.00992674 0.0316749 0.0369684 -0.0147816 -0.103005 -0.037499 0.032143 -0.0858338 -0.0140485 0.00981056 0.0410873 -0.014893 0.0260723 0.0474336 0.00530032 -0.0343606 -0.0232018 0.0550521 0.0223944 0.00258367 0.0801519 -0.0340565 0.0411505 0.0319129 0.0138307 -0.00142608 -0.0151231 0.0470728 -0.0194617 -0.00129726 0.0467088 0.0148264 -0.0546897 -0.0636218 0.0677203 0.0525774 0.0539742 -0.0633051 -0.0642753 -0.0250148 -0.0242266 -0.00944944 -0.0241778 -0.0431562 -0.0571437 0.0108504 0.0411342 -0.0132654 -0.0326737 0.0632828 -0.035942 -0.0384881 0.00806999 -0.0207416 -0.0215216 0.0590315 -0.034398 0.0292376 0.0471359 -0.0109021 0.0696952 0.0583677 0.00875016 -0.00560797 -0.0533304 0.0272046 0.00133846 -0.0400673 -0.0473837 -0.0296895 0.0279974 -0.0296744 -0.0688622 0.0244862 0.0490639 -0.0275847
Q123 0.166724 -0.0135839 0.00287058 0.0355588 0.0257344 -0.0512953 0.0753837 0.0484517 0.0181809 0.0612296 0.114988 0.0525385 -0.0356433 -0.0272649 -0.095317 -0.0123988 0.054805 -0.0429051 -0.113491 -0.0338282 0.0365769 -0.0333273 -0.0224337 0.0254197 -0.0902522 -0.0771086 -0.0133032 0.055104 0.128455 -0.0599066 0.045046 0.0111003 0.0176745 -0.0353923 -0.0487849 -0.0384904 -0.0566387 0.0108194 0.0820017 0.00463267 -0.0259262 -0.00768157 -0.0306029 0.0202539 0.0825514 -0.0632098 -0.0555915 -0.0471917 -0.0666974 0.04265 0.0470819 0.0638375 -0.00244521 -0.0913964 -0.0431835 0.0386959 0.0116201 -0.0922687 -0.138992 -0.000701785 -0.00201324 0.0109596 0.00537107 -0.000542783 0.109236 0.0877233 -0.0631434 0.0775711 0.0748495 0.0191959 -0.056366 -0.0053253 -0.0235446 -0.0670582 0.006413 0.0407431 0.0129679 0.0303518 0.0109611 0.00813645 0.0838306 -0.0315051 0.037619 -0.0754616 -0.0421209 -0.0419069 0.0406325 0.0478336 0.0383356 0.0620186 -0.0496231 -0.0955546 -0.00570441 -0.042456 0.0399693 0.0381307 0.0361379 0.0707737 -0.0276139 0.112255
Q124 -0.00539203 0.0231541 -0.0119989 -0.0238689 0.00164758 -0.0426994 -0.0328483 0.0173919 0.00479123 -0.0427823 -0.0398879 0.0736177 0.00795249 -0.0278675 0.0546455 -0.0104896 -0.03523 0.00339185 -0.0596609 -0.0193657 -0.0282402 -0.00322697 -0.0872349 -0.0548588 0.0267049 0.0252754 0.020211 -0.0566829 -0.083444 -0.000248619 -0.0691155 0.0431272 -0.0274943 -0.0498748 -0.0549747 -0.00597809 -0.00363284 0.0133979 -0.0217319 -0.0250755 0.0135033 0.0118301 0.00145188 -0.0341729 0.0333279 -0.0040455 0.0224651 0.00967484 -0.0060805 -0.00759526 -0.0107873 -0.0238758 -0.0732598 0.0210589 -0.0400922 -0.0488277 0.0532007 -0.0592076 -0.0767651 -0.0717209 -0.0069965 -0.0442476 0.00814733 0.0574233 -0.00933843 0.00364603 -0.0796065 0.0199576 0.0471195 -0.0208458 -0.00715702 0.0418313 -0.0534117 0.0302293 -0.000333209 -0.0490477 0.0686453 0.00575445 -0.00286773 -0.034543 -0.0600283 -0.0703424 -0.00687781 0.0323154 0.0251954 0.0338356 -0.0776966 0.0182326 -0.0483059 -0.0332834 -0.0367475 0.0613055 -0.0284654 0.0355425 -0.00406523 0.0292431 0.0684337 -0.0201118 -0.0491794 0.0101836
Q125 0.0359919 -0.0179734 -0.00782635 -0.0485885 -0.0385966 -0.0564482 0.0348835 -0.0452476 0.0314553 -0.0447908 0.0365048 0.103452 -0.0401429 0.0830204 -0.0193471 0.000974345 -0.170006 0.0125488 -0.0535267 -0.115827 -0.0488987 0.00433765 -0.0753582 -0.0132601 0.0661467 -0.00205676 -0.0133344 0.0171495 -0.0387125 -0.110479 -0.0451237 0.00120954 -0.0122937 -0.00074126 0.0378555 -0.0345793 0.0524899 0.0591606 -0.0249513 -0.000978773 -0.0502068 0.0255377 -0.0180002 0.0219683 0.00873966 -0.00600383 0.020333 0.0317286 -0.0786783 -0.00797214 0.0176884 -0.0269012 0.0188613 -0.0248301 0.00161539 -0.0200857 -0.00123699 -0.0967398 -0.0328499 0.0224108 0.0215459 -0.0950898 -0.0581722 0.0142039 0.0292557 0.0710798 0.00690624 0.0422784 0.0339918 0.00736582 -0.0140903 0.0167078 -0.101436 -0.0475636 0.0256285 -0.044162 -0.00353131 -0.0595095 -0.0556261 -0.0656278 0.0298708 0.0558805 0.00685246 -0.00529807 0.0419607 -0.0374668 0.0458879 -0.0035771 -0.0204445 0.0297509 0.0757482 0.0111709 -0.000399954 -0.0111464 -0.00307057 0.0135759 0.0217394 -0.00966108 -0.0623096 0.0369456
Q126 -0.00252231 -0.00553445 0.0840896 -0.0529497 -0.00998574 -0.0549931 0.0235861 0.0535609 -0.00806928 -0.0590615 0.00775627 0.0492158 0.0406002 0.000965488 -0.0378279 -0.0532169 -0.0279133 0.00172225 -0.0473094 0.010243 -0.0131688 -0.0109922 -0.0543469 -0.00889177 0.0180571 -0.0197651 -0.0233976 0.00942222 0.012513 0.000636342 0.0392974 -0.000423103 0.00236253 -0.0282416 -0.0476911 -0.0294687 0.0296353 -0.0121652 0.00655453 -0.027496 -0.0107162 -0.0427865 -0.00880681 -0.0118336 0.0332447 -0.0748569 -0.0104286 0.048852 0.0301092 -0.028157 0.0188931 0.0542118 0.0027066 0.0379726 0.0399726 0.0163203 0.00526693 -0.0806184 -0.0402985 -0.0255677 0.0161097 -0.0342965 -0.00336964 0.0790308 0.0606793 0.0419495 -0.00848734 -0.0030793 0.0300404 0.0331911 -0.00581555 0.0157259 -0.0317668 -0.0199034 0.0225334 -0.0474736 -0.0364381 -0.0642088 -0.0195233 -0.00512441 0.0198597 -0.0451649 0.007536 0.0224672 -0.0213576 -0.058619 0.0551921 0.00256559 -0.0511257 0.00986294 0.054791 -0.0510236 -0.0347702 0.00344965 -0.00187361 -0.0435592 0.0652717 0.00242454 -0.0263243 -0.0189605
Q127 -0.0656659 -0.053607 -0.117142 0.0175868 -0.0213442 0.111169 -0.043234 -0.0730336 0.00381038 0.0798553 -0.0675821 -0.109277 -0.112383 0.0387127 0.024182 -0.0366889 0.0856948 -0.0188376 0.124917 0.026486 0.0719009 -0.0232106 0.102671 0.0179681 -0.00591606 0.0421732 -0.0360437 -0.00158095 -0.0072164 0.0892223 0.0440414 -0.0974664 -0.00715344 -0.00482705 0.124901 0.0292122 -0.0535485 -0.0258399 0.0490934 -0.0063495 -0.0147084 0.0262468 0.0466572 0.069761 -0.0343213 0.0810743 0.0180823 -0.0743318 0.00663094 0.000313955 -0.033388 0.00504937 -0.0670395 -0.104647 0.0179202 0.045489 -0.0924146 0.0702418 0.135784 0.0313165 -0.0472843 0.00029711 0.0274371 -0.0843389 -0.0834034 -0.0446865 0.0569656 -0.0598908 -0.0953165 -0.0014041 0.0126782 -0.0392216 0.0178055 0.0158769 0.0202865 0.077277 0.0453219 -0.0326554 0.00435168 0.0670003 -0.0313782 0.0939074 -0.0680986 -0.00984005 -0.0453342 0.0693519 0.0199584 -0.0376046 0.0487927 0.000354482 -0.05748 0.0355825 0.062433 -0.0159031 0.0568899 0.0500208 -0.124185 -0.00294816 0.0594664 -0.0332514
Q33 0.0354616 0.0365014 0.000573011 -0.0136033 0.0903283 -0.011625 0.0303419 0.0433576 -0.0209756 -0.0456091 0.0108136 0.0218948 0.0106174 0.017303 -0.0340404 0.0246281 0.0199641 -0.0204251 -0.0368954 0.0577105 0.0286437 0.0167252 0.0831165 0.0672028 -0.0946086 0.00752288 -0.00373227 0.0131136 0.0223696 -0.096538 0.0392281 0.0274584 -0.0507405 -0.00123838 -0.0592241 0.00820467 -0.0175307 -0.00444422 -0.0253642 -0.0211031 -0.0801205 -0.0775473 0.0144552 -0.0191408 0.0281368 -0.0337856 -0.0209194 0.165392 -0.0440809 0.00952096 0.0483888 0.024819 0.0251393 -0.00319866 -0.0114253 0.0949704 0.0300557 0.0463726 0.000529475 0.0101263 -0.0247647 0.0422787 0.0411574 0.0152904 -0.000408613 0.00836487 -0.00271304 0.0171329 0.0116277 0.0830796 -0.0151996 -0.0198155 -0.0568515 0.0501009 -0.00101569 0.118256 0.010727 0.0677831 -0.0441386 0.0400915 0.0636242 -0.0258775 0.0457286 0.0238605 0.00745855 -0.0596898 0.0180953 0.00161717 0.0766254 0.059576 -0.0763924 -0.0206582 -0.0822227 0.0374067 -0.0210201 -0.0147992 -0.0148125 -0.0304274 0.0113521 0.0679785
Q32 -0.0352793 0.0311395 -0.0147188 -0.031681 -0.0244242 -0.0197814 -0.0450466 0.0294109 -0.0079338 -0.00429722 0.00600414 0.00709607 -0.0297308 -0.00741494 0.0128713 0.0239568 0.0118781 -0.0185913 0.022581 0.034179 0.015643 -0.00835462 0.00831048 -0.0471019 -0.0364464 0.0604122 0.0314713 0.0120093 -0.0489098 0.0152377 -0.0107502 -0.0353966 -0.0364979 0.0161043 0.0149358 0.036667 -0.00688964 0.0187555 0.0332918 -0.00176189 -0.00113881 0.0140535 0.021807 -0.0168921 0.0546827 -0.00395976 -0.00925804 -0.00441408 -0.0177739 0.0012386 -0.0120924 0.0149893 -0.0344054 0.00784108 0.0110042 0.0171694 0.0105572 0.0150434 -0.00024993 -0.0350033 0.00627597 -0.0136317 -0.0066425 -0.0104018 -0.0247666 -0.0240469 -0.000708521 -0.033795 0.00622513 -0.0153603 0.0428904 -0.024007 -0.0127509 0.00967354 -0.0150189 -0.00412276 -0.0170422 -0.00217891 0.0426539 0.00329959 0.0326522 -0.0164261 0.0126903 0.0336342 0.00123299 0.0474427 0.0438128 0.0296254 -0.0124931 0.0199356 -0.0369305 0.000882411 0.00390772 0.00620181 0.0223009 -0.0407076 -0.0313278 0.0664673 0.00293027 0.0045761
Q31 -0.0188935 -0.0149807 -0.0385559 0.00941871 0.0640655 0.0164606 -0.0298175 -0.00856367 -0.000281411 -0.0387171 -0.0128475 0.020675 -0.027781 0.0584965 -0.0906483 0.0142551 0.0696395 -0.0218689 0.0388867 0.0317545 0.0777695 -0.00822983 0.0498751 0.0188641 -0.051716 0.00517134 -0.0580625 0.0016312 -0.00549645 -0.0496272 0.0428771 -0.0336632 -0.0263619 -0.0277083 0.0252544 0.0292048 0.0178913 -0.00127781 -0.0415927 -0.0526488 -0.0268827 -0.0568382 0.0433438 0.000247831 0.0303114 -0.00910702 -0.0101083 0.0934504 0.020675 0.0224383 0.0100665 0.0291706 -0.0429237 -0.00845179 0.03945 0.0637791 0.000840806 -0.00875514 0.0343804 0.0271604 0.0399143 0.0441589 -0.0626336 -0.0472991 -0.0214921 0.017646 0.0493805 -0.00521308 -0.052367 0.026402 0.0167578 -0.028375 -0.00243589 -0.0199813 -0.0163433 0.0386689 0.0727897 -0.0280804 -0.0420399 0.00568342 -0.0170303 0.0180192 0.0239602 0.0547885 0.0318068 -0.010559 0.00524462 0.0173549 0.0667457 -0.0314598 -0.0281809 -0.0251514 -0.040456 0.0431102 0.00477332 0.0128024 -0.0881025 -0.0106231 -0.0171429 0.0192891
Q30 0.104243 0.0211363 0.028713 -0.0272633 -0.0043594 -0.0727811 0.0516336 0.0321369 0.0625258 -0.00256632 0.0379922 0.101948 0.0907933 0.049527 0.0474883 0.00127472 -0.0655086 0.120902 -0.0711472 -0.204649 -0.0212017 -0.048071 -0.158474 -0.110875 0.104165 -0.0317462 0.0242745 -0.0275964 -0.0952444 -0.0856772 -0.0912355 0.126661 0.0959805 -0.0103537 -0.0409468 0.00455523 0.116451 -0.0427408 -0.0504986 -0.00162383 0.0233107 0.0347374 -0.038273 -0.0231992 -0.00923497 -0.0290129 0.0973042 0.0108208 -0.0849041 -0.0365985 -0.0403017 -0.0543568 -0.0121796 0.0188106 -0.0441206 -0.0422476 0.0104638 -0.10729 -0.0751789 -0.0585029 -0.0038113 -0.104962 0.0211728 0.0192963 0.0511073 0.0860327 -0.0903118 0.0478488 0.0957266 0.0294035 0.0173231 0.0413514 -0.0325942 -0.0380703 0.0193736 -0.0641696 -0.00408213 -0.0103297 -0.02236 -0.0822489 -0.0205143 -0.0129341 -0.0145839 0.0426094 0.0427792 -0.0619118 -0.0254279 0.0209815 0.116508 0.0874473 0.0436601 -0.0658569 0.0107329 0.0260798 0.0147851 0.0895968 0.0592704 -0.0179561 -0.089896 0.0244724
Q37 0.133445 -0.059131 0.0676628 0.0192323 -0.00464165 -0.091507 0.0693387 0.0393846 0.0643437 -0.0347257 -0.0848389 0.0264417 0.0810721 -0.00988912 0.0742018 -0.133241 -0.0637543 0.0397989 -0.0898042 -0.0830072 -0.0145775 -0.0204729 -0.107527 0.0186205 0.0179796 -0.0668377 -0.00719843 -0.0596434 0.0222059 0.000637689 0.0212954 0.0172515 0.0357496 -0.0535943 -0.127465 -0.00816648 0.0100338 -0.0919916 -0.0397946 -0.0083245 -0.0319653 -0.00332233 -0.00785432 0.05542 -0.057095 -0.00254956 0.0703774 0.0629306 -0.00203594 -0.0124146 -0.0129669 -0.00547485 -0.0762562 -0.0138015 -0.00526578 -0.0295913 -0.045007 -0.121074 -0.00715445 -0.0361682 0.00464777 -0.0123892 0.0490324 0.030688 0.0867043 0.0853573 -0.0699749 -0.0234199 0.0775957 0.109937 -0.0124518 0.0421623 -0.0322174 0.0405504 0.0368641 -0.0276447 0.0415586 -0.0301027 -0.0388468 -0.0289522 -0.0654986 0.00733971 0.0245713 0.0617904 -0.0329092 -0.0860463 -0.0476627 -0.0185745 -0.0569665 0.0115834 0.0427952 -0.0703246 -0.0384284 -0.030499 -0.00297797 0.0147985 0.051017 -0.133089 -0.0367967 -0.0597561
Q36 -0.0367834 0.0278958 -0.0480718 -0.0170956 0.0390392 -0.0106031 -0.0815134 0.00390051 0.0446987 -0.00284501 -0.00834507 0.00624136 -0.0984539 0.0648284 -0.0376713 0.0181685 0.0454905 -0.0770936 0.0511494 0.0194553 0.0928065 -0.0437992 0.069921 -0.0162704 -0.0218013 0.0591287 -0.0295116 -0.0036938 -0.00067053 0.038573 0.0243468 -0.0514473 -0.0094999 0.0180887 0.0783174 0.0689793 -0.0498025 0.00435012 0.0419673 -0.0156291 -0.00553963 -0.0155863 -0.0275501 0.0342915 0.0424695 -0.00746148 0.00852739 0.0349762 -0.0208093 0.0416265 -0.0330142 0.0385901 -0.0761779 -0.0403155 0.0415374 0.116648 -0.0768019 0.00805539 0.0559679 0.0641993 0.028683 0.00660708 0.00559828 -0.0714331 -0.0534545 0.0219982 0.0781163 -0.0621867 -0.0729299 -0.00734605 0.0122964 -0.028041 0.000652205 -0.0111949 0.0407738 0.0559085 0.0317603 -0.0180284 0.011122 0.032879 -0.0135213 0.0284856 -0.024307 0.0247704 0.0651891 0.106617 0.013907 0.00834263 -0.0102253 0.0701904 -0.0201917 -0.0425847 0.0153355 0.0215022 0.0170482 -0.0101162 -0.0721782 0.0291951 0.0362198 0.00745575
Q35 0.162471 0.0522032 -0.0265459 -0.00386015 0.10166 -0.0289618 -0.0333319 -0.00587089 0.044905 -0.0378036 0.0634992 0.0788927 0.0105417 0.0540722 -0.0216708 0.0593862 -0.0252999 -0.0359911 -0.0120315 -0.0977105 0.0837973 -0.0326731 0.0147909 0.0426521 -0.0565347 -0.0357968 0.0213315 -0.00906637 0.0384728 -0.153057 -0.101718 0.00599018 0.0265655 -0.0432539 0.00247622 -0.0125449 -0.0223343 0.0158705 0.0410811 -0.0176218 -0.0172109 -0.073442 -0.0263898 0.0107145 0.0333024 0.00594373 -0.0406458 0.0976423 -0.104934 -0.0411563 0.0193304 -0.00829837 0.00483112 0.0429281 -0.0802999 0.0610116 0.019435 -0.0614078 0.0138589 -0.0319196 -0.0557691 0.0291348 0.00744868 0.0279685 0.0208136 0.0851898 0.0164229 0.0210104 0.0215853 -0.0200458 -0.0204396 0.0146673 0.0153944 -0.0356574 0.00435163 0.0441335 0.062569 0.0319299 -0.000137748 0.0154814 0.051225 -0.0982109 -0.0179924 -0.00409751 0.0773143 -0.0285433 -0.0401314 0.0249767 0.0587492 -0.0461327 -0.102245 0.0149727 -0.00595091 0.0294717 -0.0247728 0.0765422 -0.0512783 -0.0762272 -0.0550018 0.0853928
Q34 -0.0351636 0.048036 -0.0300273 -0.0130944 0.0303618 -0.0210337 -0.0582918 0.0247033 0.00630194 -0.0281601 -0.0593961 -0.0592563 0.0249928 -0.0323237 0.051426 0.0551523 0.0125917 0.00830347 0.0370835 -0.0105041 -0.019998 0.0218486 0.00950661 0.030586 -0.0414807 0.0505231 -0.016285 -0.0296984 0.0233388 0.0121409 -0.0281818 0.00867431 -0.0201624 -0.00832256 0.0348634 0.00245772 -0.0214818 0.0207621 0.0063049 0.0346262 -0.0274624 0.00960064 -0.00954196 -0.0271987 -0.0309781 0.0218951 0.0133605 0.0217762 -0.0188531 0.0241696 0.0395585 -0.0403158 -0.00356403 0.0274697 -0.00753582 -0.0335637 -0.000102297 0.0980926 0.0155303 0.0541552 -0.0459365 -0.00193355 -0.0165536 -0.0168407 -0.0156981 0.0018895 -0.0140577 0.0233182 -0.0253154 -0.0303351 -0.0030893 0.0111125 0.00467982 0.0466449 -0.00598407 0.0138914 0.0350956 -0.0062355 0.00337999 0.0285061 -0.0281257 -0.0189793 -0.0343489 0.0144328 0.0495976 0.0224727 0.046364 0.0525835 0.0378219 -0.0106711 -0.0594345 -0.00144459 -0.0137987 0.0235576 -0.0109686 0.0134109 -0.0359191 0.00848137 0.0292458 0.0102717
Q39 -0.0615204 0.0332594 -0.0749249 -0.000218836 -0.00448601 0.0707299 -0.0339636 -0.0788749 -0.0338737 -0.00855371 -0.0298557 0.0562388 -0.0373632 -0.0646483 -0.0405293 0.0311517 0.0299778 0.0323033 -0.0148058 0.00729245 -0.0101575 0.0135701 -0.0266252 -0.00698403 0.0459699 0.0118863 -0.00666792 0.0251328 0.00151647 0.0528677 -0.0355429 0.0701429 -0.0125429 -0.0191773 -0.0372175 0.0416439 0.0845858 0.0291931 0.0182049 -0.00286049 0.0336977 -0.0599369 0.0141584 -0.0747048 -0.0258905 0.0268549 -0.0548101 -0.0186112 -0.0245387 0.0819765 -0.0120897 -0.0458952 0.0477724 0.0505855 -0.0221409 -0.0267312 0.0360073 0.0275916 0.0307666 0.00224818 0.0609865 -0.0156264 -0.00186122 -0.00507825 -0.0084724 -0.00178863 0.0029798 0.0229077 0.0120531 -0.0472549 -0.00983886 0.054565 0.0304715 -0.0854305 0.0531658 -0.0283686 -0.0212421 -0.00855161 -0.028174 -0.00349905 0.00194217 0.0241111 -0.00163425 0.0238152 -0.0783552 -0.0290185 0.0234879 0.0157421 -0.0226787 -0.0640328 0.0173747 0.0750214 -0.00929999 -0.0105966 -0.0815627 0.0373255 0.0649698 0.0232465 0.015431 -0.0234016
Q38 -0.0444997 -0.0387456 -0.00500321 0.00980959 -0.0368878 0.0638404 -0.00553636 -0.00394223 -0.0286899 0.0214197 -0.0518058 -0.0700964 -0.0816055 -0.017076 0.0192924 -0.0287991 0.0314513 0.00440486 0.0427989 0.0372696 -0.0180626 -0.0260601 0.0514962 -0.0334593 0.00915059 0.0252572 -0.0124879 -0.026835 -0.00262455 0.104246 0.102802 -0.100794 -0.0202686 0.0230705 0.0448386 0.0398999 -0.0293675 0.011403 0.044483 0.00315173 0.0181164 0.0197044 0.0289255 0.03187 -0.0116773 0.065178 0.000866174 -0.0419942 0.0506141 0.0430358 -0.0547364 0.0166313 -0.0574559 -0.0613143 0.0527516 -0.0761121 -0.0698192 0.0177731 0.0722683 0.0276976 -0.00318732 0.0400518 0.0136354 -0.0477793 -0.0250371 -0.0437026 0.0255357 -0.0224621 -0.0112195 -0.00135976 0.0435201 -0.00536883 -0.000517889 0.0138286 0.0456484 0.0105311 -0.0345447 -0.0426985 0.0499875 0.00865578 -0.0107342 0.0176699 -0.0294505 0.00262152 -0.0554233 0.0732458 -0.00112681 -0.0300764 -0.0639934 -0.03276 -0.0091905 -0.0364184 -0.0162687 -0.0225719 0.0198164 -0.0207355 -0.0163497 0.0482781 -0.000742375 -0.0409429
Q142 0.0749742 0.0709182 0.0557941 -0.0303687 -0.0328118 -0.0228443 -0.0135831 0.0871306 0.0153966 -0.00300311 0.103578 0.0417317 -0.00633856 -0.000412562 -0.0333661 0.0525929 -0.0309513 -0.0743084 -0.00277327 0.0302053 0.0660922 -0.0173831 0.0264799 -0.0596433 -0.0169954 -0.00137951 -0.0300975 0.0393338 0.0154641 -0.0835312 -0.0565691 -0.00553841 -0.00654938 0.0362976 0.0623837 0.0128853 -0.0586928 0.0304174 0.0447492 -0.0489503 0.00779355 0.0588461 0.0129485 0.0265087 0.0967992 -0.0667143 0.0324693 0.00765538 -0.0304084 -0.0464749 -0.00448061 0.0141418 0.00860383 0.0291727 0.0543472 -0.0182887 -0.0280735 -0.0637543 -0.0657366 -0.0396806 -0.0121767 -0.0146666 -0.0713367 0.0109227 -0.0136519 0.0231358 0.00845007 0.00827763 0.0257059 -0.0218057 -0.00126013 -0.0177075 0.0286762 -0.0394817 -0.0679687 0.00387633 -0.0363536 -0.0747736 0.0537512 -0.0250523 0.0518353 -0.0447034 0.000545666 0.0154796 0.00242407 0.0578034 0.0187013 0.0707313 -0.0276962 0.0212477 0.0321793 -0.0346677 0.00296681 0.0585789 0.0255238 -0.0108008 -0.00264291 0.0603545 -0.0349508 0.0431742
Q143 0.093806 0.0329106 0.0207376 0.00259752 0.0297396 -0.105471 -0.0108487 -0.0476157 -0.00353575 -0.0384586 0.153278 0.12428 0.0193954 0.0385612 0.0244508 0.0839209 -0.101095 -0.00598515 -0.0645145 -0.0749476 -0.0175886 -0.00928558 -0.0624984 0.0202632 0.0401431 -0.0302145 0.0470224 -0.00325285 0.00239781 -0.0558387 -0.123989 0.0553364 0.0320029 -0.0239695 -0.0228313 0.0269583 0.000493992 0.0638494 -0.00259946 0.00161911 -0.0466482 -0.00420221 -0.0324586 -0.0162749 -0.0278907 -0.0420028 -0.00208546 0.0481219 -0.0639466 -0.0613122 0.0582031 -0.0587092 0.0849555 0.00403426 -0.0965122 -0.0366998 -0.00577381 -0.0331778 -0.0918066 0.0415735 -0.0292257 -0.0410202 -0.0240111 0.0296646 -0.013738 0.0964047 -0.0221124 0.0441893 0.0540912 -0.0441042 -0.0401919 0.0120073 0.00034197 -0.0610713 -0.0348458 -0.0478084 -0.0163197 -0.045548 -0.000636339 -0.00804428 0.0550604 -0.0128203 0.0302716 -0.0189971 0.0186133 -0.0345896 0.0177986 0.0351451 -0.00351146 -0.0247319 0.0249437 0.0283603 0.00361396 0.011039 -0.0231978 0.0229517 0.0557481 0.00923927 -0.0588721 0.040879
Q140 -0.040821 0.0364348 0.0482316 -0.0181998 0.0133727 -0.0302238 0.0583664 0.028073 -0.0709704 -0.0151281 0.000107168 0.0260995 0.122166 -0.0165665 0.0751994 0.0139365 -0.0256443 0.0692494 -0.038758 0.0536456 -0.0815971 0.029091 0.030069 0.0411606 -0.0066008 0.000500687 0.0329963 -0.0025285 0.0401898 -0.0210788 0.000805809 0.0478307 -0.016754 0.0376644 -0.0995313 -0.0177738 -0.0203767 0.0128397 -0.0468677 0.0448236 -0.023335 -0.00867534 0.0254351 -0.0263312 -0.0167063 -0.0490427 -0.032883 0.0657104 -0.006981 -0.0332344 0.0590361 0.00466095 0.0371091 2.60744e-05 -0.024753 0.0225951 0.0299097 0.0986425 0.0265862 0.0202194 -0.0385782 0.0017574 0.0825228 0.0085501 0.0253249 -0.0379571 -0.0283309 0.0459795 -0.00789043 0.0528577 -0.0312345 -0.000412365 0.0146474 0.124422 -0.0204873 0.089659 -0.0122992 0.112476 -0.0238018 0.0288725 -0.000310509 -0.0144609 0.00500414 0.0344918 -0.0348841 -0.0666581 0.00828171 -0.00566492 0.0302745 0.0598642 -0.0178531 -0.016473 -0.0261726 -0.00377728 -0.0330077 -0.0670095 0.0708715 -0.054668 0.0668727 -0.00851107
Q141 0.0364414 -0.0309581 -0.11006 0.0314725 -0.0435775 -0.0930038 -0.0041646 -0.0400559 0.0395296 -0.0831384 0.0468158 0.0201153 -0.0405953 0.0270249 0.0215529 0.0591376 -0.0808733 0.0377925 -0.00259159 -0.136348 -0.108423 -0.0812792 -0.100928 0.0133909 0.0129205 -0.00133364 0.101931 -0.0837899 -0.0612742 -0.0454583 -0.0934546 -0.0326067 0.0714411 -0.0503328 -0.0234002 0.0110146 0.0318483 0.0307149 0.00666101 -0.0701469 -0.0285517 -0.0117886 -0.0382005 0.00246645 -0.036433 0.0501645 0.0398497 -0.00545834 -0.0291204 -0.0640201 0.0331922 -0.0247509 0.00968034 -0.0369027 -0.057865 0.0314452 0.0169966 -0.0592472 -0.023931 0.0266018 0.0439761 -0.0659966 -0.109999 -0.00796725 -0.0162194 0.0854452 -0.058406 0.0149244 0.0450742 -0.0177669 0.0471269 0.0399699 0.0289764 -0.0182871 -0.027488 -0.0856984 0.0877282 -0.0898981 -0.0320142 -0.0353664 -0.0174008 -0.00594885 -0.00231067 -0.00776731 0.0854435 -0.0507389 -0.0255579 0.0209472 -0.0103653 -0.0127159 0.0077931 0.0122092 0.0369915 -0.0219232 -0.0284876 0.061375 0.0369053 -0.0334084 -0.0847528 -0.0168202
Q146 -0.0414276 0.0057937 -0.0059345 0.0234253 -0.0491134 -0.00729763 -0.0270855 0.0289355 0.00447922 0.0557584 -0.0126441 -0.025845 -0.00660428 -0.0193586 0.0868583 0.00412855 -0.0389824 0.0191192 -0.029611 -0.0310622 -0.0465872 0.00136785 -0.0662586 0.0298911 -0.0264227 0.00726896 0.106404 -0.0437343 -0.0211604 -0.00119008 -0.104539 0.0574658 -0.00348121 -0.0329613 -0.0537811 -0.075519 -0.0235622 -0.0190064 0.0158421 0.0533821 0.016559 -0.0131055 -0.0617647 -0.0402431 -0.0459875 0.0559247 -0.00486027 -0.0558616 -0.0450224 -0.0626027 0.0552102 -0.109456 0.0111057 0.0478422 -0.0579052 -0.0348397 0.049818 0.0388272 -0.0569326 -0.0215936 -0.0126368 0.00295758 0.0394242 -0.000205474 -0.0370388 -0.022108 -0.0646885 -0.0135841 0.00646416 -0.0481117 -0.0506135 0.0105238 -0.00632722 0.019374 0.0526212 -0.0626405 -0.0204473 0.0116445 -0.0321765 -0.0259321 -0.0017429 -0.010423 -0.0525124 -0.0382062 0.00950516 0.0094946 -0.020377 -0.00505822 -0.0321842 -0.0172268 -0.0236709 0.133214 0.0603076 0.009905 0.0122754 -0.0282702 0.0570086 -0.053021 -0.0442168 0.0176121
Q147 -0.0530461 0.0706485 0.00633569 -0.0165472 0.0112233 -0.000999458 -0.0576011 0.0828678 -0.032278 -0.0167379 -0.0324351 0.0151566 0.0500088 -0.0400907 0.0637091 0.0570547 -0.0273176 0.0430253 -0.0247747 -0.0335807 -0.0305849 -9.4791e-05 -0.000333115 -0.0220329 -0.0176204 0.0363917 -0.00374663 -0.0130319 -0.0355028 -0.0165345 0.0100887 0.0347092 -0.0461456 0.0471102 0.0109741 -0.0363421 -0.0124561 0.0529879 -0.00906476 0.00156424 -0.0114283 0.0406274 -0.0417215 -0.0339248 -0.00563005 0.0238617 0.0190993 0.037048 -0.0383721 0.0265456 0.00753314 -0.0483757 0.00367537 0.0111329 0.00534637 -0.0390436 -0.0495358 0.0558876 -0.00464834 0.020549 -0.00844751 -0.00712132 -0.0175193 -0.0282134 0.0167062 -0.0211481 -0.0308958 0.0115618 0.0524858 -0.0193229 0.00752942 0.0269605 0.0330098 0.0363536 -0.0471511 0.0276636 -0.00294616 0.0225707 0.0243825 0.0336734 -0.0128472 -0.00171935 -0.0120045 0.00729706 0.0283197 0.0286491 0.00402982 0.0156911 -0.0303702 0.05779 -0.0319592 -0.0280902 -0.0386677 0.0465417 -0.0914408 -0.0470423 0.025906 0.0170897 0.0370985 0.0446357
Q139 0.0955953 0.0251948 0.0428288 -0.00241723 -0.0253728 0.0114166 -0.00267537 -0.0608401 -0.00158154 -0.00622628 0.127871 0.122154 -0.0303419 -0.0395351 -0.061565 0.0307259 -0.0164349 -0.0811261 -0.0451655 -0.00588169 0.0621957 -0.0427723 -0.0288305 0.0546241 -0.037686 -0.0860775 0.0130015 0.0324773 0.120456 -0.0759822 -0.116214 0.0349199 0.0660115 0.0206017 0.0198614 -0.011909 -0.0553181 -0.0285631 0.040934 -0.0844084 0.0231139 -0.0433256 -0.00819355 0.0564062 0.0136258 -0.0187412 0.0383564 -0.0477532 -0.0569514 -0.0524717 -0.0245048 -0.0344624 0.0436976 0.0781956 -0.029089 -0.0286709 0.0553252 -0.0339306 -0.033644 -0.0917046 -0.0247082 0.0234572 -0.0433004 0.0809871 0.0295946 0.118695 0.0175761 -0.0168462 0.0254426 -0.065129 0.0239688 0.0426881 0.0549097 -0.144503 0.0157274 0.0388827 0.00676234 -0.0761393 0.0579852 -0.0402043 0.045957 -0.0801863 0.0103959 -0.00926771 -0.00927465 -0.0357843 0.00277707 0.106337 0.00354522 -0.0710443 0.0499347 0.0360129 0.0954538 0.00393206 0.00203524 0.0216238 0.00642404 -0.0618663 -0.0450329 -0.00791494
Q138 -0.0523036 0.0286658 -0.00499952 -0.0405869 -0.00351619 0.0355567 -0.0172351 -0.0702225 -0.0276077 0.00281197 0.040765 0.0348333 -0.0733177 -0.0210729 -0.0543462 0.0475478 0.0180163 -0.0553749 0.0206151 0.0266147 0.0156746 0.0374196 0.0383664 0.0156976 0.0226372 0.0175036 -0.0114542 0.0119709 0.0133996 0.0201221 -0.0391105 0.029853 0.0116224 0.0131181 0.0192318 0.0717843 0.013129 0.0150649 0.0448251 0.0332075 -0.00842141 -0.035644 0.00723653 -0.05524 -0.0256965 0.0111637 -0.0293125 -0.03616 0.00320296 0.00272578 -0.0518623 -0.0384449 0.0042761 0.0314158 -0.00842674 -0.02663 0.0562913 0.0445414 -0.0163376 -0.0059851 0.00300697 0.00521476 -0.0316032 -0.021048 -0.0301074 0.00332679 0.0389667 0.00918635 -0.0126355 -0.0313794 -0.00425369 -0.00665866 0.00952751 -0.0905062 0.0802903 0.0312709 -0.0246787 -0.00160103 0.0336904 -0.0461855 0.0619673 -0.0325743 0.0271976 0.0209939 -0.0516646 0.0372427 0.0276615 0.0839773 -0.0234824 -0.0632348 -0.021909 0.0979271 0.0114756 -0.0306677 0.0122578 0.0400673 -0.00998724 0.0371414 0.00314519 -0.002351
Q144 0.0466326 -0.0311385 -0.0621986 0.00102736 0.152254 -0.0904413 0.0120401 -0.0478403 0.128603 -0.0520351 -0.0171146 0.0413882 0.000476716 0.147284 -0.105479 -0.0128334 0.00684279 -0.0207645 0.000701528 -0.0499181 0.0717521 -0.00836684 0.0455803 0.0309121 -0.0454157 -0.0457002 0.0149795 0.00164264 0.008644 -0.112418 -0.0271377 -0.0136483 0.0108701 0.0061072 0.0131503 -0.059046 0.0144606 0.0142496 -0.0223543 -0.0384597 0.00849111 -0.0478564 0.0335208 0.0409049 0.0611036 -0.128915 0.0028663 0.0334737 0.0391393 0.0097555 0.0465986 0.00299812 0.0220519 0.0525335 0.0569691 0.123042 0.0160289 -0.130903 -0.0252331 0.00757769 0.0171548 -0.0516927 0.00697231 0.0382088 0.0795716 0.10359 -0.0115009 0.00206173 -0.0896106 -0.0418721 0.00854013 -0.0319758 -0.0455618 0.0272613 0.060812 -0.0648451 0.030831 0.0260229 -0.0375429 0.00595388 0.0188667 -0.0260343 0.0515329 -0.11823 0.104869 0.00543731 0.0434112 0.054052 0.0609946 -0.0914988 0.0114075 -0.0254598 -0.031229 -0.0511459 0.0262099 0.00868548 -0.10917 -0.0332197 0.000195724 0.017702
Q133 -0.0677349 -0.0172543 0.00173323 0.00480303 -0.0216196 0.0695212 -0.0186797 -0.0103084 -0.0442103 0.0461114 -0.0313102 -0.118741 -0.0270092 -0.0154254 0.0212853 -0.0136312 0.0845788 -0.0432452 0.0555958 0.0798109 0.0144697 -0.0070368 0.063915 0.00965165 -0.00933413 0.042364 -0.00175943 -0.0115004 0.0197474 0.0995291 0.0694959 -0.0562082 -0.0303376 -0.00546322 0.0225272 0.0164748 -0.0259754 0.00865045 0.0144566 0.0407878 -0.000715955 0.0245374 -0.0228091 -0.0243878 -0.00355037 0.0391207 -0.0505219 -0.0650759 0.0571744 -0.0013493 0.0145508 0.0351985 -0.00319631 -0.0275199 0.00602791 -0.0271325 -0.00773305 0.0836302 0.0329271 0.0291108 0.0199525 0.0616576 0.0132487 -0.0325581 -0.0578727 -0.0859295 0.0183037 -0.0240902 -0.0721726 -0.00410052 0.0248527 -0.0312984 0.00717558 0.0222762 -0.0049624 0.0120873 -0.000501356 0.0145356 0.0120225 0.0321314 -0.0138862 0.0255205 -0.0152458 -0.00635093 -0.00609011 0.0463998 0.00949825 -0.0437013 -0.0308776 0.010852 -0.0230828 0.0150665 0.0091648 -0.0425763 0.0437527 -0.0433992 -0.0597897 0.06612 0.0702335 -0.00933436
Q132 0.0327181 -0.0222978 0.0954842 -0.0225587 0.0256034 -0.0845694 0.0503695 0.0512636 -0.0516654 -0.108394 0.0090661 0.0317846 0.020776 -0.0506838 0.0272797 -0.106897 -0.0555928 0.0330392 -0.140067 -0.023527 -0.0317973 0.00146438 -0.0604814 0.0289906 0.0764141 0.0106427 0.0156332 -0.0803282 -0.0475943 0.00201494 0.0428041 0.0290842 0.0712841 -0.0456825 -0.0621068 0.0567925 0.00300109 -0.0479678 -0.0566346 -0.0283988 -0.00896905 0.0137258 -0.0372295 0.0471282 -0.0117862 -0.0267439 0.0337563 0.0733205 -0.0322987 -0.0270674 -0.0126049 0.0775698 -0.0984996 -0.00786142 0.00314007 -0.0156916 0.00624787 -0.108328 -0.0550889 -0.0494615 0.00562091 -0.0087066 0.00554681 0.0447461 0.0288794 0.0172716 -0.0635336 0.00189426 0.048861 0.0970493 0.0432022 0.0573665 -0.00383776 0.0163297 0.0243181 0.0144939 0.0537721 -0.061326 0.00925813 -0.0862794 -0.0372652 -0.058977 0.0180775 0.0946191 -0.0167348 -0.0420806 -0.0768309 -0.0297968 -0.0482142 0.0508926 0.0399866 -0.0927961 -0.0179003 0.00400251 0.0247211 0.0247088 0.0285833 -0.0574409 -0.0360348 -0.0691727
Q131 -0.014851 -0.0331181 -0.0310966 0.0381341 -0.0396568 0.0709293 -0.0453945 -0.0460898 -0.0218253 0.0818721 -0.0302805 -0.115798 -0.118654 0.012171 -0.00442317 -0.0268616 0.0553269 -0.0239357 0.13547 0.0697302 -0.00221166 0.00772278 0.0573971 -0.0489703 0.0215706 0.0200429 -0.0194303 0.0283041 0.0178289 0.0823373 0.0376013 -0.0983985 0.0252205 -0.00769642 0.0988167 0.0483357 -0.00925251 -0.0298029 0.0303176 0.0357829 0.0449495 0.0137199 0.0480477 0.0389113 -0.0291699 0.0863798 -0.0130376 -0.0817895 0.0318467 0.00061864 -0.0750345 0.023006 -0.0574603 -0.033037 0.012535 0.0260863 0.0140086 0.064649 0.122987 0.0219241 -0.0262371 0.0254755 0.0477737 -0.0874772 -0.0733361 -0.0754963 0.121076 0.000682224 -0.0938021 -0.00307335 0.0068238 -0.0145278 0.00539799 0.00230309 0.00877233 0.0322659 -0.0126278 0.0201811 0.0344004 -0.00403371 -0.0361213 0.0271345 -0.0703041 0.0414182 -0.0238705 0.0486475 -0.017532 0.0131234 0.0593285 -0.0104921 -0.00851229 0.0134984 0.0252009 -0.0323932 0.0634841 0.0345812 -0.0709846 0.0551818 0.0405803 -0.00232233
Q130 -0.0359573 -0.00341334 0.00829265 -0.00760606 -0.00362025 0.0176751 -0.0292009 0.00571217 0.002334 -0.0151482 0.0102179 0.0434121 -0.0122497 0.0111562 -0.0774398 0.048124 -0.0847145 -0.047319 -0.0459397 -0.0400389 -0.0416506 0.0598931 -0.0209837 -0.0227142 0.0491886 0.00358857 -0.0480963 0.0765899 -0.00462929 -0.0805279 0.0233262 0.0765737 -0.0103259 0.0122344 0.0114007 0.00467745 0.129822 0.0117034 0.00685339 -0.00119337 -0.0586168 -0.0314553 0.00524044 -0.0346528 0.00406871 -0.009255 0.0109557 0.0149803 -0.042382 0.021962 0.0352985 0.0237085 0.0494671 0.0267008 0.0206028 0.0145786 0.0346363 0.00921429 -0.0181635 0.0131589 0.0625626 -0.0557707 -0.0343347 0.0219272 0.0353103 -0.0115008 0.04962 0.0462187 0.0431141 0.0406515 -0.0505897 0.0392492 -0.073737 -0.058509 0.0398576 0.0101835 -0.0460736 -0.101133 -0.0483368 -0.0737862 0.0219697 0.0607001 0.0409189 0.0207606 -0.0380074 -0.086411 0.0504508 -0.0330626 -0.0244078 0.00343374 0.0376015 0.0355485 -0.0280009 0.0485763 0.013954 0.042864 0.0353818 -0.00078091 -0.0318577 0.070597
Q137 -0.108889 -0.0496716 -0.0367169 -0.0158662 -0.042182 0.048135 -0.0423017 -0.0180905 -0.0520435 0.0429198 -0.0199636 -0.0973078 -0.082872 0.0145305 0.0324296 -0.0700514 0.0561487 -0.0123251 0.0600131 0.0762701 0.0126458 0.00975702 0.0260446 0.0122145 -0.0147509 0.0553044 0.0153977 -0.0316756 0.0236254 0.131287 0.0499196 -0.100566 -0.00733282 0.0213072 0.10839 0.0392247 0.00125859 0.0408327 0.0264272 0.0114999 0.0282647 0.0299778 -0.00132269 0.0327777 0.0230232 0.00563036 -0.0427933 -0.0611474 0.0200839 0.0581865 -0.0172069 0.0469437 -0.0532028 -0.096034 0.0563714 -0.00537586 -0.0540633 0.0247805 0.0668863 0.0610001 0.0504374 0.0424798 0.00706006 -0.0477013 -0.0474677 -0.039378 0.0748326 -0.0551264 -0.0669709 -0.00896717 0.0103974 -0.0267719 5.35047e-05 -0.0152418 0.0436896 0.023565 -0.0271003 -0.0847621 0.0148953 0.00613196 -0.0224412 -0.000881339 -0.0554573 0.0340961 -0.0619724 0.0997048 0.0420505 -0.0457361 -0.0219792 -0.0103767 -0.00762469 -0.0343213 0.0302459 -0.02611 0.0545472 -0.0393377 -0.0630263 0.0370058 0.0344648 0.0011809
Q136 0.162434 0.0590679 0.142955 -0.00928879 -0.0147879 -0.00585067 0.0467242 0.0513927 0.0245323 0.00461957 0.123654 0.0981815 0.0724416 0.0386361 -0.0256096 0.0378583 -0.0986564 0.0485666 -0.130316 -0.0155968 -0.00122949 0.0293884 -0.0224243 0.0647681 0.100932 -0.0256594 0.00492941 0.0408496 0.0274927 -0.139271 -0.0610225 0.0758511 0.0408158 0.0452434 -0.0260451 -0.0509056 -0.0208086 -0.00746776 -0.0121993 -0.0582973 0.0288408 0.0571249 -0.106654 0.0171584 0.0517257 -0.0842051 0.0539611 0.0248705 -0.130811 -0.0486068 0.0599735 -0.0545929 0.080981 -0.0372935 0.0153373 -0.0290559 -0.0203023 -0.0578401 -0.055536 -0.063109 -0.103357 -0.0663582 -0.0199656 0.00455811 0.0266974 0.072949 -0.0343949 0.0327758 0.0759208 0.00806164 -0.0358283 -0.00970187 0.0373475 -0.0822311 0.00759614 0.066251 -0.0702001 0.0357147 0.0332494 -0.0777678 0.0967803 -0.00957995 0.00729708 -0.00964461 -0.0376025 -0.089966 -0.0333724 -0.0182339 0.112702 0.136994 0.0423925 -0.0692189 0.0304004 0.0449585 -0.0540835 0.0357863 0.0471302 0.0218386 -0.0802958 0.0543313
Q135 -0.0579729 0.0359458 0.0814714 -0.0516014 0.0405964 0.0238145 0.00294745 -0.0275272 -0.039275 0.0142555 0.0670744 0.0906644 -0.0155812 -0.0603922 0.00397319 -0.0122758 0.00802813 -0.0492942 0.000274319 -0.000285934 0.0132307 0.014809 -0.00824321 -0.00296152 0.00570194 -0.0309966 0.0278887 0.0154381 0.00133427 0.0344373 -0.0164416 0.0473953 0.0513684 0.0231389 0.0422868 0.0226688 0.0322801 -0.00912919 -0.0129765 0.0236146 -0.0219912 -0.0132111 -0.0475649 -0.0248531 -0.0221009 -0.0197613 0.00756494 0.0230438 -0.0119685 -0.01844 -0.0510519 0.0151104 0.0222588 0.0140839 0.0237135 0.0346138 0.0569503 0.0150817 -0.0926375 -0.0328218 0.0383463 0.0270098 -0.0125549 0.0238772 -0.00466859 0.0221963 0.0134639 0.0177524 0.00420976 -0.0250455 0.0422508 -0.0147892 0.0293338 -0.0221448 -0.0131285 0.0314162 -0.0131297 -0.0402848 0.00446609 0.0156152 -0.0319969 -0.0233726 0.00871944 0.0253734 0.0168686 -0.030534 -0.00211286 0.0624692 -0.038351 0.0214568 0.0257079 0.0214381 0.0384877 0.00796909 -0.00607384 -0.0207862 0.0348718 0.0454264 0.00711465 -3.5743e-05
Q134 0.0346439 0.0574493 -0.0644155 0.0392999 0.114923 -0.087648 0.000361281 -0.0177107 0.0969333 -0.0775653 -0.0275756 0.0531264 -0.0052219 0.0727885 -0.0799324 0.0346194 -0.0582211 0.00912154 0.0111531 -0.023194 0.00956103 0.00237821 0.0556091 0.0382579 0.00269587 0.0155344 0.00987796 -0.0572451 0.00587208 -0.0836317 -0.0288821 -0.0372367 0.0190427 0.00207106 0.0424694 0.0168809 -0.0352807 0.0452864 -0.0414318 -0.0187785 -0.00528799 -0.0256571 0.0234806 0.0684913 -0.00243164 -0.107925 0.0268803 0.0642871 0.00913994 0.005678 0.00912464 0.0228868 -0.0130866 0.0740438 0.0065013 0.0367458 0.0149439 -0.105035 -0.000481919 0.02584 -0.0082432 -0.0337446 -0.071723 -0.0217725 0.0270992 0.0608762 0.0127351 0.0371568 -0.097725 -0.0285665 0.0333997 0.0199199 -0.0486067 0.0266633 0.000886407 -0.0413111 0.0589667 0.0275767 0.0118743 -0.0182061 -0.00412375 -0.0105563 0.032314 -0.0193074 0.11728 0.058622 0.0100573 0.0951231 0.0284743 -0.0400295 0.0289438 -0.0329756 -0.0231469 0.00609907 0.0117024 0.0131699 -0.12934 -0.0255338 0.0228079 -0.0163787
Q20 -0.0446044 -0.00882136 -0.00341316 0.0268982 -0.0058788 0.0901596 0.00537714 -0.0466295 0.00564194 0.0402037 -0.0677377 -0.0686539 -0.00989762 0.00216134 0.0331462 0.0140131 0.0267497 0.0335709 0.0824276 0.00652577 -0.0276406 -0.0220962 0.055077 -0.0431776 0.0511886 0.0242187 -0.027354 0.0198828 -0.037147 0.00973247 0.102669 -0.020445 -0.0216351 0.00791687 -0.00678221 -0.0266621 0.0202575 -0.0234538 0.00620774 0.0402812 0.0164284 0.00220888 0.0149162 -0.04054 -0.00680803 0.0572388 -0.0157441 -0.029079 0.0272429 -0.0113762 0.00377043 0.0302672 -0.0106407 -0.0362792 0.00768477 -0.0367132 -0.0344371 0.0476064 0.10026 0.0186027 -0.0653491 -0.00613713 0.0138032 -0.0284638 -0.049886 -0.0746918 0.00158033 0.00607414 -0.0623052 0.00662681 0.0222128 0.00258407 -0.0128038 0.0431297 0.0352386 -0.0172869 -0.0379302 0.076859 0.00230725 0.048775 -0.00419086 0.0674947 -0.02587 -0.0306113 -0.00187893 0.0279306 -0.00928648 -0.0650636 -0.0292003 0.00475678 -0.00852149 0.0316155 -0.0223913 -0.0366111 3.63493e-05 -0.0163514 0.00392582 0.0185652 0.0483753 -0.0304692
Q21 0.0497155 -0.0207 -0.0173109 -0.0628637 -0.0252657 -0.0241585 0.0155739 -0.0971492 -0.0526924 -0.0138125 0.121943 0.0942107 -0.0551666 0.0353444 -0.0425036 -0.0547604 0.000487176 -0.043842 -0.0066653 -0.0623574 -0.0453464 -0.0285817 -0.0666633 0.07952 0.016879 -0.0176291 0.00165354 -0.0181626 0.0944795 -0.0338234 -0.080486 0.0442608 0.0389309 -0.0273121 -0.0196456 0.0695071 -0.0154415 0.0362898 0.0617266 0.0257085 -0.0430594 -0.0432883 -0.0125942 0.0163149 -0.0258877 0.00160521 -0.0305683 -0.0575643 -0.0526031 0.019975 -0.0508176 -0.0711111 -0.00424837 -0.0171187 -0.0727864 -0.0451207 0.078679 0.0293504 -0.0318008 -0.0757665 -0.0292584 0.00331127 -0.00311694 0.0318766 0.0211496 0.112601 0.00618529 0.0287747 0.0294111 -0.00428025 0.0447153 -0.00341523 -0.0248716 -0.121583 0.070028 -0.000179781 0.0620207 -0.0198711 0.0400661 -0.117624 0.107121 -0.0410959 -0.00441689 -0.0428818 0.0114947 -0.0359736 0.0467004 0.111585 -0.0158551 -0.0453865 -0.0212408 0.0248488 0.117278 -0.0779694 0.0125803 0.039637 -0.00440565 0.0146941 -0.0561591 0.0470246
Q22 -0.0394955 0.00110657 -0.0584664 0.0794447 -0.0282639 0.102087 -0.0266585 -0.0595627 -0.000145978 0.0459983 -0.068614 -0.0330846 -0.0764249 -0.0243472 -0.0300116 0.000368752 0.0122264 0.0297538 0.0981255 0.0165735 -0.0412715 0.00931216 0.0412039 -0.0356415 0.0406668 -0.0149595 -0.00953446 0.00570245 -0.0121622 0.045286 0.0612858 -0.0717093 -0.000298595 -0.0229561 0.0772823 -0.0264778 -0.0185504 -0.0175457 -0.0227988 0.0227581 0.0537788 -0.00483741 0.0577802 0.0453075 -0.0578116 0.0743713 0.0077093 -0.0548449 0.0363015 -0.00449081 -0.0364046 -0.0054846 0.00627163 -0.0267348 -0.0393931 0.0166276 0.0168992 0.0360403 0.0648776 0.0289671 -0.0402954 -0.00559864 0.0259044 -0.0538772 -0.0456369 -0.0960373 0.127273 0.0371438 -0.0501278 -0.0193788 -0.00711614 -0.0202433 0.0144483 0.0237786 -0.0247299 0.0108813 -0.00221783 0.0263207 0.00579014 -0.00454862 -0.0415757 0.0528628 -0.0538151 0.00334923 -0.00605448 0.0157285 -0.0448335 -0.00652534 0.0669145 -0.00229802 -0.0114788 0.0217587 0.0177549 -0.00777499 0.00818756 0.0333492 -0.0639372 0.0299399 0.0122559 -0.000791958
Q23 0.0255337 0.0597881 -0.0603394 -0.00174237 -0.0194524 -0.00388639 -0.0353306 -0.00856082 0.00179317 -0.104812 0.0941011 0.100295 0.0524248 -0.00190895 -0.020518 0.0715329 -0.0449751 -0.0557037 -0.0768461 -0.00342924 0.0636353 -0.0324485 -0.0454678 -0.00662346 0.00303017 -0.0337438 -0.0217744 0.000714007 0.0386061 -0.0398352 -0.12308 0.0825288 -0.00646655 -0.032206 -0.0530894 -0.0514173 -0.0779099 0.0465451 -0.00313207 0.00680136 0.0274118 -0.0728295 0.0197331 -0.0557058 0.00902951 0.0574309 -0.0144671 -0.00570942 -0.000740516 0.0235305 0.00504625 -0.0672728 0.0526591 0.155872 -0.07398 -0.0292951 0.0389853 0.0192477 -0.0393112 -0.0294872 -0.014966 -0.0120578 0.0143066 0.0998302 0.0195211 -0.00267262 -0.0344778 0.0104642 0.0445018 -0.0707536 0.0197337 0.0706538 0.0331016 -0.0548273 0.00635265 -0.102177 0.0547432 -0.0520701 -0.0285953 0.0162801 0.0385807 -0.0889963 0.00925435 -0.0512242 0.0211378 -0.0643298 -0.0157266 0.026005 -0.0752114 -0.135008 0.018351 0.127013 -0.00315591 0.0565156 -0.0771714 0.00612228 0.124004 -0.0593655 0.0037711 0.0186983
Q24 0.0112775 -0.016054 0.0203839 -0.0520573 -0.0114941 -0.0254826 0.0575697 -0.0187231 0.0591838 0.000146389 -0.0344209 0.144451 0.0305072 -0.0066544 0.0488086 -0.00562666 -0.101766 0.0519645 -0.00132537 -0.0987036 -0.05373 0.00216511 -0.108542 -0.000943647 -0.0277643 -0.0312095 -0.00784383 0.0229222 -0.0336132 -0.0260363 -0.0730886 0.0608253 -0.049467 -0.00222389 -0.0853845 -0.0263734 0.0986818 0.00866304 0.00197104 -0.00287898 -0.0544728 0.0507779 0.0742452 0.0449487 -0.0343462 -0.00534602 -0.0128753 0.0392644 -0.056959 0.017476 -0.0287395 -0.087019 -0.0251222 -0.0572495 0.00665254 0.00492765 -0.0148784 -0.0182599 0.0121326 -0.0947337 -0.0399809 -0.112279 0.0294899 0.0811268 0.0455998 0.0734289 -0.0783875 -0.00365054 0.073523 0.00310983 -0.0209317 0.00991148 -0.0493227 0.0548879 -0.00926085 -0.00680365 0.0512685 0.0406434 -0.0286048 -0.0327646 -0.0263518 0.0611046 0.0215693 -0.0386393 -0.0159651 -0.0485917 -0.05124 0.0272005 -0.084238 0.0142062 0.0241773 0.0305417 0.0347036 -0.0304239 -0.0313874 -0.00403304 0.106841 -0.0337859 -0.0693473 -0.0148677
Q25 -0.0538831 0.00139046 -0.0302309 0.0622925 0.016399 0.0503588 -0.043622 0.00629114 -0.0285035 0.0162371 -0.0216898 -0.0658872 -0.00968093 -0.0211806 0.0255273 0.0288566 0.0200204 0.018972 0.103743 0.00823293 -0.0184952 0.00884139 0.0585791 -0.0387488 0.0211693 -0.00817714 -0.0125338 -0.0393916 -0.0151707 0.0125332 0.042434 -0.0582904 0.0283733 -0.00235903 0.0351357 -0.00632843 0.00792332 -0.0218713 0.00299213 0.0317234 0.0782213 0.0156882 0.0314732 -0.0512164 -0.039104 0.0658214 -0.00229609 -0.00495354 0.0653306 -0.0191112 -0.0788352 -0.00321246 -0.0359065 0.0141282 -0.0124483 -0.0568799 -0.0169276 0.0343801 0.0921371 0.00271311 -0.0682829 0.0388472 -0.00157967 -0.0416157 -0.0459134 -0.0639356 0.0519118 -0.00855438 -0.0710969 -0.00870344 0.0184446 0.0094455 0.0615478 0.0357539 -0.00364426 -0.00968313 -0.00430509 0.0376026 0.0422806 0.0109762 -0.0332861 -0.0143088 -0.0088409 0.00414365 0.0214365 0.0521719 -0.0535746 0.0228994 -0.0279803 -0.0503911 -0.0311575 0.0202153 -0.0143085 -0.00824622 -0.00209129 0.0138028 -0.0144914 0.0170004 0.00382144 -0.0189603
Q26 -0.0095738 -0.00155225 0.0235425 -0.0202483 -0.0403299 0.0328299 0.0541769 -0.0180982 -0.00758685 0.00522724 0.0244486 0.0321261 0.0455419 -0.0441783 -0.0145506 -0.0157373 0.00476158 0.0287854 0.00280389 0.0152667 -0.0175389 0.0646904 -0.0345475 0.019826 0.00677677 -0.00233913 -0.0365174 0.0324806 0.0542843 0.00659901 0.00734269 0.0246492 -0.00178027 -0.0014383 -0.0397383 -0.0531477 0.0749892 0.0214158 -0.0116277 0.00889477 0.0208921 -0.0177935 0.0342293 -0.0457877 0.00824841 -0.0451661 -0.0731011 -0.0171316 0.000346542 0.0139398 0.031425 0.0295464 -0.000483442 -0.00839484 0.016254 -0.0210211 -0.00329812 -0.0325773 0.00751108 -0.00294725 0.0184447 -0.00255292 -0.014167 0.0430031 0.0580621 -0.000646874 -0.00681035 0.0192238 -0.00150578 0.0109144 -0.0275699 0.0115095 -0.0366353 -0.0390723 0.0319224 -0.0229957 -0.0304855 -0.00292606 -0.0238015 -0.0179217 0.0350941 0.0153723 0.0250442 -0.0132977 -0.0790305 -0.0191436 0.0767346 -0.0190139 -0.0378159 -0.0264513 0.0220658 -0.00141546 -0.00799562 0.00372456 -0.0290552 -0.0353137 0.0813895 -0.0149233 0.00279022 0.0152114
Q27 0.0656938 -5.52476e-05 -0.0970556 -0.0143092 -0.0720849 -0.0123342 -0.0221202 -0.0552165 -0.00799825 -0.0612459 0.0710549 0.138016 -0.0114365 0.0200647 -0.0378791 -0.0161583 -0.166573 0.0400255 -0.0789201 -0.0688637 -0.0802888 0.0019467 -0.14957 -0.080223 0.132765 0.0308621 -0.0602526 0.0244162 -0.0793358 -0.0294781 -0.00908052 0.106827 -0.0474242 -0.0376783 -0.0430013 0.0699036 0.104449 0.0658935 -0.0525232 -0.0535647 -0.0967537 -0.00694984 0.100843 0.00351267 0.0354085 0.0594122 0.0381565 -0.0291472 -0.116278 0.0827475 0.00558974 0.0130737 -0.0376925 -0.0234887 -0.0836927 -0.0784049 -0.00258812 -0.0270846 0.00713192 -0.024067 0.057509 -0.122759 -0.0598023 0.024183 0.0282858 0.0189219 -0.0548259 0.038689 0.0353518 0.0775878 0.0342274 0.101396 -0.119119 -0.0913206 0.00174586 -0.0601717 0.0727065 -0.0592237 -0.0584298 -0.121729 0.0166984 0.116861 0.0688995 0.0507057 -0.0039638 -0.00520797 -0.00631444 -0.0584595 -0.0895201 0.0299273 0.10796 0.00368899 0.0169476 0.028706 -0.0222919 0.022111 0.0744092 -0.0080414 -0.0252148 0.0730012
Q28 0.0114499 0.040402 -0.0261656 0.00166447 -0.00174272 0.00988274 0.0240537 -0.0414139 -0.0516343 0.00100052 0.0721183 0.107929 -0.0593301 -0.0466354 -0.0525822 0.0847081 -0.0693468 0.00534306 -0.0143724 -0.0885915 -0.107852 -0.0458126 -0.0436492 -0.0459666 0.00424387 -0.00511934 0.0107035 0.039922 0.00532955 -0.0107719 -0.014724 0.0310606 -0.0157331 0.00973403 -0.0424586 0.0357945 0.0900374 0.0627646 0.0346739 -0.0109502 -0.0346504 -0.0985848 -0.00449517 -0.00550537 0.0353842 0.0528337 -0.0414161 -0.011179 -0.0505385 0.00355792 -0.0303893 0.0248773 -0.023261 -0.0208416 -0.0710583 -0.0723252 0.0509323 -0.0244906 -0.000715004 -0.0660358 -0.0229601 -0.0426729 -0.00522051 -0.00760962 5.10059e-05 0.0439958 -0.0198418 0.0619074 0.0192233 -0.0152554 0.0326331 0.105492 -0.0932108 -0.0846664 0.0558263 0.0353886 0.00469681 -0.0756836 -0.0175557 -0.0288227 0.0415369 0.0139454 0.0433848 -0.00270416 -0.00543254 0.00115602 0.0273144 0.0436551 -0.100859 -0.0431013 0.0324062 0.036175 0.011442 -0.00656293 -0.010104 0.00898636 0.11399 -0.00529413 -0.0633641 0.0351126
Q29 -0.0198121 -0.0173432 -0.035003 -0.0414172 -0.0585418 -0.0379526 0.00187506 0.0218935 0.104674 -0.00296222 -0.099102 -0.00933888 -0.057164 -0.00679598 0.0224372 0.0175727 -0.0371669 -0.0197103 0.0642491 0.0143245 -0.00843241 0.0173762 -0.0309694 -0.066022 -0.0506218 0.0313276 0.0515467 -0.00686304 -0.118837 0.0190333 -0.0476399 -0.0119725 -0.0038493 -0.0255766 0.0546689 0.00371006 0.02134 -0.0212837 0.0288194 0.0194937 -0.0165736 0.0645145 0.0477469 0.0268835 0.0260066 -0.026499 0.0547827 -0.0466802 -0.0164225 -0.0241931 -0.0271307 -0.000591105 0.0263271 0.0200397 0.0447765 0.103112 0.0387879 0.0312844 -0.025917 -0.0352259 0.0470396 -0.0952817 0.00562867 0.0275643 -0.047511 -0.0772732 -0.0141942 -0.0325739 0.034837 -0.0233244 0.00322625 -0.0348199 -0.0332161 0.0797143 -0.0578937 -0.0171704 -0.01633 0.0233187 0.0116396 0.0297214 -0.0221167 -0.0146856 -0.00872485 -0.0113139 0.0525928 0.0355196 0.00243908 0.0451575 0.0660251 0.0968407 0.00499985 0.0191537 0.0267251 0.0146896 0.0555941 0.03633 -0.0160364 0.0577893 0.0189247 -0.0798353
Q188 0.0837524 0.0196314 -0.0234664 -0.00750663 -0.0655571 -0.077431 0.0667122 -0.00394455 0.0546213 -0.0484424 0.0394184 0.0733217 0.0462426 -0.0499254 -0.0157484 0.0739365 -0.0388367 -0.00229677 -0.0265205 -0.120802 -0.0571533 -0.00271508 -0.100856 -0.00218661 0.0120877 -0.0265234 0.00170167 0.076742 -0.0802803 -0.0503306 -0.0155791 0.0317149 -0.00678469 0.0414412 -0.0242696 0.00228824 -0.0196684 -0.00753848 -0.000248219 -0.0697932 -0.0962529 0.0486279 -0.00660734 0.0567062 -0.0160494 0.00379371 0.0590203 0.0127741 -0.0266384 0.00668505 0.00262957 -0.0419619 0.0431862 0.0542589 -0.0491935 -0.0605089 -0.0224471 -0.0383661 -0.0269326 0.0356812 0.0160266 -0.0536218 -0.14959 0.0959538 0.0385333 0.0621597 -0.0728133 0.00777058 0.122358 0.0102886 0.0115917 0.0249186 -0.0616586 -0.0727011 -0.0955934 -0.0870044 0.0188105 0.00361129 -0.0616446 -0.0205402 -0.0252379 0.0833965 0.021055 -0.0559963 0.035571 0.0161166 0.0360328 0.0483639 -0.0328763 0.0602365 0.0765265 0.0170547 0.0279783 0.014554 -0.0309305 -0.0260613 0.061421 -0.071368 -0.0400318 -0.0248214
Q189 0.0220819 0.0306003 -0.00730155 -0.0133681 -0.0506025 -0.0312428 0.00778111 0.00606925 0.0561905 -0.0248279 -0.0808426 -0.012951 -0.0058132 0.0219863 0.0890215 -0.0173624 -0.0488989 0.0429643 0.0342313 0.0082331 -0.0811838 0.00543857 -0.0365959 -0.0558892 0.024518 0.0234113 0.0339437 -0.0301159 -0.0711582 -0.0425821 -0.0108967 -0.00880144 0.020572 -0.020695 0.0227989 -0.0175525 -0.0206055 0.00834596 -0.0322928 0.0278811 -0.0169787 0.0321673 0.0332001 -0.000487113 0.0110297 -0.0162483 0.0670916 -0.0287318 -0.0374157 -0.0237982 0.0128356 -0.00319156 -0.0271755 0.00206177 0.00231667 -0.0231628 0.0461705 0.0062341 -0.00957236 -0.0181341 -0.0142118 -0.0472124 -0.020473 -0.015128 -0.0196568 -0.0483055 -0.0444925 0.0329377 0.0268664 0.0222168 0.0217244 -0.0119821 -0.0130592 0.0918858 -0.027965 -0.0192279 -0.00300897 0.0404288 0.0411287 -0.00931111 -0.0028057 -0.0398753 -0.0498654 0.0181923 0.0471447 0.0105405 0.0266903 0.0273961 0.046554 0.0305374 -0.0318196 -0.0201988 -0.0278214 0.015306 0.00800012 0.00163201 0.00629712 0.0340943 0.0272878 -0.0164128
Q186 -0.00537838 0.0565158 -0.0104616 0.0145325 0.0367965 0.0787159 -0.0375492 -0.0025893 0.00446645 -0.0223348 -0.00417575 -0.0178966 -0.00441827 -0.0535621 -0.0832038 0.0868814 -0.0327681 0.020369 -0.0102186 -0.0117659 0.00499489 0.0202243 0.0525594 0.010622 0.000378013 -0.0563579 0.016959 0.0203905 0.00346799 -0.0531738 -0.0454941 0.0425159 -0.0159272 -0.0222449 -0.0331565 4.49803e-06 0.101389 -0.0130456 0.013149 -0.022761 0.0335996 -0.113321 0.00101632 -0.0831229 -0.047307 0.0299627 -0.0408809 0.0308147 -0.011788 -0.00739955 -0.0395351 -0.0041768 0.0813649 0.143649 -0.006072 -0.0570723 0.0126956 0.01109 0.0265622 -0.0349947 -0.0253215 -0.000610404 -0.012461 0.0273945 0.0169278 0.00909235 0.0170699 -0.0241775 -0.00648059 -0.0188064 -0.0445664 0.0531725 0.0728208 -0.0549431 0.0460616 0.00923139 -0.0475259 -0.00233269 0.0194818 0.0187965 0.0170822 0.0090342 0.0461744 -0.0206873 0.014238 -0.0654813 -0.0351163 0.00808293 -0.0443111 -0.0637391 0.00902646 0.116113 -0.012483 0.025973 -0.0502762 0.0611093 0.0552465 -0.0206375 -0.047474 -0.0127793
Q187 0.105868 -0.0294706 -0.00995973 -0.00851787 -0.0254079 -0.0595688 0.0588974 0.0242345 -0.00711802 -0.056489 0.0938501 0.0666644 0.046697 -0.0125863 -0.00582813 0.0310121 -0.0456724 -0.0144945 -0.0727764 -0.0831865 0.00525925 0.00074091 -0.0433176 -0.0418735 -0.029582 -0.0167301 -0.0769034 0.00602265 0.0429867 -0.0449508 0.0415153 -0.0145657 -0.0264582 -0.0464807 -0.019388 0.0300841 -0.0230816 0.0718554 -0.0266772 0.000427329 -0.0869898 0.0552914 0.022959 0.0309903 0.0119442 -0.0183378 0.00467072 -0.00628925 -0.0113738 0.0385708 0.029446 0.0580437 0.00412534 -0.0341993 -0.0388722 -0.09528 -0.0254671 -0.0830498 -0.0821467 0.0425005 0.00434188 0.00216516 -0.102103 0.0181826 0.0568484 0.0436702 -0.0414055 0.0939176 0.063454 0.0581047 -0.00472254 0.0399579 -0.0305449 -0.0419873 -0.0847652 -0.016673 0.0616869 -0.0558645 -0.00967841 -0.0041768 -0.00555188 0.0095173 0.0569948 0.0313809 -0.000332686 -0.00140011 0.0170081 0.00484742 0.00200688 0.0168663 0.00716549 -0.077743 -0.0267542 0.0201864 0.015426 0.0432618 0.0337673 2.30052e-05 -0.0269933 0.0641515
Q184 0.0386991 0.0117768 0.0462962 -0.0404183 0.0372632 0.0161274 0.00273279 0.000219871 0.0106396 -0.0440449 0.081055 0.0322348 0.00356452 -0.0159953 -0.0207303 0.00810962 0.0162881 -0.0434782 -0.0539214 -0.0374111 0.068194 -0.0295746 0.0171841 0.0134376 -0.0308462 -0.0382607 0.00159124 0.0225794 0.026322 -0.0759764 0.0153656 0.0269962 -0.0102409 -0.0425511 -0.0241497 0.000150834 -0.0481872 -0.051786 0.0368497 -0.0053291 -0.0226014 -0.0364975 -0.0663446 -0.0198523 -0.00809842 -0.00454143 0.0667115 0.0557604 -0.0424424 -0.0112805 -0.0142187 0.0105995 0.0429364 0.0384336 -0.050576 0.0249114 0.0188305 -0.00772382 -0.0728809 -0.00283765 -0.0588789 0.018794 0.0169543 0.0890278 0.0288662 0.0686286 -0.00916184 -0.00202299 0.0833545 0.0494138 -0.0114255 -0.0254634 0.02979 -0.00752807 0.0371118 0.0129274 -0.0568192 -0.0289894 0.03171 0.0243742 0.072684 -0.0411615 0.0238147 -0.0390577 0.00566119 -0.0499664 0.0400469 -0.0164138 -0.0279665 0.000880117 -0.0775796 -0.0105534 -0.00265904 0.0071034 -0.00960282 -0.00843916 0.0195352 -0.024974 -0.036518 0.0314173
Q185 0.0718585 0.0155753 -0.0333574 0.00189806 0.0183961 -0.0954871 0.0134881 -0.0281222 -0.032275 -0.0394762 0.055863 0.0226907 0.073378 0.0553244 0.0224888 0.000659805 -0.0832571 0.0624774 -0.0384205 -0.0336801 0.00783314 -0.00379112 -0.0220064 0.0326626 0.0316937 0.000188861 0.0149959 -0.0576113 0.00452607 -0.0797035 -0.0598383 -0.0391621 -0.00314618 0.00313057 0.00614433 -0.00688039 0.00494497 0.0457445 -0.0557208 0.0122746 0.0378037 0.00739088 -0.0122837 -0.0158667 0.0025735 -0.0270949 -0.0140852 0.0469504 -0.0586226 -0.00192821 0.0205802 -0.00234963 0.0207966 -0.00353436 -0.0225903 -0.0820467 -0.0411183 -0.0870044 0.0299209 0.0579751 -0.020435 -0.00620711 -0.0191261 0.0159659 0.0303025 0.0704033 -0.0122084 0.0241925 -0.00679427 -0.0163428 -0.0257048 0.0145776 0.0184998 0.00287264 -0.00157661 -0.0247223 -0.0197957 -0.00356892 -0.00870082 -0.0388069 0.00297397 -0.0689598 0.00380843 -0.0126711 0.0456161 0.00413893 0.00429828 0.0204424 0.0538225 -0.0274645 0.0494042 -0.0383393 -0.0256491 -0.0391857 -0.00892947 0.00146234 -0.0587867 -0.03241 -0.0209877 -0.0219782
Q182 -0.0501704 0.0211519 0.0401696 -0.0649887 -0.00389469 -0.0177806 0.0243538 -0.104671 0.000149009 -0.0252941 0.0491333 0.0641231 -0.0682948 -0.0310531 -0.0487485 0.0239021 0.0508496 -0.082236 -0.00572316 0.0565625 0.0109777 0.0003247 0.0132029 0.0387394 -0.0396156 0.00623213 -0.0180943 -0.00609678 0.0493572 0.0241018 -0.0821254 0.0404103 0.032522 0.0241882 0.0217174 0.0475931 -0.0282862 0.0224394 0.0445822 -0.00939829 0.00728856 -0.0111279 0.00333461 -0.0233247 0.0262337 -0.0465981 -0.0442824 -0.0487484 0.00354 -0.00159142 -0.0197369 -0.0508819 0.0455506 0.0166213 0.0217884 0.0154496 0.0783054 0.0483138 -0.0702377 -0.00903134 0.011673 -0.0180315 -0.0114292 0.0327389 -0.0158036 0.0171178 0.0290753 0.00995228 0.00895546 -0.0722337 0.0103328 -0.0172811 0.0401948 -0.0834379 0.0361447 0.0423318 0.0206451 -0.0325837 0.0456683 -0.0449912 0.0794151 -0.0937844 0.0068252 0.00585866 -0.0171587 0.0415925 0.0154181 0.104359 0.0144013 -0.0255172 -0.0131377 0.0554505 0.0025354 -0.032524 -0.00926527 0.0369525 0.0261261 0.0746413 0.0153876 -0.00971553
Q183 -0.0800114 -0.0458038 0.00485885 0.0216266 -0.0886027 0.075873 0.00839038 -0.0443967 -0.0322392 0.0948663 -0.0237824 -0.12769 -0.0181075 0.0236317 0.036558 -0.0471891 0.0712218 -0.0161263 0.0882604 0.0791054 0.0185994 0.0223737 0.0678789 -0.0221801 0.0279374 0.0398226 -0.0153831 0.0159003 0.0134298 0.0890836 0.0410477 -0.0820704 0.00608509 0.0389767 0.0825665 -0.00570356 -0.0153823 -0.00821777 0.000523623 0.0448785 0.0574156 0.0464954 -0.00234119 -0.0136623 -0.0195454 0.0602088 -0.0475554 -0.0909021 0.0730041 0.00490596 -0.0284794 -0.0084665 -0.00712584 -0.0199423 0.0583722 -0.065506 -0.0224733 0.0579543 0.0890573 0.0544789 0.0132997 0.0586675 -0.00546613 -0.0916592 -0.0543261 -0.103939 0.0570279 -0.0384268 -0.0981303 -0.0272344 0.0161592 -0.0475971 0.0326102 -0.0134737 0.0130085 -0.00187805 -0.0409074 0.00124628 0.0156037 0.0271057 -0.0157063 0.0371972 -0.0688094 -0.00875108 -0.0214352 0.0654288 0.0230353 -0.0586294 0.0080444 0.000562954 0.046881 0.0176001 0.0135361 -0.034425 0.0174058 -0.0186741 -0.032578 0.033605 0.0594855 -0.0360784
Q180 0.0826581 -0.00550884 0.0548913 -0.0183236 0.0822537 -0.0396886 -0.020368 0.00808694 0.000289863 0.00412375 0.0128422 0.0402057 0.0819829 0.0415941 -0.0101596 0.0653433 0.0082387 -0.0211828 0.00535655 -0.0889217 -0.0289556 -0.0351649 0.0468826 0.0323268 0.00544559 -0.0711414 0.0260172 -0.0286072 0.0519787 -0.00424848 -0.0418218 0.0766685 0.0223201 -0.00665738 -0.0748136 -0.0278961 0.0518175 -0.0174601 0.00421818 -0.00287443 -0.011748 -0.0185825 -0.0849839 -0.0153169 -0.0004174 -0.102928 0.0154317 0.0169847 0.0060682 -0.0338083 0.028842 0.012421 0.0439008 -0.0118077 -0.0216305 0.0350134 0.00545962 -0.037764 -0.0471848 -0.0263427 -0.0228605 0.0125592 0.037457 0.0526726 0.0240054 0.124367 -0.0338721 0.0243856 -0.0396407 0.0156765 -0.0216894 -0.00144726 -0.0419845 -0.0118752 0.0301776 0.0306398 0.0226656 0.0384275 -0.0139194 0.0301146 -0.00744686 -0.011496 0.0667075 -0.0658376 0.0825356 -0.0585753 -0.00608174 0.0161773 0.0131124 -0.000279798 -0.0421798 -0.0173372 0.0320365 -0.0215681 0.0191149 -0.0117612 0.00598776 -0.0553277 -0.0466106 0.043348
Q181 -0.0142725 -0.00709183 -0.0523562 0.055129 0.0191139 0.0695502 -0.00611233 -0.0283339 0.0530304 0.0613071 -0.128382 -0.0618582 -0.0529832 0.0108983 -0.00134117 -0.012353 -0.0277263 0.0668507 0.0846472 -0.0117869 -0.0408759 0.0124911 0.01871 -0.0219562 0.0189818 -0.0183678 0.010932 -0.0327071 0.00710624 0.0476275 0.0641455 -0.0806507 -0.00763951 -0.0563997 0.0654441 -0.0163809 0.0398822 0.024643 -0.0386014 0.0531268 0.0276941 0.0227212 0.0289224 0.0396386 -0.0233734 -0.0184592 0.0254567 -0.0367126 0.00467701 0.0487422 -0.0292882 0.018133 0.00569293 -0.0584177 -0.009326 -0.0389014 -0.0186513 -0.0202503 0.0421489 0.0332126 -0.0272715 -0.0230341 -0.00417921 -0.0445815 -0.0272677 -0.0266584 0.0216408 0.0056663 -0.0658514 -0.0206699 0.00675117 -0.0293394 -0.0273192 0.0648059 0.0252564 0.00238181 -0.057802 0.0547673 0.00807064 0.0276608 -0.0427198 0.0431084 -0.0296162 -0.0036022 0.0141418 0.063442 -0.0221744 -0.00432197 0.0355162 -0.0102991 -0.00771918 -0.0141494 -0.00181013 -0.0460332 0.0366961 0.000963059 -0.0883589 0.0246912 0.0280652 -0.00602487
Q106 -0.0223926 0.00730347 0.0757073 -0.00822942 -0.018495 0.0490073 0.0969794 0.0455421 -0.0235283 -0.000167894 -0.0310431 -0.0490182 0.153418 -0.014183 0.0283574 0.0169024 0.0671516 0.0284766 0.0163064 0.115308 -0.0448677 0.00524049 0.0720561 4.51648e-05 -0.0191687 0.00148397 -0.0301072 0.0322415 -0.0099656 -0.0951194 0.0654924 0.0168297 -0.0682259 0.0447899 -0.107322 -0.0811938 -0.0391092 -0.0313815 -0.031837 -0.00546837 -0.0133535 -0.0137703 -0.00524301 -0.0828629 0.0273082 -0.0220894 0.00323136 0.00582645 0.0413665 -0.0813726 0.0652382 0.0269079 0.0258024 0.0472652 0.0210619 -0.038383 0.0434948 0.0926996 0.0323481 -0.0631387 -0.0736547 0.0195601 0.0183947 0.0228096 0.026009 -0.102712 -0.077316 0.00354281 -0.010308 0.0776045 0.012858 -0.0578192 0.0131707 0.076044 -0.0277499 0.0549639 -0.0329395 0.137707 0.014495 0.0408734 0.0848044 0.00244079 0.0604772 -0.0136526 -0.0342209 -0.050478 0.0422522 -0.0375634 0.0381934 0.0683671 -0.0418643 0.021714 -0.0309636 0.022849 -0.0356733 -0.0792287 0.0627429 0.0148622 0.0491464 0.00890436
