3167 100
Q117 0.130128 0.00744649 0.112132 -0.0661437 -0.122734 -0.0252929 -0.116353 0.0499111 -0.0027004 0.112857 0.0288853 0.0757915 -0.0898886 0.0572337 -0.0948403 0.126274 -0.136458 -0.0889893 0.0678742 0.0259861 -0.028759 0.0615976 0.101856 -0.0909237 0.0398751 -0.0256034 -0.11655 0.0999865 -0.148083 0.0393364 0.00356131 0.0344483 -0.080543 0.106329 -0.0672014 0.0199068 0.0861529 -0.0203948 0.0430105 -0.0618083 -0.100656 0.0689052 -0.0814792 -0.0723912 0.0769043 -0.0101668 -0.0521167 0.119571 -0.0119995 0.124328 -0.0977273 -0.0271757 0.0580672 -0.100369 0.0578994 -0.0759041 -0.0538893 0.0363796 -0.0377769 0.0978527 -0.0346682 -0.0465063 -0.0634594 -0.00201807 0.0706214 -0.0309656 0.101906 -0.0765508 0.0584129 0.090636 -0.0668483 0.0157286 -0.185202 -0.114573 -0.0594953 -0.097942 -0.0683159 -0.117352 -0.0646482 -0.0560652 0.08585 0.111886 0.0938946 -0.0810688 0.0549995 -0.0807443 0.0181399 -0.0589322 -0.00653152 -0.103172 0.0775189 -0.0618748 -0.0658776 0.107197 -0.0783905 0.0611004 0.126623 0.0604414 0.0399777 0.0430376
Q116 0.106051 0.00455506 0.0212901 0.0443117 -0.0508043 -0.108702 -0.116803 0.0761523 0.00286966 0.0886087 -0.018527 0.0295986 0.026477 -0.0288197 0.0394393 0.106497 -0.032666 -0.0457798 0.0250397 0.122088 -0.0430726 0.0318351 0.145333 -0.031328 0.0661264 -0.068875 0.0362209 -0.0261709 -0.152637 0.103614 -0.0029368 -0.0375387 -0.00623235 0.0858442 -0.11134 0.0316619 -0.0527925 -0.0632827 0.057606 -0.136741 -0.0476328 0.0485575 -0.026334 -0.0384459 0.0438547 -0.0469157 0.0503547 0.088788 0.075703 0.0323274 -0.0533352 0.00821623 -0.0378081 -0.0445387 0.00501192 -0.0740863 -0.0296211 0.0501287 -0.0191259 0.0751959 -0.0400823 0.00096715 -0.0687305 -0.0886433 0.0539209 -0.0580785 0.0268629 -0.123307 0.0245291 0.120413 -0.054433 0.0442815 -0.0454353 0.0259571 -0.136065 -0.058432 0.0426625 -0.0997941 -0.0448196 0.0331788 -0.0438578 0.0648988 0.112109 -0.0118784 0.0446871 -0.0413129 -0.0706299 -0.0880059 0.00203187 -0.10144 -0.0465608 -0.10564 -0.0593352 0.0915468 -0.101617 0.0220715 0.0803397 0.00935332 0.0929408 -0.0678808
Q200 0.158631 0.0268739 0.0527309 -0.0676471 -0.104145 -0.0468117 -0.0712155 0.051974 0.023366 0.102866 -0.111985 0.119138 0.0306581 -0.0249993 0.0613786 0.082512 -0.0675231 0.0411483 0.0351171 -0.00770773 0.0173038 -0.00617119 0.0694565 0.0298178 -0.07086 -0.0546875 -0.0672548 -0.0449327 -0.0826339 0.0773759 -0.109668 0.0435851 -0.0830029 0.0373183 -0.176083 -0.0382442 -0.00185774 -0.0524632 0.0241792 -0.0701062 -0.0372581 0.119035 -0.00963454 -0.00874614 0.0165254 -0.00746109 -0.0221331 0.11748 -0.0540706 0.165014 -0.0883115 -0.151345 -0.015996 -0.1075 0.0289428 -0.0993883 -0.0840865 0.0422187 -0.0248474 4.20323e-05 -0.0960965 -0.0336332 -0.00935743 0.0189073 0.0718959 0.039889 -0.0923748 -0.157087 0.0641545 0.0342044 0.00443411 0.0269168 -0.0550993 0.0339817 -0.0981346 -0.090515 0.0705641 -0.0306818 -0.0686115 -0.00723642 0.00377131 0.0381455 0.0495982 -0.108188 0.0607433 -0.0792775 -0.106352 -0.0239116 0.0138582 -0.148935 -0.00710229 -0.118083 -0.012099 0.0403313 -0.123031 0.0369357 0.0915704 -0.0736334 0.0449521 -0.0802874
Q51 0.122215 0.0591094 0.0849098 -0.0383589 -0.027631 -0.0698192 -0.0926129 0.0731259 0.0426376 0.0352418 -0.0535441 0.0663177 0.00020735 0.0444305 -0.0714785 0.097505 -0.0976502 -0.0366847 0.0795146 0.100608 0.0526319 0.0608451 0.212354 0.0134019 -0.0173903 -0.0193217 -0.118289 -0.00763468 -0.160785 0.0129931 -0.0223785 0.00741148 -0.0801552 0.107369 -0.0794755 -0.0120542 -0.051804 -0.0380008 -0.0333001 -0.110108 -0.033653 0.0847197 -0.0388621 -0.0097982 0.123735 -0.12326 -0.0548228 0.228394 0.0587238 0.0940135 -0.0560434 0.0251826 0.0117007 -0.0609461 0.096121 -0.0373876 -0.0774463 -0.0468789 -0.0562046 0.0645121 -0.0883125 -0.025762 -0.104594 -0.0277766 0.0414674 -0.0594129 0.0763585 -0.116426 -0.0716722 0.105915 -0.0341641 0.0259498 -0.120195 0.0417432 -0.161009 -0.109704 0.0839338 -0.0794796 -0.077053 0.0159587 -0.00918297 0.0470624 0.121389 -0.0908866 0.124929 -0.0466359 -0.0410942 -0.0472176 -0.00188582 -0.171751 0.0455012 -0.103621 -0.115859 0.110164 -0.106549 0.0364301 0.0486863 -0.0171474 0.101262 -0.0545723
Q50 0.0326268 0.0357735 0.0397098 -0.0131212 -0.0922282 0.065537 -0.141766 0.0172579 -0.0541845 0.1917 -0.143688 -0.0610209 -0.0932413 -0.00838332 -0.00375182 0.113905 0.049327 -0.0509435 0.188581 0.196114 0.0216954 0.013406 0.278325 -0.0561018 0.0230537 -0.0285693 -0.0609484 -0.0152554 -0.102883 0.223917 0.0480065 -0.0664056 -0.0176723 0.0944932 -0.0450669 0.0149156 -0.0458114 -0.0901298 0.0355514 -0.017436 -0.0132141 0.0794374 -0.0424794 -0.0674087 0.0563462 0.000558187 -0.0496767 0.0759306 0.0847961 0.136263 -0.121402 0.00308289 -0.0377264 -0.107561 0.0660518 -0.0724662 -0.0282341 0.170241 0.00498213 0.120024 -0.0888059 0.0693025 -0.000663524 -0.13104 -0.0401843 -0.192324 0.116954 -0.163458 -0.127737 0.0759084 0.000649278 0.00547533 -0.0666133 0.070661 -0.083569 -0.0666209 0.0143335 -0.0607827 -0.0784241 0.0395566 0.00543508 0.0571085 0.0602361 -0.0612082 0.0947925 -0.0277302 -0.0715137 -0.0810293 0.0491766 -0.206012 -0.017396 -0.0602884 -0.0539565 0.0874002 -0.0524768 0.074132 0.0179305 0.066637 0.200171 -0.075287
Q53 0.1009 0.0190933 0.0763797 -0.0519116 -0.0395697 0.0394706 -0.018944 -0.0265302 -0.0220385 0.127779 0.0348101 0.05603 -0.0480017 0.000902052 -0.0897473 0.0791122 0.00718146 -0.0263665 0.107741 0.113718 0.00890806 0.039725 0.200126 -0.0164501 -0.0351847 -0.110748 -0.139326 0.0413194 -0.0116533 0.00171394 -0.00705829 -0.0391538 -0.0777774 0.0695806 -0.0517755 -0.0548333 -0.00420481 0.00138267 0.0702086 -0.10146 -0.00402032 0.0666641 0.01898 -0.0777476 0.0626691 -0.0914563 -0.0968923 0.0277761 0.0415296 0.0429189 -0.0843673 0.0389133 0.00760078 -0.101843 0.0439907 -0.102949 -0.0595157 -0.0161767 -0.00275807 -0.00257867 -0.133564 -0.0225513 -0.0427142 0.0252577 0.0939453 0.0120022 0.0169057 -0.0493312 -0.0348278 0.0584465 -0.0736045 -0.0338944 -0.0283723 -0.0336507 -0.0695927 -0.00497927 -0.0263561 0.0229675 0.0392416 0.054083 0.112145 0.0245293 0.111242 -0.151743 -0.0041224 -0.00423537 0.00662161 0.0452277 0.00308313 -0.120891 -0.0220135 -0.0353541 -0.0396099 0.0416624 -0.081863 0.0153757 0.0777181 0.0875034 0.0729423 0.0237157
Q52 0.0715299 0.0678538 0.150644 -0.0402402 -0.0199894 0.0195559 -0.0718306 0.0730496 0.0108296 0.107948 -0.048749 0.00776525 0.0482015 -0.0107834 -0.0323064 0.0950916 0.0322938 -0.00230808 0.132398 0.151692 0.0374853 0.0100618 0.186957 -0.125936 0.0768406 -0.0445015 -0.117007 0.0108666 -0.182374 0.070852 0.0291451 -0.00285174 -0.0374023 0.101144 -0.0933131 -0.018924 -0.0508456 -0.0945557 -0.0216843 -0.0633996 0.0366832 0.0550436 -0.014271 -0.135046 0.126433 -0.05547 0.0023192 0.104658 0.100192 0.0420009 -0.108528 0.0274756 -0.0136039 -0.0606388 0.0650853 -0.0613253 -0.0415855 0.0391035 -0.0168471 0.0327715 -0.11159 -0.0147387 -0.0141133 -0.0444729 0.0250403 -0.130334 0.033371 -0.0996693 -0.0368254 0.101893 -0.038105 -0.0394427 -0.00841859 0.0400117 -0.117861 -0.10138 -0.00734655 -0.00988253 -0.0352673 0.0249489 0.0179935 0.0204034 0.102925 -0.0443261 0.0699801 -0.0129104 -0.0533129 -0.0453725 0.0501859 -0.12069 -0.0272934 -0.0805725 -0.0834565 0.124693 -0.076609 0.0197651 0.0686578 0.0778061 0.13418 -0.0826749
Q55 0.234169 0.029228 0.159455 -0.0166531 -0.0612182 -0.00631662 -0.0745557 0.0711505 -0.0015456 0.210196 0.0992106 0.0459342 0.000412739 0.0396837 -0.107174 0.146961 -0.0209154 -0.0469708 -0.0324971 0.103511 0.0758186 0.054856 0.200226 0.0438235 0.0585363 -0.116097 -0.0425921 0.0440093 -0.0220288 0.0542513 -0.110442 0.0611667 0.0121092 0.111686 -0.083461 0.000669686 -0.0451874 -0.100102 0.0771138 -0.103124 0.0112967 0.0957418 -0.162303 -0.0528928 0.0758011 -0.111675 -0.023036 0.0036732 -0.0143817 0.0273592 0.00138277 -0.0447043 0.0958165 -0.104767 0.037842 -0.0440448 -0.0334308 0.0135396 -0.163769 0.0305402 -0.077915 -0.000530976 -0.012615 -0.101839 0.0594586 0.0156665 0.0386254 -0.116344 -0.0289809 0.0641432 -0.111812 -0.0371319 -0.00903665 -0.10547 -0.100878 -0.0144542 -0.0220757 -0.0459534 -0.0242961 -0.0191325 0.0911023 0.0924674 0.128138 -0.108088 0.0296239 -0.134352 -0.0806958 -0.0550794 0.155107 -0.0280743 0.0570992 -0.126046 0.0538353 0.104293 -0.0672371 0.121565 0.0478074 0.0668135 0.0267192 0.0128372
Q54 0.0379876 0.0908304 0.0477541 -0.0337949 -0.0699582 0.00746885 -0.095471 0.0620869 -0.0219973 0.157266 -0.0505157 0.00812511 -0.102611 -0.0173438 -0.0556471 0.119328 0.0425043 -0.0667052 0.138857 0.191878 0.0537734 -0.00761759 0.188356 -0.0618649 -0.071029 0.00449073 -0.0780227 0.0206889 -0.0749039 0.121633 -0.0464024 -0.0388951 -0.0722099 0.0568986 0.00949004 0.0500402 -0.0628899 -0.0193068 0.0551658 -0.059299 -0.0160292 0.0384362 0.000293579 -0.0220781 0.121063 -0.0413257 -0.0418134 0.0781988 0.0195485 0.0891979 -0.111835 -0.0277214 -0.0778823 -0.0806277 0.0555551 -0.0278901 -0.0116569 0.104915 -0.00175494 0.0438757 -0.073903 0.021761 -0.027892 -0.129699 -0.0502738 -0.0910395 0.0800723 -0.107966 -0.0748512 0.0260986 -0.0368895 -0.00373872 -0.0969796 -0.0127125 -0.0874364 0.0166494 0.0322247 -0.0197435 0.00211553 0.0288541 0.0670838 -0.0100393 0.0452525 0.00430301 0.0990827 0.0994769 -0.0106938 0.0464356 0.0560684 -0.087515 -0.0262454 -0.0347636 -0.0285978 0.118562 -0.0294821 0.0373849 0.02087 0.0823799 0.130643 -0.0299437
Q57 0.126546 0.0427967 0.0991061 -0.0739828 -0.101677 -0.0293107 -0.108939 0.00727488 -0.0526869 0.10997 0.0452852 0.0940778 -0.0408981 0.00955874 -0.0570596 0.149905 -0.0270676 -0.0617797 0.0492057 0.110368 0.0365615 -0.0103656 0.181634 -0.0533738 0.0067008 -0.0751329 -0.0556067 0.0283147 -0.121295 0.10775 -0.0874033 0.0388528 -0.0312928 0.102658 -0.0773754 0.0237116 -0.0324098 -0.0550681 0.0362494 -0.105255 -0.0307635 0.0611826 -0.0719655 -0.0530267 0.122013 -0.031967 -0.0244784 0.088866 -0.0109104 0.118378 -0.0982451 -0.0345858 0.0578581 -0.0954645 0.0316605 -0.0689025 -0.0248432 0.0864459 -0.0990048 0.0481443 -0.0829097 -0.0101137 0.00776074 -0.0335901 0.0240277 -0.0498814 0.0740413 -0.127382 -0.00280807 0.0597398 -0.0343337 0.0133486 -0.0489552 -0.0656341 -0.0978615 -0.066736 0.00081293 -0.14537 -0.0612536 -0.00638046 0.096436 0.0140196 0.11213 -0.100213 0.0760631 -0.0909547 -0.0403711 -0.046671 0.0870166 -0.166164 0.00473062 -0.0784447 -0.0122914 0.108803 -0.0787578 0.0756191 0.104757 0.0278948 0.0843618 -0.0326029
Q56 0.0481043 0.100098 0.120274 -0.0307806 -0.0677085 0.0154208 -0.115977 0.0539584 -0.0200017 0.115331 -0.106046 0.0193225 -0.0370224 -0.049208 -0.0176083 0.167622 0.000943724 -0.0460612 0.102525 0.150743 -0.0103223 0.0456893 0.24656 -0.0483129 0.0166529 -0.0343016 -0.0396775 0.0363915 -0.131772 0.160323 -0.0221923 0.0153296 -0.0310188 0.074155 -0.079046 -0.00387081 -0.0342584 -0.0857871 0.0288884 -0.00986092 -0.0408724 0.0613578 -0.0839209 -0.0591233 0.0559558 -0.0521332 -0.0354404 0.133392 0.0621583 0.0768457 -0.119826 -0.0416265 0.0130183 -0.0312 0.0429627 -0.0326769 0.00778949 0.131696 -0.0446678 0.0550006 -0.0930867 0.00212119 -0.0223669 -0.0896999 -0.0220561 -0.161594 0.114337 -0.102616 -0.048022 0.0904328 -0.0289067 0.0256766 -0.0512699 0.065939 -0.139655 -0.0684574 0.0295127 -0.0568881 -0.062473 0.0270765 0.00744209 0.0385901 0.0776247 -0.0519142 0.0986024 -0.0952759 -0.0522521 -0.0417778 0.0203311 -0.130973 -0.0123286 -0.0422452 -0.0478691 0.109449 -0.104305 0.0562798 0.115515 0.0444967 0.176002 -0.104616
Q59 0.117018 0.096914 0.111696 -0.0922786 -0.0836816 -0.0369158 -0.117444 0.0402753 -0.0165882 0.08317 0.0168082 0.0990639 -0.0816604 -0.0304728 -0.0404137 0.142191 -0.0122525 -0.0899406 0.0337967 0.144893 0.100398 0.0115996 0.164317 -0.0206379 -0.0450865 -0.0333355 -0.0794141 0.0178042 -0.104707 0.111502 -0.122391 0.0482717 -0.0637748 0.0651204 -0.0669258 0.0378058 -0.0855519 -0.0551816 0.0576924 -0.0716108 -0.029771 0.0631535 -0.0642133 -0.0649307 0.114839 -0.0395828 -0.0507673 0.139471 -0.00806545 0.093201 -0.114823 -0.0718081 0.00856124 -0.0339142 -8.31689e-05 -0.0400975 -0.0278071 0.0675064 -0.103685 0.0185159 -0.105352 0.00218717 -0.00351671 -0.00236838 0.00138078 -0.0357873 0.0333921 -0.136039 0.0222471 0.0471048 -0.0207809 0.0166759 -0.0424189 -0.0306528 -0.102114 -0.0933262 0.0303235 -0.0799785 -0.0196922 -0.00358285 0.0971439 -0.0636794 0.0879783 -0.0590643 0.0744497 -0.0249245 -0.053205 -0.0141233 0.00384588 -0.171742 -0.0295242 -0.00570821 -0.0563605 0.111812 -0.0964315 0.053406 0.107077 0.065708 0.120541 -0.0565791
Q58 0.104651 0.0415293 0.0981537 -0.00897908 -0.0528696 -0.0232251 0.000154884 0.166855 -0.0271742 0.151682 -0.0989767 -0.0448032 0.0618963 -0.0269505 -0.0109286 0.0563595 0.0435847 -0.0182232 0.0287619 0.223891 0.0488256 0.0617716 0.239773 0.0333966 -0.0976229 -0.0441327 -0.0216307 -0.0190185 -0.0384037 0.146805 0.0256724 -0.00324561 -0.108897 0.103841 -0.145398 -0.0184336 -0.0365927 -0.0592367 0.0294279 -0.0449986 -0.064121 0.0216976 -0.0543605 -0.0784764 0.0779407 -0.0932312 -0.0637835 0.137594 0.120863 0.0860702 -0.00869595 0.00451846 0.0770897 -0.0620541 0.051926 -0.0731097 -0.0256988 0.0886736 -0.0602785 0.00617588 -0.0464539 0.0802132 0.0246761 -0.0823287 0.0776891 -0.142693 0.0103729 -0.147257 -0.0314472 0.170767 -0.0576121 -0.0132764 -0.0521084 0.0469471 -0.0926828 0.0264549 -0.0474429 -0.0250349 -0.0606233 0.0729384 0.0668918 0.0128845 0.141333 -0.00552532 -0.0407534 -0.0835301 -0.0223078 -0.0943651 0.105691 -0.0688128 -0.062442 -0.0654762 -0.122275 0.115749 -0.053322 0.00833578 0.0814616 0.00109966 0.132837 -0.0382107
Q148 0.0734512 0.056044 0.1781 -0.0844673 -0.0422209 -0.0166269 -0.177786 0.086918 -0.0330592 0.131096 -0.100633 0.0796962 -0.00704659 -0.0508365 -0.0894365 0.206345 -0.0218405 -0.017753 0.11009 0.10695 -0.0357269 0.0186965 0.194238 -0.0757322 0.0531696 -0.0574316 -0.119543 -0.00831981 -0.142191 0.139085 -0.022675 0.00770483 -0.0380308 0.0520366 -0.102138 -0.0206303 -0.00228448 -0.0540969 0.0364945 -0.094492 -0.0248013 0.0653332 -0.0959694 -0.08036 0.0756498 -0.0679713 0.0272653 0.0769152 0.0531753 0.0691526 -0.0820794 -0.000152344 -0.0381792 -0.0284217 0.0678061 -0.12812 -0.00208571 0.0988095 -0.120914 0.0327961 -0.14418 -0.0153756 -0.127523 -0.0718664 0.00722788 -0.0716104 0.04019 -0.133024 -0.0498075 0.047997 -0.0374089 0.0287182 -0.0434506 -0.0697776 -0.131335 -0.0718189 -0.00150555 -0.0767792 -0.0331188 0.0226335 0.0056304 0.00892163 0.146632 -0.0192404 0.128346 -0.0404215 -0.079794 0.00496977 0.114376 -0.163565 -0.0256064 -0.0618831 -0.0315168 0.157247 -0.0748782 0.0567036 0.0504801 0.0581362 0.0968491 -0.0657785
Q149 0.218489 0.0711808 0.0685901 -0.0487374 -0.0749721 -0.112974 -0.122522 0.0923866 0.0195435 0.103137 0.0437995 0.0171522 0.0294007 0.0757144 0.0309243 0.155809 -0.0558332 -0.0921459 0.0513061 0.0838455 0.0488522 -0.0222433 0.158612 -0.0425005 -0.0127539 -0.0268255 -0.0478962 -0.00398371 -0.0863838 0.0458126 -0.145587 0.0277402 0.00645721 0.102558 -0.0852776 0.0558724 -0.098704 -0.04427 0.0601072 -0.0340432 -0.0710489 0.092337 -0.0789935 -0.0790642 0.127403 -0.0085561 -0.0259592 0.151425 -0.0608307 0.0835736 -0.0643814 -0.0539727 0.0111626 -0.0729093 -0.0109072 -0.0740429 -0.0562035 0.122245 -0.0829711 0.0917312 -0.0942692 0.0235819 -0.00389795 -0.086297 0.00997208 -0.0603096 0.0517602 -0.12869 0.00304964 0.0923308 -0.0260586 0.0295947 -0.0368578 0.0214203 -0.144418 -0.100243 0.0769742 -0.0866213 -0.0340196 -0.0093241 0.114102 -0.0269147 0.0874177 -0.0584372 0.133256 -0.0937984 -0.0530975 -0.0413439 0.0692932 -0.177001 -0.0504469 -0.0725978 -0.0462042 0.117959 -0.0672943 0.075183 0.0639428 0.0320216 0.134661 -0.00324849
Q145 0.0483915 0.0448976 0.107021 -0.0657699 -0.048331 -0.0496508 -0.130845 0.096032 -0.0143899 0.0958619 -0.121918 0.0746189 0.0291685 -0.0036322 -0.0333663 0.156298 -0.020526 -0.0286459 0.0922098 0.074174 -0.0128343 0.00702041 0.154805 -0.061659 0.0449423 0.00627283 -0.0925015 0.0321957 -0.182399 0.104023 0.0304914 0.0287203 -0.0579699 0.0885205 -0.128861 -0.0274069 0.00120269 -0.0892733 0.0145305 -0.0397642 -0.0733196 0.0654509 -0.0935804 -0.0765492 0.0695502 -0.0513495 -0.0120459 0.157917 0.0476212 0.0918289 -0.0591232 -0.0155493 -0.0089165 -0.0493144 0.0558357 -0.0509101 -0.0432577 0.0897585 -0.0485738 0.0579706 -0.0762844 -0.0222024 -0.0563515 -0.0329062 0.0294394 -0.0761173 0.0481297 -0.137594 -0.021062 0.0725536 -0.036715 0.019938 -0.101929 0.0155943 -0.0959295 -0.114965 0.0282177 -0.022343 -0.072585 0.036239 0.00462004 0.0690737 0.101747 -0.0590107 0.129527 -0.0685199 -0.0293057 -0.0821553 0.00424544 -0.113779 0.0146755 -0.0917334 -0.0347773 0.100329 -0.0900756 0.0186171 0.106203 0.0276576 0.128221 -0.0878676
Q159 0.101359 0.0536865 0.106141 -0.0314871 0.113622 -0.0927859 -0.0828306 0.0333258 0.0903216 0.0648185 -0.0483202 0.120059 0.0302876 0.0908991 -0.0773265 0.146272 -0.0139589 -0.0277173 0.0836949 -0.00111402 0.117226 -0.00788609 0.192454 -0.0321161 0.0069898 -0.029992 -0.129228 0.0280802 -0.154948 -0.0488854 0.0269657 -0.0240758 -0.0349876 0.112915 -0.0235318 -0.0144615 0.00471642 -0.0455387 -0.0261731 -0.11001 -0.018994 0.0692934 -0.0403043 -0.0115394 0.146845 -0.144036 -0.00833802 0.212628 0.0745793 0.0867082 -0.0833815 0.00248314 -0.06042 -0.0455139 0.0980867 -0.0207612 -0.0828781 -0.133868 -0.0149268 0.0689539 -0.108101 -0.0572475 -0.0988786 -0.0492603 0.0715684 0.0498829 0.0488665 -0.0968163 -0.100224 0.0322993 -0.0182444 0.00575434 -0.100438 0.0282881 -0.0991667 -0.131284 0.061412 -0.0566391 -0.0596852 0.018008 -0.00389821 0.0406714 0.114268 -0.0814873 0.188164 0.0249577 -0.040463 -0.00942664 0.0174239 -0.170287 0.02443 -0.174169 -0.101496 0.0779571 -0.104076 0.0488049 -0.0461124 0.0367488 0.0770968 -0.0591758
Q158 0.137195 -0.0582136 0.179675 0.0123848 -0.0493717 -0.115023 -0.0343664 0.0250083 0.00808727 0.150784 -0.0625696 0.0832575 0.0110683 -0.0531349 0.0709284 -0.0630811 -0.0258439 -0.015593 -0.0246034 -0.0240188 -0.00515568 -0.0186809 0.0468869 -0.0313932 0.0254348 -0.0675441 -0.0387834 -0.0457197 -0.0508046 0.185788 0.0255226 0.0160154 0.0100625 0.0472376 -0.165134 -0.024061 0.0276544 -0.140902 -0.00339082 -0.0626993 -0.0451432 0.0837316 -0.112682 0.0314642 0.00682351 -0.05759 0.00911382 0.112964 0.0327778 0.0628199 -0.0684645 2.84825e-05 -0.0121268 -0.175676 -0.00744813 -0.00794705 -0.0461935 -0.0516354 -0.0588009 0.0357452 -0.019728 -0.000607008 0.0452 -0.000919943 0.141993 0.0172616 0.0457905 -0.123664 0.0497507 0.161145 -0.00819599 0.019917 -0.0499981 -0.0201271 -0.0252905 -0.0378641 0.01087 -0.0750409 -0.0563642 -0.0101594 -0.0518897 0.030719 0.0819584 0.0094831 -0.000337783 -0.0591582 -0.0992782 -0.121741 0.0406504 -0.0409498 -0.00113693 -0.16573 -0.0338813 -0.0222223 -0.0507341 -0.0108299 0.091105 -0.0941864 0.0903719 -0.0866316
Q46 0.0732651 0.0822043 0.0918531 -0.0227261 0.0666165 -0.0619603 -0.0562448 0.0767248 0.105584 0.0692493 -0.0829532 0.0430908 0.0566901 0.101598 -0.0718849 0.116077 -0.0539748 -0.0212158 0.100461 0.0849928 0.127621 0.0399839 0.219712 -0.0180647 -0.0440296 -0.00820331 -0.13434 0.0100974 -0.136378 -0.0464798 0.00482215 -0.0107734 -0.0879459 0.123572 -0.0312561 -0.0387502 -0.0361624 -0.00775951 -0.0281214 -0.055415 0.00196939 0.0508684 0.0143744 -0.0228688 0.193297 -0.159916 -0.0537268 0.191886 0.102948 0.111019 -0.0552762 0.0257176 -0.017971 -0.0205464 0.127141 -0.0589516 -0.0799764 -0.10598 0.00314047 0.0586491 -0.10071 -0.0319154 -0.0941158 -0.0601379 0.0480105 -0.0632856 0.0331999 -0.109744 -0.133085 0.036151 -0.0306447 0.0105407 -0.113354 0.0679512 -0.112919 -0.146334 0.0480667 -0.0358691 -0.0676924 0.041278 0.010516 0.00258541 0.111026 -0.121426 0.15673 0.0797871 -0.0426945 -0.0409464 -0.0275336 -0.201349 0.0441409 -0.119311 -0.15826 0.0995111 -0.0803298 0.046714 -0.0333086 -0.00431936 0.131271 -0.0613552
Q47 0.0355778 0.104603 0.132943 -0.0695517 -0.026629 -0.0200201 -0.055682 0.0758375 -0.0129073 0.0468209 -0.0639115 0.0335372 -0.0225964 -0.0703949 -0.0790551 0.0900688 -0.00943265 -0.0525638 0.0291892 0.178502 0.0806196 0.0540167 0.18943 -0.0165793 0.00379162 0.0162589 -0.122108 0.0148779 -0.139936 0.0988594 -0.0251646 0.0807567 -0.0676374 0.00892098 -0.0969533 -0.00190437 -0.0380231 -0.0262917 0.012714 -0.0186906 -0.0326558 0.0156352 -0.0145612 -0.0855447 0.083191 -0.0539486 -0.0646958 0.16933 0.0821597 0.0989919 -0.11473 0.0213792 0.0546747 -0.00767256 0.0367869 -0.0265377 -0.0150443 0.047813 -0.0661447 -0.017322 -0.114806 -0.025439 -0.00170061 -0.0028693 0.015122 -0.13102 0.0263062 -0.111033 -0.00225578 0.0852842 -0.0412577 0.0380414 -0.0771147 0.0208061 -0.0853935 -0.103072 -0.00795389 -0.0825338 -0.0461226 0.00694932 0.056445 -0.0281584 0.112222 -0.07871 0.0581954 -0.0266524 -0.0431586 -0.0634443 -0.0163232 -0.156202 -0.000641689 -0.00946156 -0.114284 0.12435 -0.080336 0.0738752 0.108291 0.0279609 0.12988 -0.105991
Q44 0.0883542 0.0599318 0.114287 -0.0369437 -0.0479664 0.0129181 -0.00425739 0.0615694 -0.0650195 0.103983 -0.0642211 0.00661319 0.0613064 0.016884 -0.036215 0.0947782 0.0614168 0.0182742 0.0670427 0.193252 0.00812829 -0.0363279 0.269143 0.00228329 -0.03637 -0.066978 -0.072216 0.0107021 -0.0480593 0.0672045 0.00217942 0.0327237 -0.0780848 0.113346 -0.151378 -0.0569149 -0.0608184 -0.05331 0.0340812 -0.0776715 -0.0207947 0.0440309 -0.0249789 -0.0505122 0.0802961 -0.0807466 -0.0456765 0.0908707 0.0707816 0.0409039 -0.0360785 -0.0107774 0.0603558 -0.0499688 0.0344274 -0.0650075 -0.0263531 0.108713 0.00133443 0.00405134 -0.135837 0.0318478 0.0701981 -0.0242153 0.0500652 -0.107955 0.0464642 -0.100135 -0.0553453 0.124363 -0.0344571 -0.0048681 -0.0594335 0.0633365 -0.109654 0.0115715 -0.0237304 0.0231581 -0.0273716 0.0627144 0.11997 0.0185043 0.148358 -0.0961053 0.00529104 -0.0971784 -0.00885216 -0.0264305 0.114308 -0.115906 -0.0457234 -0.0900844 -0.067249 0.0721204 -0.0813955 -0.000259636 0.0624506 0.00608991 0.152844 -0.0189837
Q45 0.128251 0.0429334 0.122706 -0.0472016 -0.103033 -0.00749808 -0.0242445 0.0652009 -0.0864951 0.0934132 -0.0140757 0.0407856 -0.0589087 -0.0221579 -0.0964369 0.0920131 0.010836 -0.0288113 0.0146623 0.130724 -0.0402907 0.0588313 0.202081 0.0325125 -0.0848737 -0.107992 -0.0317989 0.0320848 -0.0344957 0.132893 -0.047075 0.0218968 -0.0658698 0.0818937 -0.114507 0.0245152 -0.0947825 -0.0498107 0.0541656 -0.102261 -0.101783 0.0252757 -0.077442 0.015984 0.0391815 -0.0999554 -0.0608759 0.113755 0.044673 0.0663316 -0.0428361 -0.076776 0.0794191 -0.0257019 0.00819426 -0.0617206 0.017706 0.0870005 -0.132327 -0.002045 -0.0785577 0.0480803 -0.006645 -0.0529679 0.00757905 -0.093296 0.11085 -0.0720347 0.0252614 0.10841 -0.0244936 -0.000691454 -0.0782429 -0.0443453 -0.171303 -0.00161397 0.0190353 -0.086687 -0.0622874 -0.0278391 0.0654069 0.0619527 0.0831619 -0.0311307 -0.0581072 -0.15988 0.00978988 -0.0139191 0.124915 -0.0751034 -0.0116308 -0.0292408 -0.0500667 0.135817 -0.0765339 0.0403516 0.112658 0.0232553 0.0270589 0.00899001
Q42 0.17472 0.0199335 0.00133794 -0.0333266 0.0335504 -0.0817357 -0.108938 0.0243678 0.0247438 0.134191 0.0484454 0.0290527 -0.0315269 0.0776406 -0.11862 0.0901898 0.0258926 -0.0174224 0.0594595 0.133679 0.0519025 -0.0140035 0.190648 -0.0501642 -0.0468424 -0.0902864 0.0577531 0.0468982 -0.0925112 0.0749632 -0.0790283 -0.0154183 -0.0345937 0.0889246 -0.0714871 0.0195852 -0.0484367 -0.059121 0.0676985 -0.109024 -0.00197758 -0.0139758 -0.0126701 -0.0231561 0.104331 -0.0952573 -0.0132294 0.0426457 0.00223422 0.0660444 -0.0783776 -0.0124358 0.0436846 -0.0434955 0.0078154 0.0698966 -0.0099362 0.0570273 -0.0599445 0.00478133 -0.0914123 -0.0509783 0.0686766 -0.0269928 0.0531662 0.0162778 -0.0408516 -0.132129 -0.040324 0.0371832 -0.0134182 -0.0406831 -0.0459113 0.00486687 -0.0401573 -0.0666878 -0.0403188 -0.0184922 -0.0408313 0.040045 0.0928615 0.0097779 0.11483 -0.188861 0.121314 -0.0473589 0.00217229 0.0104086 0.146473 -0.127934 -0.029926 -0.0512484 0.019189 0.0263029 0.00698964 0.0176452 -0.0275657 0.0471447 0.0721834 -0.0538855
Q43 0.0914294 0.0369861 0.0880206 -0.0863835 -0.0345744 -0.0420726 0.0535725 0.111144 -0.0496442 0.0805181 -0.0364545 0.0211464 0.075446 0.0231914 -0.0668905 0.0774161 0.0412119 -0.0336002 0.00565821 0.187281 0.0103917 0.0505648 0.262725 0.0165105 -0.103958 -0.0533448 -0.0373387 0.0391633 -0.0527057 0.0432125 0.00847602 0.0216224 -0.0684666 0.11329 -0.182941 0.0113879 -0.0580351 -0.0424757 0.0282458 -0.0319815 -0.122483 -0.0183843 -0.0266613 -0.0698773 0.0871384 -0.0762806 -0.0825235 0.152073 0.0689613 0.0699751 -0.0480221 0.0149871 0.0570059 -0.0225491 0.0401277 0.00105955 0.0528821 0.149298 -0.0790535 -0.030531 -0.0964016 0.0312767 0.0604614 -0.0464611 0.071308 -0.144596 -0.0196315 -0.10615 -0.00263756 0.169519 -0.024545 -0.000667646 -0.0597793 0.0726991 -0.10149 0.0991201 0.0211999 0.000731475 -0.0693852 0.0486409 0.128055 -0.00995863 0.136606 -0.065981 0.0180568 -0.167985 -0.0215534 -0.0363681 0.135972 -0.0586435 -0.050125 -0.050533 -0.10294 0.106789 -0.0682079 0.0671884 0.105419 0.000489371 0.132974 -0.0516673
Q40 0.198058 0.0641699 0.095721 -0.0732922 0.0235473 -0.0370512 0.00761239 0.115382 -0.0123297 0.150532 0.00847645 0.0613511 0.0209666 -0.0119441 -0.0828256 0.0928064 0.0408503 -0.0486535 -0.00895405 0.193439 0.103726 0.052571 0.239012 0.0310642 -0.139714 -0.0709693 -0.0894147 0.0430569 0.0169458 0.019101 0.0149432 0.0258045 -0.118604 0.0937812 -0.145456 -0.011983 -0.0862751 -0.0105001 0.0711275 -0.0593736 -0.0737265 0.0201159 -0.0104525 -0.0720357 0.148724 -0.141637 -0.0773396 0.162202 0.00754143 0.106443 -0.0264013 0.031781 0.0151517 -0.104738 0.0428507 -0.00691231 -0.046533 0.0455993 -0.100105 0.0230675 -0.0901186 0.0450945 0.0237808 -0.0382569 0.132748 -0.0500236 -0.0318045 -0.0993163 0.0140625 0.113139 -0.0767923 -0.0355992 -0.0757394 0.0453309 -0.0774679 0.0713857 -0.0552644 0.0443135 -0.0392596 0.0750962 0.152216 -0.024077 0.164988 -0.0984642 -0.0240273 -0.0446678 0.01102 -0.0243928 0.105129 -0.0932946 -0.0739326 -0.143791 -0.124771 0.073223 -0.0835782 0.00131566 0.0498487 0.0449558 0.149303 0.0262343
Q41 0.0283652 0.00983251 0.0618593 -0.0520504 -0.104026 0.0575328 -0.130242 0.0279022 -0.02363 0.214973 -0.0926374 -0.0794632 -0.167252 0.0190103 -0.0277986 0.0631573 0.055042 -0.0986161 0.173528 0.181376 0.0663754 -0.0179925 0.254754 -0.0907378 -0.00923928 0.00973837 -0.0896758 0.0186619 -0.0893762 0.24474 0.05465 -0.100255 -0.0469244 0.106939 0.0220455 0.0312625 -0.034571 -0.0533969 0.116179 -0.0491817 -0.00653407 0.0846614 -0.051276 -0.0366615 0.109036 0.0156241 -0.0815533 0.0292926 0.0932629 0.126238 -0.135446 0.0259718 -0.0504 -0.153313 0.111775 -0.0808506 -0.0937432 0.101261 0.0236099 0.0986403 -0.0507951 0.0484438 -0.00153817 -0.122279 -0.02362 -0.140317 0.11412 -0.182889 -0.118177 0.0413493 0.00424127 -0.000112704 -0.0869852 -0.0228842 -0.0335545 -0.0698888 -0.0277216 -0.126088 -0.0202768 0.0510824 0.0377999 0.0426877 0.0247281 -0.0728994 0.0431744 0.0617608 -0.015196 -0.0984356 0.00523831 -0.167133 0.000253969 -0.0821319 -0.0535809 0.0502386 -0.00402724 0.0269664 0.0288451 0.0988537 0.171955 -0.0661919
Q155 0.162819 0.0754501 0.147315 -0.035347 -0.0501545 -0.0497171 -0.0965035 0.0801238 -0.0579501 0.183702 -0.0088871 0.0606648 -0.028247 -0.0424594 -0.0369997 0.0887288 -0.0419504 0.00910095 0.0225218 0.0588738 -0.00950108 0.0222743 0.126113 -0.0152327 0.0226783 -0.0595286 -0.0497453 0.044755 -0.0864716 0.108865 -0.00295754 0.0624224 -0.0166315 0.0731644 -0.13313 -0.0325328 0.00246532 -0.0973002 0.0558587 -0.0526067 -0.0500371 -0.00932526 -0.0607594 -0.0352635 0.0734951 -0.0268641 -0.0367051 0.181678 -0.0019248 0.0940498 -0.10402 -0.0363468 0.0214175 -0.14408 -0.0484157 -0.00971546 -0.0264477 0.0575879 -0.026064 0.0281169 -0.13843 -0.0171354 0.0425694 -0.0579748 0.0993328 -0.0498693 0.0867782 -0.106306 0.0413056 0.147038 -0.0699896 0.0670833 -0.111401 -0.0305633 -0.0567481 -0.0586777 -0.0376565 -0.0906018 -0.0827317 -0.0230353 0.035058 0.0208123 0.0451386 -0.0493115 0.017977 -0.122073 -0.0199492 -0.128886 0.0786079 -0.111479 -0.0171077 -0.137904 -0.0629167 0.0884957 -0.108645 0.0473394 0.154174 -0.067496 0.105184 -0.0550904
Q154 0.165429 0.0276079 -0.0569721 0.0173081 -0.0697995 -0.0669745 -0.125545 0.0779963 0.0350392 0.170217 -0.0847305 -0.0121888 -0.00582435 0.0681164 0.0873898 0.119082 -0.0490322 -0.0257607 0.0320044 0.0195406 0.0388511 -0.0303795 0.0786178 -0.00176948 -0.0217601 -0.0979265 0.0436131 -0.0778027 -0.00211719 0.0658348 -0.189225 -0.0428173 0.0443338 0.0389673 -0.0561659 0.00306317 0.0117066 -0.0647985 0.0904005 0.00737014 -0.00327126 0.0520945 -0.0236346 -0.0673628 0.0112196 0.0386397 0.012494 0.070092 -0.0413201 0.0642561 -0.060102 -0.143681 -0.0891706 -0.0449845 0.0153346 -0.128145 -0.0627286 0.0589758 -0.0725598 0.0915701 -0.0102873 0.048268 0.00603166 -0.131495 0.0219079 0.00882854 0.0267471 -0.148959 -0.00464467 -0.0177561 -0.115523 0.0392792 0.00289025 0.0457611 -0.0369731 -0.0569866 0.0603507 -0.129947 -0.0444252 -0.0110772 -0.00438673 -0.00883034 0.0142818 -0.00475888 0.103711 -0.114732 -0.134618 0.00420693 0.0233611 -0.249558 -0.0552096 0.00417579 -0.0251531 0.083216 -0.0170468 0.124985 0.034141 -0.0369083 0.032479 -0.00692517
Q157 0.0744409 0.017892 -0.0796259 0.0736965 -0.159352 -0.120399 0.0175187 0.0124317 -0.0252545 0.0133365 -0.189484 0.106249 -0.0116168 -0.0333609 0.0907838 0.0405888 -0.0809992 0.112536 0.0503013 0.0155436 -0.106376 -0.0150612 0.0458045 -0.010095 -0.0265847 -0.093628 0.0571144 -0.163334 -0.0690452 0.0563855 -0.132555 -0.0549433 0.0411201 0.0132299 -0.103451 -0.0370557 -0.0779778 -0.0881765 -0.0214992 -0.0550383 0.0200803 0.137471 -0.000261017 0.0644569 -0.0626027 -0.0493552 0.0167665 0.139874 0.0148717 0.0290744 -0.0139016 -0.0778404 -0.10156 -0.046195 -0.0620469 -0.0661262 0.0535127 -0.0383685 -0.0788714 0.0868272 -0.00370146 0.0499817 -0.0901148 -0.0936303 0.0259066 -0.109547 0.163171 -0.0434442 0.0210785 0.0867563 -0.0210664 0.0726851 -0.0104673 0.134355 -0.189552 -0.11672 0.167467 -0.0125312 0.0184543 -0.0335938 0.00246895 -0.049281 0.0191127 0.0842707 0.027235 -0.0822182 -0.121392 -0.0149119 0.0471059 -0.151821 0.00301789 -0.126081 -0.0986202 0.0785763 -0.118709 0.0947214 0.102882 -0.0932087 0.0728993 -0.095114
Q156 0.0559112 0.0711885 0.0405367 -0.0161418 0.0143291 -0.0346087 -0.13309 0.0619527 0.0220475 0.109751 -0.0968819 0.0129841 -0.0443123 0.0467376 -0.0756521 0.122536 0.00671369 -0.0662858 0.175222 0.139952 0.0227249 -0.00577101 0.256763 -0.0853113 -0.0260245 -0.0232547 -0.0938579 0.00342794 -0.138643 0.0720935 0.0507946 -0.0782794 -0.0679963 0.101596 -0.0186124 0.00163979 -0.0477268 -0.0285829 0.00825656 -0.0853146 -0.0281347 0.0492502 -0.00272518 -0.0302806 0.145145 -0.0799128 -0.0200018 0.171387 0.0901035 0.129186 -0.143048 0.0610463 -0.0341662 -0.067212 0.0690457 -0.0442825 -0.0431673 0.0508077 0.0144535 0.0608753 -0.105768 0.0263651 -0.047697 -0.0664727 0.00773498 -0.108078 0.103664 -0.144789 -0.117256 0.0677005 0.0277676 -0.00485133 -0.102776 0.0690888 -0.123389 -0.055004 0.0325376 -0.0382928 -0.0418616 0.0272841 0.020576 0.0329396 0.109647 -0.0908375 0.194838 0.0474452 -0.0617007 -0.0397021 0.0234667 -0.170985 -0.0381731 -0.115063 -0.0880549 0.0968759 -0.0442248 0.00586858 -0.0418041 0.0515712 0.14006 -0.0390744
Q151 0.0680441 -0.0247608 0.00576318 -0.0391179 0.119582 -0.0465268 -0.143594 -0.00334211 0.0393121 0.092342 -0.0948122 0.0714055 -0.0410531 0.149662 -0.156208 0.101032 0.101849 -0.0793245 0.0955404 0.0672672 0.093128 -0.024859 0.259287 -0.0257383 -0.0358044 -0.0892888 -0.0503458 -0.0060857 -0.128225 0.108675 0.0212629 -0.0237227 -0.0174925 0.0608153 -0.103997 0.00746998 0.0227792 -0.0844529 -0.00386187 -0.100722 -0.0743777 -0.0621852 -0.0420167 -0.063844 0.0789888 -0.0887422 -0.0279762 0.205759 0.0868763 0.110611 -0.033194 -0.0263728 0.0695503 -0.0407178 0.0433451 0.133847 0.0170262 0.0710218 -0.0835524 0.0989669 0.0127773 0.0303661 0.0311383 -0.0348055 0.0593385 -0.00155392 0.0794868 -0.147763 -0.0752025 0.0824529 0.00191706 -0.0651579 -0.0765775 0.0396914 -0.0233277 -0.0704815 0.0569044 -0.067236 -0.175614 0.0632368 0.0183711 0.0147161 0.120241 -0.135531 0.205301 -0.106456 -0.0631026 -0.039125 0.217108 -0.219617 -0.0609585 -0.0483093 -0.0525773 0.0537026 -0.0610055 0.0339131 -0.082605 0.0147468 0.0981022 -0.0279076
Q150 0.0451943 0.0500428 0.0685809 -0.0399015 -0.0934736 0.069226 -0.148648 0.0430858 -0.0644995 0.196598 -0.0755358 0.0318151 -0.0825964 -0.0788414 -0.0709688 0.175922 0.0580656 -0.0771544 0.161682 0.176598 0.0210804 0.0482984 0.210698 -0.0919009 0.00799218 -0.0662637 -0.105984 0.0849397 -0.0782861 0.142381 0.00547971 -0.0460748 -0.0334746 0.11791 -0.016991 0.00268209 0.0322288 -0.104247 0.0856588 -0.108591 0.00322407 0.0593564 -0.0127852 -0.0727575 0.0957566 -0.031853 -0.0357191 0.0395479 0.0634292 0.0971023 -0.0507614 0.0248172 -0.00588685 -0.0467624 0.101051 -0.0898684 0.0080892 0.10006 -0.0349762 0.0396892 -0.0488464 0.0517149 -0.0722653 -0.048189 0.0164554 -0.119302 0.121505 -0.115844 -0.0362413 0.01211 -0.0501278 0.0207774 -0.0306712 -0.0169457 -0.107226 -0.0722538 -0.0276214 -0.142473 -0.0193252 0.00802623 0.0297771 0.027656 0.0664298 -0.0580577 0.0491947 -0.0331525 -0.0209465 -0.062316 0.016387 -0.234384 0.022519 -0.0801343 -0.0401762 0.137965 -0.0744262 0.0618366 0.0591564 0.115311 0.102403 -0.0696479
Q48 0.201896 -0.0309065 0.0944522 -0.0826562 -0.110599 0.0111914 -0.159287 0.119631 -0.0641411 0.0362062 0.122054 0.00425252 0.0832599 0.0390464 0.0129173 0.0942482 -0.0858934 -0.0937714 0.0137615 0.0398811 0.1118 0.133713 0.133497 -0.00114251 0.00588209 -0.0239753 -0.11433 0.0933061 -0.109887 -0.0528615 0.0045066 0.120942 -0.06207 0.121269 -0.0897748 0.00135983 -0.0106357 -0.0512879 -0.0617118 -0.0543731 -0.0649309 0.132876 -0.0640607 -0.0591137 0.109851 0.0266489 -0.00982634 0.110862 -0.0395804 0.145573 -0.0369012 -0.0348885 0.1255 -0.096891 0.0654714 -0.0471103 -0.0495084 0.109473 -0.0691179 0.0361761 -0.0656384 0.0487661 -0.0254903 0.0473952 0.0290346 -0.0583923 0.0198604 -0.107486 0.0680212 0.115145 -0.0778238 0.00270162 0.00771865 -0.0435046 -0.167477 0.0204457 -0.00318284 -0.0979836 -0.080941 -0.0189358 -0.00243576 0.0372275 0.06796 -0.104073 0.0265917 -0.158711 -0.0714716 -0.129339 0.130902 -0.0879479 0.0350437 -0.126468 -0.0187511 0.156071 -0.128527 0.108084 0.0504187 -0.0565049 0.0366621 0.0587376
Q49 0.17548 0.0877492 0.192308 -0.029471 -0.0464853 -0.0533516 -0.0585029 0.106306 -0.00501808 0.171259 0.0116765 0.148672 0.0381707 -0.0075384 0.0279849 0.0688854 -0.0952893 0.068134 0.00730457 -0.00326922 0.00109067 -0.0125757 0.0501944 -0.124756 0.123301 -0.0181727 -0.0456589 0.0186014 -0.174565 0.0484741 -0.0226832 0.108693 0.0173812 0.11923 -0.148992 -0.0306006 0.0791028 -0.145853 -0.0287975 -0.0607587 0.0201509 0.0864037 -0.0814079 -0.0648175 0.134315 -0.0393527 0.0452402 0.185572 -0.0984913 0.0924267 -0.0993284 -0.0276114 -0.0640023 -0.186534 0.020696 -0.0148675 -0.044406 -0.0266731 -0.0226063 0.0237718 -0.11595 -0.0733936 0.0533534 -0.0500253 0.0757683 -0.0198383 0.041667 -0.0686443 0.0443262 0.139795 -0.0497754 0.0452056 -0.0761335 -0.023171 -0.0316665 -0.0391721 -0.0335013 -0.049098 -0.0569778 -0.0790604 -0.00261909 0.0237676 0.057445 0.0581002 0.0306661 -0.0756289 -0.113639 -0.09659 0.122262 -0.00618108 0.0190406 -0.164908 -0.0642183 0.158814 -0.0924416 0.0745343 0.162758 -0.0266447 0.0440944 -0.0152067
Q153 0.0891785 0.0774147 0.0684294 -0.00862403 -0.0571826 -0.0518677 -0.0608721 -0.00790746 -0.0362285 0.0997547 0.105495 0.156629 0.059638 -0.071837 -0.056296 0.12933 -0.00290496 -0.0565974 0.000514805 0.000109139 0.023103 -0.0363983 0.0436088 -0.0673967 0.0129657 -0.0686933 -0.066499 0.0015947 -0.0635147 0.115482 -0.0727774 0.0854465 -0.00234849 0.0363657 -0.130204 0.0114848 -0.120702 -0.0194797 0.0509362 -0.0234639 -0.0318888 -0.0110768 -0.0136703 -0.0624081 0.0544328 0.0261717 -0.0712095 0.012595 0.0396395 0.0425693 -0.080586 -0.0309357 0.0518194 -0.0394248 -0.137065 -0.05085 0.00729828 0.108852 -0.127704 -0.00802368 -0.095012 -0.02982 0.0144553 -0.0016058 0.0546515 -0.0978352 -0.0122974 -0.0711124 0.0748915 0.0187982 -0.0128803 0.0253148 0.031772 -0.0692124 -0.161998 -0.0787462 0.0992386 -0.0751704 -0.059516 0.0337431 0.0253236 -0.0250342 0.0507733 -0.0893238 0.0706501 -0.0554204 -0.0987178 -0.0452222 0.0227355 -0.0537453 -0.00600802 0.001035 0.00595202 0.0938262 -0.101967 0.0674996 0.177049 0.0216357 0.0836087 -0.0557267
Q152 0.0235436 0.0268248 -0.00448902 -0.0372237 0.0170731 0.0326037 -0.116663 0.00401228 -0.0156524 0.0981718 -0.162925 0.0496952 -0.100602 0.0106839 -0.124107 0.0734505 0.0805588 -0.0070881 0.092523 0.148365 0.0549065 -0.00527941 0.20172 -0.035169 -0.072072 -0.0189226 -0.0929612 -0.00933364 -0.144444 0.115377 0.0398643 -0.0184275 -0.0954932 0.00384229 -0.0926537 0.0243006 0.0278855 -0.0441513 -0.0125099 -0.0744932 -0.0746882 -0.0640307 0.0387083 -0.0577182 0.0464126 -0.0221801 -0.0434019 0.174559 0.0265913 0.117876 -0.043596 0.00624601 -0.00327463 -0.0807441 0.0468358 0.0735102 0.000130849 0.100145 -0.0454355 0.0541058 0.0213258 0.0259627 -0.000733928 -0.0750863 0.0245122 -0.0879553 0.0694843 -0.112911 -0.0100505 0.108612 -0.0247234 -0.0315301 -0.0756749 0.0328368 -0.0587892 -0.00530886 0.0475246 -0.0464583 -0.0980487 0.0477508 0.0481327 0.0235337 0.110411 -0.0466083 0.0738098 -0.0579303 -0.0305206 -0.031138 0.14441 -0.164855 -0.0770942 -0.0237708 -0.106621 0.0897768 -0.0760403 0.0267582 -0.0477029 0.0492582 0.117596 -0.0413839
Q128 -0.0245815 -0.0278657 0.0603514 -0.0327989 -0.109826 -0.0409889 -0.0776211 0.00730151 -0.010854 0.195172 -0.108143 -0.0992758 -0.077933 0.039947 -0.0183384 0.00179953 0.0776601 -0.0842906 0.140853 0.170148 0.0344893 -0.0054725 0.204071 -0.0589691 -0.0556153 -0.0290027 -0.00555991 -0.0264184 -0.0714477 0.258144 -0.0313441 -0.0855132 -0.0192681 0.101445 -0.00936164 -0.0242602 -0.0227765 -0.0572695 0.0605037 -0.0129816 0.0285026 0.0714005 -0.0759556 -0.0248924 0.123911 -0.0819157 -0.0860913 0.0139143 0.117445 0.126046 -0.101795 0.0111371 0.0466605 -0.0889885 0.0846923 -0.0491345 -0.0218136 0.0923317 -0.032891 0.0714057 -0.0189065 0.0555274 0.0659567 -0.0555847 0.00847728 -0.149355 0.122477 -0.199023 -0.104589 -0.000456191 0.00433893 -0.0575739 -0.0589886 -0.000710804 -0.039106 -0.0810183 -0.0466108 -0.0921468 -0.0303034 0.0471805 0.0460397 -0.00146645 0.0307618 -0.111122 0.0913655 0.0221869 0.00407251 -0.104649 0.0735811 -0.163036 -0.00651927 -0.0478483 -0.0152211 0.0206155 0.0202166 0.0051666 0.0216202 0.0656884 0.146964 -0.105218
Q129 0.0762228 0.0441774 0.00175689 0.00191838 -0.127688 -0.110688 -0.0586569 0.0609951 0.0319237 0.132012 -0.0866856 0.0774006 0.033187 0.00433864 0.102637 0.161281 -0.0564373 -0.032468 0.054484 0.0691844 0.0243638 -0.0245681 0.164712 0.00546027 -0.0564097 -0.0394338 0.0120754 -0.0872266 -0.139484 0.116465 -0.119739 -0.057881 0.00408483 0.126422 -0.0488988 0.00447374 -0.0779492 -0.0174707 0.045298 -0.0260929 -0.0291233 0.145224 -0.0743631 -0.0231947 0.0581879 -0.0194947 -0.0375964 0.152152 0.0320151 0.0951162 -0.0924494 -0.0959578 0.0132639 -0.0531462 0.0103875 -0.131408 -0.0651444 0.0687651 -0.0798191 0.123553 0.00391298 0.0428639 -0.102871 -0.13516 -0.00347753 -0.110992 0.126684 -0.145459 0.00115555 0.0354664 -0.0092524 0.0389451 -0.0529691 0.0749475 -0.203275 -0.0825233 0.0575136 -0.10127 -0.0814297 0.0689705 0.0181351 0.0156406 0.0579069 -0.0571126 0.139213 -0.0651143 -0.127366 -0.0256657 0.0392696 -0.148256 -0.0324818 -0.085464 -0.0728116 0.0398393 -0.103074 0.0581525 0.0396561 0.00472796 0.124198 -0.0860929
Q120 0.0632374 0.0775482 0.0969601 -0.0259349 0.0571087 -0.0380018 -0.0937429 0.0654566 0.0534908 0.0519123 -0.0575862 0.0724134 0.00750769 0.0538349 -0.108484 0.137264 -0.00211849 -0.0170482 0.0742716 0.0549473 0.102399 0.0413344 0.255371 -0.0197396 -0.0203234 0.00117997 -0.139368 0.00476921 -0.159075 -0.0500678 0.0481889 -0.0306537 -0.0595301 0.0769207 -0.0418649 -0.0443314 -0.037393 -0.0269296 -0.0537586 -0.0900907 0.000112749 0.0760262 -0.0327783 -0.0212589 0.14023 -0.153466 -0.0373741 0.182707 0.0711902 0.0957245 -0.0463899 0.0520079 -0.0817501 -0.0311299 0.125822 -0.0307652 -0.065336 -0.11606 -0.0706658 0.075833 -0.0912971 -0.00584344 -0.1529 -0.0650529 0.0515674 -0.0451459 0.0350147 -0.0716955 -0.111319 0.0453958 0.0134559 0.00919607 -0.0854878 0.0523939 -0.137447 -0.125394 0.0845921 -0.0681667 -0.0545703 -0.00832079 0.00714539 0.0182405 0.107715 -0.114739 0.179574 0.0158215 -0.0419011 -0.031237 0.0162 -0.197774 0.0119373 -0.163639 -0.119602 0.120252 -0.0713057 0.0514421 -0.0696058 0.0383622 0.111714 -0.0430655
Q121 0.0662955 0.0335676 0.0130641 -0.0459378 -0.0342061 -0.0538635 -0.147439 0.0621178 -0.0558392 0.136029 -0.0267886 0.0123515 -0.0216725 0.00114502 0.011994 0.1723 0.029567 -0.0413925 0.065843 0.0687621 0.0368237 0.0192154 0.148249 0.0108371 -0.00484744 -0.0458199 0.0113702 -0.0416799 -0.122194 0.179803 -0.10233 0.0358447 -0.0112117 0.0458091 -0.1007 0.0312481 0.00768745 -0.0680404 0.0707526 -0.0330821 -0.0707009 0.0264197 -0.0701928 -0.105936 0.0618892 -0.0303398 -0.0401162 0.0785371 0.0643176 0.0620372 -0.00692206 -0.0745906 0.0321447 -0.0744652 -0.0379307 -0.0736447 0.0131963 0.0924856 -0.133615 0.054589 -0.033611 0.0296315 0.000779543 -0.072665 0.0118529 -0.0353156 0.0186908 -0.143247 -0.0647235 0.0469916 -0.0850531 0.0131775 -0.0801197 -0.00853911 -0.0813622 -0.10182 0.065128 -0.11558 -0.112307 0.0436439 -0.0190394 0.0357592 0.0920999 -0.0452204 0.0628058 -0.0833796 -0.0359738 -0.0574627 0.0656857 -0.213512 -0.0593853 -0.0302697 -0.00138547 0.0981473 -0.0479963 0.0783523 0.0993478 0.00391486 0.0732352 -0.0436378
Q122 0.0728977 0.0369235 0.0484412 -0.0437808 -0.0552603 -0.0834581 -0.115579 0.080036 0.0681339 0.112306 -0.115365 0.0143432 -0.0457455 0.0752912 -0.00474902 0.149102 -0.0419458 -0.0698248 0.136379 0.131175 0.0422062 -0.0404131 0.251326 -0.0954759 -0.000236062 -0.0164316 -0.0357163 -0.00678441 -0.225948 0.113215 0.0203882 -0.095937 -0.0584178 0.100654 -0.0496618 -0.00176174 -0.0136855 -0.0301305 0.0449696 -0.100356 -0.054131 0.118338 -0.0389322 -0.0529891 0.174314 -0.0854899 0.00253368 0.146546 0.0738559 0.104283 -0.120019 0.045624 -0.022928 -0.0995566 0.0937181 -0.0425381 -0.0814375 0.0209016 0.00577136 0.105993 -0.0391692 -0.047592 -0.083253 -0.0873733 0.0023005 -0.113031 0.0469142 -0.193881 -0.101606 0.101203 0.0106688 -0.00430281 -0.0988961 0.0772875 -0.145876 -0.106188 0.0246235 -0.0985927 -0.0696624 0.0834174 0.00126185 0.0453244 0.143625 -0.0910634 0.158761 0.00741252 -0.0465924 -0.0636767 0.00784802 -0.14085 -0.0108685 -0.121134 -0.100809 0.0694751 -0.0458353 0.0249394 0.00891692 0.0667379 0.181894 -0.0943615
Q123 0.241372 0.0124107 0.0767167 -0.00494416 -0.0295613 -0.0597784 -0.0171477 0.0898392 -0.00158878 0.185015 0.0657971 0.0716603 -0.0792028 -0.0245079 -0.13131 0.073732 0.0632284 -0.094474 -0.0222993 0.0911911 0.0685501 -0.0191332 0.160719 -0.0197997 -0.0995669 -0.11133 -0.0761238 0.0660976 0.0298727 0.0715191 0.0395242 -0.00867268 -0.0178408 0.0406153 -0.110062 -0.024161 -0.0984856 -0.0477134 0.118646 -0.0466869 -0.0514077 0.0430561 -0.0747879 -0.0169142 0.161395 -0.101211 -0.0908856 0.0352619 -0.0188435 0.127876 -0.0394955 0.0669493 -0.00485942 -0.169387 0.00437515 0.00373368 -0.00946743 -0.0205605 -0.187359 0.0463627 -0.0655021 0.0251655 -0.00267956 -0.0565115 0.124211 -0.00250622 -0.0010164 -0.0438795 0.0366772 0.0853661 -0.0756636 -0.00800043 -0.0752334 -0.057673 -0.0847921 -0.0087127 0.0236042 -0.0340835 -0.0286163 0.0345232 0.108701 -0.0139451 0.105407 -0.136208 0.0250575 -0.0788469 0.00138404 0.000601877 0.0961668 -0.0673257 -0.0592986 -0.164079 -0.0463426 0.039862 -0.0105249 0.0740964 0.0877943 0.107902 0.0838446 0.0578415
Q124 0.0760668 0.0534237 0.0702838 -0.06717 -0.0606877 -0.052928 -0.13619 0.0637478 -0.0186818 0.0949788 -0.0946158 0.091526 -0.0389162 -0.0269846 0.0200689 0.0845144 -0.027327 -0.049202 0.0410702 0.114796 0.00282897 0.012225 0.1111 -0.104305 0.0171862 -0.0130756 -0.0461139 -0.0497027 -0.191103 0.141868 -0.0749086 0.0229537 -0.0654641 0.0323592 -0.125599 0.00682673 -0.0458449 -0.0534243 0.017158 -0.0813573 -0.0144144 0.0693981 -0.0477019 -0.0775223 0.118812 -0.0468795 -0.0153464 0.102426 0.0476418 0.0868173 -0.105719 -0.0217845 -0.0776029 -0.0661582 0.00826196 -0.09287 0.0283333 0.0180722 -0.128818 -0.0205964 -0.0820487 -0.0279284 -0.00248014 -0.00263076 0.00863354 -0.0943052 -0.0101793 -0.115082 0.00243429 0.0539607 -0.029533 0.0419914 -0.112049 0.0416261 -0.0978046 -0.106177 0.0804976 -0.064202 -0.0460573 -0.00804177 -0.0319137 -0.051593 0.0705556 -0.0351099 0.100192 -0.00659166 -0.123928 -0.0345789 0.0114021 -0.176821 -0.0474204 -0.0142611 -0.0732336 0.123144 -0.059965 0.072097 0.126133 0.0202363 0.0726666 -0.048958
Q125 0.133693 0.0252248 0.088498 -0.0970586 -0.10962 -0.072227 -0.0797267 0.0131264 0.00553019 0.103977 -0.0218212 0.126831 -0.0823385 0.0740726 -0.0548089 0.117615 -0.167222 -0.0370447 0.0560881 0.0271341 -0.0255834 0.0247753 0.138449 -0.0647807 0.0559469 -0.0502282 -0.0856725 0.0272797 -0.160511 0.0369171 -0.0579959 -0.00659531 -0.0568273 0.0889228 -0.0526307 -0.02065 0.0134205 -0.0166836 0.0138064 -0.0666311 -0.0806004 0.0867515 -0.0794955 -0.033204 0.101539 -0.0569232 -0.0172473 0.14601 -0.0201433 0.0957042 -0.085294 -0.0286024 0.0165014 -0.120984 0.0479626 -0.0758915 -0.0265688 -0.013367 -0.095106 0.0743634 -0.0698477 -0.0805147 -0.0776636 -0.0466815 0.0561383 -0.0299845 0.0748525 -0.105225 -0.00730699 0.0968379 -0.0447744 0.0261547 -0.16592 -0.0339762 -0.083914 -0.110401 0.0134235 -0.13637 -0.103074 -0.0417393 0.0655561 0.0708411 0.102712 -0.0849274 0.130229 -0.0889558 -0.00801903 -0.0600754 0.0401435 -0.136639 0.0636975 -0.0676757 -0.0536593 0.087909 -0.0780676 0.0673532 0.100827 0.0314484 0.0678478 -0.0291657
Q126 0.0808292 0.0257611 0.169076 -0.0971172 -0.0747561 -0.0656242 -0.0836179 0.101287 -0.0329484 0.0839033 -0.0490788 0.0662928 -0.00793133 0.00164547 -0.071759 0.0442239 -0.0199257 -0.0514785 0.0568922 0.147715 0.0179803 0.00469114 0.149433 -0.0599855 0.008493 -0.0592648 -0.0908346 0.0145351 -0.0981111 0.146919 0.0338099 -0.0214971 -0.0362469 0.0561613 -0.121055 -0.0173693 -0.0129159 -0.0819257 0.0463932 -0.0853022 -0.039508 0.0174271 -0.0593115 -0.0570722 0.121078 -0.119237 -0.0493083 0.144644 0.0860049 0.0695559 -0.0790622 0.0561001 -0.00256181 -0.0525808 0.0887789 -0.0308303 -0.0211572 -0.00136556 -0.0932908 0.027209 -0.0628199 -0.0169886 -0.0145522 0.0173146 0.0793796 -0.0590518 0.0640862 -0.143074 -0.0175737 0.110747 -0.0289897 0.016524 -0.0929692 -0.00779353 -0.0768489 -0.107277 -0.0243787 -0.13607 -0.0639741 0.0215793 0.0488858 -0.0256926 0.0879194 -0.0470339 0.0561285 -0.0998521 0.00649006 -0.0523648 0.00931675 -0.138268 0.0437819 -0.129347 -0.0807664 0.0925863 -0.0589078 0.00153367 0.124236 0.0440766 0.099381 -0.0796701
Q127 0.0211754 -0.0167538 -0.0353159 -0.0261631 -0.0797488 0.097935 -0.138109 -0.0225522 -0.0151114 0.202496 -0.115426 -0.0825241 -0.147138 0.0318287 -0.0142728 0.065887 0.0886409 -0.0658592 0.216935 0.15263 0.095694 -0.00443581 0.288702 -0.0254348 -0.0158241 0.000589268 -0.102391 0.0171384 -0.113251 0.216092 0.030493 -0.102337 -0.047896 0.0736315 0.049735 0.0463929 -0.0913449 -0.0866182 0.0833255 -0.0636657 -0.040644 0.0743934 -0.00700168 0.0249461 0.046423 0.0384518 -0.0144099 0.0230102 0.0542275 0.0871654 -0.121004 0.00474068 -0.0651902 -0.18384 0.0623268 0.0058638 -0.110247 0.143493 0.0791592 0.075271 -0.118306 0.0103345 0.0115851 -0.137176 -0.0609959 -0.130804 0.110018 -0.182293 -0.122973 0.0732781 -0.0132646 -0.03386 -0.0337522 0.0258084 -0.0787712 0.024854 0.0607179 -0.099635 -0.0365876 0.0902092 -0.000894976 0.105831 0.0115948 -0.0781796 0.0295443 0.022949 -0.0212695 -0.0835505 0.105769 -0.141513 -0.0677687 -0.0297081 0.0159922 0.074532 -0.0105578 0.0918695 -0.0535291 0.0318358 0.170227 -0.0910823
Q33 0.120202 0.0720949 0.0796656 -0.0564577 0.0342702 -0.024351 -0.0608845 0.0923104 -0.0386173 0.0722381 -0.0351146 0.0492031 -0.0228461 0.0108809 -0.0730246 0.124477 0.0229869 -0.0670127 0.0518803 0.180753 0.0525944 0.0351551 0.264017 0.0252767 -0.104458 -0.032787 -0.0689481 0.0333459 -0.0807026 0.0265973 0.0256241 0.0229992 -0.0907416 0.0751388 -0.131455 0.0259587 -0.0551275 -0.0624334 0.00805696 -0.0768357 -0.105232 -0.031781 -0.0376821 -0.0619862 0.106648 -0.0748431 -0.0525005 0.259492 0.00150724 0.0932652 -0.0363939 0.0247955 0.0277262 -0.079264 0.0326514 0.0583599 0.0135748 0.11775 -0.0549895 0.0526369 -0.091977 0.0515175 0.0260416 -0.0360942 0.0211125 -0.0750405 0.0476794 -0.100647 -0.0136104 0.15497 -0.0402139 -0.0152738 -0.106034 0.0593552 -0.0980782 0.0683981 0.0257954 0.00264186 -0.0838693 0.0632028 0.0931033 -0.0144646 0.122348 -0.0423386 0.0798094 -0.105077 -0.0207847 -0.0423996 0.132945 -0.0776762 -0.086352 -0.0834842 -0.12736 0.126188 -0.0869348 0.0248061 0.0541308 0.00321404 0.118553 0.0116992
Q32 0.0581826 0.0721287 0.0753507 -0.078161 -0.089728 -0.0347025 -0.150532 0.0847202 -0.0305007 0.132086 -0.0472895 0.0326108 -0.0677919 -0.0160823 -0.0241767 0.135154 0.0143458 -0.0666476 0.123969 0.169302 0.0385966 0.0116284 0.209246 -0.0946697 -0.0465515 0.0148147 -0.0382986 0.026738 -0.163819 0.152642 -0.0245159 -0.0407515 -0.0796213 0.100668 -0.0693325 0.0523318 -0.0450691 -0.0501555 0.0697458 -0.063919 -0.0294657 0.0689283 -0.0366778 -0.0677356 0.141942 -0.0513038 -0.0442418 0.102958 0.0355924 0.097109 -0.107914 0.0136987 -0.0344771 -0.080413 0.0562113 -0.031352 -0.0110095 0.0937607 -0.0604465 0.0129602 -0.0760656 -0.00149219 -0.0249794 -0.0672729 0.000541859 -0.117778 0.059574 -0.169547 -0.0278959 0.0677578 0.0139623 -0.0159074 -0.0711387 0.0215786 -0.120187 -0.064069 -0.000480422 -0.0745692 -0.00182688 0.0266403 0.0662904 -0.00329999 0.101791 -0.0412238 0.0837482 -0.00233004 -0.00426598 -0.021812 0.0463327 -0.135806 -0.0481956 -0.0713491 -0.0465571 0.10178 -0.0503572 0.00787486 0.0451521 0.10443 0.123904 -0.0578811
Q31 0.0811613 0.0302693 0.0594067 -0.0397024 -0.00768859 -0.000212845 -0.145114 0.051563 -0.0261458 0.11019 -0.0710689 0.0453913 -0.0684801 0.0477744 -0.126517 0.134063 0.0714288 -0.0706727 0.148885 0.175143 0.0995964 0.0130603 0.264574 -0.0324351 -0.0620271 -0.0444218 -0.13112 0.0130473 -0.128854 0.0972162 0.0285599 -0.038807 -0.0718931 0.0625488 -0.067952 0.0436075 -0.0204613 -0.077729 -0.00321198 -0.119498 -0.0574178 0.00408 -0.0199722 -0.0564476 0.123616 -0.060974 -0.0472485 0.210656 0.0793091 0.126633 -0.0933084 0.0268312 -0.0445667 -0.105049 0.085252 0.00691312 -0.0240009 0.0750319 -0.0294465 0.0786561 -0.0531153 0.0580389 -0.0835873 -0.107724 0.00679693 -0.0828722 0.11588 -0.153222 -0.0919418 0.117613 -0.0151937 -0.0174173 -0.0670678 -0.0062461 -0.127448 -0.0282916 0.090628 -0.105533 -0.0898214 0.0290051 0.0197413 0.031999 0.122191 -0.026367 0.121648 -0.0638307 -0.0491895 -0.0390509 0.127226 -0.200446 -0.0403661 -0.103592 -0.0948578 0.143751 -0.0733963 0.0678043 -0.00545948 0.0301454 0.113146 -0.0475517
Q30 0.179201 0.0483143 0.100747 -0.067351 -0.0570486 -0.0818453 -0.0361454 0.0738123 0.0448927 0.113788 -0.00797883 0.124038 0.0516241 0.0502603 0.0100184 0.0879829 -0.0585108 0.0712549 0.0154683 -0.0839137 0.00870704 -0.0331014 0.0178779 -0.153394 0.0947713 -0.0661474 -0.037859 -0.0121884 -0.191528 0.0389295 -0.0990958 0.111687 0.0600962 0.0632563 -0.101774 0.0205369 0.0760379 -0.0977685 -0.0157351 -0.0522794 -0.0010772 0.0812168 -0.0828633 -0.0595952 0.0668311 -0.0659918 0.0641492 0.0926504 -0.0401025 0.0444764 -0.122968 -0.0517834 -0.0123022 -0.0548788 0.00206307 -0.0740489 -0.00770545 -0.0379269 -0.124227 -0.0144533 -0.0637664 -0.0931121 0.0120218 -0.0336377 0.066856 0.000982305 -0.0346803 -0.0670137 0.0640959 0.0938249 -0.00246475 0.0397186 -0.0807231 -0.0295355 -0.0710793 -0.110654 0.00740584 -0.0727539 -0.0605283 -0.0569003 0.00444357 0.00228533 0.051991 -0.0170963 0.108373 -0.100004 -0.0617513 -0.0230284 0.173125 -0.0385712 0.0343005 -0.129817 -0.0296028 0.108225 -0.0381996 0.123889 0.113726 0.0168184 0.0160864 -0.0285999
Q37 0.22237 -0.0233881 0.157445 -0.0267036 -0.0723632 -0.104049 -0.0416779 0.0912362 0.0386466 0.111933 -0.142872 0.0454271 0.0341919 -0.0126035 0.039951 -0.0283723 -0.0575379 -0.0123515 0.0173942 0.0574354 0.0138897 -0.00307082 0.101485 -0.033155 0.00818117 -0.109708 -0.0766905 -0.0534018 -0.0932426 0.148657 0.0133539 0.000473226 -0.0051152 0.0333309 -0.207637 0.00433685 -0.0314235 -0.164808 -2.20353e-05 -0.0693375 -0.0615941 0.058095 -0.0625967 0.00613447 0.033217 -0.0496918 0.0315999 0.1661 0.0554774 0.0884303 -0.113641 -0.00489309 -0.0808191 -0.107373 0.0428367 -0.080742 -0.0715583 -0.0397571 -0.0636539 0.0168593 -0.0798482 0.00429459 0.0347976 -0.0312801 0.10847 -0.0166551 0.00201906 -0.167617 0.0312148 0.192504 -0.0384807 0.0461577 -0.095386 0.0534023 -0.0666504 -0.0905409 0.0553778 -0.10431 -0.0847427 -0.00315568 -0.0338748 0.0254863 0.111262 -0.0118856 0.0491115 -0.131086 -0.0989653 -0.0747345 0.00376453 -0.14435 0.0313169 -0.149723 -0.0873336 0.0625643 -0.0665901 0.0636197 0.117349 -0.0912022 0.0916998 -0.122842
Q36 0.042039 0.0568916 0.0300993 -0.0591045 -0.0194434 -0.020349 -0.17865 0.0483572 0.0235475 0.126398 -0.0595918 0.0257846 -0.142292 0.0656896 -0.0733903 0.109804 0.0530547 -0.128533 0.146257 0.148267 0.123446 -0.0285575 0.259492 -0.0629653 -0.0312683 0.0223797 -0.0941541 0.00661169 -0.10377 0.173736 0.0177629 -0.0696102 -0.0466186 0.0968795 0.0116488 0.0830375 -0.0913143 -0.0577669 0.0792242 -0.069647 -0.0320501 0.0375774 -0.0748494 -0.00625902 0.124196 -0.0479463 -0.0274417 0.123321 0.0293624 0.130722 -0.123059 0.0408871 -0.0788574 -0.122142 0.0890401 0.0774981 -0.0990158 0.0821766 0.00514479 0.112519 -0.0403291 0.0211635 -0.00441085 -0.128665 -0.0363969 -0.0708332 0.142087 -0.189189 -0.112459 0.0632921 -0.00902282 -0.0286266 -0.0538018 -0.000939817 -0.0538724 0.00302958 0.0434486 -0.0849759 -0.0300629 0.058934 0.0133143 0.045852 0.0487558 -0.0395514 0.136411 0.0671567 -0.0283714 -0.0409694 0.0482551 -0.0663221 -0.0303393 -0.113543 -0.0276452 0.106899 -0.0376237 0.0293055 -0.0158458 0.0673337 0.151752 -0.0492557
Q35 0.243792 0.0845619 0.0507318 -0.0459086 0.0459102 -0.0402589 -0.124911 0.0405202 0.0265815 0.0819176 0.0165246 0.103479 -0.0262648 0.0507264 -0.0596677 0.154591 -0.0204718 -0.0842323 0.0774775 0.0259214 0.110431 -0.0156658 0.196327 -0.000340596 -0.0662041 -0.0740443 -0.0430582 0.00811443 -0.063032 -0.027238 -0.112624 -0.00357491 -0.0119202 0.0329521 -0.0660291 0.00407846 -0.061346 -0.0422366 0.0755603 -0.0718441 -0.0424274 -0.0260696 -0.0758363 -0.0301894 0.111874 -0.0340573 -0.073446 0.187778 -0.0586355 0.0430119 -0.0659871 -0.00726805 0.00576424 -0.0337087 -0.0350677 0.0250203 0.00144636 0.010037 -0.039246 0.0120789 -0.12165 0.0400145 -0.00529035 -0.0249145 0.0401277 -0.00043314 0.0706742 -0.0978898 -0.00791742 0.0498703 -0.0435233 0.0167796 -0.0345706 -0.0263744 -0.0907091 -0.00553123 0.0761491 -0.0329338 -0.0397895 0.0396846 0.0791416 -0.0847565 0.0556069 -0.068426 0.147879 -0.0710856 -0.079081 -0.0200699 0.115558 -0.180638 -0.112102 -0.0497004 -0.0495559 0.116056 -0.0855019 0.114881 0.0118517 -0.0414474 0.0535394 0.0297723
Q34 0.0347893 0.0696416 0.0412073 -0.0524616 -0.0243518 -0.0275816 -0.151023 0.0625759 -0.0142787 0.0977608 -0.109835 -0.0437077 -0.0229111 -0.025447 0.0167039 0.134914 0.0234186 -0.04543 0.12901 0.115069 0.0155504 0.034128 0.193125 -0.01594 -0.0505522 0.0191342 -0.0779256 -0.0226456 -0.0729433 0.146855 -0.0301249 -0.0178485 -0.0536108 0.0673044 -0.0212499 0.0153284 -0.0651932 -0.0377221 0.0442948 -0.0145714 -0.0530225 0.0622962 -0.050042 -0.0616436 0.0477799 -0.0145883 -0.0234858 0.0987272 0.0297959 0.10973 -0.0475195 -0.0357841 -0.00811933 -0.0510504 0.0415331 -0.0674811 -0.0230928 0.169753 -0.02955 0.10309 -0.107377 0.0143927 -0.0213942 -0.0746916 -0.00371933 -0.0910842 0.0529977 -0.0992801 -0.068973 0.0330076 -0.0197546 0.0051506 -0.0478731 0.0560171 -0.0943839 -0.0351191 0.0437316 -0.0701671 -0.0360038 0.0563355 -0.00540423 0.00125452 0.0292025 -0.0436727 0.114218 -0.0106151 0.00719623 0.00412619 0.0962553 -0.136028 -0.0689498 -0.0722406 -0.0523056 0.102837 -0.0544634 0.0475297 0.007891 0.0470374 0.142222 -0.0431515
Q39 0.0169924 0.0607246 0.00583118 -0.0428345 -0.0666053 0.061741 -0.137698 -0.0347276 -0.0579732 0.130959 -0.0855434 0.0717504 -0.0871895 -0.0610811 -0.0742294 0.12215 0.0394603 -0.0217492 0.086642 0.142042 0.0232584 0.0277835 0.172384 -0.0573977 0.0366072 -0.0246873 -0.0722954 0.0294056 -0.104837 0.19742 -0.0389711 0.0454877 -0.0492022 0.062955 -0.104646 0.0534451 0.0411296 -0.0377961 0.05804 -0.057856 0.00566951 -0.00090731 -0.0326735 -0.116399 0.0596971 -0.0150898 -0.0937108 0.0707428 0.0298522 0.176832 -0.107555 -0.0428874 0.0419642 -0.0372043 0.0272328 -0.0703008 0.00978792 0.104973 -0.0191967 0.0547095 -0.0129878 0.00214861 -0.0104239 -0.0664777 0.00758727 -0.101744 0.0758483 -0.11322 -0.0364233 0.0258862 -0.0305451 0.0526162 -0.0289062 -0.0739937 -0.042598 -0.0853874 -0.0106857 -0.0783068 -0.0713222 0.0239607 0.0287118 0.0446604 0.0732247 -0.0420212 -0.00486464 -0.0669772 -0.0228582 -0.0380154 0.0374734 -0.20527 0.00678451 -0.00222045 -0.052756 0.0751183 -0.132956 0.0791212 0.117616 0.0646182 0.138533 -0.0820013
Q38 0.0405167 -0.00638515 0.0820004 -0.0350306 -0.103319 0.0527722 -0.115276 0.045 -0.0544277 0.167636 -0.109923 -0.0532549 -0.130853 -0.0168934 -0.0143238 0.0708141 0.0392832 -0.0490065 0.14923 0.176881 0.0128247 -0.0100546 0.258834 -0.0855274 -0.000464589 -0.0152515 -0.0807645 -0.0226094 -0.115412 0.252993 0.0972014 -0.121868 -0.0594834 0.108941 -0.0307924 0.0516615 -0.0719783 -0.0603043 0.0848302 -0.0558494 -0.0112462 0.0814945 -0.0227973 -0.0148583 0.0777166 0.0196421 -0.0385835 0.0562923 0.107877 0.142901 -0.154647 0.0182605 -0.0631474 -0.154027 0.101724 -0.12541 -0.0971046 0.0983351 0.0183652 0.0814015 -0.084861 0.0578264 0.00180312 -0.110429 -0.00559089 -0.146479 0.0997546 -0.165632 -0.0602865 0.0782639 0.0195865 -0.00385878 -0.0633399 0.0264106 -0.0552442 -0.0510808 -0.0221719 -0.115863 0.00468606 0.0353666 0.0190839 0.037384 0.053257 -0.0684849 0.023934 0.0311403 -0.0514698 -0.0863003 -0.00311885 -0.18428 -0.0204359 -0.116364 -0.0632645 0.0678474 -0.0385846 0.0260002 0.0441433 0.0906662 0.127381 -0.102776
Q142 0.164431 0.109696 0.140231 -0.0750375 -0.0930816 -0.0368924 -0.111108 0.139538 -0.00428782 0.122695 0.0546018 0.0688839 -0.0410651 -0.00857131 -0.0717181 0.158626 -0.0286062 -0.12116 0.0914731 0.158515 0.0889588 0.00208024 0.216197 -0.103841 -0.0270017 -0.0445463 -0.097548 0.057828 -0.0932791 0.0453532 -0.0708869 -0.00918473 -0.0483085 0.11638 -0.0161212 0.0299733 -0.0962142 -0.032432 0.0792763 -0.107917 -0.0187327 0.108307 -0.0426694 -0.0203785 0.179212 -0.110837 -0.000345068 0.108639 0.0184921 0.0425964 -0.0940773 0.013301 0.0103937 -0.0522125 0.0986552 -0.0603779 -0.0464725 0.0108922 -0.123923 0.00491695 -0.0864769 -0.00451932 -0.0884592 -0.0425617 0.010089 -0.0643649 0.0623519 -0.11728 -0.00249409 0.0555796 -0.0284852 -0.0109956 -0.0244402 -0.029047 -0.169135 -0.0505425 -0.0202629 -0.143225 0.0118755 -0.00209797 0.0835474 -0.0330092 0.0834697 -0.0550394 0.0797484 0.00977718 -0.0242798 0.0236376 0.0296282 -0.124933 0.0216109 -0.101264 -0.0449197 0.150924 -0.0446421 0.0331237 0.071056 0.0956598 0.0780965 -0.0160271
Q143 0.179594 0.0670884 0.105735 -0.0418268 -0.0335414 -0.117414 -0.11474 0.00197222 -0.0265837 0.0984612 0.0992155 0.145061 -0.0241031 0.0359175 -0.011083 0.184772 -0.0952125 -0.0568584 0.0362397 0.0593601 0.0104674 0.0078311 0.136454 -0.0283819 0.0304101 -0.0711784 -0.0205088 0.00671828 -0.10776 0.0842661 -0.132757 0.0407124 -0.00783626 0.0589902 -0.0983384 0.0408679 -0.0402019 -0.00355999 0.0353272 -0.0567436 -0.0746618 0.0521996 -0.0849849 -0.0622819 0.058102 -0.0864103 -0.0387811 0.1461 -0.0104945 0.0334313 -0.0368665 -0.0578587 0.0822544 -0.0833551 -0.0493533 -0.0822051 -0.0293192 0.0445092 -0.146818 0.0914214 -0.106734 -0.0263128 -0.0374608 -0.0291041 0.00690719 0.000211597 0.043726 -0.0907993 0.0135077 0.0336084 -0.0649456 0.0150695 -0.0580398 -0.0495316 -0.135049 -0.105812 -0.00273525 -0.116285 -0.0442239 0.0172723 0.085165 0.00379877 0.111842 -0.0890455 0.0962379 -0.0784293 -0.0289602 -0.0170221 0.055823 -0.172501 0.0140728 -0.0457956 -0.0431878 0.101499 -0.0852369 0.0677863 0.120328 0.0486206 0.0624051 -0.0193912
Q140 0.0428161 0.0686868 0.131844 -0.062057 -0.0493901 -0.0413229 -0.0451657 0.0760565 -0.0941918 0.122077 -0.0542286 0.0455028 0.0770672 -0.0174896 0.0401153 0.111885 -0.0187807 0.0175532 0.0619025 0.187804 -0.0520771 0.045392 0.228592 -0.00783488 -0.0162284 -0.0391651 -0.0339218 0.00603203 -0.0686815 0.119906 -0.00652166 0.0305284 -0.0556686 0.12022 -0.172598 -0.00438488 -0.0618021 -0.0542142 -0.00849476 -0.0124909 -0.0512812 0.0482308 -0.0254188 -0.0710004 0.0689832 -0.092648 -0.0700961 0.161074 0.0465511 0.0612694 -0.0358946 0.00612044 0.0336314 -0.0872004 0.0229767 -0.0221246 0.00575785 0.176084 -0.0269631 0.0706491 -0.1148 0.0172256 0.0704591 -0.0508042 0.0446525 -0.134933 0.0391786 -0.0889166 -0.0503997 0.129091 -0.0548126 0.00122303 -0.0437974 0.135875 -0.119316 0.032145 0.000437643 0.0421635 -0.0671659 0.054761 0.0288044 0.00317741 0.0844923 -0.0342314 0.0414029 -0.108819 -0.0381621 -0.0580954 0.0897732 -0.0857373 -0.0286196 -0.0912499 -0.071956 0.0852558 -0.0920334 -0.0231917 0.132074 -0.0148476 0.188335 -0.0681949
Q141 0.077615 -0.0338206 -0.0602386 0.000406406 -0.0875175 -0.0889262 -0.0852064 -0.0235746 0.019655 0.0360123 -0.00272553 0.0212008 -0.103946 0.0543811 -0.0091688 0.100288 -0.0587641 -0.0243635 0.0815029 -0.0189473 -0.0559418 -0.0789678 0.0671006 -0.0340248 0.00516691 -0.0153359 0.0496079 -0.0895741 -0.136782 0.0914296 -0.0791834 -0.0886473 0.0500293 0.0163613 -0.0457033 0.0191764 -0.0197209 -0.0179112 0.0480155 -0.104146 -0.0516261 0.0416585 -0.0565508 -0.0126926 0.0342227 0.0260461 -0.000963176 0.0350692 0.0162377 0.012338 -0.0463937 -0.0127234 -0.00214468 -0.10704 -0.00301282 0.0127302 -0.0100493 0.00571894 -0.0501227 0.0791202 0.00508277 -0.0427099 -0.0975814 -0.0694281 -0.0210347 -0.0107396 0.0220498 -0.0969658 -0.0153754 0.0229708 0.0457349 0.0161112 -0.0193343 -0.0113105 -0.0961359 -0.123806 0.0860656 -0.145168 -0.0663366 -0.00126128 -0.0079978 0.0247778 0.0312004 -0.0463723 0.129612 -0.062658 -0.0562444 -0.0264633 0.0485603 -0.103849 0.000149275 -0.0604853 0.0127558 0.0377121 -0.0346024 0.0792759 0.038834 0.00774454 0.0228852 -0.0603488
Q146 0.0325914 0.0295306 0.071273 -0.0178435 -0.109277 -0.0146743 -0.128504 0.0697485 -0.0192947 0.19346 -0.0678675 -0.0123089 -0.0584184 -0.012775 0.0536382 0.0891146 -0.0278688 -0.0360645 0.0701456 0.101972 -0.0107168 0.0140917 0.129616 -0.020391 -0.0355859 -0.026589 0.0423103 -0.041036 -0.124017 0.14302 -0.105652 0.0286514 -0.0382855 0.0475254 -0.115848 -0.0642923 -0.0681097 -0.0840935 0.0560177 0.000842798 -0.0109685 0.0456143 -0.105155 -0.0788275 0.0380474 0.0160267 -0.04417 0.0277031 0.00854487 0.0303887 -0.0386843 -0.105324 0.00438467 -0.0381975 -0.00776034 -0.0757012 0.0232541 0.114921 -0.103995 0.0311281 -0.082711 0.0215903 0.0334644 -0.061868 -0.0235419 -0.122048 0.00963452 -0.147366 -0.0439953 0.0212998 -0.0689677 0.00586567 -0.0646801 0.0303486 -0.0399614 -0.117647 -0.0114247 -0.0565469 -0.0743872 0.00241029 0.0229417 0.011541 0.0175015 -0.100872 0.0796203 -0.0252517 -0.0650955 -0.0583278 0.0279236 -0.152749 -0.0339356 0.0561324 0.0191258 0.0925141 -0.0334906 0.0108074 0.103352 -0.0114772 0.0774957 -0.0392974
Q147 0.0145862 0.0878694 0.0812046 -0.0565711 -0.0497654 -0.00546677 -0.16219 0.118866 -0.0584288 0.128326 -0.0912742 0.0221621 -0.0102227 -0.0268324 0.0330699 0.133283 -0.0121606 -0.0161898 0.0787498 0.102804 0.0112666 0.00962817 0.200315 -0.0756916 -0.0264141 0.00638167 -0.0667031 -0.0182338 -0.13673 0.136185 0.015128 -0.00594699 -0.0779962 0.128561 -0.0445531 -0.028051 -0.0603412 -0.0141783 0.0340369 -0.0485804 -0.0397278 0.104534 -0.0800001 -0.0693876 0.0799904 -0.0146576 -0.0235666 0.113732 0.0181108 0.122516 -0.0894141 -0.04204 -0.00727327 -0.0782349 0.0583252 -0.080459 -0.0803955 0.133353 -0.0469561 0.0775822 -0.0779797 0.01575 -0.0185694 -0.0942155 0.0257758 -0.127877 0.0539029 -0.127764 -0.00921302 0.0474261 -0.0070516 0.0173277 -0.0286606 0.0478314 -0.136491 -0.0285711 0.00291605 -0.0461858 -0.0184346 0.0645549 0.00894777 0.0252046 0.0531596 -0.0525202 0.0960296 -0.000308365 -0.0423712 -0.0411658 0.0312751 -0.0745037 -0.0422056 -0.11096 -0.0772215 0.125246 -0.126446 -0.0093789 0.0601826 0.0619566 0.164163 -0.0117875
Q139 0.199476 0.0719985 0.147413 -0.0535754 -0.10359 -0.00580715 -0.128541 0.00202492 -0.0315026 0.157447 0.0635635 0.143597 -0.0767923 -0.049648 -0.0953163 0.155369 -0.0137364 -0.132193 0.0744865 0.146671 0.0852494 -0.0213919 0.200819 -0.00152964 -0.0480515 -0.137998 -0.0627497 0.0376981 -0.0103252 0.0831293 -0.12869 0.0254221 0.0193221 0.116655 -0.0793463 0.000161787 -0.0951191 -0.112999 0.0822763 -0.154808 -0.00982227 0.0253459 -0.074147 -0.00466455 0.1133 -0.0743875 -0.00212971 0.0761733 0.00782392 0.0608001 -0.136251 -0.0369535 0.0389311 -0.027632 0.0183695 -0.0937017 0.0257107 0.0552141 -0.0991016 -0.0351854 -0.127714 0.0406261 -0.0648585 0.0155064 0.0590206 0.00909952 0.0940296 -0.178666 -0.0236522 0.0327696 -0.00941198 0.0544556 -0.0169482 -0.12883 -0.0997868 -0.0352342 0.0246008 -0.158633 0.00682573 -0.0159236 0.0846025 -0.0634855 0.115462 -0.0953277 0.0866218 -0.090163 -0.0583602 0.0438167 0.0661947 -0.251408 0.0368793 -0.0505712 0.0383117 0.107895 -0.0772468 0.0821988 0.090298 -0.0171461 0.0961902 -0.0787456
Q138 0.0387334 0.0662091 0.0863426 -0.0871287 -0.0720126 0.0222328 -0.129081 -0.016801 -0.0533442 0.149924 -0.0173161 0.0548953 -0.119041 -0.0253 -0.0888986 0.15525 0.0233976 -0.106897 0.128362 0.167632 0.0428887 0.0555569 0.248483 -0.0359976 0.0127418 -0.0266422 -0.0816256 0.0191786 -0.103559 0.167943 -0.0482534 0.0152654 -0.0301266 0.100685 -0.063416 0.0846419 -0.0277442 -0.0584547 0.0843403 -0.0289158 -0.0382261 0.0256942 -0.049132 -0.105935 0.0651938 -0.0368793 -0.0677868 0.0696764 0.0609404 0.104222 -0.153064 -0.0384156 0.00025887 -0.0627461 0.0392444 -0.0788772 0.0300541 0.126336 -0.0742256 0.0467625 -0.083122 0.0213748 -0.0471096 -0.0827343 -0.00710647 -0.0984214 0.109942 -0.135759 -0.0577483 0.0528355 -0.0314053 -0.00134557 -0.053932 -0.0774834 -0.0246678 -0.0324078 -0.0100996 -0.0764314 -0.0125687 -0.0208549 0.094568 -0.0152101 0.116083 -0.0541058 0.0318467 -0.00935587 -0.0242465 0.027759 0.0372054 -0.221658 -0.0335225 0.018694 -0.0384743 0.0638348 -0.0541085 0.0900681 0.0594307 0.078825 0.132002 -0.0661547
Q144 0.138999 0.00726541 0.0307311 -0.0460462 0.0824619 -0.104119 -0.101776 0.00655245 0.102205 0.0975895 -0.0761834 0.0612943 -0.045771 0.142639 -0.139796 0.0966053 0.0120852 -0.0724343 0.110176 0.0927588 0.098736 0.0100352 0.25846 -0.0215306 -0.0553531 -0.0906514 -0.0558532 0.0081899 -0.110013 0.0372938 -0.0363955 -0.0281857 -0.0313653 0.0948173 -0.071298 -0.0464399 -0.0264452 -0.0607837 0.0175462 -0.101528 -0.021757 0.0146926 -0.0238218 -0.0109683 0.153208 -0.177868 -0.0360392 0.141291 0.0979335 0.112922 -0.0561184 0.0028153 0.0177218 -0.0433028 0.104758 0.0691182 -0.0108637 -0.0480904 -0.0838537 0.0610323 -0.0711224 -0.0351854 -0.00906294 -0.0241889 0.103174 0.000482244 0.0607168 -0.145343 -0.135812 0.043971 -0.0192216 -0.0260851 -0.110274 0.0406517 -0.0453412 -0.129932 0.0456685 -0.0498246 -0.0844647 0.0312791 0.0520991 -0.00850171 0.142257 -0.194597 0.189854 -0.0418681 -0.00977288 -0.00316253 0.122014 -0.252586 -0.000390967 -0.105937 -0.0819717 0.0443766 -0.0412712 0.0599772 -0.0385056 0.00902542 0.130921 -0.0469827
Q133 0.0205505 0.0171206 0.092869 -0.0414006 -0.0915401 0.057634 -0.133806 0.0410161 -0.0718123 0.19934 -0.0922158 -0.102595 -0.0780167 -0.0160689 -0.0115927 0.0902342 0.0922138 -0.097223 0.166795 0.223987 0.0449994 0.00954526 0.278823 -0.0445543 -0.0190446 -0.000126741 -0.0717499 -0.00937452 -0.0974989 0.253683 0.0638531 -0.0776562 -0.0707205 0.083497 -0.0576226 0.0274396 -0.0688162 -0.0671821 0.0559563 -0.0206288 -0.0312932 0.0897785 -0.0769098 -0.0741224 0.089147 -0.00878156 -0.0912648 0.0381948 0.117379 0.103098 -0.0895317 0.0363565 -0.00990341 -0.124839 0.0554347 -0.0809227 -0.0369494 0.166964 -0.0227254 0.0848842 -0.0674246 0.0805388 0.00021686 -0.0972898 -0.0370122 -0.192621 0.0962845 -0.174054 -0.124624 0.0797492 -0.000545084 -0.0284622 -0.0591279 0.0358594 -0.108902 -0.0533329 0.0124252 -0.0613638 -0.035072 0.0589365 0.0174914 0.045896 0.0721534 -0.0807134 0.0770927 0.00265823 -0.0443187 -0.102734 0.030947 -0.147629 -0.0348203 -0.0684434 -0.0398317 0.0503943 -0.0171582 0.0067175 0.00350824 0.110148 0.203567 -0.0734963
Q132 0.114539 0.0102854 0.173577 -0.0648615 -0.0309262 -0.0959492 -0.0424736 0.098013 -0.0704675 0.0130779 -0.0386263 0.05601 -0.0166819 -0.0539924 -0.0104748 -0.0110574 -0.0506766 -0.0154545 -0.0494085 0.101198 -0.00504761 0.0184991 0.122841 -0.0145717 0.0667361 -0.0279079 -0.0490898 -0.0638553 -0.150009 0.129275 0.0320878 0.0190565 0.0326416 0.0312213 -0.131376 0.0731495 -0.0361681 -0.107032 -0.0218123 -0.0830648 -0.0344725 0.0620103 -0.0870238 0.00567612 0.0675489 -0.0672107 0.000568649 0.164309 0.0147287 0.0581853 -0.0989212 0.0785695 -0.0979221 -0.0855999 0.0485577 -0.0526702 -0.0122962 -0.036241 -0.108418 -0.00487722 -0.0614733 0.00254861 -0.00729282 -0.00872549 0.0483561 -0.0694148 -0.00813295 -0.118651 0.0182653 0.167791 0.0199246 0.0596047 -0.054661 0.0258446 -0.071295 -0.0360321 0.0673699 -0.126798 -0.0308 -0.0619742 -0.00910541 -0.0452199 0.0925327 0.0296797 0.054578 -0.084789 -0.116584 -0.0755653 0.00884884 -0.0850106 0.0300238 -0.158425 -0.0618519 0.0910112 -0.0362022 0.063731 0.0919294 -0.0221999 0.0738035 -0.12528
Q131 0.0744864 0.00510089 0.054267 -0.00675141 -0.101235 0.0571573 -0.145296 0.0061998 -0.0425726 0.211272 -0.0808583 -0.090103 -0.155545 0.00499375 -0.042046 0.0789306 0.0583667 -0.0717324 0.232001 0.200179 0.0216608 0.0268127 0.250513 -0.0945095 0.0116024 -0.0230558 -0.0872337 0.0446191 -0.0920822 0.214609 0.0244259 -0.104395 -0.0163695 0.073588 0.0200474 0.0646084 -0.0474774 -0.0944071 0.0657756 -0.0235324 0.0178766 0.0652972 -0.0073957 -0.00838261 0.0546328 0.0417344 -0.0469101 0.019548 0.082268 0.0917645 -0.166584 0.0224232 -0.0568009 -0.11657 0.0575196 -0.0175925 -0.00583627 0.14047 0.0651157 0.0680163 -0.102321 0.0367853 0.0311773 -0.142465 -0.0499597 -0.165567 0.178191 -0.128163 -0.125233 0.0752084 -0.0201759 -0.00831266 -0.0494931 0.013163 -0.092792 -0.0236433 0.00305197 -0.0492812 -0.00818177 0.0194289 -0.00443677 0.0399798 0.0132595 -0.0296421 0.0542666 0.00116834 -0.0619777 -0.0355731 0.117256 -0.158368 -0.0192397 -0.0553649 -0.0228529 0.0600618 -0.00548889 0.0793576 0.00137343 0.0916536 0.156356 -0.062202
Q130 0.0560668 0.035567 0.0990402 -0.054104 -0.0707152 0.00368376 -0.138275 0.0599044 -0.0220321 0.127316 -0.0457933 0.065799 -0.0546959 0.00505428 -0.113062 0.157255 -0.0805681 -0.0973621 0.0590441 0.0984156 -0.0162411 0.0788068 0.185135 -0.0726288 0.0392052 -0.0411479 -0.118075 0.0870191 -0.120659 0.0627985 0.0122204 0.0659119 -0.0526435 0.0984852 -0.0718761 0.0187375 0.0900954 -0.0598049 0.0450536 -0.0632995 -0.087778 0.0270928 -0.0519957 -0.0853717 0.0933737 -0.0569701 -0.0260194 0.121404 0.0134606 0.121009 -0.0635634 0.0231832 0.0471389 -0.0648916 0.0672217 -0.0360276 0.0104078 0.0896658 -0.077009 0.0638477 -0.0218831 -0.0413325 -0.0510272 -0.037687 0.0592727 -0.109793 0.116005 -0.0947334 0.00271362 0.124345 -0.0784767 0.0457284 -0.134997 -0.045974 -0.06515 -0.05186 -0.0306599 -0.174891 -0.093817 -0.0493018 0.0549908 0.0762559 0.129834 -0.0541936 0.0450307 -0.134336 0.000214481 -0.0872139 0.0354769 -0.153759 0.0261424 -0.0406645 -0.0781431 0.143502 -0.0550515 0.092218 0.107762 0.0393011 0.0935833 0.0073957
Q137 -0.0391473 -0.027732 0.0332211 -0.0548903 -0.095298 0.0414048 -0.132225 0.0196577 -0.0714226 0.164605 -0.0685941 -0.0802967 -0.128532 0.0205511 -0.00306274 0.00951764 0.0663309 -0.0650991 0.149282 0.199345 0.0472681 0.022336 0.205661 -0.0328169 -0.0238492 0.0240474 -0.0457352 -0.0223311 -0.0710971 0.262225 0.0468891 -0.124806 -0.0408262 0.0954775 0.0529786 0.0529534 -0.0417577 -0.0155642 0.0634125 -0.0371242 0.00334798 0.0803077 -0.0417533 -0.000979077 0.100124 -0.0301175 -0.0784993 0.0149691 0.066987 0.141307 -0.102003 0.0512754 -0.0565768 -0.172042 0.10475 -0.0373272 -0.0754796 0.0950426 0.0216788 0.1083 -0.00873116 0.0575849 0.00183554 -0.103908 -0.0352809 -0.129506 0.138443 -0.173906 -0.107203 0.0530986 -0.00633766 -0.0323908 -0.0504571 -0.00637561 -0.044027 -0.0236422 -0.0181263 -0.147456 -0.0236347 0.0334662 0.000151651 0.0181867 0.00701609 -0.0231683 0.00149141 0.0662566 0.00462839 -0.0923818 0.0357833 -0.13342 -0.0169387 -0.102597 -0.00790203 0.0528108 0.0101619 -0.00636935 -0.0182133 0.0742836 0.144315 -0.0513625
Q136 0.228177 0.0784522 0.20804 -0.0466952 -0.0639049 -0.011533 -0.0370922 0.0862206 0.00722173 0.118469 0.0781155 0.115767 0.028516 0.0458456 -0.0618631 0.11221 -0.0881044 -0.00369543 -0.0464182 0.102325 0.0340165 0.0411962 0.148622 0.0220858 0.0919566 -0.0544924 -0.0541849 0.0523397 -0.0620249 -0.0142741 -0.063788 0.051626 0.00877514 0.11588 -0.0760084 -0.03636 -0.0636771 -0.0591757 0.0235584 -0.104049 0.00529928 0.103654 -0.144159 -0.0130174 0.125068 -0.117173 0.01963 0.0949906 -0.0872013 0.0293299 -0.0201143 -0.0496397 0.0786303 -0.108101 0.0633137 -0.0558397 -0.0396405 0.00926992 -0.0985567 -0.0180459 -0.155922 -0.0523817 -0.023632 -0.0493973 0.0370948 -0.0128987 0.0252421 -0.0783556 0.0391992 0.0651548 -0.0507397 -0.0170274 -0.00926072 -0.0745029 -0.0764889 0.0233967 -0.0619767 -0.023841 -0.00323187 -0.0504532 0.117471 0.00889931 0.064183 -0.0630491 0.0213601 -0.121321 -0.0668434 -0.0617627 0.169422 0.0221018 0.0336474 -0.133583 -0.00534482 0.120796 -0.0951922 0.0648017 0.0882797 0.0573403 0.0237281 0.00449288
Q135 0.0386308 0.0755008 0.183002 -0.101245 -0.0380429 0.00981606 -0.125599 0.029863 -0.0714956 0.184888 -0.000738004 0.105202 -0.0708183 -0.0632437 -0.0271106 0.102419 0.0150854 -0.104605 0.123332 0.155252 0.0427397 0.0328971 0.225517 -0.0624496 -0.00425481 -0.0785306 -0.0464166 0.0124724 -0.127109 0.201951 -0.0223191 0.0252578 0.0079982 0.119815 -0.0493141 0.0317 -0.0110666 -0.0952459 0.0313483 -0.0438993 -0.0555936 0.0605611 -0.107726 -0.0821802 0.0788348 -0.0736172 -0.0363464 0.138937 0.0555417 0.0974166 -0.165516 0.0150424 0.0130971 -0.0946995 0.0741505 -0.0304145 0.0229889 0.105328 -0.152769 0.0280429 -0.0633217 0.0485736 -0.0286927 -0.0459779 0.0198263 -0.0941549 0.100644 -0.149107 -0.0564795 0.06944 0.0131075 -0.00852811 -0.0456174 -0.00606575 -0.124764 -0.0435125 0.00124879 -0.123021 -0.047105 0.0426035 0.00334621 -0.00144482 0.107967 -0.0572019 0.10968 -0.0784929 -0.0645922 -0.00352254 0.0258201 -0.154524 0.0127375 -0.0708758 -0.0155733 0.107409 -0.0734935 0.0378247 0.105445 0.0934906 0.153382 -0.070037
Q134 0.135519 0.101483 0.0384104 -0.0111098 0.0371942 -0.103654 -0.125424 0.0429071 0.0665845 0.0871552 -0.0925445 0.0724024 -0.0542733 0.0652357 -0.112931 0.155194 -0.0540398 -0.0432524 0.131077 0.129528 0.0348227 0.0225617 0.285259 -0.0186174 -0.00751694 -0.0345721 -0.0650843 -0.0543641 -0.123329 0.0772957 -0.0391596 -0.0508638 -0.0263343 0.0977744 -0.0533981 0.0280861 -0.0762178 -0.0389641 0.000693341 -0.087785 -0.0382264 0.0440864 -0.0401213 0.00920533 0.0970664 -0.162551 -0.0145106 0.184648 0.0742934 0.118983 -0.102773 0.021285 -0.0191291 -0.0319353 0.0548704 -0.0274744 -0.015766 -0.0160243 -0.0638559 0.0834292 -0.109777 -0.0153158 -0.0912651 -0.0883303 0.054633 -0.0502573 0.092073 -0.125113 -0.15006 0.0674373 0.00168978 0.02962 -0.120864 0.0422905 -0.112791 -0.115012 0.0755566 -0.0545046 -0.0390988 0.00695647 0.0331447 0.00776072 0.134603 -0.103624 0.211463 0.00666962 -0.0508994 0.0319566 0.0914578 -0.217684 0.0160053 -0.12082 -0.0789056 0.1081 -0.0631889 0.0724836 -0.0503882 0.0200015 0.164767 -0.0865143
Q20 0.0372292 0.0223328 0.077891 -0.0162 -0.0666784 0.0795057 -0.0951141 4.02937e-05 -0.0165205 0.173434 -0.120489 -0.0488262 -0.0539651 0.0016682 -0.0023651 0.109619 0.0337033 -0.0177865 0.180392 0.138103 0.00204984 -0.00610356 0.249325 -0.0909555 0.0416125 -0.0143533 -0.0933156 0.0296626 -0.143523 0.147638 0.0953339 -0.037477 -0.0599087 0.0887323 -0.0773445 -0.0128107 -0.0210219 -0.0881809 0.0439185 -0.015689 -0.010832 0.0571511 -0.0346282 -0.0835369 0.0770184 0.014955 -0.0522137 0.0635206 0.079108 0.0805399 -0.0888019 0.0319798 -0.0135266 -0.120902 0.0551557 -0.0789073 -0.0574828 0.123485 0.0476686 0.0678485 -0.138371 0.00868797 0.0023881 -0.0866269 -0.0313305 -0.169435 0.0669239 -0.124978 -0.102857 0.0805009 -0.000562291 0.00349982 -0.0692772 0.0540182 -0.0618957 -0.0726563 -0.0254882 0.00808554 -0.0400469 0.0745974 0.0240629 0.0847367 0.0510081 -0.0975205 0.0722721 -0.0133405 -0.0537708 -0.115898 0.029757 -0.136951 -0.0190117 -0.0411304 -0.0670645 0.0510091 -0.0576345 0.0255752 0.0636145 0.0574481 0.166885 -0.0888483
Q21 0.139506 0.0177639 0.0687015 -0.107957 -0.087429 -0.0380269 -0.0852552 -0.0445314 -0.0737777 0.116839 0.070858 0.119704 -0.0924584 0.0281197 -0.0799707 0.0516152 0.00354859 -0.0917855 0.0907 0.0688866 -0.0214536 -0.00943701 0.127762 0.0335843 0.00689947 -0.061003 -0.0664167 -0.00229783 -0.0161431 0.0994502 -0.0935866 0.0380462 -0.00281198 0.0544937 -0.0990715 0.0856096 -0.0537483 -0.0290206 0.0974132 -0.0339722 -0.0703422 0.00892514 -0.0683611 -0.0314322 0.0584796 -0.0434114 -0.0646982 0.0445015 -0.00165907 0.111914 -0.143094 -0.0717422 -0.00381213 -0.101454 -0.0276927 -0.0895457 0.0584599 0.105645 -0.0898967 -0.0292769 -0.106273 0.0148594 -0.0198455 -0.0235119 0.0447002 0.0217965 0.0640582 -0.101262 -0.00272592 0.0746613 0.0175248 0.00295218 -0.0803796 -0.110552 -0.0319944 -0.0567314 0.0777494 -0.0897906 -0.00281903 -0.0941119 0.139024 -0.0280763 0.079854 -0.11444 0.0902291 -0.0836451 0.00166112 0.0623787 0.0422493 -0.194365 -0.0320493 -0.0446772 0.0689297 0.0148535 -0.0566627 0.0849504 0.0682537 0.0514796 0.0605443 -0.0132316
Q22 0.0425583 0.0315262 0.0250492 0.0357764 -0.0918749 0.0918194 -0.132129 -0.0127866 -0.0244633 0.186802 -0.124609 -0.0159647 -0.124608 -0.0231898 -0.0641168 0.0961085 0.0204004 -0.0233743 0.200822 0.152595 -0.00982412 0.0247116 0.242557 -0.08611 0.0311463 -0.0536731 -0.076357 0.0112941 -0.121226 0.189986 0.0559946 -0.0930057 -0.0384245 0.0604276 0.00564424 -0.0141949 -0.0611221 -0.0859683 0.0167352 -0.0341583 0.0253762 0.0543592 0.00823285 0.00118054 0.0289481 0.0308343 -0.0308314 0.0390533 0.0912858 0.0917564 -0.133035 -0.00337121 0.00122279 -0.115824 0.0093492 -0.0290152 -0.00899688 0.114394 0.0126195 0.081169 -0.117275 0.0114589 0.015274 -0.115015 -0.0275469 -0.195912 0.19888 -0.100711 -0.0969262 0.0566657 -0.029682 -0.0200418 -0.0456714 0.0355636 -0.122983 -0.0476674 0.00956059 -0.0446289 -0.0380702 0.0221982 -0.0131638 0.0722572 0.0248339 -0.0649636 0.070063 -0.0247784 -0.092407 -0.0606092 0.12708 -0.147972 -0.0223204 -0.0555268 -0.0274851 0.0803807 -0.0476775 0.0772537 -0.00628053 0.0711338 0.136353 -0.0606973
Q23 0.108868 0.0881819 0.0310522 -0.0474925 -0.0927697 -0.0130462 -0.157852 0.0389739 -0.0298226 0.0617211 0.0271233 0.108531 -0.00938412 0.00444658 -0.0499448 0.168447 -0.0328858 -0.114659 0.0419927 0.147771 0.100706 -0.0188693 0.180196 -0.0661713 -0.00632761 -0.0732603 -0.0916808 -0.00761313 -0.0799314 0.127795 -0.121764 0.0473662 -0.0443182 0.0600265 -0.128996 -0.0443489 -0.124703 -0.0345558 0.0425034 -0.0535974 -0.00489833 0.000735278 -0.0302371 -0.104013 0.105856 0.009427 -0.0599339 0.0932576 0.0648502 0.13459 -0.105444 -0.0639443 0.0404343 0.0515256 -0.0210477 -0.086881 0.00352904 0.106093 -0.0907963 0.0326416 -0.105747 0.012418 0.00600641 0.0287016 0.0363497 -0.119834 0.0580533 -0.150584 -0.0231009 0.0130501 -0.00240998 0.0687741 -0.0394239 -0.0399666 -0.0960507 -0.171677 0.06447 -0.130538 -0.0776421 0.046035 0.0677756 -0.062521 0.0944511 -0.124646 0.104284 -0.102649 -0.0739027 -0.0390826 -0.0109708 -0.294728 0.00628749 0.0344159 -0.0505775 0.146849 -0.127628 0.0570151 0.175573 -0.0104069 0.146856 -0.0465524
Q24 0.105224 0.0256084 0.110233 -0.0985334 -0.0762057 -0.0407156 -0.0467254 0.0369631 0.0372149 0.13451 -0.0868122 0.171008 -0.00609298 -0.0161791 0.0112864 0.106266 -0.0998594 0.00457069 0.0988696 0.0353141 -0.0315963 0.0225062 0.0906743 -0.0477317 -0.0379102 -0.0770973 -0.0775468 0.0390822 -0.148155 0.1094 -0.0877429 0.057241 -0.0928612 0.0817805 -0.16999 -0.0101747 0.0610178 -0.0593871 0.0378438 -0.0650565 -0.0825232 0.104432 0.0153403 -0.00594067 0.0522349 -0.0525699 -0.0471962 0.146961 -0.00441469 0.112293 -0.123552 -0.0885659 -0.0244425 -0.144396 0.0513892 -0.0429046 -0.0355598 0.0598826 -0.0485174 -0.0476771 -0.121628 -0.100905 0.0106024 0.0251679 0.0713593 -0.0187866 -0.0201361 -0.137677 0.0414926 0.0860422 -0.0502098 0.0185536 -0.106757 0.0665847 -0.114488 -0.0660555 0.0682145 -0.0312941 -0.0727545 -0.00980526 0.00749492 0.0734207 0.110739 -0.11347 0.0663814 -0.0989832 -0.0986035 -0.023335 -0.025764 -0.141061 0.0129761 -0.0403663 -0.0158718 0.065376 -0.105268 0.0442967 0.184693 0.00347202 0.0501436 -0.0770802
Q25 0.0284693 0.0319481 0.0537645 0.0184746 -0.0476676 0.0400398 -0.149829 0.0532819 -0.0530988 0.158058 -0.0781019 -0.0489721 -0.0582372 -0.0200078 -0.00843841 0.124977 0.0282416 -0.0342995 0.207108 0.144891 0.0130142 0.0242597 0.260974 -0.0895479 0.011643 -0.0470721 -0.0795519 -0.0342066 -0.124768 0.158068 0.0372472 -0.0798463 -0.00984733 0.0814319 -0.0369558 0.0058014 -0.034737 -0.090852 0.0427242 -0.025455 0.0496516 0.0754132 -0.0182826 -0.0956671 0.0481011 0.0220105 -0.04106 0.0894508 0.120738 0.0777675 -0.176047 -0.0011193 -0.0411594 -0.0756021 0.0363995 -0.1031 -0.0431444 0.113108 0.0397431 0.0552535 -0.145973 0.0561206 -0.0122738 -0.103095 -0.0277242 -0.164426 0.124182 -0.147366 -0.118524 0.067827 -0.00423857 0.00972539 0.000929147 0.0476742 -0.102224 -0.0687346 0.00748657 -0.0337029 -0.001817 0.0377804 -0.00472885 0.00525792 0.0703138 -0.064529 0.0979938 0.011562 -0.101617 -0.0316035 0.0323326 -0.196887 -0.0420608 -0.0576235 -0.0597541 0.0801618 -0.0580804 0.0581088 0.0433035 0.0584607 0.128672 -0.0791509
Q26 0.0717921 0.026248 0.111067 -0.0648362 -0.109708 0.0238486 -0.0618089 0.0280402 -0.0366324 0.162474 -0.0386709 0.0426791 -0.0123571 -0.0385413 -0.0453889 0.0787237 0.0160897 -0.0285944 0.115626 0.160767 0.0184774 0.0783732 0.181854 -0.0366183 -0.00256755 -0.0406559 -0.10486 0.0283033 -0.0598651 0.166388 0.0072253 -0.00726559 -0.0390893 0.0872502 -0.112372 -0.0445192 0.0292444 -0.0547633 0.0320689 -0.0494903 -0.00993067 0.0508251 -0.0144205 -0.0916228 0.101153 -0.0909649 -0.116375 0.0781467 0.0620825 0.119372 -0.0738588 0.0328504 -0.0106032 -0.107002 0.0680388 -0.0736574 -0.0356521 0.0509661 -0.0432416 0.0559267 -0.0663521 0.0197173 -0.0223618 -0.02485 0.0744386 -0.11198 0.0791699 -0.133209 -0.062779 0.090828 -0.049051 0.00940399 -0.104631 -0.0254061 -0.0679944 -0.0881181 -0.0205923 -0.0783267 -0.0707805 0.0111219 0.0633117 0.0399464 0.106377 -0.0839133 0.000593165 -0.0571009 0.022687 -0.0802279 0.0250365 -0.179484 0.0105254 -0.0887995 -0.0539042 0.0922615 -0.0794085 0.012295 0.132852 0.0314781 0.139003 -0.0476603
Q27 0.155461 0.0400529 -0.0147576 -0.0584815 -0.129313 -0.0270382 -0.114112 -0.00251238 -0.0252024 0.0558198 0.0258152 0.168586 -0.0410962 0.00959367 -0.077937 0.0904773 -0.165862 -0.00461154 0.0100036 0.0544622 -0.0597883 0.0222927 0.0322296 -0.121289 0.122668 -0.0124821 -0.12689 0.0480097 -0.185377 0.0914992 -0.0260825 0.108697 -0.0895904 0.0396069 -0.120925 0.0888993 0.0685779 0.00712747 -0.0201731 -0.111735 -0.122007 0.0375731 0.0447931 -0.0424449 0.114586 0.0164973 0.00781697 0.0710489 -0.0709235 0.166987 -0.0794571 0.0116215 -0.0332566 -0.0998691 -0.0409697 -0.116801 -0.0176086 0.0448289 -0.0518109 0.0170389 -0.0126533 -0.115333 -0.0781722 -0.0257869 0.0528957 -0.0625763 -0.0084363 -0.0792066 0.0147113 0.152906 0.00646059 0.109286 -0.168099 -0.0818768 -0.0985142 -0.111126 0.0897677 -0.125327 -0.0986616 -0.0999679 0.0484892 0.125858 0.150364 -0.0185721 0.0714869 -0.0545343 -0.0458864 -0.101813 -0.0336031 -0.112336 0.0977616 -0.0576166 -0.0305631 0.120818 -0.0952821 0.064065 0.151282 0.0245376 0.0814707 0.0153722
Q28 0.0939925 0.0696013 0.0613487 -0.0430438 -0.0703813 0.000264581 -0.090295 0.00562362 -0.0797792 0.155271 0.0103627 0.120292 -0.114767 -0.0426173 -0.0842049 0.180818 -0.059045 -0.0508992 0.0967497 0.055348 -0.0733434 -0.0314324 0.170369 -0.101208 -0.00518288 -0.0441432 -0.0576788 0.0381234 -0.108576 0.145982 -0.0164423 0.00229479 -0.0536379 0.0977068 -0.116122 0.0453094 0.0451984 -0.012252 0.0774332 -0.0695975 -0.0650888 -0.0318389 -0.0541228 -0.0517042 0.127378 0.00703064 -0.083619 0.0851478 0.00999349 0.107524 -0.134249 0.0276767 -0.0321243 -0.117888 -0.0200787 -0.124142 0.0199906 0.0582783 -0.0524461 -0.00859863 -0.107042 -0.0216758 -0.0145171 -0.0740165 0.0173712 -0.0649758 0.0628374 -0.0880569 -0.038606 0.0647184 0.0103867 0.104486 -0.159817 -0.0712819 -0.0444795 -0.0288405 0.0153322 -0.150525 -0.064107 -0.000456122 0.0702748 0.0371245 0.12528 -0.0735749 0.0742448 -0.038067 -0.0257719 -0.0161997 -0.0385509 -0.195931 0.0209351 -0.0491623 -0.0348521 0.0826104 -0.0628906 0.0564564 0.168183 0.0399933 0.0706684 -0.0275361
Q29 0.0682468 0.0209938 0.0467316 -0.0852715 -0.116073 -0.051864 -0.0911128 0.0733075 0.0867684 0.116302 -0.145407 0.0193983 -0.0892049 -0.0154262 -0.0168863 0.12186 -0.0353347 -0.0654818 0.154323 0.13868 0.0137259 0.0368987 0.15232 -0.108073 -0.0606175 -0.0109872 -0.0148099 0.014486 -0.224519 0.142495 -0.0629299 -0.0134085 -0.0452179 0.0520424 -0.0215294 0.0218714 -0.0154655 -0.0807157 0.062009 -0.0380612 -0.0420674 0.110555 -0.00692983 -0.0182684 0.105695 -0.0690804 0.0234811 0.0517056 0.0298065 0.0609732 -0.113116 -0.00144016 0.0295643 -0.0573646 0.0882976 0.0644667 0.0225304 0.103638 -0.0835733 0.00712418 -0.0230926 -0.0866518 -0.0113993 -0.0236579 -0.0241039 -0.160744 0.035192 -0.152157 0.0109952 0.0513409 -0.0235211 -0.0282867 -0.0831934 0.0893193 -0.157315 -0.0685471 -0.000137137 -0.0429999 -0.0287987 0.0521913 0.00890273 -0.00429362 0.0714886 -0.0798674 0.127455 -0.0122293 -0.037675 0.000745517 0.12239 -0.0446713 -0.00520391 -0.0438389 -0.0200963 0.105768 -0.0144536 0.0779621 0.0575363 0.0913283 0.127211 -0.137378
Q188 0.155688 0.0390554 0.0578394 -0.0495719 -0.132469 -0.0827488 -0.0473499 0.0351624 0.0249691 0.109518 -0.0246692 0.0780368 -0.0183686 -0.0368737 -0.0447157 0.155683 -0.0233023 -0.0631512 0.0855568 0.0237288 -0.0148534 0.00744054 0.113161 -0.0599745 0.00320089 -0.0591468 -0.0638955 0.0666875 -0.188609 0.112826 -0.00953872 -0.0116222 -0.0400567 0.128177 -0.0861441 0.0087481 -0.068515 -0.0818991 0.0452716 -0.123522 -0.126699 0.119154 -0.0479347 0.0168071 0.0753193 -0.0384055 0.0136279 0.0965157 0.0352257 0.110763 -0.101759 -0.0360233 0.0298196 -0.0433183 0.00499912 -0.109463 -0.0572531 0.0439289 -0.0713103 0.0968925 -0.062858 -0.0281799 -0.151773 0.0257466 0.0491756 -0.0522357 0.0200397 -0.143773 0.0530977 0.0835743 -0.00475832 0.0166171 -0.129674 -0.0594772 -0.189416 -0.149761 0.0250397 -0.0697737 -0.107537 0.0109392 -0.00136246 0.112279 0.0931462 -0.120712 0.109199 -0.0145432 -0.0164149 -0.0137708 0.0306098 -0.0830269 0.0654682 -0.0727272 -0.0134325 0.0968046 -0.0682203 0.016956 0.0982441 -0.0232064 0.0965944 -0.085017
Q189 0.103969 0.0619353 0.0737403 -0.0564069 -0.11102 -0.0419854 -0.0920115 0.0527867 0.0343437 0.107307 -0.133119 0.00731849 -0.0492285 0.0211894 0.0532915 0.0783381 -0.0421585 -0.00810741 0.131522 0.13918 -0.0518026 0.021548 0.156652 -0.103268 0.0149301 -0.0151917 -0.0319187 -0.0196813 -0.1772 0.0943157 -0.0185817 -0.0251176 -0.0177589 0.0597687 -0.0477052 -0.00345609 -0.0616709 -0.0558659 0.0051395 -0.0279951 -0.044078 0.0864808 -0.0164096 -0.0433748 0.0944482 -0.0583841 0.0309385 0.0637849 0.0139995 0.0675075 -0.0791615 -0.0015606 -0.0297213 -0.0819285 0.0495831 -0.064894 0.0235567 0.0817678 -0.0622686 0.0306659 -0.0867169 -0.0327372 -0.0320548 -0.0728425 -0.000982518 -0.142283 0.0198892 -0.0971447 -0.0127156 0.0958382 -0.00112693 -0.0109078 -0.0690081 0.102649 -0.124993 -0.0741614 0.00956183 -0.0280503 -0.00101871 0.0163562 0.0254644 -0.0229815 0.026841 -0.0485679 0.121067 -0.0309062 -0.0173642 -0.0229632 0.105332 -0.110689 -0.0422637 -0.0922708 -0.0724533 0.102905 -0.050048 0.0433158 0.0664094 0.0726291 0.14499 -0.0745962
Q186 0.0582637 0.0741962 0.0528767 -0.0222223 -0.0112892 0.0737671 -0.120074 0.0306824 -0.0125999 0.0903461 -0.0493589 -0.00111501 -0.049092 -0.0450194 -0.119294 0.158428 -0.0215095 -0.0323435 0.0726889 0.105167 0.0413077 0.0313643 0.221841 -0.0318837 -0.00850701 -0.0839212 -0.0414042 0.0313276 -0.084306 0.0713711 -0.04727 0.0165378 -0.0471104 0.0475158 -0.0805783 0.0143499 0.0580685 -0.0637096 0.0489866 -0.0673282 0.0103404 -0.0671194 -0.034887 -0.111803 0.0251866 -0.00199841 -0.0753131 0.0981846 0.0313037 0.0694834 -0.118717 0.00128272 0.0786824 0.0738484 0.0422087 -0.0824478 -0.00668028 0.0774942 -0.0151224 0.0100626 -0.0759011 0.0136696 -0.0149497 -0.0265552 0.0261527 -0.0765275 0.0771143 -0.133925 -0.0438566 0.0364573 -0.0583926 0.0446165 0.0268465 -0.0474686 -0.0364945 -0.0325495 -0.0399881 -0.0610666 -0.0164984 0.0464824 0.0367953 0.0280792 0.100729 -0.0725561 0.0715454 -0.0953741 -0.0676973 -0.0350789 0.0123363 -0.175801 0.000448105 0.0520187 -0.0471456 0.100342 -0.0888436 0.0887745 0.0935491 0.0148447 0.0556627 -0.0617652
Q187 0.193029 0.00609274 0.0755746 -0.0532184 -0.0885566 -0.0721291 -0.0443935 0.0748565 -0.0296905 0.0789728 0.0405118 0.0888025 0.00493786 -0.0166349 -0.0418931 0.133744 -0.0406375 -0.0645318 0.0272452 0.0504739 0.032061 0.0184917 0.154725 -0.0898376 -0.0393934 -0.0585216 -0.144692 0.0176209 -0.0675635 0.0934378 0.0314608 -0.0267183 -0.0669285 0.0363134 -0.096315 0.0445983 -0.0630825 0.00483265 0.0106511 -0.0584642 -0.114856 0.110649 -0.0306636 -0.0157041 0.097644 -0.063061 -0.0313381 0.0931853 0.0415028 0.132744 -0.0650339 0.0584283 0.00229645 -0.120946 0.0076993 -0.140721 -0.0481368 -0.00561728 -0.138172 0.0914709 -0.0733456 0.015999 -0.116593 -0.0397028 0.0784355 -0.051149 0.0222862 -0.0399911 0.0251812 0.136423 -0.0302822 0.0440757 -0.0882735 -0.0305412 -0.185682 -0.0744635 0.0759386 -0.126516 -0.0531604 0.0206103 0.0251747 0.025107 0.139634 -0.0393006 0.0778396 -0.0464693 -0.0294396 -0.0466025 0.0610313 -0.131659 -0.00371503 -0.15073 -0.0741285 0.111493 -0.0488919 0.0884314 0.100902 0.0387284 0.0932255 0.0037521
Q184 0.129803 0.0502336 0.135783 -0.0865082 -0.0287189 0.00234413 -0.104591 0.0537439 -0.0130991 0.096086 0.0259834 0.0549525 -0.0381842 -0.0219506 -0.0566286 0.116051 0.0204276 -0.0932745 0.0494971 0.0995488 0.0936141 -0.0107913 0.220838 -0.0357459 -0.0408058 -0.0824385 -0.067867 0.0338042 -0.0883317 0.0655024 0.00416855 0.0166538 -0.0522407 0.0427105 -0.106115 0.0145121 -0.0877841 -0.12196 0.0746371 -0.0667155 -0.051367 0.0208758 -0.122919 -0.0696777 0.0801396 -0.0515353 0.0302008 0.160732 0.0124239 0.0862727 -0.111715 0.0101852 0.0409998 -0.0516519 -0.00414209 -0.0242705 -0.00471685 0.0718316 -0.131257 0.0471259 -0.141538 0.0328114 0.000555864 0.030143 0.0524586 -0.0283154 0.0558605 -0.140741 0.0442109 0.131822 -0.0389156 -0.0193172 -0.0303175 0.00468304 -0.0669915 -0.047896 -0.0415261 -0.101877 -0.0131953 0.0487854 0.105263 -0.0258984 0.111336 -0.113035 0.0875358 -0.097475 -0.00906702 -0.0696194 0.0315931 -0.154176 -0.0888841 -0.0855455 -0.0522161 0.101292 -0.0780008 0.0398745 0.0912375 0.0145351 0.0871912 -0.0310591
Q185 0.151595 0.044826 0.0466522 -0.040661 -0.0419737 -0.105307 -0.0867874 0.0169812 -0.0546657 0.0942393 0.00275541 0.0410978 0.0276335 0.0565586 -0.0125441 0.0934303 -0.0753113 0.0102674 0.0595807 0.0978717 0.0390025 0.0113879 0.172014 -0.015531 0.0222218 -0.0371173 -0.0503889 -0.0493249 -0.100665 0.0592466 -0.0657098 -0.0589296 -0.0405112 0.0836202 -0.0620605 0.00641907 -0.0370831 -0.0187353 -0.0175245 -0.0426961 0.0105781 0.0629419 -0.0601921 -0.0575857 0.0861826 -0.068628 -0.0511173 0.137029 -0.00659452 0.0898717 -0.0719672 -3.13563e-05 0.0170921 -0.0881189 0.025473 -0.123566 -0.0648341 -0.0112985 -0.0212322 0.10787 -0.0923055 0.00942255 -0.0291643 -0.0428506 0.0475573 -0.0252445 0.0549404 -0.106954 -0.0493988 0.0561439 -0.047324 0.0140784 -0.0381346 0.0137009 -0.0973976 -0.0797003 -0.00820061 -0.071986 -0.0508773 -0.0124009 0.0302643 -0.0506628 0.0786979 -0.0783221 0.118512 -0.0354693 -0.0399614 -0.0307377 0.112974 -0.167161 0.0390067 -0.111816 -0.0693418 0.0470529 -0.0636043 0.0424482 -0.00245593 0.00696513 0.0978542 -0.0798253
Q182 0.0267538 0.0487537 0.116438 -0.106329 -0.0610138 -0.0269373 -0.0708426 -0.0616117 -0.0204421 0.101704 -0.00128037 0.0833852 -0.11214 -0.0292721 -0.0845469 0.113029 0.058846 -0.133792 0.0877515 0.183788 0.0422837 0.0150689 0.200077 -0.00736922 -0.0490115 -0.0293681 -0.0819328 0.00438601 -0.0517677 0.15778 -0.0881582 0.0213734 -0.00385976 0.101792 -0.042525 0.0617241 -0.0699932 -0.038162 0.0816187 -0.0622152 -0.0187893 0.0410669 -0.0425436 -0.062368 0.10674 -0.0859905 -0.0800111 0.0369493 0.0527552 0.0858788 -0.108331 -0.0482 0.042922 -0.0635998 0.0693581 -0.0219013 0.0565131 0.121414 -0.119929 0.0388119 -0.0549465 -0.00356195 -0.0205185 -0.0240131 0.000287926 -0.074693 0.0924087 -0.114738 -0.0301584 -0.00356447 -0.0100567 -0.0188438 -0.0131153 -0.0735507 -0.0569668 -0.0090879 0.0318315 -0.0984553 0.00516805 -0.0187544 0.105359 -0.0762598 0.0775382 -0.0568773 0.0522817 0.00330782 -0.0255778 0.0558905 0.0726249 -0.158887 -0.0230812 -0.0145451 -0.0393942 0.0514846 -0.0619713 0.0748613 0.0802573 0.112394 0.129243 -0.0654273
Q183 0.00989196 -0.00934621 0.0956283 -0.0246554 -0.157036 0.0630296 -0.103642 0.00817456 -0.0582324 0.242706 -0.0822556 -0.108571 -0.0649989 0.0204507 0.00235303 0.0589709 0.0772203 -0.068223 0.196316 0.22038 0.0467299 0.0400298 0.278305 -0.074267 0.0181027 -0.00363886 -0.0852918 0.0220355 -0.103045 0.237891 0.03283 -0.0984147 -0.0351583 0.126522 0.00114253 0.00675664 -0.056744 -0.0818273 0.0404158 -0.0167558 0.02756 0.108427 -0.0578151 -0.0637278 0.0714054 0.0124998 -0.0864641 0.0136342 0.131021 0.106603 -0.129914 -0.0080816 -0.0117227 -0.114356 0.106445 -0.117595 -0.0492515 0.139806 0.0319765 0.107762 -0.0724413 0.0754043 -0.0201713 -0.153885 -0.0320655 -0.206496 0.129373 -0.183839 -0.144748 0.0563538 -0.0103474 -0.0431019 -0.03116 -0.000429451 -0.0912993 -0.0655366 -0.0268323 -0.0735218 -0.0306498 0.0528117 0.0163772 0.0552701 0.0190965 -0.0832479 0.0615095 0.0197868 -0.0289385 -0.115235 0.068912 -0.157001 0.0352967 -0.0623103 -0.0359119 0.0593545 -0.0472111 0.0309325 0.0348788 0.0756992 0.188865 -0.0996836
Q180 0.148402 0.0117746 0.124648 -0.0568859 0.0269118 -0.0443051 -0.115338 0.0427851 -0.0219231 0.135128 -0.0400788 0.0513635 0.0284013 0.0529249 -0.0431368 0.139329 0.0217708 -0.0776297 0.0999103 0.038995 0.0105922 -0.0248839 0.233862 -0.0165075 -0.00337985 -0.0999946 -0.0348984 -0.0268926 -0.0433075 0.136284 -0.0396429 0.0422031 -0.00917433 0.0696817 -0.126643 -0.0170096 0.00586471 -0.0774261 0.0441932 -0.0505197 -0.037851 0.0376624 -0.12211 -0.0477351 0.0794742 -0.138538 -0.0236911 0.0894323 0.0567348 0.053846 -0.0603712 0.0184191 0.0364907 -0.0926564 0.0293464 0.000628255 -0.0204502 0.0348742 -0.0891172 0.0255246 -0.0840608 0.0317492 0.0358804 -0.00813127 0.0330482 0.0267605 0.0402829 -0.102073 -0.0909017 0.0773265 -0.0358578 -0.0107136 -0.0968349 -0.00214435 -0.0561143 -0.0192758 0.0291961 -0.0259405 -0.0537478 0.0596472 0.0133725 0.0120749 0.12711 -0.122104 0.145627 -0.0878197 -0.0464516 -0.0347442 0.0725964 -0.123621 -0.0516935 -0.0920878 -0.00475267 0.0551494 -0.0172242 0.0214826 0.0417741 -0.0145096 0.0700634 -0.00980025
Q181 0.0703079 0.0251196 0.0338304 0.0105362 -0.0464976 0.0585302 -0.114499 0.0202978 0.0278205 0.205612 -0.185707 -0.0445577 -0.101447 0.0109564 -0.0352423 0.0867141 -0.0200378 0.0137529 0.189836 0.126646 -0.0101861 0.0285068 0.224131 -0.0733887 0.00937076 -0.058611 -0.0570135 -0.027645 -0.104758 0.194769 0.0582687 -0.101091 -0.0467293 0.0287341 -0.00947789 -0.00430464 -0.00252227 -0.0460442 0.00135158 -0.00544459 -0.00136092 0.083498 -0.0225048 -0.00656118 0.0652069 -0.0635292 -0.0135475 0.0607771 0.0611458 0.147444 -0.128123 0.0197653 0.00042509 -0.149944 0.039417 -0.0871665 -0.0453047 0.0596274 -0.011583 0.0862532 -0.107693 -0.00570403 -0.0159707 -0.106563 -0.00793306 -0.128243 0.0945317 -0.135725 -0.11364 0.058131 -0.0170295 -0.0278959 -0.0892078 0.0771405 -0.0751043 -0.0583203 -0.0454063 -0.0177583 -0.0368013 0.0542326 -0.0131168 0.0624445 0.0522657 -0.0741117 0.092754 0.0214344 -0.0716611 -0.0597501 0.0961068 -0.160409 -0.018855 -0.0930283 -0.0484795 0.043996 -0.0216421 0.0470074 -0.0279345 0.0665579 0.154774 -0.0673596
Q106 0.0461549 0.0276985 0.145932 -0.0472 -0.072731 0.0429863 0.00473427 0.0823695 -0.044112 0.125554 -0.0814946 -0.0342248 0.104686 -0.00627506 -0.00614444 0.0947766 0.0785522 -0.0257 0.107932 0.240559 -0.00845984 0.0170214 0.255036 -0.0465715 -0.0281748 -0.0290564 -0.0913068 0.0385927 -0.105278 0.0398201 0.0643787 -0.0112127 -0.101083 0.120025 -0.161799 -0.0685813 -0.083228 -0.0894476 0.00634962 -0.0539386 -0.038812 0.0390362 -0.0446584 -0.116383 0.105721 -0.0579894 -0.0338453 0.0810166 0.0899091 0.00381259 -0.0215439 0.0318135 0.0208532 -0.0309223 0.070436 -0.0716167 0.0202562 0.164075 -0.0118017 -0.0139772 -0.134061 0.0362663 0.0144127 -0.0352704 0.0371576 -0.195933 -0.00949511 -0.11865 -0.0548967 0.139879 -0.00305591 -0.0646695 -0.0392387 0.0853146 -0.115202 0.00643172 -0.024819 0.0741614 -0.0246675 0.0690261 0.106877 0.023226 0.122589 -0.0708279 0.0294329 -0.0825161 0.00344573 -0.0860263 0.0966722 -0.0553829 -0.051294 -0.0492542 -0.0687817 0.101176 -0.0773065 -0.0458692 0.104468 0.0535855 0.161959 -0.0440613
Q107 0.173284 0.0597593 0.155063 -0.109233 -0.098934 -0.0127755 -0.1033 0.0406771 -0.0268079 0.108556 -0.00847156 0.0746926 -0.149025 -0.0108742 -0.0166812 0.115329 -0.0353983 -0.106641 0.117096 0.17722 0.0166434 0.0400876 0.215415 -0.0568863 -0.00208138 -0.0253702 -0.0502242 0.0390261 -0.126076 0.18382 -0.0567096 0.00661821 -0.0210187 0.0564987 -0.0831286 0.11519 -0.0591063 -0.0909651 0.0969862 -0.0541584 -0.109941 0.0721358 -0.0612523 -0.0436208 0.0778588 -0.0176005 -0.0263675 0.115078 -0.0197968 0.0430842 -0.126564 0.0201074 -0.0899245 -0.151363 0.0567669 0.00829124 -0.010299 0.094448 -0.0798843 0.00705908 -0.116437 -0.0320371 -0.0134355 -0.0927327 -0.0337599 -0.0673138 0.0718069 -0.134743 -0.0219847 0.145144 -0.0196895 0.0124864 -0.0836987 0.000303481 -0.0914663 -0.0273873 0.057394 -0.0791995 0.0328553 -0.000100921 0.07982 -0.010796 0.133669 0.0184411 0.0281333 -0.0593664 -0.0198164 0.0454109 0.0344324 -0.105369 -0.0137489 -0.0457109 -0.0295075 0.116233 -0.0571237 0.0921709 0.139384 0.0856731 0.131885 -0.0774499
Q104 0.0695062 0.047776 0.138327 -0.121253 0.00813982 -0.0586517 -0.0551333 -0.0225071 -0.0244569 0.0514367 0.0528714 0.132821 0.000999147 -0.041999 -0.0572479 0.108422 0.00235459 -0.0872057 0.0363733 0.0262125 0.0525626 -0.0106938 0.0675528 0.0688713 0.00838758 -0.0320778 -0.108707 -0.00638326 -0.0558316 0.0725741 -0.0592844 0.101607 -0.00761038 0.042462 -0.0817475 0.0125542 0.00723664 -0.0541496 0.00582395 -0.0646235 -0.0204976 -0.025848 -0.075954 -0.0615279 0.073686 -0.0751544 -0.054509 0.084616 0.0049582 0.0749572 -0.103849 0.00630752 -0.00299166 -0.0555895 0.0363522 -0.022864 -0.0204215 0.0487625 -0.132114 -0.00454515 -0.080491 -0.0534907 0.00619242 0.0585817 0.0820463 0.0745353 -0.0349169 -0.124539 -0.045567 -0.00316589 -0.0030337 0.0089555 -0.102532 -0.0520369 -0.00453201 -0.0675373 0.0578586 -0.0886121 -0.065064 -0.0411874 0.01038 0.0053268 0.0762801 -0.141773 0.163146 -0.0444527 0.0255226 -0.00538621 0.033164 -0.091923 0.0391851 -0.0941847 0.0563784 0.0436395 -0.0217993 0.0221806 0.0935184 0.00630694 0.0420632 -0.0718266
