3167 100
Q117 0.028776 -0.036591 0.0557797 0.0478818 -0.0590863 -0.0136106 -0.00582898 0.00409219 0.0356714 -0.0645003 0.0374098 0.0119143 -0.134737 0.0479203 -0.10344 0.0608479 -0.117013 -0.0452682 0.0837071 -0.116961 -0.122241 0.103671 -0.0638382 -0.0207726 0.00736732 -0.0251591 -0.0472206 0.125434 -0.0873438 -0.0487776 0.00661829 -0.0222946 -0.0670079 0.0321507 -0.0065052 0.0695978 0.0598052 0.152312 0.0039533 -0.0156934 -0.125122 -0.0112218 -0.0238191 -0.0726219 -0.0411812 0.0583476 -0.0472286 0.0414054 -0.0685073 -0.0130335 0.00832473 -0.0969596 0.0654763 0.0132689 0.028733 -0.028531 -0.115388 -0.00377752 0.0179463 0.0443491 0.0662633 -0.0171647 0.0299818 0.0909722 0.0949967 0.0374288 0.0262191 0.0185458 0.176642 0.0834324 -0.0845169 0.0336342 -0.226576 -0.16498 0.0445577 -0.0545208 -0.120089 -0.0619551 -0.0100105 -0.117109 0.0443943 0.113842 -0.065076 0.0285182 0.0135522 -0.087504 0.0200765 0.0077725 -0.105807 0.0307856 0.104073 0.0264234 -0.0584681 0.0350059 -0.0942189 0.0792331 0.0537075 0.0277989 -0.0351823 0.110605
Q116 -0.0200557 -0.0384787 -0.0609954 0.0800828 -0.042628 -0.0900657 -0.0669993 0.0800403 0.0799027 -0.0563633 0.0531093 0.0568194 0.00834495 -0.180939 0.0125263 -0.028472 -0.00688992 -0.150813 0.0223223 0.101676 -0.121095 0.171625 0.040997 0.0776348 0.19184 -0.0900525 0.191868 -0.0510705 -0.125469 -0.0790793 -0.0241348 0.0777959 0.0637067 -0.0669217 -0.0473152 0.0801532 -0.0500207 -0.00940678 0.0937244 -0.132209 -0.0380779 -0.0827054 0.00548312 -0.0435298 -0.0755263 -0.0983731 0.102784 0.000826331 0.0659504 0.0117619 0.086457 -0.0343239 -0.0604438 0.079424 -0.0258098 0.018775 -0.0135774 0.0980296 0.0829887 0.0655996 -0.0725182 0.0210637 -0.114209 -0.0824306 -0.0411483 0.137069 -0.0315261 -0.0517796 0.191887 0.0504605 -0.115909 0.109334 -0.0368016 0.0114421 -0.122686 0.0657134 0.191196 -0.0905366 -0.0399549 0.0252773 -0.0886278 -0.00629972 0.0770189 0.0683868 -0.0489997 0.0414832 -0.0378117 -0.0665635 0.034827 0.0437899 -0.0805371 -0.0698569 -0.0288364 -0.0242356 -0.0850874 0.00122316 0.0278149 0.163986 -0.0125588 0.0290208
Q200 0.110407 0.0695781 -0.0190488 -0.0223506 -0.0559529 -0.0194229 -0.0163722 0.0399893 0.0906556 0.0873442 -0.0784531 0.103306 -0.00789749 0.03564 0.13945 0.00452245 -0.0987042 0.0710162 -0.0283918 -0.121147 -0.0472658 -0.066671 -0.102643 0.0941708 -0.181548 0.001775 -0.0358552 -0.0595768 -0.021014 -0.10968 -0.186069 -0.0308739 -0.0710093 -0.149134 -0.144557 -0.0435591 0.156304 0.0117296 0.0275363 -0.0609529 0.0488288 0.134451 0.0680747 -0.00518753 -0.170546 0.0285885 -0.0767565 0.0435547 -0.0794859 0.232147 -0.0300358 -0.184599 -0.0592251 0.0626575 -0.0668862 -0.014069 -0.115138 -0.0135478 0.0617021 -0.103974 -0.00635328 -0.053169 0.0171058 0.048758 0.0533317 0.208699 -0.198318 -0.112167 0.128798 -0.145306 0.0528493 0.029329 0.00120337 0.117845 0.0108036 -0.117501 0.128986 -0.00960203 -0.08216 -0.119738 0.00542347 0.0670788 0.0240591 -0.00986507 -0.0585633 -0.0687076 -0.0960811 0.0630444 -0.0282101 -0.0387128 -0.0241206 -0.0612824 0.0443558 -0.0863931 -0.0176919 -0.0310276 0.0194117 -0.179868 -0.0372193 -0.0994993
Q51 0.115106 0.0293323 -0.0632988 -0.0125499 0.0607881 -0.0284046 0.00333874 0.0509677 0.0653756 -0.135774 -0.0347473 0.0497554 0.0545075 0.0670137 -0.0579115 -0.0121632 -0.12869 0.0296879 -0.0332119 -0.0704499 -0.0325509 0.0928872 0.020411 0.0798375 -0.0278793 0.0258599 -0.0836929 -0.0170875 -0.0805923 -0.146445 0.0224649 0.0218914 -0.0505869 0.0852254 0.00283309 -0.0229546 -0.0461869 0.0706119 -0.0776687 -0.0959797 0.0732374 0.049842 0.00875191 0.0438681 0.0384531 -0.0317608 -0.0706843 0.172328 0.00338451 -0.0571202 0.0493252 0.0592357 0.0607913 0.0225842 0.101326 -0.00346529 -0.0925681 -0.151157 0.0153855 -0.0245143 -0.0133189 -0.106951 -0.15075 0.0256805 0.0082425 0.0264345 0.0131303 -0.00972418 -0.0882602 0.0629824 -0.00428241 0.00593442 -0.0609178 0.108016 -0.0503819 -0.0534535 0.0474668 -0.0268342 -0.0282875 0.0322034 -0.0970879 0.0141223 0.0933629 0.0034887 0.0745578 -0.026021 0.0140789 0.0160558 -0.158911 -0.126823 0.020112 -0.0445528 -0.130127 -0.0185267 -0.0345268 -0.0333805 0.00353274 -0.0528315 -0.0437158 0.0285957
Q50 -0.0543811 0.0314604 -0.0498642 0.11204 -0.0880116 0.100806 0.00102705 -0.0859684 0.00177388 -0.0166247 -0.128627 -0.111787 -0.0873993 -0.0333514 0.0158745 0.0334365 -0.0107731 -0.000187363 0.0837432 0.0368778 0.0239958 -0.0403808 0.0447078 0.0213865 0.0988803 0.022766 -0.0239631 0.0106279 0.0737067 0.0774765 0.149761 -0.0802126 0.0131682 0.0351817 0.0500713 -0.0192418 -0.0203436 0.00654726 -0.00721542 0.0787742 0.0197876 0.0364091 0.0627748 -0.050412 -0.0475379 0.0158639 -0.00640453 -0.0353603 0.00485849 0.0133536 0.0421582 -0.0112254 -0.0293676 0.0306072 0.0190607 -0.015157 -0.0171074 0.141963 0.0648435 0.0930753 -0.0657534 0.126477 0.0347858 -0.0647319 -0.0760506 -0.107673 -0.0524225 0.0551355 -0.0669006 -0.00334145 0.0628561 0.0339971 -0.0173237 0.147876 0.0237479 0.0370717 -0.0319828 0.0837364 -0.076813 -0.0078848 -0.0663786 0.0399928 -0.0575723 0.0605931 0.00223955 0.0132602 -0.0196282 -0.0134622 -0.0784622 -0.00512032 -0.036886 0.0350749 -0.0547406 0.0144923 -0.0357612 0.0466165 -0.0710288 -0.0019436 0.0316078 0.00114092
Q53 0.0865148 -0.0475046 -0.0755284 -0.054744 0.010774 0.0701421 -0.00661332 -0.11483 0.00049933 0.00740511 0.110613 0.0585337 -0.0376144 -0.0131887 -0.0742058 0.0410247 0.145628 0.0116223 -0.0122832 -0.023594 -0.0909317 0.0819552 0.0603943 0.0394233 -0.127193 -0.156743 -0.0580018 0.0346594 0.119766 -0.0976413 -0.0924857 0.0597371 -0.0389612 -0.0363144 -0.0626788 -0.0789273 0.175101 0.0539181 0.128404 -0.102074 -0.0134343 0.0727764 0.132713 -0.146035 -0.113637 -0.061949 -0.100309 -0.0194447 -0.000942283 -0.011086 -0.0337774 0.120015 -0.0616411 -0.135911 0.0102236 -0.125285 -0.0771335 -0.13761 0.171307 -0.0620348 -0.0723714 -0.00204002 0.00846796 0.0395178 0.106613 0.127293 0.00383079 0.026673 -0.0194532 0.0523965 -0.145211 -0.01482 0.0476161 -0.0348111 0.0667465 0.00852892 -0.00863608 0.0600802 0.0461703 0.073527 0.123836 0.0589485 0.0134795 -0.159877 -0.0703923 0.0166575 -0.0281672 0.134405 -0.0341759 -0.0372641 0.0153392 0.104156 -0.0505069 0.0321401 -0.0727843 0.0221583 0.131977 0.0961699 0.0455854 0.0787545
Q52 -0.0441323 0.0294132 0.167275 0.00547971 0.124333 0.0992092 0.0311016 0.0663583 0.0434584 -0.0303315 -0.0269207 -0.0438979 0.132946 -0.0308565 0.0342583 -0.045729 0.0351719 0.0988488 0.124901 0.0628359 0.00314256 -0.0423786 -0.018197 -0.159822 0.0945736 -0.027454 -0.0619358 -0.0248366 -0.106521 -0.115755 0.0700197 -0.0140261 0.0291006 0.103897 -0.023026 -0.0199173 -0.0755991 -0.0373162 -0.130768 0.0116828 0.109444 -0.0413676 0.0580105 -0.218731 0.0485086 0.00604033 0.0788794 0.00665308 0.0979263 -0.100666 -0.0210373 0.026321 -0.0471431 0.0499119 0.00776677 -0.0523391 0.0141247 -0.0785917 0.0182794 -0.0325283 -0.034165 -0.0411776 -0.0409483 0.0773973 0.0258585 -0.0753896 0.00447025 0.0470878 -0.0313611 0.0514299 -0.0637943 -0.114136 0.0886452 0.0381221 -0.0778902 -0.0758555 -0.0153217 0.060533 0.0174027 -0.0255932 0.0120797 -0.0219599 0.0293466 0.0385929 -0.029474 0.00832856 0.023109 -0.0118316 -0.0433611 0.00712375 -0.0470328 -0.018705 -0.0201985 0.0368685 -0.0178128 -0.0211211 0.0096933 0.0784239 0.0459433 -0.108164
Q55 0.159817 0.00709876 0.0991629 0.0798965 -0.0468086 -0.00888417 0.0467154 0.0352643 0.0707605 0.139932 0.147413 0.0115316 -0.0524383 -0.0157176 -0.0888594 0.0470099 -0.0888991 -0.0238937 -0.168342 0.0158443 0.0547535 0.0614919 0.00739654 0.0856698 0.0963531 -0.104415 0.025845 0.0154848 0.108208 -0.145953 -0.174937 0.131381 0.0329412 0.0233808 0.0101598 0.0107508 0.00894337 -0.0742874 0.0842464 -0.0541291 0.0357876 0.0315408 -0.167893 -0.0933997 -0.0219253 -0.118813 0.029407 -0.182499 -0.0206724 -0.0809243 0.128627 -0.0711564 0.106161 -0.00580215 -0.0348355 -0.0269405 -0.035111 -0.0303877 -0.154374 0.0371884 -0.00565068 -0.0033686 0.0301595 -0.102957 0.0349034 0.115979 -0.0257652 -0.010892 -0.0140069 0.00179339 -0.0816319 -0.0687013 -0.00497411 -0.118774 -0.0452429 0.0463478 -0.0056584 0.0679685 0.0454735 -0.0412537 0.0638574 0.120938 0.121501 -0.0219839 -0.0640579 -0.132311 -0.142269 -0.0355356 0.0684441 0.164279 0.119349 -0.0669898 0.163679 0.0153079 -0.0924801 0.169391 -0.0527333 0.0722067 -0.165294 0.0476333
Q54 -0.0629659 0.0891121 0.0568421 0.0582975 -0.0552422 -0.0210714 -0.0789575 0.0733159 -0.00209042 -0.0590969 0.0684352 0.00275562 -0.066964 -0.0689519 -0.0909957 0.0304426 0.00648086 -0.097148 -0.0196986 0.084489 0.0440394 -0.0504095 0.0300948 -0.0799382 -0.0526153 -0.021117 -0.0885176 -0.0339115 0.0265306 -0.0599486 -0.0501553 -0.0286341 -0.110291 -0.0816275 0.121999 0.0969085 -0.0524402 -0.0338018 0.0255245 -0.0499731 -0.0888462 -0.0087546 0.131481 0.0433757 0.158826 -0.117575 -0.0245871 0.0339359 -0.0226234 0.077885 0.0333068 -0.134622 -0.0939792 0.0952923 -0.0180675 0.061065 -0.00542905 0.0913766 0.0557916 0.0757526 -0.0720965 0.0854217 0.0271938 -0.0855905 -0.136972 0.039411 0.000469342 0.0203776 0.0498334 0.00799986 -0.0687549 -0.00219798 -0.122908 -0.0234062 -0.051429 0.106006 0.0234407 0.0285417 0.0254836 -0.00849454 0.0627579 -0.110457 0.0028566 0.108114 0.17349 0.178493 0.0182706 0.101603 0.0590494 0.143314 0.0329185 0.0721507 0.0536314 0.118084 -0.0482835 0.0711419 -0.0375285 0.0300375 0.121669 0.0316683
Q57 0.0271767 0.039484 0.052513 -0.0549545 -0.0187128 -0.0507431 0.0331824 -0.0773202 -0.068553 -0.140704 0.0969512 0.0611019 0.054763 -0.00961477 -0.0345025 0.08348 -0.0578328 -0.0689768 -0.102917 0.00657317 0.0302393 -0.0151171 -0.00883714 0.000268714 -0.0330241 -0.0790669 0.0580888 0.0945533 -0.0244914 -0.0732998 -0.100865 0.0846 -0.025729 -0.0214449 0.0589391 0.0660381 -0.0580922 0.0128534 -0.0639407 -0.0424947 0.0359398 0.0503352 0.0680352 -0.0140236 0.0559866 0.0569455 0.00348532 -0.0456284 -0.0376622 -0.00713914 -0.0294988 0.0381127 0.0976211 0.0319405 0.0822831 -0.120693 -0.0367371 -0.0303047 -0.0473379 -0.00305605 0.00230025 -0.0140264 0.0971577 -0.0406583 -0.103593 0.0427897 0.0163014 0.0521097 0.0397749 -0.043234 -0.0458924 -0.018998 0.0579302 -0.105942 -0.00589648 -0.0292769 -0.0730507 -0.0993045 -0.0336657 -0.0607351 0.171336 0.0157018 0.0294594 -0.0128844 -0.0151372 -0.0142493 0.07018 0.0388242 0.0245332 0.0165409 -0.0341795 -0.0196064 -0.0375408 0.0271015 0.00750781 0.0172308 0.00425387 -0.0880149 -0.0617854 0.037367
Q56 -0.00826097 0.197118 0.118074 0.00273094 0.0139284 -0.0057839 -0.0967237 -0.0118099 0.10553 -0.131814 -0.0553382 0.0315226 -0.0421135 -0.120683 -0.0437105 0.132832 0.0547241 0.0145755 -0.0787765 0.0259958 -0.0281259 0.0458502 0.105847 -0.0288683 0.077285 -0.00822608 0.0142336 0.109429 -0.00715905 0.0304638 -0.0108951 0.00826516 0.000886317 -0.0562792 0.100721 -0.0126838 0.0476073 -0.0345167 -0.0417911 0.120462 -0.00761255 -0.0215282 -0.0653947 0.00999801 0.00689299 -0.0143534 -0.0466961 -0.0120237 0.0154619 0.00466228 -0.0252747 -0.0994904 -0.0420931 0.106435 0.0356005 -0.0327681 -0.0459345 0.0807862 0.0336984 0.0441622 -0.0369993 0.0127285 0.00712599 -0.0321274 -0.0765775 -0.0171164 0.0226178 0.0879429 0.0752744 0.0934633 0.00814663 0.107431 -0.0305834 0.092346 -0.0961156 0.0438837 0.0740073 0.0456918 -0.0514237 -0.0102961 0.00313093 -0.039899 -0.0622408 0.0861051 0.029371 -0.0472543 0.0781283 -0.0561676 -0.0397142 0.072407 -0.0119423 0.0582276 0.0825751 0.0345968 -0.130719 -0.00636938 0.0580792 0.0255528 0.143908 -0.103274
Q59 0.0189573 0.0920278 0.0769178 -0.048802 -0.0224187 -0.0145347 -0.0978781 -0.0244424 0.034828 -0.0900754 -0.00385983 0.122899 -0.0144289 -0.117842 -0.0656642 0.0999887 0.0222352 -0.046033 -0.128936 0.0379646 0.0856968 0.0692813 0.00658236 0.0343998 -0.0219021 0.00773893 -0.0514153 0.0227611 0.0555296 -0.020014 -0.104961 0.0254612 -0.0446758 0.0184263 0.0990193 0.0766522 -0.0626023 0.0108566 0.00604987 -0.0548408 -0.0479235 0.0362848 0.0431784 -0.0465232 0.132172 0.010883 -0.0869537 0.0446108 -0.0836542 -0.0407581 -0.0176964 -0.151524 -0.0343939 0.231679 -0.0957772 0.0263809 -0.0602684 0.0161988 -0.0781689 0.0251599 -0.0829888 0.0419279 0.0919069 0.0951376 -0.0696536 0.112355 -0.0692862 0.0496106 0.181331 0.00599745 -0.0371628 0.0805453 -0.0142313 -0.0421107 2.23445e-05 -0.0425869 0.0147581 -0.0597355 -0.00688845 -0.0733124 0.0487101 -0.124847 -0.0428332 0.0948646 0.0356451 -0.00243502 -0.00694797 -0.0406607 -0.0433323 0.0977675 -0.0656317 0.110267 -0.0705858 0.0770458 -0.00686902 0.00445278 0.0321826 0.0889849 0.13485 -0.0150943
Q58 0.110509 0.0304312 -0.00433368 0.115048 0.0361486 -0.0300326 0.0925341 0.171432 -0.0294069 0.053999 -0.171139 -0.0430036 0.147085 -0.0849559 0.0516936 -0.019101 -0.0321915 0.00623595 -0.0546116 0.112267 0.0376903 0.108574 0.0716667 0.0265469 -0.122577 -0.0270541 0.0340974 -0.0455118 -0.0579237 0.103726 -0.00903174 0.0638856 -0.0790322 0.0339768 -0.0115167 -0.0321439 0.0284029 0.0692126 -0.0311376 -0.0168401 -0.0233105 -0.112016 -0.0175224 -0.122515 -0.0395405 -0.103371 -0.00939958 0.0745261 0.0925337 0.00455024 0.137228 -0.0487419 0.110273 -0.0395962 0.0388815 0.0135261 0.00647147 0.0363912 0.0365086 -0.110021 0.0273457 0.0909461 -0.0214737 -0.0547447 0.0727166 -0.0548609 -0.102592 -0.0695996 -0.0540072 0.186909 -0.0434213 0.00167796 0.0181875 0.0883894 -0.0108347 0.0226391 -0.00837415 0.0351332 -0.0514229 0.0699265 0.0203249 -0.0215975 0.00911444 0.120746 -0.0613168 -0.0619268 -0.0222193 -0.0181783 0.0552777 0.0619841 -0.0617457 0.0361089 -0.0216574 0.0283207 0.0585149 0.00335816 0.0602709 0.015796 0.0615134 0.0804803
Q148 -0.0731825 0.018439 0.0891828 -0.133072 0.0220504 -0.0172854 -0.0344259 0.117597 -0.0476272 -0.0700663 0.0219357 0.0291915 0.0885083 0.00391988 -0.0905342 0.10223 -0.00586392 0.0466806 -0.0514028 0.00780322 -0.0963733 -0.0425426 0.00962723 0.0395648 0.123115 0.0259531 -0.0831593 -0.0212657 -0.0106412 -0.0168036 -0.0654217 0.150455 0.0150354 -0.0688256 -0.059519 -0.0161037 0.0599568 0.0902514 0.0749828 -0.0267431 0.0928837 0.0293994 -0.071537 0.0537087 -0.0171966 0.0215904 0.052891 -0.0838454 0.0293137 -0.0790114 0.0285106 -0.0407999 -0.0336091 0.089369 0.107178 -0.0557119 0.0689671 0.0943756 -0.0281858 0.00112928 -0.184067 -0.0299385 -0.159161 -0.04566 -0.0950265 0.0608779 -0.00691993 0.0454427 -0.0280494 -0.108896 -0.0179656 0.00329144 0.0707114 -0.141916 -0.0385024 0.015041 -0.0395039 0.063643 -0.0335524 0.120732 -0.0215148 -0.0139343 0.128302 0.037851 0.0222058 -0.0444974 -0.0512459 0.0935708 0.130543 0.0427675 -0.113284 -0.00699384 -0.073858 0.105704 0.0414249 -0.0524191 -0.123892 0.0304653 0.0310426 0.0544702
Q149 0.121597 -0.0253403 0.00681781 -0.0348058 -0.00899894 -0.155822 -0.0482165 0.0114013 0.0595384 -0.0739524 0.117779 -0.0663693 0.113529 0.113327 0.0911882 0.0527733 -0.013472 -0.045818 -0.0704279 -0.128659 0.0190189 -0.047313 -0.119132 0.0449486 0.0390172 0.0768941 0.0293515 0.0465789 0.0633054 -0.145858 -0.23258 0.000741097 0.126837 0.0536413 0.00794871 0.0424772 -0.109835 0.0305781 0.0738967 0.0137649 -0.0432488 0.0298174 -0.0861149 -0.0031107 0.0238272 0.112764 -0.0621003 0.0533325 -0.198996 -0.0131485 0.0315647 -0.0790625 0.0259786 0.0190535 -0.0592862 -0.0439771 -0.0766359 0.0922503 -0.056901 0.115069 0.030066 -0.00689349 0.0582556 -0.0372996 0.0030814 0.0150233 -0.0351593 0.0335681 0.0514642 0.0632912 0.0156444 0.0971883 0.112056 0.0284269 -0.0706115 -0.055869 0.0700712 0.0361469 0.0276321 -0.043275 0.132071 -0.0615143 0.02512 0.0377758 0.0599732 -0.0633573 0.0819217 0.0631233 0.0113902 -0.0972812 -0.0779081 -0.0273601 0.0305458 0.0673983 0.0584117 -0.0511482 -0.0553566 0.064775 0.0320757 0.0954881
Q145 -0.0746047 0.00483701 0.00633596 -0.0804741 0.0853895 -0.042914 -0.10903 0.107483 0.0124072 -0.0992006 -0.124177 0.0903184 0.163999 0.0260098 -0.0577518 0.134051 0.0414971 -0.0652117 0.039483 -0.00567292 -0.0813447 0.0143301 -0.049456 -0.00365744 0.0577138 0.0861532 -0.0186438 0.0189147 -0.143064 -0.00115854 0.0730014 0.0671369 -0.0219896 -0.0454461 -0.0355538 -0.170473 -0.0105694 -0.0236407 -0.0710322 0.150089 -0.0208763 -0.0631152 -0.0260391 0.0085637 -0.057674 -0.0405569 -0.0253957 0.0683647 -0.023957 0.00329461 0.0802465 -0.0605582 0.0315158 0.118352 0.0553337 -0.0674299 -0.109763 0.034816 -0.00687079 -0.0922873 -0.000997443 0.0322796 -0.110204 -0.0033263 -0.0660231 0.0490774 -0.0120999 -0.0574892 0.0773192 -0.033652 -0.0338346 -0.00168851 0.0132633 0.0341677 0.0133929 -0.0556902 0.0552446 0.141802 0.00098063 0.0483614 -0.0991511 0.0444197 0.0140255 0.123411 0.0543233 -0.063546 0.0661441 -0.0735724 -0.130117 0.0170237 -0.0687711 -0.0101882 0.0863963 -0.0324749 0.0403205 0.0221448 0.0198606 0.0440251 0.0198568 -0.0555689
Q159 -0.00354332 -0.0645049 0.0307584 -0.0145333 0.234434 -0.035332 -0.0676774 -0.0107406 0.0811605 -0.0167006 0.035497 0.127285 0.178813 0.0725127 -0.00302883 0.0295008 0.100279 0.0729209 -0.0425234 -0.163965 0.12768 -0.059862 0.0504904 0.035355 0.0236867 0.0169363 -0.0533538 -0.00252471 -0.042482 -0.231508 0.0715999 -0.0262811 -0.00302265 0.0942225 0.048833 -0.0567123 0.0939623 -0.0237184 -0.0890966 -0.0921243 -0.0372151 0.0541114 0.00389434 0.00958172 0.0392914 -0.0386973 -0.0494862 0.0704024 0.115263 0.0187183 -0.0267711 -0.00055352 -0.105922 0.0607849 -0.00393188 0.0273538 -0.0200863 -0.257778 0.055161 0.0255386 -0.0139531 -0.0842506 -0.135866 0.026877 0.0195513 0.120658 -0.0349628 -0.0285192 -0.117723 -0.0670324 -0.0543495 0.0241181 -0.0100422 0.00835659 0.0112933 -0.164748 0.0705592 0.0114833 0.0122394 -0.0419953 -0.0171184 0.0596789 0.070172 0.104438 0.111642 0.067842 0.0215665 0.0106049 -0.07861 -0.0989114 0.0831941 -0.143868 -0.0936863 -0.0462352 -0.110714 -0.0110485 -0.147004 0.0912995 -0.0447685 -0.0362801
Q158 0.102269 -0.0880383 0.119507 0.108312 -0.0207457 -0.155405 0.0217865 -0.00627247 -0.0349638 0.039758 -0.0166276 0.0712834 0.00335737 -0.110116 0.152361 -0.244343 -0.0572022 -0.00617125 -0.117036 -0.275096 -0.0364128 -0.0546831 -0.180632 -0.0400229 -0.0379357 -0.0948187 -0.0241835 -0.00384482 0.0188296 0.0861549 -0.0636765 0.0443502 -0.038395 -0.11824 2.15503e-05 -0.0164634 0.104558 -0.157406 -0.0275069 -0.0684957 0.0161644 0.0123167 -0.0775228 0.0960285 -0.126746 -0.0381864 -0.0316622 0.00288968 -0.00489415 -0.0626189 -0.0461299 -0.0233205 0.0454192 -0.0866715 0.017164 0.0481267 0.033488 -0.254594 0.0423015 0.0141069 0.163995 -0.0572928 0.00790275 0.106126 0.152143 0.0850633 -0.0427346 -0.02128 0.133585 0.171426 0.04638 -0.00464878 -0.0215807 -0.0720252 0.106656 -0.0638781 0.00931899 0.0525825 -0.0706249 -0.089237 -0.107975 0.0569716 0.0578542 0.0686318 -0.0133191 0.0431596 -0.121721 -0.0273165 -0.0054437 -0.0337835 -0.0548957 -0.146605 0.0291006 -0.213716 0.0333822 -0.0858271 0.0412712 -0.143072 0.0803194 -0.0110304
Q46 -0.0164029 0.00227572 0.105126 0.0239544 0.104584 -0.0379519 0.0373932 0.0659554 0.0910436 -0.0453039 0.00277316 0.0347513 0.152972 0.1242 0.0136043 0.0121095 -0.0498999 0.0876289 0.0101782 -0.0867937 0.10202 0.0189872 0.0306773 -1.05321e-05 -0.0268591 0.0165639 -0.0854115 -0.0160176 -0.0448257 -0.217135 0.0205096 -0.0134395 -0.0637725 0.149611 -0.000454607 -0.0207639 0.0222027 0.0330638 -0.0635144 -0.0363888 0.0262461 -0.0310164 0.0265299 0.0278409 0.12242 -0.156588 -0.0252523 0.110883 0.0667711 0.0519424 0.0564047 0.000503618 0.0165116 0.00828946 0.0604467 -0.00161213 -0.0170755 -0.190518 0.0687213 0.0265648 -0.0359438 -0.120071 -0.196488 0.0051928 0.0291724 -0.00626405 -0.0446361 0.0206307 -0.146413 -0.00586483 -0.0465867 -0.0212048 -0.0291703 0.026368 -0.0476109 -0.175621 0.0872284 0.0282058 -0.00874062 0.0479401 0.00226013 -0.0570466 0.129707 -0.0751824 0.156419 0.174062 0.0251094 -0.0239047 -0.0735547 -0.159612 0.140236 -0.0934429 -0.130828 0.00335978 -0.0589143 0.0278824 -0.0766363 -0.0309223 0.0330433 0.0351237
Q47 -0.0665526 0.097255 0.0519462 -0.0868304 0.0222122 -0.0853554 0.107268 0.0329382 0.0291261 -0.0530861 -0.0609205 0.0337108 0.14052 -0.100767 -0.0624117 0.0770143 0.0308479 -0.00130363 -0.114391 0.16376 0.0516032 0.0597327 0.0905092 0.0885299 0.0884534 0.115528 -0.0982671 -0.0128264 -0.120088 -0.025394 -0.00721755 0.174099 0.0365368 -0.197342 -0.0619818 -0.0251878 0.0331659 0.120753 -0.00490994 0.0102311 -0.0828574 -0.0415944 0.0428937 -0.0351541 -0.0116413 0.09074 -0.0839034 0.119479 0.0105199 0.0782212 0.000523921 0.023231 0.11118 0.0600132 -0.018174 0.0771939 -0.0433158 0.0624236 -0.0359624 -0.115566 -0.0710988 -0.0426736 0.0529295 0.0239861 -0.0365844 -0.0769292 -0.0137227 -0.0185242 0.121723 0.0292548 -0.0868357 0.0285827 -0.0112684 -0.00646824 0.00722061 -0.0329699 -0.0448246 -0.0834996 0.0640582 0.0202197 0.0504761 -0.0250094 0.0684294 -0.0105617 0.0185377 0.0387952 -0.0217794 -0.0618498 -0.0389474 0.0343265 0.0793294 0.0722124 -0.076035 0.081227 -0.037896 0.0857062 0.083869 -0.0254817 -0.0381966 -0.0629991
Q44 0.0126221 0.035017 0.129281 -0.0116499 -0.0346587 -0.00524048 0.0728565 0.0685472 -0.120198 -0.118731 -0.00843897 -0.0198662 0.028539 0.0143481 -0.0331122 0.042142 0.099195 0.0528279 -0.0664436 0.125583 0.00520905 -0.170208 0.0679843 0.0675639 -0.0525698 -0.0422786 -0.0828698 0.0301603 0.033607 -0.121044 -0.0773568 0.184628 -0.0522487 -0.030541 -0.0445185 -0.0374413 0.0113528 0.0105937 0.0625078 0.00918793 -0.0216447 0.0142191 0.0429805 0.0445376 -0.0468333 0.00325948 0.00126711 -0.046875 0.0306785 -0.0974931 0.0622374 0.0104087 0.0884856 0.05093 0.0310944 -0.0818555 -0.0131968 0.0315123 0.0853598 -0.00816295 -0.133362 0.0749124 0.155819 0.0553959 -0.0129026 -0.0809998 -0.00299681 -0.00695394 0.0490411 0.103644 -0.0530312 0.0696416 -0.0257499 0.0434688 -0.0679835 0.0164877 -0.0391251 0.0711334 0.0532156 0.0277818 0.181094 0.0440185 0.184621 -0.0723874 -0.0593546 -0.135024 0.0726626 0.0785416 0.131472 0.0272093 -0.0494794 -0.00441618 -0.0242089 -0.0469404 -0.0591598 -0.00882809 0.0168397 -0.0580517 0.0875929 0.0519824
Q45 0.074384 -0.0496519 0.0552732 0.00299681 -0.0616465 -0.0564913 0.124326 0.00223589 -0.0723435 0.00250031 -0.0061139 -0.0708673 -0.106951 0.0362154 -0.0211992 0.0572624 0.0482908 0.0801812 -0.143578 -0.0110804 -0.0937862 0.0330285 0.00252999 0.0300897 -0.145325 -0.164641 0.144149 -0.0402389 0.128056 0.00299742 -0.11062 0.0862826 -0.0594306 -0.0573534 -0.171911 0.0537824 0.00237494 -0.0948837 0.0704185 -0.107427 -0.141522 -0.1252 -0.127988 -0.046789 -0.0884972 -0.143481 0.0162339 0.00904049 0.0930071 0.132567 0.0493832 -0.0500314 0.10331 0.123265 -0.158605 -0.0382806 -0.0450209 0.0147349 -0.0472978 -0.0580789 -0.0759649 0.0177823 0.00035913 -0.0429759 0.0165158 -0.000756859 0.214027 -0.067964 -0.0575924 -0.0527421 0.0558926 -0.0264136 -0.0821041 -0.0319292 -0.117451 -0.0387223 0.0778165 -0.0275619 -0.0791966 -0.115051 -0.0214883 0.0522858 0.0044189 -0.0143953 -0.24477 -0.174457 0.0117476 -0.0296527 0.0758838 0.0674253 -0.0445043 0.148003 0.00568553 0.140982 0.0376699 -0.0827987 0.0569721 -0.00883973 -0.191113 0.037847
Q42 0.204945 -0.0285056 -0.0938788 0.0589966 0.086334 -0.0669482 -0.170711 0.00570624 -0.0309163 0.0821132 0.192857 0.0246327 0.0847449 0.107146 -0.0724654 0.0244742 -0.0172826 0.095058 -0.062475 0.0828706 0.0320416 -0.0133541 0.0369574 -0.0274076 -0.117025 -0.0486258 0.176277 0.115308 0.0149188 -0.0978467 -0.0279072 0.0213276 -0.0250559 0.090062 0.0266167 -0.0101973 0.0361438 -0.040744 0.103572 -0.0933112 0.112411 0.00668971 0.0744769 -0.0508976 0.023287 -0.0695966 0.00170695 0.00832973 -0.0236862 0.0126905 -0.100646 0.0434093 0.0336179 -0.0118485 -0.063234 0.19639 -0.0233755 -0.0230747 0.0050894 -0.0360996 -0.102718 -0.149942 -0.0158578 0.024948 0.0160585 0.0921989 -0.0776726 0.0236687 0.00108033 -0.019477 0.0631834 -0.0908689 0.0112372 0.0116304 0.0842646 -0.0604296 -0.0981302 -0.01707 -0.00926011 0.0406877 0.0828702 0.0764308 0.090391 -0.184187 -0.0126508 0.0182683 0.0870843 0.115256 0.0846303 -0.0299272 -0.0213676 0.0552674 0.0445138 -0.0944227 0.174886 -0.0337736 -0.130846 0.1031 0.0602387 -0.0511769
Q43 -0.0744646 0.0226751 0.0396466 -0.0558267 -0.0257122 -0.0858214 0.22285 0.0801169 -0.0207994 0.078675 0.0311195 -0.023396 0.212973 0.0899633 0.0285619 -0.0941065 0.0476281 0.0999566 -0.190017 0.11109 -0.0295079 0.0262281 0.10023 0.0211871 -0.10255 0.0338377 0.0555236 -0.0401638 0.0884945 -0.0734244 0.0380439 -0.0444437 -0.00810381 0.12232 -0.0771746 -0.0978073 0.0144031 0.134499 -0.0762371 0.0531288 -0.19286 -0.0777056 -0.0476882 -0.0806337 0.0607617 -0.0315253 -0.0783891 0.0237708 -0.00940712 0.0430138 0.030787 0.0228015 0.0494 0.122647 -0.0538414 0.105156 0.0807335 0.0820768 -0.0932986 -0.0891385 -0.0548992 -0.0236889 0.0651404 0.0202026 0.0509382 -0.0329298 -0.0755356 0.00190727 -0.00339436 0.120226 -0.0156486 -0.0303742 -0.0430461 0.0437463 -0.000724065 0.229498 0.00652402 0.0928249 -0.0246194 0.00148615 0.126507 -0.0156364 0.013133 0.0283654 -0.0848963 -0.173232 -0.0934872 -0.0667269 0.0798907 0.104493 -0.017323 0.029209 -0.0996842 0.0663815 -0.0165067 0.0911661 0.0666517 -0.0164479 2.49845e-05 -0.0985317
Q40 0.170835 -0.0443779 -0.0851297 0.000641174 0.0583186 -0.0219182 0.0947595 -0.0094646 0.0127925 0.0908178 0.134415 0.0502843 0.0741848 -0.0201299 -0.0859275 -0.0148036 0.043806 0.0161129 -0.152606 0.00935746 0.0946773 0.0532719 0.0384872 0.0385783 -0.195927 -0.0588533 0.03839 0.0014736 0.234836 -0.124716 -0.0175263 0.104355 -0.0968355 -0.00227111 -0.140498 -0.0125864 0.028634 -5.87707e-05 0.152528 -0.0195502 -0.0897012 -0.00749935 0.0636148 -0.100812 0.0665396 -0.0971662 0.00942842 0.123881 -0.059161 -0.0133975 0.0446426 0.0519516 -0.0383574 -0.0513747 -0.0658029 0.069501 -0.0427336 -0.0637027 0.0274806 -0.0419536 -0.0725642 0.072164 -0.0437306 0.0962898 0.188724 0.0147784 -0.0711311 0.0580059 0.0756685 -0.104358 -0.0916878 -0.0327816 -0.025831 0.0679874 0.0687572 0.152766 -0.0985731 0.151161 -0.0561047 0.0159299 0.121511 -0.00601079 0.186461 -0.153761 -0.130735 -0.00317149 0.0730104 0.0552127 0.040906 -0.00737495 -0.0578389 -0.0467262 -0.0565184 -0.00320467 0.000163999 -0.0515335 0.0533052 0.0353044 0.0624349 0.148185
Q41 -0.0401351 0.00464361 -0.0224568 -0.0501179 -0.0690105 0.104245 -0.0108569 -0.05723 0.00255192 0.0810587 -0.0402333 -0.108008 -0.162113 -0.00983116 -0.0188543 -0.0325087 0.0588045 -0.0725949 0.0811632 0.0356544 0.0545432 -0.0350393 0.0920109 -0.0551114 -0.0176884 0.0504642 -0.0147949 0.0410104 0.0255494 0.127152 0.0504037 -0.0968753 0.0198753 0.0460662 0.0966628 0.00366574 0.0240759 0.0533566 0.133952 -0.00397496 0.0154559 0.023011 -0.0151042 0.005492 0.0139201 0.0804898 -0.104483 -0.0358069 0.0539798 -0.00387513 -0.0483812 0.0158493 -0.0348879 -0.105998 0.101731 -0.0497863 -0.068625 0.0554268 0.084127 0.0929067 0.0210556 0.0595909 0.0579564 -0.0711003 -0.0353515 -0.0108877 0.0327166 -0.0396487 -0.0594127 -0.0312529 0.0288792 0.0311718 -0.0677352 -0.039554 0.10875 -0.0191149 -0.0340076 -0.100331 0.0337335 0.0206992 0.0440222 0.0265291 -0.0991136 -0.017859 -0.0717063 0.125336 0.0303066 -0.0387319 -0.0435022 -0.00188673 0.0274868 -0.0501002 -0.0498172 -0.0643198 0.0763664 -0.0469205 -0.0122316 0.0590057 0.0965468 -0.00280982
Q155 0.150505 0.0991499 0.083166 -0.0821879 0.0472562 -0.07926 -0.00291008 0.0461215 -0.0213952 -0.0314657 0.0926297 0.0332993 0.0670635 -0.0323307 -0.0571687 0.0196676 -0.0277958 0.0791893 -0.134746 -0.0783457 -0.00903827 0.0246011 -0.10055 0.0873846 0.0247504 -0.0338469 0.00154469 0.0668415 0.0317337 -0.0615521 0.0142763 0.0867694 0.0130766 -0.0448086 -0.0172469 -0.077875 -0.00724675 0.0161969 0.00185667 0.0629185 -0.00804929 -0.122586 0.0311142 0.0306465 -0.0209877 0.0371861 0.0116681 0.103256 -0.0668529 -0.0153882 -0.0037299 -0.0866387 0.0604129 -0.0897507 -0.136372 0.0191742 -0.0367882 0.0434115 0.0922192 -0.0502004 -0.13831 -0.0173005 0.0353474 -0.0819363 0.0573522 0.088332 0.0235196 0.0826642 0.166897 0.0876574 -0.0558957 0.100979 -0.0836668 -0.0535866 0.0294632 -0.0243386 -0.0568683 0.00669582 0.0026206 -0.056572 -0.0501186 0.0130229 -0.17182 0.0337344 -0.111826 -0.0648943 0.11934 -0.119267 -0.0698137 0.111075 -0.0762197 -0.0630033 -0.0517402 -0.00928401 -0.0517496 0.0134601 0.0415514 -0.16702 -0.0403636 -0.0149554
Q154 0.155258 0.00123902 -0.216109 0.0576477 -0.0853801 -0.0750526 -0.0318408 0.0243348 0.08052 0.158547 -0.0809347 -0.0576263 0.0387137 0.169285 0.147361 0.0572704 0.0256759 0.117965 -0.0719337 -0.182598 -0.10733 0.0313962 -0.121449 0.072185 -0.0144924 -0.0356773 0.065691 -0.137545 0.139959 -0.0547727 -0.125724 -0.0845374 0.132244 0.030785 -0.0319494 -0.0526956 0.0645861 0.0554055 0.179407 0.0143294 -0.0404629 -0.0200172 0.0280476 -0.089552 -0.0529092 0.0817589 0.0295193 0.120113 -0.0852685 -0.0642653 0.0236489 -0.252266 -0.216793 -0.0256483 -0.0396903 0.0623868 -0.0297356 0.0383623 -0.0396645 0.097772 0.0504595 -0.0230357 0.0104165 -0.000688098 0.045691 0.0964906 -0.0634874 -0.0594585 0.0492688 -0.118192 -0.19035 0.0752701 0.0544331 0.0621604 0.0269708 0.060452 0.00330293 -0.190383 0.00031598 -0.0592645 -0.100542 -0.0523938 0.00525699 0.0909577 0.158461 -0.123974 -0.20107 0.0879677 -0.0647091 -0.207181 0.0203117 0.138901 0.0846681 0.0141832 0.0996934 0.0762199 0.0329878 -0.0436159 0.0173974 0.130402
Q157 -0.0138723 -0.0554471 -0.214557 0.101593 -0.200756 -0.108848 0.107128 -0.0528228 0.000364898 -0.138683 -0.16942 0.141997 -0.0432056 -0.010442 0.147024 -0.0516308 -0.0244214 0.164447 0.00323819 -0.177878 -0.169888 -0.0375672 -0.163356 -0.0325024 -0.0745491 -0.154541 0.182164 -0.265542 0.0972214 -0.0692306 -0.15711 0.0155947 0.0833777 -0.053683 -0.0763647 -0.0526765 0.0485795 -0.144119 -0.0483765 -0.0582421 0.046865 0.144316 0.0196027 0.117987 -0.181344 -0.0508758 0.0589781 0.0969078 0.00650393 0.0271513 0.104278 -0.0768315 -0.12687 0.0147211 -0.169254 -0.012689 0.127501 -0.114808 -0.0333843 0.132657 0.0611062 0.042895 -0.135345 -0.0360909 0.0588137 -0.0566061 0.217272 0.0554297 0.0557712 0.0114591 -0.0175417 0.0929145 0.0213078 0.107701 -0.0997896 -0.0793223 0.204103 0.0297203 0.106386 -0.0719427 0.0419673 -0.147164 -0.0373708 0.123973 -0.0748214 -0.0693208 -0.124009 -0.0690763 0.0455451 -0.069709 0.0800888 -0.0603165 -0.0648476 -0.0168455 -0.101414 0.119733 0.090406 -0.173427 -0.0183891 -0.0365346
Q156 -0.0476219 0.0801815 -0.0767221 -0.00773365 0.0872968 -0.0270268 -0.0439702 0.027273 0.0473077 -0.0551822 -0.00354986 -0.0172367 -0.0065125 0.124404 -0.0399448 0.0205399 0.00445851 -0.0624478 0.0853966 0.00272033 -0.0726887 -0.020457 0.0319695 0.0346567 -0.0363491 0.0124899 -0.00401794 0.0380061 -0.0485339 -0.12035 0.0389449 -0.0988861 -0.0274352 -0.0114641 0.0611964 -0.029037 -0.04313 0.0815659 -0.00171272 -0.0181607 0.0065714 0.0523623 0.0773462 0.0313231 0.0198326 -0.0524177 -0.042291 0.0951534 0.0246557 0.0628503 -0.088335 0.120009 0.00801327 0.00761982 0.0693705 -0.0352542 -0.00600281 -0.0537783 0.0385568 -0.0181548 -0.0288349 0.0652352 0.0164716 -0.0254871 -0.0496372 -0.0255966 0.0447659 -0.074395 -0.102325 -0.0115044 0.0721989 -0.0115308 -0.0302804 0.100479 -0.0197584 0.024143 -0.0204486 0.07572 -0.0202579 -0.0660843 0.01927 0.0769487 0.0911257 -0.0402266 0.137256 0.0906302 0.000460638 0.0905119 -0.0432393 -0.0691115 -0.0700238 -0.049467 -0.0876923 0.0271968 0.0145685 -0.055595 -0.169555 -0.061505 -0.0119058 -0.00832927
Q151 -0.0269149 -0.0865092 -0.10319 0.0404807 0.22321 -0.00382925 -0.0619247 0.00345944 0.0633236 -0.0697937 -0.0305459 0.069977 0.040733 0.189602 -0.156294 -0.069671 0.176475 -0.03512 -0.0200372 -0.113857 0.0875607 -0.0791268 0.0889729 0.0308353 0.0212419 -0.0189952 -0.0147945 -0.0211454 -0.00265846 -0.0612102 0.10523 -0.0228868 0.0253841 -0.0420004 -0.0624543 -0.0348322 0.109729 -0.0128182 -0.0690485 -0.0288167 -0.0625909 -0.167155 0.0804042 -0.0399811 -0.0245914 -0.000268714 0.0278212 0.117998 0.0548404 0.000498824 0.114835 -0.0682032 0.0830055 0.0504433 -0.0232392 0.204907 0.0394882 -0.0139672 -0.0164269 0.0400964 0.110101 0.0820305 0.00366507 0.0262938 0.0341604 0.175166 0.0161634 0.0401792 0.00152038 0.00653336 0.0685079 -0.0845893 -0.0159596 0.0764294 0.0985323 -0.0155264 0.0691436 0.0229481 -0.197197 0.0350525 -0.031965 -0.00552063 0.030171 -0.031219 0.0792462 -0.0158359 -0.00161541 0.0306515 0.208374 -0.0700224 -0.0442959 0.0816785 -0.0238821 -0.0839543 -0.0381632 -0.0449555 -0.223854 -0.021544 -0.018412 0.0314605
Q150 -0.016261 0.0731804 -0.0675108 -0.028795 -0.0183732 0.110741 -0.0243566 0.0321729 -0.0307712 0.0475131 0.0365816 0.104806 -0.064893 -0.0788721 -0.00157637 0.0772736 0.123986 -0.0463433 0.0725381 0.076344 0.0230003 0.0983401 0.0309841 -0.0591315 0.0307983 -0.0623352 -0.0713789 0.114508 0.0522524 0.0178178 0.00299966 -0.00131509 0.042127 0.0177517 0.0203621 -0.0471741 0.15746 -0.101636 0.13434 -0.118695 0.0889973 0.0139647 0.138925 -0.0568919 -0.000643213 0.00776777 -0.0584903 -0.0395608 -0.0402159 0.00217676 0.153731 -0.00589374 -0.0511668 0.0306542 0.112829 -0.0236277 0.0436327 -0.000411261 0.059564 -0.0768553 0.00565677 0.079844 -0.0148669 0.0457972 -0.00634891 -0.0299992 0.0281049 0.0606335 0.051435 -0.0628108 -0.0650172 0.0856738 0.00752469 0.0510048 0.0408121 -0.0544539 -0.048029 -0.129932 -0.0265527 -0.0363562 0.015875 0.0966631 -0.0487394 0.0406681 -0.0989653 0.0204555 0.0622437 -0.0378081 -0.131926 -0.12437 0.111726 -0.0132364 -0.0232173 0.055023 -0.0624351 0.0336522 -0.0381848 0.0891963 0.00185499 -0.121537
Q48 0.14352 -0.130337 0.0438213 -0.097434 -0.111644 0.0264935 -0.101775 0.0982372 -0.00207898 -0.144859 0.250527 -0.0174452 0.0908726 -0.00668485 0.0793434 -0.0376147 -0.0917356 -0.14311 -0.0450052 -0.129269 0.123766 0.150729 -0.0288637 0.0462701 0.0161467 0.0286338 -0.0252756 0.0600985 0.0504491 -0.245219 0.0617562 0.164136 -0.0209566 0.113075 -0.0876848 0.0012264 0.0394573 -0.0230332 -0.136143 -0.0262303 -0.0592498 0.130079 -0.051322 0.000425566 0.066715 0.0688097 0.0255864 0.0218662 -0.0760527 0.1764 0.104254 -0.091743 0.116467 -0.0483697 0.00311462 -0.0105085 -0.0824737 0.0915618 -0.105285 -0.0286638 -0.00607491 0.0589973 -0.0233996 0.159349 0.00959899 0.0527349 -0.0156852 0.00471478 0.0671765 0.0717657 -0.0902985 0.0459828 0.105765 -0.0888239 -0.0967048 0.126162 -0.00485437 -0.0572591 -0.0230254 -0.0573339 0.0197031 -0.0574345 0.021316 -0.0518377 -0.0233647 -0.124988 -0.0160272 -0.136615 0.110467 0.0584327 0.118117 -0.100392 0.0296489 0.0586701 -0.150256 0.125181 -0.10282 -0.11807 -0.0757259 0.088155
Q49 0.113551 0.0781767 0.125401 -0.04127 0.000517078 -0.0482424 0.0574475 0.0846773 0.00737103 0.0438465 0.15501 0.156967 0.0940603 0.00834637 0.0376299 -0.102935 -0.142987 0.148209 -0.0788558 -0.15479 -0.0153072 -0.118742 -0.145573 -0.117049 0.0984642 0.0854911 0.00368582 0.0299946 -0.084217 -0.0933505 -0.0496464 0.141377 0.0685 0.0684482 -0.0952978 -0.0685094 0.0907934 -0.127631 -0.101903 0.0199546 0.0875776 0.0674768 -0.0339664 -0.0331413 0.0772372 -0.046722 0.117472 0.130526 -0.200218 0.0311341 -0.0147412 -0.0369537 -0.127627 -0.155632 0.00410715 0.0394178 0.0382871 -0.0943811 0.0549656 -0.025503 -0.00478538 -0.0875978 0.0679302 0.0305282 0.059934 0.111128 -0.0438559 0.0967407 0.0383042 0.050534 -0.042923 0.0688921 0.0258912 -0.055966 0.103022 0.0412362 -0.0301647 0.0114247 0.022129 -0.164581 -0.00973266 0.00698997 -0.0246696 0.150707 -0.0951137 -0.0126036 -0.0940163 -0.0190719 0.0923845 0.13522 0.00418764 -0.0738023 -0.0387158 0.0965046 -0.0711287 0.093821 0.112235 -0.0648315 -0.0907399 0.0198415
Q153 0.000981658 0.147955 0.0459399 0.0782359 -0.00489642 -0.0359315 0.04222 -0.169397 -0.0337614 0.0274364 0.241443 0.198888 0.177235 -0.0504606 0.00723591 0.00778713 0.00363608 0.0217292 -0.10481 -0.220145 0.0163853 -0.0750231 -0.247796 -0.0971964 0.0222058 -0.0116515 0.0206486 -0.0805282 0.00505695 -0.038644 0.0296968 0.145709 -0.0362706 -0.032486 -0.0913756 0.0192086 -0.110017 0.103672 -0.000570561 0.0188528 0.00535941 0.0056529 0.0481408 -0.0719417 -0.0399895 0.0922519 -0.104365 -0.0465104 0.0316075 0.0385986 0.0442671 -0.00216493 0.041114 -0.00729953 -0.301409 -0.0192018 -0.0590241 0.168914 -0.0661221 -0.0674063 -0.041638 -0.128088 0.0322103 0.108657 0.115956 -0.0705197 -0.0425 -0.00856364 0.0842501 -0.0843555 -0.0450301 -0.0497393 0.0797701 -0.149375 -0.164759 -0.0150176 0.160034 -0.0916542 -0.107807 0.129336 0.0740672 -0.217582 0.0140548 -0.0441568 -0.00595492 0.0478443 -0.0966049 -0.101812 0.0174601 0.15378 0.0589443 0.0597366 -0.00646927 0.140427 -0.103257 0.075498 0.191929 0.0124354 -0.0384627 -0.00825707
Q152 -0.0775215 0.0253337 -0.0822843 0.00585548 0.116329 0.0917096 -0.0724833 -0.0822798 -0.0401249 -0.0400702 -0.107092 -0.00141568 -0.0927147 0.041549 -0.127795 -0.0741783 0.135891 0.0449481 -0.0418854 -0.00136805 0.0516785 -0.0793104 -0.00308281 -0.0194291 -0.0751361 0.0278598 -0.0817535 -0.033802 -0.105455 -0.00902763 0.130301 -0.023257 -0.0734645 -0.12418 -0.0355529 0.0222024 0.0841799 0.0461702 -0.101713 -0.00779891 -0.0528047 -0.0848885 0.148194 -0.00361751 -0.0673236 0.0746074 -0.0675419 0.114822 -0.0202569 -0.0111293 0.0708631 -0.0178177 0.00466854 -0.0302194 0.0786912 0.126412 -0.0152895 0.00767343 0.0399256 -0.0344238 0.142207 0.040734 -0.00582192 -0.0482498 -0.0235994 0.0550647 0.0485419 0.0170068 0.0603256 0.0772244 -0.0276047 -0.0693591 0.0088502 0.0322533 0.0472819 0.031882 0.0477431 -0.0102235 -0.0727718 -0.013297 0.074654 0.0196913 0.0980693 0.00968531 -0.0197411 0.00142209 0.0503771 0.059547 0.136849 -0.0378685 -0.115725 0.0817556 -0.109005 0.00918315 -0.0612243 -0.0257932 -0.192476 0.0122447 0.0521312 -0.0010913
Q128 -0.1286 -0.0555827 -0.0203587 0.0313893 -0.0955441 -0.0927431 0.0495519 -0.00269373 0.00333852 -0.0132039 -0.119918 -0.159691 -0.0349813 0.0358593 0.0115674 -0.104183 0.101733 -0.052451 0.000142311 0.0394005 0.020565 0.0520655 0.039596 -0.00733726 -0.0610477 -0.00836879 0.103396 -0.0304065 0.0257888 0.137801 -0.0437077 -0.0661062 0.0200157 -0.0434194 0.0821614 -0.00845741 0.00268583 0.00248383 0.022631 0.0743681 0.0655331 0.000169981 -0.0197733 0.0542042 0.0837427 -0.0629843 -0.0499758 -0.0904201 0.0382478 0.0596642 0.00354557 0.0118208 0.0909157 -0.0793519 0.0891223 -0.0742325 -0.0221047 0.0121322 0.0337685 0.0607785 0.0957347 0.0899381 0.140977 0.0203294 -0.0666247 -0.0573519 0.0436491 -0.0585133 -0.0154305 -0.0580733 0.0455517 -0.0666986 0.0188386 -0.0953875 0.0765105 -0.00893881 -0.119141 0.00463434 0.0414593 0.0346789 0.0327913 0.0689378 -0.0797168 -0.0677196 0.0614524 0.101191 0.0951271 -0.142605 0.0185876 -0.00347832 0.105904 0.104104 0.038374 -0.0593281 0.0649354 -0.0183553 -0.0326751 0.043242 -0.0057992 -0.0831964
Q129 0.0488032 0.0348634 -0.0440396 0.0325825 -0.0769622 -0.155329 0.112458 0.0377217 0.122347 -0.0241262 -0.0198443 0.137095 0.143459 -0.0517684 0.195007 0.0759726 -0.130061 0.0866817 -0.123015 -0.0962233 0.0250436 -0.0231923 -0.0170326 0.164919 -0.0599123 -0.0334084 0.0709678 -0.127556 -0.059946 -0.0764275 -0.133576 -0.128256 0.0795204 0.0458433 0.0975994 -0.00620208 -0.059275 0.0926368 0.0659846 -0.00440936 0.0254649 0.0853712 -0.00037852 -0.0206438 -0.0119091 0.0961427 0.0552337 0.0656501 -0.0583263 0.0250871 0.0146428 -0.050047 0.00191669 0.114566 -0.104037 -0.137543 -0.0278527 0.0147265 -0.028868 0.0590658 0.117482 -0.0243072 -0.188312 -0.128948 -0.0934147 0.00506356 0.132513 0.0289418 0.0119716 -0.00658355 0.0134875 0.133709 -0.133773 0.0802874 -0.179114 0.0508776 -0.0479233 -0.0420812 -0.0841776 -0.0197656 0.0734625 -0.0170963 -0.0135563 -0.0130831 0.155108 0.0416718 -0.150101 0.0856409 0.0125585 -0.0144755 -0.0588921 -0.0319153 -0.0107147 -0.141317 -0.0642572 0.0571194 -0.0395181 -0.0240693 -0.0130952 0.0129772
Q120 -0.0102336 0.107505 0.0165839 0.00428224 0.118176 0.00252088 -0.0150841 -0.0124809 0.113964 -0.0607328 0.0507473 0.0544064 0.0345433 0.0844698 -0.0633754 0.0568769 0.082109 0.041728 -0.0693838 -0.102044 0.0494582 0.0485282 0.160818 0.0358213 -0.0385646 0.075219 -0.0558595 0.0388026 -0.0635193 -0.241417 0.0293078 0.0108518 -0.022806 -0.0796777 0.0199136 -0.0799538 0.0866618 -0.0183714 -0.0876171 -0.0739015 0.0896197 0.0703033 0.0284137 0.0351707 0.039627 -0.0875379 -0.0846667 0.0723392 0.099009 0.0365976 0.0601157 0.044394 -0.129511 0.0683608 0.0930851 0.0180941 -0.082628 -0.238539 -0.0240265 0.0719735 0.00658437 -0.0174544 -0.1515 -0.0490286 0.0453837 0.0428114 -0.0313594 0.0458778 -0.0745226 -0.0770583 0.0941841 0.0422253 -0.0391746 0.0603559 -0.030964 -0.0679596 0.0527095 0.0451009 -0.045001 -0.0653223 0.0556969 -0.0237581 0.0477882 -0.050175 0.0774624 0.0229935 0.00420877 -0.0249467 -0.0704295 -0.166152 0.0266737 -0.110383 -0.0913759 0.0410072 0.0435062 -0.0327298 -0.162758 0.0129804 0.0547667 0.0136611
Q121 -0.0207605 0.00868133 -0.0205686 0.0390589 0.107323 -0.0581604 -0.116643 0.0897022 -0.099027 -0.0117989 0.0233315 -0.0278472 0.114062 -0.0722335 0.0658988 0.0929782 0.0383319 0.0189211 0.000630846 -0.0759502 0.0484115 0.0290131 -0.0355953 0.128776 -0.00901288 0.0168616 0.088499 -0.0684739 -0.119172 0.0494431 -0.160141 0.0798897 0.00315985 -0.0545947 0.0279544 -0.000331766 -0.00136015 -0.00812168 0.0552623 0.136022 -0.0467276 -0.0364451 0.0800126 -0.105589 0.0054829 -0.0597078 -0.00653178 -0.0279562 0.0849078 -0.0734563 0.144718 -0.103431 0.0315044 0.0201191 -0.142311 -0.0573124 0.0938127 -0.0343771 -0.162225 -0.0927352 0.0387519 0.0940846 0.0329775 -0.0220079 -0.0444776 0.0378009 -0.0554376 -0.0352834 -0.112251 -0.0923619 -0.134554 -0.0332923 -0.0861894 -0.0403108 0.005141 -0.132795 0.0956885 -0.0454862 -0.158487 0.00199883 -0.122116 0.0645081 -0.0201875 0.167005 -0.0286659 -0.032488 -0.00450465 -0.00603764 -0.00690719 -0.145998 -0.0206813 0.02368 0.0166383 0.0236502 0.0112071 0.0652932 0.119666 -0.0613914 -0.0239534 -0.0304099
Q122 -0.0245476 -0.00915659 -0.00823364 -0.036457 -0.0157748 -0.0677096 0.00565692 0.0524849 0.109567 -0.0443007 -0.0631743 0.0272797 -0.0298069 0.0697704 0.00386507 0.107157 -0.065705 -0.027567 0.0723122 -0.00101756 0.000467463 -0.0541035 0.0429909 0.0411191 0.0533759 0.0566116 0.0563974 0.026934 -0.118492 -0.0547781 0.0555366 -0.124689 -0.0128464 0.01933 0.0195668 -0.0431108 0.0196497 0.14584 0.0590249 -0.0705956 -0.00802803 0.0781875 0.00279521 -0.0455906 0.15306 -0.0251004 0.0451933 0.0213027 -0.0736532 0.0102405 -0.0384142 0.0625198 0.0083806 0.0214318 0.0706302 0.0287271 -0.0366941 -0.0489274 0.106925 0.0897195 0.0702172 -0.130857 -0.0725559 -0.00644642 -0.0880435 -0.0468311 -0.0473514 -0.12262 -0.0731995 0.0591469 0.0493761 0.00836848 -0.0249166 0.0663472 -0.0729463 0.0360067 0.0409739 -0.037929 0.0250055 0.0825295 -0.0755157 -0.0199487 0.0900966 -0.0347802 0.0391153 0.0421849 0.0144303 0.0433661 -0.100789 0.0561102 -0.035359 -0.0788849 -0.0779534 -0.0510856 0.0821314 -0.0251979 -0.12474 0.0377209 0.0878432 -0.00581884
Q123 0.163174 -0.0558005 -0.0542538 0.136738 0.00412198 -0.0560087 -0.0102563 0.00887234 0.031071 0.11671 0.140076 0.0514126 -0.0547864 -0.0677892 -0.143407 -0.0502284 0.126313 -0.0389503 -0.143396 -0.0669898 0.0931355 -0.0295786 -0.0502685 0.0119939 -0.115121 -0.139217 0.0341928 0.0699908 0.184156 -0.0399119 0.0415776 0.0593634 0.0400771 0.0140995 -0.00464948 -0.0961 -0.0377431 0.0595729 0.097087 0.0517471 -0.0662205 0.0663535 -0.0507665 0.000779409 0.164895 -0.0380478 -0.121495 -0.111718 -0.130911 0.0772675 0.0753844 0.061077 -0.0353065 -0.106258 -0.0600054 0.0770058 0.0158465 -0.112862 -0.183654 0.0402316 -0.0460826 0.0461423 -0.0820572 0.0808744 0.150787 0.120234 -0.0785411 0.155688 0.137904 0.0451689 -0.119517 0.045293 0.0211442 -0.102246 0.00446872 0.0111366 0.0938526 0.0182999 0.0223934 0.0395554 0.0486529 0.0164471 0.0533215 -0.100622 -0.0237327 0.0332183 0.0521649 0.108888 0.114757 0.138914 -0.0803467 -0.0981547 0.0320025 -0.0916675 0.0516033 0.0849812 0.0852941 0.120215 -0.028417 0.196968
Q124 -0.00295269 -0.0105621 -0.0359735 -0.0843445 0.0467064 -0.0890389 -0.0573888 0.00272522 0.0199893 -0.0401153 -0.0915172 0.123475 0.0610582 -0.0101746 0.104541 -0.0283057 0.00032958 -0.0856638 -0.122896 0.0233399 -0.0996409 -0.0106835 -0.138382 -0.048684 0.0303274 0.155974 0.118093 -0.100915 -0.00787794 0.00933279 -0.0898292 0.0237774 -0.101734 0.0178756 -0.187482 -0.0445759 -0.0264861 0.0549696 -0.0499379 -0.104926 0.0366682 0.0361844 -0.0485987 -0.0684969 0.119622 -0.0266984 0.0607243 0.0292507 -0.0170883 -0.00798394 0.0328259 -0.0394433 -0.227359 0.0606121 -0.0900085 -0.117966 0.0496648 -0.118956 -0.158898 -0.159445 -0.0367774 -0.0278578 0.00175689 0.0873875 0.0395687 -0.0471008 -0.0714569 0.0301172 0.00218693 -0.0237788 -0.0457692 0.0927105 -0.139004 0.0673512 0.0196244 -0.00741387 0.127874 -0.0208334 -0.00524345 -0.0408825 -0.12272 -0.0908686 -0.0758758 0.0705926 -0.0445397 0.0439509 -0.202066 0.0286646 -0.0472079 0.0297179 -0.0580347 0.167662 -0.100464 0.0795992 -0.00787392 0.121184 0.0627189 -0.186479 -0.106805 0.00104356
Q125 0.0590275 -0.0231554 0.0392344 -0.1194 -0.0286803 -0.0818723 0.111462 -0.0520576 -0.0219564 -0.0908277 0.0305264 0.130307 -0.00908116 0.128899 0.0147334 -0.0130432 -0.234044 0.0725671 -0.0247366 -0.164244 -0.0685595 0.0207964 -0.053032 -0.0221317 0.0835189 0.0275695 -0.0169048 -0.00362752 -0.030861 -0.187149 -0.0419205 0.000418158 -0.0625778 0.0855624 0.0410486 -0.0425798 -0.0649385 0.116646 -0.0706018 0.0427939 -0.0149347 0.0613361 0.0419601 0.039094 0.0479598 0.0408156 0.0463816 0.065517 -0.151634 -0.0617198 -0.00898575 -0.0251504 -0.0172312 -0.0599589 0.0411957 -0.0292889 0.00765436 -0.176094 -0.00950603 -0.0335061 0.0513474 -0.126206 -0.0530469 0.0229631 0.025546 0.112344 -0.0535048 0.0349402 0.00855563 0.0329193 -0.0542231 0.0549563 -0.109923 -0.0842492 0.0267496 -0.0890436 -0.0200907 -0.0883575 -0.166707 -0.0727766 -0.0459899 0.101166 -0.0361859 0.0052941 0.125828 -0.0812287 0.121769 -0.0274717 -0.084912 0.0533387 0.0706645 0.0568846 -0.0594747 -0.0161759 -0.0346931 0.0225136 -0.0332953 0.0235579 -0.0450118 -0.0163396
Q126 -0.00969807 0.0296769 0.043837 -0.16049 -0.100675 -0.0715687 -0.0337333 0.105331 -0.033695 -0.0700565 0.0827729 0.051119 0.0833962 -0.0882588 -0.0824868 -0.0873669 0.0364187 -0.0619612 -0.0582358 0.0487212 0.0467501 0.00901883 -0.0252211 0.00807987 0.0163334 -0.0649919 -0.0318686 0.0220676 0.0923543 0.128797 0.0529868 -0.0268453 -0.0394045 -0.0410331 -0.00857315 -0.0212988 -0.0650502 0.0278358 0.0321145 -0.0111539 -0.0368429 -0.105477 0.0144829 -0.045717 0.0397651 -0.108791 -0.0923258 0.0956024 -0.0468039 -0.108967 -0.0158235 0.0534777 -0.0304131 -0.0210222 0.16462 0.0600541 0.00598276 -0.0700305 0.00896136 -0.0114805 -0.000915418 -0.0706322 0.0210832 0.122042 -0.00596475 0.027292 -0.0576114 0.0253301 -0.0748488 0.0474739 -0.0022841 0.0235804 0.00105316 -0.00437429 0.0628736 -0.042494 -0.0243836 -0.0932618 -0.0311761 0.04387 0.110645 -0.0760776 -0.118496 0.0373589 -0.0542666 -0.0666242 0.100788 0.0589785 -0.0539971 -0.00231408 0.0394814 -0.147395 -0.0833468 -0.0392942 -0.00944219 -0.0214332 0.016636 0.014128 -0.0305124 0.0706812
Q127 -0.122773 -0.0669594 -0.141307 0.0366155 -0.00902397 0.145628 -0.00880258 -0.0433811 -0.0223853 0.0840682 -0.0577242 -0.0954931 -0.112825 0.04392 0.0790067 -0.0776922 0.0651134 -0.0126775 0.144731 0.0564794 0.0787452 -0.000481555 0.0892839 0.0217116 -0.0230909 0.0443413 -0.0417729 -0.0562257 -0.0291887 0.110178 0.0435049 -0.0114475 -0.0315256 -0.0151983 0.159444 0.00492129 -0.0903954 -0.0392663 0.023641 0.0145592 -0.0766617 0.0326722 0.0397293 0.0544557 -0.0401351 0.0818806 0.0532788 -0.0623965 -0.0155409 0.000669002 -0.0384215 0.0182828 -0.0985915 -0.106751 -0.0273884 0.0805374 -0.0968866 0.0936027 0.132997 -0.00190999 -0.0802667 -0.0518744 0.00628708 -0.0741697 -0.0762812 0.00199035 0.109831 -0.0781542 -0.11548 -0.0397302 0.0170431 -0.0762212 0.0510998 0.00987683 0.0134599 0.104186 0.0714072 -0.0770801 -0.0116264 0.120531 -0.0288479 0.10855 -0.0807554 -0.00819913 -0.0851335 0.0569582 0.047348 -0.0714142 0.026954 -0.0152036 -0.0547001 0.0787077 0.0645666 0.00189926 0.0891132 0.0859705 -0.134275 0.00138095 0.0572107 -0.0432028
Q33 0.0375936 0.0761798 0.00263513 -0.0771451 0.139275 -0.0232553 0.00650305 0.0701986 0.031107 -0.0851579 0.0221109 0.0730942 0.000331327 -0.0358523 -0.0498572 0.00750948 0.0150188 -0.0607229 -0.0776634 0.0897806 0.0180967 0.0537449 0.178832 0.0807037 -0.112654 -0.000694407 -0.0173803 0.0231716 0.0644511 -0.14399 -0.0170495 0.0312881 -0.0658681 -0.0348763 -0.0228941 0.0305035 -0.0452822 -0.0104132 -0.038147 -0.0497761 -0.102133 -0.127148 0.0446369 0.00531953 0.0628558 -0.0556877 -0.0796344 0.178786 -0.0739015 0.0543625 0.0839928 0.0110986 0.0128985 0.0499463 -0.0122152 0.122544 -0.000477514 0.0587384 -0.013128 0.0345116 -0.0488646 0.0935295 0.0898553 0.0607697 -0.0918736 0.0419544 -0.0421616 0.0124513 0.0696871 0.102341 -0.0425949 -0.00468526 -0.106321 0.0311647 -0.0293429 0.141331 0.0255352 0.0769566 -0.058446 0.0372646 0.111767 -0.0743817 0.0346128 0.0401819 0.044143 -0.108778 0.0256943 -0.0179605 0.0990268 0.118503 -0.0914111 -0.0352476 -0.137468 0.0551696 -0.0199846 -0.0179731 -0.0313859 -0.0312551 0.0574493 0.0546447
Q32 0.0163018 0.049706 -0.0134431 -0.0831977 -0.0236924 -0.0426922 -0.106973 0.0218903 -0.0329027 -0.076174 0.0325984 0.0168984 -0.0604247 0.0123647 0.0496269 0.0586006 -0.000441527 -0.0410154 0.0611622 0.0156806 0.0565447 0.0204482 0.0145368 -0.0408801 -0.090292 0.10148 0.0529193 0.0970642 -0.0786857 0.0303657 0.0411717 -0.118233 -0.00746456 0.0305542 0.00652465 0.0824172 -0.0898163 -0.0199493 0.106534 -0.0173857 0.0938133 0.0825561 0.0802757 -0.0289102 0.0729488 0.00954909 -0.0644413 0.0465859 -0.0238583 -0.0219374 -0.0661431 0.0299729 -0.0904149 0.0180102 0.107985 0.00757931 0.0273008 0.00468547 -0.0321746 -0.0808331 -0.00760803 -0.0718252 0.0306409 -0.0410049 0.00584292 -0.0984114 -0.00705838 -0.0621189 -0.00697888 0.0244003 0.065772 -0.00968004 -0.0369787 0.0100404 -0.0246496 -0.0857908 -0.0354882 -0.00598293 0.0682583 0.00735814 0.101267 0.0474197 0.0824861 0.0713278 -0.0123844 0.061381 0.0888781 0.105576 -0.0413423 0.0164542 -0.0334644 -0.0314889 0.0513802 -0.053317 0.0605612 -0.0812457 -0.156351 0.0608676 -7.69232e-06 0.0139473
Q31 -0.0880926 0.00447716 -0.0960143 0.040256 0.116157 0.0417543 -0.0437994 -0.0341446 -0.00215954 -0.0661165 0.000290183 0.0314389 -0.0481067 0.191398 -0.0955435 0.0126807 0.135494 -0.0451489 0.0439273 0.0639017 0.116915 -0.0214698 0.0297347 0.0151827 -0.0738917 -0.0266377 -0.0468996 -0.0218565 0.0019181 -0.035509 -0.00735163 0.0428965 -0.0478843 -0.0866355 0.000623463 0.0182821 0.0270924 0.0230501 -0.09948 -0.0618343 -0.0380035 -0.0424548 0.0183162 0.00765575 0.0707779 0.0265284 -0.0794446 0.139817 0.022862 -0.00775039 0.0337273 -0.0285594 -0.0268995 -0.0324616 0.0368349 0.0494997 0.0202261 0.00208626 0.0270913 0.0152134 0.0800386 0.058375 -0.0862786 -0.107619 0.00797968 0.0285572 0.0726148 -0.0377557 -0.103726 0.0061727 0.0461116 -0.0437689 0.0571754 0.00409489 0.0127735 -0.0255618 0.0473031 -0.0409562 -0.0703926 0.0311207 -0.0489133 0.11736 0.0404398 0.0944787 0.00602074 -0.103096 -0.00167237 0.0414044 0.0443574 -0.0469357 -0.0707894 -0.019151 -0.0986842 0.0969398 0.0645471 0.0215066 -0.124538 -0.0609977 -0.0903977 -0.0439835
Q30 0.0916729 0.00108331 0.0145958 -0.0240432 -0.0124799 -0.0805602 0.108502 0.0162056 0.0612094 0.0531769 0.120607 0.0497107 0.075489 0.100827 0.0309883 0.073892 0.0327885 0.335186 -0.0295716 -0.287801 0.0445634 -0.149495 -0.0861683 -0.148608 0.0370048 -0.0707077 -0.0393354 -0.025894 -0.0917565 -0.0196122 -0.0874947 0.145892 0.100746 -0.0563028 -0.0476725 0.0890543 0.124704 -0.0747656 -0.0888946 0.0126435 0.0321375 0.0356642 -0.0657114 -0.00262827 -0.119334 -0.0567565 0.117297 0.104014 -0.0371645 -0.159904 -0.150445 -0.072052 -0.00879731 0.0370939 -0.0800592 -0.0596777 0.0290052 -0.0344423 -0.100966 -0.0967346 0.0414929 -0.183611 0.016566 0.0661069 0.0605613 0.12536 0.0155946 0.0409482 0.195694 0.0285906 0.0372831 0.0623365 -0.0823636 -0.115669 0.0773299 -0.0737207 0.0132238 0.0195201 0.0201032 -0.0445997 -0.0950647 -0.0339823 -0.0864319 0.0285942 -0.0379888 -0.0622151 -0.0408598 0.0281018 0.160215 0.147423 -0.0307548 -0.033091 -0.0640405 0.002395 0.0301313 0.105988 0.0112411 0.0564747 -0.0909274 0.092868
Q37 0.168883 -0.021093 0.0385188 -0.00757385 0.00112495 -0.15368 0.0492866 0.0680649 0.077987 -0.0142797 -0.133151 0.0128708 0.148982 -0.0063543 0.102815 -0.210107 -0.0831933 -0.0101151 -0.100445 -0.123251 -0.0159512 -0.00414431 -0.0959672 0.016234 0.00163308 -0.123548 -0.00773124 -0.0246705 0.0458909 -0.00916819 0.0364427 -0.0380554 0.0214238 -0.0899216 -0.126736 0.0279807 -0.0505346 -0.107176 -0.0945743 -0.0342979 -0.0198448 0.00722577 0.00702064 0.0246973 -0.056612 -0.0052532 0.0163707 0.0228764 0.00266801 -0.0805638 -0.100844 -0.0245286 -0.0803896 -0.0178944 -0.00337998 -0.0365977 -0.0308472 -0.205249 0.0197436 -0.0143392 0.0720306 -0.0154459 0.0631789 0.0399412 0.0119598 0.121624 -0.120063 0.00797561 0.0959364 0.117299 0.00833698 -0.0205206 -0.0145462 0.0679212 0.0579343 -0.0733785 0.0202671 -0.0221363 -0.0621792 -0.00581887 -0.0630079 0.0582737 0.0316622 0.109715 0.00140343 -0.107936 -0.0441028 -0.0093288 -0.0801427 -0.0749706 0.103597 -0.102206 -0.0786287 -0.0472271 0.0193828 -0.00340234 0.0392552 -0.150909 -0.00442811 -0.0194495
Q36 -0.084021 0.0811717 -0.0905257 -0.051005 0.000723216 -0.0454531 -0.144044 0.0230264 0.0953351 -0.044188 0.0132157 0.0476805 -0.15156 0.109252 -0.0748327 0.0337966 0.0360604 -0.0997788 0.104445 0.0315745 0.0980479 -0.0654846 0.0957888 0.0122411 -0.034345 0.0389066 -0.038946 -0.0527728 0.0118106 0.0401296 0.0052221 -0.0623724 -0.0517772 -0.00151394 0.0789106 0.118983 -0.0947288 0.0204827 0.0218773 0.00943318 -0.0400645 -0.0652893 -0.0364121 0.0522186 0.0293225 -0.0800904 0.024462 0.0165709 -0.106867 0.138105 -0.0525357 0.103872 -0.042363 -0.0316296 0.0366521 0.162954 -0.0783807 -0.0194124 0.043425 0.0873576 0.012287 -0.00153617 -0.00186535 -0.046834 -0.113992 0.0157124 0.120813 -0.0946307 -0.0909259 -0.00062762 -0.00485222 -0.0429257 0.0403647 -0.0627262 0.0545458 0.137412 0.029422 0.0261329 0.00950393 -0.00793198 -0.0610448 0.0587916 0.0265827 -0.0215698 0.112109 0.150796 0.0240932 -0.00723109 -0.00494641 0.141902 -0.0262452 -0.0490279 0.0642921 0.05433 -0.00139598 0.011501 -0.0688645 0.0234371 -0.0113263 -0.0323683
Q35 0.271332 0.0336549 0.0573697 -0.116532 0.127976 -0.0566053 -0.00652712 0.0517971 0.0447692 -0.109424 0.0503141 0.127138 0.0800907 0.0344313 0.0718708 -0.00957569 0.0114189 0.0401347 0.0421128 -0.103199 0.0839632 0.00955376 -0.0268119 0.0877222 -0.0301211 0.06776 0.0502921 -0.0640502 0.013946 -0.232781 -0.166098 -0.0136645 0.0651425 -0.067019 0.0237827 -0.016502 -0.0703565 0.0908119 0.167517 -0.0652308 -0.00924559 -0.136798 -0.0897876 0.0989184 0.0319216 0.0477288 -0.143697 0.116215 -0.113719 0.0672492 0.109548 0.0206769 -0.04751 0.00845349 -0.136026 0.104839 0.00962464 -0.0991579 0.0814395 0.00921003 -0.0377059 0.0226909 0.00877871 0.130904 0.113466 0.0200366 -0.0116231 0.0152713 0.0593958 -0.030059 -0.0417916 -0.0185885 -0.0378927 -0.190344 -0.021427 0.105686 0.118877 0.163051 -0.0795588 0.0597061 0.0219456 -0.123608 -0.153201 0.0169831 0.130711 0.05233 0.0300123 -0.113552 0.0341969 -0.0710405 -0.0398064 -0.0380062 0.020861 0.0598516 -0.00778494 0.0972334 -0.108597 -0.062464 -0.0166666 0.131792
Q34 -0.0332076 0.110748 -0.00543108 -0.0199025 0.0380544 -0.0564724 -0.125071 0.0665791 -0.0446467 -0.0596477 -0.0504974 -0.107895 0.00596615 -0.120453 0.0517941 0.0206645 -0.0210723 0.0600502 0.0120519 -0.0241686 0.0339275 0.0391958 0.0406615 -0.000582375 -0.0532968 0.0995957 -0.123111 -0.00801427 0.00539186 0.101461 -0.0892326 0.0585544 -0.0749589 -0.0327655 0.151353 0.027166 -0.0656998 0.0232283 0.0691302 0.0427715 -0.0604571 0.00347194 -0.0223527 -0.0523987 -0.0753602 0.0285727 -0.0788119 0.0991385 -0.0295847 0.0405892 0.0475499 -0.0802038 -0.0484759 0.0274901 0.00375397 -0.0265653 0.050354 0.271931 0.0712268 0.0707159 -0.139069 -0.0617967 -0.0264349 0.0158234 -0.0316252 0.0233164 0.00477916 0.088049 -0.079406 -0.0398586 0.0185072 0.0645423 0.0151808 0.0948099 0.0484009 0.0289205 0.132824 -0.0789652 0.00686316 0.0562862 -0.0373951 -0.0789761 -0.0470126 0.0473636 0.0698194 0.0404002 0.0916449 0.157922 0.105638 0.00154513 -0.11273 -0.0552271 -0.0817391 0.0208576 0.00730035 0.0265255 0.0021318 0.0560727 0.0680957 0.0878754
Q39 -0.097529 0.00967527 -0.0913904 0.0540239 0.0774244 0.114403 -0.0892381 -0.122797 -0.0367094 -0.0250626 -0.143602 0.0676191 -0.0269456 -0.110822 -0.0712959 -0.0346747 0.0192412 0.0272108 0.0119182 0.0578034 -0.00107971 0.0247143 -0.0624036 -0.0295901 0.108263 0.0455005 0.0262659 -0.00137893 -0.0122659 -0.01544 0.0217182 0.104846 0.00793712 0.0246931 -0.133382 0.0809105 0.125936 0.00467046 0.00832823 -0.0175835 0.0739525 -0.0629661 0.00759733 -0.1638 0.0236134 0.0345317 -0.0697209 -0.00969184 -0.0557454 0.179865 0.0486727 -0.0658136 0.0591667 0.117429 -0.0169699 -0.0903682 0.0365416 -0.0725051 0.0377678 -0.0628106 0.0953593 -0.0106721 -0.00275899 0.0085374 -0.0106654 -0.0482387 -0.00588516 0.0272853 -0.0771945 -0.0229524 -0.0172189 0.176523 0.0862484 -0.126237 0.0767142 -0.0207325 -0.0993626 -0.0280724 -0.0712199 -0.0506952 -0.0542434 0.113592 -0.00936014 0.119886 -0.139032 -0.0175704 0.0666324 0.00812064 -0.062551 -0.00683578 0.0289518 0.120381 0.0126367 0.0129826 -0.184165 0.118999 0.114797 0.0572216 0.0318281 -0.145955
Q38 -0.0697949 -0.0800883 -0.00425926 0.0277952 -0.0574038 0.121521 -0.00585892 -0.0174306 -0.0311965 0.0122551 -0.0721612 -0.112032 -0.0941343 -0.0106308 0.011184 0.0142183 0.0331525 -0.0123419 0.0720743 0.0093882 -0.0252206 -0.0394711 0.0761424 -0.0694369 0.0419778 0.0311769 0.0111594 -0.054897 -0.00759381 0.146403 0.195846 -0.169119 -0.00688152 0.0681256 0.0325478 0.0234999 -0.0596704 0.0467911 0.0641888 0.00354075 0.0390661 -0.00809195 0.0524476 0.0641685 -0.0455993 0.0866553 0.00167063 -0.0161892 0.0618885 0.0399755 -0.0639705 0.00511938 -0.00747685 -0.0910919 0.0749789 -0.123881 -0.0882321 0.0280497 0.0962442 0.0938909 -0.00430706 0.0639663 -0.00758364 -0.0722904 0.0120221 -0.020975 0.0131272 0.0210232 0.018129 0.0290193 0.0438545 -0.0745817 -0.0146866 0.017877 0.0788661 0.0196062 -0.0447056 -0.0148845 0.101297 -0.014527 0.0104307 0.0209756 -0.0349882 -0.0520291 -0.063052 0.0693889 0.00261452 -0.057824 -0.0550787 -0.0802348 0.0210277 -0.0810788 -0.00560904 -0.0297615 -0.00540025 -0.0482169 -0.00578731 0.0543759 -0.0569857 -0.0637895
Q142 0.13924 0.104034 0.0476145 -0.0651848 -0.0500617 -0.0409198 0.00670377 0.169613 -0.0236315 -0.0744681 0.201609 0.0489414 0.0238736 0.00937734 -0.00445632 0.0740817 -0.00678797 -0.144017 0.0472144 0.0552745 0.0708601 -0.0394977 -0.0187664 -0.140293 -0.00983194 -0.0195208 -0.0388261 0.00832747 0.0179855 -0.116934 -0.0504653 0.0496189 -0.0304781 0.0372558 0.0269091 0.0272296 -0.0971987 0.0249779 0.114226 -0.033369 0.032373 0.0333322 0.132275 0.11199 0.146057 -0.0960831 0.0645161 0.100535 -0.0566816 -0.0553103 0.0482029 0.018851 0.0184763 0.0283866 0.0922567 -0.00763896 -0.0574428 -0.0915655 -0.105847 -0.019982 -0.0429592 -0.0551731 -0.0409724 0.0483479 0.0565689 0.0272605 -0.0180851 -0.00128568 0.0610108 0.0287693 0.00442494 -0.0684099 0.026317 -0.035327 -0.0957797 -0.00430631 -0.0772657 -0.134568 -0.0233974 -0.0287408 0.0956712 -0.0528621 -0.030342 -0.0190245 -0.021226 0.103001 0.0305433 0.115018 -0.0839297 0.0247949 0.10235 -0.0486684 0.0804848 0.0567636 0.0211921 -0.0405033 -0.00502436 -0.000709587 -0.0192407 0.0680227
Q143 0.123232 -0.00955624 0.0351375 0.00642673 0.0282711 -0.127417 -0.0522282 -0.108949 -0.00120774 -0.0862662 0.209509 0.215374 -0.0300097 -0.0375373 0.0574158 0.0512728 -0.0694657 -0.0606634 0.0167969 -0.0628711 -0.0271287 -0.0118408 -0.078346 0.070852 0.0769279 -0.0490153 0.0411675 0.014792 -0.0537367 -0.0898205 -0.142757 0.131092 -0.0657079 -0.106017 -0.0279567 0.0601285 -0.0432649 0.122592 0.0166693 0.0292681 -0.0784625 -0.0320425 0.0303493 0.00774736 -0.0631748 -0.0600397 -0.130347 0.127785 -0.0654637 -0.0339929 0.154044 -0.0369754 0.116783 -0.0208243 -0.149149 0.0448242 -0.0797883 0.0382789 -0.104974 0.0439729 -0.0285993 -0.0122075 0.0686036 0.0637859 -0.136568 -0.0241872 -0.125006 -0.0764138 0.0616292 -0.0855144 -0.0986684 0.030305 0.0408721 -0.0410384 -0.0634755 -0.0474338 -0.0438207 -0.150659 0.0239406 0.0660065 0.0636266 -0.0598153 0.0180264 0.0412263 -0.0328687 -0.0715327 0.0417134 0.0399323 0.0066591 -0.0851385 0.109532 0.00344486 -0.0613463 0.0956304 0.00490566 0.0787271 0.100904 0.026418 -0.0729812 0.0612908
Q140 -0.021053 0.0883798 0.0885048 -0.0633079 -0.00942596 -0.0428028 0.0137618 0.0798766 -0.112171 -0.0798753 0.0352302 0.0893277 0.073225 0.0332384 0.0848397 0.0462383 -0.064349 0.0730412 -0.120628 0.0649357 -0.120806 0.0434639 0.0161786 0.0118202 -0.027471 -0.0374171 0.00627776 0.0465276 0.0983967 -0.0589819 0.01097 0.0742614 -0.0372719 -0.0228026 -0.0267588 0.0322068 -0.0280532 -0.0221023 -0.0568343 0.0601724 0.0121362 0.00410694 0.0396529 0.0225372 -0.00301369 -0.102455 -0.0623982 0.0985602 -0.00376941 -0.0480607 0.0280494 0.0774306 0.108725 0.115147 -0.00352561 -0.000833213 0.0172183 0.122032 0.0988665 0.134826 -0.0433478 -0.0346406 0.131117 -0.0231279 0.0346102 -0.021982 -0.052447 0.0972904 0.00410517 0.0599489 -0.0673882 -0.0247927 0.0539266 0.198251 0.00011923 0.0982025 -0.0647415 0.174306 -0.0647782 0.0394429 -0.0201247 -0.0321561 0.0516284 0.01942 0.000591728 -0.139797 0.0404702 -0.0592574 0.0473832 0.0205598 -0.0528513 -0.0105485 -0.0364794 0.0368326 0.026392 -0.0750605 0.133713 -0.0637952 0.105474 -0.0360706
Q141 0.0528922 -0.0511858 -0.235091 0.0611708 -0.0949315 -0.0162997 0.0253948 -0.0780532 0.0174091 -0.0169997 0.0713294 -0.0615012 -0.0384027 -0.0136964 -0.00393614 0.0580098 -0.0496558 0.209813 0.0197599 -0.10664 -0.251731 -0.0617013 -0.0300701 0.0554079 -0.033297 0.129351 0.0785257 -0.194519 -0.0847892 -0.0524333 -0.0932625 -0.116126 0.0855352 0.018101 -0.0459579 -0.02459 -0.0340454 0.130619 -0.0335778 -0.175879 -0.115694 -0.0500844 -0.138054 0.005757 0.0332146 0.164144 0.0305074 -0.0125946 0.0903506 -0.162608 -0.0307172 -0.0181531 -0.0107147 -0.137742 -0.00814602 0.14491 -0.00792774 -0.0244615 0.0223648 0.0776564 0.127835 -0.157242 -0.184386 -0.0497765 -0.0920733 0.0878006 -0.100675 -0.0459125 0.0543157 -0.0658243 0.14044 0.074198 0.0997844 0.0232651 0.0496098 -0.0339578 0.0518295 -0.123763 -0.0845352 0.0381106 -0.0614907 -0.0372698 0.00179442 0.000480715 0.0859413 -0.0110998 -0.0850252 0.0179749 -0.0864352 -0.00443756 -0.0120077 -0.00562469 0.0111624 -0.0855401 -0.120218 0.10047 -0.0531307 0.053387 -0.0557693 0.154377
Q146 -0.0840998 -0.0752772 -0.0739797 0.0350732 0.02383 -0.0354891 -0.01227 0.0637729 -0.00694489 0.125358 -0.0360391 0.0200137 -0.0168433 -0.0107783 0.173083 0.00249505 -0.0216793 0.0715693 0.00688957 -0.041279 -0.155847 -0.00702145 -0.0931727 0.092006 -0.0740279 -0.0140084 0.17619 -0.0424719 -0.0377976 -0.0206112 -0.121104 0.0748879 -0.00784537 -0.0869569 -0.144818 -0.0956083 -0.132183 -0.0521846 0.00399126 0.0197082 0.0446548 -0.0573152 -0.0912381 -0.093978 -0.0535937 0.112263 -0.0206018 -0.120576 -0.0716579 -0.0309785 0.02739 -0.0713946 0.00143892 0.164242 0.0374466 -0.0763411 0.0832092 -0.0722638 -0.0562092 -0.0724211 0.0027751 0.0253802 0.0748439 -0.0187049 -0.0490116 -0.0933721 -0.124539 -0.0638653 -0.111962 -0.016254 -0.138408 0.00892306 0.0754312 0.0703583 0.104976 -0.140077 -0.0592993 -0.0476278 -0.0843176 -0.0697707 -0.0443943 0.0197298 0.00507617 -0.0457802 0.00396982 0.0278052 -0.128472 0.0269888 -0.0754603 -0.084334 -0.0326451 0.181421 0.149109 0.0323761 0.0100123 -0.109942 0.000506039 -0.123244 -0.0962256 0.0722581
Q147 -0.0431471 0.0709634 0.0487671 -0.0921733 0.0353378 -0.020954 -0.103577 0.155593 -0.165091 -0.136921 -0.0210122 0.020344 0.0493347 -0.0828128 0.0343103 0.0549668 -0.0193902 0.0447904 -0.00218264 -0.116222 -0.022102 0.0554459 -0.0583554 -0.0302933 -0.0291856 0.0401791 -0.0408509 0.0108828 -0.06852 0.0354442 -0.0258322 0.00667215 -0.0349374 0.046348 0.0560594 -0.0429873 -0.0301038 0.0780155 0.0211481 0.00479519 -0.0243452 0.0130665 -0.0849924 0.00902928 -0.0515846 0.0217778 0.0706664 0.0471761 -0.0605225 0.00945504 0.011127 -0.110781 0.040832 -0.012019 0.0473605 -0.132269 -0.0460114 0.140053 0.0106013 0.0458212 -0.0826821 -0.0923772 0.0296638 -0.127891 0.0420312 -0.017378 -0.0128277 0.041364 0.130428 0.00307794 0.0328295 0.0914474 0.000968713 -0.00150506 -0.0452032 0.0331068 0.110931 0.0483193 0.0738391 -0.0465803 0.0165161 -0.0234205 0.0542838 -0.0504021 0.105042 0.0871943 0.0351625 0.102958 0.00581656 0.110186 -0.0778487 -0.0616604 -0.0737 0.0196555 -0.160997 -0.0493257 0.0174432 0.0217974 0.149283 0.153051
Q139 0.0938603 0.0609548 0.0844854 -0.0217086 -0.0549984 0.0840256 0.031551 -0.0838728 -0.0146803 0.00947909 0.131702 0.171034 -0.0760162 -0.0457193 -0.0783317 0.0101828 -0.0405382 -0.111781 -0.064224 -0.00298665 0.104081 -0.0780428 -0.0115563 0.0803752 -0.0826291 -0.124069 0.0342998 0.0635225 0.169268 -0.127806 -0.150787 0.0722927 0.11518 0.0410522 0.0567537 -0.0428991 -0.130666 -0.0562457 0.0204836 -0.0756409 0.0187843 -0.0566796 0.015747 0.0788464 0.0596458 -0.0510981 0.0585118 -0.0407659 -0.0642529 -0.0851418 -0.0302216 -0.0446132 0.0928292 0.01822 0.0139447 -0.0287518 0.136667 -0.0310755 -0.0130962 -0.122437 0.00420336 0.0270293 0.00186418 0.112409 0.0322159 0.161515 0.00472343 -0.0213028 0.0385206 -0.10652 0.0208492 0.0270058 0.0455546 -0.226858 -0.0317227 0.00299504 -0.043669 -0.106876 0.0633392 -0.0435426 0.0373132 -0.0281142 -0.0135781 0.00901256 -0.0189597 -0.0457387 -0.00466514 0.137472 -0.0144883 -0.111608 0.0495276 -0.00689866 0.0911117 0.013066 0.0522718 -0.0448557 9.88638e-05 -0.0630771 -0.0180155 -0.0415347
Q138 -0.084039 0.036335 -0.0323725 -0.10574 -0.00154542 -0.00693803 0.0389645 -0.0913569 0.0109426 0.00317444 0.0357917 0.0127757 -0.00970167 -0.0629317 -0.140778 0.102184 -0.0744472 -0.0961057 0.0380343 -0.0142065 0.00650606 0.04263 0.135874 0.0107102 0.0823735 -0.0116066 0.0192425 0.0377273 0.00328652 0.0331165 0.0430404 0.0626964 0.0541279 0.0933935 0.00843097 0.0551118 -0.0600074 -0.0533687 -0.0323031 0.0178068 -0.0443976 -0.0136372 0.0630087 -0.109753 -0.0579953 -0.0205337 -0.041033 -0.086522 0.0398327 0.0119194 -0.0948916 -0.0548236 0.0243859 0.0874674 0.0482011 -0.0970978 0.138665 0.0217923 -0.0670937 0.0162498 0.0157235 -0.0081612 -0.0901679 -0.0657678 -0.0568056 -0.00214435 0.0579387 0.0128923 -0.00445305 -0.0490011 -0.0682591 -0.095582 0.0622136 -0.15124 0.130623 0.060357 -0.0493798 0.120109 0.0365378 -0.100521 0.0893275 -0.12569 0.0400111 0.0447633 -0.0136318 0.0351004 0.0209295 0.111059 -0.0633341 -0.0977066 -0.0713382 0.045977 0.0182083 -0.149021 -0.0401595 0.00581453 -0.0758974 -0.0163277 -0.130246 0.0158106
Q144 0.0848074 -0.0229112 -0.10326 -0.017578 0.215319 -0.105575 -0.064088 -0.0309197 0.107542 -0.0399593 0.00858444 0.0320018 0.0133943 0.128569 -0.146366 -0.0462196 0.0462487 -0.0249143 -0.0340077 -0.0599424 0.086847 0.0188483 0.099041 0.0328697 -0.0371337 -0.0551203 0.0320579 0.0603521 -0.0161944 -0.127202 -0.040486 0.00298017 0.0344055 0.018697 0.028039 -0.0820934 0.00069294 0.0426725 -0.0841422 0.0193653 0.00913775 -0.00781787 0.0174826 0.0438602 0.074556 -0.0896516 -0.0234383 -0.0281261 0.0851677 -0.0392543 0.037283 -0.0165075 0.0313098 -0.00220726 0.150933 0.0885412 0.0277787 -0.18305 -0.00769531 -0.00468558 -0.0153939 -0.0489382 -0.0219764 0.0372112 0.0279052 0.150782 -0.0161781 0.0410011 -0.0639276 -0.0671362 0.0383003 -0.0299743 -0.0013508 0.0387489 0.0952355 -0.065423 0.0303074 0.0529971 -0.00109469 -0.0151482 0.0519926 -0.0136792 0.0734245 -0.13098 0.0416185 -0.00711415 0.0831724 0.0742 0.0701216 -0.136054 0.0201912 -0.00877544 -0.102583 -0.0876685 0.0296877 -0.0236466 -0.105083 -0.0538871 0.0263121 0.0679595
Q133 -0.0927225 -0.0152183 -0.0128692 0.00391411 -0.0097766 0.117133 -0.036359 -0.0548794 -0.060116 0.0879196 -0.0823545 -0.135795 -0.0135354 -0.0269721 -0.0155532 0.0444233 0.0960377 -0.0406168 0.0615908 0.0769079 0.066578 -0.0167959 0.0551753 0.0526841 0.0129497 0.0256411 0.0375599 -0.0107066 0.0629153 0.121907 0.0639147 -0.0684923 -0.0817149 -0.0376759 0.000806425 0.00751523 0.0133597 0.0356711 0.00996346 0.0578716 -0.0160015 0.055724 -0.0260556 -0.0266305 0.0139555 0.0662164 -0.0976584 -0.0924183 0.0646406 -0.0261019 0.0516027 0.0244959 -0.0097699 -0.0739402 -0.0167319 -0.0815606 -0.017179 0.0740818 0.0581039 0.0158548 0.0293145 0.0969242 0.0563412 0.0196202 -0.105545 -0.114796 -0.00496329 -0.0427937 -0.0522768 -0.000540537 0.0291738 -0.022821 0.000163555 0.0165895 0.0139283 0.0261893 0.0164667 -0.0280972 0.046138 -0.0266946 -0.0716802 0.0990281 -0.0331866 -0.0302964 -0.0214226 0.0674758 0.0309622 -0.0463809 -0.0923493 0.0871315 -0.0640575 0.0263796 -0.0399685 -0.0498912 0.0408275 -0.0813265 -0.0965329 0.103918 0.0806634 -0.0499217
Q132 0.00416393 0.00599169 0.108433 -0.0723291 -0.00240109 -0.159582 0.0566683 0.115222 -0.096772 -0.0873934 -0.0538085 -0.024115 0.00644957 -0.0821973 0.0278234 -0.113639 -0.122024 -0.0225976 -0.152731 0.00826972 -0.0399779 -0.0169419 -0.0823315 0.0175841 0.0943098 0.00543387 -0.0247792 -0.0694088 -0.0798532 0.0256106 0.0100766 0.0973551 0.0902045 -0.121835 0.0614859 0.06974 0.0267946 -0.0217468 -0.0467982 -0.0897025 0.0259995 -0.00621387 -0.0429152 0.154967 -0.00869852 -0.0204569 -0.0770033 0.104292 -0.0353034 -0.0687574 0.0167693 0.0689493 -0.132899 -0.0138221 0.054383 -0.0135988 0.00692323 -0.16588 -0.0625416 0.0594637 0.0818706 -0.0552845 0.062638 0.157586 0.0527664 -0.0807047 -0.132515 -0.0133778 0.08774 0.176077 0.0909149 -0.030909 -0.0591049 -0.0353597 0.0144432 0.0951582 0.0430125 -0.0286015 0.0310823 -0.0966498 0.0155935 -0.0489519 -0.0758477 0.160283 0.00749343 0.00627417 -0.155113 -0.0390794 -0.0750831 0.0183134 0.0366763 -0.166338 -0.030999 -0.0566621 0.0437263 0.0383771 0.047164 -0.107223 -0.0242574 -0.122492
Q131 0.0247735 -0.0117107 0.0659648 0.0437159 -0.0854884 0.0375329 -0.0967619 0.00931486 -0.0371438 0.0731864 0.0530194 -0.1408 -0.183969 -0.0224074 -0.0110634 -0.0326181 0.0826696 0.0366743 0.188428 0.0920693 0.0251642 -0.0142693 0.0441724 -0.0107411 0.012141 0.055714 -0.112021 0.0808577 0.0158739 0.066125 -0.0398592 -0.116447 0.0329121 -0.0185096 0.124197 0.125424 -0.0146832 0.00154239 0.0809477 0.0825826 0.0539491 0.0169031 0.0617513 0.0712723 -0.0308979 0.0646847 0.0399951 -0.102782 0.0371354 0.0132503 -0.0613538 0.0444044 -0.0665435 0.0575122 -0.0578243 0.0875302 0.0661191 0.0626507 0.138683 0.01437 -0.0440779 0.0454851 0.0930678 -0.0961484 -0.0408935 -0.0740699 0.107001 0.0561301 -0.0806779 0.029444 -0.022817 0.030075 -0.0534778 0.0047183 0.0401207 0.0109577 0.0227776 0.0180785 -0.000921362 -0.0250687 -0.0674623 0.0692064 -0.137059 0.0962328 -0.062468 -0.00912322 -0.0908976 0.0215292 0.121274 -0.00702332 0.0525123 0.0363962 -0.0392545 -0.0276571 0.0710625 0.0659443 -0.0215746 0.0448566 0.0839851 -0.0585396
Q130 -0.0620867 0.0169542 0.0127383 0.00187006 0.0257939 -0.00649153 -0.0618791 -0.0182771 0.00830662 -0.0406804 -0.0471151 0.0065028 0.00937548 -0.0107048 -0.139717 0.146861 -0.107671 -0.0825254 -0.108236 -0.0305556 -0.0466346 0.134092 0.0675838 -0.0765101 0.0707834 -0.0053808 -0.0695208 0.106663 -0.0117574 -0.0936608 -0.00599909 0.130024 -0.0348856 -0.0346061 0.0465955 0.00551379 0.133023 -0.00869558 0.0295233 0.0102374 -0.0456057 -0.0509614 0.113228 -0.0666949 0.00143659 -0.0377425 -0.00796193 0.00321997 -0.0503771 0.0429695 0.0505201 0.00677873 0.0546691 0.0584533 0.0511783 0.0132359 0.0128162 0.0490893 0.031919 -0.00199958 0.0950632 -0.0556156 -0.00575126 0.00797745 -0.0618763 -0.0463347 0.0679444 0.0147882 0.0830176 0.0724507 -0.0626193 0.0640826 -0.0773069 -0.0557352 0.0243729 0.00621565 -0.103109 -0.128226 -0.0575142 -0.12391 0.0101999 0.0701473 0.0218187 0.0535311 -0.0322064 -0.137346 0.0702685 -0.0173534 -0.104169 0.0141916 -0.0462384 0.0766508 -0.0632968 0.0995772 0.0668742 0.0411573 0.0355269 0.0350113 0.00202604 0.100346
Q137 -0.135771 -0.0892151 -0.0878731 -0.0195191 -0.0104767 0.12207 -0.0562716 0.0191138 -0.0591948 0.0595637 -0.0562847 -0.111505 -0.0430331 0.000238337 0.0559872 -0.0686621 0.122211 0.0276026 0.0734915 0.0973618 -0.0454189 0.0668328 0.0384693 0.0102079 -0.0248085 0.0123929 0.056587 -0.0686749 0.0210133 0.185818 0.0744549 -0.1627 0.00113318 0.0357505 0.1392 0.0498983 -0.014522 0.0880967 0.0437485 -0.00700732 0.00852253 -0.0244177 -0.0465528 0.0302894 0.0114334 -0.0531107 -0.0673498 -0.100695 0.0210837 0.103399 -0.022104 0.0724759 -0.0640408 -0.14599 0.0769563 0.012912 -0.0630656 0.0309737 0.103447 0.113318 0.0463778 0.00518442 0.000207429 -0.0554861 -0.0696532 -0.0242264 0.115256 -0.094362 -0.0878087 0.0435006 -0.00212645 -0.0857331 0.025323 -0.0543911 0.0115325 0.00828955 -0.0384789 -0.118282 -0.0230072 0.00419536 -0.0342065 -0.0507768 -0.0586955 0.0280814 -0.0504712 0.157943 0.0538712 -0.0650858 -0.0310147 0.0142828 0.0365839 -0.0898024 0.0785325 -0.0565361 0.107904 -0.114108 -0.0884019 0.0888991 0.03482 0.0553851
Q136 0.162217 0.0727247 0.17072 -0.0180356 -0.0368243 0.0330853 0.0461652 0.0559734 0.0143753 0.0849042 0.201531 0.107165 0.0697515 0.0839479 -0.0372786 0.0305265 -0.0587971 0.0853274 -0.171739 0.00569655 0.0422035 0.0518171 -0.0143696 0.130447 0.186952 0.0248709 0.0713354 0.00149828 0.0220635 -0.123127 -0.0918183 0.052819 0.113642 0.0708294 -0.0693553 -0.0439929 0.0022356 0.0522603 -0.0117068 -0.122416 0.0355354 0.0600021 -0.270584 0.0884228 -0.00481206 -0.123617 0.0894012 -0.0615025 -0.156631 -0.0100356 0.0913124 -0.043466 0.129079 -0.076673 0.0393059 -0.00768578 -0.00376346 0.0227127 -0.0497205 -0.0787257 -0.171898 -0.0668782 -0.127996 -0.00882302 0.0694065 0.138758 0.019979 0.0714696 0.0887586 -0.0837768 -0.0520579 0.00212653 0.0950675 -0.0970748 0.101404 0.136688 -0.0105757 0.111737 0.00811734 -0.0598762 0.169952 -0.0740243 0.0119233 -0.0771573 -0.0664125 -0.166513 -0.0585691 -0.0685592 0.242948 0.17146 0.029456 -0.0677888 0.0356559 -0.00323396 -0.0255248 0.0216062 0.0592964 0.142011 -0.121568 0.0617011
Q135 -0.0459184 0.082699 0.126845 -0.10925 0.0476996 0.0239529 0.031016 -0.0631229 0.00698516 0.0571996 0.123214 0.212093 0.0888643 -0.174004 0.0183994 -0.145313 0.00260444 -0.0588901 0.0373752 -0.0222433 0.00739449 -0.0128675 0.0678637 0.0824701 -0.00427753 -0.104713 0.0292076 0.0637608 0.00704277 0.0525487 -0.130877 0.0469851 0.0933131 0.057457 0.0916169 0.0123637 0.0183523 -0.0184875 -0.0228406 0.0946622 -0.0518451 -0.00459387 0.00150312 -0.0574771 -0.0181337 -0.0410477 0.0731854 0.0377774 -0.0914467 -0.041773 -0.0522798 0.00371249 0.0464547 -0.0917686 0.0262292 0.0529557 0.103106 -0.0249467 -0.209327 -0.156577 0.0375151 0.0574476 0.067547 0.0217772 0.0348184 -0.019412 -0.0553579 0.0304054 -0.129668 -0.0654243 0.0856906 0.00899786 -0.0543827 -0.068891 -0.0791035 -0.000662792 0.00731096 -0.0123043 -0.0549708 0.0065953 -0.0415481 -0.0406589 -0.0100592 0.0383554 0.0397021 -0.039778 -0.0583875 0.128744 -0.0730935 0.00192849 0.0714179 -0.121943 0.031356 0.0370998 -0.0715438 -0.0258812 0.0834452 0.0450978 0.0631248 -0.0286426
Q134 0.0200513 0.112118 -0.0886766 0.0491205 0.11613 -0.0999788 -0.0193171 0.0086937 0.0860272 -0.0671083 0.0338187 0.0624081 -0.00407658 0.106125 -0.0930173 0.03142 -0.125258 0.0211665 0.0211521 -0.00120269 0.00492822 -0.00544184 0.0787324 0.0167531 0.0738702 0.0861337 -0.00871327 -0.110795 0.00337591 -0.0732209 0.016216 -0.0408676 -0.00687125 0.0494691 0.0379387 -0.0110157 -0.0884557 0.0948888 -0.0770473 0.0475714 0.000804577 -0.0536536 0.0202456 0.156624 -0.0289559 -0.145686 0.0304858 0.0722913 -0.0249747 0.0285549 -0.00190194 0.0262077 0.0221451 0.0457728 0.0692799 0.0554497 0.0136101 -0.134316 0.00598084 0.0126897 -0.0231239 -0.00297781 -0.0777607 -0.0193591 0.0321137 0.090639 -0.0889973 0.0799335 -0.112983 -0.0358497 0.0161382 -0.0326905 -0.058027 0.00593484 -0.0279373 -0.0676247 0.0569632 0.069302 0.0297373 -0.0407849 -0.0320547 0.0705842 0.00501961 -0.0243455 0.0808164 0.0131596 -0.00558581 0.144975 0.00676917 -0.054233 0.0221405 -0.0638909 -0.0356187 0.065497 -0.0343711 -0.00106153 -0.167824 -0.0724421 0.0271365 -0.0517421
Q20 -0.00654079 -0.0246091 0.0270684 0.0405503 -0.048649 0.126929 0.00339687 -0.121857 0.012911 -0.0331431 -0.1001 -0.097474 -0.0908184 -0.00338393 0.0656612 0.0294142 0.0607866 0.00174658 0.0841248 0.0164401 0.0318066 -0.0626597 0.0595877 -0.028195 0.019236 0.000466305 -0.0192122 0.0488407 -0.019126 -0.00808938 0.154953 0.0173175 -0.0498892 -0.0168313 -0.0210662 -0.0436611 0.0637292 -0.0324987 0.0394435 0.102041 0.0660716 -0.0104464 0.0188761 -0.0640047 -0.0305534 0.0750599 -0.0449394 -0.0206018 0.0588229 -0.0134402 0.0405096 0.0945061 0.0276923 -0.0673588 0.0228026 -0.0743288 -0.0568364 0.0592121 0.134783 0.00514897 -0.121381 0.0367765 -0.0246027 -0.0428081 -0.109201 -0.108071 0.0192267 0.0263034 -0.104742 0.041642 0.0481015 0.0405169 -0.0264926 0.0853698 0.106213 -0.00341278 -0.0813089 0.101035 0.0612654 0.110991 0.0261299 0.143598 -0.0773067 -0.0223613 -0.0598689 0.0201255 -0.0451139 -0.105726 -0.0269126 -0.0270993 -0.0176823 0.077779 -0.081437 -0.0499212 0.0641697 -0.00217114 0.0367283 0.0462255 0.0542459 -0.113456
Q21 0.0376195 -0.0996933 0.00123482 -0.196312 -0.0224579 -0.046097 0.0516731 -0.0486227 0.0217267 0.0309011 0.189204 0.118736 -0.0378489 0.0457735 -0.0468674 -0.168285 -0.0194093 -0.0413101 0.0353895 -0.0926735 -0.0613997 -0.102456 -0.042709 0.105747 0.121798 -0.000413281 0.0155468 -0.092914 0.141434 -0.159855 -0.0482411 0.0548127 0.0573601 -0.0516105 -0.0269688 0.108214 -0.0411727 0.0200241 0.04197 0.104246 -0.0747064 -0.0815952 0.0227672 0.0739324 -0.0437465 -0.0441578 0.0395376 -0.113918 -0.0185177 0.0940597 -0.0252843 -0.0966975 -0.0296472 -0.0473834 -0.0810561 -0.132339 0.129087 0.0720839 0.00154167 -0.0960013 -0.0303879 0.0543926 0.065599 -0.00513278 0.00904111 0.203606 -0.00846707 0.0852041 0.0874286 0.0511439 -0.0369988 -0.0970959 0.0214517 -0.234324 -0.0251311 -0.0626226 0.130769 0.0391193 0.0792563 -0.182941 0.166772 -0.0675231 -0.00722494 -0.0547225 0.0746963 -0.0540221 0.0921787 0.156477 -0.0670291 0.0482725 -0.00858675 -0.0402975 0.205772 -0.140179 -0.122448 0.0393326 -0.116413 -0.0266097 -0.160769 0.0550375
Q22 0.0120733 0.0383926 -0.0453701 0.0153172 -0.0473662 0.185292 -0.0189923 -0.0254441 -0.00778367 0.00453326 -0.0330342 0.0330145 -0.0536457 -0.0493468 -0.0195324 -0.0090822 0.0234221 -0.0336457 0.0658568 0.0813511 -0.0643905 0.0250472 0.0397783 -0.0546133 -0.0145701 -0.0208918 0.0569323 -0.00221353 -0.0254142 0.0380924 0.0897153 -0.0913152 -0.0369843 -0.0154109 0.122039 -0.0190013 -0.0370334 -0.0052166 0.0178478 0.0628517 0.115675 -0.0241338 0.151462 0.0482203 -0.110017 0.103559 0.00190887 -0.0549362 0.106477 0.0172591 -0.0722232 0.0626464 0.0347448 -0.0584834 -0.0640045 0.00558248 0.0160064 0.0576836 0.0604138 0.0539555 -0.0981151 -0.0271653 0.0829883 -0.123109 -0.030415 -0.169095 0.201386 0.026329 -0.103101 -0.0172402 -0.0500567 -0.136514 0.012321 -0.00680475 -0.0227546 -0.0311182 -0.0162301 0.0550424 -0.0440253 -0.0238334 0.00700477 0.0665544 -0.0786107 -0.0188042 0.0284875 -0.0160366 -0.0398987 0.0243127 0.103596 -0.0665991 0.00647707 -0.0471577 0.0160433 -0.00948129 -0.0260243 0.0270482 -0.10953 0.00842435 0.0611637 0.0164239
Q23 0.0423953 0.0949037 -0.128534 0.011781 -0.0156089 0.00966215 -0.065855 -0.0142654 -0.0176417 -0.00776836 0.110487 0.142969 0.0331513 0.0916966 -0.00933247 0.0755225 -0.0558246 -0.0749677 -0.0826359 0.0403768 0.126543 -0.142003 -0.114724 -0.0171271 -0.0083108 -0.0406066 -0.0348682 -0.00417329 0.0552987 -0.0122669 -0.14745 0.0746611 0.04749 -0.0345855 -0.00846843 -0.13207 -0.0833496 0.137702 -0.0249604 0.0825599 0.0574729 -0.0787799 -0.0387887 -0.0576817 0.00273775 0.137687 -0.0265561 0.00197447 0.0230289 0.0884933 0.0102038 -0.0461565 0.0298345 0.102149 -0.0134439 0.0398074 0.0388162 -0.0236294 0.0282857 -0.0502573 -0.0631987 -0.0679269 0.0761198 0.166405 0.0617912 -0.0690342 -0.0508943 -0.0179911 0.0112397 -0.107865 0.0191628 0.0625644 0.0344419 -0.0481175 0.0282164 -0.0772384 0.0447009 -0.165289 -0.0167617 0.0678615 0.115668 -0.0976543 -0.0316237 -0.0599497 -0.0325508 -0.125538 -0.0178116 0.00995867 0.0254227 -0.150343 0.0302419 0.152818 0.0184878 0.108971 -0.0717414 -0.0744969 0.201376 -0.115736 0.0172416 -0.0117841
Q24 -0.0634366 -0.0567459 0.0382669 -0.0667146 0.0383924 0.0114953 0.00963223 0.0367855 0.111098 0.000503784 0.0494931 0.151229 0.0380966 -0.00258852 0.0793308 0.0579976 -0.0110678 0.0838208 0.075738 -0.107668 -0.0481568 -0.0826551 -0.172538 0.0246842 -0.0759196 0.0137839 0.0401897 0.0627966 -0.0236886 0.0467212 -0.168155 -0.039828 -0.0707796 0.0235871 -0.210973 -0.0312561 0.204536 0.0680687 0.0181744 0.035968 -0.000321885 0.105661 0.0976961 0.0976874 -0.175297 -0.0191862 -0.0919009 -0.0143099 -0.0798834 0.133091 -0.014405 -0.108472 -0.109269 -0.060008 -0.0692621 -0.0492969 -0.0116314 0.00800102 -0.00445629 -0.185065 -0.0465868 -0.0486573 0.0303542 0.0575927 0.0591953 0.115026 -0.126114 -0.0313979 0.110261 -0.0522531 -0.0763783 -0.0707727 0.0220876 0.132784 0.0625378 -0.0139007 0.172868 0.0964824 -0.106681 -0.0712682 -0.0255485 0.109871 0.0143231 -0.0493211 -0.109982 -0.145367 -0.0696268 -0.0297047 -0.0778119 -0.0236174 0.0905291 0.102295 0.0195727 -0.0210803 -0.0552186 -0.0443229 0.10539 -0.0493008 -0.0930121 -0.0802507
Q25 -0.0207868 0.0147735 -0.0770937 0.102575 0.0538924 0.0790086 -0.0812183 0.0152518 -0.0139035 0.0237522 -0.000296089 -0.0673249 0.0402516 -0.0160919 0.020701 0.0399945 0.0128552 0.0264233 0.112882 -0.00504292 -0.0506427 0.0837072 0.158094 -0.0380086 0.0212627 -0.0313059 -0.0731092 -0.039984 -0.104279 0.0104505 0.0634297 -0.129502 0.0859467 -0.0302659 0.0538791 0.0217937 0.0249066 -0.0139448 0.0662173 0.0441565 0.152513 0.0214038 0.0817778 -0.11261 -0.0737431 0.0832308 0.0374117 0.00794781 0.083749 -0.0767922 -0.107646 -0.0252335 0.00179379 0.0522485 -0.00254424 -0.0770428 -0.0496934 0.0533392 0.0939993 -0.0487207 -0.125285 0.0664553 0.0399284 -0.0779641 -0.0650324 -0.0563137 0.0766293 0.0250263 -0.104542 0.0379576 0.0296097 0.00866422 0.0765539 0.0569608 -0.0334497 -0.0361333 -0.0166567 0.106259 0.0485227 -0.00918348 0.00529605 -0.0432836 0.0414167 0.0017105 0.0492909 0.0771998 -0.0660282 0.104777 -0.0406368 -0.0798461 -0.0165428 -0.0291159 -0.0642338 0.00220255 0.000746491 0.0140762 0.00474453 0.03566 -0.0046794 -0.00068359
Q26 0.0428138 0.043958 -0.0458047 -0.0308922 -0.0707904 0.089646 0.0820129 -0.0160468 0.0299125 -0.0224453 0.00460331 0.0695001 0.0311222 -0.086545 -0.0384066 0.0207686 0.0482291 0.0367367 -0.0202598 -0.0203127 0.00738299 0.223605 0.00237535 -0.0602801 0.0258659 0.0250779 -0.0550936 0.0390334 0.0930868 0.0861021 0.0419615 -0.0264838 0.0523513 -0.0131947 -0.0217957 -0.100883 0.0809256 0.0582383 0.0464919 -0.0122861 0.0417592 -0.0282524 0.121786 -0.147376 0.00326938 -0.0660606 -0.154338 -0.0426114 -0.0758644 0.0151061 0.039851 0.0578199 -0.120671 -0.00874134 0.149962 -0.0299124 -0.0437428 -0.0418384 0.0736648 -0.00380325 0.0181511 0.0375139 0.0206323 0.0141506 0.0126839 0.00386613 -0.079897 0.0463389 -0.0815777 -0.0260897 -0.0958506 0.0577711 -0.0412466 0.0473131 0.0454322 -0.0818705 -0.0921376 -0.0251238 -0.067668 -0.0599287 0.10384 0.06132 0.0381878 -0.021117 -0.0851986 -0.0414762 0.0934058 -0.0395487 -0.113201 -0.0445782 -0.0131932 -0.0281652 -0.015667 0.0148256 -0.033801 -0.056472 0.101353 -0.0157499 -0.00991991 -0.00692154
Q27 0.0712619 -0.0384452 -0.130968 0.0398335 -0.0558681 0.0156264 -0.0840568 -0.105758 -0.0469248 -0.0656202 0.0530253 0.194903 0.0353613 -0.0274916 -0.0801678 -0.0367593 -0.227693 -0.00252786 -0.0855572 -0.0732077 -0.0904611 -0.0123314 -0.187185 -0.0915376 0.175236 0.0426089 -0.0503881 0.0121312 -0.0511239 -0.030049 -0.0641046 0.240753 -0.0545285 -0.0562842 -0.0520575 0.0763422 0.165079 0.0322361 -0.0816534 -0.0762642 -0.133669 0.0282446 0.144309 -0.00749299 0.112456 0.0534343 0.0914889 -0.0362316 -0.166367 0.162659 0.075585 -0.0062585 -0.0580644 0.0197161 -0.198589 -0.107301 -0.0185885 -0.00661445 -0.00379053 -0.0291339 0.131335 -0.194131 -0.0870662 0.0106754 0.0425386 0.0232588 -0.0823989 0.0397427 -0.0382535 0.0798456 0.0452474 0.159346 -0.0550834 -0.109548 0.0428837 -0.0450147 0.103471 -0.0820959 -0.0631708 -0.161556 0.0373101 0.125844 0.106438 0.0757911 0.0322686 -0.0165525 -0.00385331 -0.0693152 -0.106386 0.0656385 0.136087 0.0348152 0.0155165 0.0387307 -0.00977217 0.0538063 0.0993879 0.032229 -0.0382287 0.111487
Q28 0.0269123 0.0679976 -0.0752567 0.0376897 -0.0276444 0.0377356 0.132926 -0.0882174 -0.0717319 -0.0164428 0.0745669 0.111502 -0.107477 -0.0593226 -0.0366878 0.021078 -0.155775 0.00390596 -0.0048527 -0.128127 -0.182849 -0.0723299 -0.0948991 -0.103295 0.0426849 0.0679897 0.0118795 0.0140584 -0.00531957 -0.0574812 -0.000660678 0.027335 -0.0677374 0.103868 -0.0404933 0.00732614 0.100021 0.137169 -0.0211677 -0.013723 -0.000857796 -0.0828197 -0.0656244 0.0432688 0.186628 0.0999809 -0.121437 -0.0286069 -0.0527889 -0.0110821 -0.0158142 -0.00869738 -0.0699813 -0.0161628 -0.0823503 -0.0842895 0.0562184 -0.0840324 -0.0386404 -0.0643686 -0.0316214 -0.0830486 0.0648733 -0.0406701 -0.0220489 0.0869803 -0.0717147 0.0235037 0.069655 0.0087668 0.0768991 0.184763 -0.173427 -0.0728478 0.121412 0.118791 -0.0413281 -0.149296 -0.0845873 0.0604715 0.0422264 0.0366301 0.0424791 -0.0408266 -0.0263528 -0.0011514 0.0431106 0.0503693 -0.161735 -0.0562168 0.10848 0.0220074 -0.0388223 0.0109185 -0.0284811 -0.00996062 0.107237 -0.0371113 -0.0810502 0.010119
Q29 0.0482989 0.00410697 0.0400683 -0.107064 -0.124451 -0.0753423 -0.0694251 -0.00648618 0.19086 -0.0555163 0.00106982 0.0321435 -0.163025 -0.102568 -0.0520791 0.101028 -0.0183217 -0.0184974 0.0181642 0.0172912 0.0238159 0.0526719 -0.0277779 -0.0763266 -0.0939336 0.0727108 -0.00304581 -0.028566 -0.141459 -0.0236111 -0.0457324 -0.0467446 0.00163988 -0.0647882 0.0592146 0.0604825 0.0380778 -0.0948228 0.117256 0.072068 -0.0547111 0.108606 0.0910034 0.0258129 0.0695302 -0.0761369 0.0877516 -0.0072362 -0.0711227 -0.0252723 -0.0486712 0.0153971 0.018266 0.0740666 0.0717938 0.156462 -0.00333965 0.108686 -0.0290947 -0.088526 0.0276517 -0.154012 0.0687222 0.0847132 -0.0788847 -0.0924929 0.0398325 -0.0837791 0.106569 -0.0457909 0.0145153 0.0808432 -0.124476 0.11465 -0.118927 0.0470932 0.0222422 -0.00433947 0.0103663 0.042908 -0.0117944 -0.119796 0.052464 -0.00368675 0.0263927 0.0869064 0.0103483 0.0899544 0.0791789 0.241442 -0.0540833 0.037072 0.0753505 0.0718381 0.0445441 0.0845655 -0.0106445 0.0693295 0.100416 -0.0890262
Q188 0.097632 0.0685345 -0.0411443 0.003844 -0.0611034 -0.0815423 0.17301 0.00265368 0.065795 -0.0591601 0.0690795 0.00201673 -0.0269198 -0.0209518 -0.00693487 0.130224 0.0827955 -0.00960264 0.0064483 -0.199689 -0.056524 -0.0175258 -0.164972 -0.000470155 -0.0269411 -0.101514 0.0755627 0.110767 -0.158676 -0.0154283 -0.0266872 0.00675918 -0.0351391 0.0237289 -0.0422391 -0.0640435 0.017381 -0.0219196 0.022647 -0.0751436 -0.13346 0.0553716 -0.00713932 0.0716779 -0.0868144 -0.00531421 0.0261656 -0.0248807 0.0118165 0.0688124 0.0177251 -0.00144398 0.0600561 0.0766048 -0.0778375 -0.122311 -0.065417 -0.0189995 0.031087 0.0596438 0.0379408 -0.0264234 -0.233469 0.125396 0.0294936 0.114943 -0.00486191 -0.135797 0.172139 -0.0358497 -0.00521238 -0.00594751 -0.111948 -0.0284055 -0.14661 -0.140263 0.040888 0.0469712 -0.136136 -0.0234744 -0.0403293 0.103061 -0.0141997 -0.076502 -0.00393149 0.157201 0.0656092 0.120728 -0.0252937 0.046127 0.0358986 0.0270429 0.0222707 -0.022298 0.0647845 -0.128524 0.0523517 -0.161605 -0.0764641 -0.00912303
Q189 0.028811 0.0713196 0.0986033 -0.0341279 -0.0826483 -0.0372398 -0.0557804 0.0363252 0.08559 -0.138739 -0.11021 -0.000108052 -0.11767 0.00641713 0.10126 -0.01944 -0.0289221 -0.00494721 0.025242 0.0556993 -0.0943492 0.00534598 -0.0176258 -0.0320827 0.0358886 0.0363543 0.0112513 0.0136189 -0.0807765 -0.0734866 -0.0417196 0.072896 -0.0106851 -0.0538799 0.0808396 -0.0102324 -0.105383 0.00263802 -0.134562 0.0832678 -0.0655269 0.0121449 0.0574195 -0.00357789 -0.0239135 -0.0840198 0.0476561 -0.0621844 -0.0520758 0.0516565 0.0515209 0.00649986 -0.0358511 0.0238166 0.0262233 -0.00689848 0.0791551 0.0693601 -0.00645254 -0.046571 -0.00777718 0.00362753 -0.0462894 -0.0442538 -0.0883952 -0.0589447 -0.0690656 0.0462569 0.0371027 0.0762747 0.00555511 0.0344189 0.0563085 0.157879 -0.00724868 0.00561125 0.0589472 0.0392084 0.118193 0.0799246 -0.058709 -0.0707199 -0.185077 0.0823588 0.0525349 -0.0332061 0.0485288 0.0431469 0.123322 0.0138154 -0.108205 0.00120637 -0.108606 0.0310659 0.0335977 0.0387037 0.0192667 0.053666 0.0164652 0.000281694
Q186 -0.0181857 0.0940238 -0.0389892 -0.0797285 0.0402883 0.11082 -0.0518451 0.0680055 0.0718672 -0.0639921 -0.104792 -0.0697741 0.0103079 -0.112172 -0.138436 0.121604 0.0390936 0.0533186 -0.0369867 -0.0262594 -0.0135536 0.0851304 0.17117 0.0171489 0.0155645 -0.0125708 0.0432406 -0.0048746 -0.071138 -0.0439893 -0.0104422 -0.0234104 0.0347706 -0.0366492 -0.0338126 0.0116396 0.117074 0.0194968 -0.0144583 -0.0604766 0.0284413 -0.238913 -0.0295516 -0.107964 -0.0687105 -0.0238452 -0.1467 0.0108499 -0.039334 0.0439921 -0.0493539 -0.0365797 0.143256 0.223406 0.0125809 -0.106677 0.0163682 0.114579 0.00873105 0.0219201 -0.0242334 -0.00909526 -0.00180334 -0.0254923 -0.01194 0.0425781 0.117079 -0.0544949 0.0127867 -0.00859724 -0.0646043 0.0498474 0.154365 -0.111495 0.0864314 0.0386402 -0.0479433 0.0889725 0.0775914 0.0829272 -0.034721 0.0260266 -0.0022401 0.0311447 0.0578449 -0.0394881 -0.0629875 -0.104571 -0.0691618 -0.0208496 0.0572506 0.137259 0.0121822 -0.00662994 0.0045253 0.0885984 0.0719448 0.0706676 -0.0568826 -0.0287769
Q187 0.12191 -0.0209603 -0.0359398 -0.0203614 0.00717102 -0.126336 0.110608 0.0149378 -0.0131124 -0.11372 0.133527 0.0920308 0.122611 0.0668827 0.0239744 0.090608 -0.0110307 -0.0199962 -0.083784 -0.128748 0.0367038 0.0255978 -0.0706907 -0.15129 -0.0613667 -0.0392475 -0.0780055 -0.018967 0.0420724 -0.0654603 0.0776302 0.00526216 -0.0632426 -0.059914 -0.0207943 0.0569261 -0.0286698 0.101578 -0.0621593 0.00764805 -0.111653 0.0966001 0.0682613 0.110749 0.0565261 -0.0318877 -5.84014e-05 0.0115216 -0.0528438 -0.0117351 0.00869199 0.039446 0.0360245 0.0117448 -0.0517741 -0.126883 -0.069808 -0.140513 -0.0871099 0.0831617 -0.00237518 -0.0104376 -0.147934 0.00990098 0.0994076 0.0876738 -0.05357 0.14471 0.128451 0.106911 -0.0449905 0.0661526 -0.00343794 -0.0736555 -0.139251 -0.168757 0.100709 -0.0493173 -0.0901304 0.077391 -0.0806764 0.042334 0.0906176 0.0537014 0.135075 0.0622018 0.0599499 -0.0148946 0.0636663 0.0487836 -0.016241 -0.0944881 0.00427536 0.0609323 0.0402596 0.0883366 0.0830542 -0.0161813 -0.012347 0.139131
Q184 0.0226672 0.0196653 0.071451 -0.23724 0.0358654 0.0192095 0.0553066 -0.025163 0.118788 -0.0531133 0.203189 0.0785232 0.0127496 -0.0169303 -0.0528667 0.0163321 0.0568971 -0.022585 -7.7604e-05 -0.0446882 0.165353 -0.079257 0.0893228 0.040057 -0.0534927 -0.0477388 0.0440405 0.00131349 0.0745935 -0.107679 0.0271278 0.0199576 -0.0039817 -0.121225 -0.0207532 -0.00290306 -0.0928187 -0.148456 0.0740817 0.0252789 0.0328602 -0.0630388 -0.0200762 0.00609157 -0.000180167 -0.0332724 0.142316 0.112188 -0.0783492 0.0314923 -0.0878084 0.0424155 0.0324978 0.0491542 -0.0689819 -0.0363897 0.114543 0.0697941 -0.109508 0.029046 -0.147176 0.0648131 0.0323929 0.0913638 -0.0107533 0.0957936 0.070269 0.00584196 0.181547 0.0802028 -0.104226 -0.0127658 0.0234648 -0.0452051 0.0276162 0.0109953 -0.0619465 -0.0605485 0.130011 -0.0151327 0.165272 -0.0568963 0.00464811 -0.0864246 -0.0208901 -0.0568382 0.0886797 -0.013375 -0.110757 0.0387567 -0.177637 -0.0471509 0.058402 -0.0439439 0.00819188 -0.0394047 -0.0345321 -0.0577555 -0.0178708 0.0323714
Q185 0.163635 0.0699847 -0.0818166 -0.0836841 0.0483591 -0.199176 0.0212536 -0.0935326 -0.0722879 -0.0315334 0.112705 0.0802012 0.206129 0.0510321 -0.00798957 -0.0531138 -0.164554 0.0938659 -0.02749 -0.0926434 0.0324656 -0.013592 0.0619468 0.0406147 0.0803187 0.0179871 -0.0477985 -0.0617993 -0.0312052 -0.135028 -0.0452292 -0.066163 -0.0637194 -0.0229552 -0.0210982 0.00415585 -0.0571562 0.056107 -0.0908649 -0.010501 0.0285943 -0.0197342 -0.0495785 -0.00874774 0.0709655 -0.0185526 -0.0142772 0.124703 -0.184022 -0.0634399 0.0329437 -0.0275833 0.00192677 -0.0657447 -0.0210814 -0.150363 -0.110139 -0.20232 0.0836585 0.0240416 -0.0210145 -0.0579486 -0.0129138 0.0964947 0.0177972 0.145399 -0.0715754 0.0903235 0.0428436 0.0176465 -0.0454106 0.0988341 0.0313732 -0.0637686 -0.0352215 -0.013289 -0.00941914 -0.0400353 -0.0680654 -0.157096 -0.0321844 -0.169234 0.0424034 -0.0687634 0.104469 0.0187281 0.0871796 0.0338095 0.111582 0.0467923 0.175545 -0.0315065 -0.0390827 -0.0829237 0.00556085 0.0304264 -0.0498933 0.0195963 -0.0494243 -0.136561
Q182 -0.0577088 0.0584299 0.0382585 -0.158241 0.0121052 -0.0834178 0.059893 -0.226115 0.0102501 0.00891818 0.0205126 0.0514829 -0.039818 -0.0827679 -0.121437 0.0604018 0.0694127 -0.0401322 -0.0955249 0.0798619 -0.00923335 -0.0299464 0.0944369 0.00180494 -0.0451463 0.026996 -0.0524643 -0.0168342 0.0113922 0.0764094 -0.0557747 0.0685447 0.0943764 0.0679644 0.0449876 0.0595244 -0.0573689 0.0122168 0.015258 -0.05443 -0.0170499 -0.02278 0.0470807 -0.0424857 0.0588535 -0.0159174 -0.107241 -0.0688474 0.0271529 -0.0662754 -0.056293 -0.0661172 0.0728519 0.0236761 0.1151 -0.0290788 0.135244 0.0865217 -0.0592521 0.0474954 -0.0125907 -0.0668781 -0.0370371 0.0431147 -0.0716234 -0.0065214 0.0555669 -0.0177147 0.0784464 -0.0597187 -0.0723375 -0.0246586 0.0670755 -0.135914 0.0698562 0.0705933 0.0512754 -0.0301633 0.0514365 -0.102422 0.117261 -0.188529 0.0378026 0.0813254 0.00716343 0.0991615 -0.111418 0.153996 -0.00815352 0.0313333 -0.0863801 -0.000724445 -0.0475914 -0.0755398 -0.0862484 0.00748992 0.0730842 0.0960591 -0.0198198 0.0193809
Q183 -0.0541855 -0.0621353 0.0374514 0.0604164 -0.143283 0.0604679 0.0504228 -0.0239891 -0.0160278 0.0802106 -0.0324544 -0.0344533 0.0267016 -0.00223001 0.0177677 -0.0257493 0.0858591 -0.0364115 0.0892644 0.108141 0.00560425 0.0287604 0.0794445 -0.0627399 0.0506582 0.0508197 -0.0256108 0.0393724 0.0328058 0.097535 0.00600118 -0.032806 -0.0150141 0.0337825 0.102155 0.0418397 -0.0271516 -0.0273599 -0.0255503 0.0494586 0.0762054 0.0432756 0.0671812 -0.0794607 -0.00587006 0.088158 -0.0321023 -0.0485613 0.0256299 0.0294816 -0.00490618 -0.0611213 0.0138853 0.015033 0.0460113 -0.0939227 0.000527195 0.0372105 0.105938 0.0622899 0.0189877 0.0804423 -0.00786174 -0.171311 -0.0379489 -0.133092 -0.0299153 -0.0528371 -0.123449 0.00675985 -0.00336906 -0.046751 0.0648748 0.0114911 0.0983847 0.00906789 -0.0261077 0.000886059 0.0103969 0.0602862 -0.0581695 -0.00469856 -0.126691 0.00279181 0.0366885 0.0102972 0.0228709 -0.131358 -0.00840472 -0.00712101 0.14316 0.0231879 -0.0112475 -0.00309087 -0.0923085 0.0230479 -0.000935265 -0.018296 0.0206223 -0.0516042
Q180 0.21641 -0.00221505 -0.0150806 -0.103114 0.0170252 -0.109304 -0.0751772 0.0259191 -0.0165862 -0.030299 -0.0689853 0.134094 0.120998 0.00576666 -0.0258444 0.157191 -0.0267576 -0.0622808 0.0251449 -0.183715 -0.0571125 -0.109398 0.209852 0.113058 0.0340974 -0.0767156 -0.00415804 -0.0399022 0.137152 0.083556 -0.0964807 0.259334 0.0254887 -0.0327648 0.00763921 -0.00453418 0.0649773 -0.00736394 -0.0471189 -0.00176352 0.0256482 0.0720243 -0.0153947 0.0515788 0.0405459 -0.158454 0.0623479 -0.0513027 -0.0542722 -0.00306959 0.0218986 0.0235891 -0.00454446 -0.112548 0.0189278 0.106367 0.0102092 -0.141317 0.0151733 0.0178768 -0.0122955 0.0493091 0.00306528 0.12217 -0.0478979 0.173459 -0.100457 0.0710996 -0.0223468 0.00923264 -0.0866081 0.0480341 -0.125797 -0.121166 0.0745894 0.0806372 0.0763298 0.0627713 0.00652331 0.067918 -0.00834294 -0.0396048 0.0241807 -0.141902 0.136733 -0.141944 -0.0426013 -0.157768 0.0545709 0.11317 0.00455211 0.0158615 -0.0159764 -0.0489759 0.0358176 -0.0206207 -0.0405957 -0.0881995 -0.0573014 -0.0414393
Q181 -0.0271682 0.00699398 -0.0997066 0.0940709 0.0540041 0.159352 -0.0383175 0.0059922 0.0889132 0.0664948 -0.144108 -0.0845841 -0.089454 -0.0216212 -0.0764998 0.0143251 -0.048033 0.0585291 0.0882112 -0.00745938 -0.041278 0.0434716 0.0255631 -0.0215728 0.0402163 -0.0984482 0.053387 -0.0428166 0.0571131 0.0403616 0.150643 -0.133965 -0.0142456 -0.123601 0.0568617 0.0255726 0.0319859 0.043756 -0.112465 0.0993772 0.00165105 0.0322417 -0.0132798 0.0607704 -0.0198643 -0.0632891 -0.00401491 -0.0634039 0.0490335 0.108431 -0.042563 -0.0218355 0.0625596 -0.0724834 -0.05688 -0.0805188 -0.0481235 0.0442786 0.0479788 0.0535192 -0.0340136 -0.0267005 -0.0184148 -0.0472217 -0.0927421 0.0450278 0.0393252 -0.0111837 -0.0290212 -0.0454268 0.0467484 -0.0925209 0.00454224 0.123808 0.0622079 0.0453076 -0.106991 0.0634557 0.0499554 0.0933597 -0.0893221 0.0637934 -0.0755723 0.00397388 -0.0104685 0.075277 -0.00770517 -0.0110746 0.0402405 -0.00588603 -0.0300299 0.0110345 0.00781488 -0.0435083 0.0297599 -0.0454171 -0.130842 0.0389257 0.077739 0.073943
Q106 -0.077675 -0.0707121 0.108404 0.0668848 0.0264081 0.0816561 0.110774 0.044029 0.00819701 0.0785778 -0.115509 -0.0812822 0.206093 -0.0133662 0.10097 0.0443444 0.13684 0.0493612 0.0303117 0.183704 -0.0541818 -0.0499569 0.0820794 -0.0442921 -0.0143827 0.010769 -0.0449117 0.029978 -0.0450889 -0.142879 0.039644 0.00300827 -0.0798406 0.0117989 -0.104562 -0.0921154 -0.0148117 -0.0801562 -0.0692262 0.0256127 -0.0139167 -0.0409224 -0.0400308 -0.0834942 -0.0227806 0.0102545 0.0548887 -0.0390666 0.0441461 -0.117553 0.0660732 0.0565565 0.0162765 0.0734463 -0.00732736 -0.0577491 0.0473987 0.0812432 0.0348621 -0.153683 -0.0349729 0.0676049 -0.00967742 0.0275843 0.0683317 -0.120915 -0.0884277 -0.0110833 -0.0679874 0.0767809 0.071831 -0.0779566 0.0787381 0.0750581 -0.0258417 0.020231 0.00263052 0.160971 0.0403818 0.0694222 0.106665 -0.0305206 0.104219 0.00144475 -0.0365946 -0.0947194 0.0785783 -0.0830015 0.0710826 0.0410048 -0.0261283 0.0720375 0.0370618 0.0116628 -0.0331959 -0.0921251 0.125903 0.0883156 -0.00391735 0.0198509
Q107 0.0667647 -0.0151566 0.052772 -0.0856698 -0.030467 0.00982115 -0.0116452 -0.0515228 -0.0112636 -0.0544722 0.053328 0.115794 -0.0959196 0.0829433 0.0269829 -0.0486054 0.0048675 -0.107754 0.0248274 -0.00302588 -0.0697873 0.097482 0.0450164 0.0160441 -0.00407801 -0.0292621 0.0692221 0.0856574 0.0232152 0.128161 -0.0494633 0.0259206 0.0333487 -0.00761072 0.00903036 0.0289861 -0.0252566 0.0201699 0.0469503 0.0367327 -0.180855 0.079633 0.0403699 -0.0402099 -0.000355909 0.06713 -0.0377648 -0.0362251 -0.10041 -0.103651 -0.0300284 0.132507 -0.121205 -0.0527056 0.107276 0.0927069 -0.0182615 -0.0370736 -0.0540708 -0.0984788 -0.0457523 -0.103385 0.0188136 -0.0662138 -0.0764893 0.030046 0.00533026 -0.026377 -0.0298881 0.0423594 -0.0534391 -0.0449202 -0.0203342 0.0401623 -0.0056095 -0.0446188 0.109778 -0.0513091 0.112865 -0.0464386 0.0924745 -0.0603488 0.183479 0.187538 -0.0775926 -0.0454331 0.000513281 0.193924 -0.047755 0.0278357 -0.0275693 -0.026989 -0.0192573 0.00516222 0.0132529 0.0428473 0.085505 0.0183374 0.00642006 -0.0764044
Q104 -0.0630349 0.0703586 0.0538039 -0.024262 0.00810546 -0.0182912 0.0585938 -0.129522 0.0438856 0.0708197 0.0953457 0.149782 0.0873585 -0.106468 0.0819186 0.214975 -0.0120506 -0.0493912 0.000771928 -0.054742 0.0446428 -0.0769641 0.0101576 0.270202 0.0143198 -0.0155551 -0.0824344 -0.0528935 0.0767205 -0.0597661 -0.0291283 0.148139 -0.0931856 -0.150615 0.00333499 -0.00533011 0.145069 -0.031639 -0.0974657 -0.106878 0.0121776 -0.108799 -0.0651606 -0.0604682 -0.0851362 0.00879839 -0.0708513 0.0880727 -0.03636 0.073362 -0.0901887 0.110583 -0.00872275 0.0945263 -0.161477 0.078632 -0.129252 0.01643 -0.26406 -0.143531 0.038743 -0.110896 -0.0185556 0.175768 0.112774 0.223762 -0.0421749 -0.0174141 0.0061888 -0.169266 0.00535961 -0.0607535 -0.0736995 -0.0393805 0.0948691 -0.00221055 0.127182 -0.053678 -0.0272892 -0.0996331 -0.0192858 -0.0209188 0.0630078 -0.153213 0.120865 0.0607827 0.189186 0.00905197 0.093511 0.0668782 0.0644095 -0.0337625 0.0771492 -0.0599139 0.0992626 -0.00233716 0.0578256 -0.0723202 -0.208254 -0.117388
