3167 100
Q117 3.19697 -0.858401 3.35944 -0.164231 -3.86816 0.550662 -3.98411 0.357949 -0.580536 2.65743 -0.641545 0.270191 -4.01041 1.58648 -3.37575 3.84271 -4.16531 -2.2202 4.23435 0.903974 -2.24384 2.25386 3.57317 -1.63541 -0.7221 -1.28376 -3.91331 3.30826 -4.60954 2.81326 -1.08063 -1.71841 -3.25153 3.92189 -2.66666 1.17063 1.61036 1.52591 2.21434 -1.32638 -4.75448 1.77696 -1.23669 -2.94225 1.51234 0.570941 -1.31167 5.53875 0.134782 2.94898 -1.90641 -1.9626 0.990371 -1.18344 1.55232 -2.41384 -2.70964 0.965964 -1.49245 2.38113 -1.16118 -0.406612 0.186013 0.785748 2.35153 -1.45956 2.89174 -1.84877 2.70702 4.59747 -0.979698 1.24925 -6.27358 -3.85266 -1.24335 -3.47565 -3.23864 -3.35739 -1.77896 -1.50259 0.935104 2.48891 0.688933 -2.63716 2.34089 -3.35652 0.404578 -0.78312 -1.41768 -1.48121 1.74467 -1.82196 -1.13524 3.78908 -3.17606 3.7253 2.87552 2.39344 2.93985 2.02653
Q116 1.38563 0.709052 0.0673451 1.20858 -0.332955 -1.3807 -0.723412 2.1698 0.0365503 0.183126 -0.515352 1.5246 -1.18603 -0.508621 -0.195924 1.80023 0.301061 -2.38558 1.42821 3.61045 -0.819803 2.95811 3.72126 0.841267 2.70737 -2.39656 1.02893 0.715322 -3.50609 1.85833 -0.725663 0.00943094 -0.486134 0.0333593 -2.18832 0.239097 -2.44834 0.207745 0.732107 -2.45577 -0.394147 0.683728 -0.163681 -1.19827 -0.304243 -1.37657 1.70286 1.3066 1.09681 0.283027 0.185503 0.776751 -1.91282 -0.0415485 -0.111828 -0.568817 -0.164511 3.34779 0.160749 0.436628 -0.578201 0.0198501 -0.831857 -2.00159 -0.149373 0.183089 0.120393 -1.91861 2.06712 1.88741 -2.46939 0.347997 -1.05092 -1.08168 -2.49969 0.163441 1.44958 -2.24003 -0.808396 -0.198564 -2.51774 1.19414 0.502014 0.369255 0.495109 0.0468471 -0.132036 -0.679901 -1.31651 -1.14347 -2.14065 -2.03326 -0.88846 0.141188 -2.2234 1.24314 0.156517 1.90458 0.956797 -0.699905
Q200 1.4929 0.69926 0.315771 -1.33063 -1.67036 -1.62165 -1.00602 1.38864 1.14069 2.20682 -2.21259 1.28484 -0.491542 -0.405585 0.825672 1.46166 -1.22116 0.179997 0.977708 -0.181254 1.56992 -0.480279 0.858965 1.05687 -2.18024 -0.47479 -0.951214 -0.52191 -1.46988 0.70868 -1.75366 -0.328769 -1.13822 -1.08829 -3.54478 -0.291971 1.73033 0.127333 0.0163354 -1.12486 -0.645105 1.96858 0.184058 -0.445609 0.0208575 0.362105 -0.411005 0.536507 -0.00894931 3.14222 -1.77202 -3.26096 -0.644528 -0.641033 0.447979 -1.40422 -1.15634 -0.00184531 0.83308 0.453365 -1.67667 -1.10336 0.995232 -1.35614 -0.189284 1.44588 -2.06683 -2.25921 1.6864 -0.39284 0.242245 0.401243 -0.775651 1.57731 -1.43432 -1.58997 1.61384 -0.935417 -1.13806 -0.973439 0.747095 1.13396 0.20286 -1.39392 0.0437429 -1.48963 -2.08535 0.478804 -0.142035 -2.93342 -0.172146 -1.31626 -0.0193189 0.584864 -1.58906 -1.11225 0.516437 -1.58977 0.936244 -0.956895
Q51 7.07291 1.83076 1.99167 -3.03326 -0.764674 -1.0734 -4.01321 2.73039 2.17279 0.746352 -3.55777 1.92004 1.33465 1.35722 -3.12271 3.54952 -5.11569 -1.63983 3.3187 3.0619 1.09505 2.89676 9.3446 1.65895 -1.42014 -0.709822 -5.32381 -1.48164 -6.69753 2.36236 -0.13483 -0.891779 -2.37516 5.19535 -3.63739 -1.1617 -2.49797 -0.191469 -1.11226 -5.38884 -1.14395 3.26036 -1.35278 -0.278468 5.65158 -2.73395 -3.54788 10.3172 1.79071 1.00819 -3.25323 2.47903 2.17312 -1.83354 5.08868 -2.41525 -3.84855 -3.17311 -0.587545 1.69196 -2.53469 -2.45869 -6.44591 -2.64609 1.17019 -1.7495 3.79816 -4.39746 -3.49932 3.17899 -0.714109 0.973441 -4.08078 6.12704 -6.0004 -4.37338 2.59815 -3.73519 -2.14956 0.0864043 -3.35179 0.463226 7.45763 -5.34426 4.19066 -1.41632 -2.08799 -1.60901 -2.27534 -7.93352 1.61507 -4.03572 -6.23355 3.28719 -3.29996 0.906925 2.71865 -1.4859 3.60931 0.93961
Q50 1.6576 1.4558 1.68057 1.44789 -4.35871 2.50648 -2.9352 -0.477539 -0.265927 5.75769 -3.687 -2.11994 -4.03276 -0.26068 0.141657 3.24542 1.04977 -0.526137 3.90826 5.10028 -0.714884 -0.414419 6.90157 -0.114138 2.05415 -0.735391 -2.52257 0.102335 -0.594126 5.24736 4.20054 -1.8006 -1.82035 3.2004 -1.86896 -0.0293029 -0.795606 -2.4239 1.22638 -0.671566 -0.218978 2.9012 -0.090554 -2.31375 -0.307532 0.0899257 -0.171921 3.29247 1.8358 4.44157 -1.92615 -0.209367 -0.216799 -1.69401 1.00803 -1.78601 -1.90022 5.20102 -0.823767 2.98798 -3.90389 2.42588 0.372153 -2.25068 -1.09812 -5.85328 1.89028 -3.16554 -3.7867 1.98119 1.04318 0.767789 -2.04592 3.8284 -1.69042 -1.68733 1.22649 -0.500296 -2.72658 1.54964 -1.29534 0.588145 0.739441 -0.149392 3.2951 -0.00411039 -1.70586 -1.81563 0.718211 -4.58602 -1.53361 -1.24319 -1.94372 2.21539 -2.65925 2.34025 -0.0256289 1.96353 5.03496 -1.06068
Q53 0.609361 0.370704 -0.165112 -0.0498549 -0.333103 0.529572 -0.436784 -0.93844 -0.215323 1.16596 0.0493803 0.702658 -0.340954 -0.150517 -0.505331 1.21562 0.892899 -0.325127 1.05594 0.942017 0.759481 0.934495 1.56869 -0.0235747 -0.89036 -1.54362 -0.695061 0.506189 0.00641731 0.464272 -0.158522 0.485236 0.167377 0.0367301 -0.85035 -0.570745 0.397019 0.343753 0.985246 -1.35503 -0.288582 0.297624 0.272485 -1.2791 0.14184 -0.635272 -1.73172 0.411577 0.326077 -0.0101132 -0.583494 0.528669 -0.585493 -1.56786 0.908155 -1.23189 -0.770812 -0.165361 1.0997 0.497922 -0.971476 -0.105603 0.274859 -0.349974 1.32457 0.300882 0.336932 -0.705806 0.0670894 0.955865 -0.595533 0.181725 -0.205398 -0.030939 -0.96578 -0.196082 -0.817738 -0.0286416 0.0344754 0.0354682 1.40289 0.480458 1.26233 -1.63804 -0.123958 -0.0464644 -0.564344 0.715144 -0.197255 -1.26329 -0.123317 -0.119388 -0.101531 0.993716 -0.6198 0.618937 1.09804 0.50147 0.594876 0.241715
Q52 1.43165 1.78904 7.71211 -0.806761 1.41314 2.22474 -2.25419 2.85404 -0.268147 3.46495 -2.50099 -1.57762 2.89615 -1.75359 -0.990297 1.65048 0.698057 0.712183 7.03356 6.38579 -0.289274 -1.03558 5.15548 -5.96999 2.56198 -1.42279 -4.71542 -0.416092 -6.43286 1.30725 1.81717 -2.04875 0.369045 6.3835 -2.99887 -0.38888 -3.42915 -4.23146 -2.02803 -1.3292 3.26679 0.759595 -1.05529 -8.33307 4.16785 -2.08678 1.23912 3.81858 5.08138 -0.294877 -4.06776 -0.405092 -1.11326 -1.8197 2.44192 -2.57063 -0.0557779 -0.374357 0.0648104 0.188132 -3.15398 -1.32653 -2.06296 -0.203579 0.702033 -5.46377 0.957763 -3.58048 -3.01257 6.25689 -2.35995 -2.78884 0.529097 2.71893 -5.36391 -5.37804 -0.94102 -1.69526 -0.189217 0.988096 0.720184 0.596509 3.81633 -1.83054 1.25495 -0.586473 -1.99867 -1.71131 1.75092 -5.09663 -2.70254 -2.82992 -1.95074 4.40476 -4.29217 -0.737463 1.61477 3.46403 6.12802 -3.4033
Q55 1.54302 0.277542 1.11332 0.322334 -0.674145 -0.348009 0.1317 0.763913 0.179609 1.76684 0.773746 0.243107 -0.683566 0.116499 -0.725719 1.21171 -0.515389 -0.340065 -0.243186 0.871714 0.23573 0.632457 1.51755 0.61986 0.69032 -1.00016 -0.293978 0.695141 0.0848677 0.167373 -1.17838 0.74093 -0.118236 0.499481 -0.496079 0.116416 -0.293683 -0.578345 0.628815 -0.42609 0.449409 0.406528 -1.5814 -0.654653 0.492912 -0.681483 -0.0533094 -0.666091 0.0663611 -0.0959423 0.0610499 -0.689146 0.850929 -0.517242 0.329843 -0.451421 -0.372125 0.158975 -1.53829 0.202124 -0.446009 -0.260105 -0.0133368 -0.866486 0.280343 0.16817 -0.017231 -1.10495 -0.398768 0.680172 -0.664939 -0.728812 -0.19027 -0.887455 -0.563463 -0.233415 0.11176 0.196842 0.0137334 -0.00867382 0.436477 1.20834 0.991315 -0.32267 0.0392757 -0.916033 -0.942412 -0.602965 0.515931 0.0782441 0.432489 -1.04318 0.615172 0.668976 -1.11581 1.66897 -0.164035 0.746217 -0.15176 0.143784
Q54 -0.13748 0.870381 0.713598 0.318069 -0.813812 -0.662286 -0.806732 1.22208 -0.289466 1.33605 -0.214227 0.0489862 -1.0412 0.0350085 -1.30938 1.2731 -0.0218611 -1.08091 0.714678 2.51246 0.575736 0.331175 1.99954 -0.78831 -0.286142 -0.432584 -1.25239 0.650707 -0.614924 0.769263 0.0533666 0.317081 -1.78324 -0.189801 0.0897822 1.27118 -0.917771 -0.559644 -0.134866 -1.26202 -0.289044 0.375936 0.126629 -0.0922963 2.06849 -0.47594 0.0969892 0.962815 0.0353379 1.00069 -0.414165 -1.06333 -0.796913 -0.258452 0.155677 -0.152626 -0.57049 1.41457 -0.212193 0.514522 -0.856001 0.463263 0.380029 -0.802272 -0.322807 -0.581513 0.857612 -0.780974 -0.0775177 0.581307 -0.289421 0.237414 -1.02866 -0.179012 -1.51755 0.234966 0.596503 -0.16855 0.0400046 0.804668 0.511964 -0.53401 -0.324698 0.613492 2.47841 1.76293 0.530753 1.08172 0.706463 -0.216718 -0.419282 -0.215238 0.125204 1.6669 -1.19553 1.20159 0.25909 1.02499 1.59984 -0.399814
Q57 2.93115 1.81076 3.344 -2.17087 -3.38533 -1.67154 -2.0222 -1.28053 -2.44268 2.81189 1.19437 1.91203 -0.0593216 -2.16915 -1.70354 4.18973 -1.65787 -2.85535 1.38121 3.48319 1.01656 0.578452 5.58519 -1.31161 -1.39063 -3.10342 -0.878244 1.23243 -4.17309 1.99517 -2.70077 1.56859 -2.01656 2.1344 -1.76279 1.512 -2.46266 -1.60649 -0.0356965 -3.25671 -0.0558037 2.7994 -1.52656 -2.37805 4.02138 -0.0331459 -0.144534 2.64392 0.872543 3.06676 -3.30641 -0.0195571 1.8656 -1.96361 1.96818 -3.18339 -2.65575 2.59742 -3.42312 1.3436 -2.27349 -1.09442 0.908299 -1.96811 -0.216393 -2.28929 2.50705 -2.74033 -1.41728 2.24214 -1.87929 0.749044 -0.469586 -2.41333 -2.76538 -2.33257 -1.24253 -4.65136 -2.79483 -0.39331 4.86271 -0.881744 3.7612 -2.35892 2.97703 -1.25798 -0.109681 -0.968383 3.64084 -5.20528 -0.30396 -3.0271 -0.70194 2.89323 -1.10121 2.59935 2.25429 -0.190334 2.48472 -1.52441
Q56 3.3844 6.87145 6.42654 0.609866 -1.72563 0.247011 -4.03633 -1.16206 1.15457 2.34598 -5.02359 -0.168062 -1.23069 -1.76168 -3.01021 8.15826 1.1731 -0.574852 -0.542697 6.23943 0.431393 4.77185 9.46263 -2.99463 0.90882 -1.91994 -3.52507 5.40994 -6.25423 7.06339 0.188815 -0.0399843 -4.06623 1.73347 -1.65986 0.680267 -0.534992 -3.73469 -0.171419 -0.969042 0.751592 2.86434 -5.14586 -1.34899 3.25889 -1.80586 -1.06237 4.69353 2.27943 2.11922 -5.35172 -1.86689 -2.00578 -0.981892 2.15739 -2.00754 -2.74656 7.52727 -2.39511 2.6871 -4.06145 0.754386 -0.305485 -2.66609 -2.08345 -3.91036 3.21245 -2.01787 0.0865556 4.53636 0.204886 5.06602 -2.24611 3.61983 -5.50758 -1.93114 2.38129 -1.04569 -3.18555 1.21158 0.498892 0.411596 -0.9157 2.065 5.05819 -3.29892 2.74601 -2.22475 -2.15397 -3.19082 -3.62407 -0.635232 3.88433 3.70055 -7.67593 1.79835 3.16545 3.90717 9.90543 -5.55489
Q59 0.935781 1.54109 1.90377 -0.962981 -1.06524 -0.757826 -2.74208 0.0691758 0.480236 1.65664 -0.228056 1.94461 -0.895945 -1.51532 -2.01947 2.29339 0.31953 -1.6435 -0.189082 2.9045 1.35509 1.45717 2.52697 0.098891 0.19111 -0.961154 -1.64949 0.833375 -1.07792 1.73245 -1.01859 0.349725 -2.23748 1.07019 -0.00494084 1.87911 -1.43023 -1.58501 0.309863 -1.41937 -0.372312 1.73555 -0.937547 -1.26411 2.88842 0.19467 -0.889699 2.81594 -0.311417 0.495084 -0.815553 -1.83783 -0.736313 1.44821 0.0881538 -1.17463 -0.987493 1.78348 -2.03575 0.505317 -2.19103 0.518077 1.38215 0.496895 -0.0674054 0.153269 -0.246302 -1.2785 1.64107 1.12706 -0.335659 1.60652 -1.58428 -0.0934061 -2.26099 -1.97916 0.518544 -2.26348 0.0230974 0.124404 1.12032 -1.25489 0.190829 0.302199 1.78468 -0.0257484 -0.741024 -0.675187 0.504642 -1.0389 -1.76242 0.560374 -0.713722 1.61368 -1.6665 0.877637 1.77809 1.78915 4.00885 -1.02732
Q58 1.75869 0.745582 0.609972 0.676444 -0.153152 0.296914 -0.289455 2.30783 -0.226902 1.99355 -2.08946 -0.693547 0.948428 -0.450972 0.69103 0.665274 0.671698 -0.294131 -0.0529349 2.41344 0.503011 1.35255 2.59734 0.265699 -0.932181 -0.58184 -1.0026 -0.383031 -1.67833 2.31488 -0.917929 -0.136724 -1.26294 0.821589 -0.762363 0.221569 -0.0549145 -0.343334 -0.00599568 -0.806479 -1.07591 -0.118321 -0.661208 -1.50331 0.71002 -1.95215 -0.50845 1.67674 1.60352 1.28463 0.459497 -0.214775 0.833337 -0.815495 0.299446 -0.293187 -0.15959 1.17313 -0.0354845 -0.875746 -0.272868 0.937728 -0.0818098 -1.12007 0.31115 -1.74578 -0.116386 -1.93454 -0.508384 2.34773 -1.03438 0.176299 -0.277261 1.08172 -0.484384 -0.435846 -0.145004 -0.0598906 -0.966835 0.4707 -0.198352 -0.05967 1.4539 -0.0802216 0.0416172 -0.940578 -0.811286 -0.282927 0.884982 -0.249842 -0.505347 -0.439415 -1.25565 0.596918 -0.305207 0.29218 1.23595 0.599026 1.60257 0.634654
Q148 0.884142 3.12844 4.14688 -3.80793 -0.570657 0.306823 -2.85483 2.17204 -2.7517 2.72526 -2.40166 0.61747 1.05716 0.729904 -2.82031 5.43537 0.462868 0.0201528 0.760822 4.13342 -1.36452 0.123496 4.33748 -1.36893 3.40152 -1.01314 -1.59372 -0.504923 -2.90362 3.31169 -0.841237 2.88643 -1.20322 0.455494 -2.30266 -0.673218 -1.14302 1.21591 0.767979 -3.10813 -0.147788 2.4476 -3.47257 -0.458783 1.51977 0.0756749 -0.674852 -0.0327519 2.1572 0.217931 -1.58121 -0.193512 -2.10626 -0.0958675 2.99839 -1.20263 0.209953 3.57871 -1.69807 1.74751 -6.02354 -0.461178 -3.79654 -1.86206 -0.216608 -0.710517 1.38011 -2.50213 -0.925435 -1.30711 -2.81759 -0.0349749 0.0944688 -2.48491 -3.65106 -0.193328 0.5507 -0.904448 -2.46971 1.54215 -0.172127 -1.0768 4.97491 -1.74254 1.91975 -1.19309 -1.639 1.38026 4.30254 -2.05817 -1.43578 -1.50032 -2.98145 2.36572 -0.548139 1.04224 -0.493588 1.45815 2.57278 -1.2081
Q149 4.14989 1.31462 2.15927 -2.15292 -2.01728 -3.24036 -2.90507 1.84095 1.00757 1.65018 2.05311 -0.603237 0.86244 2.11435 1.18299 3.28175 0.45536 -1.71957 0.873077 0.187154 -0.145767 -1.51266 2.70077 -0.0132274 0.353038 -0.0298685 -1.69097 0.415293 -1.11442 0.825187 -4.24023 -0.510149 1.71651 1.60665 -0.844707 1.09425 -3.21343 -1.02388 1.122 -0.363968 -1.02629 2.42336 -2.87775 -0.192012 3.23019 0.704391 -1.55719 3.03986 -2.96126 1.33246 -0.758109 -1.30238 -0.379335 -0.885859 -0.327524 -1.69763 -0.879105 5.31736 -1.62633 3.62611 -0.90449 0.541572 -0.196397 -1.85849 0.646009 -0.944607 0.665935 -2.35203 0.444679 2.49057 -0.423424 1.60824 0.0377471 0.419337 -3.28331 -2.26996 0.933727 -1.08113 -0.374819 -0.817517 1.92771 -0.446412 2.68224 -1.97446 2.85696 -2.4721 -0.306 -0.108815 1.54011 -4.69555 -2.50485 -2.42297 -1.12293 2.25168 -0.517776 0.913044 1.30592 1.53543 3.38463 0.248889
Q145 0.873908 1.74361 3.20061 -3.96952 -0.58511 -1.24771 -6.06363 2.33864 0.0124938 2.51309 -8.86575 1.36606 3.44785 -1.38764 -3.46174 5.42527 -0.200988 -1.83536 4.20883 4.25909 1.62346 0.844342 4.72342 -2.72611 1.80516 1.43056 -3.1932 0.366988 -7.09268 4.37477 0.806168 0.947852 -1.57393 3.07009 -5.05728 -4.07651 -1.35448 -1.42934 -0.418475 0.723956 -3.57671 2.07777 -4.05359 -3.47405 2.02343 -2.4325 -1.42391 7.10869 2.64186 3.47939 -0.972778 -1.01682 -0.61968 0.168811 -0.339315 -2.63619 -3.92313 4.18403 -1.17391 -0.420342 -3.74124 1.4569 -3.90941 -1.9281 -1.96784 -1.01381 1.93342 -4.28241 0.545775 1.57979 -2.62608 1.27119 0.218363 1.24195 -2.42753 -2.88638 2.84591 0.524391 -1.33791 2.30564 -2.66014 1.39871 3.65659 -0.451381 4.64721 -3.13677 1.19216 -3.64193 -0.338045 -5.01466 -1.00856 -3.02975 2.84159 1.66722 -0.87395 -0.211483 2.42129 3.77084 2.54817 -2.4093
Q159 0.779074 0.18269 1.03733 -1.38678 2.21749 -1.28235 -1.93596 0.95298 1.0805 1.06154 -0.223236 2.38548 1.69146 0.490925 -1.46472 1.68176 0.919008 -1.01675 1.4192 -0.50293 2.30901 -0.965472 2.95361 0.0814149 0.350011 0.0176686 -1.92045 -0.109185 -2.61585 -0.233091 1.55444 -0.99428 -0.0490159 2.94886 0.0797763 -0.519052 0.370533 -0.633632 -1.61391 -1.52894 -0.06705 0.961386 -0.35872 -0.505735 2.30438 -1.26271 -1.17892 2.9903 1.81147 0.261163 -0.992481 -0.0782556 -1.4352 -0.515119 2.3705 -0.947587 -0.278076 -2.69971 0.409341 1.77154 -1.20423 -1.25847 -1.43714 -1.4312 1.31713 0.472085 0.0408506 -2.38479 -2.08007 0.0549895 -0.301172 1.10384 -0.723425 -0.0214874 -2.30127 -3.13458 -0.0821558 -0.198851 -0.31869 0.227293 0.286145 1.60325 1.73797 0.214294 2.43055 0.358132 -0.696311 -0.781947 -0.2361 -3.89594 -0.650893 -3.16889 -1.35183 0.311255 -2.36338 1.36365 -1.07499 0.370315 1.24669 -1.02743
Q158 2.37619 -2.11589 3.02213 1.54984 -1.319 -2.41345 -1.76 1.33245 -0.367282 2.84194 -1.04812 0.714056 -0.244965 -0.547979 1.11179 -0.782557 -2.25552 -0.976399 0.0521889 -1.32463 1.52149 0.0194535 -0.700287 -1.18172 -0.211147 -1.60741 -1.71501 0.541673 -1.45378 4.29268 -1.19309 1.00171 -0.825671 -0.384351 -1.85736 -0.460823 1.54981 -2.60874 -0.461344 -2.89435 -0.784548 1.0684 -1.17894 1.65504 0.514905 -0.710691 -0.745033 1.889 1.55331 0.591307 -1.56502 0.02075 -0.871931 -3.03105 0.0521787 -0.863981 0.282191 -2.0323 -0.53599 0.782936 1.1951 -0.468795 0.127779 0.274536 1.99034 -0.296265 1.10688 -1.77075 1.57216 2.73308 0.484194 -0.54359 -0.241662 -0.336249 0.330534 -1.45637 0.0868551 -0.0467437 -1.85656 -0.97367 -0.496118 1.33229 1.68056 -0.997792 0.654018 -0.698167 -1.78634 -0.501072 -0.0505467 -1.95482 -1.22927 -3.57595 -0.289382 -2.39566 0.164323 -0.712518 1.35147 -2.5401 3.05014 -1.29451
Q46 1.1076 1.04912 2.42792 -1.36843 1.08114 -0.616006 -0.57188 1.90434 1.01268 0.146377 -0.837535 0.815647 1.80308 2.33814 -0.667019 1.99844 -0.81116 -0.163623 1.05224 0.946557 1.66644 -0.21332 3.16407 -0.145324 -0.884243 -0.18183 -2.18605 -0.228356 -2.09989 -0.398621 0.182572 -0.819623 -0.802054 2.48886 -0.118311 -0.443112 -0.710034 -0.489194 -1.39051 -0.674307 0.574224 0.166665 0.530117 0.0767668 3.317 -2.9554 -0.861178 2.79248 1.44254 1.22239 -0.217192 0.557267 0.144434 -0.740556 2.15331 -1.28378 -0.560099 -1.98029 1.07514 1.10541 -0.837828 -1.06084 -2.53567 -0.978776 0.896143 -1.70557 0.176389 -1.36424 -2.32147 0.502368 -0.683406 -0.339275 -0.99775 0.0220244 -2.43903 -3.17371 0.840204 0.149148 -0.806885 0.511453 -0.434376 0.414556 1.94357 -2.41427 2.78647 2.36555 -0.18755 -0.675809 -0.687235 -3.60133 0.706281 -1.9231 -3.17923 1.23242 -2.15308 1.4194 -0.0272094 -0.358533 2.09551 -0.214564
Q47 0.479396 2.37866 1.54244 -2.41826 -0.850153 -0.994397 -0.607122 1.21301 -0.0899633 0.67454 -1.78119 1.41108 2.06747 -3.03338 -2.39512 2.23627 0.795409 -0.612429 -0.304275 3.72343 1.26508 0.643848 5.26868 0.49145 1.60241 1.44399 -2.65579 0.306168 -4.46582 1.94686 -1.75073 1.24967 -0.665778 -1.87149 -2.34711 0.310313 -0.700025 0.93694 1.33121 0.416277 -1.352 0.944353 -0.352106 -1.54368 0.9236 0.0990455 -1.74653 3.37525 1.96428 2.76901 -1.91257 0.890133 1.65321 -0.312915 1.20923 0.438675 -0.438611 1.39356 -1.55187 -0.84322 -2.58023 0.366354 1.63829 -0.671821 -0.699125 -3.56841 0.123043 -1.93171 1.23325 2.12809 -1.77394 0.616785 -1.93924 -0.825797 -1.42186 -0.564334 -1.24599 -2.05109 0.335908 0.490571 0.11954 0.47872 1.92035 -1.05465 2.0543 -0.456725 -0.320067 -2.11714 0.467532 -2.0962 0.87372 0.363187 -2.34187 3.61686 -2.61996 1.90859 2.79646 0.638298 2.52209 -2.38187
Q44 1.54205 1.01488 2.99862 -0.289619 -1.27817 -0.781078 -0.0327351 0.665844 -2.63073 0.548759 -1.93286 -0.179227 0.0866555 0.193098 -1.7729 2.6751 1.18944 -0.08553 0.581922 4.34435 0.666185 -2.14039 4.36119 0.857456 -0.82008 -1.0273 -1.79388 1.48095 -1.13181 0.800096 -1.43907 3.24801 -2.50674 0.820299 -2.31201 -0.463379 -1.22907 -0.574044 0.709938 -1.41626 -0.581359 1.21919 -0.959253 -0.655039 1.09898 0.12289 -0.331566 -0.353967 1.22603 -0.471592 -0.848889 -0.0642136 1.03689 -1.00922 1.52691 -1.1374 -1.61012 2.06487 -0.27935 0.176429 -3.40469 1.00802 2.02269 -0.372604 1.12332 -3.64955 1.0623 -1.86662 0.0933652 3.68016 -0.931062 1.46041 -0.679955 0.669284 -3.68802 0.18953 -0.960826 0.578959 -1.10389 1.02094 3.10511 0.650233 3.41394 -1.87384 0.653 -2.47022 1.08114 0.658513 2.4868 -2.77799 -0.634232 -1.63821 -1.26672 0.857308 -1.22353 0.626124 1.26104 -0.112707 2.60114 -0.599455
Q45 1.47195 0.730167 1.10361 0.70908 -1.40843 -1.76902 0.981395 0.912912 -1.38911 1.36127 -0.870842 -0.332182 -1.88754 -0.15887 -1.0325 1.69725 1.38183 0.0922341 -0.434343 1.09334 -0.325497 1.41486 2.41093 -0.565301 -1.28946 -3.77963 1.57481 -0.869136 -0.302475 0.872627 -0.869291 0.00622278 -1.50054 -0.640452 -2.59726 1.94433 -1.61106 -1.76064 1.10686 0.137572 -2.52781 -0.991314 -2.02591 -0.42505 -0.124496 -2.31693 -2.1932 0.248105 1.80963 0.919847 -0.422243 -1.73694 2.04504 0.411919 0.332212 -0.897979 0.296963 1.27853 -0.226461 0.864152 -1.68977 -0.320635 0.65568 -0.33513 -0.807318 -0.135726 2.32623 -3.22727 -1.00521 0.723521 0.463887 0.0643304 -1.54531 -0.855875 -2.49516 -1.26098 0.355716 -1.47122 -1.62558 -1.38757 0.590212 1.76624 1.84466 0.118842 -2.55641 -2.4351 -0.271478 -1.10259 1.43695 -1.05397 -0.794023 0.314342 -0.564619 2.73498 -0.653116 -0.73069 1.27962 0.242942 -1.2607 0.121549
Q42 2.6028 0.227376 -0.0689293 -0.405985 0.365818 -0.88369 -2.82084 0.554389 0.280175 2.39244 1.9662 0.608906 0.507942 0.564692 -1.84814 1.62964 0.155375 -0.748669 0.838589 2.36349 1.03518 0.0250653 2.20604 -0.509931 -1.15289 -1.12804 1.03709 1.20194 -1.4113 0.403645 0.158628 0.126756 -0.165031 1.89385 0.0985309 0.115335 -0.0915835 -1.15165 1.02809 -1.43479 0.888114 -0.119685 -0.015609 -0.437461 1.71126 -1.87391 -0.877405 0.908525 0.785771 0.800786 -1.29414 -0.0408445 0.495413 -1.48275 -0.239481 1.33119 -0.295442 1.12024 0.50549 0.559374 -1.70804 -1.57958 0.133064 -1.98386 -0.193301 -0.212374 -1.13117 -1.5718 0.300639 -0.012848 0.353148 -0.229573 -0.544939 1.16386 -0.839709 -1.69128 -1.07548 -1.05966 0.244438 0.479726 1.55436 0.943091 2.2047 -3.39409 -0.0230334 -0.143173 -0.39241 1.04194 1.68983 -1.66685 -0.090079 -0.528873 -0.473049 0.212137 1.41353 -0.27854 -0.873539 0.380734 1.25808 -0.45729
Q43 0.648864 1.18899 1.71287 -1.31846 -1.50142 -1.89992 1.98732 2.1266 -0.672336 3.30291 -0.555729 0.0633915 3.20329 0.974625 -0.646504 -0.392267 0.905746 0.848672 -1.98045 4.46613 -0.809161 1.10343 4.11818 -0.699948 -1.33403 -0.162281 -0.261599 -0.789578 -0.298493 0.392261 0.819621 -0.946892 -1.11757 3.96199 -2.29214 -0.0110022 -0.0748491 0.446868 -0.000403857 0.79661 -3.21718 -0.0167009 -0.908212 -1.96231 1.74129 -1.50116 -2.38863 2.76154 0.747535 1.99978 -0.507799 0.28355 1.3583 0.14381 1.33676 0.774288 1.52912 1.18683 -1.99961 0.0134826 -2.10944 0.671575 1.51187 -0.461375 -0.220489 -2.09821 -1.14945 -2.32809 -0.40682 3.17595 -0.19553 -0.501225 -1.70932 1.13088 -1.39323 2.86917 0.415141 -0.423533 -0.232597 0.85139 2.23871 0.739126 1.86129 -0.910699 -0.0164745 -2.68565 -1.62425 -2.35191 2.93453 -0.403917 -1.85034 0.00969889 -1.26873 1.75524 -2.25756 2.0162 2.63255 1.00371 2.93224 -2.13536
Q40 5.2301 1.07686 0.414237 -0.613494 1.55224 0.176363 0.0280725 2.61862 0.841382 4.26228 2.01381 2.97127 -0.45627 -0.791519 -2.44717 2.62394 1.88318 -1.95534 -0.576771 3.3159 2.35022 1.25085 4.34206 -0.324604 -3.75497 -2.96945 -0.0266894 1.36002 3.34076 -0.852283 0.609671 2.32205 -2.46641 1.25457 -3.70472 0.0862689 -1.1839 -0.94493 4.21616 -1.24997 -1.47712 0.852579 0.674165 -2.72271 2.69224 -3.43459 -2.68211 4.84033 -0.0461897 1.96922 0.501616 0.78193 -1.17923 -3.74684 -0.296707 -0.637775 -0.720394 1.27791 -0.384714 0.716873 -2.04167 2.19277 0.898086 0.547226 4.33885 -1.9644 -1.24088 -2.91932 0.775201 -0.544746 -2.35954 -1.64259 -2.89837 1.69286 -2.86313 1.59014 -1.9295 0.934071 -1.27353 0.693867 4.08234 1.50178 6.41158 -3.97459 -2.00358 -0.202714 -0.142963 0.554874 2.25158 -3.02061 -1.44964 -2.72152 -2.6182 1.98043 -1.43392 -0.64487 1.45881 -0.362157 3.11628 0.638608
Q41 1.01211 0.553436 1.24483 -2.29721 -3.60984 2.86784 -2.55489 -0.531551 -1.09135 5.66691 -2.85739 -2.62464 -5.64953 0.794379 0.191648 1.93953 2.17742 -2.96493 4.4637 4.69792 2.05794 -1.2969 8.69136 -2.19357 -0.775321 0.0306671 -3.17009 2.25416 -1.90678 7.32538 1.0142 -2.91628 -0.920992 3.38564 1.37896 0.982453 -0.814186 -0.665699 3.22334 -2.83221 -0.109332 2.42595 -2.15963 -1.30704 3.18035 0.209945 -2.74979 0.784099 2.88724 3.10929 -3.93108 1.22588 -1.9408 -4.76219 3.37502 -2.03626 -2.57922 3.74187 0.170548 3.27376 -1.48187 2.31502 1.48305 -3.48148 0.0337171 -3.58404 3.11071 -4.5514 -1.88442 0.725838 -0.332591 1.15814 -4.05191 -0.94922 0.394382 -2.102 -0.72617 -3.76487 -0.333367 0.417869 1.78852 1.48499 -1.05465 -2.72133 0.289023 1.98101 -0.567474 -2.21435 -0.324599 -3.87288 0.173217 -2.34568 -2.46299 0.275651 0.364332 0.269411 1.47981 2.42282 5.53976 -1.40763
Q155 8.14413 4.99815 5.41404 -3.09923 -1.61587 -1.56608 -2.89722 1.62281 -1.46238 7.38139 -1.06639 0.447832 1.42932 -2.40565 -3.44606 4.35958 -1.8936 1.41986 -0.429135 2.03096 0.951286 2.25466 4.19394 0.286663 1.30761 -1.66403 -2.33871 1.21884 -2.89532 2.07788 -0.679832 2.76857 -2.49064 2.80314 -3.97441 -0.679732 -1.68117 -2.77748 1.2119 -1.69454 -3.33196 -0.818223 -2.61406 -1.58286 1.96356 -0.18068 -1.618 7.95217 2.18078 3.8315 -4.44948 -1.5504 0.64112 -7.14466 -3.87538 -0.239055 -3.27104 3.48853 -0.154803 1.69643 -7.36189 -0.0531872 1.17603 -2.78521 3.63023 -0.508932 3.48948 -2.93939 2.97549 5.11888 -1.8521 4.80809 -4.85752 -1.91957 -3.21929 -2.64518 -0.0265479 -3.69519 -1.47189 -0.934644 -0.671789 -0.149142 -1.6609 -2.39604 0.337554 -3.91064 2.44647 -5.63577 2.04061 -2.81347 -3.06368 -4.77101 -1.1797 3.27737 -3.54822 1.27435 5.10853 -2.95213 2.78681 -2.64203
Q154 1.99145 0.174276 -1.27119 0.319422 -1.02773 -1.06422 -2.19855 0.741962 0.63128 2.85286 -1.10945 -0.373579 0.773714 2.75617 1.22906 1.633 0.443578 0.6085 0.0457486 -0.502062 -0.827886 -0.540454 1.98344 0.858442 0.224227 -0.97887 0.0269148 -0.345291 1.52673 1.35537 -2.24584 -1.63654 1.00407 0.0691996 -0.438686 -0.0446902 0.305824 -0.610662 1.95853 0.247104 -1.25759 0.571752 0.404025 -1.56148 0.636379 1.15221 -0.0739013 2.50125 -1.12904 0.108152 -0.941836 -3.26399 -2.90558 -0.707181 0.17505 -0.891748 -0.234128 0.650605 -0.672686 0.856157 0.789293 0.144067 -0.0766406 -0.809317 0.651554 0.00159904 -0.330418 -1.02832 0.745742 -1.44089 -1.66484 0.491599 -0.561212 2.08681 -0.917408 -0.264033 -0.202659 -2.67592 0.288795 -0.0245409 -1.63111 0.316835 0.228775 -0.330189 1.75634 -1.36482 -2.51948 0.816175 0.124863 -2.42777 -0.104414 0.531572 -0.579018 1.30777 0.546452 1.58171 1.30587 -0.314425 0.37545 1.15439
Q157 0.672814 -0.0777609 -2.81133 2.7006 -4.34738 -2.70117 1.48225 -0.346452 -0.718263 -0.947371 -4.95084 2.48431 -0.969266 -0.0353263 1.49351 1.16849 -1.46801 2.33236 1.54753 -0.961986 -2.15418 -0.0578553 -0.29804 -0.752486 -1.29369 -4.13715 2.10354 -3.01881 -0.170651 1.24043 -3.00098 -0.366758 0.679022 0.0634017 -1.67612 -0.0119117 -1.15063 -2.54462 -0.906767 -1.28892 0.771795 2.6543 0.230327 0.973144 -2.38961 -1.1566 0.392865 1.99068 0.157083 0.347216 -0.154845 -1.49201 -2.25512 -1.13985 -1.23746 -0.580118 1.33293 -1.14424 -0.540488 2.80527 1.01707 1.06724 -2.10499 -1.55762 1.36647 -1.84577 4.06678 -0.686022 0.636777 0.917846 -0.0275886 1.50658 0.587226 2.52569 -3.64782 -1.79718 3.4842 0.286284 0.959695 -0.921931 1.17987 -1.43926 -0.667793 2.25711 -0.259139 -1.56687 -2.30271 -1.95765 0.107821 -3.03975 -0.168084 -2.74043 -2.48202 1.75157 -2.33833 2.28919 2.3535 -2.74914 0.795662 -1.67646
Q156 0.483236 2.72376 1.64809 -1.75168 -0.877328 -4.15567 -5.30953 1.59269 0.273459 4.55671 -3.55658 0.244037 -2.03697 3.7878 -3.11609 5.38316 -1.33936 -2.76017 8.42508 5.62708 1.24635 0.91507 10.8082 -1.16662 -3.21721 -0.172729 -2.81855 1.17135 -4.81297 3.13836 2.59821 -2.83557 -0.702533 2.85667 -2.93017 -2.49207 -3.27208 1.40604 0.472372 -4.93076 -2.58667 2.60367 0.197593 -2.27068 6.31172 -1.38578 -1.18867 5.99995 2.28632 6.09627 -7.89015 1.84663 1.71248 -2.38278 3.95256 -2.32868 -1.77328 0.566921 -0.333519 3.00372 -5.59518 1.81151 -1.62457 -4.3946 -1.19016 -4.03502 4.68408 -6.58649 -5.13714 3.35812 1.72347 0.954044 -3.23492 4.70316 -4.60799 -0.117184 0.36783 -0.651318 -2.84199 -1.21795 2.25953 1.01204 5.89682 -4.40929 8.17237 1.55738 -1.90593 0.0302272 1.10069 -9.27663 -2.24482 -5.63435 -3.69042 5.2987 0.0513723 -0.63741 -4.36831 0.105441 4.63741 -1.75033
Q151 1.39369 -0.20137 -0.942507 -0.937522 3.73065 0.17648 -4.23052 1.97338 1.11532 2.89663 -2.88885 1.72008 0.0981545 5.08194 -5.31375 1.14248 4.21712 -3.18575 1.97517 0.96803 2.93107 -0.793137 7.22934 -0.797345 0.250959 -1.14798 -1.03045 0.374387 -4.06955 2.04907 2.13909 -0.646258 -0.649929 1.60341 -3.81765 -0.669133 1.69574 -1.52393 -0.629425 -3.51602 -1.47323 -2.96952 -0.131666 -1.26565 0.375514 -2.04025 -0.207489 6.80619 3.52848 2.27098 0.439702 -0.788203 1.07991 -2.12238 -0.00992773 4.23464 -0.812749 1.60703 -2.35797 3.53437 0.711996 2.05887 1.29457 -0.166543 2.4075 1.57706 2.41635 -2.3181 -1.62998 2.47339 1.71892 -1.35868 -1.86057 0.333189 -0.963888 -2.49907 2.6943 -1.31396 -5.36243 3.1012 0.219387 0.665782 2.699 -2.33983 5.09293 -2.38504 -1.80756 -0.220435 7.55215 -7.61641 -2.34975 -0.0673721 -1.86912 0.574317 -2.81844 -0.233368 -4.19007 0.560876 2.90296 -1.55261
Q150 0.994737 2.3662 0.914436 -1.75054 -3.94728 3.39984 -2.57531 2.18958 -0.958128 5.07947 -1.53736 2.21944 -3.06148 -3.2222 -2.70727 4.74569 1.97934 -0.995802 5.02502 4.52479 2.55003 2.63012 5.28404 -1.1065 -0.0761846 -2.11774 -4.00158 4.11091 -1.90837 4.29038 -0.532454 -0.22858 0.973949 4.26216 -2.43725 -1.0427 2.63728 -3.6367 4.64712 -5.00093 0.334355 0.792621 1.23871 -3.03384 2.1288 -1.02381 -1.45973 0.784561 2.03378 1.82154 0.772149 0.0703338 -1.6588 -1.49771 3.24004 -1.21452 -0.139697 1.34706 0.361676 -0.0940509 -1.87783 1.34893 -0.0801773 -2.00172 0.510797 -2.95955 1.82375 -1.1999 -0.217908 -0.299359 -0.609692 3.49821 0.405466 1.66766 -2.72506 -2.74692 -1.41266 -5.78667 -1.27682 0.800743 1.1609 2.38355 0.295353 -0.226267 0.950893 -0.61612 0.482548 -3.21491 -1.93614 -7.49164 1.40191 -2.02675 -1.7573 3.91118 -2.96652 1.00683 0.56925 3.05735 2.64604 -2.61538
Q48 1.86164 0.00141181 0.443674 -1.23606 -1.20448 0.216593 -0.743146 1.21212 -0.554158 -0.642734 1.37131 0.0787189 0.321575 -0.0419462 0.32664 0.43289 -0.304792 -1.40431 0.310925 -0.157864 0.578108 1.2353 1.12076 -0.0625501 -0.147538 0.0488876 -0.694759 0.489996 -0.323664 -0.631306 0.389301 1.0026 -0.446084 1.30639 -0.86522 -0.108997 -0.283486 -0.503674 -0.999086 -0.205543 0.0136879 0.981302 -0.576469 -0.0660368 0.97217 0.241942 0.142614 0.630105 -0.392724 1.3959 0.0170042 -0.569207 1.08688 -0.794255 0.831339 -0.239002 -0.662402 1.30779 -0.886453 0.117648 -0.381287 0.481091 -0.199634 0.613076 0.531383 0.0761697 0.0194211 -0.646886 0.407432 0.937345 -0.614736 0.144197 0.533441 -0.922839 -1.34545 0.484273 -0.0581636 -0.728103 -0.46061 -0.118133 -0.149454 -0.154503 0.334682 -0.646399 0.295179 -0.947706 -0.37297 -1.38075 0.637424 -0.514703 0.345593 -0.826468 -0.234462 1.3337 -1.5903 1.43759 -0.374475 -0.373147 0.306249 0.410914
Q49 6.22533 3.17955 6.34099 -1.8706 -1.62998 -1.34154 -1.31996 4.62974 -0.496833 6.5405 1.97465 4.85598 0.408395 0.140948 0.436122 2.01659 -4.31697 3.51029 -0.14033 0.539753 0.602996 -2.31832 0.244396 -4.88669 3.50038 2.35614 -1.8163 1.45833 -5.75475 1.8899 -1.53434 5.23389 1.3812 5.93725 -5.94655 -1.80519 2.60096 -5.56675 -2.8715 -3.39354 1.79411 3.03257 -2.31234 -2.71969 4.9987 -2.96568 2.24424 6.41418 -4.12653 4.98496 -3.93837 -0.951179 -4.64281 -7.63492 1.78803 -0.580176 -0.903581 -1.45561 -0.488743 1.31457 -3.14916 -2.3984 2.42587 -1.08287 2.24419 0.0386201 2.05885 -1.50799 -0.256706 4.16776 -1.50728 1.01449 -0.740443 -1.13716 -1.31483 -0.651033 0.59203 -2.1566 -0.340569 -4.26018 1.09667 0.415429 1.43164 1.50379 -0.721113 -2.31451 -3.99937 -1.19776 4.32822 0.491941 -1.38372 -5.17564 -2.40764 6.30405 -3.38626 3.12784 6.12437 -1.72191 1.04611 -1.13127
Q153 0.47772 1.63198 0.782583 0.0281168 -0.139427 -0.524101 0.222817 -0.866497 -0.943258 0.909461 2.18108 1.8697 1.55204 -0.425955 -0.182512 0.60825 0.484616 0.150645 0.0540218 -0.387252 0.00602449 -0.333438 0.135373 -1.7762 -0.978072 -0.339419 -1.42853 -0.18023 -1.09532 1.12822 -0.164085 0.491401 0.0873486 -0.0536059 -1.32494 0.304559 -1.73395 0.797239 -0.10637 -0.410705 0.257646 0.553872 0.0716625 -0.816916 0.611329 0.89826 -0.908171 0.211655 -0.131891 0.661655 -0.375909 -0.166464 1.09816 -0.459458 -2.40694 -0.904128 -0.244643 1.19626 -0.775879 0.0899518 -0.63878 -0.915806 0.338862 0.508448 0.247465 -1.29736 -0.320158 -1.33241 0.614146 -0.013447 -1.13505 -0.926269 -0.36913 -0.5075 -0.896617 -1.27225 1.21949 -0.905964 -0.749517 0.621598 -0.173351 -0.780727 -0.0486648 -0.340531 -0.123118 -0.067775 -0.939967 -0.797546 0.123233 0.293478 -0.437046 0.108582 -0.491018 1.19574 -2.17771 1.08019 1.73246 0.54725 0.41073 -0.516146
Q152 -0.0923589 0.296652 -0.125286 -1.124 0.200186 0.964453 -3.7641 -0.462563 -1.35787 3.55608 -3.69891 0.35594 -2.15173 0.647871 -3.05199 0.917031 2.13106 0.345412 2.33266 3.54652 1.83501 -0.727369 5.46347 -1.1775 -2.43853 0.969185 -2.96475 -0.0808444 -4.61804 2.75602 1.93894 -0.042715 -2.1323 -1.36321 -3.06333 0.972734 0.906089 -0.909339 -1.36096 -3.39395 -1.83486 -0.774244 1.00913 -1.42325 0.667615 1.07407 -1.2755 5.12784 1.23975 1.88096 -1.27165 -0.107884 -0.293507 -3.24897 1.42275 2.06618 -1.96484 1.23449 -1.30675 1.23408 1.26821 1.20508 -0.255103 -1.91426 0.707456 -1.63275 3.27792 -2.1531 0.166508 3.05187 -0.508107 -0.264142 -1.28056 0.835787 -0.947893 -1.10978 0.68999 -2.01963 -2.39827 0.931858 2.11081 0.73567 3.43468 -1.60256 1.53003 -0.957812 0.299428 0.199503 4.68231 -5.199 -2.85935 0.0441283 -2.75889 1.53723 -3.27769 0.558237 -2.79983 2.23919 3.77892 -1.44963
Q128 -1.07345 -1.13673 1.49519 0.176909 -6.15466 -2.48102 -2.18508 0.257963 -0.896854 5.73454 -4.22186 -3.5544 -1.7691 1.16908 -1.79056 0.740819 1.014 -2.85376 3.84685 5.11833 1.37987 1.77505 7.12423 -1.3972 -2.23277 -1.34719 0.727204 -0.47063 -2.71625 9.99749 -1.98174 -1.96357 -0.801476 1.80754 0.293681 -0.187863 -1.7066 -1.52954 2.6554 0.546321 3.18367 1.71237 -3.01747 -0.767138 4.03675 -2.15948 -1.25266 2.41569 3.30792 4.99079 -1.40435 1.60965 1.56604 -4.68286 4.16522 -3.32468 -1.66627 3.94322 -0.682657 1.73259 0.0595406 3.04055 2.15047 -0.125128 0.817855 -4.80286 3.40629 -6.55797 -2.90137 0.686253 1.89275 -1.21138 -0.952278 -2.25826 -0.814695 -2.4894 -3.13532 -2.1059 -0.983246 1.94316 1.95333 2.71652 -0.457861 -3.89056 4.76791 0.6024 1.91456 -4.88031 3.02426 -3.96622 0.855153 -0.640056 0.150003 2.16707 1.92317 1.39261 0.981367 1.97038 4.77461 -4.50984
Q129 4.0036 1.03054 1.16962 0.365033 -3.00062 -3.36081 1.04045 2.83997 2.32676 2.35687 -2.35881 3.50398 1.9324 -1.11854 3.12313 3.73034 -3.3008 0.896665 -0.530157 0.40342 1.09619 0.17267 3.76795 2.30872 -0.128674 -1.191 0.444272 -1.86461 -4.15217 1.0227 -4.36709 -2.80508 -0.0316988 3.45076 -0.00886131 0.880201 -1.8831 1.47846 3.04111 -0.611113 -0.900804 3.24003 -1.06702 -0.981042 2.10926 0.466294 0.831325 2.92436 1.38367 2.38431 -3.22593 -1.56062 -0.657818 0.638223 -1.87022 -5.14298 -1.3827 1.61382 -3.01571 4.89545 0.954851 0.553623 -3.70686 -5.26635 -2.40548 -2.59568 3.83479 -1.79974 -1.3382 1.09292 0.572384 2.78496 -4.34116 2.153 -6.93001 1.13468 -0.923407 -2.97349 -2.21408 1.87949 0.963144 -1.58064 1.28843 -2.18023 5.14681 0.485766 -4.18468 0.458305 1.33581 -2.10695 -2.49805 -1.40416 -1.19212 -0.780918 -3.45181 1.95773 -0.573817 -1.16641 2.56768 -1.16747
Q120 1.41913 3.28115 3.00327 -0.354911 1.47155 0.117596 -1.71366 0.82256 2.70495 2.02494 -1.52258 1.15462 0.0151815 1.76893 -3.59975 5.25031 1.01971 -0.885989 0.952698 1.26763 4.03148 2.40888 9.19431 -0.815212 -1.40038 0.216154 -4.53575 1.02623 -5.90275 -2.04237 1.7375 -0.40389 -1.52256 0.940507 -1.93265 -1.93273 0.00568047 -0.0905286 -2.17642 -3.50411 2.25178 3.15299 -0.399831 0.239136 5.47 -3.47812 -3.78748 5.4685 3.44615 2.38903 -1.14842 0.839989 -3.978 -0.0900834 3.99365 -0.721813 -2.48074 -3.8843 -2.02707 4.55724 -1.85746 -0.358873 -4.17309 -2.97791 0.68633 -0.665131 0.194314 -2.57097 -3.83629 -1.36799 1.60822 0.757135 -2.37027 2.09782 -4.57398 -3.42268 1.96785 -1.12729 -2.25344 -1.16527 2.85748 0.64525 3.54759 -2.57435 4.01353 -1.46227 -1.01248 -2.21175 -1.59544 -9.16586 -0.644773 -6.07767 -3.61572 3.75635 0.302372 0.872232 -3.085 0.276198 5.1929 -1.92823
Q121 2.03604 0.906798 0.624977 -1.97142 1.91609 -2.94263 -7.14507 4.11168 -5.94172 5.4104 -2.7536 -2.87106 1.67425 -1.64139 0.907446 6.40959 1.15651 -2.37472 4.04511 4.0416 3.91882 2.59613 3.49063 2.19707 -0.500584 -0.961394 -0.0650168 -1.01914 -8.04631 10.6917 -4.37648 2.96332 -0.577537 3.10712 -2.47396 -0.890989 -0.357382 -1.25282 2.82006 1.40848 -2.54656 0.307803 -0.297515 -8.10947 4.79828 -4.11489 -1.71561 4.11554 5.13383 1.08843 3.46089 -5.00275 0.422362 -1.7854 -3.4767 -6.10741 2.96514 0.90094 -9.02026 -0.641529 -4.0697 2.52993 0.484887 -5.05731 -0.770186 -1.07398 1.55069 -6.68609 -5.23093 1.50448 -5.56198 1.12329 -4.62856 0.764597 -5.09559 -8.05497 3.87098 -3.75974 -5.80727 1.34423 -3.81052 2.14 1.76263 2.56336 2.29922 -2.41497 -1.7696 0.428596 1.66304 -11.0147 -2.82498 -1.69505 1.42127 4.68483 -2.54136 5.20166 5.68907 -2.701 2.40539 -3.4198
Q122 2.29437 2.56166 2.78395 -2.92116 -2.37788 -1.52158 -4.83972 2.23768 2.20962 2.49856 -4.26654 0.673158 -2.63112 2.48756 0.379893 6.05908 -0.504629 -1.67288 5.19137 4.67901 1.65134 -1.94121 8.13884 -0.689284 2.0516 0.494417 -0.0448792 1.14877 -6.33525 3.09472 1.81377 -5.41469 -1.69614 2.74659 -1.43011 -1.22979 -0.160979 1.33355 2.1016 -3.75179 -2.70053 4.3242 -2.17382 -1.96688 7.77362 -3.06947 0.343627 4.45445 0.436055 2.93188 -4.72523 1.96075 -0.202262 -2.27757 3.43242 -1.11216 -1.54003 1.96621 1.02859 4.61697 -0.628036 -3.124 -2.9327 -2.33463 -1.20167 -4.82406 0.195642 -8.24668 -2.54887 4.42935 0.278102 0.218527 -3.36197 2.28847 -5.68998 -0.0201252 2.61496 -4.65926 -0.313121 2.66361 -1.36692 -1.59888 5.8167 -4.98954 4.30069 1.35894 -0.781898 -1.39471 -0.680079 -1.90516 0.854005 -3.67797 -4.00935 -0.295601 -0.256251 1.93786 -1.12146 2.11143 6.0767 -2.26318
Q123 4.11317 0.801419 0.362181 0.97445 0.333124 -1.29837 -1.56194 1.03891 0.611076 3.79202 2.17037 2.0156 -1.75715 -0.734919 -2.44494 0.727135 2.67491 -1.86467 -0.831207 0.617942 1.08599 -0.35133 1.80402 -0.0363573 -1.83598 -3.20795 -0.0415489 1.92571 0.775087 1.24358 0.652975 0.172215 -0.833094 1.06339 -1.21772 -0.876271 -1.14334 -0.455035 1.90279 -0.599729 0.315679 2.62596 -1.31207 -0.853749 2.9436 -1.45747 -3.06296 -0.0403469 -1.37664 2.75547 0.0555371 1.07658 -0.524852 -3.70158 0.258319 0.170513 -0.155019 -0.400011 -3.68518 0.501875 -1.20171 1.81566 -1.61797 0.0738491 2.31411 -0.419986 -0.34396 0.246476 1.66337 2.38611 -1.9792 0.117967 -1.14955 -1.3842 -1.45562 -0.832833 1.11283 -0.706192 0.192043 1.21249 1.05184 1.04991 1.29653 -2.76577 0.28201 0.424591 0.365887 0.694971 2.74389 -0.627871 -1.65839 -2.67428 0.135247 -0.759971 -0.632619 1.92246 1.84604 2.3879 1.69896 1.70296
Q124 0.350133 1.36282 0.610823 -0.512777 -0.520085 -0.934034 -2.12309 0.255634 -0.114097 1.043 -1.85992 1.28707 -0.150378 -0.61604 0.997205 0.248193 0.460263 -0.95612 0.0633248 1.36605 -0.97537 1.49726 -0.714935 -1.5543 -0.00866953 1.22084 0.756596 -1.40139 -1.25368 0.899372 -1.12267 -0.487352 -1.14099 1.40136 -3.32326 -0.186737 -1.62719 -0.95339 0.562539 -1.45135 -0.52338 1.24355 -0.984253 -1.10943 1.7989 -1.66166 -1.15188 0.998044 0.386313 0.976648 -1.43988 -0.671646 -2.27597 -0.233945 -0.142607 -1.36901 -0.0856839 -0.997468 -1.79544 -0.83072 -1.64919 -0.297413 0.408203 -0.241555 0.4686 -1.05871 -0.240479 -1.57376 -0.460743 1.03971 0.284138 0.90923 -1.72726 0.47151 -0.697726 -0.0754274 1.51843 -1.49395 -0.158671 0.182458 -0.840574 -0.65653 1.27202 0.524475 1.25373 -0.19252 -2.51827 -0.996909 0.233909 -1.98865 -0.438822 0.877924 -1.60329 2.34679 -1.35247 1.32543 1.69506 -0.972893 -0.265533 -0.341639
Q125 5.76359 -0.211162 4.17952 -4.93963 -3.33752 -1.04276 -2.62838 -1.03595 -0.926849 4.39688 -0.191709 4.41177 -1.28014 2.30571 -1.88686 2.63692 -7.78637 -0.393645 2.07882 -0.183808 -1.09179 0.64732 3.82775 -2.23527 1.47386 0.640969 -2.69925 -1.25064 -4.4975 0.872958 -1.32681 0.103088 -2.87315 6.17713 -0.734231 -2.44636 -1.79886 -0.306617 0.714967 -0.676945 -2.8797 3.69684 -0.41453 -1.23256 3.58228 -0.806939 -0.273078 7.95982 -1.00652 2.62342 -2.10957 -0.2015 -1.10811 -4.86021 2.54792 -4.23571 -0.292462 -2.88576 -1.85931 2.30082 -1.28225 -4.43006 -1.92051 -2.04428 2.99055 0.392689 1.00217 -3.44609 -2.13543 4.51896 -0.436154 2.67952 -3.53075 0.265912 -4.14133 -5.06437 1.1951 -6.20037 -5.13858 -1.7784 0.657209 1.7054 2.7994 -4.03333 6.37 -2.78733 0.876862 -1.39187 1.97912 -1.9528 1.95787 -0.278409 -1.783 2.96295 -1.85773 1.70336 2.1381 1.21179 2.62947 -2.35211
Q126 2.13914 1.21874 1.97991 -2.79478 -1.69991 -0.00872715 -1.76683 2.29062 -0.889513 1.0661 -0.266351 0.899888 0.239468 -0.451637 -0.234989 0.0222171 0.888488 -0.962168 0.613388 3.1009 0.143199 -0.0683679 2.34717 -0.593426 -0.563913 -1.06337 -1.66503 0.228184 -0.238238 2.89317 0.0873771 0.0138228 -0.536952 0.792582 -0.908386 -0.0807992 -0.804431 -0.938619 1.00407 -2.30363 -0.69782 -0.0347564 0.0675861 -1.24958 1.75168 -2.10055 -1.59518 3.00613 0.779548 0.78214 -1.29937 1.9643 -0.806225 -1.05209 1.67293 0.216601 -0.669139 0.392042 -1.48037 0.917905 -1.55854 -0.131701 0.0904264 0.42922 0.690023 -0.984597 1.49218 -1.8153 -0.644488 1.17299 -0.506782 0.184493 -0.782695 -0.105186 -0.363639 -1.2327 -0.0902277 -2.1056 -1.04909 0.148762 1.44656 -0.756972 0.0200919 -0.929196 0.922708 -1.03564 0.629389 -0.0977243 -0.22097 -1.30731 0.169719 -2.01753 -0.269091 -0.518981 -0.674514 1.11283 1.41868 0.581062 1.71264 -0.477869
Q127 -0.247277 -0.42499 -1.56179 -0.164216 -1.08508 2.73643 -2.71461 0.0260936 -0.907446 4.79529 -2.10075 -1.76063 -2.92719 0.0326497 0.951084 0.677678 1.94098 -1.83927 4.95979 4.11067 2.11467 -0.231044 6.14984 -0.656027 -0.214906 0.202321 -1.96569 -1.32817 -2.81095 5.31579 0.731116 -1.27451 -1.52313 1.80028 2.64786 0.370814 -2.39473 -2.21461 1.98074 0.466292 -2.12561 1.8615 0.245687 0.29987 0.0488267 1.19825 -0.43354 0.601868 0.758003 2.31313 -2.73288 0.291419 -1.58864 -4.20484 0.9174 1.04294 -2.60902 3.23566 2.39218 1.11954 -3.39495 -0.868 -0.31762 -2.33221 -1.9601 -2.01502 3.45257 -4.77654 -3.75754 1.61568 -0.76383 -2.30256 -0.390919 1.15228 -1.62747 0.860825 2.23929 -3.82359 -0.445417 2.77362 0.109559 3.04748 -0.0110492 -1.76113 -0.521046 0.900162 -0.15178 -2.28724 2.65386 -3.39673 -1.07762 0.118936 -0.193511 2.35456 0.325492 2.07957 -1.38981 1.26207 3.79711 -2.03333
Q33 1.32522 1.37045 0.940222 -1.05126 0.818573 -0.660955 -0.457605 1.37452 -0.117727 0.735998 -1.03673 0.832963 -0.992995 -0.268986 -1.43325 1.22265 -0.0556831 -1.26104 0.386318 2.85958 0.771312 1.38181 4.11116 0.23085 -1.22634 -0.686102 -1.13077 0.831572 -0.709323 0.386527 -0.0131379 0.704049 -1.64383 0.788489 -1.68161 0.601627 -1.33142 -0.524976 -0.489541 -1.53988 -1.25707 -0.603264 -0.326044 -0.584902 2.22175 -0.751927 -1.2546 3.16326 -0.123752 1.28615 0.0718073 0.230928 0.203586 -0.736242 0.816491 0.87577 -0.0309045 1.61927 -0.828846 1.05749 -1.57638 1.31193 1.27217 -0.402885 -0.745653 -0.101259 0.0221104 -1.24093 0.51139 2.22095 -0.777885 0.173898 -1.65751 0.665636 -2.0076 0.83683 0.334235 -0.494519 -0.91791 1.27605 1.52796 -0.631649 1.23359 -0.00556465 1.91258 -1.54755 0.0554293 -0.646896 1.47688 -0.562445 -1.68014 -0.848766 -1.32451 1.4802 -1.20224 0.667629 0.292339 -0.143972 2.33939 -0.297339
Q32 3.86051 1.40071 4.07021 -4.33108 -4.97514 -2.38109 -7.41899 3.14019 -1.92168 3.74672 -1.14139 0.581832 -4.38545 -0.411418 -0.0310829 4.8427 -0.351764 -1.83209 7.35223 4.81262 2.80086 -0.00980141 8.45649 -1.97532 -4.23821 3.23847 -2.50375 3.59239 -7.05371 6.24523 0.236394 -3.70379 -1.09638 4.43413 -2.12553 3.61609 -3.75731 -3.24753 4.13295 -3.13118 0.44257 4.45448 1.12759 -3.28009 7.60683 -1.91936 -2.62626 3.35977 2.59705 2.29244 -6.57893 0.663404 -3.01966 -1.44849 2.72112 0.0881214 0.0178329 4.65231 -2.45246 0.29634 -4.34988 -1.80397 -1.85892 -6.40021 1.10667 -5.0888 2.69753 -6.14195 -0.883504 2.24917 2.55596 0.912308 -0.862535 2.21302 -2.73514 -3.7084 -0.445027 -2.93921 -0.195444 1.73478 4.30375 -0.809018 6.21654 -2.12124 3.25199 0.44776 1.43919 -0.153965 0.928866 -4.56378 -0.77946 -4.25951 -1.55083 1.79274 0.703172 -1.09471 -1.69112 2.67523 3.75491 -0.40039
Q31 0.102111 1.02697 -0.152025 -1.04203 0.349457 0.500268 -5.8496 1.23924 0.0663721 3.32607 -1.10901 0.372278 -2.81408 2.60065 -3.70181 4.36904 4.3339 -1.53276 5.37252 5.306 2.89559 -0.437383 7.96575 -0.357934 -2.87806 -1.45685 -3.54261 -1.74386 -3.68506 2.56024 -1.11256 0.0748667 -2.33568 1.37114 -3.32541 1.76372 0.767743 -1.09354 -0.864419 -4.1797 -3.56448 0.747728 -1.95844 -2.69011 4.16836 -0.191315 -3.43048 6.53939 3.49661 4.23397 -3.98148 -0.835547 0.264624 -3.03929 2.42905 2.45962 -1.41567 0.649774 -0.770736 1.77203 -1.52417 3.14286 -4.12836 -4.3127 -0.441023 -0.682837 5.71539 -5.8951 -5.37483 2.90476 -0.384981 -1.11007 -0.339889 1.11616 -2.18045 -2.14075 4.24219 -4.39833 -4.27623 2.20285 0.915547 3.54002 3.67858 0.617408 3.65753 -3.9129 -1.1159 -2.32935 5.96342 -7.07081 -0.570531 -3.13222 -5.96564 4.58641 -0.936987 2.47498 -0.314807 1.56635 2.52071 -3.75369
Q30 3.10001 0.459824 1.32106 -0.613254 -0.117299 -0.518411 -0.857853 1.33517 0.380494 3.12922 0.3436 2.23783 0.680629 1.2455 -0.968304 3.1929 -0.0761899 3.67788 0.377952 -1.9285 1.85415 -2.44603 -0.323617 -3.92871 1.18324 -1.64617 -0.763611 -0.360877 -3.42477 1.36339 -2.64231 1.93897 0.927331 2.24494 -2.82822 2.20742 1.99044 -1.91362 -1.13004 -0.73027 -0.530981 1.90987 -1.10797 0.216421 -1.68934 -1.21128 0.833353 3.83582 1.4322 -1.13832 -4.25404 -0.112431 -1.91971 -1.46684 0.421458 -2.84219 0.622545 -0.896325 -3.4657 0.83756 -2.38435 -2.62993 1.33474 -0.387981 0.279722 0.166766 1.67908 -2.12707 1.96985 1.97403 -0.0912272 -0.174178 -2.42307 -1.93982 -1.51189 -2.66881 0.200265 -0.45558 -0.507178 -0.0530172 -0.484253 0.0208916 -0.00580534 -2.08358 -0.239335 -2.72157 -0.564549 -0.327057 4.22469 0.527987 -1.36629 -2.0713 -0.859154 2.69946 0.576278 1.51551 1.31139 0.716033 1.80033 0.348251
Q37 6.44974 -0.483786 2.76706 -1.45351 -2.4207 -3.83282 -3.28611 3.51296 1.43583 4.62383 -3.58249 0.76858 3.08484 -0.0499476 1.93566 -2.17603 -3.29879 -1.37966 0.682929 1.0597 -0.0222818 -0.151961 2.98502 -0.520821 -0.572004 -4.55423 -2.44186 -0.0204588 -2.12392 4.81279 0.749589 -0.512459 0.0737451 -0.108417 -5.34688 0.587907 -1.64614 -4.67229 -0.998499 -2.17902 -1.28562 2.11891 -0.937464 -0.107896 1.14858 -1.21372 0.783553 5.01336 2.4586 1.53933 -3.75831 0.134686 -2.87864 -2.99555 1.48912 -2.88454 -1.30126 -2.84465 -0.697419 0.390589 -0.402378 -0.102881 1.07754 -0.654814 2.76391 0.650161 -0.220339 -3.83069 0.38639 4.71077 0.602987 -0.169145 -2.1329 1.29922 -1.77487 -3.38058 0.453237 -2.47303 -2.73207 0.505702 0.192925 1.97955 3.20091 0.123803 3.0886 -3.97092 -2.70628 -1.54475 -0.247144 -5.10415 0.957249 -4.38976 -2.46304 0.600123 -1.06671 2.52275 3.16946 -2.76671 4.55339 -2.88915
Q36 0.892672 3.50243 0.097954 -2.06621 -0.954637 -2.83337 -7.42361 1.22372 1.93323 2.52627 -2.08336 1.81452 -6.61227 3.07045 -4.51967 4.30337 0.167259 -3.67551 5.30601 5.1817 5.08102 -0.661572 8.51934 -1.92141 -0.868515 -0.0719027 -2.68597 -1.10156 -1.90358 6.45823 1.20467 -2.03941 -2.5413 2.79781 -0.837362 2.82812 -3.74489 -0.677797 1.60091 -1.15832 -1.22159 -0.560042 -1.83597 -1.06804 3.73389 -1.14784 -0.337706 2.92149 -1.2641 5.63133 -4.02737 1.86888 -0.104102 -4.26154 3.36419 3.08343 -2.9198 1.89171 -0.269589 4.20809 -1.77722 0.421154 -0.47769 -3.00265 -3.42757 -1.40864 5.19165 -5.94904 -4.39723 2.5009 -0.791164 -2.12162 -0.371266 -1.05094 -2.24295 2.69369 2.2356 -2.41388 -0.808611 0.86579 0.274143 1.72039 1.98783 -1.88967 5.41001 4.22946 0.114621 -1.21573 0.676988 0.732975 -1.51822 -3.57809 1.77274 5.02839 -0.6814 1.18353 -1.32828 1.57605 4.65665 -3.28992
Q35 6.97383 1.90332 2.65026 -1.04644 1.35507 -1.55233 -1.86565 0.579352 0.146419 1.34165 -0.949563 2.04476 0.792046 0.826623 -1.02193 2.34014 -1.80981 -0.540736 2.84601 0.384012 3.40384 0.147892 1.73542 -0.565445 -0.561187 0.550128 -1.87286 -0.0783714 -1.56363 0.433253 -2.71317 -0.629948 0.0208261 0.865905 0.517347 -0.0765115 -4.06902 1.96206 2.98376 -1.50618 0.124656 -1.24086 -2.81948 0.623455 3.46585 0.223759 -4.18201 4.68081 -0.902534 1.78195 1.65688 0.203145 -1.34651 -1.20147 -0.194654 0.842952 1.8581 0.375236 1.37423 1.8066 -1.57886 1.10423 0.258817 0.666451 1.46922 0.250529 -1.29576 -2.86417 0.642115 1.26659 -1.00883 0.357965 -1.41849 -1.94057 -2.93614 0.788432 2.54139 -0.233084 -1.45101 1.15786 1.00914 -1.3278 -1.59166 -1.34214 3.33647 -1.27506 -0.544287 -1.96423 1.54797 -3.30331 -3.42487 -2.21087 -0.529 4.37754 -1.35376 1.50816 -0.511308 -2.8054 2.19585 1.26308
Q34 0.82808 1.75132 0.490893 -1.27274 0.539137 -0.362716 -2.03811 1.64124 -0.589369 0.758678 -1.0352 -0.623715 -0.674087 -0.655019 0.69525 1.44154 1.04827 -0.370168 0.436245 1.77693 0.211508 0.302149 2.40774 -0.174681 -0.447174 0.25528 -2.14265 0.312397 -1.05484 2.53124 -0.978377 0.357437 -1.48333 0.532021 0.640119 0.681424 -0.565176 -0.537459 0.0969253 -0.778529 -0.468446 1.04723 -0.571452 -0.760961 -0.189587 0.028006 -1.08588 1.43834 0.240279 1.39443 -0.537915 0.116252 -0.777658 -0.55673 0.624672 -1.23471 0.462111 3.35379 -0.0448461 1.34964 -2.33851 -0.164369 -0.0743429 -0.834521 -0.853274 -1.03878 1.57752 -0.653236 -0.643318 0.0388753 -0.40147 0.137324 -0.998249 1.56396 -0.693183 -0.625361 1.31329 -1.20794 0.148806 0.165387 -0.484368 -0.19364 -0.294312 -1.07138 1.21291 0.201398 0.58957 1.79904 1.39407 -1.06028 -1.63298 -0.944761 -1.4093 0.713184 -1.24023 0.82882 0.809773 0.391998 2.10154 0.351084
Q39 -0.222564 1.62402 -0.503919 0.299614 -0.647508 2.17324 -5.42525 -2.23786 -0.551478 3.59599 -3.67025 2.79158 -3.80693 -4.33758 -3.74219 0.907837 0.860139 -0.387321 5.01311 4.16555 -1.07699 1.19209 3.69019 -1.58017 2.31381 1.26826 -1.70821 -0.296807 -3.96758 5.42943 0.111301 2.81868 -1.08262 3.553 -6.28155 1.83004 2.58245 -2.61699 3.13909 -2.18827 2.88338 -1.49035 -2.57957 -6.45845 1.88701 -1.19564 -2.46237 4.42667 -0.0536435 6.9788 -1.47453 -2.37434 2.11311 0.841935 2.54852 -4.27863 0.609558 1.95876 0.296462 0.138972 0.00176315 -1.19556 -1.73509 -3.42299 1.22794 -4.08558 0.568428 -4.13134 -3.77835 2.48499 0.451852 6.24393 2.04535 -2.88698 -0.859472 -2.70347 -2.58088 -3.75661 -3.82974 0.0957445 -1.21936 3.19519 2.53956 0.851191 -2.33489 -1.24319 -0.901353 -1.85003 0.363433 -5.80749 0.186918 0.59037 -0.628943 3.04104 -7.12574 2.90421 4.57848 2.92922 6.1659 -3.74128
Q38 0.977311 -1.73206 2.60815 -0.962111 -4.76897 2.76754 -3.55298 0.925715 -2.23095 4.30211 -4.21049 -2.88812 -3.81212 -0.247557 -0.0202115 3.67625 1.22727 -1.03332 4.87338 4.51646 -0.183149 -1.80778 10.2811 -3.31336 0.181863 -0.908322 -2.28124 -1.44421 -2.83423 8.20597 4.99863 -5.62208 -1.28154 4.5395 -0.0226222 2.21096 -2.82737 -1.19746 2.57487 -2.47797 1.14031 1.72866 -0.359968 -0.186476 1.30788 0.151351 0.11993 2.24409 3.64104 4.64666 -4.44619 0.806906 -1.22755 -5.44038 2.05476 -4.15523 -3.75421 2.91067 1.47752 2.96521 -1.98567 2.83137 -0.687104 -2.65189 0.545195 -4.40412 3.30328 -3.15306 -0.743595 2.64278 0.432475 -1.20347 -3.02479 -0.0316523 0.565569 -1.24916 -1.05399 -1.93262 0.818485 0.361191 0.621034 1.85961 1.14475 -4.0132 0.749456 -0.035978 -1.47199 -3.36823 -0.16424 -6.36787 -0.402459 -4.25108 -1.81194 1.42276 -2.56496 0.161072 1.47842 3.43364 2.38113 -2.82099
Q142 7.39077 4.29145 5.08922 -2.8364 -4.16793 -2.49064 -2.92276 6.90149 -1.96511 3.70188 2.15957 0.543653 0.210522 -0.520507 -2.21577 6.56564 -1.12573 -4.65533 5.91547 6.75353 5.10305 -0.642753 8.30375 -6.00621 -1.0675 -1.27511 -4.07043 2.91316 -1.72103 1.24843 -2.61818 1.64859 -1.91849 4.83338 -1.1032 2.24013 -5.554 -0.0931942 4.04965 -5.41823 -0.546142 3.50297 0.675693 0.851953 9.66594 -4.90071 1.16178 4.19924 0.255742 1.5475 -3.4509 0.298865 -0.396686 -2.84161 0.971266 -0.42871 -3.53309 0.173138 -6.08796 -0.0272619 -3.44993 -1.25947 -2.77751 -0.0699867 2.34332 -2.84337 1.88367 -2.53793 1.24713 3.87771 -0.861618 -0.821342 0.903756 0.124284 -5.26486 -2.61105 -0.655696 -7.12708 -2.71498 0.689307 3.78633 -1.88934 1.22155 -3.23359 3.48254 2.21423 0.095994 1.91296 -0.823788 -4.45762 4.32775 -4.35227 -1.17207 6.70063 -1.36635 -1.5481 2.94078 2.30126 0.652038 -0.337094
Q143 7.1973 2.51763 3.6192 -2.22029 -1.79091 -4.1563 -3.86395 -0.179119 -0.947008 0.664853 5.10339 7.88385 -3.4932 0.105317 0.879605 5.00735 -0.62274 -3.49434 5.47607 3.63095 -0.777141 -0.131019 5.02443 0.658909 0.175648 -2.47621 -4.2474 1.65471 -5.71906 6.28485 -4.84782 4.13479 -2.25846 -1.23995 -3.63764 0.859953 -3.54131 4.02243 -1.53547 -1.9273 -4.10085 0.438563 -1.12522 -1.53694 3.8468 -2.72722 -2.92258 7.51975 -2.01769 0.683483 1.8214 -1.97813 4.72154 -3.52405 -3.39546 -2.19474 -1.19447 3.48458 -5.48561 3.67435 -3.99427 0.470266 2.94567 -2.10408 -2.25824 -3.05803 -0.966101 -5.88157 2.54218 -0.214155 -5.43517 0.311177 -0.0255232 -0.795599 -5.61508 -4.99276 -1.5104 -6.01091 -0.5477 1.92585 1.3703 -1.56106 1.35936 -1.60475 2.5635 -4.40969 -0.0575822 0.388645 -0.874701 -7.48861 2.88994 -1.75721 -2.9416 5.34948 -2.87799 6.62783 5.38204 0.533382 0.849422 -1.75918
Q140 1.66934 1.856 5.90219 -1.19281 -2.05111 -2.21715 -2.58556 2.04912 -2.7028 3.1612 -2.06581 1.74474 1.45059 0.371745 -0.614396 4.75938 -2.44474 1.22911 -0.129493 6.83765 -0.0547509 3.07536 5.82542 -0.792912 -0.210813 -2.59639 -0.878549 1.52727 -0.309643 3.58848 1.27766 3.20271 -2.76025 2.28894 -4.16162 1.26015 -1.75318 -1.6761 -1.20111 -1.49401 -1.3842 1.1169 -1.36437 -1.70236 3.03381 -1.87039 -1.46371 4.92534 1.39278 1.28851 -2.08859 1.69699 2.81196 -0.652691 0.513375 -1.51957 -0.880693 5.70428 0.860975 4.52644 -2.84509 -0.662602 2.73265 -1.39742 1.33838 -3.07855 0.550966 -0.372373 -1.59415 2.93127 -3.14341 -0.504283 -0.210344 7.16593 -3.60127 1.27983 0.852175 1.38412 -2.49985 1.43367 1.40157 -0.380908 2.51097 -1.8516 2.43358 -4.69611 0.392596 -2.07809 2.83095 -3.57888 -1.24047 -3.06145 -2.10204 3.0449 -0.782763 -1.12082 5.92643 -0.145656 5.68449 -3.03556
Q141 0.984848 0.074846 -1.2566 -0.268246 -0.373257 0.253521 -0.644052 0.0845164 0.110342 1.02797 0.447369 0.405385 -0.417332 -0.0586922 0.0905038 1.53122 -0.710399 -0.00786991 0.20528 0.36448 -1.65274 -0.974282 1.70153 0.357967 0.685346 0.675725 0.660455 -1.56753 -1.29703 0.740549 -0.650604 -1.9588 -0.176477 0.253842 -0.383092 -0.493952 -0.34434 0.659597 0.0159276 -0.972033 -1.09378 -0.267722 -0.694993 -0.0416382 0.0605115 0.815501 -0.0474198 1.29698 0.446464 -0.681003 -0.993125 0.310219 -0.841688 -1.09681 0.872104 -0.13201 -0.370526 0.379862 -0.604802 0.701655 0.821287 -0.523378 -0.884572 -0.454141 -0.0514548 -0.250151 0.213295 -1.32572 0.305309 -0.247736 1.06404 -0.219884 -0.116004 0.431031 -0.755401 -1.12955 0.750569 -0.772255 -1.03115 0.00761818 -0.562801 0.272402 0.107072 -1.29326 0.161783 0.192144 -0.982099 0.20433 0.363313 -0.597354 -0.268435 -0.915263 -0.268482 0.2178 -0.0778678 1.55711 0.721172 0.126726 1.14096 0.685179
Q146 -0.447916 -0.0524654 1.42197 1.0742 -3.7168 -0.806838 -5.91334 4.46646 -0.84935 6.9495 -1.89524 0.829444 -1.27218 -0.963038 1.03141 1.99684 -0.738909 0.585984 3.02653 1.31152 -1.04657 0.532898 3.70728 0.422512 -1.1216 -1.18585 3.51941 -2.61371 -5.39481 3.93926 -4.4043 -0.581854 -1.24154 -0.242989 -5.96979 -4.20433 -4.76541 -3.47854 1.904 1.49841 -2.73913 -1.0158 -2.51094 -2.64075 1.46113 0.12164 -2.68444 -0.576784 -0.035826 -0.0979684 -2.85733 -4.16346 -1.5454 0.717351 2.50077 -3.76828 1.70167 1.92046 -2.26064 1.59506 -2.43671 0.511095 0.887254 -1.75284 0.312738 -4.32897 -1.6536 -3.79739 -4.48562 2.00915 -2.92809 0.322961 1.2123 2.11645 1.4336 -3.60585 -2.13892 -3.22699 -4.0994 -0.579326 -0.518321 -0.522495 4.18344 -3.07312 3.23344 -1.06402 -4.40993 -1.58756 0.450467 -7.27302 -0.174321 0.61729 1.53314 1.84203 -0.702502 -0.396921 3.41417 -2.34957 0.826208 -0.347399
Q147 0.693251 1.80807 2.46208 -1.66066 0.0569002 -0.577147 -2.77046 2.68036 -3.58044 0.68383 -2.56053 0.463253 0.0872184 -0.258592 0.370305 3.1451 -0.485406 0.850575 0.842151 1.27096 1.10214 1.32663 3.53112 -1.20407 -0.197125 -0.264547 -1.48546 0.499188 -2.3518 2.74503 -1.16498 -0.299859 -1.60264 1.99331 -0.277095 -0.373527 -1.923 -0.227461 -0.887472 -1.98871 -1.56394 1.92354 -2.24546 -1.28802 0.642234 0.246769 0.0678254 1.61738 -0.784685 1.82357 -2.0371 -0.714817 -1.10525 -1.38502 -0.035167 -2.19772 -2.25028 4.24039 -1.50552 1.08115 -2.14298 -1.17591 -0.31185 -1.69718 1.55669 -2.51185 2.02555 -0.904774 1.23696 0.856843 0.935412 1.29545 -0.873008 -0.708782 -2.17325 -0.229753 0.948196 0.23269 -0.409085 -0.342764 -0.15016 0.104555 1.55172 -2.86842 2.60037 0.573556 0.958429 1.13022 0.307038 -0.62518 -2.38878 -2.76907 -2.14038 1.442 -2.99214 0.195428 1.81853 1.26566 3.3905 1.28933
Q139 6.59898 1.14033 5.98465 -0.115344 -3.55483 1.06001 -2.54504 -0.885495 -1.89267 6.97762 2.384 4.94598 -3.88552 -1.22161 -3.7729 5.4294 -1.40236 -3.82642 1.42125 4.93015 3.25587 -2.44639 7.08738 1.14308 -3.72524 -4.45873 -2.94313 1.64988 1.389 1.69356 -5.7514 2.99572 2.07895 4.32945 -0.599389 -1.25176 -4.75387 -3.90389 1.21231 -5.30204 -1.40399 1.08691 -1.64894 -0.17511 5.91654 -1.73049 0.680902 1.39182 0.700057 2.56103 -4.78503 -1.54462 2.08082 -1.71327 1.19583 -1.52372 3.28964 1.52716 -3.37787 -2.78771 -2.79202 -0.127701 -2.40072 1.87827 2.02824 1.8667 3.00818 -5.2053 -0.841214 -0.145109 -0.593944 0.858945 -0.723362 -5.5072 -4.09406 -1.97204 -0.199667 -6.45221 0.0896609 0.66867 2.60889 -1.10697 1.14629 -1.45695 1.88588 -2.85112 -2.57619 2.24592 2.31874 -7.64726 0.956124 -2.26816 1.93602 1.48685 -1.19577 0.0387533 2.85927 -0.944131 3.26043 -4.2301
Q138 1.85691 2.80693 1.96638 -5.30287 -3.41901 -0.17796 -3.77328 -2.04767 -0.974684 6.82236 -0.311383 0.98624 -3.08294 -4.68576 -6.40543 6.2498 -2.04286 -4.39721 4.43426 4.31128 -0.153718 1.61372 12.4609 -1.63139 3.58165 -2.81652 -2.30232 1.10093 -3.78468 5.39611 0.137814 -0.716951 -1.05333 7.86396 -3.10632 2.33794 -2.49443 -4.39119 2.43109 -0.869886 -0.973159 1.62548 0.0456259 -6.34586 0.293414 -3.2693 -1.71453 4.65773 4.32048 4.02359 -7.1962 -2.25735 -0.31275 -0.397203 4.01019 -4.89462 2.36897 4.93011 -4.79168 1.41341 -1.52003 -0.645053 -4.07819 -2.00685 -0.64817 -4.03098 5.44358 -4.3903 -3.49632 1.97637 -3.31009 -4.44346 -0.839099 -6.18585 0.973357 0.772235 0.0116104 2.53637 -0.305757 -1.89631 4.33126 -5.19116 4.29508 -1.58728 3.97221 -0.29379 -1.00802 0.966493 1.34713 -10.3875 -2.67704 -0.888485 -0.288994 -1.20048 -2.50622 3.06192 -0.0281995 1.37352 2.69427 -2.23551
Q144 3.72358 0.90303 0.0857331 -1.43465 2.92678 -1.89854 -3.07482 0.132712 1.59871 3.12189 -1.53057 1.15348 -0.179149 3.31095 -2.91462 1.85724 0.773751 -2.32708 1.76118 2.21641 2.13272 1.20145 5.93106 -0.295195 -1.10607 -2.15863 -0.550587 1.01236 -3.36863 0.485268 -0.750532 -0.37513 -0.685085 2.58288 -1.41408 -1.82433 -0.929327 -0.604921 -0.77306 -2.54316 0.439858 1.03965 -0.751652 -0.213008 2.77296 -3.19547 -1.15708 3.07593 1.86119 1.792 -1.35022 0.428809 -0.193364 -2.89028 3.62527 1.13746 -1.01938 -0.862398 -2.35456 1.01805 -1.8287 -0.0579596 -0.972548 0.0425718 2.36348 0.107431 1.61933 -2.34793 -2.59782 -0.253324 0.34326 -0.159821 -1.86747 0.378181 -0.91069 -3.02797 0.610859 -0.48536 -1.00619 -0.0530988 2.15489 -0.185361 3.54107 -4.2249 2.85345 -1.18048 0.557681 0.139847 2.70029 -6.90391 -0.0513009 -1.95142 -1.3875 -0.372747 -0.42219 1.8509 -0.528229 -0.394834 3.90413 -1.22497
Q133 -0.905981 0.466229 1.18782 -1.40039 -2.08026 1.85246 -3.87805 -0.346232 -1.66929 4.95542 -1.83573 -1.75139 -1.7176 -1.13348 -0.632485 2.88701 2.68234 -2.01275 4.59297 4.02173 1.67197 -0.13765 5.94942 -0.153601 -0.11207 0.138861 -0.598634 0.0164671 -0.570475 5.75092 1.71877 -2.2516 -1.96468 0.997868 -2.01535 0.23663 -0.969372 -1.43569 0.318909 -0.729622 -0.626179 2.17653 -2.99349 -1.7112 1.58113 0.466736 -2.6494 0.805928 2.64274 2.20996 -0.845264 0.401389 -0.178612 -3.74729 1.24789 -2.91772 -0.909668 3.20242 -0.785759 0.652119 -1.86587 1.92161 0.489043 -1.53098 -0.577737 -5.26971 1.37804 -4.87362 -2.74394 2.22744 0.279335 0.305164 -2.63558 0.965598 -2.30267 -1.20573 -0.288442 -2.28733 -0.107148 0.816252 0.2894 2.26336 0.88124 -1.29069 1.2562 0.270659 -0.654526 -2.457 0.395678 -2.17579 -1.41014 -0.869338 -1.14708 0.102009 -0.751611 0.0449806 -0.992275 2.67784 4.21189 -1.91904
Q132 2.18745 -0.795656 3.98195 -1.3262 -1.97752 -4.06938 -1.56373 2.2464 -2.05317 1.08792 -2.54568 -1.11985 -0.346615 -2.35576 -0.429186 -0.0373182 -3.38122 -0.351988 -0.164518 2.60651 -0.29166 0.415737 1.79023 -0.409468 1.31484 -0.250301 -2.85326 -0.0654306 -3.1782 4.3308 -0.974425 1.51844 0.703763 0.597448 -1.23947 2.21943 -0.179821 -0.766555 -0.272144 -4.551 0.30586 1.69224 -2.40852 1.78539 2.34466 -0.930824 -1.80655 4.4559 0.756157 1.72148 -2.25874 2.04211 -3.20164 -2.06964 1.53513 -0.440697 -0.756253 -1.63834 -3.23221 -0.0375699 -0.777381 -0.521908 -0.023592 1.26715 0.261418 -4.0526 -0.722133 -2.99698 0.550551 5.14254 0.415952 -0.627258 -1.85153 0.799282 -0.161779 0.960293 1.16822 -2.59303 -0.203311 -0.700115 0.422115 -0.411788 -0.356916 1.56252 2.71405 -2.20873 -2.80976 -2.10136 -0.719215 -2.39735 0.461387 -4.60339 -1.49613 1.11298 -0.323333 0.898699 2.0715 -0.900383 2.38668 -3.00068
Q131 3.09619 0.0102854 2.89611 0.813459 -3.3058 1.43154 -5.39341 1.40039 -1.11649 7.05841 -1.6388 -5.27312 -6.78433 1.49888 -1.82795 3.18908 2.15605 -0.967234 7.1074 8.32531 2.39576 1.18676 3.44715 -1.49976 1.01831 -0.166621 -3.69722 3.30702 -3.15447 6.3936 1.77884 -2.39405 -0.494506 3.26973 1.39077 3.22246 -0.80502 -0.862027 2.70311 0.51397 0.0355059 0.742754 0.501104 0.963075 0.843991 1.88057 -0.70222 -0.849137 3.12952 2.4556 -3.74573 1.06362 -2.17155 -2.19179 2.34287 -0.0226888 1.3327 2.95022 1.08748 2.83209 -4.72946 0.934587 4.27177 -5.43032 -1.03787 -3.92496 5.66631 -1.42884 -3.45457 2.63146 0.0629837 1.17733 -2.08808 0.290396 -5.08739 -1.2462 1.69485 -1.77993 -0.242027 -0.498329 -0.0638323 1.28843 -1.56446 -0.220784 0.471244 -0.900313 -2.93114 0.295624 3.71959 -3.15969 -0.728869 -1.09495 -0.44868 2.25163 -0.639147 3.00239 1.84986 0.800703 6.09521 -3.43759
Q130 0.206913 1.49728 2.97185 -1.68912 -1.68703 0.0709469 -5.41848 0.71664 0.0712347 5.12457 -3.2139 0.731491 -2.3143 -1.04215 -5.57067 7.19388 -1.73816 -3.20262 0.967523 3.79361 -0.626128 5.02937 8.51237 -3.4516 2.78342 -2.30755 -5.29525 3.36272 -3.6056 1.24142 0.145017 3.4373 -2.77056 1.67851 -2.80232 1.37052 3.66356 -2.21972 1.94292 -1.86525 -2.85669 1.79828 -0.00287448 -3.43629 3.8121 -1.86947 -1.46765 5.44016 0.911415 4.8954 -0.793948 0.174346 1.11722 -1.32396 1.54011 -1.96745 -0.131855 5.03873 -2.06062 1.08757 -0.00845519 -2.46127 -1.00048 -1.31459 -1.48009 -4.41247 4.77045 -4.4773 0.374629 4.52636 -2.89577 3.34797 -3.64093 -0.459749 -3.20342 -3.07973 -2.58408 -7.14546 -3.04782 -1.76381 1.48297 1.20932 4.85159 -1.10127 2.48002 -4.34183 0.868075 -2.26059 0.0508941 -4.12675 -0.620808 -0.223652 -1.63996 4.09342 -0.418889 4.23697 3.37267 1.78498 3.28991 0.922172
Q137 -1.27176 -0.644624 -0.0354375 -1.11614 -1.56488 1.58421 -2.62881 0.865962 -2.02211 3.42395 -1.96357 -1.33814 -1.43736 0.583472 0.371627 0.499476 1.75867 -0.666307 2.93425 4.25644 0.928727 1.1578 5.13737 -0.670019 -0.0498651 -0.812282 -0.624312 -0.874664 -0.859641 6.63046 1.28124 -4.30163 -0.589813 1.57852 1.55171 1.41386 -1.71864 0.576798 0.870402 -0.518685 0.164467 0.531674 -1.59234 -0.330275 2.42122 -1.23589 -2.04431 0.166194 0.741874 2.54 -2.03604 1.07311 -1.22062 -3.58742 2.38031 -0.301723 -1.07741 2.49465 1.36287 2.39751 0.397724 0.588098 -0.692281 -1.77588 -0.965204 -1.99355 2.72888 -3.45088 -1.61899 2.03291 -0.488902 -1.30181 -0.728358 0.00618411 -0.692981 -1.26328 -1.52045 -3.20115 -0.888863 0.336508 -0.342855 0.244561 -0.145954 -0.707743 0.163451 2.39553 0.755944 -2.13366 0.495715 -2.23041 -0.140135 -3.24818 0.290069 0.128598 0.937744 -0.450752 -1.06093 1.39188 2.41206 -0.0572812
Q136 4.96022 2.83069 4.72797 -1.85189 -1.00021 0.976367 -0.07633 1.50734 -0.167118 2.59597 2.74707 2.64953 0.214031 1.15242 -1.74872 2.78182 -0.575462 0.429543 -3.15953 3.06169 1.40858 1.17715 2.55687 1.10063 3.28164 -1.112 0.134923 -0.0013774 -1.6822 -0.488282 -1.86949 -0.532777 1.32542 2.86437 -2.07486 -0.808569 -2.14341 0.560409 0.510108 -2.1594 1.13582 2.45836 -4.62469 0.721502 0.557906 -2.96116 1.20008 0.831135 -2.86827 0.603417 0.835098 -0.399032 2.19006 -2.8941 2.20987 -0.803758 -0.381229 1.33404 -1.36978 -0.984753 -3.49005 -0.79345 -1.03774 -1.43999 0.119606 0.937544 0.696107 -0.812533 0.640533 -0.866493 -2.05433 -1.20604 -0.560738 -2.84893 -0.493798 1.70219 -0.726225 1.23225 -0.631779 -1.3428 2.76516 0.683318 0.806595 -2.48194 -1.05485 -4.03154 -1.5464 -1.89026 4.31184 0.941294 -0.915185 -2.75503 -0.305561 1.52016 -1.91394 0.876039 1.25153 2.34848 0.483545 0.0452043
Q135 1.65005 1.1926 4.22 -1.8526 0.728016 2.14709 -0.546527 0.53172 -1.32306 2.89756 0.415778 3.10147 -0.0135476 -1.31527 0.607831 -0.0906405 -0.015202 -1.44671 1.72229 2.89112 0.647154 0.659796 3.38987 -0.830337 -1.35975 -2.02795 -1.62932 0.627805 -1.96313 4.28083 -2.56025 1.83687 2.41446 3.05546 -0.0944266 -1.00215 0.0637561 -1.33055 0.590402 -0.806857 -2.09338 1.1728 -0.180635 -1.69224 2.53396 -1.90103 -0.735986 1.8096 -0.121486 2.16949 -2.64512 0.350882 0.69009 -2.34338 0.559345 -0.261686 2.56488 0.63786 -5.03083 0.0397363 -1.81427 1.11154 1.1 -1.79059 0.205807 -0.85281 0.812085 -2.16318 -2.14128 0.64508 1.17301 -0.649304 -0.990754 -0.880829 -3.14255 -1.057 0.216815 -1.21665 -1.65586 0.130045 -0.275377 -0.619948 1.57948 -0.133389 1.88483 -1.02648 -1.74646 1.7668 -2.0312 -1.2193 -0.451386 -2.68567 1.07705 1.39726 -2.321 0.452719 1.26571 0.296713 2.92025 -2.76336
Q134 4.34745 4.05591 2.27437 -0.202511 0.0189337 -4.36974 -5.07792 2.11792 1.55805 3.79226 -2.60009 1.24065 -1.8195 4.24071 -4.14434 5.62534 -3.46956 0.369364 4.40379 5.46517 0.617747 1.11039 10.5528 -1.43046 0.15535 1.77321 -2.9458 -3.77067 -3.34819 3.05414 -0.0118655 -0.57613 -0.746297 5.14013 -1.57392 -0.40731 -3.73671 0.231757 -1.08921 -3.73778 -2.36933 1.28281 -0.60456 1.89304 2.69218 -6.15718 -0.168653 5.97875 1.03748 6.546 -3.77281 1.38729 -0.161977 -2.88429 1.33738 0.130426 -0.719306 -2.79474 -2.60959 2.69947 -4.71412 -0.150065 -3.41898 -2.28615 1.51413 -1.26026 1.05671 -1.93423 -4.9746 1.03941 -1.2574 0.752971 -3.11889 1.11886 -2.72908 -4.42582 3.8426 -1.09528 -1.25076 0.28252 0.480838 1.28969 4.02755 -3.06547 5.86678 -1.73086 -1.97449 2.69525 2.03813 -6.38068 0.799204 -4.18777 -0.778226 3.28018 -3.92808 1.76091 -3.19976 -0.0609878 5.59676 -3.42484
Q20 1.78963 1.01721 1.83672 0.452453 -3.25737 2.94445 -1.20706 -1.88802 -0.129829 3.09672 -3.52186 -2.05603 -2.95977 0.0148506 0.755869 2.82084 1.63707 -1.03002 4.47221 3.37813 1.03112 -0.919907 4.51972 -1.37179 0.36165 -0.681329 -2.28944 0.942556 -3.34419 3.24726 3.62036 0.858823 -1.53372 1.81104 -1.89068 -0.370908 -0.102402 -1.6898 0.946998 0.16365 0.54362 0.610196 -1.27504 -2.00064 0.960413 0.0308887 -1.84217 2.00504 3.25001 1.32027 -1.02503 2.086 0.44061 -3.78608 1.63237 -2.03073 -1.9578 3.04922 1.93878 1.63444 -4.4473 1.09991 -0.423911 -2.88091 -1.20375 -4.34335 1.78685 -2.80767 -2.77753 1.67153 0.565472 1.46023 -1.43525 1.81781 -0.419031 -1.19535 -1.76701 -0.100623 0.0369691 2.36919 0.7102 2.54926 1.45069 -2.48402 1.08033 -0.517425 -2.32356 -3.26199 0.764243 -3.55732 -0.966418 0.112603 -1.96882 0.792387 -0.455432 0.701318 2.18062 1.25713 3.46743 -2.70795
Q21 2.42952 -0.0587224 1.41441 -3.01535 -1.97388 -1.60083 -0.0645863 -0.0554158 -1.56263 3.60586 0.978781 2.58942 -0.860972 1.19172 -2.28937 -0.367127 -0.525778 -1.06014 3.15683 0.131024 -0.441773 -0.545485 3.09678 0.765505 1.25083 0.271314 -0.0442517 -0.819553 1.05476 0.259018 -1.35386 1.53095 0.241137 1.11921 -2.00593 1.29689 -2.16483 0.0929998 1.03332 -0.217817 -0.828136 -0.822776 -1.57632 0.170135 0.173393 -0.0383537 0.470878 -0.258732 0.490869 2.70747 -3.15243 -1.2451 -0.863925 -3.62043 0.238082 -2.40493 1.13374 2.2302 -1.32892 -0.677291 -2.00983 -0.0511419 -0.0977121 -0.327066 1.80675 1.36343 0.703105 -0.397146 -0.087036 3.29261 -0.355084 -1.8287 -0.536104 -4.47415 -2.10398 -1.72481 1.7776 -0.737556 0.429422 -1.32092 3.25098 -1.41446 0.354288 -0.978569 3.6144 -1.88606 1.56367 1.4902 0.0282605 -3.52228 -1.63525 -2.18731 3.0494 -0.0226887 -2.91418 0.966204 -0.914935 0.566026 -0.627687 -0.519005
Q22 2.95668 1.06168 1.6056 0.370453 -4.36976 3.86508 -3.55042 -2.20653 -2.72752 5.45072 -5.61219 -0.422766 -2.16035 -1.39933 -2.61845 2.36207 0.275908 -0.421412 8.04853 7.56441 2.0128 3.0769 10.1375 -4.83077 -1.46393 -2.03027 -0.961945 0.669694 -3.18724 8.15334 3.06464 -2.29761 -0.56237 2.20727 3.02132 -0.146581 -4.58465 -1.71248 0.816563 -1.12604 1.14462 0.4366 1.17786 -2.77544 4.19176 3.01313 -0.794678 -0.350382 5.42205 3.43536 -5.32765 0.0033468 1.22006 -4.56026 -1.90923 0.83922 0.596641 3.72445 1.49382 4.46474 -5.04114 -1.60235 1.01158 -6.61134 -1.08183 -7.69547 8.33815 -1.71339 -3.08981 2.44273 -2.3861 -1.50764 -1.75539 1.94282 -3.81767 -1.73118 -0.396887 0.0661806 -3.48941 -0.147644 1.97852 1.87759 0.350517 -3.27245 2.34866 -2.83222 -4.34532 -0.482349 2.90244 -6.63925 -0.246621 -3.99875 -0.868732 3.19183 -2.85119 2.51101 -2.51674 1.04913 3.6095 -0.770221
Q23 5.42897 4.12192 -1.03495 -1.02952 -1.69476 -1.10115 -6.43959 0.720385 -1.81603 2.83965 2.78207 4.34328 0.907581 3.72959 -1.45912 5.94943 1.58559 -2.97184 0.217579 6.01497 2.78517 -4.01077 4.24667 -3.37311 -3.06677 -2.5914 -5.11388 -1.64122 -3.29632 4.02835 -7.34506 1.49639 -0.147108 1.68364 -2.24556 -3.88534 -4.82865 0.0391892 0.640121 -2.06092 0.610307 -0.27832 -1.1799 -4.57412 4.23083 1.86512 -2.34807 0.445003 0.445272 7.76335 -4.35878 -1.79073 2.11312 -0.462154 0.918242 1.16074 -1.04424 1.5891 -2.0159 1.41332 -6.09214 -1.18872 0.534961 2.41838 1.54863 -7.6994 0.988362 -5.30325 -0.269354 -2.14664 -2.02782 3.22351 -3.03367 0.796232 -0.802816 -3.8797 1.5144 -7.60257 -3.51885 2.00651 3.56013 -3.54938 2.24302 -2.46267 1.04493 -7.4324 -3.14784 -1.31716 0.805436 -9.62185 1.52172 4.17642 0.414008 3.32754 -6.68975 -1.06392 10.57 -0.420322 5.00451 -2.55354
Q24 -0.672771 0.595006 1.36859 -2.14154 -1.60168 -0.710146 -1.11182 0.502677 0.876351 2.04866 -1.06906 1.86326 0.0766627 -0.619724 0.519042 2.049 -0.261023 0.572376 2.03934 0.767715 1.36034 -0.518847 -0.446107 -0.721254 -1.46965 -0.868879 0.238388 0.745968 -1.72563 3.03699 -0.193164 -0.942912 -0.22658 1.62129 -3.74907 -0.298182 1.45085 0.957439 0.0159821 0.141801 -0.846016 1.18971 0.176846 0.174828 -0.652759 -0.887442 -1.24189 0.829395 -0.45785 1.99317 -0.723492 -2.60869 -1.23767 -2.58574 0.688337 -0.938428 -0.34269 0.89264 0.220043 -1.07875 -2.34402 -0.71861 0.991682 -0.739655 1.21715 1.06101 -0.525195 -1.88023 0.984576 0.811147 -0.887531 0.0206667 -0.786819 1.35871 -1.78788 -1.18449 1.64958 0.280219 -1.98836 -0.841799 0.878783 1.44616 1.45906 -2.00798 0.238534 -2.51943 -1.70573 -0.69984 -0.944867 -2.98037 0.0312752 0.444731 0.272421 1.77239 -2.43862 0.0921497 1.64371 -0.338257 -0.19085 -1.29622
Q25 1.48706 0.549955 0.385079 0.93981 0.0527428 1.93586 -2.97167 1.95231 -1.29833 3.6195 -2.11793 -1.16023 -0.309802 0.649164 0.235238 3.08294 0.471427 -0.123294 4.73671 3.48261 0.80008 2.06152 7.736 -1.81728 0.142989 -1.7844 -2.84881 -1.11657 -4.10606 3.25742 1.32951 -2.67561 1.8875 1.67329 -1.20289 0.554076 0.371366 -1.15752 2.256 -1.60762 2.36528 1.30935 -0.0232321 -2.99999 0.928014 1.47119 0.139061 2.28134 3.02462 0.49584 -4.35716 -0.0779192 -0.522348 -0.485943 0.23516 -2.80725 -1.07149 2.69643 0.708553 1.28875 -5.2979 1.33459 0.397534 -3.29569 -1.78482 -3.49898 3.10411 -1.76495 -2.24738 1.80897 -0.266824 0.175359 -0.141352 1.39249 -2.94527 -1.91057 -0.556328 1.01287 0.699382 -0.275076 -0.178628 -0.696657 2.8109 -2.03774 2.31021 0.787703 -2.19018 0.94315 0.0809806 -4.71849 -1.02754 -2.10649 -1.4127 1.55945 -1.27997 1.31231 0.759035 1.19834 3.53684 -0.805191
Q26 1.51855 0.781937 1.3463 -1.20612 -2.64736 0.871295 -0.20788 0.458235 -0.172723 2.15599 -0.514594 0.999679 -0.6087 -1.18118 -0.677382 1.29886 0.641679 0.133197 1.1806 1.78376 0.257541 2.12772 3.63314 -0.87748 0.15758 -0.605686 -2.02347 0.847794 -0.244731 2.77199 0.349212 -0.597076 -0.088394 0.790074 -1.54947 -0.677275 0.932437 -0.344332 1.51729 -1.18628 0.217747 0.513428 0.772909 -3.10401 1.22951 -1.47594 -1.74679 1.29733 -0.397256 1.82198 -0.882039 0.416554 -1.53411 -0.755332 1.51454 -0.820951 -1.25265 0.393453 0.135623 0.294097 -0.643238 0.65075 -0.308491 -0.352941 0.78432 -1.14029 0.284519 -1.19713 -1.36639 0.466215 -1.26097 1.2558 -1.3491 1.36987 -0.522156 -2.17953 -0.750958 -1.47254 -1.3174 -0.0438261 1.22539 0.602556 1.71197 -1.20919 0.397961 -0.615002 0.494355 -1.44526 -0.0880156 -2.50108 -0.293237 -1.37076 -0.238206 0.727972 -1.0824 0.356534 1.7426 0.163463 1.99332 -0.204463
Q27 1.23736 0.605232 -0.927572 -0.2054 -0.597465 0.271288 -1.84199 -0.221291 -0.139142 0.718921 0.677067 2.10445 -0.597488 -0.87581 -0.923103 0.672219 -1.25562 -0.476436 0.334573 0.505211 -1.00699 0.161301 -0.287646 -1.2381 1.90526 -0.0629479 -0.928614 -0.00732409 -1.56372 0.963416 -0.421835 1.76137 -0.538859 0.0701776 -1.13497 0.931045 1.47325 -0.0497226 -0.577392 -0.651673 -1.07315 0.559471 0.559983 -0.0988875 1.60921 0.171755 -0.0784493 0.65866 -1.33537 2.52834 -0.0692852 0.00258634 -0.471604 -0.638783 -1.05018 -1.73457 -0.573823 1.20864 -0.545497 -0.371159 0.670138 -2.14315 -1.0001 -0.325556 0.490659 -0.472632 -0.140542 -0.993923 -1.00651 1.80959 0.369342 1.24395 -1.25888 -0.836232 -1.11221 -1.31268 1.09771 -1.39027 -0.739509 -1.33814 0.839614 1.39874 1.82394 0.0411068 1.09194 -0.175777 -0.451218 -0.941784 -0.342591 -0.749967 1.21446 -0.5487 -0.833411 0.958283 -1.33902 0.933857 1.69856 0.359486 0.176482 0.410671
Q28 4.49998 5.21696 -0.275896 -1.20753 -3.69943 0.4865 1.47468 -1.65257 -3.86571 8.40733 2.6434 6.07548 -5.73243 -0.678118 -1.31877 5.79786 -5.98607 -1.72355 2.67307 1.48078 -8.26077 -2.53122 5.3744 -4.48506 0.494214 0.572867 -2.91778 0.718393 -4.71901 5.8996 1.19858 -0.863214 -6.01838 7.0395 -3.94476 -0.185791 1.93026 1.15002 0.434019 -2.0419 -0.228598 -1.03235 -4.21312 0.0790939 7.31982 1.18134 -4.23945 4.26305 -3.24821 3.18524 -5.41987 0.741631 -2.2662 -2.76304 0.0693463 -5.18529 0.031311 -0.747104 -3.03101 -2.73833 -2.71101 -1.70009 0.696086 -2.90565 2.40337 -1.18973 1.4665 -4.97634 0.406226 2.86966 2.4944 5.40104 -8.21593 -1.75406 0.726873 0.468538 0.915562 -8.35733 -5.76563 1.80225 0.881957 1.24701 4.08335 -5.65667 2.98067 -0.924028 -0.20579 -0.374913 -2.76859 -8.52739 3.4568 -1.66303 -4.17661 3.22827 -2.84465 2.28598 8.90461 1.63006 4.28269 -1.29524
Q29 1.63187 0.216831 1.45606 -1.57048 -1.25339 -1.13152 -0.670156 0.623581 1.66769 0.702546 -1.80489 0.599264 -2.56494 -0.236396 -0.634309 2.29036 0.266508 -0.409697 2.04703 2.47085 1.28915 1.42624 1.85744 -1.74183 -1.05453 0.798651 -0.690295 0.89435 -2.83813 1.05021 -0.222118 0.00646953 -0.766483 -0.440874 -0.665077 0.899286 0.0159655 -1.4802 1.49568 -0.716213 -0.722927 1.95967 0.220641 -0.151495 2.10903 -0.922526 0.873213 0.413214 -0.406344 0.209539 -2.21427 0.334741 -0.015298 -0.445195 0.836562 0.67587 0.122619 2.84732 -1.92515 0.0756837 -0.785891 -1.55145 1.047 0.000961179 -0.742643 -2.05081 1.2935 -2.32574 1.67568 0.172358 -0.125384 0.735334 -1.73943 1.69066 -2.41419 -0.277949 0.810204 -0.88224 0.0542934 1.1297 -0.245101 -1.07072 1.05611 -0.867731 0.914835 1.58846 0.0527428 0.782952 0.735511 1.41541 -0.506202 -0.233417 1.24667 1.93624 -0.293068 1.39851 0.0536341 1.33796 2.11456 -1.77802
Q188 6.84436 6.43833 2.25637 -1.04656 -7.63857 -7.25069 3.63628 -0.567685 0.727338 5.99124 -1.71059 1.05928 -1.53708 -2.17662 -1.19978 12.0496 1.51894 -1.892 6.06856 -2.75604 4.75719 1.65081 3.04039 -3.04893 -2.34133 -7.69622 -0.0395843 6.73221 -13.6181 6.82506 -0.857223 -4.91932 -3.3295 5.24471 -9.77635 -1.70387 -4.35867 -1.96572 1.36313 -7.78134 -11.336 6.76798 -2.95885 1.56582 0.805247 -1.53707 -0.162788 3.7317 2.7443 6.9395 -7.01599 -2.31302 1.223 -0.237697 -2.61326 -7.38994 -4.00577 0.668685 -1.94972 6.75846 -1.34828 -1.04815 -11.1117 5.38641 0.90398 -1.99587 1.94303 -11.0134 5.51419 5.21613 -3.21678 0.689311 -9.13521 -2.54047 -9.17611 -9.47283 0.224097 -1.19251 -8.42878 0.783027 -0.967473 7.41223 1.64154 -7.66928 4.50451 4.15708 1.75708 2.83985 2.34512 -8.4651 2.68354 -3.55513 0.8568 4.3379 -0.841994 -6.2766 2.9403 -4.30696 -0.076895 -2.58979
Q189 4.06047 4.47319 4.15363 -1.26121 -3.79708 -1.03329 -4.08019 0.738282 2.01117 2.30476 -5.3679 -0.273576 -4.47338 0.611506 0.80282 3.24486 0.458217 -1.67166 2.07606 6.51385 -0.920426 2.69952 2.95765 -2.69621 0.697338 -0.748034 -1.75402 -1.21587 -6.66018 3.33426 -0.21524 1.85057 -2.00901 1.12406 -1.60034 -1.15147 -3.68996 -1.99061 -2.76949 0.225787 -2.64582 2.82608 0.2487 -1.27641 0.935004 -2.57702 0.10267 2.40044 0.841327 2.99916 -1.68155 0.847204 -0.677657 -3.10346 3.32502 -2.46382 0.892583 4.41744 -1.56895 0.873322 -2.69215 -0.416117 -0.899407 -2.90305 -1.12201 -3.2722 1.96407 -3.10621 -0.592809 5.15325 0.130478 0.141813 0.212986 3.58429 -4.10428 -1.29518 1.87886 -1.60155 1.732 2.04049 -0.473279 -2.44406 -2.25011 -0.979604 4.55335 -2.68504 -0.484801 0.385219 3.93646 -4.27524 -3.49211 -3.1601 -2.14695 3.44619 -1.30415 2.38125 2.9545 2.75287 4.52018 -1.94291
Q186 0.60759 1.42495 0.271003 -0.526371 -0.350713 0.689631 -1.11935 0.0363919 0.315411 1.17009 -2.28722 -0.522021 -0.150355 -0.927724 -1.94959 1.76112 -0.312389 0.167659 0.237035 1.40161 1.15847 0.613944 3.47915 -0.414988 0.687818 -0.992063 -0.274054 0.263243 -1.65263 1.63623 -0.170361 -0.683595 -0.441916 0.583971 -1.08316 0.832301 0.413247 0.153506 0.17308 -0.752092 0.650521 -1.57237 -1.10895 -2.03883 0.436672 -0.138926 -1.44392 1.82286 0.352149 0.561058 -1.30392 0.0377108 1.04112 1.74705 1.11301 -1.51241 0.56038 2.20866 -0.0625965 0.346267 -1.01278 0.375057 -0.365801 -0.495314 -0.159472 -0.100508 1.39423 -1.57775 -0.00847797 0.522715 -0.983578 0.393573 0.696035 -1.16254 -0.223084 -0.197542 -0.517109 0.0436202 0.576128 0.655379 -0.373755 1.08237 0.389374 -1.22206 1.15918 -1.07484 -0.816789 -1.25722 -0.251724 -1.49647 -0.399917 0.548084 0.136599 1.42692 -0.523968 1.13539 1.12734 0.775894 1.49758 -0.448977
Q187 10.6686 1.02435 2.11723 -3.63678 -1.45602 -6.09148 -2.75385 1.8006 -0.714915 2.02774 3.19888 5.98539 4.45762 0.465881 -1.32706 7.58897 -2.17128 -2.14614 0.293816 -0.437936 4.49941 1.03431 6.99109 -9.17502 -3.63249 -4.32707 -5.72241 -0.554418 -3.8739 4.57397 0.453381 -0.695892 -6.31035 1.19217 -4.24277 4.96936 -3.48748 0.762463 -0.898632 -3.93548 -6.18291 10.0924 0.236581 0.57169 6.53186 -4.36986 -1.16677 5.07185 2.36985 5.10876 -3.85331 4.32171 -0.994825 -4.05491 -3.03516 -8.50042 -3.7559 -3.2321 -4.98861 6.29855 -3.33697 1.9374 -8.46879 -1.19035 6.49185 -2.40717 0.271422 2.65639 2.72944 9.41495 -4.1625 2.59567 -1.66721 -3.2163 -10.4876 -8.4656 6.43821 -4.70421 -6.82053 3.40717 -2.77189 3.7312 6.91163 -2.78031 9.98701 0.656045 1.46203 -3.08877 7.48102 -4.98513 0.842521 -7.92221 -3.27771 6.5054 -0.305389 4.73201 7.46192 4.4714 5.34871 2.24642
Q184 2.64824 1.19657 3.48178 -4.2725 -1.69721 0.651464 -0.82609 0.563384 1.39851 1.71608 1.48386 1.51332 -0.930086 -1.51349 -3.87747 2.7337 0.559322 -0.872327 2.89188 1.38645 4.72902 -1.85759 6.52829 -0.306747 -0.812135 -1.65321 -0.469226 1.64074 -0.136969 -0.361288 -0.514931 1.51475 -1.94104 0.901379 -2.26333 1.036 -4.20386 -4.60051 1.68916 -1.13027 -0.938359 -0.104007 -2.54336 -1.92541 2.1771 -2.26872 2.92211 3.11848 1.87841 2.32466 -5.33576 1.34514 -1.10337 -2.81979 -0.892946 -0.598455 1.74343 3.03059 -4.00377 2.38554 -6.1371 2.01288 0.586866 0.297597 0.504072 0.358492 2.48473 -2.4761 2.49148 3.18477 -2.75184 -0.372292 -0.072836 -1.921 -2.82409 0.564838 -1.37709 -4.13766 1.90084 2.0355 5.04924 -2.0978 2.48181 -3.06985 3.02861 -2.53126 1.67212 -2.18685 -0.68415 -3.06432 -4.85744 -2.29469 0.107595 2.0481 -1.23145 -1.38024 1.60843 -1.43487 1.40584 -1.19327
Q185 5.27536 1.3488 -0.0205895 -2.00717 0.319134 -1.35717 -2.21836 0.665762 -0.795103 1.48794 1.56294 2.83475 2.02396 0.643316 0.0777242 0.51412 -2.9037 0.43882 0.508883 0.976494 0.793426 -0.385412 3.93301 -0.139571 0.718047 0.144172 -2.83091 -0.735429 -2.32428 -0.15851 -2.01323 -1.7788 -1.21258 2.36645 -2.13624 0.45355 -1.4035 -0.898672 -0.394244 -2.53378 1.48645 0.816475 -1.93847 -0.631643 2.16493 -2.26635 -1.29362 4.99901 -1.60213 1.63346 -0.949529 1.17041 -0.629223 -2.82871 -0.187119 -4.76411 -1.87158 -1.62813 -0.367339 1.73027 -1.5264 -0.520865 0.742366 0.105528 0.829538 -0.297736 -0.526355 -0.669813 -0.157009 1.28255 -0.418488 0.588722 -0.967105 -0.549317 -3.20268 -1.32521 -0.131208 -1.82776 -0.85274 -3.39156 -0.11128 -0.825065 1.42387 -2.02319 3.66441 -0.719762 1.22196 0.144356 3.01033 -1.39992 1.9991 -0.99469 -0.748876 0.411129 -1.20457 1.04724 -0.525837 -0.00297846 2.31355 -4.65054
Q182 0.326134 0.956883 1.38845 -2.21014 -0.644442 -1.07678 -0.610219 -2.48279 -0.250426 2.50872 -0.461657 1.25204 -1.07534 -1.91431 -2.704 2.0806 1.01778 -0.813032 0.295797 3.16339 0.34352 0.124047 4.75877 0.113404 0.215207 -0.359297 -1.84073 0.42803 -1.37546 2.45527 -2.07431 -0.262939 -0.144954 2.43624 -1.33131 1.93104 -1.45973 -0.630636 0.875826 -2.29181 -0.668724 1.33 -0.300786 -1.71524 1.95254 -0.841712 -1.567 1.21742 1.43597 -0.321264 -2.78534 -0.352979 -0.558343 -1.62465 2.5133 -1.29393 1.3137 2.50591 -2.7016 0.701862 -0.25511 -0.208329 0.110326 0.812151 -1.39634 -2.19668 2.27312 -1.49551 0.570961 -0.289396 -0.936989 -0.849791 -0.121877 -2.16102 -0.0782413 0.160744 0.286387 -0.890107 0.22854 -0.861579 1.53186 -2.1073 1.31852 -0.209672 1.68643 1.39615 -1.29854 1.18907 1.32273 -1.93732 -1.70598 -1.02354 -1.05144 -0.724685 -2.31153 1.26409 2.49034 1.89791 2.11503 -0.837336
Q183 1.41475 -0.359351 3.22627 0.1151 -7.78892 5.09459 -3.2832 1.76666 -0.537246 8.2001 -2.27799 -1.96143 -0.432369 -0.610896 -1.64155 3.34709 4.24475 -3.48951 5.94237 9.46954 0.687529 2.14156 9.41212 -3.95792 1.1612 -0.14425 -3.01193 0.667634 -4.1269 9.48089 0.046876 -2.18018 -1.65902 5.20121 1.2987 0.788889 -1.56888 -4.43936 1.59895 0.524026 1.10689 1.94291 0.270565 -3.55151 1.5243 0.860073 -1.36824 2.28947 4.27087 4.45525 -2.77811 -1.62565 -0.0364252 -3.8027 4.83952 -6.35583 -2.24814 4.13536 2.34938 5.06961 -1.7739 3.12077 1.23012 -7.84892 0.0914413 -7.74422 2.96362 -7.09801 -6.05537 2.78091 0.218862 -1.41817 0.972936 -0.30009 -1.64386 -1.56886 1.92622 -0.728593 -2.34975 1.11263 -0.408549 -0.0264441 -1.6478 -2.94356 5.11263 -0.89366 -1.79412 -5.929 1.31655 -4.82598 4.41242 -2.50385 -2.84017 3.05969 -5.2049 3.0237 4.13123 1.32248 6.58917 -4.00234
Q180 2.97001 0.971816 0.0899985 -0.663374 0.234368 0.229035 -1.95565 -0.047718 -0.820926 1.49179 -1.49406 1.11273 0.615005 0.194053 -1.39925 3.60625 -0.408486 -2.07138 0.307748 -0.412823 0.0177156 -0.0573787 2.16431 0.311642 0.882615 -1.62124 -0.282791 -0.146526 -0.321115 2.53279 -0.798201 2.22148 -0.590642 1.16678 -0.931146 -0.311844 -0.140059 -0.740959 -0.212187 -0.840593 0.328409 1.23828 -0.212092 0.070264 0.609817 -2.45522 -0.799524 0.419885 0.204881 0.741116 -0.0220777 0.584129 0.0155929 -2.35133 1.79323 -0.054993 -1.0574 -0.948933 -0.512062 0.244054 -0.874258 0.587731 1.29839 0.645067 -0.268736 1.21182 -0.760073 -1.10433 -0.819022 0.638933 -0.868484 0.422595 -1.51897 -0.675311 -1.47586 0.330574 1.27379 -0.0853038 -0.389299 0.493942 0.634092 -0.867127 1.46178 -1.39911 2.88376 -1.82675 -0.282202 -1.2712 0.599905 0.98292 -0.675724 -0.439013 -0.0802183 0.312554 0.357035 0.762689 0.0907632 -1.52659 0.927012 -1.6096
Q181 2.71783 2.76311 -1.1519 0.578236 -1.17264 4.43781 -6.2666 1.65447 1.68809 10.3486 -8.45734 -1.52278 -5.38165 0.586086 -3.70072 5.31758 -1.20361 0.274946 9.46821 6.93188 -0.357001 2.51735 11.9651 -3.28425 1.0611 -5.89516 0.74677 -0.373267 -2.79149 10.1193 6.78361 -5.92736 -3.21383 -2.84777 -1.14802 0.992735 -0.764475 -0.761342 -4.49728 0.910134 -0.0614764 4.06892 -4.01559 0.877991 2.44147 -3.80321 0.982052 4.10061 3.79868 8.63502 -6.50118 -0.27019 2.2268 -8.05917 0.96513 -5.56197 -2.79227 5.24307 0.0250461 4.51974 -6.07807 -0.222803 -2.44491 -4.06356 0.935327 -3.16308 5.92559 -7.2658 -4.39022 2.20265 0.0585474 -2.83302 -4.08291 4.1142 -0.848154 -1.47489 -4.03518 -0.188169 -0.82331 6.39177 -1.98493 2.85957 -0.882517 -3.81643 2.37249 0.207661 -3.35091 -2.85307 4.63518 -8.54166 -1.44753 -2.87941 -0.481745 1.47511 -1.8266 1.47331 -3.23192 4.58553 9.85738 0.480088
Q106 0.0794914 -0.579294 3.82192 0.0275146 0.0120191 1.91775 0.431454 2.43322 -0.127578 3.58159 -3.43899 -0.452383 3.38445 -1.12248 1.02185 3.19172 3.69211 -1.70422 1.65168 7.0206 -0.592119 -1.2418 5.23034 -2.22939 -1.15435 -0.825945 -2.4552 -0.614568 -3.72485 0.640262 0.786627 -1.05291 -1.84435 2.28554 -4.23669 -2.7259 -1.32161 -2.70654 0.329068 0.547966 0.0417347 0.187867 -1.15049 -2.09708 1.008 -0.867844 -0.249765 1.32961 1.62064 -1.06077 -0.153851 1.40975 0.792216 -0.435988 1.79787 -2.6404 1.35155 3.48231 0.547827 -1.59926 -3.03745 1.40648 -0.376697 -1.97193 0.367878 -5.19678 -1.3176 -3.81196 -2.92619 4.67987 0.256671 -2.81578 0.341821 1.37839 -3.03226 -1.36546 -1.21743 2.70854 -0.554826 1.44084 2.07375 1.21111 3.92503 -1.09838 0.451461 -3.68315 0.0471304 -2.61895 2.93974 -2.52978 -1.38845 -0.809045 -0.490003 2.91612 -2.26405 -2.04684 3.09547 2.4876 3.34633 -0.532522
Q107 2.49767 0.333515 2.91077 -2.22183 -1.97948 -0.27839 -2.05857 -0.26936 -0.958555 1.17046 -0.201011 1.40379 -1.86771 0.548382 0.1701 0.50888 0.257339 -2.46673 2.40026 2.25965 0.0119483 1.19731 4.57353 -0.580477 -0.592052 -1.33699 -0.249112 1.77452 -1.92653 3.93512 -0.993037 -0.679628 0.364424 1.16584 -1.44834 0.688236 -0.40168 -1.00515 1.28241 -0.685775 -4.18454 2.54865 -0.198385 -2.2369 1.42771 -0.116108 -1.8285 0.848877 -1.1445 -0.0287222 -2.6188 1.22094 -1.56118 -2.39012 1.8252 0.957987 -0.750117 0.368738 -1.32972 -1.01802 -1.68216 -1.58872 -0.395611 -2.30085 -1.17867 -0.786385 1.3386 -1.64928 -0.201627 2.0764 -0.769359 0.0168994 -0.967751 1.45327 -1.07462 -1.2137 1.5889 -1.51341 1.35445 -0.219386 2.34617 -0.877478 4.25264 1.57266 0.338367 0.107584 -0.212959 1.33181 0.676623 -2.69345 -0.260824 -2.0038 -0.434272 1.04323 -1.11469 2.10738 2.55645 1.62061 1.43707 -2.42576
Q104 0.214731 1.85715 1.74301 -1.43969 0.381845 -0.404669 -0.458678 -0.447572 0.475765 0.236889 0.837701 3.21392 0.200197 -2.86874 -0.233738 2.37406 0.648076 -2.86383 0.423882 -0.549504 1.5078 -1.08929 0.938269 1.69792 -0.980224 -0.940244 -1.19467 -1.36999 -0.603457 0.653306 -0.569258 -0.0696308 -0.604316 -0.149497 -1.27455 -0.528712 1.20705 -0.543706 0.143355 -0.337964 0.547546 -0.544618 0.0476831 -0.051967 -0.513014 -0.58894 -1.87909 1.2437 0.681733 1.78274 -1.86816 0.666939 0.971168 0.405552 -0.606272 -0.66044 -0.281618 -0.469673 -2.74096 -0.100849 -1.23828 -1.45981 1.05056 -0.439381 -1.72093 1.10369 -1.03817 -1.58369 -0.254783 0.11013 -1.61208 -1.79222 -2.68625 -0.729375 0.180979 -0.401533 0.772144 -1.18805 0.183136 -0.941535 -0.377078 1.27675 0.825392 -1.62296 1.91548 -1.14069 1.02609 -0.34382 1.59733 -1.3115 0.958942 -0.599385 1.05051 2.2032 -0.556626 -1.75194 -0.315593 -0.346477 0.927763 -1.40637
Q105 2.02777 2.38286 1.76931 -1.06545 -3.12079 1.3663 -0.930177 0.974329 -0.583229 4.21029 -3.2611 -2.0041 -3.40098 -1.79489 -1.06466 3.20362 1.57298 -2.45874 2.65616 5.92118 0.747101 2.18512 5.90311 -2.26913 0.125785 -1.56915 -3.28052 2.00661 -2.08495 6.56966 -0.546888 0.982378 -1.44479 3.21669 0.734483 0.891123 -1.02271 -1.71408 2.44283 -0.787862 -0.257091 1.77296 0.540191 -2.86138 2.6723 0.0470479 -0.545242 1.47196 2.18115 3.12258 -2.88996 -0.00041367 -2.7355 -1.59551 1.2183 -0.125516 -0.950078 3.64811 -1.61852 1.40972 -1.84831 1.55721 0.480546 -3.93245 -0.231387 -4.19337 1.72031 -3.77747 -0.967826 2.23135 -0.804189 0.639362 -2.80472 1.00208 -1.45759 -2.5975 -0.248592 -2.63199 -2.50758 0.0630247 0.551739 1.51105 -1.76208 -0.617223 2.16176 -1.07752 -0.378618 -1.95562 0.255099 -3.54421 0.0132012 -1.11588 -1.34489 1.4845 -2.24817 1.86648 1.24727 3.65243 4.292 -4.00857
Q102 7.45213 2.36346 3.06718 -2.45411 -3.67214 -2.10979 -0.662984 -0.586903 -0.5414 0.309898 0.000170555 2.61503 1.83853 -0.577352 -0.132178 0.730288 -4.37097 0.89251 0.0911478 0.183619 -1.45092 2.46066 2.91008 -0.749872 2.46944 -0.283889 -4.26265 1.1909 -3.5768 1.81434 -0.488279 -0.0646165 -3.4422 2.62625 -3.0891 0.180987 -1.80842 1.0097 -1.11257 -3.39164 -0.538402 4.86553 -0.289212 -2.48374 3.45072 -2.81481 -1.5359 2.68468 -2.25268 3.24953 -0.300793 -2.65403 -1.0355 -4.36033 -0.66956 -2.17821 -2.95543 1.53565 -4.38968 1.77069 -2.51388 -2.84445 -2.01244 -0.409324 1.18142 -1.58163 1.05092 -1.79357 0.606282 2.3349 1.98285 1.83086 -2.90188 -1.80865 -2.09164 -0.888141 0.871535 -2.10728 -2.71764 -0.811596 2.08056 -0.0532273 -0.549583 -0.868429 3.17176 -1.91253 0.514153 -1.75008 0.877173 -1.41111 3.91921 -3.44429 -2.19086 2.91724 -3.39049 3.29246 2.79701 -1.18943 2.5744 -0.925205
Q103 3.93444 -1.10664 4.68267 -1.4171 1.15315 -1.24836 0.0156676 2.49064 -2.14429 0.927158 -0.958332 0.0983967 2.84705 -1.4025 0.405792 0.257925 -3.30804 0.581686 -1.12593 3.99051 0.329074 -0.526701 4.45275 -1.85771 1.43306 -0.41659 0.0181896 -0.814523 -1.52066 1.27859 1.80881 -0.325254 1.10281 2.20961 -1.62935 0.658669 -1.82135 -2.40296 1.25434 -1.09902 -1.7758 0.182372 -1.08013 0.401659 1.4938 -1.4076 2.65331 3.17937 1.3012 1.87576 -1.44044 2.40846 -2.22213 -2.60354 1.15381 -1.14693 -2.21427 0.362735 -1.2853 -0.377979 -3.04006 -0.960265 -0.264088 -2.03166 1.8168 -1.11935 0.700685 -2.34603 0.0787125 3.04468 0.202409 0.206928 -0.281533 1.80442 -1.24487 -0.913424 0.354158 -2.40199 -0.36207 0.296805 -0.570128 -2.71657 2.87778 0.397903 3.27212 -0.113702 -1.91675 -1.68655 0.375232 -0.762234 1.62807 -3.81974 -1.46526 2.4785 -2.27143 0.736962 2.32728 0.651875 -0.444294 -3.11888
Q100 3.32903 4.10619 1.90002 -3.95913 -0.720315 0.504968 0.326876 4.82033 -1.61703 4.80208 -3.07355 1.98403 1.13152 -3.10152 -0.834762 2.86002 0.839263 -0.817507 3.06372 9.45731 -2.36617 3.3539 8.49186 -1.14209 -1.95802 -1.80296 -1.32207 -0.280215 -0.756965 3.15274 0.797275 2.2706 -2.84883 5.75434 -8.69549 -0.0135546 -4.49469 -2.40478 2.51198 -2.38347 -3.7451 0.501961 2.29211 -1.86299 3.14914 -3.74964 -2.77897 7.04522 2.60555 2.59483 3.66538 0.115402 2.84623 -0.192287 -0.877441 -2.36197 2.48322 3.47745 -3.05305 -0.508844 -3.59897 0.437875 2.98147 1.36792 3.40739 -5.39443 -1.77398 -5.36792 -0.451835 6.46873 0.382952 -0.915244 -4.56601 2.78682 -4.61855 0.770112 0.0583983 0.392108 -2.46112 1.02366 4.07108 -2.47197 4.1633 -0.134351 -3.25343 -2.90373 -1.54171 -1.56264 4.98638 -3.12889 -1.3531 -1.05957 -6.92178 4.64453 -5.32931 0.302467 4.59682 -2.36014 6.26657 0.395516
Q101 -0.757089 0.8978 4.63513 1.15718 -1.93676 0.553876 -1.03404 0.279022 -1.32657 2.42146 -2.0873 -0.312413 -0.332505 -1.26649 1.93267 1.27457 0.0332876 -1.17088 0.0245963 3.64905 -1.86526 0.658468 2.8263 -0.5981 -0.0900545 0.283803 -1.39266 0.706847 -1.57228 1.96161 0.760971 -1.13108 -1.87313 1.08231 -0.750671 0.308397 0.614735 -2.00756 -0.135117 -3.0376 -0.498084 1.79986 -0.745515 -1.88564 0.385039 0.105929 0.780438 1.59172 2.20266 0.575782 -1.7993 0.647041 2.79482 -1.8763 -0.0189818 -0.0269175 1.28265 3.4544 -0.842607 1.25962 -0.987341 1.22268 0.765636 -0.559647 1.90891 -1.45648 1.75979 -1.15344 0.0757813 -0.652543 -2.93754 -1.94028 0.127324 2.84497 -1.59271 2.45269 0.696254 1.89822 0.802872 0.794261 1.73725 -0.0550435 -0.374574 0.65367 0.537675 -2.65567 -0.15751 -0.396605 0.839516 -1.49186 -0.434716 -2.61157 -0.874849 1.60827 -2.38346 -1.6628 1.32302 1.58628 2.97538 -0.172591
Q108 1.77648 -0.641046 1.99681 -0.57355 0.110384 -0.163224 -0.10885 1.22781 -0.714491 0.673097 -0.490859 -0.300532 0.474804 -0.40947 -0.786574 0.195298 -1.02541 0.294819 -1.07223 1.02899 -0.210043 -0.368497 1.68982 0.394169 0.780937 -0.772349 0.395073 -0.255918 -0.543917 1.04355 1.24304 0.0648623 0.412267 0.360007 -0.512702 0.320348 -0.835099 -1.65105 0.50251 -0.419178 -0.620125 -0.756115 -0.678513 1.04561 1.17827 0.150208 0.995362 1.28284 0.39309 0.774067 -0.425969 0.442147 -1.31585 -1.41674 1.07812 -0.611672 -0.55396 0.807577 -0.491366 0.150144 -1.47411 -0.316399 0.727815 -1.22795 0.294098 0.460255 -0.101822 -0.831898 0.631255 1.9393 0.218073 0.817857 -0.206486 -0.408996 -0.567861 0.0328334 -0.650198 -1.21965 -0.0912141 0.311432 0.586799 -1.46214 0.502851 -0.054042 0.879196 -1.21118 -0.665307 -0.833446 0.169663 0.111804 -0.02918 -1.55763 -0.187126 1.16017 -1.16519 0.0373418 1.19307 0.0681851 0.0253003 -2.27606
Q109 -1.85836 0.829187 0.630982 -1.5936 -4.00302 0.644859 -4.28528 -1.80648 0.271681 6.45194 -2.23659 -1.16408 -4.29039 2.39648 -0.211055 0.430312 3.04798 -2.43711 1.72248 4.45595 -0.0391902 -0.887032 5.75481 -0.815266 -1.12654 2.50522 -0.5568 0.745146 -2.63917 6.10128 -1.07026 -5.11804 -1.35314 3.34438 1.89343 0.87641 -1.54418 -1.55649 0.358508 -1.08433 0.846592 0.462055 -1.6053 1.45139 2.56653 -2.26146 -1.28805 0.740441 3.8151 3.39935 -3.44855 -0.00738243 -1.73655 -3.05484 3.57415 1.03954 -0.459296 2.58483 -0.410172 2.50403 -1.5851 2.73577 1.08963 -3.26494 0.0680566 -5.48749 4.65556 -3.14845 -4.17908 0.560175 1.92067 0.625193 -1.99563 0.438036 -0.597685 -0.150183 1.17827 -1.52843 -1.49887 -0.499611 1.65053 2.91676 3.43573 -0.912334 0.088601 0.207991 -2.19236 -1.91351 4.40017 -3.18842 -2.60838 -1.82747 0.987408 1.26268 0.0549798 1.39195 -1.45458 1.00033 5.21276 -2.99002
Q115 4.7564 3.18777 3.93762 -1.26982 -2.77401 1.07856 -2.34825 1.8074 -1.54138 3.60025 -0.301559 2.8854 4.25504 -2.5008 -0.0957932 5.12511 1.21901 -2.79168 2.19527 6.94296 4.50116 2.03583 8.71351 -1.81643 -2.9738 -5.46947 -5.67811 1.77003 -1.81831 2.4778 -4.34984 2.23079 -4.25224 3.36562 -2.54222 -0.251077 -4.55994 -3.10357 -0.228408 -5.79581 -1.08388 1.64921 -2.66389 -3.39301 4.63965 -1.32822 -1.45198 4.91466 0.803128 2.71006 -2.0951 -0.470842 -0.733317 -2.1704 3.05939 -1.73835 -3.2391 3.36782 -3.55273 -1.93979 -6.82937 2.83024 0.353599 -0.826104 2.76454 -4.32819 0.666015 -3.56107 3.45154 3.06931 -2.77799 2.04018 -0.186439 1.78572 -7.71219 -6.18449 0.806954 -8.16824 -0.386833 -0.0388618 2.89877 0.871853 0.709481 -6.03901 2.30958 -5.03518 2.80034 -0.982198 0.210982 -5.71438 -2.14438 -0.247804 -2.31304 5.84161 -3.43575 1.90401 3.87479 -0.523995 5.11299 -1.96052
Q99 -0.564569 -0.833696 1.02168 -0.173123 -2.91072 3.98983 -3.98831 1.97277 -1.90583 9.07361 -2.27719 -4.08711 -3.96486 1.14739 1.13671 0.0650436 4.69272 -2.40897 6.62132 7.41915 2.36607 -0.895051 8.43528 -0.155065 0.209829 0.769734 -2.05009 2.91408 -2.67824 11.0169 3.77842 -4.05403 0.345609 4.97133 2.73045 0.965643 -1.76176 -0.185287 2.80135 -0.20082 0.31968 4.00325 -1.95027 0.832733 3.10378 -0.123636 -4.88161 -0.308438 3.66276 5.24262 -5.56098 0.539442 -1.92944 -7.74331 3.19488 0.0877155 -3.13424 4.16908 0.0426377 3.90164 -0.904839 1.55005 -0.044624 -6.73158 -0.584421 -6.21221 3.91818 -6.74104 -6.15441 1.46068 -1.40301 0.192336 -3.2359 1.63019 -1.26336 -2.3259 -0.436959 -3.76475 -2.87358 4.55438 0.698757 1.64319 -1.50398 -2.07543 -0.787058 1.69208 0.385291 -3.59637 2.86662 -3.71444 1.96811 -4.55185 -1.24309 1.71147 -0.519929 0.612594 -0.535108 2.87414 5.20173 -0.287697
Q98 0.367863 0.032705 1.7932 -0.289636 -0.756771 -1.39706 -3.008 0.220559 0.0330198 4.2383 -1.25186 0.86996 -1.44899 -1.08907 -2.39976 3.56458 -2.0896 1.18442 0.588252 3.10424 0.629691 1.55433 2.64898 -2.39959 1.58023 -1.00041 0.231274 1.31462 -2.12708 3.23265 -1.27362 1.45016 0.179189 2.54381 -0.140078 -2.05831 3.19782 -2.7091 -0.0415684 -0.161837 1.02156 0.621761 0.227297 -2.68302 0.571823 0.623914 -0.254022 2.78597 1.84601 2.74071 -1.41385 -0.868107 0.33661 -1.96105 1.57585 -0.652737 2.23809 -1.06138 -0.458367 2.58722 -0.598913 -1.19577 2.07843 0.0350216 0.065714 0.253822 0.224799 -2.73555 0.661361 2.63403 -1.21954 1.31202 -3.53202 0.186883 -2.58023 -3.43543 -1.78703 -3.45614 -1.92852 -0.911552 -0.627058 1.5421 2.30371 0.162315 -1.25668 -1.9528 -0.306944 -1.48135 0.0747727 -2.52567 -0.27788 0.483009 -1.72837 3.5709 -1.04558 3.14675 5.65663 -0.290371 2.60116 -1.80929
Q95 1.8551 1.19447 4.28162 -3.55654 -2.9337 -0.0326158 -1.22381 1.70023 -4.09227 0.794873 0.959978 0.530875 0.935764 -2.87653 0.657947 3.72476 0.0753155 -1.8917 1.54146 2.16916 2.83752 1.14688 3.83019 1.06863 -1.09099 -2.16101 -0.326392 0.588234 -4.53966 2.80899 -3.49425 2.66668 -0.774937 2.69871 -3.22248 0.842072 -3.97093 -2.0035 -1.62686 -1.29571 0.0877602 -0.49677 -1.66649 -2.06114 0.834577 0.019937 -0.347939 3.52394 0.490134 2.80672 -3.01049 -0.791949 1.71618 -1.89705 0.650846 2.62688 -0.428936 3.50245 -3.44392 0.678021 -4.82289 1.86911 2.06451 -0.518114 -0.750627 -4.05179 1.15994 -2.10429 3.05512 2.84943 -3.02878 1.61332 0.867936 1.0062 -4.41399 -2.46988 1.2776 -2.91689 -1.45424 1.15998 -0.0280323 -0.939227 0.124236 -4.64112 3.23184 -3.88647 0.850235 -1.81052 1.2274 -3.73351 0.175176 0.0473424 -1.98473 2.89224 -1.77086 2.79326 3.59738 -2.84809 3.3164 -0.757851
Q94 0.655017 1.6876 1.18565 -3.76951 -3.89376 -0.912603 -2.19115 -1.64649 0.866207 4.62424 -2.46023 0.269649 0.647359 -0.549002 -1.55123 4.70939 1.79051 -1.96566 0.90129 3.67751 1.38256 -1.37081 3.62229 0.544416 -0.424361 0.679525 0.355543 0.300531 -2.76621 4.89613 -1.15269 -5.14891 -0.407569 2.87451 -0.548575 0.176134 -3.92752 0.616591 0.0107576 -1.99473 -3.75148 3.81116 -1.72494 1.36049 3.47709 -2.66289 -2.42994 -0.057268 2.29017 1.76035 -4.38167 -0.747473 -1.97008 -2.6742 1.6279 0.526074 -1.66489 3.0139 0.677235 1.21256 -0.71945 0.931398 0.68704 -4.12438 0.911799 -2.98139 3.1816 -3.7032 0.159429 4.79494 -1.82868 -1.649 -1.16957 0.754208 -0.939745 1.26692 0.0621276 -2.76064 -1.16549 1.33649 -0.225121 1.28665 -0.592083 -0.489904 2.60724 0.377152 -1.65515 -2.30496 5.33561 -3.98584 -1.55578 -1.31795 -1.07438 3.55138 -1.08611 -0.314597 0.782834 1.43716 3.83049 -0.243701
Q97 2.07025 -0.468921 -1.15107 -1.64665 1.12988 -2.26269 -3.1983 -0.22907 2.802 2.67302 -0.33591 1.31565 0.514869 3.24888 -1.23317 2.34126 -0.425821 -2.58343 0.714874 0.243731 0.861075 -1.52006 3.46853 -2.25402 0.907066 -1.34646 1.37301 -0.68318 0.315022 0.940114 -1.26049 -0.928356 1.146 0.759511 -2.11945 -0.136372 -0.221924 -1.96333 1.44561 -2.16984 -0.108275 -0.259653 -1.45536 -0.276527 1.68501 -2.37008 0.142381 0.961055 1.86621 1.10502 -0.0404688 -0.473439 2.33295 -1.09253 -0.058359 0.805125 -0.0946642 -0.303043 -1.29805 2.17687 -0.679065 0.681619 1.19579 1.37188 0.542579 0.744945 -0.540262 -1.37268 -0.612407 0.116259 -0.402842 -1.58928 -1.47925 -0.734141 -0.0525542 -0.852293 0.550435 -0.512297 -2.0504 1.30586 1.13798 0.371384 0.905102 -2.57536 4.12737 -1.14204 -1.25334 0.101202 3.74454 -2.05606 -0.794843 -1.12973 -0.292693 0.126488 -0.991324 -0.336859 -0.673547 -0.814779 0.998816 -1.00215
Q96 1.99189 1.66408 3.0072 -0.680278 0.118903 -0.633316 -0.941436 -0.646194 -0.64656 2.27968 -1.5903 -2.05778 1.28023 1.03876 -0.3746 2.86119 0.0918651 -0.300956 1.94307 1.89101 2.88117 -0.0686244 5.02474 -2.35509 -2.40719 0.313168 -2.73446 1.9074 -2.95398 1.2569 0.0197502 0.0989651 -0.483157 2.21446 -1.55066 -0.113925 -0.998401 -0.0850797 1.27865 -2.32402 0.550142 1.49668 -0.319097 -0.60515 4.17052 -2.31598 0.160502 2.82262 2.50742 1.24288 -0.643203 -0.340544 -2.02531 -0.603188 0.904379 -2.087 -2.33261 -1.15595 -1.624 1.03185 -1.96726 -0.102371 -3.03964 -2.3185 2.16516 -3.51927 0.291869 -1.8665 -3.60739 2.07145 -0.489162 -0.819406 0.75645 1.45691 -3.58264 -2.31932 -1.4927 -1.97307 -0.620092 0.00884783 0.0750885 0.678786 2.40019 -1.00696 3.01451 0.375212 -0.0278103 -1.20537 -0.957402 -5.17337 0.180873 -2.95281 -1.07579 1.9022 -3.32047 0.140257 0.995705 0.96433 4.77101 -1.49435
Q91 -0.150074 -0.137273 -0.568127 -1.56401 -4.38621 -1.11794 -1.12566 1.32539 -1.32514 6.76262 -1.14736 1.42033 -0.0232923 -0.328149 0.0014498 4.35434 0.155941 0.374616 1.98235 3.6932 -2.34801 -0.990278 5.61808 -0.335941 -2.27464 0.467457 0.780394 -0.673431 -2.48195 3.51749 1.4115 -5.63964 -1.20725 0.119258 -1.76532 -0.168503 -4.29911 0.592069 0.0782243 0.615887 -3.91325 1.72915 -2.56491 -2.45117 3.10658 -0.674729 -4.50946 1.77872 0.0984159 2.15409 -6.50512 0.55217 0.547194 -2.98959 2.83955 0.0372441 0.191111 2.21437 -2.12891 1.28352 -0.917109 1.36538 1.27854 -4.74016 1.27636 -5.80947 1.56601 -5.61868 -2.92774 3.69026 1.00018 -2.85676 -0.588127 1.11435 0.378314 3.28085 -2.47897 -1.99435 -2.54429 0.393605 -0.297939 4.13368 2.24364 0.153178 3.44982 -0.977106 -4.58501 -2.7816 1.6984 -2.13331 -0.667093 -2.43834 -0.158835 2.56178 -0.504884 -1.64247 -1.67281 2.16364 4.60334 -2.61935
Q90 0.348268 2.14333 4.09793 0.0556917 -4.12968 -0.202141 -3.61788 1.26789 -1.06192 6.8482 -1.88359 -3.14476 -3.91955 0.424449 -1.74107 3.98381 -0.232299 -3.17801 4.0971 7.64952 0.620816 -1.12636 7.10783 -4.13362 -2.3812 -0.596154 -2.11469 1.95758 -2.21981 4.39118 -0.422262 -0.945708 -0.949788 2.75929 0.41563 2.18006 -2.08592 -1.93695 0.835862 -2.59284 0.514555 0.441762 -0.154929 -1.77633 4.62093 -1.09749 -2.05047 3.96882 2.98832 3.34968 -2.74146 0.67408 -2.47241 -4.49407 1.0693 -0.106285 -3.32954 2.35279 -0.607673 3.29234 -1.96439 1.01599 1.87134 -2.42508 -1.19582 -3.7575 2.13728 -3.64888 -2.12464 2.93682 -1.72543 1.14472 -1.8715 -0.212639 -3.77141 -1.56203 1.17603 -1.8448 -0.499984 -1.45033 0.730488 1.28982 -0.457123 -1.23181 4.55928 0.280624 -2.47905 1.63178 0.844094 -4.62754 -0.123134 -1.95665 -0.372593 3.77604 -3.82114 2.02296 -0.920158 2.79153 5.3268 -1.54427
