3167 100
Q117 3.11946 0.201441 2.45323 -1.43375 -3.02618 -0.138611 -3.72853 1.19497 -0.343964 3.71389 -0.567299 1.23334 -2.21585 1.43701 -1.91337 3.06561 -2.88942 -2.26892 2.71037 1.60047 -0.0602645 1.13678 3.7811 -2.46119 0.154796 -1.08317 -3.04644 1.63942 -3.44963 1.73393 -0.216682 0.323483 -2.2384 2.81252 -1.70387 0.17645 1.552 -0.841439 1.31361 -1.46807 -2.07591 1.82382 -1.84753 -1.75162 2.34594 -0.549532 -1.36912 3.2052 0.312909 3.72081 -2.40193 -0.607148 1.17783 -2.54609 1.73547 -2.62535 -1.28693 1.27134 -1.0286 2.17635 -1.53589 -0.575017 -1.07711 -0.277748 1.47642 -1.77224 2.82281 -2.61711 0.534004 2.21044 -1.12122 0.193775 -4.46984 -1.9909 -1.95062 -2.85064 -1.31462 -2.92413 -1.62405 -0.389667 1.90168 2.26341 2.50729 -2.69279 1.91735 -1.84495 0.0778316 -1.60627 0.0578021 -3.7971 1.10573 -1.72675 -2.01292 2.96097 -1.95995 1.60502 2.71247 1.67966 1.37917 0.776953
Q116 1.80921 0.323602 0.00109068 0.359153 -0.302799 -1.81174 -2.23559 1.1864 0.221859 1.37316 -0.244347 0.619526 0.224776 -0.156767 0.384365 2.14093 -0.592933 -0.589263 0.0954255 1.57152 -0.254944 0.725361 1.83819 -0.660631 1.39702 -0.969378 0.234223 -0.0926286 -2.48941 1.48761 -0.59964 -0.235916 -0.152354 1.13811 -1.49425 0.628844 -0.609249 -0.68577 0.651444 -2.19248 -0.671714 0.758968 -0.111679 -0.516114 1.18501 -0.681485 1.16409 1.35376 0.802909 1.07064 -0.865522 0.125267 -0.48576 -0.795136 -0.133925 -0.902611 -0.566203 0.580225 -0.389392 1.14101 -0.508334 -0.616833 -0.732301 -1.35941 0.578763 -0.568606 0.384706 -1.88894 0.3024 1.70658 -1.05633 0.686052 -0.762005 0.265686 -2.02012 -1.04073 0.772164 -1.6711 -0.653426 0.361258 -0.834478 0.845221 1.26537 -0.132255 0.46803 -0.278825 -0.889504 -1.46698 0.17215 -1.52016 -0.869179 -1.90214 -1.08233 1.60501 -1.51067 1.02483 1.18149 -0.0407598 1.15547 -0.834699
Q200 2.48065 0.649473 0.953908 -0.857722 -1.33998 -0.597024 -0.7059 0.290969 0.565121 1.84621 -1.84007 1.75456 0.55326 -0.55994 0.0956279 1.56787 -0.673525 0.0412161 1.47133 0.295935 0.178314 -0.325993 1.62773 0.224713 -1.283 -1.22018 -1.1661 -0.250738 -0.66868 0.925155 -1.64677 0.769782 -1.22714 0.592071 -2.58141 -0.676174 0.0995255 -0.651256 0.34783 -1.03142 -0.602571 1.19047 -0.228053 -0.164923 0.579722 -0.573063 -0.283579 1.52418 -0.166785 1.7982 -1.33577 -2.19158 -0.0308731 -0.801568 0.503306 -1.42601 -0.259737 1.00844 -0.465313 -0.217886 -1.79063 -0.380156 0.239467 0.1774 1.06401 0.199455 -0.844856 -1.82682 0.464915 0.453368 0.186645 0.323206 -1.27283 0.175137 -1.3983 -0.906894 0.740013 -0.0722001 -0.914058 -0.121885 0.710818 0.462248 1.05391 -1.81348 1.61423 -1.26787 -1.39064 0.216835 0.798273 -2.41867 -0.0388578 -1.14075 -0.245425 0.645785 -1.66321 0.40643 1.2179 -0.806807 0.629175 -0.821326
Q51 3.11792 1.99352 3.60896 -1.16392 -0.786884 -2.39858 -2.10801 2.46246 1.42059 0.335208 -1.72279 1.86476 0.583407 1.16698 -1.25155 2.17539 -3.94646 -0.992954 1.50785 3.07718 1.64338 1.96991 5.92573 0.844584 -0.36484 -0.344915 -3.30444 -0.459463 -5.21283 -0.618598 -0.317638 0.649032 -2.15828 3.59281 -2.22398 -1.20328 -1.79647 -1.30453 -1.53981 -2.94474 -0.755424 2.55521 -0.808969 -0.421476 3.76161 -4.02923 -1.89104 7.18644 1.32392 2.05527 -1.34645 1.27982 0.591498 -1.5127 3.59602 -0.656455 -2.29743 -2.18968 -1.52868 0.988565 -2.71849 -1.21851 -2.80103 -0.437836 1.30599 -1.77313 2.24112 -3.28866 -2.08388 2.81827 -0.804586 0.640971 -3.69448 2.40151 -4.72257 -2.99335 2.14692 -1.85522 -2.02327 0.335999 -0.52462 1.23979 3.4643 -2.34348 3.17204 -1.05924 -1.30982 -0.971745 -0.645465 -3.71473 1.70417 -2.97678 -3.57441 3.50105 -3.69006 0.564451 1.64506 -0.683331 3.09406 -1.40351
Q50 0.712601 0.846691 1.36108 -0.603625 -2.41243 1.88512 -3.37518 0.173022 -1.42725 5.24483 -3.57086 -1.07522 -2.23735 -0.511864 0.0344749 2.63087 1.07369 -0.806467 4.17852 4.27416 0.048659 0.329158 6.83204 -1.48284 1.31767 -0.507468 -1.92326 -0.395797 -2.83838 6.41574 1.39016 -0.95306 -0.525233 2.68557 -1.63895 0.545365 -0.740947 -2.16233 0.895595 -0.465048 -0.521624 2.29726 -1.28388 -1.87391 0.949397 0.108427 -1.38529 2.05018 2.13276 3.65836 -2.9311 -0.0219089 -0.642816 -2.96073 1.40765 -2.0934 -0.633742 4.27258 0.0881429 2.57892 -2.01132 1.46916 0.0526406 -3.30317 -0.63496 -5.10696 3.12111 -3.57183 -2.9185 2.21053 0.105601 0.69236 -1.75904 1.68021 -1.98766 -1.96047 0.465204 -1.70612 -1.94572 0.999628 -0.365959 1.66684 1.22122 -0.945135 1.7715 -0.899783 -1.75455 -2.5186 1.14942 -4.92471 -0.306375 -1.70113 -1.26027 2.06444 -1.80258 1.77495 0.983774 1.73673 5.11097 -1.64051
Q53 0.748551 0.242196 0.550455 -0.287226 -0.252733 0.236107 -0.306633 -0.0826739 -0.00550952 1.10084 -0.13569 0.410902 -0.400119 -0.0747188 -0.794492 0.725347 0.0903426 -0.41878 1.09431 1.26626 0.301736 0.208024 1.64828 -0.156724 -0.513248 -0.910877 -1.17401 0.221931 -0.208779 0.0899507 0.0231823 -0.40181 -0.58023 0.487909 -0.284741 -0.441694 -0.202606 -0.000994498 0.660357 -0.82709 0.0516966 0.332678 0.224781 -0.527195 0.631536 -0.629041 -0.715194 0.420329 0.573102 0.48252 -0.784417 0.215643 -0.204253 -0.57226 0.434848 -0.961425 -0.376523 -0.0669317 0.0450065 0.0216874 -1.14691 -0.051532 -0.434977 0.0562331 0.614021 -0.201502 0.147676 -0.671329 -0.359805 0.438329 -0.287062 -0.331166 -0.365391 -0.201005 -0.75364 -0.23396 -0.240082 -0.0345571 0.283843 0.331723 0.830862 0.0586126 1.06167 -1.26382 0.326159 0.104331 -0.0212552 0.36215 0.0911986 -1.35333 -0.39699 -0.302093 -0.511337 0.590036 -0.557969 0.137941 0.38729 0.630893 0.695286 -0.0193646
Q52 1.15074 1.02989 4.08586 -0.644248 -0.141589 0.300989 -1.07069 1.55056 0.288917 1.88192 -0.696727 -0.207129 2.02958 -0.165179 -0.538888 1.52881 1.08515 0.0258023 2.79053 4.08873 0.735903 -0.248069 4.46138 -2.62383 1.53005 -1.54072 -2.77258 0.116904 -3.35341 1.35651 0.898342 -0.428369 -0.603954 2.41492 -2.74505 -0.898873 -1.56556 -2.2574 -0.84905 -1.59774 1.47546 0.968176 -0.408073 -3.97483 2.88563 -1.60434 0.106282 2.29841 3.07804 0.494986 -2.07227 0.86711 -0.0619696 -1.11749 1.61457 -1.46986 -0.516695 0.487901 -0.336931 -0.00776484 -2.61132 -0.10481 0.36456 -0.314419 1.13658 -2.40006 0.263631 -2.72844 -1.20789 2.86217 -0.641483 -1.46568 0.774518 1.79585 -2.73977 -2.31339 -0.637253 -0.77666 -0.374991 0.835529 0.46989 0.139069 3.22831 -1.48617 1.17098 -0.719056 -1.22645 -0.522149 0.913612 -3.37371 -1.21202 -1.44506 -1.92712 2.47391 -2.10884 -0.183504 1.56999 1.8458 3.02594 -1.56239
Q55 1.97702 0.211734 1.1368 -0.430919 -0.338797 -0.189915 -0.651097 0.561586 0.0579779 1.64354 0.588374 0.437086 -0.361021 0.459332 -0.846322 1.16818 -0.214331 -0.481702 0.0672495 0.874723 0.681982 0.339434 1.72706 0.220323 0.384066 -0.925083 -0.567973 0.364308 -0.429587 0.739866 -0.703386 0.303734 0.0597237 0.818008 -0.538312 0.159129 -0.569534 -0.657679 0.530487 -0.932837 0.126126 0.648823 -1.13401 -0.28786 0.832541 -0.86361 -0.171433 0.225261 0.0180893 0.531657 -0.408492 -0.370821 0.450966 -0.924302 0.515854 -0.173721 -0.20136 0.0396697 -1.21088 0.27162 -0.662879 -0.114689 -0.116834 -0.887413 0.447587 0.042962 0.430996 -1.11992 -0.329684 0.6579 -0.674316 -0.243756 -0.230956 -0.757092 -0.847632 -0.343833 -0.0171866 -0.591554 -0.316953 -0.157302 0.722393 0.545452 0.906445 -0.894249 0.434017 -0.774931 -0.547309 -0.453991 1.36874 -0.594123 0.360478 -1.14344 0.21281 0.841488 -0.645561 1.1329 0.238724 0.526264 0.43459 -0.0828453
Q54 0.227694 0.978665 0.112619 -0.403388 -0.719046 0.186703 -1.18455 0.603314 -0.263654 1.92938 -0.622254 -0.0230117 -1.39848 -0.236036 -0.491904 1.35506 0.402832 -0.908087 1.57264 1.82216 0.497223 0.0804299 1.92512 -0.622434 -0.889877 0.233717 -0.859799 0.169298 -0.774867 1.46309 -0.526681 -0.278525 -0.856069 0.532879 0.104548 0.768291 -0.552398 -0.0183588 0.663929 -0.585241 -0.333204 0.40177 0.0705491 -0.218534 1.02526 -0.331255 -0.527639 0.757471 0.0743292 0.97813 -1.09479 -0.319176 -0.758786 -0.971299 0.488608 -0.232965 -0.17253 1.22416 -0.0936931 0.846284 -0.324067 0.149884 -0.367567 -1.40665 -0.520117 -1.01607 0.973279 -1.06168 -0.635042 0.294276 -0.333241 -0.0229059 -1.09547 -0.33119 -1.12833 0.175368 0.486908 -0.404856 -0.0255419 0.463277 0.603475 0.0495034 0.221429 -0.0505194 1.00666 1.01438 0.212634 0.477764 0.664568 -0.901815 -0.242995 -0.464275 -0.360561 1.10313 -0.376359 0.533829 0.186619 0.992 1.46559 -0.25826
Q57 2.77321 1.06713 2.03387 -1.72066 -2.58541 -0.513049 -2.93726 0.364093 -1.29572 3.14821 0.555188 1.96858 -1.23036 -0.321925 -1.70787 3.80953 -0.534946 -1.83248 1.6494 3.51364 1.04964 -0.0421882 4.83976 -1.43076 -0.208124 -1.64678 -2.00024 0.663492 -3.29061 2.89279 -1.95271 0.848248 -1.20446 2.59972 -1.79605 0.624872 -0.386632 -1.19311 0.62678 -2.53997 -0.630055 1.6872 -1.84049 -1.33672 3.44421 -0.877667 -0.534521 2.29555 -0.0781328 3.36358 -2.46193 -0.457677 1.28784 -2.51312 1.03807 -1.90353 -0.591773 2.46138 -2.33886 1.56665 -1.61385 -0.192999 -0.111824 -1.03169 0.569002 -1.8964 1.88318 -3.63005 -0.435521 1.59632 -0.985916 0.35039 -1.07041 -1.62 -2.90561 -1.48877 -0.0858257 -3.81716 -1.6277 -0.00211666 2.03216 0.209798 2.89596 -2.27777 1.93828 -1.73403 -0.689204 -1.56067 2.27757 -4.46537 0.213739 -2.11328 -0.541909 2.98141 -2.12012 1.91218 2.43211 0.736338 2.84021 -1.08979
Q56 1.63081 3.25625 4.44551 -2.5477 -2.18527 0.0947305 -3.93311 1.97217 -1.10463 4.09179 -3.59553 1.2286 -0.0810006 -1.45712 -0.156623 6.42433 0.0902519 -1.60911 3.35843 5.96169 0.104616 2.00515 9.5025 -1.65629 0.13747 -0.43698 -1.94063 1.4304 -6.10674 5.52047 -1.0328 1.76558 -2.45883 3.67338 -3.92545 0.111854 -0.722011 -2.83491 0.525276 -1.12039 -2.0709 3.34125 -3.22853 -3.02063 2.8417 -2.71663 -1.79525 6.52654 2.53968 3.21889 -3.62174 -1.24793 0.879102 -1.52102 2.14908 -1.05657 0.139158 6.03139 -1.93065 2.27056 -2.95221 0.0408334 -1.08659 -2.80784 -0.817013 -6.17036 4.0016 -4.03418 -1.74321 3.86059 -0.962447 1.26372 -2.51716 3.26105 -5.76327 -2.63203 1.64625 -1.74926 -2.30685 1.32569 0.575347 1.41286 3.25885 -0.998001 3.42194 -3.63799 -0.993902 -2.04356 0.84297 -5.3248 -0.906292 -1.94501 -2.12578 4.12517 -4.8006 1.70498 3.94737 1.32201 6.95861 -3.46144
Q59 1.83089 1.52868 1.84471 -1.58081 -1.27528 -0.823535 -2.08556 0.783873 -0.12229 2.03798 -0.289498 1.68087 -1.129 -0.690296 -1.04519 2.66681 -0.0963372 -1.78123 1.21043 2.76629 1.38346 0.398474 3.26349 -0.444173 -0.796245 -0.324359 -1.67066 0.234288 -1.97217 2.1655 -1.84691 0.760704 -1.31252 1.5319 -1.40293 0.902433 -1.22342 -1.03128 0.862266 -1.33062 -0.797522 1.24625 -1.06408 -1.10444 2.21058 -0.980571 -0.733764 2.76652 0.12868 1.83659 -1.76184 -0.744753 -0.0517845 -0.933505 0.469357 -1.05551 -0.273745 1.5768 -1.73078 0.582946 -1.80352 0.0683277 -0.281957 -0.413112 0.205057 -1.00599 0.772984 -2.47083 0.0960452 1.05205 -0.0525375 0.474682 -1.41399 -0.441486 -2.03067 -1.42882 0.599161 -1.61408 -0.367396 -0.0787749 1.42124 -0.83129 1.74173 -0.837941 1.62537 -0.409621 -0.771102 -0.240399 0.584155 -2.91654 -0.540185 -0.46895 -1.11567 2.02192 -1.65606 0.922674 1.56642 0.978085 2.44825 -0.994426
Q58 0.686114 0.447191 0.842465 -0.289098 -0.759137 -0.180392 -0.0689092 1.56261 -0.158266 1.64063 -1.20304 -0.809047 0.530779 -0.156997 0.110799 0.504634 0.745724 -0.101508 0.632268 2.20976 0.45955 0.591603 2.36787 0.133381 -0.623798 -0.249278 -0.317171 -0.24791 -0.326648 1.7459 -0.0283669 -0.348411 -0.992309 0.989334 -1.01246 -0.0389817 -0.293561 -0.453208 0.344698 -0.317824 -0.462453 0.434148 -0.40515 -0.850695 1.00253 -0.975155 -0.629359 1.14754 1.25067 0.970103 -0.0924378 0.0848737 0.583888 -0.569948 0.629087 -0.918208 -0.304761 0.966019 -0.493138 0.0597114 -0.339304 0.822864 0.277183 -0.951127 0.543722 -1.58508 0.247933 -1.67739 -0.412548 1.51212 -0.600661 -0.171638 -0.517616 0.561326 -0.631242 0.0105704 -0.481348 -0.19601 -0.496008 0.751444 0.67198 0.0145683 1.17108 -0.109773 -0.337207 -0.357656 -0.155962 -0.850265 0.796813 -0.811912 -0.622745 -0.564373 -1.26647 0.831917 -0.243574 0.0208898 0.511218 0.359311 1.3757 -0.4333
Q148 1.67756 1.80213 4.22716 -2.14289 -1.83433 -0.476707 -3.64285 2.01109 -1.27078 4.31558 -2.43425 1.79564 -0.0404476 -1.06997 -1.77203 4.77411 -0.66177 -0.469917 2.17786 3.38917 -0.815274 0.845322 4.10651 -1.78152 1.61532 -1.00467 -2.80063 0.447096 -3.77592 3.50631 -1.11492 0.158541 -0.752233 1.81917 -1.53408 -1.0383 -0.246334 -0.906616 0.646745 -2.07132 -0.627563 2.19827 -2.04516 -1.98373 2.11715 -1.7855 -0.403627 1.86524 0.944103 1.56279 -2.52259 -0.202425 -1.12588 -1.58973 1.78465 -2.70581 -0.25795 2.33986 -2.32673 1.56316 -3.05387 -1.02105 -3.37128 -1.94677 0.32021 -1.84696 1.40136 -3.38177 -0.495839 1.15636 -1.74252 0.573088 -1.23034 -2.05572 -3.57862 -1.3126 -0.148541 -2.11971 -1.39652 0.698574 0.0702092 -0.0284866 3.08935 -0.407829 1.9093 -0.734696 -1.46715 -0.144679 2.99877 -3.64104 0.00267805 -2.05402 -1.13449 3.22133 -2.16155 1.64907 1.36699 1.32107 3.20123 -2.04878
Q149 4.35759 1.92844 1.34245 -0.787937 -1.38624 -1.99248 -2.39637 2.34959 0.437973 2.27243 0.897879 -0.262017 0.403615 1.5001 0.185614 3.51036 -0.707466 -2.54479 1.42377 2.07906 1.17697 -0.160219 3.91805 -0.920625 -0.436653 -0.514756 -1.17317 0.158938 -1.71123 0.740249 -2.70849 0.933815 -0.279358 2.02976 -2.22224 1.30133 -1.84134 -0.934698 1.11198 -0.872225 -1.65457 1.73667 -1.4862 -1.80166 2.8246 -0.29896 -0.493782 2.92814 -0.946828 1.46946 -1.20078 -0.743084 0.444088 -1.35913 -0.0811309 -1.8342 -0.828577 3.00096 -1.50929 1.91022 -1.98847 0.750434 -0.0464462 -1.44396 0.249489 -1.91103 0.648343 -2.61199 0.0994451 2.0646 -0.633934 0.669231 -1.14065 0.60226 -3.0766 -2.01936 1.39167 -1.65688 -0.632588 -0.139666 2.05591 -0.784521 1.87547 -1.4725 2.76644 -2.01427 -1.03377 -0.923999 1.67044 -3.51667 -1.24667 -1.21887 -1.37542 2.54456 -1.22844 1.71379 1.51189 0.71199 3.00273 0.380854
Q145 0.926408 1.44272 3.13854 -2.35479 -1.68737 -1.6361 -4.04548 1.92989 -1.03691 3.391 -4.26696 2.01182 1.45531 -0.323355 -0.0389 4.53758 -0.229308 -0.382173 2.64854 3.09463 -0.660358 -0.386203 5.3603 -2.24371 1.05931 -0.35801 -1.61675 0.413382 -5.55509 5.0808 -0.321809 0.80606 -1.33715 2.99215 -4.65529 -1.20467 0.0903768 -2.44091 0.57231 -1.2734 -2.70413 1.75684 -2.73398 -2.82978 2.23355 -1.94614 -0.820294 4.76247 1.9278 2.38535 -1.50948 -0.550086 0.414249 -1.46882 0.860523 -1.02945 -0.730116 4.1333 -1.73833 1.7567 -1.89028 -0.688254 -0.0682499 -1.26785 0.893279 -2.67075 1.03401 -4.49953 -0.902794 2.28512 -1.54311 0.883211 -2.74289 2.02453 -2.95279 -2.98111 0.699257 -0.58563 -2.66188 2.54997 0.0069234 1.69433 2.93982 -2.0039 4.14055 -2.79043 -0.853749 -2.63853 0.23648 -4.20951 0.0792667 -3.13116 -0.831436 2.75143 -2.7631 -0.454233 3.94299 0.820937 4.61537 -2.74054
Q159 1.19586 0.51459 0.747116 -0.136592 1.72629 -1.24281 -0.898162 0.0823151 1.51491 0.0686244 -0.649504 1.56671 0.481025 1.0657 -0.925297 1.4806 -0.601298 -0.384612 0.654033 -0.647063 1.41615 -0.165479 1.62928 0.161127 0.0638168 -0.282416 -1.31317 -0.0273242 -1.55097 -1.16372 0.148856 -0.312971 -0.182124 0.875161 0.0595789 -0.358347 -0.209874 -0.242851 -0.687864 -1.02561 -0.156712 0.502832 -0.182889 0.124848 1.58643 -1.71386 0.251387 2.45578 0.53339 0.741719 -0.728928 0.143981 -0.564514 -0.0623603 1.0363 0.0572515 -0.99534 -2.02954 -0.176919 0.677063 -1.36497 -0.785985 -1.12418 -0.144848 0.658408 1.14841 0.306619 -0.813768 -1.2352 -0.204214 -0.0159105 0.0145826 -1.02614 0.294972 -1.01334 -1.47184 0.902323 -0.157479 -0.665341 0.398624 -0.345041 0.485293 1.07433 -1.14196 2.4287 0.38784 -0.639812 0.254386 -0.16324 -1.69117 0.0892062 -1.60628 -1.03136 0.470309 -1.16956 0.482183 -1.1577 0.189513 0.420913 -0.381951
Q158 1.42203 -1.36569 2.29441 0.227761 -0.782045 -1.73671 -0.357097 0.419225 -0.0860033 1.73427 -0.712663 0.833753 0.678529 -0.491766 1.06762 -1.15876 -0.437692 0.241764 0.134351 -0.620374 0.0486551 -0.355712 -0.0877252 -0.354137 0.599284 -0.917424 -0.340799 -0.481521 -0.141519 2.31683 0.425071 -0.389482 0.244305 0.426251 -1.91192 -0.847707 0.317589 -1.68368 -0.334786 -0.56301 -0.237693 0.957145 -1.49873 0.728063 0.524134 -0.663844 0.183108 1.19233 0.913246 0.756361 -0.655129 0.234978 -0.4068 -2.43677 0.00376565 -0.0579833 -0.637474 -1.0524 -0.783346 -0.0356087 -0.345558 0.0996245 0.81762 0.333176 1.98393 0.644082 0.84015 -1.68782 0.34813 1.60347 -0.0884969 -0.140528 -0.171266 -0.100373 0.106338 -0.414317 -0.208183 -0.650911 -0.587967 0.0611267 -0.494981 0.217479 0.867192 0.0124296 0.127645 -0.417852 -1.32917 -1.63237 0.272726 -0.370635 -0.0996083 -2.50197 -0.38138 -0.773534 -0.220288 -0.568759 0.812883 -1.2945 0.700355 -1.1432
Q46 0.731505 1.06512 0.747257 -0.254542 0.942847 -0.668552 -0.620084 1.06016 1.60573 0.436611 -1.34998 0.349463 0.555067 1.46676 -0.876634 1.17826 -0.800281 -0.18027 1.20077 0.74384 1.6311 0.318516 2.56033 0.0747622 -0.78619 -0.108742 -1.40798 -0.279171 -1.55794 -0.875285 -0.0368927 -0.155491 -1.05213 1.19584 -0.119845 -0.66269 -0.290424 0.0694924 -0.552069 -0.382022 0.205695 0.405856 0.505277 -0.280014 2.46451 -2.09557 -0.76468 2.30929 0.970076 1.36074 -0.634693 0.506433 0.0988985 0.010299 1.63908 -0.782541 -1.08907 -1.56746 0.167171 0.621836 -1.09625 -0.264543 -0.915232 -0.410605 0.507801 -0.79834 0.164925 -1.36399 -1.87558 0.152031 -0.296474 -0.00646138 -1.43717 0.928834 -1.23391 -1.6257 0.729278 -0.0988879 -0.920416 0.711518 -0.0661547 -0.101631 1.13553 -1.71989 2.12676 1.14868 -0.552633 -0.295212 -0.336905 -2.28941 0.336821 -1.0519 -1.99169 0.979562 -0.917863 0.572783 -0.798643 0.00901883 1.31719 -0.39755
Q47 1.13462 1.71666 2.66096 -1.49137 -1.08165 -0.344738 -1.13336 1.56293 -0.213487 1.4981 -1.93782 0.584752 -0.267223 -1.62465 -1.49128 1.48723 -0.0225363 -0.581057 1.03491 3.86206 1.29472 0.787736 4.20386 -0.480172 0.22482 0.357258 -2.38846 0.204801 -3.07751 2.89221 -0.452999 1.21886 -1.41194 0.582481 -2.29826 -0.157569 -0.606657 -1.02422 0.287948 -0.644148 -0.29445 0.79932 -0.709899 -1.68947 1.87987 -1.23028 -1.32455 3.3402 1.71436 2.26257 -2.3171 0.568818 0.766982 -0.448196 1.02216 -0.875771 -0.407375 0.959544 -1.05089 -0.38012 -2.21559 -0.0925924 0.243138 -0.516438 0.34644 -3.07775 0.636278 -2.77607 -0.322466 1.91274 -0.839324 0.994424 -1.68805 0.379254 -1.6738 -1.6321 -0.231894 -1.41849 -0.906968 0.0766651 0.802969 -0.482823 2.20972 -1.14292 1.2962 -0.527049 -0.900079 -1.34601 0.338734 -2.96601 0.168082 -0.604303 -2.19505 2.72013 -1.89828 1.23089 2.27916 0.391858 2.97213 -2.42078
Q44 1.42925 1.32398 1.82501 -0.662322 -0.871703 0.195938 0.258513 1.04796 -0.868249 1.80154 -1.72305 0.0991164 1.20158 0.180771 -0.873257 1.52456 0.460364 0.609787 1.1875 3.19452 -0.0297517 -0.229036 4.45023 -0.00758341 -0.505831 -0.752369 -1.23399 0.249177 -0.969862 1.10964 -0.302401 0.833929 -1.73244 1.70824 -2.33328 -1.3713 -0.68247 -0.512708 0.0657971 -0.968317 -0.110492 1.11751 -0.234223 -0.632806 1.72661 -1.83439 -0.992777 1.58761 1.25464 0.695389 -0.559764 -0.199339 0.982464 -0.645843 0.658831 -0.899971 -0.418314 1.53 0.218473 0.0888518 -2.1517 0.0984485 0.913453 -0.332197 0.823381 -2.30711 0.762585 -1.50126 -1.11328 2.0954 -0.762587 -0.109318 -1.10804 0.951462 -2.14834 0.0374691 -0.525522 0.387286 -0.616281 0.867822 1.7146 0.212831 2.47746 -1.54488 0.117771 -1.23245 -0.0526707 -0.67033 1.98887 -2.33626 -0.385395 -1.36011 -1.70615 0.968779 -1.24903 0.0871127 0.828952 0.0607694 2.6711 -0.555214
Q45 2.27351 0.827571 1.81673 -0.689079 -1.23366 -0.338773 -0.815717 0.971991 -1.25799 1.60482 -0.120879 0.154139 -1.25079 0.096213 -1.4181 1.76306 0.12176 -0.97515 1.19535 2.2626 0.253746 1.47887 3.77644 0.209571 -1.4787 -1.13873 -0.977934 0.49825 -1.14474 1.39473 -0.45992 0.014139 -1.36917 1.53234 -1.33665 0.448188 -2.08502 -0.75638 0.445227 -1.31511 -1.31088 0.790881 -0.882477 0.0232311 1.35582 -1.77017 -0.950698 2.06225 0.890558 1.18076 -1.286 -1.15924 0.445247 -0.296159 0.896396 -0.683525 0.140545 1.06127 -1.4724 0.419598 -1.87837 0.563949 -0.459493 -0.675662 -0.347543 -1.44101 2.2872 -1.54627 -0.28798 1.55617 -0.100349 -0.413524 -1.40755 -0.732087 -2.96373 -0.674788 0.74651 -0.874677 -0.73342 -0.585139 1.17393 0.929406 1.38659 -0.721496 -0.325631 -1.17345 0.157111 0.0014922 1.82968 -1.73533 -0.4551 -0.774458 -1.09999 2.20667 -1.30109 0.811905 0.746918 0.635452 0.846997 -0.0668617
Q42 1.71588 0.384609 0.211949 -0.361747 0.728418 -0.775428 -1.0511 0.183511 0.53798 1.26625 0.71877 0.409442 -0.3471 0.731521 -1.57015 1.23491 0.212125 -0.497142 0.463551 1.46697 0.388952 -0.185944 1.77423 -0.422432 -0.521449 -1.0362 0.429169 0.55126 -0.886441 0.409105 -0.726567 -0.0256221 -0.372939 0.8465 -0.761631 0.212646 -0.259616 -0.490651 0.696834 -1.17445 -0.0157637 -0.602163 -0.204034 -0.338894 1.14727 -0.969383 -0.132237 0.455236 -0.0516378 0.511544 -0.580206 0.00406146 0.623995 -0.3262 -0.129863 0.756615 0.0232913 0.530432 -0.566985 -0.133158 -0.951415 -0.669486 0.678856 -0.345396 0.380345 0.307656 -0.612092 -1.20841 -0.279901 0.285547 -0.0313671 -0.34953 -0.451669 0.0814788 -0.280683 -0.422227 -0.550393 -0.231666 -0.17309 0.189998 1.0591 0.000675952 1.30741 -1.93089 1.18173 -0.390814 -0.146895 0.281066 1.30061 -1.07315 -0.320309 -0.266662 0.26591 0.229237 0.195843 0.134237 -0.225337 0.457539 0.503783 -0.408747
Q43 2.08611 0.528426 1.47732 -1.11867 -0.812642 -0.678603 0.437151 1.69747 -0.783903 1.85352 -0.567445 0.405694 1.0696 0.463429 -0.983698 1.41611 0.508814 -0.858549 0.183928 3.35146 0.252194 0.528027 4.45054 0.227195 -1.82283 -1.53599 -0.347524 0.44132 -1.01591 1.22623 -0.234286 0.532899 -1.03412 1.92951 -3.33561 0.346615 -0.809713 -1.15774 0.831607 -0.656525 -2.08488 -0.574739 -0.773094 -1.39294 1.25764 -0.809553 -1.20046 2.55795 0.76481 1.1409 -0.732805 0.0126559 1.43882 -0.618804 0.338758 0.0508175 1.07644 3.00178 -1.72832 -0.573796 -1.67928 0.717677 1.33495 -0.657618 1.03689 -2.34497 -0.349854 -2.27619 0.215573 2.85763 -0.520505 -0.0994708 -0.85233 1.29925 -1.66443 1.39511 0.17959 -0.289149 -1.26833 0.891047 1.97963 -0.251387 2.59075 -1.29334 0.482718 -3.18842 -0.89129 -0.874825 2.58129 -1.68379 -1.01507 -0.453305 -1.23682 1.85789 -1.25788 1.23093 2.05976 -0.0588078 2.08613 -0.871679
Q40 4.68609 1.78428 1.96831 -1.45638 1.01078 -0.503105 0.304999 2.80239 0.333017 3.22664 0.511182 0.921679 -0.152435 -0.511856 -1.9008 2.42716 0.695827 -1.6287 -0.286141 3.90315 2.56799 1.37997 5.54209 0.462067 -3.65347 -1.52484 -2.08508 1.38613 1.29611 -0.0443663 0.654642 0.308424 -3.36258 1.66752 -2.61016 0.0451395 -2.16192 0.729421 1.90385 -1.5701 -1.40362 0.254085 -0.188486 -1.39389 3.25325 -2.8318 -1.87419 3.55624 0.640297 1.98624 -0.440691 0.52549 0.14442 -1.95152 0.872652 -0.418051 -1.38326 0.291361 -1.99439 0.439307 -2.31204 0.973565 0.487268 -0.986107 2.87273 -1.0072 -0.860771 -1.87958 0.401846 2.61396 -1.3581 -1.159 -1.84654 0.971124 -2.04592 1.66338 -1.09558 0.572432 -0.0723955 1.35583 3.41688 -0.156063 3.93757 -2.22952 -0.648762 -0.190032 0.406275 -0.280399 1.94461 -1.98583 -1.9556 -2.66378 -3.44181 1.69861 -1.78178 -0.0737468 0.79996 1.43469 2.77084 1.16285
Q41 0.528353 0.592376 1.6879 -1.45142 -2.60223 1.49391 -3.57511 0.994163 -0.564308 5.6366 -2.48255 -1.94889 -4.10425 0.464998 -0.868514 1.99637 1.52016 -2.77687 4.41948 5.18076 1.92548 -0.440271 7.20175 -2.27083 -0.382473 0.412329 -2.60086 0.445209 -2.67478 6.13532 1.44856 -2.61315 -1.38431 3.08911 0.555808 0.954303 -1.20921 -1.41333 2.73006 -1.57574 -0.123151 2.2255 -1.46601 -1.02232 3.21887 -0.00745027 -2.2437 1.22119 2.52741 3.62392 -3.54722 0.87331 -1.43037 -3.78366 3.08093 -2.18101 -2.46864 2.69138 0.221177 2.86135 -1.49513 1.27869 -0.148797 -3.21224 -0.569593 -4.02214 3.01609 -4.82477 -3.19027 1.10776 -0.122887 0.0678698 -2.44622 -0.391345 -1.14113 -1.81631 -0.445413 -3.14188 -0.518014 1.29366 1.15451 0.952714 0.812146 -1.91874 1.4926 1.56677 -0.605543 -2.39974 0.280861 -4.43043 -0.229198 -2.16256 -1.5944 1.70605 -0.103509 0.520208 0.414876 2.49991 4.76695 -1.46323
Q155 5.26605 2.22839 5.21382 -1.60954 -1.79997 -1.58417 -3.97229 2.76014 -2.22066 6.70517 -0.623432 1.6413 -1.24608 -0.860779 -1.39788 3.38621 -1.57939 -0.404105 1.76115 3.80906 0.206278 1.17591 6.43385 -0.980131 0.168545 -1.69626 -2.19889 1.21015 -4.39849 5.04825 -0.0329192 1.22694 -1.94404 2.89573 -4.76822 -0.191006 -0.965319 -3.63205 1.35938 -2.38626 -2.10808 0.393221 -2.62514 -1.45542 3.25983 -1.1685 -1.87384 6.80006 1.49557 4.10831 -3.77911 -0.261918 0.0987744 -5.46063 -0.62438 -0.817996 -1.26998 2.5655 -1.50673 1.40641 -5.34385 -0.17117 1.3408 -2.22499 2.5956 -2.67153 3.34828 -4.96092 0.159719 5.36457 -1.77263 1.77212 -3.9398 0.0234042 -3.14236 -1.51639 -0.220239 -3.19682 -2.33724 -0.353668 0.89379 0.953653 2.59374 -1.65061 1.40991 -3.54356 -1.39901 -4.37176 2.62596 -4.74302 -1.14514 -4.8254 -2.21149 3.91679 -3.7221 1.57153 4.9236 -1.25219 4.26987 -2.32054
Q154 1.19173 0.549958 -0.57465 0.406629 -0.593998 -0.683043 -1.37445 0.672893 0.598447 2.47751 -1.17673 -0.774928 -0.0391924 0.696364 1.59436 1.3143 -0.155772 -0.52393 0.616643 0.108516 0.211772 -0.807203 0.976516 -0.252774 -0.569959 -0.839464 0.641505 -0.854039 0.567392 0.788264 -2.32259 -0.496331 0.299038 0.375321 -0.496026 0.598244 0.589561 -0.419977 1.29649 0.297179 -0.286245 0.621277 -0.101021 -1.13473 -0.516596 0.530884 -0.16003 0.499488 -0.449974 0.267433 -0.345989 -1.83421 -1.36035 -0.409948 0.136426 -2.02041 -0.474861 1.25398 -0.640676 1.05427 0.206493 0.727062 -0.0961416 -1.74308 0.321808 -0.170811 0.137423 -1.18754 0.233053 -0.36975 -1.12187 0.391645 -0.355734 0.805894 -0.206795 -0.415678 0.47842 -1.10766 -0.0079514 0.34162 0.190135 0.0408928 -0.00618969 -0.00423987 1.20711 -1.10742 -1.18884 0.612439 0.214371 -2.51212 -1.07554 0.620677 -0.25821 0.434166 0.161219 1.02676 0.241366 0.139507 0.267752 0.38957
Q157 0.677278 -0.249561 -1.23751 1.27225 -2.85848 -1.95869 -0.020354 0.239082 -0.903943 0.0878395 -2.85343 1.66955 -0.35146 -0.859004 2.04843 0.338717 -1.70421 1.97873 0.849644 0.0850801 -1.6215 0.0971952 0.2483 -0.124285 -0.528929 -1.40726 0.854597 -2.76765 -1.29962 0.880668 -1.77273 -1.06242 0.562709 0.243002 -1.19375 -0.39312 -1.47425 -1.23118 -0.533589 -0.748802 0.364597 2.65253 0.0915086 1.31642 -1.30231 -0.327717 0.517953 1.90495 0.226947 0.422624 -0.473587 -1.2202 -2.10413 -0.712884 -0.898392 -1.0378 0.71918 -0.690414 -1.12444 1.40585 0.122492 0.96945 -1.83443 -1.35937 0.291535 -1.79631 2.80326 -0.68152 0.402382 1.1899 0.0431962 1.11023 0.51602 1.98732 -3.36861 -1.80566 2.58995 0.0184756 0.575994 -0.581173 -0.154122 -0.796795 -0.0363747 1.64069 -0.0162011 -0.955219 -1.89792 -0.549039 0.324901 -2.18754 -0.122313 -1.98281 -1.4606 1.07793 -1.80939 1.38043 1.32216 -1.50515 1.11192 -1.5095
Q156 0.691595 2.58711 1.08432 0.142191 0.599614 -0.615404 -4.03993 1.54649 0.871089 3.79799 -3.3141 -0.99061 -1.84442 1.29351 -2.11405 4.0062 0.477709 -2.60239 6.30867 4.45371 0.777838 -0.208872 7.99827 -3.05164 -0.946014 -0.189669 -2.6612 0.273452 -4.30778 2.18052 2.13848 -2.70726 -1.8721 2.74702 -0.373274 -0.207548 -1.43575 -0.723089 0.0266103 -2.16706 -0.677749 0.721747 0.44778 -1.26871 4.18702 -1.38642 -0.550743 4.35855 2.93369 3.36473 -4.51543 2.01413 -1.03114 -1.76317 1.66973 -0.972928 -0.987538 1.76043 1.92787 2.41153 -3.27756 0.92189 -0.805384 -2.44272 -0.80628 -3.85831 3.37261 -4.23996 -4.35319 1.66756 0.860317 -0.276528 -3.41129 2.27347 -3.35087 -1.55148 0.935202 -0.70606 -1.00022 0.935025 0.34458 1.09746 2.61842 -2.47035 5.92364 2.44426 -1.89088 -0.943596 0.599267 -4.72656 -1.21169 -2.92013 -2.70203 2.72755 -0.757445 -0.138172 -1.7711 1.62249 4.45423 -0.829091
Q151 1.16883 -0.688885 -0.678193 -1.33059 2.82108 -1.19913 -2.98376 -0.313687 1.30669 1.55573 -1.37907 1.902 -0.166772 3.93534 -3.38281 1.77268 1.85581 -1.43156 1.5675 0.296819 1.877 -0.607245 5.02043 -0.278131 -0.705737 -1.73385 -0.492548 0.191382 -2.15706 2.02994 -0.649325 0.0555782 -0.459543 0.888915 -2.179 -0.41456 0.757335 -1.17351 -0.289533 -2.15852 -1.44536 -1.07864 -0.831617 -1.00396 1.59195 -2.5717 -1.10273 4.37934 2.05101 2.09492 -0.00499371 -0.877697 2.3332 -0.505666 0.327378 3.55281 0.182418 1.12159 -2.0618 2.4695 0.324909 0.510846 1.4059 0.290986 1.64311 1.02587 1.89688 -2.74638 -1.7289 0.906848 0.0865361 -1.28821 -1.64454 0.513236 -0.74379 -2.0702 1.79541 -1.17125 -3.7659 1.63578 0.475823 0.331096 2.30023 -3.43148 4.60139 -2.52002 -1.30727 -0.8157 4.57393 -4.763 -1.35177 -0.855513 -0.832698 0.392255 -1.43162 0.471907 -2.06665 -0.0638353 1.60533 -0.333036
Q150 0.453539 1.12298 1.85427 -1.04111 -2.61645 1.99699 -3.08421 0.906914 -1.46539 4.32004 -1.53234 0.700133 -2.04043 -2.47081 -1.39607 4.01599 1.55151 -1.76973 3.80259 3.86016 0.410253 0.886009 4.68036 -1.99583 0.0859625 -1.56076 -2.85489 1.6376 -1.56679 3.18089 0.282723 -1.16713 -0.959478 2.83444 -0.509561 -0.210628 0.749659 -2.32643 1.83032 -2.46886 0.15575 1.29287 0.0817843 -1.92743 1.76696 -0.437993 -1.03223 0.584323 1.63461 1.99942 -0.799678 0.865964 -0.0468877 -0.997173 2.27188 -2.33935 0.2731 2.44269 -0.723446 1.09975 -1.20794 1.27217 -1.5895 -0.934878 0.377987 -2.9406 2.77332 -2.4653 -1.02353 -0.0896383 -0.825276 0.586708 -0.372818 -0.132738 -3.01387 -1.75015 -0.897183 -3.61392 -0.354174 -0.15591 0.516247 0.662301 1.17915 -0.804761 1.01047 -0.78769 -0.62639 -1.41101 0.223604 -5.41776 0.261604 -1.51079 -0.85398 3.01913 -1.59124 1.11474 1.29999 2.85521 2.26244 -1.22697
Q48 1.96693 -0.221407 0.693588 -0.737194 -1.19576 0.00344552 -1.4615 1.09804 -0.776761 0.422728 1.17273 0.0889172 0.45821 0.317285 0.202988 0.949487 -0.673272 -1.0026 0.234047 0.435385 1.03448 1.04214 1.25542 -0.1137 -0.0236906 -0.340097 -0.971249 0.57027 -0.981453 -0.109687 -0.342769 1.21802 -0.564611 1.08082 -0.892077 0.107511 -0.165053 -0.586143 -0.311883 -0.571338 -0.642961 1.2356 -0.555331 -0.371955 0.961476 0.229312 -0.163888 0.910934 -0.371702 1.36771 -0.492365 -0.364179 1.17179 -1.05605 0.615652 -0.411625 -0.302478 1.24033 -0.860852 0.436108 -0.474265 0.466422 -0.134081 0.434067 0.383017 -0.69307 0.354562 -1.07302 0.686068 1.0226 -0.662718 0.086808 -0.0802641 -0.454928 -1.66533 -0.0996338 0.230033 -1.11421 -0.872386 -0.0906185 0.0820092 0.164898 0.683098 -0.887517 0.117874 -1.45359 -0.546681 -1.20291 1.06849 -1.14219 0.288635 -0.998631 -0.174013 1.39772 -1.18769 1.20249 0.811487 -0.45795 0.474059 0.452493
Q49 3.34387 1.73831 3.78974 -0.161385 -0.427827 -1.45079 -0.730749 2.47492 0.219573 2.88369 0.60521 2.81224 1.27618 -0.0251806 0.809992 0.745819 -2.29079 2.23428 -1.09234 -1.07063 -0.172379 -0.654197 -0.365471 -2.89447 2.67414 -0.428399 -0.492838 0.620238 -2.88805 -0.0880428 -0.421813 2.36288 0.612825 2.17346 -3.06819 -0.997367 2.09281 -2.72053 -1.02882 -1.23788 0.988139 1.44249 -2.08708 -1.12328 2.65722 -0.788342 1.45241 3.41448 -2.56542 1.50724 -1.06717 -0.383411 -1.19241 -3.59765 0.0640199 0.178012 -1.00523 -1.43845 -0.425832 0.231989 -1.33777 -1.66057 1.8504 -0.503226 2.06503 0.691966 0.327036 -0.727454 1.23207 2.93352 -1.12535 0.710454 -1.21586 -0.236326 0.0350917 -0.391904 -1.16381 -1.06612 -1.18262 -1.72388 -0.0522342 0.45704 0.876815 1.27432 0.110224 -1.75144 -2.20714 -2.15733 1.88172 0.826173 0.427285 -3.60967 -1.29942 2.5408 -1.64018 0.856824 3.09461 -0.784106 -0.152633 0.525559
Q153 0.80871 0.605711 0.499548 -0.24302 -0.306459 -0.418537 -0.323393 -0.0321583 -0.376308 0.611125 0.950493 1.30915 0.452362 -0.630487 -0.584976 0.891868 0.159177 -0.160759 -0.0947111 0.197997 0.0527982 -0.224076 0.28587 -0.572382 0.445748 -0.6557 -0.865282 0.199003 -1.02471 1.17354 -0.389986 0.925982 0.264911 0.0402823 -1.56726 0.290917 -0.837649 -0.35839 0.427259 -0.287011 -0.178185 -0.186194 -0.230545 -0.909234 0.722551 0.386283 -0.363907 0.387323 0.194312 0.60325 -0.778343 -0.0759049 0.604134 -0.452292 -1.25119 -0.344848 0.070222 0.596378 -0.776505 -0.0632715 -0.73622 -0.345371 0.375765 0.0836773 0.236581 -0.662995 -0.404557 -0.833164 0.597613 0.698457 -0.16102 0.356124 0.172371 -0.568198 -1.05301 -0.920039 0.640882 -0.354697 -0.831799 0.164349 -0.141501 -0.198384 0.385012 -0.609893 0.214256 -0.539284 -0.765772 -0.592863 0.231686 -0.301032 -0.0559622 0.0460457 -0.107365 0.795426 -1.18268 0.786574 1.88835 -0.0441623 0.7799 -0.517529
Q152 -0.511478 0.183483 -0.561722 -0.490947 -0.126731 1.05843 -1.64729 -0.296888 -0.21712 1.80024 -2.76282 0.410147 -1.37753 0.137147 -1.46915 0.499779 1.25082 0.597789 1.76139 1.92026 0.608865 -0.290473 2.59665 -0.625045 -0.96267 0.285061 -1.43967 -0.0281493 -2.22872 1.72168 0.522532 0.00238825 -1.6954 -0.279858 -1.05687 -0.211008 1.08878 -0.42938 -0.461606 -1.09153 -0.608602 -0.852806 0.981578 -0.860648 0.467252 -0.212677 -1.05223 2.63969 0.629942 1.64788 -0.469471 -0.0677845 -0.0887391 -1.42995 0.6971 1.29821 -0.404312 1.14808 -0.0838455 1.00745 0.727502 0.257017 0.402551 -1.04878 0.257618 -1.17299 1.33583 -1.50657 -0.477883 1.25323 -0.246755 -0.513027 -1.27154 0.39228 -0.897386 -0.294836 0.446926 -0.641424 -1.61898 0.813992 0.648155 0.748026 1.42113 -0.757032 0.620194 -0.54894 -0.158194 -0.496038 2.0804 -2.50783 -1.08851 -0.21157 -1.81364 1.00091 -1.49713 0.261116 -1.00635 0.814781 1.7115 -0.582095
Q128 -1.37876 -1.24427 1.39721 -0.914905 -3.32308 -1.27084 -2.04599 0.642991 -0.444382 4.82615 -3.20553 -2.91556 -1.25986 1.07936 -0.853856 -0.314471 2.20196 -1.76652 3.92876 4.61746 1.04088 -0.375302 5.21728 -1.51166 -1.6422 -0.236067 -0.42508 -0.978989 -1.94243 7.32115 -0.764232 -2.48334 -1.08971 2.94115 -0.300302 -1.05751 -0.222504 -1.56558 1.28045 -0.184499 1.10206 2.08687 -1.85813 -0.755097 4.18667 -2.12865 -2.29457 0.525192 3.34108 4.2069 -2.24085 0.751544 0.982267 -2.39361 2.6586 -2.1575 -0.980781 2.66697 -0.401245 1.72034 -0.465944 1.76386 1.40632 -1.27261 0.38427 -4.39307 3.06604 -5.9696 -2.85618 -0.305345 0.603008 -1.44673 -1.67981 -0.0839343 -1.02956 -2.41016 -0.99102 -2.78857 -1.08919 0.81358 1.05021 -0.0797015 0.952561 -2.53527 2.73737 1.18363 0.139089 -3.39264 2.07142 -4.51769 -0.483014 -1.56983 -0.765719 0.824908 0.8419 -0.156055 0.453126 1.44553 3.75947 -3.06288
Q129 1.70519 0.606154 -0.668664 -0.131632 -2.78781 -2.31143 -1.25033 1.66795 1.05829 2.99683 -2.41744 0.719215 0.868563 0.812811 2.60548 2.97968 -0.828126 -0.184529 1.65539 1.36236 1.28128 -0.234807 3.9037 -0.155712 -0.850841 -0.235254 0.408288 -1.6374 -3.20201 2.44731 -2.56487 -1.67576 -0.366868 2.52209 -0.228943 0.321563 -1.17073 -0.236912 0.298234 -0.336328 -0.246696 3.63361 -1.77785 -0.442953 1.58281 -0.142737 -0.473 3.24336 1.05249 2.28072 -2.01097 -1.51332 0.0837533 -1.63264 0.152011 -2.63989 -1.65863 1.3737 -1.32845 3.61447 0.437394 1.64221 -1.81505 -3.2002 -0.288269 -2.73579 3.04141 -3.70278 -0.391054 0.814223 -0.63693 0.124076 -1.12583 1.87223 -4.34616 -1.59445 1.03343 -1.82179 -1.52997 1.69297 -0.0775728 0.129456 0.795646 -1.05641 2.69251 -0.547395 -2.6648 -1.07424 1.55318 -2.77504 -1.21365 -1.75191 -2.20157 0.596379 -1.89657 1.359 -0.634062 -0.198389 2.69411 -1.22681
Q120 1.72546 1.89608 3.45983 -1.13213 0.471605 -0.603902 -2.1783 1.42218 0.842412 1.66381 -1.28423 1.86413 -0.128006 0.519585 -2.60471 3.66674 0.0174464 -1.29349 1.79457 2.49822 2.39179 0.885536 6.78103 -0.486351 -0.856791 -0.19338 -3.80384 0.100768 -3.98758 -0.836023 1.35861 -0.82639 -1.61402 2.25038 -1.30507 -1.27728 -1.48506 -0.752321 -0.910307 -2.48798 0.136389 2.40115 -1.22135 -0.877406 4.0886 -3.96504 -1.23065 4.50645 1.90125 2.16031 -1.30856 1.14891 -1.92574 -0.873657 3.33311 -1.03221 -1.47355 -2.19139 -2.11584 1.97965 -2.85887 0.0914482 -3.76788 -1.22509 0.981234 -1.44407 1.60953 -1.94394 -2.89494 0.812211 0.371933 0.426257 -2.03332 0.937763 -3.89481 -2.96427 1.85713 -2.10185 -0.883787 -0.43199 1.06175 0.181082 2.94554 -2.75298 4.03615 0.033125 -0.786784 -0.837232 0.319862 -5.4145 0.259513 -3.85672 -2.70088 3.00528 -1.79825 0.951797 -1.48599 1.36236 3.2357 -1.25259
Q121 2.23985 1.34049 -0.368766 -1.35318 -0.580883 -2.01683 -5.47641 1.76163 -1.68326 5.03781 -0.656844 -0.193071 0.106765 0.492009 1.27395 6.43161 0.880416 -1.43286 2.66989 2.3609 0.930689 0.431017 4.7883 0.481851 -0.0400721 -2.28176 1.55644 -1.46102 -3.70403 7.01494 -5.59575 1.58281 0.303842 1.13273 -3.81491 0.939659 0.608405 -2.32118 2.48684 -0.634947 -2.59789 -0.071556 -1.87414 -4.52882 1.7166 -1.52219 -1.39281 3.15463 2.54571 1.56777 0.00801311 -3.05237 1.22089 -1.53264 -1.98476 -2.09304 1.15259 3.7549 -5.05683 2.43769 -1.1215 0.708861 0.575957 -2.64837 0.490823 -0.903782 1.39149 -4.9587 -2.4897 1.62668 -3.91103 1.11235 -3.09764 0.443985 -2.92513 -3.90119 2.7395 -3.98955 -4.26923 2.69897 -0.933836 1.40206 3.0757 -2.07009 3.13779 -3.13606 -0.896318 -0.836528 2.02094 -8.54971 -2.48205 -0.806835 0.233494 2.90261 -2.02154 3.33445 4.09056 -0.303447 2.73765 -1.94183
Q122 1.61716 1.98433 2.13014 -2.28623 -1.52259 -2.12634 -4.32548 2.62635 1.99289 4.15979 -4.55767 -0.122538 -1.15599 2.4221 -0.457321 4.83043 -0.316076 -2.51499 4.80267 5.81378 1.97927 -0.638305 8.67097 -3.32871 0.406653 0.2532 -1.39291 0.133172 -7.54441 4.40494 0.683741 -2.77728 -1.5024 3.91217 -1.17098 0.200698 -0.717234 -1.11147 1.13446 -2.84122 -1.4233 3.53559 -1.22612 -2.07797 6.01797 -2.67692 -0.415155 4.60803 2.95688 3.89296 -4.40196 1.68533 -0.723147 -2.68504 2.93135 -1.57619 -2.32287 1.72984 0.214374 3.57199 -1.15112 -1.21963 -2.24687 -2.836 -0.141588 -4.80017 1.7864 -7.19874 -3.58038 3.20274 -0.242474 -0.178696 -3.13445 2.49764 -4.42004 -3.47116 0.950115 -2.8423 -1.95023 2.99015 -0.100308 0.346107 4.24034 -2.90938 4.96812 1.02794 -1.42233 -1.78973 0.757579 -4.87983 -0.158947 -3.64771 -3.55047 2.71504 -1.3795 0.684333 -0.279552 1.81481 6.88831 -3.19902
Q123 3.13833 0.166753 0.304784 0.210006 0.468748 -0.795964 0.241849 1.26281 0.719369 2.48816 1.8853 0.879766 -1.03225 0.130506 -1.93432 0.671152 0.891975 -1.11679 -1.23067 -0.0613315 1.16972 -0.357788 1.18028 -0.506882 -1.58615 -1.8299 -0.789625 1.68022 0.862708 -0.128748 0.792376 -0.0682277 -0.479364 -0.193223 -1.12701 -0.161496 -0.824193 0.126181 1.8991 -0.79459 -0.0865538 0.600508 -0.888102 -0.235821 2.20597 -1.17429 -1.30763 0.23951 -0.439273 1.65024 0.00692382 1.00206 0.0821838 -2.41736 -0.217306 0.414805 -0.558795 -1.56053 -2.35615 0.548608 -0.404083 0.150383 -0.395724 -0.385069 1.66392 0.818535 -0.983159 0.407444 0.905266 1.13195 -1.05355 -0.433469 -0.852277 -1.02741 -0.922481 -0.158192 0.263985 -0.150669 -0.294989 0.514215 1.08149 0.0982621 0.999398 -1.93968 0.0557861 -0.878003 0.411069 -0.103299 1.05659 -0.396977 -0.920735 -1.85101 -0.706101 -0.0807468 0.104358 0.8402 0.720421 1.57841 0.140875 1.64452
Q124 0.98108 0.401074 0.726486 -0.820366 -0.810694 -1.05243 -2.21309 0.761268 -0.0382653 1.77195 -1.38326 0.706626 -0.837552 -0.0481861 0.147687 1.01275 0.142851 -0.946011 1.13389 1.91956 0.277247 0.210133 1.67879 -1.43473 -0.535552 -0.248927 -0.632928 -0.578715 -2.12836 2.22693 -1.00929 -0.330243 -0.72752 0.764643 -1.47197 0.352757 -0.908766 -0.885143 0.790067 -1.13177 -0.0604879 0.989961 -0.672842 -0.939426 1.5242 -0.771641 -0.551259 1.46642 0.855272 1.41569 -1.58431 -0.241179 -1.09159 -0.863782 0.475214 -0.73933 0.23911 0.483569 -1.3404 0.152037 -0.669207 0.0684818 0.188359 -0.208941 0.228495 -1.00365 0.312271 -2.13985 -0.0924791 0.720035 -0.252373 0.187839 -1.3366 0.369453 -1.27876 -1.3497 0.842296 -0.82193 -0.410451 0.338606 -0.0609207 -0.715067 0.878737 -0.712981 1.4259 -0.0442512 -1.11435 -0.31082 0.266055 -2.61502 -0.77976 -0.77867 -0.925955 1.44447 -0.817726 0.524159 1.30794 0.402966 1.15428 -0.663467
Q125 3.49817 0.749882 3.87849 -2.34467 -3.03924 -1.49124 -2.54381 0.267228 -0.120945 3.85949 -0.79078 4.07084 -2.02813 1.6466 -1.84122 2.972 -4.494 -0.820735 1.78855 1.44412 -0.672467 0.619119 4.32166 -2.36456 1.50342 -1.70305 -2.90403 0.653891 -4.41463 1.84368 -1.01224 -0.421551 -1.37157 3.25688 -1.41185 -0.704123 0.174008 -0.992805 0.307529 -1.90919 -1.84268 2.63828 -2.50533 -0.882609 3.14926 -2.07928 -0.783289 4.28726 0.180707 3.20892 -2.72111 -0.302299 -0.0493628 -4.18598 1.6327 -3.10996 -0.969414 -0.453528 -2.62754 1.86315 -2.66429 -2.30984 -2.25747 -1.49273 2.31929 -1.28525 2.82398 -3.21724 -0.730343 2.92975 -0.397348 0.574146 -4.04815 -0.653216 -2.99004 -3.13753 0.460205 -4.52806 -2.43157 -1.2826 1.54959 2.14039 3.53893 -2.26075 3.74223 -2.25259 -0.851548 -1.80659 0.999818 -3.9223 1.59277 -2.71856 -1.29927 2.86914 -2.51503 1.65993 3.09907 1.4059 2.34505 -1.17105
Q126 0.729384 0.316351 2.03174 -1.1962 -0.922563 -0.759734 -1.02441 1.53281 -0.40026 0.503608 -0.741005 0.707393 0.317026 -0.120517 -0.917895 0.221959 -0.475719 -0.157712 0.431661 1.76212 0.19313 0.516383 1.45056 -0.257372 0.202911 -0.316165 -1.24842 0.120442 -1.36794 1.23453 0.412742 0.00609656 -0.726892 0.732269 -1.204 -0.606459 -0.0910923 -0.75899 0.123484 -0.924284 -0.354851 0.157843 -0.580886 -0.739523 1.62636 -1.6729 -0.802032 2.09777 1.06849 0.913076 -0.623986 1.00451 0.162519 -0.618322 1.22675 -0.227366 -0.414144 -0.41436 -1.11179 0.107041 -0.814406 -0.383834 -0.332898 0.476358 0.879874 -0.781732 0.898932 -1.51044 -0.0232185 1.22676 -0.653537 0.292337 -1.03724 0.0659328 -0.864506 -1.28859 -0.201121 -1.47656 -0.945774 0.195641 0.366915 -0.313598 0.962511 -0.360548 0.466059 -0.983433 0.0492413 -0.73124 -0.0870737 -1.56273 0.457649 -1.61472 -1.00669 1.33386 -0.913806 -0.109238 1.32447 0.281481 1.10609 -1.06068
Q127 0.809416 -0.630133 -0.483677 -0.0676696 -1.82925 2.14613 -3.17486 -0.413561 -0.511081 4.61237 -2.12295 -2.11138 -3.35837 0.626073 -0.275774 1.73929 1.69392 -1.80136 4.70654 3.75639 1.84766 -0.0169012 6.29715 -0.762467 -0.131885 -0.300223 -1.88134 0.448875 -2.38133 5.00814 0.664892 -2.37234 -0.837842 1.56442 0.980717 1.05728 -1.68023 -2.14707 1.97062 -1.19291 -1.14675 1.23473 0.0268295 0.286688 0.692211 1.36586 -0.459639 0.479539 1.255 1.74325 -2.93267 -0.0832387 -1.51275 -3.83397 1.19664 0.0657982 -2.26527 3.62679 1.55069 1.76642 -2.7918 0.0643829 0.132827 -3.06066 -1.2987 -2.96808 2.92698 -4.02395 -2.73686 1.72316 -0.596169 -0.653021 -0.693965 0.414855 -1.79096 0.476565 0.993377 -2.58796 -0.836952 1.91086 0.0577613 2.51664 0.732325 -1.66054 0.681133 0.231283 -0.742184 -1.68795 2.32026 -3.33037 -1.32922 -0.356569 0.489633 1.78598 -0.170383 2.16688 -0.665517 0.846678 3.81574 -1.92624
Q33 2.0183 1.2025 1.39279 -0.913898 -0.0167166 -0.456053 -1.129 1.29692 -0.397247 1.53876 -0.311074 0.629882 -0.713599 0.0621054 -0.880844 2.05353 0.0599494 -1.47949 0.95915 2.61667 0.758029 0.642422 3.84962 0.0983944 -1.41493 -0.592583 -1.07316 0.664028 -1.26708 0.741326 -0.194394 0.500887 -1.31818 1.20883 -1.87299 0.558463 -1.03022 -0.897699 0.43022 -1.30279 -1.50211 -0.155839 -0.606717 -0.712033 1.55503 -0.991203 -0.717376 3.15696 0.196086 1.12065 -0.617071 0.209741 0.540169 -1.26901 0.538404 0.657132 0.179038 1.76413 -1.13376 0.86674 -1.45309 0.447645 0.454112 -0.620379 0.238989 -1.08458 0.848074 -1.63216 -0.127396 2.07946 -0.729566 -0.110556 -1.51479 0.658755 -1.82673 0.65406 0.489535 -0.516402 -0.7714 0.788285 1.31162 -0.185763 1.81174 -0.690979 1.19176 -1.3094 -0.259082 -0.427166 1.70159 -1.47338 -0.911577 -1.13333 -1.47711 1.91007 -1.31688 0.673949 1.10689 0.248784 1.99693 -0.0931619
Q32 0.774742 1.94158 2.58761 -2.39478 -3.15883 -0.951106 -4.4618 2.59425 -0.837494 4.50107 -1.93708 -0.531269 -1.72668 -0.00771361 -0.546954 3.41535 1.17507 -2.25741 4.59695 5.68758 1.25192 0.532638 6.29353 -2.91785 -0.943842 1.37961 -1.6835 0.61446 -4.88808 4.97892 -0.426083 -1.78363 -2.34421 3.83617 -1.34107 1.18981 -1.44821 -1.74897 1.63381 -1.67914 -0.522194 2.11095 -0.651818 -2.25166 4.84173 -1.57419 -1.58572 2.69297 2.01972 2.66467 -3.23175 0.741524 -1.32285 -2.16646 2.12489 -1.16687 -0.458675 3.17954 -0.542806 0.978688 -1.91517 0.177858 -0.996825 -2.42866 -0.285337 -4.29823 2.68273 -5.46037 -1.56314 1.76777 0.449484 -0.660409 -2.25033 0.750086 -3.21779 -2.21282 -0.133782 -2.27217 -0.313104 0.638012 1.58443 -0.297326 2.22716 -1.04786 2.37404 1.1948 0.141958 -0.881936 1.31254 -4.01525 -0.922942 -2.27418 -1.46899 2.69309 -0.787363 -0.376887 0.781058 2.78484 4.34455 -1.84668
Q31 2.24665 0.826357 1.94559 -0.667034 -0.992236 0.178967 -4.32838 1.50966 -0.609973 3.90328 -1.16734 0.632723 -2.67812 0.763361 -3.36482 4.26314 1.46651 -2.6825 5.00541 4.73807 2.34607 0.754798 7.15101 -1.38948 -1.64478 -1.47482 -3.81433 0.848493 -3.52653 2.79995 0.584357 -1.55 -2.19278 1.61805 -1.4754 1.24894 -0.701676 -1.94944 0.22251 -3.10226 -1.52957 0.101866 -0.218321 -1.82476 3.0286 -0.956766 -1.668 4.93912 2.62716 2.97435 -3.54322 0.623925 -1.45086 -2.86655 2.60587 0.0702986 -0.725466 2.13265 -0.679356 2.11832 -2.27426 1.19962 -2.85759 -3.08236 -0.116664 -2.25131 4.25664 -4.1142 -2.70147 2.74198 -0.60533 -0.131446 -1.70911 -1.01304 -4.16355 -1.26326 2.455 -3.24035 -2.03647 0.768684 0.813895 1.41044 3.21997 -0.512438 3.47638 -1.33525 -1.44499 -0.3659 3.20538 -5.5659 -0.54432 -2.36618 -2.05041 4.05709 -2.44614 2.10596 0.377037 1.55895 3.53297 -1.81505
Q30 1.99197 0.257719 0.755346 -0.43033 -0.349567 -1.37231 0.0826005 0.797436 0.489514 0.678876 0.143584 1.93169 1.60506 0.859228 0.613204 0.495607 -1.00709 2.03287 -1.2182 -1.96663 -0.0655574 -0.612482 -1.6873 -1.53411 1.97111 -0.855258 0.334866 -0.309356 -2.0001 -0.253146 -1.73418 1.60565 1.6785 0.581876 -0.881058 -0.0184476 0.992441 -0.93648 -0.976039 -0.321845 0.276089 0.96965 -1.23943 -0.425143 0.381982 -0.713015 1.48608 0.805338 -1.10129 0.0565334 -1.03495 -0.848558 -0.407654 -0.168435 -0.360941 -1.3048 -0.0118192 -1.04944 -1.69999 -0.438003 -0.402507 -1.34938 0.0946722 -0.0121259 0.636189 1.06144 -1.19292 -0.231825 1.40875 0.875709 -0.207191 0.555378 -0.240126 -0.567297 -0.254981 -1.39728 -0.0976884 -0.508203 -1.27137 -0.718228 -0.476888 -0.301007 0.316401 -0.221237 0.601015 -1.49858 -0.781816 -0.21074 1.89359 0.380364 0.671628 -1.60678 0.229369 0.982392 -0.357984 0.974057 0.983076 -0.252833 -0.616102 -0.05521
Q37 4.86049 -0.9725 3.82071 0.127905 -1.78108 -2.76712 -0.805934 2.17545 1.19493 2.69214 -3.54063 0.577811 1.15395 -0.863391 1.81467 -1.07888 -2.15026 0.307978 0.885009 0.819468 0.126363 -0.402778 1.68295 -0.484709 0.105188 -2.61866 -1.69993 -1.30887 -1.59234 3.10243 0.375393 -0.144803 -0.0533667 0.434507 -4.6279 -0.187324 -0.278296 -3.58285 -0.102811 -1.2888 -1.1437 1.31355 -1.13516 0.113315 0.223726 -0.932952 0.850403 3.82094 1.88102 1.81098 -2.62329 -7.16597e-05 -2.55515 -2.26894 1.45238 -2.00676 -1.42138 -1.49835 -1.09362 -0.815755 -2.05235 -0.10044 0.648859 -0.483281 3.20012 -0.0840612 0.218291 -3.09194 0.668159 4.22909 -0.691223 1.39349 -2.00332 1.64604 -1.12723 -1.8358 1.07723 -2.02962 -1.13618 0.269973 -0.637591 0.663662 2.79614 0.180274 1.41359 -2.81173 -2.36936 -1.16331 -0.3974 -3.23754 0.472026 -3.65537 -2.17913 1.50527 -1.62 1.27485 2.86858 -1.95961 1.54895 -2.93538
Q36 1.25232 2.01616 1.51851 -1.9846 -0.813217 -0.601339 -6.20045 1.35475 0.22964 4.93632 -1.51541 -0.372372 -5.40477 1.75663 -2.13385 3.84482 1.79069 -4.69962 5.23479 5.80853 4.12125 -0.504219 8.83642 -2.42648 -0.973953 0.969784 -2.75954 0.30736 -3.52235 6.62846 0.688586 -3.17342 -1.5458 3.74637 0.81415 2.92559 -3.42574 -1.44786 2.37149 -2.54796 -0.88984 0.650626 -2.2501 -0.2692 4.48341 -0.94798 -0.889173 2.91406 1.20812 3.89856 -4.40046 1.47484 -2.1216 -4.56263 2.79876 2.38201 -2.96836 2.98499 0.203724 4.02489 -0.941758 0.409952 0.427065 -4.72231 -1.57483 -2.62416 4.81477 -6.63049 -3.96561 1.55181 -0.378003 -1.14951 -1.99055 -0.254533 -1.71673 0.36506 1.03084 -3.84137 -0.633473 1.97435 0.85732 1.32711 1.22374 -1.11022 4.50142 3.36497 -0.910104 -1.28853 1.84478 -2.02068 -0.473598 -3.9397 -0.318778 3.44528 -0.615426 0.874197 -0.756438 2.52273 5.88772 -1.82308
Q35 5.58139 1.4515 2.23571 -0.782536 -0.0121944 -0.824692 -2.76963 1.58278 0.0803676 2.57741 0.0173956 0.933838 -0.713759 0.845309 -0.410546 2.96931 -0.426645 -2.06484 2.25153 2.3145 2.50837 0.0240999 4.86114 -0.592123 -1.35999 -1.25925 -1.69795 0.206364 -1.64314 0.340273 -1.66781 -0.796923 -0.771129 1.16208 -1.51147 0.659238 -2.34213 -1.18158 1.47484 -1.83517 -0.736531 0.117932 -1.77055 -0.757054 2.65998 -0.337183 -1.06575 3.67209 -0.362035 1.15908 -2.01894 0.246821 -0.600831 -1.69327 0.231595 -0.473809 -0.661881 0.95781 -0.425476 0.411726 -3.53251 1.22012 0.355421 -0.806845 0.610359 -0.861935 1.18626 -3.41777 -0.300322 1.72067 -1.02719 0.115481 -0.522341 0.436228 -2.46435 0.236569 1.13328 -1.3658 -0.0626939 0.449697 1.54654 -1.87518 1.61118 -1.42313 2.39455 -1.0685 -2.08249 -0.440863 2.32062 -3.78606 -2.31321 -1.77712 -1.381 2.82569 -1.70817 2.03497 0.510082 -0.542432 2.16299 -0.0467618
Q34 0.23843 0.991963 0.100892 -0.392812 0.0534523 -0.153098 -0.997617 0.66204 0.109891 0.477132 -0.657047 -0.384167 0.125893 -0.110355 -0.095243 1.32202 0.225539 -0.436657 0.739007 0.784555 0.0178949 0.536249 1.31284 0.157702 -0.37095 0.267307 -0.674793 0.155328 -0.455258 0.351818 -0.620792 0.397463 -0.66943 0.495308 -0.124491 0.0389585 -0.194321 -0.0587848 0.125692 -0.113418 -0.491275 0.217576 -0.201902 -0.767345 0.372794 -0.224341 -0.446268 1.03736 0.0187892 0.550068 0.0572884 -0.274926 0.367281 9.95502e-05 0.223324 -0.554669 -0.0881774 1.49375 -0.177354 1.01585 -0.752279 -0.0729583 -0.241246 -0.407001 -0.219953 -0.648464 0.364725 -0.328126 -0.229134 0.118276 -0.457508 0.0211295 -0.627358 0.358516 -0.719556 -0.0627566 0.317736 -0.394434 -0.53471 0.361128 -0.00399124 0.0954982 0.171122 -0.366766 0.954509 -0.255592 0.312086 0.388576 0.838953 -0.766252 -0.652744 -0.102789 -0.498951 0.857264 -0.694502 0.354879 0.0552397 0.338768 0.993536 0.114443
Q39 -0.501695 1.0516 -0.90219 -0.873576 -1.08551 2.2612 -3.43928 -2.03055 -1.82417 2.8309 -2.04518 2.16224 -2.25787 -1.94766 -2.25306 1.8367 1.36738 0.454573 1.78536 2.69476 -0.205275 0.539461 2.84073 -1.28086 1.5894 -0.278562 -1.58052 0.507458 -2.15321 5.54804 -0.579373 2.10224 -1.14303 1.56736 -2.52529 1.45497 1.65137 -0.434752 1.36852 -1.47857 0.764025 -0.357182 -0.45384 -2.62779 1.08319 0.0234219 -1.66782 1.16324 0.242534 5.22775 -2.34613 -1.17636 1.17667 -0.440232 0.715255 -1.88416 0.431835 2.93848 0.0214761 0.449667 0.751235 -0.731177 0.211557 -1.65992 -0.00521811 -2.00952 0.801978 -2.21842 -0.920839 0.203785 0.11522 1.5491 0.103143 -2.06834 -0.359998 -2.11532 -0.560932 -1.89808 -2.30845 0.423778 -0.0129373 1.75585 1.15852 -1.03285 -1.21094 -1.26105 -0.3626 -0.904602 0.32196 -4.26604 0.353697 -0.202633 -0.59055 1.26806 -3.86818 1.54849 3.0679 1.58262 3.20946 -1.4047
Q38 0.586911 -0.52885 1.04508 -0.490551 -2.48744 1.59621 -3.01149 0.800358 -1.20777 3.63869 -2.75144 -1.84944 -2.95836 0.17929 -0.31283 1.3202 0.903664 -1.03784 3.68966 3.78051 0.664406 -0.480953 6.28113 -1.88666 -0.231703 -0.269784 -2.02015 -0.896111 -2.49107 5.49745 2.48343 -2.92981 -1.44275 2.69958 -0.237697 1.0194 -1.50048 -1.34541 1.71673 -1.28108 0.347583 1.86095 -0.470334 -0.199195 2.02322 0.329286 -1.03039 0.904847 2.49383 3.5081 -3.27592 0.442854 -1.3196 -3.25849 2.41273 -2.90253 -2.58984 1.89506 0.889752 1.85143 -1.97952 1.51905 0.48551 -2.43009 -0.344548 -3.74467 2.53635 -3.67403 -2.09541 1.20831 0.550606 -0.162335 -1.77535 0.650902 -0.813204 -1.30842 -0.448447 -2.32453 0.0520588 0.878894 0.485315 1.15703 0.763 -2.16207 0.722536 1.08474 -1.04574 -2.32464 -0.108004 -4.36575 -0.47198 -2.49167 -1.27875 1.49724 -0.614511 0.498015 0.410891 1.95265 2.63909 -1.80118
Q142 5.2955 4.37988 4.37386 -2.79753 -2.72265 -0.825107 -3.50997 5.12949 -0.233051 3.5539 2.56014 2.28918 -1.3674 -0.603952 -2.9719 6.20485 -0.957388 -4.64783 2.66465 5.94831 3.63165 0.723092 7.60506 -3.27112 -2.00516 -0.876993 -3.76986 2.21902 -2.07411 -0.157016 -2.38664 0.192269 -2.40287 4.25314 -0.383175 1.18444 -3.03135 -0.0249587 1.89931 -4.05397 -0.423438 3.31558 -1.38456 -0.76736 6.48389 -4.4225 -0.41665 3.4281 -0.133635 1.4323 -2.82852 0.48041 0.585814 -1.27089 3.31089 -1.66234 -1.62148 0.405453 -4.029 0.804962 -2.29642 -0.431734 -3.274 -0.923392 0.631098 -2.17438 2.45416 -3.57441 0.016482 1.68678 -1.64515 -0.23652 -0.873386 -1.32113 -5.87241 -1.20119 -0.598717 -4.89877 0.443966 -0.337835 3.70184 -1.28537 2.70312 -2.1483 2.80394 1.01557 -0.223458 1.45147 1.32032 -3.63894 1.43314 -3.39186 -1.57118 5.32234 -1.50955 0.646084 1.85962 2.91606 2.82573 0.118313
Q143 6.77703 3.7741 4.45751 -1.96466 -0.683127 -3.14668 -3.82082 0.557835 -1.57731 2.54671 2.96497 5.84472 -0.552681 -0.609424 -0.624998 6.5866 -3.15141 -1.37475 0.398162 2.48249 -0.601414 0.623374 4.50222 -0.26218 1.59666 -2.4081 -1.69514 0.455157 -3.97241 2.74791 -4.62323 2.82577 0.0276971 0.937 -4.82273 1.60788 -1.94391 -0.046733 0.389897 -1.56957 -2.97637 0.401163 -2.93114 -2.64538 1.6523 -3.02466 -0.617991 5.19958 -1.19085 0.668709 -1.35826 -1.45077 3.06899 -2.34311 -2.36538 -2.67314 -0.37379 1.54254 -5.43503 2.27006 -4.06535 -0.998732 -0.110956 -1.04366 -0.0238352 -0.245197 0.737012 -2.05999 1.54957 1.76252 -3.09355 1.34346 -1.85061 -0.950055 -4.35571 -2.87789 -0.0606017 -2.45346 -1.09821 1.21584 2.40192 -0.587832 3.35608 -2.73335 2.68572 -3.21974 -0.884793 0.366635 1.0076 -5.12604 0.444791 -1.41157 -1.40499 3.76967 -3.56176 2.44733 5.25852 1.2256 2.43463 -1.30366
Q140 1.40204 2.50365 4.41186 -1.66751 -0.835075 -1.1405 -1.04477 1.77329 -2.65515 3.14251 -1.37547 1.65752 1.78137 -0.954572 0.355624 3.41111 -0.439466 0.113541 1.30214 5.43278 -1.70429 1.05772 6.49104 -0.176334 -0.606947 -1.20854 -1.12392 0.585889 -1.99449 3.2366 -0.0170385 1.5323 -1.69346 3.13946 -5.34933 0.163976 -1.66247 -1.49393 -0.124976 -0.64811 -1.98696 0.600712 -1.30141 -2.19217 1.51155 -2.39114 -2.04579 4.62033 1.27097 0.762675 -0.776743 0.383034 1.25863 -2.20271 0.051685 -0.537913 0.628574 5.0536 -0.991183 1.48268 -3.22237 0.163804 2.0426 -1.48014 1.08314 -3.49349 1.04461 -1.82906 -1.0824 3.74205 -1.58413 0.450483 -1.29348 3.75507 -3.41193 1.36926 0.244661 1.00131 -1.29616 1.49398 1.19396 0.0405895 2.79368 -0.689765 1.40209 -3.26903 -0.574139 -1.25681 2.3108 -2.39577 -0.611565 -2.21042 -1.57767 2.38914 -2.64424 -0.624099 4.3453 -0.113078 5.36696 -2.01237
Q141 0.584666 -0.227557 0.0831832 -0.277267 -0.688269 -0.646532 -0.772243 0.152171 -0.106466 0.664329 -0.193321 0.49564 -0.571301 0.486757 -0.202145 0.829815 -0.450583 -0.478499 0.543573 0.43705 -0.344484 -0.396999 0.90931 -0.0409814 0.17805 -0.290113 0.146671 -0.591027 -1.19743 0.976218 -0.288755 -0.67016 0.229449 0.465233 -0.54694 0.0952741 -0.489759 -0.434835 0.408416 -0.823773 -0.658935 0.194553 -0.640229 -0.172782 0.498266 -0.0729958 -0.172747 0.582775 0.196607 0.345296 -0.445313 0.0315434 -0.0783424 -1.0175 0.232475 -0.0502845 -0.028241 0.479448 -0.833569 0.550528 -0.253823 -0.218018 -0.688808 -0.595401 0.173366 -0.458504 0.379709 -1.28853 -0.108284 0.244898 0.281081 0.0130081 -0.254501 0.0340456 -0.779258 -0.871676 0.67344 -1.08642 -0.714084 0.0230837 0.0556448 0.147562 0.344167 -0.506427 1.09506 -0.681088 -0.684221 -0.418341 0.534864 -0.768764 0.0318653 -0.758593 0.243609 0.579759 -0.384071 0.67289 0.558954 0.106395 0.779083 -0.759794
Q146 1.28568 1.04593 2.02268 -0.479653 -3.84729 -0.616022 -4.16873 2.39297 -0.85408 6.58976 -3.57222 -1.06196 -1.76233 0.364361 0.872478 2.55328 0.458831 -0.513496 3.82025 3.72828 0.194384 -0.54409 5.12647 -1.81853 -1.17233 -0.951904 0.505415 -1.45951 -3.95165 5.38132 -2.48776 -1.01106 -1.39878 2.0213 -3.42986 -1.92074 -2.11828 -3.22625 2.05832 -0.177085 -0.264958 1.44319 -2.69802 -2.3032 2.43684 -0.776365 -1.68073 1.76108 1.47771 1.30246 -2.05859 -2.35435 -0.824802 -1.94547 0.510811 -2.61887 -0.246145 3.02254 -2.14645 1.87861 -2.77059 1.1492 1.10077 -2.35806 -0.233806 -4.10846 1.32771 -5.37602 -1.97195 1.04507 -1.7528 -0.279085 -2.51764 1.0542 -1.54518 -3.55959 -0.178945 -1.20056 -2.3435 1.11236 0.732301 -8.00434e-05 0.49414 -2.94736 3.16192 -0.166614 -1.96152 -2.15323 1.44903 -5.59787 -1.41926 -0.398829 -0.379161 2.18886 -0.37373 0.522109 2.86481 0.00388726 3.26176 -2.19689
Q147 -0.664685 1.24231 0.115009 -0.791906 -0.616211 -0.0608256 -2.23715 1.83928 -1.13651 0.977993 -1.25572 -0.302166 0.467142 0.0556205 0.643932 1.72821 -0.115395 0.121569 0.920354 1.16802 0.519415 0.574074 2.47742 -1.05103 -0.356043 0.978753 -0.803895 -0.413595 -2.07961 0.980322 -0.00677823 0.0992771 -1.47821 1.93499 -0.182269 -0.642094 -0.629238 0.410603 -0.229945 -0.407502 -0.610952 1.82198 -0.703398 -1.06079 1.53502 -0.20024 -0.700132 1.95323 0.0252451 1.92797 -0.760738 -0.46243 0.28167 -0.751534 0.540871 -1.18446 -1.52663 1.9805 0.0553224 1.96196 -0.227725 0.309829 -0.391441 -0.976676 -0.0138473 -1.92345 0.777989 -1.65805 -0.0642222 0.374886 -0.167906 -0.129083 -0.5471 0.634151 -2.00491 -0.597825 0.0433328 -0.194678 -0.839217 1.16852 -0.0896061 0.458081 0.355464 -1.09391 0.989548 0.468098 0.0181788 -0.934478 0.0671108 -0.782291 -0.7194 -1.52473 -1.54908 1.38481 -1.65098 -0.399881 0.159657 0.56204 2.25519 0.477862
Q139 5.71162 1.79728 4.43744 -0.540738 -2.46995 -0.485892 -3.36257 0.0781059 -0.622622 4.13197 2.14076 4.17574 -1.92027 -1.60983 -3.25406 5.15001 -1.35223 -3.56353 1.77022 3.87005 2.13683 -0.585691 5.3196 -0.200472 -0.906839 -3.99057 -2.40136 1.0947 -0.535717 0.960869 -3.12139 1.01128 0.0781102 3.34763 -2.32098 0.0774781 -2.25679 -3.05295 1.44045 -4.36832 -0.504327 0.469401 -1.77839 -0.380853 3.46158 -1.89017 0.503237 2.0722 0.0214212 1.86665 -3.40349 -0.64721 0.995234 -1.05762 0.81812 -2.74543 0.995894 0.841718 -2.62797 -1.35399 -4.25212 -0.338605 -2.59084 0.845895 1.67547 0.633283 2.26958 -4.49795 -0.706395 1.05564 -0.355994 1.77435 0.214461 -3.67489 -3.00955 -0.869701 0.126239 -4.46343 0.346851 -0.70154 2.00318 -1.4268 3.4771 -1.9932 2.16003 -2.23652 -2.42869 1.07812 1.6475 -6.42117 1.33222 -1.44274 1.01989 3.11601 -2.75356 2.1364 2.89143 -0.645879 2.16378 -2.12004
Q138 0.45897 1.42191 1.65513 -3.4111 -2.54856 0.714308 -4.67519 -1.49149 -1.9595 5.72634 -0.503657 1.11881 -4.16042 -0.410537 -2.20719 4.36252 1.24681 -4.04771 3.92392 5.94835 1.69772 0.622985 8.07613 -0.758074 0.558674 -0.979805 -1.87012 0.120079 -2.49488 7.04551 -2.30584 -0.17553 -0.157577 4.27313 -0.886121 3.26155 -0.807681 -1.43959 3.12161 -1.28965 -0.924222 1.18306 -1.84541 -2.95886 1.72007 -1.01419 -2.19995 1.00232 1.9911 3.46547 -4.67044 -1.62059 -0.214904 -2.08252 1.7529 -2.77245 1.07467 5.07207 -2.88288 1.86308 -1.03095 1.1547 -1.24419 -3.28486 -0.488491 -3.46586 4.01501 -5.24296 -2.67765 0.850362 -0.868309 -0.151374 -0.504128 -2.62219 -0.331465 -0.582642 -0.354785 -3.05338 0.0843603 0.226652 3.01879 -0.910592 2.87894 -1.51255 0.924304 0.173543 -0.19939 0.756309 1.76378 -7.31011 -0.878692 0.57799 0.0782715 1.31958 -1.30576 2.36833 1.05837 2.52913 4.9029 -2.00034
Q144 2.24342 -0.0444333 0.270709 -0.843614 1.84961 -1.71905 -1.49956 0.0117951 2.1654 1.0745 -1.03004 1.17374 -0.410567 2.68244 -2.56258 1.38628 -0.148014 -1.29437 1.03898 1.26097 1.84966 -0.0724641 3.76804 0.0933347 -1.31083 -1.68479 -0.587277 0.273804 -1.52683 -0.416254 -0.806796 -0.25217 -0.833524 1.42782 -0.761769 -1.26323 -0.0508652 -0.640759 0.327165 -1.96053 -0.112655 0.199678 -0.215598 0.0109235 2.64131 -3.24148 -0.788677 2.41051 1.35498 1.76479 -0.413255 0.10911 0.651063 -0.446751 1.9926 1.55814 -0.394698 -1.29563 -1.49683 0.85565 -0.935907 -0.756557 -0.118871 0.261252 1.72557 0.701104 0.609958 -2.09654 -2.17221 0.0858583 -0.2245 -0.544452 -1.66268 0.623121 -0.569362 -1.95845 0.707576 -0.67973 -1.188 0.667048 1.09355 -0.220512 2.5086 -3.39831 3.00777 -0.976401 0.0605201 -0.0870045 1.66344 -4.21641 -0.00754273 -1.50111 -1.16591 0.425758 -0.595858 0.777693 -1.03121 -0.0130076 1.49939 -0.635212
Q133 0.316563 0.411023 2.08723 -1.07185 -1.9469 0.892708 -2.62723 0.834623 -1.28118 4.26393 -1.78917 -1.93738 -1.19902 -0.207281 -0.219776 2.04702 1.9866 -1.88666 3.76985 4.45006 0.946305 0.184341 6.03105 -1.12203 -0.0679223 0.442887 -1.74606 -0.0263567 -2.34004 5.38955 1.4347 -1.54265 -1.37441 2.05224 -1.3563 0.531726 -1.67316 -1.47763 0.871057 -0.422379 -0.502388 2.18233 -1.84777 -1.6625 2.39614 -0.398803 -1.97581 1.35937 2.82376 2.49098 -2.0817 0.755071 -0.24367 -2.97112 1.27282 -1.79061 -0.764204 3.1803 -0.305084 1.74449 -1.7474 1.71903 0.0239213 -2.14582 -0.595713 -4.26893 2.24155 -3.73925 -2.75827 1.79385 0.248409 -0.398385 -1.62613 0.814421 -2.49136 -1.51231 0.36781 -1.26909 -0.729983 1.01241 0.415906 0.947028 1.31448 -1.39047 1.83173 0.243343 -0.987517 -2.31729 0.751329 -3.23 -0.916855 -1.77699 -1.17281 1.01114 -0.654205 0.176317 0.0327421 2.02074 4.3802 -1.45441
Q132 2.47422 -0.021641 3.85591 -1.40559 -0.80242 -2.06475 -0.576077 1.6385 -1.34068 -0.0502265 0.096329 1.42684 0.0878197 -1.4777 -0.266886 -0.405634 -1.4498 -0.203311 -1.31171 2.01071 -0.068635 0.539732 1.49248 0.204691 1.35931 -0.356178 -1.37801 -0.750462 -2.33651 1.9045 0.56366 0.886749 0.886258 0.868601 -2.573 1.39378 -0.765594 -1.76086 -0.501728 -1.78457 -0.268629 1.16841 -2.07291 0.117777 1.22698 -1.31182 0.0305828 2.96337 -0.0640404 0.881468 -1.51988 1.67418 -1.66104 -1.56436 1.14456 -0.517067 0.0178765 -1.05108 -2.20361 -1.35853 -1.2384 -0.142992 -0.362039 0.278805 0.989929 -0.907458 0.063136 -1.6741 0.557809 3.06359 -0.0904519 1.54159 -0.186956 0.238761 -0.831283 -0.145047 0.855907 -2.21315 0.0584117 -1.57131 0.237347 -1.46479 1.73214 1.00169 0.430253 -1.81712 -1.68438 -0.953994 0.145614 -1.13723 1.12661 -3.09568 -0.713993 1.99234 -1.14386 0.904006 1.90053 -0.629964 1.19652 -2.13709
Q131 3.36217 0.561593 1.97337 0.297919 -2.29066 1.67264 -4.74525 0.59189 -0.952382 6.78834 -3.10126 -2.37646 -4.74325 0.569771 -2.03168 3.09582 1.08166 -2.39876 7.37914 6.57217 1.14388 0.832741 8.2036 -2.79146 -0.0856762 -1.4521 -2.72986 1.25602 -3.00938 5.87374 0.977075 -3.02823 -0.856334 2.29064 0.417408 1.51335 -1.75782 -3.12588 1.95034 -1.24807 0.455334 1.50413 -0.681639 -0.156405 1.93573 0.853229 -1.36965 1.17565 2.74254 3.10925 -5.65194 0.792295 -1.88078 -3.62138 2.00239 -0.920959 -0.0863 3.60814 1.49947 1.94815 -4.00422 0.889692 0.661302 -4.16395 -1.37423 -4.6325 5.61875 -4.22389 -4.332 2.30337 -0.507836 -0.138146 -1.78588 0.451099 -3.41948 -0.959004 0.21525 -1.91915 -0.135487 0.529375 0.296663 1.03298 1.29913 -1.61479 2.48558 0.117275 -2.42643 -0.896834 3.55175 -5.62515 -0.468609 -2.32066 -0.831192 2.38836 -0.418029 2.93889 -0.195261 2.36782 4.86802 -2.34128
Q130 1.69143 1.5635 3.30576 -2.27973 -2.56947 0.556861 -5.00167 1.53026 -0.901927 5.46435 -1.96979 1.92162 -2.63596 0.121229 -3.86164 5.64531 -1.35406 -3.79363 2.82744 4.71008 -0.144139 2.24035 7.37301 -2.70226 1.04725 -1.8048 -4.17617 2.58433 -4.08786 3.4956 -0.0211727 2.04912 -1.67119 3.99161 -2.50075 0.84036 2.7128 -2.41265 2.23522 -2.42031 -2.403 1.53275 -1.87632 -3.10011 3.85114 -2.06995 -1.14589 4.04719 0.733632 4.69617 -2.24048 0.619919 1.81104 -2.78769 2.32399 -1.76411 0.534308 3.91287 -2.84033 2.12432 -0.856161 -1.42297 -1.54699 -1.40734 1.2311 -4.36977 4.46693 -4.36818 -0.606205 3.93453 -2.4467 1.4529 -4.0048 -1.41428 -2.82391 -2.18078 -0.849985 -6.03517 -2.88717 -0.928933 2.05567 1.95738 4.31306 -1.79077 1.7857 -3.75998 -0.084031 -3.06341 1.69116 -6.02802 0.564281 -1.53981 -2.61634 4.89541 -2.2413 3.22285 3.7786 2.02739 4.12222 -0.139576
Q137 -0.540414 -0.329847 0.891373 -1.23443 -2.12883 0.650396 -2.95513 0.619857 -1.37172 3.65766 -1.50167 -1.52583 -2.52954 0.349544 -0.427117 0.630237 1.3663 -1.60311 3.09365 4.2502 1.45795 0.574585 4.58487 -0.749606 -0.610543 0.45429 -1.42422 -0.487325 -1.62983 5.2446 0.60646 -2.47238 -1.06249 2.2482 0.902853 0.98746 -0.986177 -0.500367 1.13483 -0.812285 0.010833 1.58194 -0.900498 -0.171426 2.58999 -0.834301 -1.51981 0.693558 1.45023 3.12661 -2.40098 0.849541 -1.00423 -3.22015 2.25676 -1.01069 -1.43709 2.03161 -0.011813 2.09465 -0.517577 1.0253 -0.189457 -2.14465 -0.617562 -2.85046 3.02289 -3.95229 -2.10118 1.03463 -0.128708 -0.578074 -1.06286 -0.327217 -1.21138 -0.581716 -0.115676 -3.1128 -0.5253 0.637464 0.239691 0.232223 0.411942 -0.602305 0.406916 1.49685 -0.0184155 -1.94382 1.09984 -3.13258 -0.595283 -2.10214 -0.510553 1.48436 0.0829856 0.38721 -0.453841 1.48736 3.1358 -1.28221
Q136 4.45707 1.38292 3.51528 -0.913289 -0.966337 -0.292007 -0.202189 1.65997 0.25074 1.10935 1.6866 2.10191 0.809931 0.852318 -1.2873 1.84328 -1.84957 0.157846 -1.76607 1.34664 0.843003 1.00112 1.99552 0.854477 1.82387 -0.858499 -1.07768 0.982233 -0.901599 -1.56935 -1.10635 0.925168 0.169321 1.78256 -0.897053 -0.983308 -1.46858 -0.580758 0.109682 -1.7707 0.340745 1.82747 -2.47854 -0.044845 2.2437 -2.0887 0.559279 1.40406 -2.30447 0.0101107 0.219465 -0.599684 1.82715 -1.78609 1.3384 -0.656618 -1.03489 -0.517786 -1.7363 -0.537241 -2.76255 -1.1896 -0.438052 -0.482113 0.412694 0.323106 -0.312155 -0.983575 1.14169 0.76453 -1.07311 -0.435173 0.00324081 -1.3591 -1.17389 0.559974 -1.31556 -0.180837 -0.105091 -1.03924 1.95654 0.0215374 0.724053 -1.11215 -0.369998 -2.26948 -1.16755 -1.30583 2.7239 1.10474 0.654439 -2.13932 -0.0301525 2.0234 -1.70059 1.10023 1.13647 0.667281 -0.0380094 0.375123
Q135 0.334231 0.904836 2.57361 -1.40928 -0.0906615 0.150086 -1.6458 0.811865 -0.967309 1.69019 -0.0688344 1.51033 -0.393948 -0.970048 -0.0115385 1.50749 -0.434191 -0.927985 1.10543 1.87362 0.781779 0.805004 2.88463 -0.755881 0.14756 -0.92692 -0.591216 0.0785333 -2.11647 2.10497 -0.0632153 0.375382 0.233716 1.61243 -0.770255 -0.0978735 -0.117804 -0.992758 -0.315596 -0.415092 -1.11557 0.67386 -1.4863 -1.44463 1.09587 -1.12391 -0.274672 2.67074 0.863594 1.5008 -1.90285 0.452352 0.653256 -1.14168 0.832048 -0.263192 0.376811 0.764095 -2.32936 0.600268 -0.695561 0.510758 -0.523801 -0.476654 0.365427 -0.899487 1.30685 -2.11589 -0.601629 1.36772 0.0260092 -0.104591 -0.272513 0.595139 -1.79518 -1.05495 -0.100427 -1.63883 -0.953858 0.97183 -0.37756 -0.013091 1.79444 -0.636245 1.1434 -0.787653 -1.18368 -0.333431 -0.498271 -2.04438 -0.0682124 -1.422 -0.851476 1.40548 -1.65139 0.340962 1.18769 0.762151 1.86906 -0.993533
Q134 4.70633 2.9737 1.35023 -0.402732 1.34863 -2.69035 -4.02584 0.621657 2.25905 3.06182 -2.84444 2.05365 -1.8398 2.86416 -3.70992 4.91891 -1.99485 -1.36305 3.82092 3.70395 0.905045 0.146255 8.79357 -0.453057 0.15256 -1.79102 -1.58067 -1.5036 -3.44058 2.49449 -1.47437 -1.10031 -0.143227 3.01676 -1.41447 0.216104 -2.20398 -1.27001 0.139904 -3.1334 -0.950461 0.836115 -1.58109 0.364724 3.23882 -4.89895 -0.522339 4.7679 1.65967 3.17201 -2.64135 0.438566 0.199988 -1.23391 1.14295 -0.151323 -0.35325 -0.784244 -1.64761 2.32581 -3.46271 -1.25682 -1.39959 -2.77823 1.14359 -1.14618 2.99534 -3.70283 -5.30503 1.58364 -0.298234 1.07743 -3.43181 1.16475 -2.43697 -3.04762 2.04032 -1.4592 -1.49295 0.678333 1.27479 0.558765 3.58089 -3.71937 6.66759 -0.0445373 -1.93472 0.591656 2.94739 -6.05126 1.04749 -3.96421 -1.28135 2.7398 -1.98411 2.19421 -1.3214 0.383181 4.71956 -2.19913
Q20 0.536288 0.440586 1.64686 0.107823 -1.28102 1.42952 -1.65046 -0.138576 -0.561563 2.98435 -2.16996 -0.644647 -0.65725 -0.102453 0.184714 1.91335 0.487922 -0.0221105 2.99725 2.56963 -0.483058 -0.438903 4.27862 -1.45323 1.01844 -0.441707 -1.34622 0.253082 -2.87961 2.75898 1.86091 -0.632524 -0.764131 1.4648 -1.76689 -0.575845 -0.483764 -1.82494 0.674083 -0.209864 -0.148214 0.821327 -0.767548 -1.6007 0.966548 0.402635 -0.843647 1.23691 1.56103 1.08194 -1.60602 0.748059 -0.208377 -2.24658 0.692663 -1.66929 -0.968808 2.35524 0.92107 0.895608 -2.84675 0.262469 0.0754618 -1.37026 -0.633025 -3.11399 0.863571 -2.04345 -1.78237 1.37556 -0.037853 0.134152 -1.05705 1.56203 -1.13776 -1.17761 -0.632956 0.312543 -0.594899 1.53104 -0.0650815 1.32854 0.987659 -1.71061 1.32056 -0.586894 -1.40069 -1.98345 0.0765244 -2.52216 -0.588958 -0.653431 -0.864093 0.823069 -1.05701 0.088714 1.50524 0.77839 2.99959 -1.60397
Q21 3.13704 0.251984 0.936684 -1.83191 -1.90609 -0.745727 -1.81162 -0.692806 -1.25117 3.07357 0.652597 2.01763 -1.7445 1.33955 -2.0225 0.927023 -0.203365 -1.50063 2.54426 1.54615 0.122375 -0.141861 3.11455 0.597389 -0.242276 -0.97259 -1.40687 -0.0439311 -0.778283 2.7311 -1.78066 0.821123 -0.503431 1.36129 -1.77338 1.15393 -1.1553 -0.673879 1.47529 -1.17297 -1.24354 0.575854 -1.40709 0.0918701 1.68277 -1.06707 -1.29034 1.16903 0.612149 2.76611 -2.82211 -1.62821 -0.167755 -2.70511 0.182191 -1.58452 0.940164 1.70359 -1.47807 0.0209208 -2.09872 0.139727 -0.199623 -0.857056 0.893967 -0.344336 1.64104 -2.32766 -0.991378 1.67366 0.553242 0.0524556 -1.76342 -2.25784 -1.44119 -1.58859 1.63359 -1.9221 -0.690081 -1.3284 2.43255 -0.058376 1.34714 -2.37257 2.15893 -1.52439 -0.0161172 0.0788028 1.78759 -4.18453 -0.400311 -1.96541 0.981551 0.883038 -1.52453 1.82389 1.2914 0.482448 1.52707 -0.557917
Q22 0.930667 0.2638 0.278594 1.72595 -2.66496 2.6027 -3.41863 -0.930606 -1.17122 4.57166 -3.85066 -1.5819 -3.32564 -0.175231 -1.58812 2.0157 0.578193 -0.0288053 6.31403 4.82758 -0.13153 0.589503 7.35957 -2.53931 0.682545 -1.37321 -2.0849 -0.0940481 -3.72644 4.69062 1.91554 -3.20728 -0.813758 1.38539 0.531448 -1.15532 -1.76176 -2.81908 0.0509766 -0.745549 1.17826 1.72428 -0.00212927 -0.316758 1.08428 1.33576 -0.967259 1.37603 3.03505 2.24824 -3.96964 0.221957 -0.30662 -3.30069 -0.130025 -0.394019 -0.0626341 2.23256 1.38242 2.88 -3.61709 0.289348 0.442492 -2.92405 -1.44055 -5.62753 6.59648 -2.96084 -3.91737 1.7879 -0.623666 -0.844445 -1.06648 1.3079 -3.44365 -1.59024 0.15845 -0.968035 -1.2389 0.841299 -0.24891 2.17169 0.806666 -2.02156 1.7531 -0.0459406 -2.49618 -1.82723 3.2471 -4.92529 -0.754494 -1.48051 -1.12247 1.801 -1.16738 2.33852 -0.957956 1.27985 3.90312 -1.59519
Q23 2.28704 2.59693 0.453816 -0.851244 -2.389 -0.586776 -3.07013 0.526466 -0.249772 -0.298873 1.19594 3.10196 1.38744 -0.85368 -2.10575 4.37246 -0.298743 -1.9265 0.0539692 2.99104 1.64235 -0.547146 3.22375 -1.8535 0.354709 -1.8216 -2.76629 -0.247332 -2.3653 1.57076 -3.8289 2.59406 -1.66368 1.29068 -4.03354 -1.8424 -2.23173 -0.432729 0.684066 -1.37688 0.605038 0.34039 -0.548042 -3.76995 3.22694 -0.263467 -1.25485 2.19979 1.43135 3.05212 -1.72019 -1.55644 1.8946 2.44272 -0.964509 -2.22536 0.240118 1.83941 -1.79447 0.169393 -2.74745 -0.55723 -0.313755 1.82787 0.581611 -3.23604 0.26186 -2.40947 0.144443 -0.107933 -0.0538009 2.59886 -1.1292 -1.52276 -1.80795 -5.07023 1.41874 -2.568 -2.42215 0.854804 1.08448 -1.75327 2.2307 -2.45305 1.57748 -2.99506 -1.32475 -0.905289 -1.26745 -7.02159 0.858563 2.44998 -0.851499 2.93881 -3.8333 1.28271 5.75215 -0.657599 3.0134 -1.13109
Q24 1.69589 0.312026 1.24541 -1.05678 -1.01167 -0.707977 -0.706854 0.363671 0.603655 2.03975 -1.89705 1.96825 0.378202 -0.171476 0.0712825 1.67843 -1.17977 -0.29257 1.91358 0.957271 0.11732 -0.169599 2.12768 -0.627886 -1.21241 -1.70131 -1.05214 0.409833 -1.64633 1.40906 -1.37068 0.558224 -1.12205 1.05817 -2.58422 -0.712658 0.773783 -1.03126 0.751568 -0.624154 -1.27631 1.0206 0.28944 -0.499466 0.707919 -0.652018 -0.766564 2.22182 0.440184 1.36701 -1.81392 -1.25057 0.11032 -1.30402 0.629783 -0.64055 -0.0430642 1.31907 -0.540225 -0.557232 -1.95461 -0.745967 0.603326 0.508509 1.23669 -0.540143 -0.0963373 -2.16618 0.174219 1.26917 -0.481908 0.207531 -1.71652 1.32295 -1.85858 -1.06088 0.732459 -0.282864 -1.19027 0.475433 0.403841 0.682613 1.936 -2.0649 1.74629 -1.81871 -1.50143 -0.297529 0.0870624 -3.14355 -0.269487 -0.249916 -0.716942 1.02065 -1.44754 0.742379 2.15061 -0.384334 0.79323 -1.06614
Q25 0.312168 0.47352 0.432697 0.44097 -0.935876 1.09255 -2.79081 0.992674 -1.0857 2.99503 -1.88126 -1.22816 -1.0239 -0.134551 -0.507182 2.18897 0.731263 -0.630644 4.11497 2.96866 0.414371 0.405235 4.97967 -1.37335 0.357863 -0.992156 -1.51782 -0.807498 -2.51894 3.13726 0.553444 -1.21327 -0.0256573 1.48002 -0.712703 0.0103257 -0.275869 -1.81335 0.850078 -0.528633 0.884929 1.14434 -0.457041 -1.8955 0.995833 0.604056 -0.899974 1.60269 2.13321 1.66331 -3.20746 -0.119075 -0.58132 -1.24552 0.573093 -2.00888 -0.503727 2.3683 0.887403 1.25144 -2.62189 1.1208 -0.165884 -2.03711 -0.925596 -3.46909 2.46516 -2.89935 -2.35878 1.1661 -0.280198 0.286218 -0.481821 0.689695 -1.78246 -1.58136 0.259468 -0.583507 -0.431997 0.751199 -0.128523 0.190281 1.08648 -1.53431 1.80228 0.156311 -1.72624 -0.747466 0.73949 -4.03608 -0.714855 -0.912564 -1.0146 1.6664 -1.0195 1.36941 0.752319 0.762452 2.71767 -1.41949
Q26 0.900781 0.15118 1.59016 -0.845486 -1.78149 0.335227 -0.721176 0.472069 -0.475508 2.25665 -1.01791 0.1263 -0.123964 -0.577015 -0.601678 0.75889 0.407501 -0.307626 1.62558 2.16707 0.378894 0.809804 2.76754 -0.49693 -0.0257606 -0.777104 -1.69082 0.293878 -0.875021 2.64542 0.191163 -0.211926 -0.739361 1.20502 -1.49137 -0.792496 0.401796 -0.945905 0.727356 -0.615663 -0.0886344 0.857649 -0.200853 -1.25506 1.46798 -1.07738 -1.45889 1.14092 1.23727 1.73206 -0.836203 0.372257 -0.0164802 -1.25876 1.00249 -1.14567 -0.501664 0.680402 -0.442382 0.499065 -1.01372 0.392742 -0.119968 -0.330992 1.04521 -1.90431 1.23131 -1.96428 -0.885501 1.277 -0.618962 0.208414 -1.38189 -0.0347775 -1.03852 -1.39353 -0.308283 -1.30822 -1.02202 0.184997 0.619405 0.525718 1.42476 -0.989918 0.0214553 -0.724256 0.146915 -1.47108 0.521323 -2.87703 -0.030796 -1.09961 -1.02874 1.32341 -0.965842 0.231164 1.70721 0.400638 1.97073 -0.823105
Q27 1.52038 0.527551 -0.418421 -0.405856 -1.0193 -0.320172 -1.29987 -0.168165 -0.154493 0.487882 0.341216 1.73951 -0.558784 -0.0260265 -1.27968 1.24318 -1.55182 -0.259088 0.26982 0.420024 -0.527256 0.421229 0.331853 -1.19839 1.05718 -0.323921 -1.16743 0.498252 -1.79848 0.804936 -0.420594 1.37041 -0.617636 0.393381 -1.36878 0.974512 1.0957 0.119693 0.0173624 -1.09311 -1.20835 0.29889 0.423186 -0.447697 1.18465 0.209258 0.195409 0.926357 -0.791892 2.01351 -1.0138 -0.00647507 0.0710237 -0.811825 -0.479925 -1.28475 -0.00930497 0.501422 -0.552196 0.100871 0.101004 -1.37551 -0.974835 -0.0792065 0.647374 -0.550423 -0.0433051 -0.67808 0.15654 1.56554 0.141917 1.32068 -1.57611 -1.11761 -1.0977 -1.41885 0.714797 -1.542 -1.19335 -0.913576 0.59725 1.2131 1.61868 -0.412404 0.82792 -0.690116 -0.253145 -1.00098 -0.181209 -1.38438 1.07172 -0.699401 -0.56645 1.44272 -1.31936 1.0625 1.73901 0.100152 0.79151 0.152606
Q28 1.89323 2.36228 1.58375 -0.647574 -2.40517 0.314902 -1.88086 -0.344796 -3.16161 6.10548 0.114072 4.24705 -3.79801 -1.50204 -2.53364 5.02739 -1.80377 -1.68101 2.29661 1.92654 -3.50477 -1.79178 4.3204 -3.02444 -0.361998 -2.65437 -1.20059 0.93163 -3.2253 5.44485 -0.218043 0.247498 -1.17596 3.08168 -4.31265 1.41775 1.71527 -1.09541 3.04634 -1.67358 -1.85503 -1.82884 -1.8413 -1.45954 3.24298 0.552255 -2.71909 1.69508 -0.11385 3.12256 -4.11306 0.528253 -0.95261 -3.08818 -1.18272 -4.00928 1.16695 2.66037 -1.50655 -1.027 -2.75506 -0.874701 -0.114098 -2.58506 0.981455 -2.82103 1.69104 -2.53194 -1.22473 1.77316 0.519592 3.2544 -4.64696 -2.09254 -1.01897 -0.602754 0.118411 -4.42004 -2.48287 0.0135493 1.66133 1.24379 3.23778 -2.15822 2.07318 -1.71869 -0.751203 -0.456182 -1.24851 -5.49602 1.37035 -1.22393 -0.101599 1.99286 -1.57761 1.61663 6.41941 1.18203 2.55339 -1.40178
Q29 1.09673 0.405444 0.717673 -1.44034 -1.07779 -0.529778 -1.19593 1.05778 0.972461 1.425 -1.80825 0.401585 -0.864959 0.122673 -0.429698 1.64504 -0.0779842 -0.941018 1.86013 2.17411 0.721081 0.66857 2.17985 -1.13766 -0.595507 0.0809077 -0.516514 0.3928 -2.70352 1.64655 -0.629617 0.281573 -0.643435 0.942336 -0.365992 0.0671835 -0.333522 -1.12901 0.789193 -0.848514 -0.592032 1.36232 -0.266065 -0.331585 1.58856 -1.15105 0.112776 1.13195 0.506212 1.00196 -1.50212 -0.0732052 0.360078 -0.618632 1.14899 0.788603 0.345904 1.35427 -0.88056 0.227444 -0.260277 -0.996606 -0.192267 -0.218582 -0.31899 -1.91352 0.646062 -2.28802 -0.0574196 0.896977 -0.310059 -0.29609 -1.19346 0.950026 -1.87816 -0.98632 0.20912 -0.479645 -0.669942 0.601767 0.0827462 -0.151654 0.975027 -1.05126 1.44998 0.0410764 -0.332962 -0.149443 1.40114 -0.740131 0.15755 -0.88163 -0.495088 1.60711 -0.572646 0.940226 0.648826 0.701855 1.86491 -1.46914
Q188 5.82282 2.22796 1.70713 -2.2194 -4.63503 -4.02886 -1.55052 0.846857 1.65586 5.19316 -0.526272 2.85722 -0.367573 -1.6482 -1.46716 7.79681 0.623525 -3.09108 4.22318 1.4605 1.61445 0.280279 6.14178 -3.37863 -1.2842 -3.02722 -2.02555 4.2313 -8.47384 4.56297 -0.0811909 -1.29331 -1.80458 5.0327 -4.73995 0.470837 -3.28775 -3.42587 2.0674 -5.23526 -5.34128 5.02523 -1.46422 -0.0947861 3.95166 -1.05904 0.711593 4.41201 2.76533 4.92181 -4.70302 -1.86983 1.16357 0.129788 -0.701444 -3.93017 -1.6146 1.81383 -2.55618 4.45924 -2.92437 -0.243696 -5.86162 2.04174 1.55913 -2.77868 0.164753 -6.89868 0.818793 3.60044 -0.645885 0.0962591 -4.39738 -2.00733 -8.42398 -6.40755 0.951713 -0.660787 -4.46744 2.14292 -0.49491 4.31861 3.73984 -5.8434 5.41384 -0.332211 -0.410493 -0.192945 1.53206 -4.37864 1.55476 -1.96186 -1.26685 4.17411 -2.73249 -0.751066 3.01271 -1.18808 3.74978 -2.90706
Q189 2.40148 1.91551 1.77048 -0.913658 -2.49487 -1.27078 -2.14355 1.10286 0.93692 2.17332 -2.81826 0.423116 -0.263266 0.809918 1.60188 1.97626 -1.12386 0.0118233 2.31612 3.1077 -1.64324 0.248361 2.44554 -2.35634 0.633293 -0.571957 -0.0321786 -0.666021 -3.95049 1.25717 -1.09584 -0.227545 0.243706 1.27906 -1.46188 -0.395517 -1.12432 -1.29666 0.0648151 -0.740104 -1.07814 1.91388 -0.166458 -1.28217 1.58739 -1.29776 0.968416 1.27482 -0.0440697 0.710334 -1.24798 0.132422 -0.387833 -1.77012 0.658843 -2.06487 0.569934 1.99987 -1.2251 0.702142 -1.36149 -0.9045 -0.798851 -1.14953 -0.278784 -2.49775 -0.159899 -1.91955 0.313392 1.87543 -0.253019 -0.215908 -0.975132 2.69363 -2.68695 -1.54079 -0.0305698 -0.570388 0.342431 0.814046 0.228741 -1.15547 0.566253 -0.851255 2.45274 -1.20207 -0.481931 -0.102425 1.5697 -2.37651 -1.06419 -2.26989 -1.26409 2.17134 -1.15708 0.402296 2.06619 1.30282 2.97769 -1.38662
Q186 0.678237 0.669799 0.60604 -0.282507 -0.0486107 0.249386 -1.17125 0.308605 -0.144356 0.865475 -0.696707 -0.088192 -0.153055 -0.299915 -0.893987 1.38262 -0.186983 -0.401075 0.541825 1.59249 0.638013 -0.0298458 2.32597 -0.13517 -0.129927 -0.883058 -0.221409 0.0423536 -1.04475 0.800151 -0.680033 0.136503 -0.425928 0.766445 -0.92487 0.248669 0.412654 -0.722844 0.368804 -0.802635 -0.0208169 -0.680921 -0.39142 -1.25823 0.469685 -0.052 -0.524775 1.18466 0.198536 0.800168 -1.13021 0.0223901 0.682632 0.80253 0.607073 -1.04234 0.0357156 1.25417 -0.239284 -0.0170296 -0.766549 0.105748 -0.01805 -0.325414 0.132638 -0.761736 0.402111 -1.82404 -0.34601 0.366149 -0.64907 0.451482 0.239732 0.0299288 -0.308483 -0.156408 -0.445906 -0.69639 -0.258147 0.488459 0.436301 0.011708 1.24862 -0.716484 0.903039 -0.877372 -0.791654 -0.166642 0.347437 -1.92247 -0.0383367 0.304644 -0.314727 1.22495 -0.896105 0.674724 0.770476 -0.0136717 0.926774 -0.781563
Q187 8.36445 0.953059 2.59839 -1.83413 -3.38663 -3.12983 -1.89091 3.17086 -0.874221 5.16663 3.29761 4.19839 -0.132228 -1.17821 -1.58262 6.04559 -1.1402 -3.0013 0.653604 1.31553 1.82325 0.855342 6.23766 -4.86784 -1.9309 -3.52311 -5.88649 1.61853 -2.39245 4.49057 0.540278 -0.983018 -2.62726 0.959584 -4.01555 2.98951 -2.2516 0.896872 0.863764 -2.69104 -4.62254 5.76006 -1.99679 -1.09557 4.56286 -2.59732 -1.4292 3.52547 1.64953 6.06432 -3.40987 2.39774 -0.826276 -5.90559 -0.490448 -6.4537 -2.08216 -0.235995 -6.16709 4.73128 -2.74718 0.680396 -5.65968 -1.76707 4.28099 -2.19267 0.698942 -0.252776 1.25592 6.24242 -1.84479 1.92153 -3.57922 -1.94466 -8.50247 -3.17893 4.0775 -5.3538 -2.68934 1.26748 0.48591 1.79651 5.74986 -2.13334 4.6229 -1.87461 -0.22625 -1.91533 3.00561 -5.5636 0.257472 -6.86765 -2.52285 4.82708 -1.90607 3.49019 4.64012 2.9476 4.10179 0.922598
Q184 3.56473 0.950088 3.40235 -2.07913 -1.30313 -0.634409 -2.93401 1.53463 -0.483578 3.23971 0.797214 1.2629 -1.12553 -0.108632 -1.71093 3.43893 0.360608 -2.77013 1.92937 3.47365 2.36372 -0.188249 6.81524 -1.09681 -1.27372 -1.85665 -1.54019 0.904486 -2.46607 2.66002 -0.200654 -0.246632 -1.96418 2.11286 -2.67159 0.488092 -2.76756 -3.07228 1.55799 -2.20975 -1.5184 0.930427 -3.32862 -1.40746 3.01454 -1.43208 0.341368 4.07602 1.748 2.41806 -2.71583 0.424329 0.697493 -2.32731 0.0683781 -0.759745 -0.0452641 2.16479 -3.49863 1.71926 -3.84177 0.850461 -0.00491888 0.110199 1.39694 -1.35501 2.26652 -4.3946 0.10009 3.47849 -1.13761 -0.577321 -1.07677 0.178831 -2.59349 -1.04511 -0.599705 -3.1683 -0.16856 1.26199 2.6616 -0.42241 3.19866 -2.68005 3.17052 -1.93679 -0.703117 -2.0711 1.47441 -4.578 -2.12472 -2.85437 -0.922363 2.80694 -1.74445 0.428979 2.41547 0.25019 2.94524 -1.0263
Q185 3.10811 0.940584 1.53691 -0.867274 -0.220303 -1.45901 -1.58824 0.563053 -0.540771 1.16334 0.339667 1.51719 0.245038 0.444847 -1.31308 1.52148 -1.29498 0.159576 0.493022 1.95104 0.741134 0.308444 3.21749 -0.0254565 0.14798 -0.943816 -1.54697 -0.628163 -1.30672 0.607034 -0.93561 -0.763629 -1.07853 1.5602 -1.11467 0.670828 -0.650615 -0.0936821 -0.728453 -1.50069 0.534936 0.685642 -1.59699 -0.599263 1.99745 -1.82361 -0.826189 2.4838 -0.0691721 2.01421 -1.41268 0.407337 0.352626 -1.39838 0.690177 -2.5956 -1.11709 -0.424206 -0.849478 1.21552 -1.92055 0.0453018 -0.187597 -0.866623 1.28534 -0.424951 0.850291 -1.68286 -0.802513 1.01283 -0.28315 0.36811 -0.490542 0.0657121 -1.55216 -0.523377 -0.086201 -1.74053 -0.151123 -1.11276 1.11662 -0.759412 1.88476 -1.31519 2.47747 -0.62748 -0.735938 -0.2306 1.8946 -2.75032 0.545427 -2.31734 -0.795452 1.45131 -1.42468 0.689846 -0.197211 0.550777 1.54171 -1.41721
Q182 0.330167 0.895296 1.2594 -2.00096 -0.551153 -0.673506 -1.12417 -0.930314 -0.0935325 1.43133 0.0567877 1.92133 -1.41664 -0.194969 -1.8705 1.84302 0.724419 -2.18651 0.915015 2.7713 0.900161 0.028258 2.9317 0.306442 -0.78132 -0.373168 -1.31293 0.0988843 -0.682861 1.85754 -1.65005 0.50938 -0.228663 2.01835 -0.614512 0.905423 -0.958187 -0.17712 1.06795 -1.47905 -0.257394 0.581321 -0.780765 -0.894934 2.08086 -1.81275 -1.19045 0.859433 0.32508 1.32847 -1.17455 -0.465075 0.762517 -0.799636 1.37977 -0.398036 0.980945 1.56688 -2.38881 0.543261 -0.17925 -0.175424 -0.506987 0.00947445 -0.0567823 -0.700404 1.11954 -2.08532 -0.54396 -0.422844 0.0699454 -0.501934 -0.148527 -1.3625 -0.779954 -0.189557 0.29949 -1.33755 -0.07086 -0.250023 1.61766 -1.28805 1.11122 -0.902067 1.26832 0.152833 -0.138336 0.927808 1.32476 -2.11086 -0.166908 -0.349458 -0.329445 0.848557 -1.24255 0.644412 0.789774 1.53547 1.90748 -0.603387
Q183 0.603069 -0.0404477 3.3088 -1.27726 -6.36224 2.17689 -4.41887 1.13147 -2.39482 8.50556 -4.20239 -2.77046 -2.62159 0.185231 -0.565646 2.46338 2.27173 -1.75933 7.42131 8.11787 1.23041 1.1732 10.085 -3.26468 0.87743 -0.494198 -3.29549 0.037007 -4.98652 9.79865 1.08443 -3.53071 -1.27493 4.66289 -0.539246 0.363853 -1.65586 -3.38248 1.33338 -0.862558 0.680569 4.07136 -2.09189 -2.20565 3.42783 0.423785 -2.90033 1.26119 4.54744 5.02742 -5.17462 -0.191902 -0.4151 -4.41739 3.56452 -5.44893 -2.07599 5.38574 0.332008 3.96967 -2.61798 2.70236 -0.676842 -5.60652 -0.743093 -8.3845 5.01794 -7.70798 -4.93302 2.0808 -0.182041 -0.862153 -1.62706 -0.137499 -3.8471 -3.22971 -0.481069 -2.8643 -1.81503 1.5671 0.772372 1.59711 0.940548 -2.76142 2.93684 0.849899 -1.86729 -4.73111 2.71402 -6.33954 1.11294 -3.00587 -1.45397 2.8954 -1.80657 1.38167 2.05695 2.59605 7.39391 -4.32622
Q180 1.74298 0.435316 1.91053 -1.15784 -0.206102 -0.794169 -2.13925 0.7999 -0.221954 2.37582 -1.04035 0.48408 0.110627 0.601594 -0.370194 2.39134 -0.0323722 -1.4027 1.81378 1.459 0.349096 0.115126 3.43954 -0.597748 0.0527839 -0.966388 -0.94672 -0.158932 -1.35058 2.42724 -0.783445 0.158108 -0.350337 1.49209 -1.23798 -0.149012 -0.404218 -0.773296 0.3958 -0.963981 -0.416285 1.22235 -1.51876 -0.488543 1.63855 -2.10759 -0.519692 1.30218 1.10722 1.24736 -1.09144 0.117456 0.320488 -1.48445 0.901257 -0.468879 -0.519057 0.881063 -1.15582 0.713861 -1.19226 0.30105 0.125947 -0.582601 0.425226 -0.52308 1.05274 -2.22839 -1.23139 0.93167 -0.56435 0.0269109 -1.57936 0.131861 -1.46517 -0.698166 0.456962 -0.916329 -0.574807 0.714543 0.346397 0.00936853 1.7821 -1.42545 2.13123 -0.382837 -0.61197 -0.692036 0.89583 -2.11046 -0.316881 -1.70995 -0.465126 0.875554 -0.530073 0.476291 0.377969 0.174192 1.89274 -0.846436
Q181 2.61031 0.831226 0.523834 0.948942 -0.932147 2.29867 -2.82647 -0.096443 1.19153 6.6758 -6.15881 -1.16831 -2.69533 0.484174 -0.49958 2.47578 -1.12352 1.28146 5.48565 3.09249 -0.906249 0.406583 6.60496 -1.72577 0.623151 -2.21137 -0.936624 -0.62936 -2.2569 5.29174 2.00886 -2.95712 -0.920943 0.0460084 0.330433 -0.74679 0.103187 -1.00524 -0.296985 0.333936 0.0193309 3.13387 -0.73742 0.280914 0.992698 -1.95288 -0.144119 2.0397 1.48218 4.21386 -4.13772 0.0184283 -0.280535 -4.71968 0.970886 -3.24625 -1.46277 1.3669 0.442687 2.47266 -4.18395 -0.600603 -1.01953 -3.5288 -0.468398 -3.35997 2.7544 -2.94971 -3.70841 1.8866 -0.608333 -0.588498 -2.54705 2.64065 -1.72515 -0.866549 -1.04876 1.07684 -0.86912 2.63624 -0.833278 2.15285 1.1537 -2.23633 2.52213 0.399361 -2.11719 -1.32934 2.80737 -4.58824 -0.623112 -2.72617 -1.13496 0.487877 -0.841169 1.32368 -1.242 1.47048 4.43918 -1.68299
Q106 0.77386 0.402486 2.64725 -0.256063 -1.30729 0.604518 1.2601 1.57796 -0.315396 1.59831 -1.99025 -0.231769 2.75468 -0.194927 -0.218212 1.52427 1.30543 0.281773 1.01736 3.80059 -0.775003 0.080947 3.86358 -0.638664 -0.453871 -1.03029 -1.36941 0.70662 -1.77081 -0.206945 1.44077 -0.126706 -1.64753 1.84111 -3.40518 -2.1085 -1.09227 -1.70959 -0.0714098 -0.719037 -0.492197 0.427123 -0.687964 -2.13542 1.96261 -1.22588 -0.110548 1.52595 1.3447 -0.656691 0.306992 0.551562 0.796631 -0.164584 1.12827 -1.20962 0.424634 2.50474 -0.00399908 -0.896583 -2.75481 0.299056 0.46944 -0.233229 0.771369 -3.41876 -1.23666 -1.66634 -0.328995 2.59418 -0.241348 -1.34408 -0.545597 1.99921 -1.90187 0.0535643 -0.929255 1.86967 -0.716925 1.1379 1.64536 0.462728 2.28601 -1.29824 0.31321 -2.15361 -0.247007 -1.92247 1.69441 -0.593273 -1.08172 -0.670723 -1.40401 1.71855 -1.472 -1.14703 2.44935 0.727528 2.27043 -0.84002
Q107 2.54859 1.00571 2.12747 -1.19969 -1.14345 -0.163813 -1.89175 0.764059 -0.115562 1.94806 -0.472149 0.528004 -2.18256 -0.342869 0.0143301 2.20861 -0.67456 -1.85466 1.85965 2.86227 0.509124 0.536038 3.55416 -0.943659 -0.320289 -0.528146 -0.726408 0.670877 -1.95834 2.43104 -0.783877 -0.193181 -0.205452 0.715329 -1.15063 1.71349 -0.879082 -1.18111 1.58887 -0.752735 -1.99809 0.719737 -0.636319 -0.871951 0.619706 -0.093162 -0.37519 1.8802 -0.0644905 0.373857 -2.06738 0.0718614 -1.22585 -1.70178 0.626843 0.0780118 -0.17417 1.60091 -0.959043 0.10537 -1.62378 -0.451728 -0.585854 -1.64903 -0.503524 -1.2384 1.1189 -1.95036 -0.318835 2.10119 -0.498471 0.378675 -1.0208 0.477779 -1.57724 -0.399904 0.706805 -0.965017 0.802902 0.722774 1.19224 -0.119599 2.14504 0.103459 0.651092 -0.733884 -0.347609 0.720375 0.163036 -1.99103 -0.392293 -0.68823 -0.661936 1.76861 -0.977171 1.33982 1.81931 1.15388 2.33069 -1.42273
Q104 1.53652 0.486377 2.00095 -1.07067 0.277605 -1.03851 -0.290669 -0.591856 -0.0085525 0.451276 0.543583 1.81468 -0.090453 -0.563201 -1.4002 1.08717 0.0599255 -1.08163 0.165061 0.432109 0.229877 -0.483553 0.842754 0.747694 0.245951 -1.13689 -1.27962 0.452207 -0.564359 1.20175 -0.464679 0.925158 0.452372 0.324459 -1.51466 0.0740026 -0.0176758 -0.996155 0.142703 -1.0383 -0.192873 -0.845251 -1.22264 -0.446649 0.906773 -0.752363 -0.36696 0.792062 0.104355 0.550603 -1.07259 -0.00728673 0.407093 -0.512204 0.0816925 0.0368457 0.254506 0.25138 -1.34591 -0.508303 -1.33164 -0.734152 0.957806 0.341362 0.616832 0.973586 -0.514275 -1.35665 -0.259578 0.119906 -0.367962 0.35324 -1.0727 -0.872556 0.363963 -0.234117 0.168393 -0.996767 -0.857967 -0.774168 0.357421 0.154145 1.06622 -1.50846 2.18339 -1.13067 -0.051185 -0.141 0.838422 -0.828764 0.821615 -1.07644 1.16965 1.01212 -0.639662 0.0140506 1.60339 -0.174175 0.503652 -1.16135
Q105 1.21722 1.21949 1.64937 -1.1826 -2.23908 0.711783 -2.56435 1.49579 -0.624601 4.53979 -2.21512 -0.971364 -2.34101 -1.1969 -1.10098 3.03793 1.29169 -1.84628 3.15433 4.93541 0.919418 0.950751 5.51689 -1.90258 0.103585 -0.650115 -2.06522 0.802134 -2.57387 5.25742 0.182097 -0.761094 -1.04797 2.35317 -0.730298 0.990767 -0.808487 -1.7947 1.84705 -0.960943 -0.282723 1.30688 -0.552769 -1.82819 2.3191 -0.209359 -0.966666 1.45627 2.26001 2.94887 -2.93186 0.26859 -1.17037 -1.82585 1.7869 -1.57556 -0.481494 2.92917 -1.02013 1.52398 -1.44163 0.765869 -0.369289 -3.1655 -0.133632 -4.19443 2.32476 -3.71343 -1.65751 1.78442 -0.441637 0.311126 -1.6185 0.286985 -2.19171 -1.91286 -0.252711 -2.61558 -1.03199 0.305675 0.724582 0.77017 1.71923 -0.701198 0.901351 -0.159341 -0.705422 -1.75193 1.17581 -4.16539 -0.279525 -1.50605 -1.64797 2.38213 -1.24739 1.66184 1.45702 2.47803 3.9368 -2.13142
Q102 4.49558 0.0391067 3.31446 -2.41944 -3.56139 -0.983794 -1.87585 0.525508 -1.19064 1.41562 1.1626 3.37719 0.662957 0.0105082 -1.2106 1.73039 -3.1335 -0.210969 -0.138907 1.34226 -0.519954 1.61487 2.61197 -0.47523 1.73496 -1.39173 -3.32759 0.438669 -2.41322 1.64209 -0.745083 1.29599 -1.23014 2.35886 -3.18258 -0.17216 -0.0219457 -0.332403 -0.182403 -2.49669 -1.26871 3.28389 -1.80872 -0.948345 1.85008 -1.94033 -1.09765 1.96101 -0.680293 2.8299 -0.940502 -1.01289 0.967351 -3.07627 1.53357 -2.5412 -1.0992 0.478633 -3.249 1.06077 -1.44732 -1.50544 -2.39513 0.369462 2.23961 -0.952719 1.48547 -1.84343 1.31827 2.4723 -0.804051 1.11597 -1.56491 -2.09394 -2.98519 -1.60283 0.286943 -3.26413 -1.42745 -1.36131 1.75707 1.35991 2.5222 -1.3167 0.601551 -3.33372 -0.151484 -1.35588 1.51218 -2.86414 2.51206 -3.11826 -0.723996 2.86599 -3.23267 1.68292 3.26732 -0.00931097 1.60585 -0.536522
Q103 2.81605 -0.0940302 3.36281 -0.999153 -0.207244 -1.24925 -1.31474 2.10563 -0.941733 1.36079 -0.849735 0.913436 -0.558845 -0.989423 -0.217882 1.06962 -1.91643 0.0332475 -0.55393 2.68978 0.0427491 0.186835 3.5535 -1.12819 0.717043 -1.19201 -0.493255 -0.408923 -2.49175 2.60194 1.1988 -0.667277 0.142599 1.34294 -2.00499 1.25784 -0.683763 -2.10877 0.552293 -1.65509 -1.28961 0.602401 -1.43096 0.0199663 0.968345 -0.571504 0.848137 3.13144 0.715306 1.6359 -1.85523 1.39717 -1.54725 -1.81929 1.37994 -0.823034 -0.790991 0.291147 -1.66431 0.069469 -1.68601 -0.454361 -0.272682 -1.59571 1.59489 -1.25659 0.938134 -2.79712 0.194051 3.25366 -0.447188 1.25485 -0.353394 1.46243 -1.26772 -0.587776 -0.0755511 -2.80998 0.0134404 0.069781 0.00868265 -0.366448 2.55297 0.335581 1.54234 -1.75287 -1.8085 -1.76205 0.35805 -1.75876 0.797433 -3.49505 -1.15055 2.54465 -1.58558 1.22336 2.32077 -0.0126997 1.6323 -2.69944
Q100 4.09797 3.3668 2.80592 -2.65579 -1.6672 -0.675502 -0.0638176 3.32843 -1.00703 3.12336 -2.45072 2.0524 1.03784 -0.915092 -1.32825 3.5864 -0.0669496 -0.755042 1.43064 7.08587 -0.538866 2.32117 7.89442 -0.133966 -2.3957 -1.86757 -1.71041 0.519002 -2.28056 2.29021 -0.607665 2.21152 -2.99778 3.76385 -6.50025 0.228639 -2.79718 -1.80645 1.56787 -2.80793 -3.07839 0.295323 0.544843 -2.17271 3.23155 -3.18675 -1.53919 5.55743 1.68185 1.91087 0.0399597 -0.126231 2.41076 -0.818585 -0.252119 -0.775114 1.79108 3.87935 -2.67161 -0.384962 -3.2791 0.357152 1.44186 0.176197 2.50435 -4.50942 -0.324432 -3.65354 0.473981 5.85414 -0.869093 0.0281282 -2.92236 2.74175 -4.19332 0.852182 -0.165056 0.403583 -1.78831 1.12568 3.49529 -1.40364 4.52227 -1.2302 -0.851728 -2.90354 -0.703223 -1.1599 4.10627 -3.10858 -1.65087 -1.74091 -4.75537 4.26465 -3.84213 0.622502 4.49317 -0.429915 5.2016 -0.757165
Q101 -0.645167 0.475026 2.50161 -0.357077 -0.991849 0.010275 -0.855335 0.44159 -1.51516 2.16222 -0.997737 0.205155 0.741971 -0.941016 0.858484 1.29508 0.164066 -0.218941 0.937617 2.39261 -1.8557 0.220374 2.46125 -0.285697 0.516187 -0.162451 -0.693902 0.719442 -0.685014 1.67302 0.876114 -0.797792 -0.773657 1.30422 -1.51715 -0.287045 -0.273559 -0.92679 -0.140565 -0.869946 -0.692882 0.83008 -0.86657 -1.3504 0.00704163 -0.309217 -0.663789 1.26813 0.990255 -0.269596 0.308948 0.376399 1.30012 -2.03663 0.286215 -0.502212 0.501123 2.76972 -0.603688 1.06798 -0.947876 0.414255 0.415717 -0.663532 0.649444 -1.21014 1.12625 -1.20058 0.151668 0.71552 -1.24096 -0.970736 0.361669 1.34996 -1.69298 1.4566 -0.952312 0.946727 0.295183 1.02788 0.657834 0.897583 0.545945 0.392563 0.45049 -1.54381 -0.372924 -0.915526 0.99401 -0.113812 -0.495668 -1.2811 -0.179652 0.612056 -1.31542 -1.33695 1.31772 0.973008 1.9467 -0.481308
Q108 1.72765 -0.0931165 1.7193 -0.407538 -0.48031 -0.458394 -0.605067 1.16416 -0.552129 0.780818 -0.462623 0.41566 -0.659371 -0.346507 -0.476116 0.624672 -0.937751 -0.135395 -0.178505 1.00272 -0.272201 0.0306345 1.4541 -0.113825 0.159421 -0.741484 -0.271289 -0.00212974 -1.21665 1.03102 0.663364 -0.0384802 -0.00983392 0.454404 -1.17465 0.490461 -0.446929 -1.39752 0.617809 -0.854026 -0.850351 -0.0237816 -0.945221 0.211261 0.545865 0.0252872 0.503785 1.5722 0.0626944 0.753248 -0.944692 0.238225 -0.767187 -0.954682 0.642137 -0.551068 -0.275096 0.369275 -0.901245 -0.229709 -1.26063 -0.269649 -0.157533 -0.691461 0.499374 -0.398803 0.232692 -1.27059 0.440586 1.61866 -0.173526 0.725017 -0.54431 0.0531718 -0.467745 -0.251748 -0.063419 -1.32552 -0.122119 -0.142425 0.395327 -0.172447 1.02957 -0.0849453 0.584406 -1.37597 -0.735589 -0.780305 0.256054 -0.753254 0.217093 -1.53849 -0.41421 1.30668 -0.830429 0.771214 1.48418 -0.113736 0.469501 -1.37308
Q109 -1.33363 -0.201046 0.532146 -1.1425 -1.98707 0.245502 -2.54184 -0.212914 -0.0188516 4.58596 -3.92422 -1.64289 -3.04772 1.56806 -0.973502 0.198817 2.6529 -1.56149 4.08174 4.43719 1.55189 0.111315 5.95318 -1.16823 -1.03448 1.18786 -1.20036 -0.652479 -2.62278 6.36973 0.449282 -3.27979 -1.63994 2.40563 0.820917 0.0249014 -1.4279 -1.28686 0.560454 -0.737045 -0.00404636 1.43696 -0.928774 0.268182 2.77127 -1.44642 -1.5996 1.65333 3.02751 3.38298 -2.69304 0.371566 -1.25271 -3.01408 2.40396 0.642083 -0.761989 2.23554 0.299802 2.3506 -0.762835 1.44021 0.84856 -2.93819 -0.556831 -4.09355 4.14309 -4.32466 -3.64245 0.937892 1.14627 -1.1603 -2.53759 0.708931 -0.861084 -1.20631 0.890155 -2.14614 -1.56605 0.679201 0.473805 0.884116 0.764956 -0.934126 1.88017 1.63072 -0.673006 -2.53953 2.78795 -3.59456 -1.38558 -1.65626 -0.806518 1.17102 0.532859 0.546613 -1.92305 1.74352 4.12102 -2.07325
Q115 3.04967 1.66374 3.38607 -1.10171 -2.84609 -0.200253 -2.50485 2.82299 -0.948408 3.12939 -0.194794 1.1559 2.12459 -2.07086 -0.50081 4.3554 0.34271 -1.98915 1.86453 4.83562 2.27631 0.892664 6.9523 -0.813527 -2.05173 -2.73352 -3.59901 0.786763 -2.94843 0.89856 -1.71126 0.627754 -3.0618 3.37754 -3.58018 -1.30467 -1.79297 -2.4552 0.591352 -2.8976 -0.969462 1.89256 -1.49004 -2.77586 3.31738 -1.70004 -1.20486 4.74702 1.4697 2.83796 -1.41349 0.0305036 0.936464 -1.34593 2.32058 -2.7743 -1.58937 2.80892 -2.61444 0.922258 -3.62955 1.43335 -1.07899 -0.349075 2.29863 -3.42102 0.997007 -4.1322 0.879059 2.86936 -1.60554 0.276108 -0.605811 1.08693 -5.49222 -2.33171 0.587385 -4.17937 -1.2842 0.88406 1.61983 0.150586 3.51132 -3.23714 1.58837 -3.72313 -0.65444 -1.8565 0.47109 -6.5346 -1.60586 -1.15998 -2.64192 4.47186 -3.48605 1.27264 3.28773 0.159198 3.52797 -1.42563
Q99 0.156018 -0.174805 1.29815 -1.43029 -3.01603 2.55913 -4.01687 1.26863 -1.3882 8.2511 -3.17439 -3.52844 -4.96462 1.26957 -0.431446 0.7804 2.9419 -2.43892 5.59664 6.71557 2.79492 0.613325 8.8849 -1.57717 0.0588818 0.901957 -2.80024 1.44993 -3.51901 9.37674 2.53646 -3.10477 -0.467968 3.43478 1.65251 1.38668 -1.83826 -1.62889 2.89446 -0.711669 0.0782389 3.63961 -1.51838 -0.138458 3.36484 -0.136588 -3.68796 1.16477 3.21123 4.93468 -4.88299 0.940749 -1.85727 -6.15898 3.81621 -0.401466 -3.03849 3.65612 0.46415 3.72339 -0.978917 1.40931 0.155603 -5.58819 -1.62782 -5.68058 4.4342 -5.88146 -4.81394 1.89772 -1.19449 -0.498878 -2.6342 0.0594092 -2.39506 -1.4582 0.268137 -2.83945 -2.17073 2.77853 -0.0941481 2.32245 -0.35489 -2.5428 0.523562 1.03343 -0.179599 -3.41645 2.36696 -4.18522 0.151509 -3.3381 -0.886764 1.72233 -0.0504927 1.47101 -0.353832 3.16426 6.50098 -1.77431
Q98 1.49379 0.281054 2.28421 -0.670489 -1.47634 -0.776586 -1.92493 0.394324 0.0918403 3.0592 -1.38035 1.03023 -1.95509 -0.801141 -1.13497 2.03915 -1.02904 -0.819639 1.60439 2.46363 0.353451 0.639251 2.48363 -1.88015 0.510328 -1.82549 -0.763559 0.73867 -2.49612 3.22058 -1.39969 0.690711 -0.209013 1.76612 -1.54766 -0.618172 1.69719 -2.80763 0.710852 -1.30233 -0.102346 0.481583 -0.805416 -1.36663 1.13286 -0.454894 0.113347 2.31314 1.60822 2.33986 -2.11336 -0.194935 0.403628 -1.21909 0.608555 -0.301617 0.910643 0.535595 -1.3514 0.642034 -1.13775 -0.883669 0.709083 -0.268373 1.34667 -1.09958 1.99068 -2.89176 -0.461409 2.12725 -1.03432 0.717291 -2.31378 -0.513904 -0.925247 -2.20479 -0.872228 -3.27855 -1.55065 -0.51232 0.13143 0.685752 3.06793 -0.413554 0.622801 -1.664 -0.69642 -1.36567 0.839863 -3.8654 0.409999 -0.484182 -1.54103 2.43441 -1.07344 2.22409 3.30992 0.119943 1.47977 -1.71103
Q95 1.67653 0.611938 3.19285 -1.89754 -2.03495 -0.540744 -3.27263 1.65093 -3.17967 3.0258 0.676246 0.246777 -0.0305291 -1.25328 0.367909 2.58077 0.447525 -1.60471 1.79165 3.53135 1.60728 0.853925 5.64365 -0.2761 -0.64309 -1.4315 -1.08632 0.308039 -4.39251 4.58319 -1.51075 2.06193 -0.703498 2.46075 -4.22957 0.134388 -2.07278 -3.26464 -0.0396953 -0.721777 -0.964662 1.44927 -2.25989 -2.22666 1.82972 -0.206786 -2.11428 4.13194 1.2938 3.11823 -2.5115 -0.319035 2.0212 -2.49087 0.227164 0.402147 0.405281 4.1685 -2.90578 1.56804 -2.77109 1.75259 1.81241 -0.042361 -0.0311326 -3.77713 2.01679 -4.31396 0.0907095 2.73343 -1.54975 0.667315 -0.521541 1.24538 -3.99301 -2.00578 1.1213 -2.14677 -2.50777 1.29821 -0.26308 -0.548207 1.74269 -2.98408 1.88095 -3.73776 -1.47149 -2.73457 1.73295 -5.125 -0.456682 -1.02415 -0.639772 2.88303 -2.26915 1.97982 3.75366 -0.969192 3.83505 -2.01959
Q94 2.21286 0.854643 2.36933 -1.80614 -2.59614 -0.671561 -1.60062 0.696499 0.644829 5.3351 -3.1079 -0.761055 -1.96896 0.822038 -0.350202 2.10549 1.55539 -2.40796 4.09065 5.6473 1.3962 -0.781343 6.66954 -1.49295 -1.08334 -0.705081 -1.73833 -0.149769 -2.31459 5.1602 -0.370352 -3.33167 -0.598197 2.9091 -0.216437 0.436668 -2.62258 -1.60038 1.65796 -1.87071 -0.61234 2.73429 -1.27696 -0.037808 3.35763 -1.59653 -1.37111 1.28778 1.97683 1.85029 -3.42552 0.524882 -1.52555 -3.38633 2.00742 -0.98647 -1.1349 2.70093 -0.185561 1.19865 -2.37385 1.01092 0.540045 -2.75754 0.210886 -3.70362 2.58327 -5.01144 -2.39872 2.05468 -0.475467 -1.11193 -1.71992 1.2967 -2.12549 0.0524798 0.231496 -1.7039 -0.131794 0.971986 1.22324 -0.628523 1.24881 -1.11233 2.71531 0.783719 -1.28401 -1.17523 3.25568 -3.45794 -1.33145 -2.31914 -0.746237 2.1283 -0.074572 0.345978 0.183672 1.75243 4.78475 -1.94197
Q97 2.44787 -0.257771 -0.111048 -0.921468 1.12431 -1.7297 -2.2674 -0.077485 2.15298 1.75509 -0.345987 1.07376 0.0213113 2.90509 -1.156 2.28251 0.268193 -2.0883 1.41263 -0.0787729 0.87945 -1.05256 2.92834 -1.21421 -0.344522 -1.67341 0.0961556 -0.05297 -0.932108 1.31158 -1.615 -0.491439 0.650274 0.794098 -1.33952 -0.0269804 -0.252458 -0.970353 0.890204 -1.70554 -0.700313 0.218561 -1.60135 -0.538771 1.58023 -1.96671 0.0210858 1.25148 0.858868 0.668227 -0.105596 -0.496958 1.67212 -0.613645 -0.00678011 1.2984 0.0446056 0.604327 -1.7481 1.74475 -0.208374 -0.185445 0.783959 0.319021 1.02421 0.942943 0.339481 -2.06264 -0.972524 -0.0757872 -0.424731 -0.879569 -1.40076 0.12451 -0.509295 -1.49966 0.795271 -0.939001 -1.66956 1.21002 0.6152 -0.0707773 0.92231 -2.73127 4.5326 -1.0362 -0.87429 0.0456104 2.70167 -2.23724 -0.511852 -1.39793 0.301457 0.265655 -0.282426 0.297026 -0.446826 -0.05624 1.05056 -0.0597974
Q96 1.14394 1.2887 1.23652 -0.791114 0.0619303 -0.0582876 -1.17855 0.517563 -0.0303703 2.17681 -0.828489 -0.0952986 0.376482 0.19371 -0.293438 2.24976 0.702819 -0.312798 1.18712 2.44172 1.41829 -0.270561 4.59186 -1.03443 -0.671168 -0.426358 -0.957131 0.204839 -1.82654 1.11194 0.24379 -0.660108 -0.979672 1.88895 -0.972037 -0.128961 -0.682984 -0.43666 0.255935 -1.16919 -0.0113682 1.3337 -0.670057 -1.04616 2.36563 -1.63128 -0.563405 1.80275 1.21317 1.53859 -0.612329 0.365619 -0.827837 -0.751917 1.40778 -1.28225 -1.10541 0.456819 -1.02655 1.50698 -0.844763 0.380714 -1.05013 -1.75066 0.949029 -1.80143 0.588608 -2.11916 -2.00358 1.09857 -0.483585 -0.465385 -0.0328592 1.52347 -2.3515 -1.13782 -0.0154849 -1.14358 -0.413815 1.14824 0.57449 0.515511 1.85366 -1.49095 1.91314 -0.0269638 -0.194895 -0.935068 0.620056 -3.18025 -0.344152 -2.47252 -1.31509 1.35054 -1.61166 -0.0076076 0.2015 0.999964 3.08168 -0.741101
Q91 0.417755 0.652889 2.56796 -0.519416 -1.98837 0.434517 -1.50799 2.14865 -1.42613 4.4855 -2.20021 -1.23411 -0.880706 -0.721429 0.0139944 1.77976 0.965691 -0.568849 2.73529 4.70489 0.305648 -0.0677603 5.7657 -1.66631 -0.401542 0.131477 -1.33716 -0.763699 -2.41213 3.35053 2.77398 -3.71106 -1.63086 1.96868 -0.711751 0.0918203 -2.73232 -0.548924 -0.0307885 -0.289772 -0.271922 1.68687 -1.9224 -1.54612 2.3163 -0.66364 -1.52754 1.77574 1.91273 1.46905 -3.49914 1.71734 -1.60282 -3.15085 1.71957 -1.90095 -1.36787 1.79249 0.104505 0.77951 -2.46762 2.10059 -0.703117 -3.67879 -0.313425 -4.69295 2.2161 -3.55571 -1.95394 2.14984 0.26763 -0.931263 -0.473282 1.9787 -2.23709 0.653952 -0.47713 -0.510542 -0.187365 0.56617 0.324686 0.719086 1.03611 0.19276 1.72192 1.00642 -2.49969 -1.63763 0.787028 -1.29603 -1.01711 -2.44804 -0.989705 1.6421 -0.579574 -0.68289 -0.638567 2.01717 3.79801 -1.87526
