3167 100
Q117 0.114622 0.00642325 0.133925 0.00601611 -0.127398 -0.0201355 -0.107613 0.0468781 0.00339201 0.085944 -0.0244953 0.021765 -0.173578 0.0465371 -0.137557 0.174102 -0.108187 -0.0938397 0.177136 0.0180144 -0.100522 0.127214 0.127371 -0.0648384 -0.00508507 -0.0671529 -0.112654 0.128301 -0.20481 0.107577 0.00162432 -0.0420947 -0.111416 0.116352 -0.0909289 0.072505 0.0247223 0.0744677 0.0411073 -0.0792149 -0.158734 0.0403031 -0.0866536 -0.114948 0.0329551 0.00536886 -0.0726617 0.129372 -0.00502992 0.0838491 -0.105347 -0.0872264 0.0627204 -0.0881972 0.0771132 -0.0688322 -0.154389 0.079649 -0.0313126 0.0972589 -0.0116641 -0.00229193 0.00635685 0.0319094 0.114111 -0.0640104 0.102447 -0.119677 0.122961 0.158884 -0.102199 0.0291916 -0.28677 -0.164347 -0.0617449 -0.118872 -0.104566 -0.131415 -0.0583266 -0.0947679 0.0658844 0.128876 0.0143336 -0.0556068 0.0968087 -0.124912 -0.0318702 -0.0410121 -0.0471572 -0.119302 0.0853689 -0.0556224 -0.112976 0.130632 -0.16278 0.125168 0.127441 0.0762282 0.0927385 0.0591386
Q116 0.0466423 -0.00272003 -0.00501486 0.0608535 -0.0871531 -0.0972488 -0.114473 0.119962 0.0516584 0.0529119 -0.0303778 0.0516048 -0.00869365 -0.175791 -0.0453872 0.0782402 -0.0194756 -0.204424 0.068593 0.231362 -0.0693953 0.193349 0.198387 0.0499459 0.197222 -0.129697 0.140989 -0.0077258 -0.224188 0.0560249 -0.0309703 0.0347545 0.0114153 0.00866571 -0.110689 0.100112 -0.114021 -0.0447933 0.108193 -0.157011 -0.0533006 -0.0502785 -0.0322708 -0.084155 -0.0306333 -0.126292 0.0814588 0.0530794 0.110669 0.0466142 -0.0288089 -0.00615839 -0.0563946 -0.0148187 0.047182 -0.0175162 -0.0443508 0.153562 0.0629894 0.104631 -0.110489 0.0317068 -0.0996849 -0.137879 -0.0659645 0.0422219 0.00820569 -0.141398 0.14474 0.0913664 -0.103054 0.0821761 -0.0588378 0.00401537 -0.221638 0.0153333 0.186079 -0.135669 -0.071009 0.0368096 -0.105703 0.0496042 0.0989981 -0.00159836 0.00749607 0.0401597 -0.0402304 -0.0800129 0.0641198 -0.0887313 -0.146109 -0.15488 -0.0989544 0.0812414 -0.156755 0.0061718 0.0946407 0.194719 0.0672995 0.0121061
Q200 0.178769 0.0934642 0.043131 -0.0532098 -0.0945955 -0.0385291 -0.0960592 0.0886919 0.0761639 0.179319 -0.141566 0.12506 -0.0442871 0.023627 0.0754746 0.0947653 -0.103325 0.0156036 0.0746981 0.01509 -0.00528717 -0.0612742 0.0994031 0.0566309 -0.1744 -0.0432993 -0.103068 -0.00263969 -0.124043 0.0383618 -0.202872 -0.0624096 -0.108852 -0.0732359 -0.198649 -0.0213779 0.0990623 -0.0265619 0.049424 -0.0811262 0.0482185 0.183438 0.0282663 -0.052573 -0.084261 -0.00270395 -0.119443 0.109975 -0.0381249 0.282739 -0.124166 -0.200054 -0.0616171 -0.0283134 -0.0003242 -0.0823868 -0.121026 0.0500648 0.032067 -0.0621787 -0.0558948 -0.0322551 0.0310483 -0.0290874 0.038059 0.130777 -0.16372 -0.215346 0.113641 -0.0829821 0.0439346 0.0187684 -0.0446585 0.141229 -0.0918651 -0.169023 0.133694 -0.059262 -0.10155 -0.0865155 0.00295762 0.12076 0.0733668 -0.0678768 -0.00590753 -0.0976062 -0.115044 0.0141589 0.00471345 -0.165063 -0.0538009 -0.140236 -0.0307553 0.0242498 -0.0737063 -0.0167654 0.0645372 -0.164394 0.0552074 -0.145144
Q51 0.20404 0.0697318 0.0219784 -0.057168 -0.00467757 -0.0299692 -0.117299 0.0913485 0.031717 0.0115911 -0.0873105 0.0744444 0.00235217 0.0669719 -0.0874757 0.0967817 -0.109585 -0.0262731 0.0781923 0.0617702 -0.0147522 0.112943 0.224071 0.0294793 -0.0456334 -0.00505147 -0.152268 -0.0323891 -0.198365 0.0141553 0.00986722 0.000431739 -0.0817954 0.166149 -0.086183 -0.0332721 -0.0779252 -0.0169948 -0.0326672 -0.166883 0.0344875 0.102456 -0.0451733 -0.000292811 0.126342 -0.0886342 -0.104686 0.262667 0.0650355 0.0550777 -0.0680137 0.0558884 0.0622438 -0.0638029 0.145999 -0.0537773 -0.131726 -0.0616083 -0.0389211 0.0334372 -0.105832 -0.0908123 -0.182103 -0.0403335 0.0383637 -0.0782003 0.0910046 -0.151009 -0.139715 0.144717 -0.0365573 -0.00422772 -0.133265 0.114541 -0.161445 -0.119789 0.0624653 -0.0978493 -0.0799837 0.0597489 -0.0742854 0.030027 0.187349 -0.0788256 0.148837 -0.0776379 -0.0490549 -0.0448748 -0.101616 -0.265323 0.0158506 -0.134619 -0.184203 0.0815615 -0.0855484 0.0140165 0.0702574 -0.00211438 0.0922579 -0.0354119
Q50 0.0459838 0.0792226 0.0514604 0.0610334 -0.182635 0.0936915 -0.126657 -0.0302056 -0.0271186 0.180396 -0.188941 -0.100814 -0.145482 -0.0377048 -0.000195742 0.147248 0.00768315 -0.0357273 0.204716 0.180725 0.0343932 -0.0190682 0.260719 -0.0332499 0.0835301 -0.0234531 -0.0919332 -0.00700531 -0.0531482 0.235456 0.154063 -0.0891843 -0.0319493 0.130291 -0.0380484 -0.00411737 -0.0518276 -0.0760917 0.032468 -0.0103563 -0.0214245 0.104172 -0.0161688 -0.0962839 0.0363231 -0.0424296 -0.0368641 0.0932267 0.0772904 0.146057 -0.0610197 -3.68922e-06 -0.0432057 -0.0828851 0.0519761 -0.047162 -0.0543517 0.231935 -0.00491324 0.162649 -0.161822 0.132686 -0.00123636 -0.116585 -0.0211301 -0.220362 0.0395313 -0.11163 -0.12751 0.0909279 0.030008 0.0538509 -0.0879719 0.148803 -0.0772877 -0.0322061 -0.00390611 -0.0126415 -0.140604 0.0155203 -0.016204 0.0371624 0.0524814 -0.0352271 0.112324 -0.032391 -0.0872431 -0.0774666 0.0149621 -0.187441 -0.0418511 -0.0409949 -0.0768224 0.0859702 -0.116375 0.115179 0.0143869 0.055914 0.182549 -0.0700616
Q53 0.162474 -0.00967274 0.00430304 -0.0877263 -0.0405996 0.0772988 -0.107105 -0.066064 -0.0274 0.127151 0.0536505 0.0718132 -0.0841803 -0.00922921 -0.0945761 0.129028 0.160496 -0.031544 0.0864631 0.103007 -0.0647265 0.0964623 0.251772 -0.0150727 -0.135275 -0.178581 -0.11964 0.0363547 0.018144 0.0219152 -0.101068 0.0304514 -0.0686369 0.0312297 -0.121125 -0.0650338 0.123902 0.00283465 0.158603 -0.157509 -0.0445702 0.114776 0.101096 -0.185544 -0.0369528 -0.101745 -0.136687 0.0598107 0.0531972 0.0837789 -0.12951 0.120203 -0.0640931 -0.199261 0.0561134 -0.166512 -0.111715 -0.0734931 0.131902 -0.00879242 -0.148446 0.0110942 0.00103828 -0.0264821 0.126507 0.0332156 0.0583818 -0.0860001 -0.055706 0.106946 -0.172532 -0.0334057 -0.00609979 -0.0211656 -0.0339724 -0.0398291 0.000722899 -0.00290955 -0.00182656 0.0992332 0.141045 0.0870433 0.0871253 -0.224935 -0.0229929 -0.0133769 -0.0685359 0.0861563 0.0125852 -0.15352 0.003929 0.0323052 -0.0963822 0.111538 -0.113325 0.0492767 0.193609 0.142086 0.149431 0.0228102
Q52 0.0434128 0.0672177 0.248598 -0.0340007 0.0554714 0.080534 -0.0668046 0.109949 0.0156009 0.128081 -0.0933442 -0.0235654 0.0827499 -0.0396162 -0.0145747 0.0640429 0.0346925 0.0406329 0.226401 0.203485 0.0360056 -0.0278341 0.187338 -0.202342 0.0910802 -0.0729648 -0.125214 -0.00958185 -0.225269 0.0558216 0.0616764 -0.0409096 -0.0134786 0.195159 -0.10784 -0.0153165 -0.124036 -0.0996492 -0.102331 -0.0423852 0.0890512 0.0168563 -1.88136e-06 -0.269808 0.125422 -0.0369045 0.0402628 0.105115 0.148701 -0.0189504 -0.13623 0.0326229 -0.0459339 -0.062671 0.0645856 -0.108512 -0.00732523 0.00106933 -0.0340933 0.0269993 -0.105587 -0.0335844 -0.0546079 0.0130092 0.0466535 -0.179513 0.0679081 -0.0902356 -0.0803478 0.139905 -0.0780563 -0.113941 0.0309393 0.0457788 -0.178254 -0.145089 -0.00615255 -0.0131698 -0.024206 -0.00455932 0.0262256 0.0167976 0.0977451 -0.0442924 0.0587442 -0.0292429 -0.0162018 -0.0589185 0.0234714 -0.163478 -0.0809145 -0.113472 -0.0672612 0.141494 -0.0900665 0.0139079 0.0729357 0.110751 0.174671 -0.162645
Q55 0.230262 0.0432776 0.170195 0.0486369 -0.103111 -0.0128822 -0.0330347 0.0854186 0.0514213 0.262074 0.0823433 0.0139998 -0.0830601 -0.0216784 -0.126258 0.144354 -0.0829027 -0.0635986 -0.0833691 0.144193 0.0849342 0.07934 0.184822 0.0424522 0.0934542 -0.141837 -0.0362182 0.0439354 0.00541487 -0.0195982 -0.176711 0.109476 -0.0151809 0.0993001 -0.0481258 0.034605 -0.0396619 -0.120561 0.109705 -0.100118 0.0192216 0.0776675 -0.215087 -0.133849 0.0454662 -0.15196 0.00104643 -0.101682 0.0321552 -0.00821248 0.0389199 -0.0597974 0.101822 -0.092391 0.0189708 -0.0639484 -0.0607632 0.0347285 -0.192325 0.0826171 -0.0651092 0.00762222 0.0262903 -0.160402 0.0386581 0.0242916 0.0224676 -0.12138 -0.0499502 0.060251 -0.095018 -0.0728535 -0.0428005 -0.109187 -0.140467 -0.00234874 0.00322202 0.00965496 0.00853855 -0.0174154 0.0799248 0.148069 0.177847 -0.0879624 0.00435325 -0.151753 -0.169089 -0.0734155 0.115922 0.0272217 0.0915408 -0.131598 0.114536 0.0995925 -0.160813 0.197885 0.0120569 0.112207 -0.0658228 0.000332716
Q54 0.0175338 0.135282 0.132729 0.0317807 -0.122506 -0.0301335 -0.147334 0.136836 -0.0167273 0.0751527 -0.015294 -0.0132378 -0.0892814 -0.0856124 -0.130054 0.14069 0.0118666 -0.127349 0.0795246 0.225136 0.0640245 -0.0329326 0.216713 -0.114148 -0.0480609 -0.0720685 -0.149117 0.0331422 -0.0835224 0.0736598 -0.0489578 -0.0457815 -0.169024 0.00337732 0.0720638 0.149505 -0.11189 -0.0593974 0.0290919 -0.09313 -0.0857338 0.0304208 0.0518517 0.00320181 0.220778 -0.146667 -0.0462993 0.12627 0.040216 0.145856 -0.0538804 -0.11514 -0.104919 -0.0159997 0.0433126 0.0341226 -0.024375 0.149094 0.0188905 0.130709 -0.115852 0.0882621 0.0286776 -0.14673 -0.129604 -0.0471646 0.0374133 -0.0870308 0.0226977 0.0579511 -0.0760355 0.00164871 -0.14389 -0.0194213 -0.148487 0.0602692 0.0435288 -0.041102 -0.0088696 0.00951504 0.0789814 -0.0822203 0.0580327 0.0224787 0.260142 0.173317 0.00616389 0.0636472 0.117893 -0.0269737 -0.0118552 0.0219602 0.00840255 0.195569 -0.151065 0.0954582 0.0566812 0.0664679 0.208513 -0.0121446
Q57 0.139049 0.0922016 0.174366 -0.112414 -0.130277 -0.0551489 -0.120189 -0.0195843 -0.103052 0.0903761 0.0344013 0.0840723 -0.0128758 -0.016048 -0.0385321 0.212042 -0.0299598 -0.10377 0.0339591 0.153277 0.0297155 0.00929239 0.220501 -0.0616483 -0.0546435 -0.12531 -0.0134712 0.0460329 -0.162887 0.0974066 -0.0956113 0.0852705 -0.0675877 0.0820966 -0.0524052 0.070454 -0.0798777 -0.0931748 -0.0138801 -0.154454 -0.0212462 0.129776 -0.0204613 -0.0659713 0.146416 -0.0132825 -0.0282997 0.104716 0.0442309 0.157025 -0.141459 0.0495045 0.0849524 -0.0811359 0.102171 -0.153398 -0.0784208 0.075182 -0.135273 0.0775015 -0.117198 -0.0103869 0.0384539 -0.0855315 -0.0243819 -0.0864959 0.126327 -0.136925 -0.0327698 0.0635343 -0.0915506 0.00876994 -0.0254593 -0.113312 -0.118198 -0.109581 -0.0370709 -0.209169 -0.113267 -0.0380778 0.232134 0.00139089 0.16735 -0.12119 0.111572 -0.0746707 -0.0178957 -0.0349973 0.131475 -0.182239 -0.028596 -0.102344 -0.0463059 0.0955136 -0.0777368 0.102929 0.105239 -0.0187655 0.11418 -0.0505296
Q56 0.0808134 0.25158 0.196702 -0.0306277 -0.0632161 -0.00569207 -0.185902 0.0354511 0.0685332 0.0314633 -0.133447 0.0211677 -0.0737849 -0.120589 -0.0716562 0.25612 0.0672779 -0.0240364 0.00910143 0.163838 -0.0121142 0.0736198 0.288119 -0.0620035 0.0671044 -0.0518009 -0.0421114 0.119797 -0.12526 0.186182 -0.00930597 -0.0166827 -0.0475827 0.0283651 0.0191189 0.00200137 0.00450331 -0.100988 -0.0219712 0.0559417 -0.0394208 0.0178433 -0.146505 -0.0286812 0.0642756 -0.0693402 -0.0584852 0.0724923 0.0897892 0.0991261 -0.147985 -0.0748178 -0.0501837 -0.00487055 0.0859413 -0.0552728 -0.0946042 0.156103 -0.00784044 0.105233 -0.105098 0.0204749 -0.016856 -0.083748 -0.0530534 -0.120202 0.0963313 -0.0401569 0.0164925 0.15028 -0.000266155 0.0971253 -0.0768899 0.073803 -0.205932 -0.0191169 0.0939237 -0.0278505 -0.104599 0.00411132 0.0148177 -0.0243025 0.0150617 -0.0191194 0.117317 -0.0658538 0.0363377 -0.0988206 0.0206618 -0.0840718 -0.0490855 -0.0203281 0.0300798 0.120068 -0.21743 0.0330708 0.156636 0.079688 0.25871 -0.139232
Q59 0.10747 0.145111 0.167049 -0.0851303 -0.111039 -0.0244298 -0.194469 0.0417856 0.015852 0.0835818 -0.08266 0.113882 -0.0484781 -0.139642 -0.0957589 0.218943 0.0362342 -0.0702794 -0.0111409 0.184414 0.0942548 0.0883923 0.211431 -0.00550107 -0.0235409 -0.0500165 -0.116631 0.0608456 -0.0674225 0.130833 -0.0980172 0.0154402 -0.101796 0.111249 0.0315133 0.119496 -0.110187 -0.0383662 0.0194779 -0.118574 -0.0621242 0.0907329 -0.0517074 -0.0919346 0.201894 -0.0365052 -0.107588 0.157052 -0.00797108 0.0573729 -0.111856 -0.137544 -0.052814 0.108018 -0.0495046 -0.00249687 -0.0862018 0.0904567 -0.130547 0.0906455 -0.147899 0.0454586 0.0731779 0.042409 -0.0377855 0.0146821 -0.00732166 -0.0867302 0.143104 0.0735892 -0.0532192 0.0996893 -0.0541145 -0.0443002 -0.103267 -0.104298 0.0444583 -0.144227 -0.0545369 -0.049593 0.0785856 -0.11261 0.0432428 -0.00604435 0.14317 -0.0220252 -0.0447988 -0.0935039 0.0346757 -0.0865129 -0.0945042 0.0531444 -0.10613 0.148287 -0.114331 0.0516218 0.134119 0.135909 0.251024 -0.0697149
Q58 0.185324 0.059448 0.0590015 0.0785478 -0.00172156 -0.0309076 -0.00368837 0.200321 -0.0622217 0.154648 -0.220326 -0.0211873 0.108015 -0.077602 0.00972676 0.0807895 -0.0211792 -0.0569139 0.0341297 0.235628 0.0676317 0.127846 0.253218 -0.0207526 -0.135771 -0.0530036 -0.0332492 -0.0404362 -0.161549 0.254916 -0.0261239 0.0352356 -0.110447 0.104679 -0.0870611 -0.0469546 -0.00671641 -0.00708299 0.0132492 -0.0654839 -0.0483144 -0.0703725 -0.0514961 -0.15973 0.0430895 -0.14731 -0.0435168 0.134079 0.142855 0.0864482 0.0243079 -0.0536823 0.120927 -0.110188 0.0966709 -0.0426644 -0.0299174 0.114026 -0.000555673 -0.0687968 -0.0490317 0.11454 -0.0359627 -0.132051 0.0700858 -0.144743 -0.0417949 -0.185451 -0.0955436 0.25333 -0.0657455 -0.0285543 -0.0457148 0.102001 -0.12071 -0.0306643 -0.00473351 -0.0135579 -0.0878419 0.0975317 0.0265264 0.00887655 0.0701953 0.0578372 -0.0136676 -0.104288 -0.067367 -0.0658181 0.082867 -0.0467667 -0.0747027 -0.0519416 -0.0945813 0.140802 0.0231093 0.0314104 0.10685 0.0573232 0.175722 0.0287069
Q148 0.0132433 0.0724377 0.191153 -0.172935 -0.0713668 -0.0082387 -0.153932 0.182515 -0.0741522 0.117372 -0.0445895 0.0278056 0.0376107 -0.00159123 -0.0930564 0.205301 0.0214456 0.0277954 0.0626416 0.143646 -0.087379 -0.0219188 0.213093 -0.0154202 0.111364 -0.0112377 -0.144903 -0.0395691 -0.127743 0.10806 -0.0543567 0.134693 -0.0273312 0.0133651 -0.129172 0.0137938 0.0162891 0.0270722 0.103479 -0.111835 0.046269 0.0874643 -0.140386 0.011081 0.0534031 -0.0341546 0.0291439 0.032665 0.106369 0.0501198 -0.0643618 -0.0261459 -0.0546234 -0.00445474 0.133506 -0.0745653 0.0256151 0.171208 -0.0857446 0.0718434 -0.273226 -0.0269881 -0.187891 -0.0861316 -0.0401357 -0.0502624 0.073376 -0.0978634 -0.0822976 -0.043799 -0.0488314 0.0178919 0.0166149 -0.147774 -0.137652 -0.0467203 -0.0130964 -0.0258786 -0.101357 0.146202 0.0206177 -0.0138465 0.236607 -0.0556404 0.114896 -0.0712022 -0.109612 0.0359107 0.215427 -0.114792 -0.119532 -0.0688939 -0.0903452 0.155389 -0.0348312 0.0044437 -0.0303173 0.0961824 0.157756 -0.00738444
Q149 0.217313 0.017075 0.0989513 -0.0820474 -0.0847564 -0.167008 -0.173649 0.0604609 0.0331411 0.0882775 0.0619652 -0.043001 0.0617976 0.0996427 0.0571062 0.170529 0.00302484 -0.0941405 0.0556437 0.0129274 0.0284135 -0.0292585 0.096352 -0.00219802 0.024743 0.0336507 -0.0425858 0.0457752 -0.0627382 0.0258184 -0.244758 -0.0106259 0.0867395 0.143676 -0.0827839 0.0427089 -0.136469 -0.0562004 0.115781 -0.0595506 -0.0729556 0.0903522 -0.15916 -0.0518493 0.115925 0.0551646 -0.0969335 0.160811 -0.132489 0.103709 -0.0815312 -0.084501 0.0213458 -0.0871565 -0.0163833 -0.0959334 -0.107363 0.184986 -0.121077 0.176534 -0.0623631 0.00929741 0.0223536 -0.102945 0.038357 -0.0871792 0.0423006 -0.118621 0.00780026 0.156068 -0.0179324 0.103525 0.0401466 0.0383728 -0.182311 -0.125544 0.0943425 -0.0448037 -0.0235096 -0.014146 0.163172 -0.0519555 0.124356 -0.0539164 0.155853 -0.11757 0.0216224 -0.00286903 0.0818424 -0.261484 -0.0826326 -0.111445 -0.0195033 0.166188 -0.0141734 0.00472551 0.0216605 0.110815 0.178155 0.022627
Q145 0.0176942 0.0708496 0.116172 -0.125726 -0.0241244 -0.0348936 -0.237962 0.18523 -0.0124611 0.108922 -0.198225 0.083425 0.109015 0.0104831 -0.0526826 0.236257 0.0749536 -0.0763256 0.17654 0.136334 -0.0823716 0.0330546 0.173574 -0.0532785 0.0453493 0.0420875 -0.0807331 0.00868316 -0.269611 0.128168 0.087034 0.0548739 -0.0619329 0.0396259 -0.10357 -0.127145 -0.0582213 -0.0839328 -0.053162 0.0602384 -0.0682985 -0.00410476 -0.117138 -0.0367496 0.0179184 -0.104945 -0.0455648 0.19568 0.0624789 0.143605 -0.0113995 -0.049376 -0.00100659 0.00685767 0.0745303 -0.0806103 -0.151814 0.116343 -0.0661521 -0.00906694 -0.0887 0.0302721 -0.145533 -0.0406082 0.00900863 -0.0606702 0.0726938 -0.207487 0.0263622 0.0315702 -0.0665414 0.0291729 -0.0407245 0.0251614 -0.0854151 -0.123689 0.091033 0.0405005 -0.0693814 0.0751089 -0.0495123 0.0349366 0.146606 0.0141412 0.161401 -0.0891855 -0.00175118 -0.145594 -0.0275138 -0.1571 -0.068062 -0.0643227 0.0753486 0.0070491 -0.0504339 0.0842524 0.129487 0.111469 0.14616 -0.118633
Q159 0.0790069 -0.028652 0.110425 -0.0488512 0.172829 -0.0479177 -0.157194 0.0408486 0.0624764 0.121143 -0.0287595 0.138476 0.135057 0.061451 -0.0451573 0.131966 0.103429 0.0259826 0.0597052 -0.0264218 0.156297 -0.0467975 0.246335 -0.00960198 0.0215702 -0.0215237 -0.116862 0.0272707 -0.152799 -0.085224 0.0647638 -0.0479013 -0.0501966 0.17895 -0.0162424 -0.0359714 0.0436004 -0.0692902 -0.0651155 -0.142844 -0.0463277 0.10593 -0.0491659 -0.0367195 0.11543 -0.0698719 -0.0874273 0.169499 0.165159 0.097994 -0.12256 0.00729832 -0.107544 -0.0367013 0.053583 -0.0199822 -0.0383772 -0.190434 0.00613079 0.0799315 -0.0797275 -0.0774571 -0.143045 -0.0392092 0.0343962 0.0244699 0.0119062 -0.151192 -0.151645 0.0105397 -0.0737452 0.023698 -0.0551298 0.0250018 -0.0836547 -0.218814 0.0819824 -0.0579547 -0.0255116 -0.0191326 0.00253151 0.0935953 0.129713 0.0310006 0.191026 0.0396592 -0.00529569 -0.0334512 -0.0181608 -0.259104 0.0519497 -0.218778 -0.136547 0.0458982 -0.184668 0.0193924 -0.0821022 0.124526 0.0688457 -0.0946023
Q158 0.185254 -0.0568742 0.19131 0.0602396 -0.0693843 -0.165638 -0.0882497 0.0319978 -0.0648708 0.161327 -0.0611958 0.100934 -0.0492101 -0.106806 0.114146 -0.151229 -0.0554136 -0.0662979 -0.0188581 -0.142703 -0.0035583 -0.0386763 0.0205173 -0.0920815 -0.0519608 -0.123898 -0.0934899 -0.00773664 -0.0928267 0.238313 -0.0813184 0.0196889 -0.0707712 -0.0424278 -0.0778622 -0.0271313 0.0711163 -0.23575 0.0214561 -0.122797 -0.015583 0.0672805 -0.109143 0.0518459 -0.0348176 -0.0834723 -0.074625 0.0855153 0.0408135 0.0304984 -0.154753 -0.031185 0.0478743 -0.169087 0.0670329 -0.011038 0.00137788 -0.173118 -0.00690614 0.05927 0.078778 -0.0348054 -0.00915682 0.0310682 0.165143 -0.00840634 0.0262061 -0.156582 0.092883 0.259995 0.0188166 -0.0152075 -0.0976189 -0.0460766 0.00421292 -0.123501 0.0152429 -0.00935044 -0.111364 -0.0603059 -0.0843625 0.0788899 0.131772 0.0071195 0.0479156 -0.00882617 -0.175292 -0.0826775 0.0436437 -0.161217 -0.0578315 -0.237251 -0.0335698 -0.105436 -0.00395515 -0.0461946 0.0811221 -0.10636 0.213447 -0.0739802
Q46 0.0515567 0.0247771 0.158287 -0.00169321 0.078868 -0.04637 -0.0311339 0.090669 0.0636624 0.0373794 -0.0525144 0.0547791 0.121043 0.129257 -0.0488214 0.112099 -0.0540883 0.0155 0.0769079 0.0362243 0.147885 0.0352859 0.195621 -0.0398316 -0.0310726 -0.00777014 -0.146532 0.0123401 -0.140308 -0.0675466 -8.55911e-05 -0.0519515 -0.102626 0.220431 -0.0687918 -0.0323932 -0.0257766 -0.0204115 -0.0291543 -0.0653312 0.018203 0.00420038 0.00643739 -0.0123772 0.192348 -0.182604 -0.0631157 0.161918 0.101199 0.0984395 -0.0577718 0.00436641 0.0357325 -0.062245 0.13647 -0.0634486 -0.0428286 -0.126557 0.0399482 0.0603956 -0.0932592 -0.101126 -0.192356 -0.0733271 0.00367658 -0.0954181 -0.00787862 -0.0753487 -0.182674 0.0578461 -0.0557949 -0.0608001 -0.0743582 0.0432038 -0.149429 -0.224117 0.0790607 -0.00984374 -0.0327357 0.0698512 -0.0103141 -0.00077326 0.153349 -0.129162 0.196655 0.144634 0.00931402 -0.0508869 -0.0567551 -0.27143 0.0982218 -0.189151 -0.20905 0.129533 -0.0994481 0.0357697 -0.0393451 -0.00470857 0.131059 -0.00560598
Q47 0.010615 0.132851 0.12427 -0.117824 -0.0309744 -0.0909196 0.0170099 0.0718023 0.00212578 0.0725397 -0.124253 0.047311 0.104438 -0.105572 -0.108895 0.187569 0.0391334 -0.054841 -0.0241989 0.294844 0.0801188 0.0786664 0.275355 0.0454852 0.0829776 0.0785975 -0.162935 0.00493498 -0.229589 0.129665 -0.018 0.146413 -0.00584635 -0.117843 -0.137953 -0.023657 -0.010872 0.057912 0.0275747 -0.039343 -0.101827 0.00442878 -0.0058882 -0.078271 0.0604056 0.0491675 -0.115897 0.194784 0.0646912 0.155165 -0.112037 0.0276155 0.116629 -0.0293331 0.0414389 0.0255383 -0.0736947 0.137287 -0.0771326 -0.0664733 -0.140774 -0.0275764 0.041205 -0.043864 -0.0345087 -0.173629 0.0408467 -0.13605 0.0797128 0.0953722 -0.102952 0.0107727 -0.0617036 -0.000624467 -0.101811 -0.0915061 -0.0376277 -0.142027 0.0246631 0.0449407 0.0545172 0.0118567 0.12547 -0.0859896 0.0860987 0.00720709 -0.0542037 -0.102276 0.00206989 -0.103397 0.0483448 -0.0141578 -0.137273 0.187155 -0.0999119 0.112943 0.148167 0.0143656 0.0749907 -0.11408
Q44 0.0943213 0.07301 0.203746 -0.0474119 -0.0968881 -0.0142617 -0.0182465 0.113301 -0.144473 0.0181292 -0.071845 -0.014652 -0.00511684 0.00627474 -0.0733754 0.155976 0.108713 0.00840906 0.0320482 0.260577 0.0249741 -0.149973 0.254388 0.0244736 -0.0597448 -0.086012 -0.149547 0.0555306 -0.0788889 0.0337569 -0.0807901 0.169069 -0.102275 0.0543654 -0.117729 -0.0249455 -0.0266014 -0.0523898 0.092874 -0.0466246 -0.0350915 0.0641623 -0.0232486 0.00351112 0.0272667 -0.0380113 -0.0255768 0.0425055 0.0918955 -0.0115941 -0.0392176 0.0192104 0.0874372 -0.0486965 0.0864129 -0.124609 -0.0417557 0.1068 0.0382171 0.0421323 -0.202581 0.087807 0.138548 -0.00991456 -0.00329185 -0.175167 0.0562526 -0.134433 0.00879383 0.175785 -0.0707271 0.0649711 -0.0753 0.0500698 -0.172839 -0.0393995 -0.0225859 0.00576572 0.0139444 0.0518896 0.20014 0.0654283 0.249254 -0.152664 0.0231617 -0.165201 0.0354118 0.0329102 0.183136 -0.125465 -0.0756525 -0.0764743 -0.0769329 0.0477456 -0.136177 0.0303213 0.0895055 -0.0155386 0.205579 -0.002193
Q45 0.124688 -0.0394293 0.13252 -0.0213545 -0.0958729 -0.0526545 0.0346149 0.054978 -0.0813117 0.087018 -0.0598841 -0.0362929 -0.156639 0.0394584 -0.0577132 0.117672 0.0595156 0.0342338 -0.0456736 0.105099 -0.0423163 0.0321054 0.19275 -0.0324063 -0.138276 -0.183466 0.0801673 -0.0274323 0.0477348 0.0918709 -0.116447 0.0522031 -0.0820059 0.00384367 -0.208506 0.0834525 -0.0646692 -0.121313 0.102566 -0.138237 -0.162986 -0.0686938 -0.120248 -0.092229 -0.00217043 -0.162085 -0.0380842 0.0823611 0.123971 0.200464 -0.0113253 -0.0658416 0.101758 0.0918529 -0.110018 -0.0981378 -0.0479827 0.0665456 -0.0780261 -0.0175693 -0.13934 0.0317155 0.0228671 -0.103073 0.0139695 -0.0929516 0.243215 -0.158678 -0.0777303 -0.00791454 0.0295579 -0.0400832 -0.121331 -0.00533588 -0.206597 -0.075128 0.0740794 -0.0724308 -0.111122 -0.0775306 -0.0122354 0.108858 0.0619456 -0.0380227 -0.223217 -0.200084 -0.0116868 -0.0751343 0.105822 -0.0205598 -0.0557743 0.0819545 -0.0324893 0.21381 0.0200443 -0.0693586 0.0841489 0.0199292 -0.112397 -0.0202738
Q42 0.281452 -0.0025777 -0.0237821 0.0203435 0.0471778 -0.0778359 -0.269163 0.0490383 -0.0527451 0.178794 0.143129 0.0533718 0.0374346 0.103785 -0.116643 0.112387 -0.0112938 0.0364459 0.0511356 0.213927 0.0625538 -0.00522206 0.241145 -0.0781422 -0.12147 -0.0801541 0.106616 0.144603 -0.0874178 0.0454039 -0.046608 -0.00283714 -0.0528116 0.162653 -0.0332625 -0.000686725 -0.0111197 -0.0929279 0.13582 -0.131974 0.101729 0.0538046 0.0396056 -0.0947234 0.118388 -0.104033 -0.0445723 0.0854083 0.0196227 0.0903493 -0.192847 0.0250371 0.0370613 -0.0832925 -0.00523275 0.131257 -0.0378022 0.0458851 -0.0348035 0.00918383 -0.171759 -0.130867 -0.0164389 -0.0582109 0.0211256 0.0106613 -0.0326503 -0.0909405 -0.0192675 0.0513451 0.0360401 -0.106045 -0.0496838 0.0410751 -0.0189461 -0.109645 -0.0900646 -0.0731594 -0.0380495 0.0725102 0.0965795 0.113759 0.157262 -0.240033 0.0346853 -0.0258411 0.048659 0.0582025 0.122347 -0.15059 -0.0307869 -0.0209485 -0.0187422 0.00923554 0.135551 -0.00885533 -0.0874441 0.129063 0.166259 -0.112262
Q43 0.000443007 0.0557523 0.118632 -0.0901126 -0.0796859 -0.0964901 0.131621 0.133877 -0.0348766 0.198394 -0.0335717 -0.00408625 0.171564 0.0758202 -0.0163617 0.000630466 0.0528443 0.0507688 -0.0829663 0.244536 0.00228715 0.0367773 0.301021 -0.02773 -0.102126 -0.00368757 -0.0126235 -0.00334504 -0.0189885 0.0629199 0.026205 -0.0670363 -0.0486424 0.201061 -0.136354 -0.0728017 -0.0411654 0.0928729 -0.0500334 0.0105658 -0.201966 -0.0259782 -0.0893796 -0.128662 0.143267 -0.0612086 -0.122307 0.114486 0.0349378 0.116124 -0.0576497 0.019063 0.0495034 0.0374267 0.00460559 0.0496714 0.0690163 0.150905 -0.136597 -0.0386918 -0.118324 -0.014115 0.0656065 -0.0502236 0.058829 -0.125073 -0.0368265 -0.111991 -0.0289169 0.188893 -0.0385283 -0.0307896 -0.0861251 0.067482 -0.0994625 0.176985 0.0142868 0.029723 -0.0578038 0.0296017 0.142262 0.023909 0.0743037 -0.0325082 -0.0178736 -0.204975 -0.120262 -0.112597 0.131082 -0.0434342 -0.0411005 -0.0421589 -0.147983 0.161779 -0.0800173 0.114999 0.125143 0.0135999 0.103105 -0.162116
Q40 0.246113 -0.0185391 -0.00299088 -0.0351653 0.00920144 -0.0311146 -0.00605701 0.0386146 -0.00522132 0.210733 0.0809297 0.0808355 0.0230212 -0.0256321 -0.127246 0.0763083 0.0469785 -0.0361482 -0.0497637 0.141863 0.1318 0.0623257 0.239733 -0.0224292 -0.196984 -0.0895093 -0.0306542 0.0150051 0.131144 0.00854191 -0.0298265 0.079999 -0.133045 0.0753823 -0.203533 0.000797394 -0.023912 -0.04789 0.190031 -0.0674187 -0.107575 0.0509207 0.0410438 -0.15018 0.152705 -0.125719 -0.0422156 0.219393 -0.019388 0.0683686 -0.0431927 0.044786 -0.0341028 -0.11983 -0.0111405 0.00692047 -0.0563898 0.00411928 -0.0222006 0.0057807 -0.149216 0.0844889 -0.0429667 0.024545 0.198237 -0.0828705 -0.0265103 -0.0636656 0.0464655 -0.0270826 -0.120879 -0.04004 -0.0811827 0.0971034 -0.0302215 0.100212 -0.0946406 0.0880024 -0.0946602 0.0463353 0.141002 0.0364287 0.246246 -0.204901 -0.0734533 -0.0436218 0.0406234 0.0106791 0.0894165 -0.143903 -0.0755812 -0.126312 -0.0992661 0.0917149 -0.0449525 -0.0231092 0.0976658 0.0667282 0.177959 0.0782717
Q41 0.0420711 0.0358116 0.050406 -0.0940995 -0.126916 0.0962543 -0.114106 -0.0126253 -0.0220581 0.206272 -0.0928759 -0.0943483 -0.202727 -0.00673958 -0.0561366 0.0665705 0.0691811 -0.120804 0.18482 0.169432 0.0779928 -0.0174194 0.289777 -0.0989027 -0.0283194 0.007708 -0.0833227 0.0549293 -0.083546 0.272793 0.0417855 -0.114641 -0.018861 0.125553 0.0264031 0.0160653 -0.00680517 -0.0217465 0.173945 -0.059185 -0.0126553 0.0749962 -0.0732265 -0.033475 0.102062 0.0305969 -0.134143 0.0448808 0.11419 0.0914024 -0.146658 0.0119603 -0.0424296 -0.199377 0.149193 -0.0927626 -0.0986332 0.135926 0.0394952 0.138745 -0.0524933 0.0828247 0.044636 -0.135737 -0.0241246 -0.0990201 0.106185 -0.172965 -0.100914 0.0400133 0.00784523 0.0282083 -0.130693 -0.0303745 0.00679721 -0.0730356 -0.0163686 -0.16571 -0.00675309 0.0494168 0.0712265 0.0375571 -0.0151995 -0.089543 0.000570774 0.0835233 -0.0208029 -0.0983222 0.00984864 -0.134481 0.0229237 -0.12212 -0.110682 0.027552 0.0197279 0.00050763 0.048916 0.101244 0.21542 -0.0550794
Q155 0.260002 0.163262 0.20453 -0.137323 -0.0682061 -0.0765789 -0.149313 0.11628 -0.0571905 0.199113 0.0200269 0.0421626 0.0042669 -0.0357301 -0.0515017 0.139678 -0.00216497 0.0559116 -0.00468398 0.0713119 -0.00665301 0.0506027 0.131044 0.0278778 0.00646372 -0.0797733 -0.0650727 0.0259132 -0.106023 0.087338 0.0215342 0.0782204 -0.0277709 0.0514354 -0.114106 -0.0525105 -0.0436768 -0.0730381 0.0399112 -0.0435592 -0.0738957 -0.0523592 -0.0555882 -0.0191697 0.0604382 -0.0352588 -0.0142742 0.246702 0.0189267 0.144478 -0.114663 -0.0704898 0.0362468 -0.204001 -0.118853 0.000120943 -0.086856 0.139752 0.0158655 0.0327656 -0.248312 -0.0159791 -0.0110171 -0.121103 0.138177 -0.0385478 0.130977 -0.095683 0.0960056 0.174253 -0.0949806 0.129821 -0.158063 -0.064998 -0.0813071 -0.102511 -0.0211718 -0.105175 -0.0814089 -0.0355946 0.00825914 -0.00227358 -0.0302731 -0.0778429 0.00679272 -0.11098 0.0362378 -0.190172 0.0396142 -0.0810956 -0.0728865 -0.137437 -0.0625734 0.0452334 -0.139073 0.0918214 0.153671 -0.0943881 0.117576 -0.0903528
Q154 0.215018 0.0148997 -0.173894 0.0352102 -0.090683 -0.0905364 -0.0915724 0.0472161 0.0606727 0.203202 -0.130133 -0.026541 0.00921863 0.16819 0.0692001 0.144969 0.0138446 0.0365183 -0.00573451 -0.063286 -0.0518625 0.0416206 0.0449488 0.0322958 -0.0131674 -0.0580908 0.000446423 -0.0859832 0.0503081 0.0912707 -0.158184 -0.128101 0.097451 0.0949405 -0.0887869 -0.0648635 0.00884035 0.0156925 0.21323 0.00573576 -0.0337789 0.0116034 0.0262888 -0.130432 0.0242938 0.0652108 -0.0202913 0.15794 -0.0666188 -0.0415098 -0.0843299 -0.263854 -0.191398 -0.0881545 0.0475721 -0.0187274 -0.0415361 0.0956797 -0.0599799 0.122026 0.00390117 0.000570372 0.0308432 -0.094704 -0.000254823 0.0203569 -0.0483394 -0.139692 0.031787 -0.0550484 -0.199205 0.0297532 0.0109906 0.0979715 -0.0734695 0.0170783 -0.0137577 -0.215454 -0.00864997 -0.031228 -0.123983 0.0215214 0.00973787 0.0571024 0.180262 -0.156987 -0.203641 0.0639871 -0.0644166 -0.304961 -0.02234 0.0407829 -0.00918812 0.15695 0.0723469 0.0677627 0.0495273 -0.0337612 0.101813 0.0865555
Q157 0.041005 -0.0219508 -0.168549 0.0833817 -0.22568 -0.110564 0.0615626 -0.00682209 -0.0145263 -0.0755984 -0.237703 0.138903 -0.0627552 -0.0151694 0.0930788 0.0296354 -0.0276964 0.113889 0.0684992 -0.0577173 -0.123142 -0.0232361 -0.0057302 -0.0660466 -0.0714026 -0.176728 0.125905 -0.200837 0.0100781 0.0407419 -0.171089 -0.0257174 0.0405641 0.00451928 -0.108905 -0.0254125 -0.0215018 -0.156032 -0.0382687 -0.0702325 0.0525429 0.165689 -0.000342049 0.0823361 -0.122166 -0.064259 0.0270782 0.142768 0.0384838 0.0531396 0.0146234 -0.0687904 -0.122208 -0.0527985 -0.0909442 -0.0571213 0.106278 -0.0713864 -0.0434137 0.165773 0.0290978 0.0525398 -0.11186 -0.110519 0.0292779 -0.132077 0.225469 -0.0103245 0.0405504 0.0468474 -0.021002 0.0632051 0.00372908 0.130839 -0.191253 -0.114186 0.195179 -0.00344199 0.0912357 -0.0487515 0.02769 -0.0908008 -0.0231275 0.0763081 -0.0450331 -0.071355 -0.119017 -0.0901195 0.0599148 -0.173496 0.0319566 -0.127504 -0.139238 0.08651 -0.153892 0.110051 0.136101 -0.150552 0.0402579 -0.0674065
Q156 0.0454177 0.116488 0.0177115 -0.0583918 0.0108079 -0.0332545 -0.174986 0.0782574 0.0215127 0.107127 -0.0544499 0.00612219 -0.0624526 0.121364 -0.0635136 0.127269 0.0250913 -0.105318 0.213218 0.141848 -0.0607818 -0.00386586 0.249794 -0.0209319 -0.0514035 -0.0296112 -0.0773216 0.0261441 -0.168769 0.0349775 0.0339743 -0.107642 -0.0640315 0.0764653 -0.0223791 -0.0210481 -0.0687316 -0.00669029 0.0458165 -0.0964588 -0.031076 0.118688 0.0110165 -0.0137996 0.117191 -0.109994 -0.0778193 0.205513 0.0929613 0.190738 -0.186718 0.113509 -0.00176134 -0.0873 0.103979 -0.0806581 -0.0370352 0.0374884 -0.0256543 0.041662 -0.12538 0.083182 -0.0153223 -0.0869335 -0.0100232 -0.127975 0.13129 -0.231535 -0.149784 0.0771875 0.0350866 -0.00161447 -0.106 0.110282 -0.126479 -0.0393263 0.0058248 -0.00718356 -0.0750965 -0.0346075 0.062877 0.0782379 0.200798 -0.122188 0.227329 0.0360347 -0.0687508 0.0188396 0.0303892 -0.222565 -0.0618956 -0.124233 -0.127353 0.109518 -0.0468367 0.00858602 -0.098574 -0.00949554 0.132621 -0.082065
Q151 0.0697166 -0.0359563 -0.00793103 -0.00391493 0.136403 -0.0177921 -0.163234 0.0660082 0.0405933 0.110296 -0.106929 0.0758396 -0.00505414 0.177396 -0.185142 0.0450569 0.179005 -0.0722586 0.0856323 0.0321728 0.109024 -0.0583291 0.296292 -0.0138444 0.0152038 -0.0672973 -0.0777997 -0.00499163 -0.126951 0.08788 0.103375 -0.0356783 -0.0268123 0.0517163 -0.14189 -0.00355565 0.062442 -0.0694402 -0.0446344 -0.0972794 -0.0881626 -0.108447 0.00733678 -0.0903746 0.0479216 -0.0425057 -0.00410066 0.241101 0.11446 0.100813 0.013059 -0.0484897 0.0725392 -0.0670027 0.0227708 0.173267 0.013516 0.0645056 -0.0773545 0.104497 0.0351425 0.0823248 -0.0166359 -0.026519 0.0730218 0.0674154 0.081732 -0.103936 -0.0466759 0.0906133 0.047155 -0.0644619 -0.0647937 0.0817912 -0.000230351 -0.0795172 0.0891001 -0.0664708 -0.250104 0.0507599 0.00444089 0.00794922 0.114611 -0.122409 0.186298 -0.0470467 -0.0414931 -0.0163067 0.294027 -0.263174 -0.0730294 0.00945703 -0.0523214 -0.00340742 -0.133501 0.00246229 -0.13433 0.0216191 0.110742 -0.0323129
Q150 0.0669768 0.125092 0.00900932 -0.0647973 -0.0924922 0.107606 -0.12211 0.0913495 -0.0517213 0.1901 -0.0290969 0.0940925 -0.0978653 -0.097953 -0.0295273 0.184767 0.147218 -0.0744019 0.195892 0.213709 0.0244949 0.116657 0.230135 -0.0917768 0.0223435 -0.110184 -0.135891 0.154128 -0.0639579 0.166258 0.00274749 -0.0149699 -0.00402389 0.0978306 -0.0387489 -0.016505 0.118426 -0.156578 0.148205 -0.176486 0.076836 0.0544611 0.0453108 -0.0941439 0.0758784 -0.0450667 -0.0751931 0.0483002 0.0370569 0.0994647 0.0567864 -0.00469793 -0.0694935 -0.0831407 0.158598 -0.0535524 0.0112238 0.0734329 0.0181846 -0.0158003 -0.056863 0.091992 -0.0374957 -0.0159156 0.020952 -0.111822 0.0883249 -0.0624191 0.02247 -0.0039075 -0.0842825 0.0918034 -0.0387221 0.0525548 -0.0624723 -0.109996 -0.0187027 -0.202782 -0.067157 -0.00741836 0.039887 0.101918 0.0414177 -0.0587231 -0.0102213 -0.00263521 0.0192965 -0.100954 -0.0686338 -0.275564 0.0977337 -0.067499 -0.0776289 0.13108 -0.151637 0.0753057 0.0539568 0.136145 0.10845 -0.169933
Q48 0.208542 -0.0883061 0.0977971 -0.119999 -0.153154 0.0221519 -0.156648 0.145648 -0.0190372 -0.0547204 0.179123 -0.0277403 0.0762929 -0.020977 0.0283454 0.0654907 -0.0889535 -0.187127 0.0319106 -0.00270849 0.151984 0.170755 0.131535 0.0169786 0.0149866 -0.00566889 -0.0842931 0.125004 -0.0482777 -0.116018 0.0523205 0.137568 -0.0730927 0.181981 -0.134909 0.0271106 -0.0155171 -0.051513 -0.125325 -0.052675 -0.0533795 0.154836 -0.103715 -0.0368554 0.12452 0.0446678 0.00383665 0.0809072 -0.027428 0.21971 0.00828556 -0.0786338 0.118548 -0.135494 0.0754667 -0.0476605 -0.107572 0.147209 -0.127326 0.010427 -0.0449835 0.0686865 -0.0199128 0.090773 -0.00757818 -0.0256639 0.00650761 -0.0786903 0.0468621 0.115472 -0.0954808 0.0270139 0.0854478 -0.0763663 -0.195066 0.0838265 -0.000579725 -0.101345 -0.0441068 -0.0361001 0.0148419 -0.0197445 0.0511168 -0.121789 0.0339785 -0.131943 -0.0210004 -0.163131 0.137501 -0.0705954 0.0716749 -0.161212 -0.0412041 0.159939 -0.227723 0.132401 -0.0337817 -0.0870264 0.000460851 0.0524356
Q49 0.200296 0.120914 0.203582 -0.0828856 -0.0635573 -0.0575781 -0.0412106 0.129212 -0.0209445 0.188499 0.0916769 0.170085 0.0541089 0.00287149 -0.00199548 0.0107628 -0.138834 0.0968066 0.0130393 -0.0180794 0.0109093 -0.0956063 0.0467491 -0.161838 0.0872156 0.0466602 -0.0628109 0.0393863 -0.202631 0.0638873 -0.0604044 0.12081 0.0219333 0.15261 -0.178614 -0.0661179 0.0526837 -0.199769 -0.0640182 -0.0399688 0.0611869 0.118702 -0.0888232 -0.0785684 0.152537 -0.0919055 0.0858508 0.222358 -0.144956 0.120593 -0.129082 -0.026797 -0.126234 -0.256089 0.0585042 -0.005825 0.00345935 -0.0122112 0.00417196 0.0260059 -0.0824126 -0.0747288 0.0467449 -0.0343736 0.0749232 0.00943533 0.0211946 -0.036913 -0.00909304 0.131371 -0.0633031 0.0646388 -0.0316552 -0.0463343 -0.00383441 -0.0219255 -0.0197633 -0.0575485 -0.0230662 -0.142962 0.00991783 0.0279872 0.0439775 0.0707602 -0.0118203 -0.0508316 -0.136369 -0.0627532 0.149124 -0.0210738 -0.0197966 -0.159178 -0.0940686 0.200917 -0.141431 0.133299 0.181141 -0.0213776 0.0378179 -0.0387427
Q153 0.0618965 0.175103 0.114466 0.0587038 -0.0378817 -0.0412345 -0.0265655 -0.123242 -0.0506704 0.121482 0.176629 0.22099 0.132529 -0.0569051 -0.0421791 0.0828051 -0.00247479 -0.0367986 -0.0270306 -0.0971025 0.0710643 -0.0703291 -0.0655677 -0.148224 0.0305134 -0.0302185 -0.0361688 -0.0458411 -0.0872548 0.0776998 0.0140719 0.0992046 -0.0698361 0.0338481 -0.136741 0.0364984 -0.189069 0.0906611 0.0165105 -0.00507413 -0.000743894 0.0463226 0.0483959 -0.119518 0.0258901 0.0799273 -0.158104 0.0238048 0.055252 0.0810703 -0.0474395 0.000156046 0.0516896 -0.0696549 -0.232471 -0.0822595 -0.0690396 0.215991 -0.0942495 -0.0205759 -0.0923874 -0.124047 0.0548057 0.0352515 0.108266 -0.163705 -0.0276637 -0.0927253 0.0603859 -0.0283598 -0.0581339 -0.0740259 0.04847 -0.119038 -0.251873 -0.0607387 0.146563 -0.139442 -0.136014 0.152485 0.065857 -0.142735 0.0380174 -0.0854397 0.0275696 0.0318521 -0.0987012 -0.125535 0.0519467 0.0311002 0.0137041 -0.0256805 -0.0539384 0.239902 -0.141522 0.0674928 0.226913 0.0320641 0.0425137 -0.0587534
Q152 0.0230189 0.0733011 0.0155558 -0.0427232 0.0340683 0.081506 -0.19212 -0.0261429 -0.0680674 0.135673 -0.172499 0.0156131 -0.147237 0.0339246 -0.152475 0.0385328 0.146543 0.000222808 0.07642 0.142791 0.0682193 -0.059445 0.215344 -0.0712034 -0.0868625 -0.0154229 -0.149928 -0.0339108 -0.232261 0.14891 0.122155 -0.0371486 -0.115144 -0.0326285 -0.121715 0.0378844 0.0437057 -0.0264939 -0.0664473 -0.0838632 -0.0859464 -0.025051 0.0792893 -0.0523644 0.01755 0.0231771 -0.1047 0.234006 0.042158 0.105188 -0.0376873 -0.0109274 -0.00181943 -0.139175 0.120891 0.0850335 -0.045916 0.0942066 -0.0242618 0.0321987 0.0535355 0.0473713 -0.0332381 -0.110972 0.0207694 -0.052364 0.124316 -0.135761 0.0103296 0.166614 -0.0591041 -0.0573218 -0.0569469 0.0416529 -0.0581777 -0.035158 0.0690079 -0.100484 -0.129692 0.0076291 0.113464 0.0305401 0.196199 -0.080226 0.0791514 -0.044824 -0.00511288 0.0010576 0.219539 -0.218769 -0.127949 0.00184178 -0.14303 0.0960222 -0.138515 0.0264751 -0.10951 0.0598409 0.191939 -0.0734323
Q128 -0.0291931 -0.0111527 0.0761741 -0.0145503 -0.181542 -0.0997427 -0.0609366 0.0448694 -0.0300998 0.176095 -0.187325 -0.147644 -0.0865544 0.0423093 -0.0120113 0.0149283 0.107731 -0.09825 0.0891163 0.17977 0.045573 0.0781742 0.235326 -0.0575125 -0.0754502 -0.0481901 0.0424147 -0.0540442 -0.0959126 0.291103 -0.0444234 -0.0832662 -0.0283827 0.0505266 -0.0135863 -0.00108046 -0.0319935 -0.079676 0.064837 -0.00889307 0.0192848 0.0618964 -0.0811147 0.00765885 0.153795 -0.113217 -0.0794906 0.0279357 0.0997303 0.175203 -0.111911 0.0385631 0.0872982 -0.185607 0.130658 -0.102298 -0.0637786 0.0978895 -0.0322062 0.122609 0.00467419 0.0948568 0.111116 -0.0263127 -0.0265161 -0.177747 0.131134 -0.214799 -0.086988 0.0315528 0.0219709 -0.0599448 -0.0429844 -0.101223 -0.0236645 -0.0759363 -0.102291 -0.0840313 -0.0230768 0.047213 0.0704137 0.0774915 0.00768294 -0.157682 0.164332 0.0613366 0.0418303 -0.18655 0.102271 -0.183289 0.0817082 0.015551 0.0115474 0.0240227 -0.012688 0.0398548 0.0501476 0.0984594 0.139741 -0.144735
Q129 0.123887 0.0566554 0.0177664 -0.00151277 -0.110907 -0.165764 0.0221168 0.0680567 0.0981286 0.0694937 -0.0662096 0.162345 0.10289 -0.0512378 0.141492 0.176124 -0.124916 0.0222807 -0.029647 0.0311437 0.0581016 -0.00827578 0.166713 0.115807 -0.0676658 -0.0620863 0.000700145 -0.105477 -0.162071 0.0804612 -0.152325 -0.154288 0.0415869 0.121466 0.0281023 -0.0155926 -0.0971289 0.0282646 0.10824 -0.046331 0.0183953 0.131874 -0.0325917 -0.0599599 0.0751653 0.0640523 0.012951 0.136206 -0.0163196 0.0961353 -0.0895437 -0.0580492 0.0149613 0.0397142 -0.0370906 -0.203811 -0.0512943 0.0866036 -0.06976 0.0972797 0.0454007 -0.00304615 -0.194707 -0.214295 -0.104438 -0.082015 0.178784 -0.0860868 -0.0188406 0.0713988 -0.0104459 0.107608 -0.194236 0.106506 -0.285456 0.00104161 -0.0455108 -0.0904284 -0.11207 0.010524 0.0803652 0.0227989 0.0317681 -0.0686518 0.206894 -0.000980233 -0.182376 0.0406068 0.03922 -0.134874 -0.0794937 -0.120061 -0.0818512 -0.0225837 -0.106564 0.0820808 -0.00167332 0.00669981 0.102093 -0.0462978
Q120 0.0719514 0.147301 0.0979015 -0.0312506 0.0562026 -0.00379479 -0.109707 0.0419494 0.0910099 0.0734436 -0.0186855 0.0664092 -0.00776657 0.0795329 -0.100719 0.156699 0.0881513 -0.00466286 0.0332181 0.0350802 0.0787162 0.0631754 0.362855 -0.00630008 -0.0411817 0.0368628 -0.118189 0.0624183 -0.174427 -0.102079 0.0185216 -0.0165683 -0.0611405 -0.000383045 -0.0461167 -0.0556154 0.0339821 -0.0692156 -0.0636855 -0.123118 0.0660486 0.117425 -0.0231324 -0.0108042 0.11701 -0.128428 -0.119256 0.159067 0.153181 0.120039 -0.042631 0.0476374 -0.135752 -0.02486 0.145723 -0.0252315 -0.107745 -0.16759 -0.0659245 0.127326 -0.0596051 -0.00618883 -0.156436 -0.111475 0.0616979 -0.052915 0.0230755 -0.0730255 -0.111709 -0.0145415 0.0762049 0.0382891 -0.0865423 0.0686826 -0.133238 -0.124048 0.0646009 -0.0238399 -0.0877067 -0.0421841 0.0705106 0.00739141 0.122105 -0.126865 0.147918 -0.0061399 -0.0292745 -0.074238 -0.0134104 -0.312611 0.00227652 -0.186544 -0.143356 0.13127 -0.0225583 -0.00355501 -0.0907346 0.0500969 0.160952 -0.0380817
Q121 0.0595719 0.0427368 0.0605972 0.000828909 0.0387286 -0.0651107 -0.221347 0.140811 -0.120989 0.134319 -0.0356627 -0.01843 0.071555 -0.0796891 0.0334133 0.198585 0.0537078 -0.016926 0.113234 0.0603176 0.0658578 0.0438201 0.16233 0.0824985 -0.0154515 -0.0275244 0.0210891 -0.0558844 -0.230738 0.198318 -0.158043 0.0663988 -0.0422558 0.0303235 -0.0416613 0.0167824 -0.0360229 -0.0749226 0.0883266 0.0750143 -0.0679978 0.0232127 0.0133634 -0.147542 0.0878875 -0.106508 -0.034635 0.0681726 0.151659 0.0278877 0.0524815 -0.102244 0.0202419 -0.0763488 -0.0992171 -0.0994942 0.0668817 0.0414613 -0.213343 -0.0387948 -0.0376138 0.110092 0.012872 -0.080462 -0.0242663 -0.0570134 0.0132236 -0.17076 -0.151242 -0.0189708 -0.156688 -0.0296307 -0.142927 -0.0346894 -0.0975324 -0.189074 0.118383 -0.115291 -0.202404 0.0326416 -0.094564 0.0794025 0.0626653 0.086899 0.0544516 -0.0652131 -0.0521091 -0.0648304 0.05236 -0.290428 -0.0329263 -0.0442014 -0.0284465 0.103557 -0.0598921 0.114515 0.189604 -0.0162522 0.099769 -0.0872159
Q122 0.0576968 0.0281395 0.0726633 -0.082636 -0.0857335 -0.0746802 -0.108285 0.103128 0.0872295 0.100492 -0.114532 0.0406535 -0.0750489 0.0633878 -0.0282439 0.208708 -0.0480057 -0.0682634 0.189396 0.135062 0.0169149 -0.0371533 0.249062 -0.00830436 0.0413583 0.0112533 -0.0153364 0.035296 -0.232849 0.0935601 0.0534037 -0.137543 -0.0534878 0.101838 -0.0517076 -0.0286545 -0.0119264 0.0706481 0.0986692 -0.134844 -0.0370929 0.137078 -0.0630837 -0.0879584 0.242953 -0.0788806 0.0153091 0.116802 -0.0075972 0.116838 -0.131834 0.0563259 -0.00334088 -0.0752576 0.11252 -0.0150575 -0.0661982 0.0354977 0.0553611 0.142715 -0.0104761 -0.112633 -0.0933366 -0.0672989 -0.063342 -0.140175 0.0284016 -0.265105 -0.113681 0.137401 0.0222257 0.0161709 -0.0897491 0.0764058 -0.175149 -0.0242556 0.0629598 -0.110385 -0.0194037 0.116415 -0.0410541 -0.0133542 0.184813 -0.112452 0.121938 -0.001324 -0.0446279 -0.0211366 -0.0372045 -0.0864621 -0.034925 -0.147568 -0.127542 0.0327736 0.0182758 0.029941 -0.0588151 0.0854526 0.215184 -0.066034
Q123 0.243685 -0.0183819 0.0148292 0.0982249 -0.0501649 -0.0709364 -0.0935436 0.0504496 0.00350381 0.248086 0.0808647 0.0646515 -0.0954837 -0.0705573 -0.189316 0.0518589 0.11803 -0.0943291 -0.0645362 0.068414 0.131805 -0.0109792 0.135058 -0.0351304 -0.120388 -0.176776 -0.0282025 0.0906082 0.0745182 0.108147 0.0326015 0.0327783 -0.0069367 0.0954101 -0.0769362 -0.089793 -0.0871105 0.00700951 0.12779 0.00572641 -0.0845904 0.115491 -0.0901629 -0.0452899 0.234621 -0.0712273 -0.158427 -0.0236901 -0.0875415 0.14618 -0.0306397 0.0724224 -0.0311533 -0.20084 0.00104232 0.0267957 -0.0105579 -0.0437394 -0.228655 0.0861046 -0.112053 0.0560509 -0.0866616 0.0136329 0.156711 0.023907 -0.0252598 0.0311954 0.0959816 0.126432 -0.131961 0.0368355 -0.0315916 -0.0841376 -0.091148 -0.0473288 0.096073 -0.0444746 -0.0142337 0.0593238 0.0637123 0.0516679 0.10196 -0.167409 0.0473205 0.00167734 0.0214786 0.0754134 0.167136 -0.0120216 -0.114525 -0.183154 -0.0210573 0.0123336 -0.0106649 0.113539 0.137959 0.152135 0.0896043 0.14693
Q124 0.0750817 0.0373889 0.0473313 -0.124282 -0.0252924 -0.0900523 -0.160108 0.0628855 -0.00019864 0.105442 -0.156701 0.128268 0.018482 -0.0229419 0.0795604 0.0681497 0.017882 -0.119554 -0.00854675 0.157701 -0.0816288 0.00556173 0.0642411 -0.0963436 0.0224879 0.117808 0.0518105 -0.0820127 -0.121116 0.141707 -0.090265 0.00504841 -0.14176 0.0947445 -0.247812 -0.0166211 -0.0758362 0.00310017 -0.0258487 -0.163579 0.0122074 0.0865497 -0.10951 -0.11237 0.198698 -0.0718601 0.0309927 0.1254 0.0449236 0.0885609 -0.0573785 -0.038085 -0.240517 -0.0319313 -0.0455124 -0.154656 0.0201409 -0.0449422 -0.202979 -0.100406 -0.108067 -0.0205143 -0.0132275 0.0286482 0.0690513 -0.142078 -0.013794 -0.0946397 -0.0325772 0.040242 -0.0710847 0.100742 -0.187508 0.0785365 -0.0803609 -0.065158 0.145731 -0.0931679 -0.049729 -0.0116191 -0.0956553 -0.0753789 0.0114206 -0.00844236 0.0327079 0.0159104 -0.248272 -0.0275101 0.0168645 -0.116493 -0.0693027 0.104761 -0.142043 0.155528 -0.0781923 0.159978 0.137675 -0.139764 0.00273675 -0.0574591
Q125 0.165461 0.0228907 0.139546 -0.174024 -0.118223 -0.0988589 -0.0190129 -0.00249402 -0.0529135 0.101675 -0.0291052 0.154688 -0.0671761 0.119116 -0.0150577 0.112562 -0.222415 0.02226 0.0994644 -0.0166017 -0.0568894 0.0429842 0.168622 -0.0755305 0.0667935 -0.0204355 -0.0900214 -0.016108 -0.165268 -0.004907 -0.0484802 -0.00623233 -0.10835 0.186466 -0.0622047 -0.0427618 -0.0920929 0.0234293 -0.0248958 -0.0430778 -0.049644 0.131576 -0.0374085 -0.0120167 0.139309 -0.0171742 0.00980202 0.195959 -0.0853949 0.0653269 -0.12523 -0.0193481 -0.0208099 -0.179147 0.0829955 -0.0780755 -0.0246613 -0.0776621 -0.0851557 0.0335496 -0.0489943 -0.117963 -0.0946077 -0.0401104 0.0737401 -0.00250856 0.0354398 -0.137583 -0.049665 0.143079 -0.0892326 0.0717989 -0.187832 -0.0759376 -0.083315 -0.165316 0.00529774 -0.181837 -0.224994 -0.0495436 -0.00192533 0.105571 0.0682244 -0.0907143 0.240194 -0.139621 0.0530324 -0.0917455 0.00225836 -0.139745 0.0619547 -0.0329607 -0.0947365 0.0809358 -0.117569 0.0895307 0.0480467 0.0733024 0.11791 -0.0954393
Q126 0.0860486 0.0687738 0.13714 -0.212317 -0.174717 -0.0755747 -0.169573 0.147989 -0.0660148 0.0957327 0.0392067 0.0752738 0.0285346 -0.0895552 -0.103329 0.0258087 0.0560932 -0.108364 0.0578888 0.185853 0.0563397 0.0312575 0.185034 -0.053735 -0.00420221 -0.103793 -0.107402 -0.00454426 -0.0321289 0.290394 0.0460668 -0.035329 -0.0798246 0.0470539 -0.102078 -0.0310308 -0.083348 -0.0733257 0.0900396 -0.0981622 -0.0811423 -0.0394263 -0.0467004 -0.0887698 0.132659 -0.170621 -0.127777 0.204535 0.023146 0.0253651 -0.124855 0.0509739 -0.0329809 -0.115108 0.198819 0.0123762 -0.0358385 0.0257967 -0.0604684 0.0460542 -0.10756 -0.0495168 -0.0193799 0.0567055 0.0320727 -0.0789196 0.036732 -0.13994 -0.130069 0.144527 -0.0417152 0.0260862 -0.0835021 0.00790221 -0.0467688 -0.109945 -0.000699459 -0.175546 -0.0919469 0.0743211 0.155929 -0.0783252 -0.0149942 -0.0443707 0.0368712 -0.127131 0.0262704 -0.00582634 0.017648 -0.156097 0.0495101 -0.229789 -0.125583 0.0508206 -0.0659458 0.0460583 0.0849454 0.0729775 0.128258 -0.00770631
Q127 -0.0406459 -0.0369401 -0.0609569 -0.00276255 -0.0682964 0.133471 -0.102507 0.00872695 -0.0399897 0.214891 -0.119284 -0.0781987 -0.15914 0.0427214 0.038653 0.0153346 0.067806 -0.0624753 0.246067 0.192042 0.113575 0.0121518 0.290669 -0.0269319 -0.0258178 0.00482757 -0.107277 -0.0320197 -0.135779 0.245362 0.0347341 -0.0335166 -0.0722555 0.0670278 0.0967477 0.0315901 -0.140596 -0.0890091 0.0543244 -0.0355998 -0.0950695 0.0872553 -0.00485345 0.00955404 0.0433795 0.0488799 0.0119547 0.0345337 0.0303782 0.0829423 -0.127549 0.0210822 -0.102307 -0.197334 0.0269535 0.0345939 -0.113184 0.163695 0.0859674 0.0485027 -0.146962 -0.0416461 0.00670168 -0.139018 -0.0623044 -0.0929907 0.163463 -0.203609 -0.152845 0.0344445 -0.00446489 -0.0735292 0.00158729 0.027337 -0.0795537 0.0531279 0.0816518 -0.147287 -0.0504348 0.14433 -0.00246174 0.138184 -0.0117251 -0.0707757 -0.0121938 0.0226039 0.0139828 -0.11986 0.0884272 -0.167454 -0.0752969 0.00562964 0.0218235 0.0903454 0.0270458 0.120782 -0.07602 0.0348021 0.166874 -0.102071
Q33 0.121768 0.122435 0.0888333 -0.113579 0.062117 -0.0304482 -0.0880509 0.133628 0.0130628 0.066703 -0.0545485 0.07061 -0.0299489 -0.0511031 -0.0834926 0.122719 0.0274806 -0.0907296 0.0333889 0.232192 0.0326252 0.0730122 0.378926 0.0405819 -0.115025 -0.0536803 -0.0839044 0.0603011 -0.0528039 -0.00254727 -0.0166894 0.01989 -0.11863 0.0524865 -0.0889989 0.0708781 -0.0902576 -0.0639809 -0.0174779 -0.107223 -0.11996 -0.0754197 -0.036337 -0.0394512 0.136717 -0.100902 -0.102017 0.278368 -0.00351863 0.147396 -0.00883064 0.0208714 -0.00185808 -0.0582425 0.0357197 0.0914974 -0.0256339 0.133758 -0.0608306 0.0913115 -0.113352 0.103377 0.0759842 0.00671906 -0.0720111 -0.0533833 0.0175053 -0.115807 0.0339739 0.162603 -0.0595744 0.00705759 -0.145606 0.0310563 -0.135409 0.0848302 0.0509914 0.00140521 -0.102989 0.061996 0.137675 -0.0608044 0.117904 -0.0494187 0.137893 -0.131948 -0.0107911 -0.0695797 0.164195 -0.0473256 -0.115403 -0.0922725 -0.183169 0.132846 -0.114791 0.0259457 0.0632784 0.0143211 0.166843 0.00103943
Q32 0.103085 0.0882737 0.0670667 -0.132619 -0.0954399 -0.0572534 -0.225883 0.076572 -0.0504075 0.0652367 -0.0185257 0.0311641 -0.103824 -0.00620336 0.0111428 0.1631 0.0189508 -0.0824077 0.198792 0.156378 0.0627628 0.0345231 0.234844 -0.0833293 -0.101074 0.0474624 -0.0237093 0.126853 -0.200071 0.194371 0.0328875 -0.124602 -0.049177 0.117377 -0.0645368 0.100931 -0.115802 -0.0979156 0.142161 -0.0782498 0.0764492 0.141904 -0.00511715 -0.0720848 0.173778 -0.047559 -0.095 0.143473 0.0465835 0.0853146 -0.159529 0.0131383 -0.105358 -0.0967638 0.150857 -0.0431923 0.00562791 0.0952112 -0.0864757 -0.0256973 -0.0847159 -0.0499186 0.0052788 -0.110274 0.0316776 -0.18181 0.0668443 -0.20785 -0.0361578 0.109183 0.0366817 0.00754989 -0.10426 0.0266022 -0.129539 -0.14815 -0.00619283 -0.0807472 0.0304773 0.0450723 0.138762 0.0488751 0.186297 -0.0136491 0.0821274 0.0118988 0.0279367 0.0282053 0.0262123 -0.138892 -0.0257826 -0.0945254 -0.00761131 0.0374028 -0.015372 -0.0240313 -0.0853238 0.102263 0.129744 -0.0517159
Q31 0.000969474 0.0522249 0.00106806 -0.00943381 0.0243931 0.0381342 -0.171195 0.0335907 -0.020316 0.107427 -0.0593097 0.0375327 -0.0956256 0.175523 -0.11194 0.116738 0.162755 -0.0689722 0.181015 0.204729 0.118914 -0.00429448 0.249951 -0.0318177 -0.0864584 -0.0782304 -0.118355 -0.0159491 -0.12076 0.105306 -0.00319658 0.0399023 -0.0909033 0.0005485 -0.0700746 0.0516265 -0.00240351 -0.0531193 -0.0662692 -0.139641 -0.0742526 0.0213426 -0.0703046 -0.0366643 0.162421 -0.0356057 -0.103846 0.254542 0.102707 0.121337 -0.0525362 -0.0324193 -0.0529157 -0.142427 0.0634537 0.020115 -0.00956532 0.0912783 -0.0332133 0.079985 -0.00508305 0.0720943 -0.118602 -0.155323 0.0569045 -0.0683546 0.156946 -0.190443 -0.144356 0.0823306 0.0133555 -0.0146123 -0.00463354 0.00691265 -0.0886991 -0.088614 0.0824814 -0.128807 -0.125336 0.0652457 0.00142137 0.104969 0.164414 0.00147051 0.109996 -0.144458 -0.0694759 -0.0355792 0.13022 -0.20915 -0.0600988 -0.0724257 -0.133056 0.158496 -0.0190061 0.0895969 -0.03434 -0.00477417 0.0411021 -0.110801
Q30 0.178682 0.0466629 0.0995371 -0.0628578 -0.0803812 -0.0834831 0.012623 0.0611089 0.0277942 0.212127 0.0550581 0.0605533 0.0296234 0.104939 0.00585402 0.180139 0.034937 0.28624 0.0475472 -0.155017 0.0780575 -0.124835 0.0995716 -0.205671 0.0263713 -0.100786 -0.101096 -0.0347711 -0.20655 0.119473 -0.0910535 0.119478 0.0547474 0.0265347 -0.128419 0.0949347 0.0732644 -0.135328 -0.0528214 -0.0555123 -0.00376715 0.0875719 -0.103906 -0.046256 -0.0552201 -0.0954493 0.0816096 0.206821 0.0130558 -0.0663958 -0.260615 -0.0486091 -0.00448748 -0.0523478 -0.0285531 -0.0972976 -0.0110124 0.0386859 -0.15381 -0.0406547 -0.039859 -0.181232 0.00135207 0.00618518 0.0855336 0.0122555 0.0806123 -0.0934038 0.136161 0.107571 0.0157613 0.0553126 -0.136833 -0.106465 -0.0214179 -0.134824 0.0177075 -0.0547299 -0.0353606 -0.0296687 -0.0700639 -0.00699929 -0.0237921 -0.0434912 0.0396734 -0.0932232 -0.0819537 -0.00378715 0.224663 -0.0136716 -0.0609003 -0.120057 -0.0976177 0.0919171 -0.0327896 0.141739 0.078977 0.106267 0.0354261 0.0332461
Q37 0.267616 0.0185176 0.136944 -0.0589862 -0.083939 -0.162294 -0.0789728 0.117246 0.0473899 0.169768 -0.192803 0.0335905 0.096561 -0.00577679 0.0778449 -0.0893257 -0.0706923 -0.0530086 0.00857981 0.0201177 0.00103979 0.0196433 0.114933 -0.0387301 -0.0137397 -0.169571 -0.0794007 -0.0487768 -0.0816299 0.154603 0.033849 -0.0470382 -0.0256969 0.00598159 -0.225507 0.0306767 -0.0732533 -0.205687 -0.0411957 -0.120104 -0.0664085 0.0794272 -0.0606392 -0.0224984 0.0304427 -0.0644102 -0.015639 0.141045 0.0720251 0.0487581 -0.212211 -0.0147902 -0.088052 -0.125209 0.0317636 -0.0764804 -0.0701308 -0.109082 -0.0510137 0.0451601 -0.0295682 0.000792197 0.0257465 -0.0136776 0.049813 0.00613368 -0.023653 -0.159647 0.0323438 0.213267 -0.0229509 -0.00814231 -0.090035 0.0692884 -0.0525284 -0.14334 0.0443751 -0.109575 -0.125414 0.0185784 -0.0188718 0.0580549 0.134826 0.0215998 0.1067 -0.160227 -0.111639 -0.0698714 -0.000955784 -0.247158 0.0996215 -0.187435 -0.115628 0.0401963 -0.0544586 0.0660164 0.118097 -0.093834 0.153746 -0.0920841
Q36 -0.00801895 0.106628 -0.0142784 -0.0895595 -0.0540355 -0.0570609 -0.239035 0.0678611 0.0761894 0.0814019 -0.0418699 0.0701072 -0.195132 0.108509 -0.121483 0.130678 0.0389426 -0.152745 0.19838 0.164221 0.135045 -0.0520955 0.289121 -0.0373947 -0.03868 -0.000800834 -0.105898 -0.0378459 -0.0923334 0.179232 -0.00265256 -0.0842159 -0.0931358 0.0794445 0.010075 0.132481 -0.137534 -0.0399252 0.0608198 -0.0396849 -0.0630184 -0.00769238 -0.0748382 0.00579158 0.112038 -0.116609 -0.0148319 0.104859 -0.0602099 0.21827 -0.144887 0.103546 -0.0426897 -0.114468 0.0905518 0.111393 -0.0968367 0.0545978 -0.00370497 0.131562 -0.0583494 0.014536 -0.00487554 -0.107992 -0.108465 -0.0807463 0.179097 -0.22119 -0.13037 0.075054 -0.0243933 -0.0459461 -0.0128912 -0.0483288 -0.0416829 0.0831802 0.0373327 -0.0363239 -0.0279452 0.0198597 -0.0404064 0.0899283 0.0917204 -0.0811096 0.18052 0.112535 -0.0129699 -0.0529506 0.0471372 0.00378602 -0.0454948 -0.127468 0.0145112 0.149596 -0.05626 0.0496112 -0.0181254 0.0582971 0.103986 -0.0881636
Q35 0.35586 0.0723545 0.139776 -0.151294 0.0654286 -0.0767385 -0.0907991 0.104462 0.0249248 0.0325542 -0.024698 0.148663 0.0363999 0.0205865 0.0165174 0.0995981 0.00337847 -0.0180941 0.137474 0.0387817 0.124212 0.0226253 0.174351 0.0464718 -0.0285774 0.0262336 -0.0114752 -0.0295798 -0.10019 -0.0782965 -0.180755 -0.0417465 0.0199922 0.0205679 -0.0513289 0.00384648 -0.131458 0.0492935 0.188457 -0.107451 -0.0209743 -0.0847651 -0.135651 0.042944 0.105218 0.0184044 -0.186416 0.216513 -0.0738356 0.131204 0.00175701 0.0294028 -0.0438661 -0.0919655 -0.0701929 0.0487904 -0.00267325 -0.0291111 0.0329006 0.0640452 -0.0991966 0.0248194 0.00830202 0.0666756 0.124582 -0.0839555 0.0285228 -0.104572 0.0236432 0.049959 -0.055762 -0.0186829 -0.0785688 -0.175951 -0.121048 0.042731 0.123051 0.0938913 -0.115205 0.0783053 0.0290044 -0.0736302 -0.0994954 -0.0571401 0.210614 0.0216035 0.00953144 -0.149387 0.0939414 -0.242566 -0.0857005 -0.127436 -0.0275044 0.168178 -0.0854716 0.119509 -0.0420637 -0.0384746 0.0944236 0.0762656
Q34 0.0479497 0.139792 0.0594111 -0.0533963 -0.00345667 -0.0654898 -0.214687 0.0957315 -0.0772114 0.0524775 -0.105051 -0.0893636 -0.0317799 -0.11585 0.00128444 0.130352 -0.0197649 -0.00352531 0.093869 0.10689 0.0669053 0.0586813 0.222548 -0.0446989 -0.0615251 0.065574 -0.188381 0.00580466 -0.102612 0.264148 -0.106509 0.0286088 -0.115768 0.0462307 0.0712692 0.0152815 -0.103169 -0.0484504 0.109583 -0.00474222 -0.079648 0.0475034 -0.0630354 -0.0922168 0.000421102 -0.0127944 -0.113477 0.166273 0.0204563 0.11584 -0.0722749 -0.0774157 -0.0370156 -0.0594743 0.0672725 -0.0840008 0.0167506 0.346505 0.0297983 0.113406 -0.211409 -0.0397135 -0.0372112 -0.0615882 -0.038446 -0.0691147 0.064472 -0.0330847 -0.12343 0.0336406 0.00342182 0.0355502 -0.0458288 0.106038 -0.0605911 -0.0272539 0.137115 -0.133294 -0.0304118 0.0792479 -0.0340517 -0.041053 0.00180489 -0.0223929 0.129515 0.00159824 0.0574658 0.118524 0.139768 -0.127865 -0.141451 -0.149583 -0.153354 0.138487 -0.0424497 0.0538973 0.05445 0.092398 0.188048 0.0385223
Q39 -0.0112735 0.0515495 -0.0128103 0.0152062 0.00837427 0.0997949 -0.190066 -0.0788677 -0.0625322 0.129645 -0.201682 0.0818323 -0.0766955 -0.127042 -0.113213 0.0758617 0.0294104 -0.0235622 0.123543 0.19435 0.0186264 0.040355 0.136213 -0.0724587 0.0990297 0.00503548 -0.0384262 0.0144122 -0.12976 0.155424 0.017003 0.0857627 -0.0361609 0.112532 -0.213018 0.0812062 0.0843204 -0.0571175 0.0352499 -0.0772061 0.0623534 -0.00914515 -0.0594316 -0.210632 0.101458 -0.00876045 -0.104156 0.0925552 0.0004021 0.269264 -0.0600246 -0.0622354 0.059433 0.00964189 0.0375335 -0.143613 0.0123839 0.00535065 -0.0164021 -0.00197216 0.0206673 -0.00514011 -0.0276374 -0.0590434 0.0166097 -0.146494 0.0522393 -0.108203 -0.117456 0.0679083 -0.0393572 0.176706 0.0277239 -0.114526 -0.0231452 -0.0865531 -0.0852022 -0.100399 -0.110517 -0.0251926 -0.0353658 0.141787 0.0608245 0.0328362 -0.0498618 -0.0548691 0.0240817 -0.0431793 0.00193329 -0.171221 0.00159036 0.0351475 -0.0319813 0.112284 -0.259061 0.157533 0.179689 0.0940653 0.162081 -0.205789
Q38 0.0160992 -0.0469249 0.0757417 -0.01897 -0.121819 0.111708 -0.118222 0.0265363 -0.0598957 0.154879 -0.12531 -0.088423 -0.146808 -0.00674372 -0.0253852 0.111051 0.041608 -0.0674108 0.179313 0.144928 0.00322236 -0.024374 0.284766 -0.115098 0.0307798 -0.00853694 -0.0549659 -0.0573756 -0.120609 0.299601 0.185469 -0.193329 -0.0387533 0.149913 -0.0467678 0.0279922 -0.0953351 -0.0316208 0.104788 -0.0557675 0.00137109 0.0489089 0.000542963 0.0192505 0.044369 0.0332746 -0.0340267 0.0718139 0.118096 0.140089 -0.171387 9.44922e-06 -0.0140224 -0.18669 0.119681 -0.172827 -0.118063 0.112614 0.0468263 0.147249 -0.0846111 0.0830766 -0.0235728 -0.133818 0.0357941 -0.118629 0.0923221 -0.119774 -0.0312103 0.109642 0.0213056 -0.0755196 -0.0846065 0.0258389 -0.0216417 -0.0434229 -0.0305115 -0.0861485 0.0555651 0.0127631 0.0362162 0.0389834 0.057227 -0.126813 0.0112753 0.0217738 -0.0551043 -0.120189 0.0080148 -0.219567 0.0158182 -0.167114 -0.0601594 0.0646528 -0.0560777 -0.000679606 0.0517937 0.0949943 0.0709656 -0.118005
Q142 0.222482 0.142931 0.128588 -0.106534 -0.113621 -0.0555906 -0.0989547 0.224285 -0.0420463 0.0575308 0.140233 0.0684656 -0.0206839 -0.0101437 -0.047961 0.174457 0.00541183 -0.19411 0.177176 0.193923 0.0888971 -0.0293285 0.199288 -0.182791 -0.0137263 -0.0661717 -0.110014 0.0473116 -0.0990879 0.0412876 -0.0633706 0.0323991 -0.0669505 0.120888 -0.040811 0.0480971 -0.143347 -0.0317994 0.138171 -0.0820172 0.0214358 0.0859192 0.0638644 0.064029 0.239363 -0.141335 0.0262623 0.192904 0.000958378 0.0324005 -0.048524 0.00503023 0.012153 -0.0756218 0.144645 -0.065587 -0.0710685 -0.0115452 -0.153316 0.0378294 -0.110477 -0.0417012 -0.0536368 -0.0245997 0.0780693 -0.0596843 0.0357717 -0.12899 0.0359257 0.104992 -0.0201421 -0.0617194 -0.0292418 -0.0165229 -0.19986 -0.0652641 -0.0585052 -0.204308 -0.0572021 0.00307056 0.116505 -0.0259894 0.0564478 -0.0975215 0.0585166 0.0615561 -0.0142611 0.0496056 -0.0237177 -0.130406 0.0915485 -0.119386 0.0239051 0.154047 -0.0496668 -0.00511389 0.0634459 0.0308752 0.0942132 0.00574652
Q143 0.206608 0.0315302 0.109789 -0.0296147 -0.0356559 -0.139468 -0.146342 -0.0603963 -0.0244875 0.0501765 0.144191 0.221577 -0.0630494 -0.0539676 0.0135792 0.166889 -0.0592765 -0.105432 0.126077 0.0748875 -0.0119105 0.00592019 0.116313 0.0345833 0.0706395 -0.0965388 -0.0260749 0.0496187 -0.171126 0.0734004 -0.149715 0.115957 -0.114575 -0.0200037 -0.102427 0.0728474 -0.08077 0.0587177 0.0423809 -0.0230581 -0.088819 0.0166263 -0.0460485 -0.0354267 0.0144419 -0.106713 -0.155855 0.214249 -0.000307327 0.0516115 0.048096 -0.0342728 0.112242 -0.129799 -0.0946565 -0.00213553 -0.105381 0.115937 -0.151456 0.0975504 -0.0948467 0.00286719 0.0478275 -0.00290244 -0.125087 -0.11421 -0.0665853 -0.203656 0.0275984 -0.0128457 -0.114703 0.0284378 -0.00938031 -0.0346984 -0.17064 -0.107171 -0.0233883 -0.216259 -0.0125332 0.0924746 0.0787916 -0.0378898 0.0897041 -0.0465252 0.053294 -0.103126 0.002753 -0.0129486 0.059923 -0.239856 0.0850455 -0.0685918 -0.122091 0.194591 -0.0777198 0.116939 0.179059 0.0651026 0.0446589 0.00881687
Q140 0.068722 0.130673 0.181586 -0.105962 -0.0876248 -0.0543016 -0.101083 0.135163 -0.13678 0.0855052 -0.0333645 0.110071 0.0227622 0.0209838 0.0485256 0.156383 -0.053244 0.0266027 -0.000971706 0.207116 -0.0997306 0.0581774 0.234271 -0.0328743 -0.033229 -0.0842325 -0.0610598 0.0546915 -0.0246461 0.102237 0.0027108 0.0542319 -0.0762971 0.0669051 -0.110219 0.0478696 -0.0713542 -0.0923119 -0.0252317 -0.00350065 -0.018916 0.0655379 -0.0273926 -0.0288004 0.0821377 -0.155428 -0.0982582 0.202835 0.0585316 0.0552408 -0.081109 0.0765244 0.0999366 0.00624801 0.040663 -0.0504147 -0.0073922 0.208026 0.0426717 0.198836 -0.123726 -0.0235168 0.109919 -0.0816768 0.0671252 -0.127085 0.0191359 -0.0454376 -0.0416041 0.140576 -0.0911004 -0.014935 -0.00622755 0.202611 -0.107028 0.0286776 -0.0452305 0.0939856 -0.114864 0.065882 0.0038319 -0.00887877 0.146675 -0.0687595 0.0928002 -0.181729 -0.0106741 -0.119973 0.120178 -0.146485 -0.0686484 -0.0940262 -0.0811649 0.128191 -0.0485646 -0.0291997 0.212046 -0.0221188 0.235722 -0.0988607
Q141 0.137782 -0.0198055 -0.158731 0.0275686 -0.134338 -0.01955 -0.0607177 -0.0574349 -0.0287129 0.114774 0.00958856 -0.0239249 -0.0936431 0.0138493 -0.0476318 0.159593 -0.0674908 0.125217 0.0575901 0.0191208 -0.185932 -0.0384345 0.141749 -0.0027501 -0.0437234 0.120058 0.0254291 -0.23213 -0.189291 0.0909015 -0.117504 -0.16981 0.0555553 0.0925034 -0.143365 -0.0552798 -0.0934826 0.063271 0.0163591 -0.229687 -0.167123 -0.00568629 -0.122127 -0.043759 0.09114 0.133169 -0.0205469 0.0620831 0.112194 -0.094192 -0.171698 0.00708926 0.0181394 -0.197902 0.0590689 0.0878166 -0.0524111 0.0454385 -0.0223503 0.12339 0.0431316 -0.14953 -0.18494 -0.116594 -0.0900759 -0.0368349 -0.0404556 -0.165815 -0.0202604 0.0140677 0.126004 0.0294416 0.0377831 0.0330558 -0.0513068 -0.0979068 0.0299058 -0.182252 -0.139569 0.0428613 -0.0674608 0.0266777 0.0325701 -0.0520481 0.126849 -0.051829 -0.113595 0.00837344 -0.0455187 -0.13633 -0.0615657 -0.136627 -0.039866 0.0403944 -0.140689 0.11229 -0.0161926 0.0905635 0.0700977 0.104163
Q146 0.00523839 -0.0372229 0.014914 -0.0142879 -0.0469278 -0.0517515 -0.135673 0.110851 -0.0338356 0.286223 -0.0900822 0.0551034 -0.0792933 -0.0212069 0.133051 0.102292 -0.0162443 0.0143133 0.124687 0.0983041 -0.127232 0.00500516 0.130118 0.0414225 -0.0837052 -0.0544718 0.106868 -0.0495151 -0.160899 0.147716 -0.135576 0.0507061 -0.0399062 -0.000250904 -0.233189 -0.0998318 -0.171935 -0.130216 0.0462679 -0.0434727 0.00946496 0.00926168 -0.139872 -0.14797 0.039462 0.0592422 -0.0673159 -0.0165075 -0.0209178 0.071677 -0.0860285 -0.0812099 -0.00169754 0.0597307 0.0814504 -0.14006 0.0591759 0.0178493 -0.116194 -0.0109517 -0.0864331 0.0394581 0.0518526 -0.0850172 -0.0146339 -0.197512 -0.049911 -0.2133 -0.157846 0.0825644 -0.167023 0.0171014 -0.000802439 0.0886177 0.00227148 -0.214539 -0.0479742 -0.126143 -0.132371 -0.0401874 -0.0183256 0.0467032 0.0971894 -0.123421 0.0894043 -0.027489 -0.18693 -0.0354302 -0.00235341 -0.244288 -0.0395783 0.0838168 0.102353 0.135594 -0.0451404 -0.0643358 0.0542262 -0.0872021 0.0476629 0.00235055
Q147 0.0409869 0.114324 0.129834 -0.129963 -0.0285894 -0.0157196 -0.208076 0.193887 -0.205388 0.0126427 -0.0836983 0.0334612 0.0042528 -0.0695602 0.00914708 0.1617 -0.00852016 -0.00729813 0.0779046 0.0136008 0.00766016 0.0801786 0.128436 -0.0790761 -0.043253 0.0121417 -0.100485 -0.0122938 -0.180776 0.180093 -0.0337919 -0.0273972 -0.0692405 0.122817 -0.0299582 -0.0484747 -0.0717112 -0.00131857 0.0618714 -0.0625401 -0.0752202 0.0594813 -0.125845 -0.0317684 0.0167336 -0.0325298 0.0431827 0.125145 -0.000232712 0.110424 -0.113151 -0.0969617 0.0415259 -0.095377 0.0931261 -0.169065 -0.0973348 0.220218 -0.0339682 0.100806 -0.167912 -0.0778918 0.00951413 -0.18387 0.0634963 -0.127508 0.0674927 -0.089436 0.0655758 0.0676295 0.0138155 0.07153 -0.0617099 -0.00717818 -0.1535 -0.0308207 0.118361 -0.0192506 0.0152565 -0.0277336 0.0300498 -0.000361342 0.133184 -0.131405 0.170423 0.0519673 -0.0173066 0.0596275 0.0589231 -0.0208396 -0.0973083 -0.155921 -0.126227 0.112566 -0.209383 -0.0110855 0.0874069 0.0772654 0.273565 0.106205
Q139 0.184631 0.100434 0.180286 -0.0717399 -0.139415 0.0727968 -0.0983571 -0.0294755 -0.0377989 0.185228 0.0787039 0.192985 -0.12928 -0.0592836 -0.105877 0.121489 -0.0235531 -0.148464 0.0597973 0.137582 0.115601 -0.0603312 0.204404 0.0274006 -0.0951571 -0.173195 -0.0388421 0.0528524 0.0444861 0.0324399 -0.152219 0.0665058 0.0703577 0.133314 -0.0308992 -0.0349458 -0.154866 -0.144389 0.0671013 -0.154194 -0.0182334 0.0162305 -0.0560232 0.0300625 0.150959 -0.109897 0.0243524 0.0768617 0.00503518 0.0391145 -0.129414 -0.0479795 0.0799103 -0.0899402 0.0455626 -0.0757071 0.108019 0.062447 -0.0820632 -0.0621511 -0.0916256 0.0432606 -0.0341336 0.0585077 0.0727017 0.0565662 0.0912079 -0.182748 -0.0090633 -0.0104599 -0.0123234 0.0481849 -0.0281176 -0.217899 -0.137114 -0.066846 -0.0175649 -0.191178 0.00797561 -0.0105348 0.0816297 -0.0274833 0.0930169 -0.0767893 0.0851726 -0.0979139 -0.0708971 0.0698822 0.0649022 -0.278067 0.0526743 -0.0823276 0.0544324 0.0947414 -0.0221609 0.0222329 0.0729006 -0.0123012 0.13391 -0.115857
Q138 0.0088812 0.0800779 0.0600204 -0.154864 -0.0839457 -0.012319 -0.0852025 -0.0465272 -0.0208178 0.182143 -0.0186794 0.0309794 -0.063786 -0.0663324 -0.163276 0.216305 -0.0566719 -0.139904 0.147255 0.121108 0.0204976 0.0659467 0.338416 -0.0425011 0.0641794 -0.0509179 -0.0490946 0.012924 -0.119604 0.195027 0.0418141 0.0510707 0.0120341 0.182922 -0.0857188 0.0505311 -0.0857322 -0.144827 0.0150751 -0.0658658 -0.0862257 0.0510509 -0.00268636 -0.15494 0.0243013 -0.0780825 -0.0720768 0.0262751 0.106138 0.135251 -0.205347 -0.0468013 0.019722 -0.0145725 0.0841704 -0.137557 0.0987141 0.114847 -0.133151 0.0779871 -0.0823814 0.00259662 -0.130223 -0.120587 -0.0138273 -0.11333 0.146462 -0.145183 -0.0648292 0.0452242 -0.100681 -0.0868131 -0.0111634 -0.148268 0.0253494 -0.00964385 -0.0293065 0.0370695 -0.0225334 -0.0755481 0.12876 -0.123477 0.138931 -0.0436148 0.0851911 -0.0145361 -0.0461626 0.0524801 0.0127959 -0.261633 -0.0761306 -0.0385029 -0.0159366 -0.0631747 -0.108391 0.0679002 -0.00307963 0.0401906 0.0211801 -0.0540955
Q144 0.190704 0.0302215 0.00254808 -0.0696796 0.116351 -0.111314 -0.187367 0.0237146 0.071593 0.168422 -0.0644271 0.0429214 -0.0372253 0.131178 -0.161884 0.0821496 0.0567361 -0.0633997 0.0658542 0.0856394 0.102607 0.0488319 0.306015 -0.0182234 -0.0542024 -0.10193 -0.0325767 0.0306457 -0.147999 0.0312381 -0.039285 -0.00670598 -0.0150624 0.116829 -0.0766541 -0.0707298 -0.0291569 -0.0510262 -0.0396389 -0.0739518 -0.0462956 0.0586839 -0.0590418 -0.00507189 0.147784 -0.150887 -0.0483592 0.0995638 0.157693 0.0930584 -0.0815309 0.00973872 0.0215553 -0.117038 0.183703 0.0651154 -0.0188216 -0.0874224 -0.079716 0.0627363 -0.114952 -0.0433845 -0.0628694 -0.00495153 0.0802567 0.0263217 0.0836329 -0.12776 -0.138848 0.0232806 0.0109639 -0.0128803 -0.0686276 0.0270241 -0.0141479 -0.139228 0.0552826 -0.0445943 -0.0735011 -0.00175701 0.0977877 -0.018838 0.181934 -0.232702 0.157663 -0.0517069 0.0167858 0.0220301 0.162321 -0.327071 0.00461358 -0.0932368 -0.127859 -0.00911213 -0.0585766 0.0459282 -0.00595468 0.00910705 0.181712 0.00113408
Q133 0.00189996 0.0257935 0.0845912 -0.0463033 -0.0965029 0.113481 -0.163187 -0.00382679 -0.0893249 0.273076 -0.134594 -0.121689 -0.0733358 -0.0242909 -0.0291589 0.150575 0.115285 -0.0769165 0.176403 0.215465 0.0811701 0.0034158 0.263505 -0.00771915 -0.00359955 -0.014325 -0.0303009 -0.0374014 -0.05597 0.269333 0.0702203 -0.0783437 -0.12366 0.0524594 -0.0826093 0.0181965 -0.0165694 -0.0467575 0.0550648 -0.0300683 -0.0594613 0.124014 -0.0908927 -0.0700474 0.0988355 0.0115392 -0.130212 0.031425 0.133043 0.106151 -0.0443572 0.0337046 -0.0212945 -0.17106 0.0149844 -0.114521 -0.0549125 0.160128 -0.00953621 0.0798932 -0.0691412 0.105396 0.0239195 -0.0323539 -0.0552041 -0.226321 0.0864741 -0.206255 -0.112566 0.0917527 -0.0058059 -0.00925994 -0.0729226 0.0207407 -0.0839597 -0.0377737 0.0410889 -0.118572 -0.0165161 -0.00115937 -0.0205829 0.0969847 0.0719761 -0.114653 0.0759453 0.020977 -0.037782 -0.108375 -0.00658499 -0.0775483 -0.0643265 -0.0485117 -0.0602633 0.0181813 -0.0251033 -0.0128836 -0.023361 0.162678 0.229462 -0.120722
Q132 0.096226 0.0465386 0.187439 -0.120092 -0.0661967 -0.173909 -0.0522951 0.15671 -0.125682 0.0572429 -0.110019 -0.00224257 -0.0401255 -0.0896907 -0.0139136 0.000281081 -0.114531 -0.0818731 -0.0442173 0.146283 -0.0184667 0.00398409 0.121816 -0.0296613 0.0794256 -0.0346565 -0.096544 -0.0592926 -0.202101 0.197256 -0.00407295 0.0815468 0.0483747 -0.034458 -0.0269046 0.0649186 -0.00669373 -0.102005 -0.0050322 -0.152732 0.00406081 0.0483455 -0.10422 0.109023 0.0795073 -0.0687259 -0.113319 0.201959 0.0196493 0.0280405 -0.097615 0.0692141 -0.128668 -0.11707 0.109524 -0.0684473 -0.0230739 -0.0770476 -0.118545 0.113308 -0.00124127 -0.0416779 0.0357355 0.0832667 0.0738182 -0.180115 -0.0640144 -0.156761 0.0429527 0.269521 0.063519 -0.0327748 -0.127154 -0.0190321 -0.0939953 0.0291426 0.0566813 -0.100033 -0.0106599 -0.0716522 0.0408894 -0.0306121 0.00269931 0.0802021 0.0937042 -0.0441458 -0.208582 -0.0940398 -0.0155943 -0.142668 0.0222796 -0.254273 -0.0882959 0.0549694 -0.0230036 0.0834147 0.111101 -0.0664816 0.1127 -0.189162
Q131 0.106374 0.0240871 0.136275 0.00801817 -0.146861 0.0194527 -0.172942 0.0602596 -0.0562415 0.204062 -0.0212171 -0.138126 -0.213198 -0.0297282 -0.0636267 0.0754874 0.0790083 -0.0114431 0.280086 0.232252 0.0571677 0.00250754 0.235648 -0.0424569 0.0126354 0.00271173 -0.174624 0.130144 -0.0951806 0.216704 -0.0467067 -0.13775 -0.01876 0.0681426 0.0577294 0.156115 -0.0625617 -0.0481943 0.101202 0.042188 0.0442565 0.0647887 -0.00614898 0.0272359 0.0414322 0.0279543 0.0130302 -0.0190526 0.0913136 0.0788778 -0.161235 0.0557058 -0.0728116 -0.0563842 0.0039304 0.0474681 0.0474335 0.133307 0.0992899 0.062009 -0.0948428 0.0582784 0.0927305 -0.15755 -0.0405192 -0.163016 0.160528 -0.0636995 -0.118306 0.0953438 -0.0273411 0.0323977 -0.09199 0.00902497 -0.0574549 -0.0432304 0.0369426 -0.0473501 -0.0329278 -0.00583477 -0.0536582 0.0989213 -0.077941 0.0178416 0.0221009 -0.0319723 -0.115418 -0.020984 0.177838 -0.168884 0.0153451 -0.0347509 -0.0980985 0.0697984 -0.0144 0.0975046 0.0520946 0.074904 0.186383 -0.0999631
Q130 0.0303772 0.0632201 0.118538 -0.0448857 -0.065303 -0.00383785 -0.198555 0.0430745 -0.0152856 0.142931 -0.103526 0.0189887 -0.0464711 -0.0225779 -0.146072 0.256595 -0.073761 -0.107151 0.0304664 0.107151 -0.0482091 0.152288 0.284474 -0.136977 0.0553531 -0.0466238 -0.141991 0.0895434 -0.134153 0.0506205 0.000248878 0.128255 -0.0754264 0.0539138 -0.031829 0.0251553 0.10412 -0.0889392 0.0695877 -0.0811185 -0.0833303 0.0163584 0.0345389 -0.110424 0.0916921 -0.0965769 -0.0384047 0.129526 0.0290917 0.186725 -0.0380599 0.00632103 0.0383271 -0.03553 0.07612 -0.0202957 -0.021539 0.137271 -0.0373176 0.0680109 -0.0059909 -0.0467482 -0.0467479 -0.0451668 -0.00423746 -0.153588 0.152474 -0.143419 0.0365121 0.154671 -0.106411 0.0831661 -0.145733 -0.0512937 -0.082462 -0.0566579 -0.0692636 -0.219704 -0.121416 -0.091325 0.0622372 0.0624459 0.141878 -0.0380134 0.0679881 -0.183102 -0.000798834 -0.0900614 -0.0201903 -0.149087 -0.0364467 0.0161514 -0.0827924 0.159201 -0.00806882 0.110039 0.124267 0.0986416 0.145907 0.0194912
Q137 -0.0573959 -0.0669346 -0.0103891 -0.0570123 -0.0590389 0.112332 -0.147829 0.0625244 -0.0824446 0.179842 -0.114795 -0.0837533 -0.0929326 0.0121362 0.0123978 0.0185149 0.117786 -0.0331073 0.156259 0.228549 0.00388523 0.0788601 0.232923 -0.0415265 -0.0273287 -0.0185074 -0.00540762 -0.0626281 -0.0792426 0.314859 0.0607365 -0.195714 -0.0328003 0.113343 0.0718301 0.0640041 -0.0672004 0.0338732 0.0826197 -0.0527507 -0.0222999 0.0298661 -0.0655507 -0.0156442 0.0922933 -0.0846285 -0.113687 -0.0161931 0.0574762 0.179295 -0.11936 0.0762708 -0.0610563 -0.220605 0.132944 -0.0381396 -0.0829316 0.0990991 0.0601785 0.157874 -0.0232085 0.0194374 0.00781558 -0.118481 -0.0649714 -0.125059 0.171985 -0.215571 -0.133926 0.115059 -0.020241 -0.0969755 -0.0283073 -0.0383893 -0.0807749 -0.0426719 -0.0383561 -0.181046 -0.0641261 0.0254448 -0.0171355 -0.00929334 0.00129684 -0.02265 0.00496745 0.120795 0.0217758 -0.105716 0.020924 -0.119266 0.0130122 -0.177562 0.0308611 0.0395297 0.0672586 -0.0853967 -0.0443476 0.120372 0.143942 0.00233202
Q136 0.226977 0.0986606 0.233952 -0.0415122 -0.0675873 0.0271164 -0.0193279 0.0921527 -0.0103996 0.176838 0.134934 0.13053 0.0342219 0.089555 -0.0934732 0.1211 -0.0706426 0.0190276 -0.114568 0.12917 0.100209 0.0658512 0.154306 0.0868795 0.189247 0.00361831 0.0157319 0.0232137 -0.0712648 0.00231318 -0.111673 0.00754859 0.0776216 0.138441 -0.13275 -0.0400635 -0.0623032 0.0153809 0.0169684 -0.148068 0.0159841 0.0980921 -0.272038 0.0412286 0.057142 -0.143936 0.0454105 -0.0030069 -0.130687 0.0314903 -0.0175286 -0.0336861 0.144051 -0.138821 0.110231 -0.0647325 -0.0254406 0.0797615 -0.0773656 -0.0415578 -0.226657 -0.0548644 -0.112344 -0.0752979 0.0504786 0.0411092 0.0499913 -0.0173521 0.0512381 -0.0291012 -0.0589389 -0.0303517 0.0592024 -0.0810485 0.00425995 0.0877226 -0.0251253 0.0689799 -0.022879 -0.0423709 0.156224 -0.00843841 0.0357115 -0.123845 -0.0311117 -0.188431 -0.065725 -0.0863644 0.267583 0.0559604 -0.0192264 -0.163471 -0.028531 0.110939 -0.0639428 0.0215482 0.0992168 0.165845 -0.0329634 0.021045
Q135 0.0292685 0.108899 0.195296 -0.149249 -0.00460575 0.0207512 -0.0775112 -0.0280499 -0.0195749 0.177936 0.0814541 0.227002 0.0512981 -0.17287 -0.0190983 -0.0393947 0.0189589 -0.10266 0.135488 0.106608 0.0249091 0.00675469 0.251648 0.0339856 -0.0178289 -0.143705 -0.0425859 0.0617015 -0.10036 0.204944 -0.135555 0.0324971 0.0498201 0.135392 0.0161106 0.00454717 0.00166649 -0.107914 0.0292385 0.0342517 -0.0805944 0.0522364 -0.0520955 -0.0935565 0.0677718 -0.0941837 0.0464004 0.11186 -0.025505 0.0600024 -0.152933 -0.00251239 0.042868 -0.175869 0.0702492 0.00413372 0.0650857 0.0578851 -0.25724 -0.116672 -0.0472435 0.0885631 0.0425758 -0.0432672 0.0370745 -0.108341 0.0227812 -0.105707 -0.171818 0.00962016 0.0616139 -0.00300995 -0.124752 -0.0594948 -0.187555 -0.0554404 0.0253175 -0.0688844 -0.0970071 0.0423495 -0.017642 -0.0325403 0.0654679 -0.0318517 0.108921 -0.0839102 -0.113094 0.0715206 -0.0332869 -0.113307 0.0712822 -0.197642 -0.0343954 0.132459 -0.121568 0.0268611 0.136451 0.0943658 0.195819 -0.0848157
Q134 0.119667 0.156652 0.0168931 -0.00826429 0.0236797 -0.10866 -0.163988 0.0681568 0.0582452 0.122671 -0.0205887 0.0886899 -0.0679309 0.0992284 -0.109995 0.138651 -0.104649 -0.0176186 0.159459 0.144402 0.0148356 0.0110064 0.314403 -0.0414726 0.0581912 0.0380924 -0.0829816 -0.132787 -0.126495 0.0860842 0.0138635 -0.0487146 -0.0418768 0.142281 -0.052338 0.00200861 -0.117152 0.00258334 -0.0302861 -0.0394534 -0.0486263 0.0207829 -0.0538456 0.106215 0.0713817 -0.212435 -0.00645057 0.198168 0.0480152 0.169889 -0.103374 0.0185653 0.00469399 -0.0615494 0.0952637 0.0109565 -0.0186832 -0.0363803 -0.0654959 0.0817806 -0.12676 0.0114027 -0.114453 -0.0744143 0.0899336 -0.0190626 0.00910813 -0.0925373 -0.166206 0.0608772 -0.0231846 -0.00844105 -0.140886 0.0133832 -0.135101 -0.141385 0.0874881 -0.0262179 -0.0335877 -0.00859692 0.0204466 0.0661259 0.134894 -0.114891 0.183956 -0.0462278 -0.0869298 0.0656454 0.0984582 -0.224331 0.0362446 -0.141436 -0.0666883 0.140864 -0.102004 0.0722752 -0.0887914 -0.017489 0.182614 -0.129466
Q20 0.0839532 0.0239627 0.116258 -0.00344014 -0.127687 0.125889 -0.109708 -0.0652649 -0.0132474 0.12909 -0.161985 -0.0930159 -0.140867 -0.0092803 0.0479078 0.131832 0.0816232 -0.0342063 0.20383 0.153251 0.0426309 -0.044052 0.266695 -0.0744467 0.0058661 -0.0373482 -0.0834558 0.0524347 -0.136526 0.135657 0.153355 0.00147981 -0.0883769 0.0654741 -0.0918609 -0.022928 0.0245721 -0.0985446 0.0676018 0.0296693 0.0354158 0.0404315 -0.0535237 -0.105415 0.0511256 0.0231122 -0.0727121 0.0840955 0.127216 0.101144 -0.0588891 0.100175 0.0143682 -0.168463 0.0619521 -0.105031 -0.0925831 0.138855 0.0818003 0.0702997 -0.202226 0.0445101 -0.0510431 -0.101161 -0.0661226 -0.2065 0.0921024 -0.112502 -0.149872 0.115084 0.0186786 0.0484353 -0.0852493 0.0900725 0.00649044 -0.0627274 -0.0575708 0.0183311 0.00827443 0.135355 0.0622952 0.147963 0.0224755 -0.113006 0.0283541 -0.0152797 -0.100276 -0.168511 0.0489616 -0.184257 -0.0243256 0.0104332 -0.117537 0.0233792 -0.00824655 0.0474629 0.118946 0.0983331 0.178245 -0.174608
Q21 0.135752 -0.0453365 0.0985116 -0.239575 -0.117734 -0.0630913 -0.0430011 0.0147881 -0.00170101 0.228211 0.106667 0.119476 -0.0806525 0.0323668 -0.0771629 -0.0461425 -0.0221146 -0.0763316 0.128787 0.0553833 -0.036419 -0.0777998 0.157461 0.060886 0.116713 -0.0525072 -0.0455509 -0.0789475 0.0137781 -0.00837081 -0.0444921 0.0423098 -0.00411333 0.0478995 -0.111778 0.141383 -0.0918249 -0.0342682 0.0650951 0.0320666 -0.101308 -0.0194129 -0.0531491 0.0220518 0.0185016 -0.0844333 0.0103825 0.0191152 0.0406349 0.190636 -0.129825 -0.0641938 -0.0397724 -0.174654 -0.0326187 -0.159276 0.101168 0.149984 -0.0628165 -0.0303429 -0.103889 0.0482625 0.0451115 -0.0509919 0.0482921 0.0868727 0.0583353 -0.0641885 0.0301119 0.140694 -0.0531006 -0.0717119 -0.0217904 -0.233785 -0.121039 -0.130804 0.149237 -0.0540426 0.0232614 -0.171721 0.20397 -0.0521659 0.0688583 -0.148886 0.193749 -0.0795414 0.05609 0.119709 0.0254369 -0.161993 -0.0497719 -0.115996 0.185033 -0.0605621 -0.230562 0.0891015 -0.0212616 0.0186406 -0.0273493 -0.00640345
Q22 0.0881822 0.0572108 0.0299052 -0.0290266 -0.0919375 0.177094 -0.137906 0.0168317 -0.0275628 0.110233 -0.0695672 0.0682722 -0.110456 -0.049938 -0.0574446 0.0722036 0.0392763 -0.0884694 0.192858 0.210888 -0.0395924 0.0300891 0.253442 -0.110116 -0.0235304 -0.0531951 -0.0168578 0.00540332 -0.128 0.181712 0.0748703 -0.110945 -0.060527 0.0578964 0.0598953 -0.0161189 -0.0695962 -0.0763752 0.0634153 0.0122653 0.0933274 0.0346439 0.114758 0.00585052 -0.0026 0.0587133 -0.0454889 0.0260851 0.157054 0.117293 -0.15835 0.0345285 0.0313951 -0.128729 -0.0192751 -0.0602005 -0.00075535 0.135628 0.0130735 0.100346 -0.180708 0.000146653 0.0731424 -0.201128 -0.0161185 -0.251466 0.265356 -0.104339 -0.128331 0.0619135 -0.0851067 -0.144135 -0.0629816 0.0222038 -0.122938 -0.0822342 -0.00148208 -0.00550539 -0.0788544 0.0162365 0.0342385 0.0897721 0.00939689 -0.0731786 0.0803866 -0.0712859 -0.0960774 -0.0483237 0.150138 -0.177867 0.019327 -0.122402 -0.0421937 0.0845091 -0.0547486 0.0694851 -0.0737206 0.0417611 0.182627 -0.0516321
Q23 0.120923 0.123893 -0.0599329 -0.0288615 -0.0617041 -0.00347084 -0.168486 0.0152926 -0.048405 0.110871 0.0607251 0.176137 -0.0124577 0.0885194 -0.062371 0.181008 -0.0516996 -0.143448 0.0131371 0.1695 0.159322 -0.125644 0.0790112 -0.0631837 -0.0190679 -0.0754238 -0.104217 0.000549781 -0.0563382 0.157647 -0.166161 0.0479149 0.0143247 0.0446432 -0.0958827 -0.152319 -0.118354 0.0575245 0.0206101 0.0342333 0.0335834 -0.0259678 -0.0772944 -0.104239 0.088912 0.0909374 -0.0671654 0.0749646 0.0690869 0.168099 -0.108039 -0.0555422 0.0410993 0.0161542 0.0449097 -0.0292277 0.0120976 0.0613708 -0.0176342 -0.00499781 -0.14227 -0.0465422 0.0583778 0.0909242 0.0646787 -0.164225 0.012044 -0.146691 -0.0311394 -0.023077 -0.00196791 0.0441862 -0.0352197 -0.0320755 -0.0815102 -0.142569 0.0480356 -0.220185 -0.0517607 0.0968262 0.121485 -0.0606727 0.032094 -0.126687 0.030035 -0.176734 -0.065498 -0.0393347 0.0638436 -0.279793 0.012859 0.0532266 -0.0517098 0.231274 -0.115247 -0.0421004 0.244933 -0.0826755 0.145951 -0.0694124
Q24 0.0225927 0.000664392 0.125877 -0.102888 -0.0479244 0.00701911 -0.0837733 0.104702 0.0872446 0.170424 -0.0337445 0.142018 -0.000225014 -0.016737 0.0548321 0.16629 0.000241792 0.0578973 0.186497 0.0364166 -0.0321144 -0.0649236 0.0313563 -0.00889116 -0.078953 -0.0342404 -0.0169996 0.0905301 -0.142823 0.186518 -0.16359 -0.0614974 -0.117504 0.107481 -0.275355 0.0106563 0.149589 0.0233372 0.0260137 -0.0223667 -0.0261549 0.15266 0.014645 0.0514915 -0.109309 -0.068776 -0.110529 0.086506 -0.00815632 0.227364 -0.115715 -0.0928647 -0.131684 -0.175675 -0.0255979 -0.0722303 -0.0446263 0.0775647 -0.0473529 -0.117318 -0.108291 -0.046056 0.0150185 0.0105591 0.0954629 0.0165216 -0.0638157 -0.156978 0.0692758 0.00436667 -0.0881296 -0.0580873 -0.0167798 0.12525 -0.0382415 -0.0758628 0.197796 0.0147695 -0.15645 -0.0512981 -0.00456312 0.12575 0.104658 -0.151537 -0.0170875 -0.159466 -0.107934 -0.0828122 -0.00159991 -0.190139 0.0606253 0.0386817 -0.0198993 0.04761 -0.150253 -0.00567267 0.205298 -0.00368862 0.0129387 -0.123131
Q25 0.061296 0.0494666 0.00882055 0.0636915 -0.0131696 0.0795695 -0.192357 0.0643419 -0.0392634 0.169257 -0.0570103 -0.0541216 -0.00767627 -0.0138513 -0.00395234 0.138728 0.0309723 -0.0136447 0.220368 0.127464 -0.0300904 0.0998613 0.35783 -0.089878 0.0121181 -0.0675785 -0.139021 -0.0440616 -0.213713 0.147791 0.0610584 -0.150016 0.0487141 0.0497021 -0.0163288 0.0365053 -0.0126743 -0.0838133 0.104183 -0.0224608 0.117456 0.0774225 0.0285779 -0.153182 0.0086928 0.0339373 0.00528182 0.100589 0.147605 0.0317808 -0.204066 -0.0238426 -0.00692812 -0.0333855 0.0378118 -0.115926 -0.0832614 0.130533 0.0440001 0.00695602 -0.207687 0.0825942 0.0229705 -0.135828 -0.0395958 -0.155892 0.150431 -0.109797 -0.151808 0.106035 0.00279653 0.00610682 0.0163011 0.0617525 -0.135016 -0.0917035 0.0018602 0.0335208 -0.00351245 0.0189077 0.0344166 -0.0282709 0.130293 -0.0735206 0.122921 0.0403194 -0.117515 0.047157 0.0209112 -0.216768 -0.0228235 -0.1021 -0.105795 0.0792248 -0.0555933 0.0613553 0.0732194 0.0863294 0.117387 -0.059715
Q26 0.135403 0.0847512 0.0537938 -0.0792575 -0.153735 0.0832661 -0.0530718 0.0402441 0.00423856 0.15136 -0.0494068 0.0936398 -0.0286969 -0.0951869 -0.0615768 0.125127 0.0681825 -0.00287671 0.110178 0.121263 0.0203448 0.237829 0.228246 -0.114828 0.0141815 -0.0191026 -0.126118 0.0244318 -0.0305545 0.24123 0.0368846 -0.0413221 0.0170754 0.0750881 -0.105084 -0.0898163 0.0486218 -0.0250638 0.0892404 -0.0904021 -0.00149075 0.0399023 0.055704 -0.196147 0.0972149 -0.127962 -0.191717 0.0700375 -0.0061262 0.143428 -0.0631863 0.0495427 -0.135138 -0.110777 0.181061 -0.0774812 -0.0746308 0.0486436 0.00906866 0.0619934 -0.0780152 0.0538684 -0.00914996 -0.0424665 0.0583722 -0.101693 0.00718626 -0.111719 -0.129645 0.0618556 -0.130637 0.0718142 -0.116689 0.0549887 -0.0600429 -0.151615 -0.0663282 -0.112237 -0.126843 -0.0269547 0.143924 0.068597 0.152178 -0.108018 0.00767157 -0.0939142 0.0254923 -0.11166 -0.0319764 -0.202765 -0.00741765 -0.107589 -0.0528047 0.0935047 -0.0973233 0.00528493 0.175681 0.0353484 0.135347 -0.0788725
Q27 0.144705 0.000675834 -0.0575652 0.00633817 -0.114653 0.00849821 -0.169645 -0.049943 -0.0610309 0.0575228 -0.0117306 0.198208 0.000920708 -0.0431868 -0.119002 0.0610956 -0.218452 -0.0398066 0.0179961 0.0597462 -0.0671033 0.00247767 0.00212227 -0.134494 0.172489 0.00431649 -0.116192 0.0516474 -0.158374 0.103719 -0.0685524 0.222338 -0.102327 0.0209616 -0.106151 0.104555 0.116299 -0.00969911 -0.0594409 -0.121947 -0.140055 0.0755431 0.0890392 -0.0499787 0.188096 0.0215638 0.0593477 0.0530359 -0.113141 0.238425 -0.0107362 -0.00250433 -0.0649009 -0.0726951 -0.142743 -0.149475 -0.0394316 0.0596436 -0.0443605 0.0204973 0.0708258 -0.184731 -0.0934934 -0.0547574 0.0512927 -0.0646196 -0.0412347 -0.0725082 -0.0634901 0.144502 0.0252194 0.161623 -0.0942325 -0.0909511 -0.0542061 -0.0946964 0.116494 -0.144664 -0.0964707 -0.133567 0.0564207 0.151587 0.16697 0.00571885 0.106068 -0.0391482 -0.0303691 -0.115094 -0.0548894 -0.0800053 0.112117 -0.02702 -0.0337538 0.125396 -0.0844126 0.0825037 0.165548 0.0686625 0.0639262 0.0545578
Q28 0.127156 0.126753 0.0132815 -0.00795685 -0.114382 0.0294095 0.0296237 -0.0372846 -0.108879 0.165829 -0.00303779 0.114284 -0.149749 -0.0634369 -0.06387 0.14596 -0.148521 -0.0430953 0.0933833 0.0148363 -0.16609 -0.0441003 0.10504 -0.140147 0.0279533 0.0237494 -0.0484998 0.0154385 -0.134514 0.109161 -0.00569962 0.00759316 -0.113941 0.195218 -0.135433 0.0172676 0.0590693 0.0605595 0.00553322 -0.0864919 -0.0384815 -0.0346542 -0.147191 -0.00284581 0.254581 0.042721 -0.142262 0.0762057 0.0150575 0.0935686 -0.143202 0.0140765 -0.0764077 -0.137554 -0.0343998 -0.113203 0.0117583 0.00326628 -0.0930673 0.0019998 -0.110194 -0.0796982 0.0323487 -0.0944456 0.0172975 -0.0243069 0.00860037 -0.12238 0.00658323 0.0882837 0.0601128 0.189282 -0.230286 -0.0819162 0.0127309 0.0463773 -0.0215852 -0.234119 -0.141127 0.072545 0.0664959 0.0462685 0.13401 -0.146348 0.0765353 -0.0354088 -0.010659 0.00112211 -0.0843484 -0.237448 0.0791025 -0.064478 -0.0848941 0.104714 -0.118259 0.0379056 0.20452 0.0140923 0.0518503 -0.0409981
Q29 0.113091 0.036634 0.106124 -0.133889 -0.170449 -0.0794275 -0.150107 0.0501476 0.182168 0.0391607 -0.0567449 0.031366 -0.190713 -0.120388 -0.0941939 0.190948 -0.00352152 -0.0510859 0.128307 0.147419 0.0442496 0.0628011 0.160337 -0.121934 -0.0918619 0.0312247 -0.0723987 0.0320187 -0.24015 0.0987621 -0.0496349 -0.0649586 -0.0449421 0.00628467 0.02316 0.0988256 -0.014138 -0.124383 0.135308 0.0366158 -0.0497716 0.150142 0.0364946 -0.0112718 0.148455 -0.105781 0.0556829 0.0677872 -0.0144538 0.0431809 -0.120813 0.00691694 0.00985347 -0.0074567 0.130269 0.109992 -0.0175861 0.165872 -0.0605244 -0.0446283 -0.0234908 -0.138056 0.0750808 0.0112726 -0.0838555 -0.165293 0.0706668 -0.183695 0.0972346 0.00382033 -0.00481107 0.0753467 -0.159083 0.138146 -0.215827 0.00725003 0.0377092 -0.0584033 -0.0148653 0.0792014 0.0034548 -0.0889582 0.106791 -0.0650329 0.0841567 0.0685545 -0.00955097 0.0418992 0.11741 0.116512 -0.072924 -0.01069 0.0183053 0.153169 -0.0226447 0.107349 0.0509868 0.103212 0.185287 -0.142053
Q188 0.182002 0.108413 0.0541256 -0.037288 -0.13155 -0.07768 0.0540578 0.0530205 0.0316161 0.103438 0.00966676 0.0275792 -0.0907095 -0.0120856 -0.0216705 0.220254 0.0949936 -0.0553483 0.106932 -0.0679222 -0.0229145 -0.00265907 0.0428175 -0.0619213 -0.0366161 -0.125608 0.0148736 0.077857 -0.269828 0.115507 -0.030737 -0.0254101 -0.06174 0.100914 -0.119801 -0.0583216 -0.0349806 -0.0874011 0.0615572 -0.146268 -0.185469 0.114992 -0.0350019 0.0243231 -0.00805737 -0.0535206 -0.0163373 0.0768823 0.065154 0.181741 -0.0879143 0.00365287 0.0547757 0.00315387 -0.0424649 -0.165935 -0.102835 0.0561235 -0.0222578 0.123563 -0.0550271 -0.0190805 -0.249426 0.0709196 0.0711832 0.000634666 0.070455 -0.273143 0.115205 0.0379251 -0.0353614 -0.0115668 -0.179679 -0.0213578 -0.246796 -0.203566 0.0485726 -0.0309372 -0.198447 0.000170717 -0.0134368 0.130706 0.0781015 -0.147297 0.059958 0.117818 0.00910181 0.0681085 0.0431698 -0.0906994 0.0266698 -0.0627796 -0.00604644 0.05299 0.0252291 -0.0882032 0.11262 -0.110685 0.0520367 -0.0713608
Q189 0.133048 0.123778 0.196569 -0.0805375 -0.173288 -0.0490096 -0.170203 0.0881222 0.0508244 0.0574326 -0.185661 0.00991807 -0.166359 0.000671444 0.0719348 0.110224 -0.021992 -0.0500238 0.130713 0.204239 -0.0772452 0.0303701 0.19338 -0.0765492 0.0242921 -0.0140314 -0.0531565 0.00805952 -0.213628 0.101216 -0.0454649 0.0568532 -0.0603002 0.0449467 -0.0196401 -0.00129608 -0.142381 -0.0801504 -0.0999799 0.00291261 -0.103954 0.0731398 -0.0239596 -0.0535137 0.0492222 -0.141835 0.0204693 0.0550902 0.0181631 0.166953 -0.0737058 0.0266642 -0.0418549 -0.100703 0.0701733 -0.042433 0.039483 0.160135 -0.0720353 0.022329 -0.0960876 0.00993409 -0.0807517 -0.0986886 -0.0463795 -0.174832 0.0178573 -0.112917 -0.0271619 0.166001 -0.0152117 0.043788 -0.00722035 0.150403 -0.117973 -0.0694318 0.0818613 -0.0531891 0.056103 0.0948157 -0.0276614 -0.0587632 -0.091109 -0.023413 0.164769 -0.0736929 -0.00646887 -0.00803754 0.208538 -0.179193 -0.135184 -0.0886389 -0.145457 0.123263 -0.0581956 0.0947134 0.114865 0.105886 0.164289 -0.0614262
Q186 0.0584885 0.136928 0.0423414 -0.108599 -0.0276094 0.106599 -0.137214 0.119914 0.0463753 0.085664 -0.181719 -0.0640864 -0.0271133 -0.11784 -0.177613 0.226069 0.0417582 0.0104622 0.0452661 0.107907 0.0211348 0.102471 0.359121 -0.0209375 0.0158428 -0.05277 -0.0126022 0.00998444 -0.181494 0.094256 -0.0150472 -0.0571645 -0.0100022 0.0439906 -0.10506 0.0324241 0.0610626 -0.0299701 0.00690871 -0.110747 -0.00222863 -0.190798 -0.0786971 -0.155209 -0.00900744 -0.0655335 -0.175414 0.0937622 0.0160508 0.119612 -0.159946 -0.0199276 0.137338 0.123606 0.0639813 -0.14387 -0.0145317 0.183702 -0.031919 0.0783857 -0.0867764 -0.00120737 -0.00727311 -0.0741969 0.00178086 -0.061412 0.174269 -0.170121 -0.0363156 0.0493102 -0.0719074 0.0453094 0.115694 -0.11587 -0.0123985 -0.0227586 -0.0406013 0.0214378 0.0295942 0.101454 -0.0285809 0.0641591 0.0609199 -0.0506828 0.134524 -0.0575986 -0.0891983 -0.139873 -0.00960351 -0.17209 0.0180205 0.0544485 -0.0339239 0.0802387 -0.0688777 0.114391 0.148125 0.111632 0.0489578 -0.0703127
Q187 0.205219 0.0160689 0.0483023 -0.0629791 -0.0587771 -0.133768 -0.00011256 0.0637659 -0.0381693 0.0321724 0.0786858 0.111948 0.0721255 0.0611375 -0.00767008 0.189456 -8.04299e-05 -0.0676014 0.0261863 0.00637372 0.0608561 0.0405979 0.135246 -0.2052 -0.0701241 -0.0765746 -0.146796 -0.0151971 -0.0723722 0.0819239 0.0715649 -0.0145104 -0.101852 0.0227772 -0.0946254 0.0661194 -0.0704354 0.034862 -0.0250633 -0.0544109 -0.140115 0.15524 0.0180277 0.06518 0.142353 -0.0774359 -0.0387054 0.110188 0.00354315 0.0887095 -0.0899934 0.0375797 0.0318269 -0.0796869 -0.00611753 -0.177341 -0.096908 -0.0611727 -0.1404 0.138812 -0.0841157 0.00248359 -0.16498 -0.0548197 0.125099 -0.0122686 0.0136819 0.00676694 0.0860019 0.188798 -0.0722943 0.0677829 -0.0666661 -0.0574576 -0.239807 -0.229854 0.114722 -0.121251 -0.13635 0.106317 -0.0519574 0.0637594 0.174006 -0.0180403 0.211939 0.0202549 0.0084329 -0.0713616 0.126737 -0.0994276 -0.0251381 -0.172661 -0.0397209 0.149898 -0.0179095 0.131932 0.143772 0.0267998 0.115336 0.0748935
Q184 0.103421 0.0701787 0.150318 -0.2786 -0.0385617 0.0135636 -0.0467286 0.0363751 0.0992665 0.0905247 0.141062 0.0759164 -0.0229084 -0.035367 -0.0808736 0.11927 0.0745159 -0.0514468 0.119655 0.093369 0.173969 -0.0608641 0.292598 -0.00167798 -0.061716 -0.0958224 -0.0239968 0.0342692 -0.0416175 0.033006 0.0265262 0.00799037 -0.0498555 -0.0414925 -0.0804049 0.0290148 -0.133955 -0.203743 0.0951568 -0.0320514 0.0142734 -0.0150968 -0.0999118 -0.0355204 0.079959 -0.0837549 0.119304 0.20715 -0.00773598 0.128332 -0.178352 0.040807 0.0143661 -0.0573621 -0.0251061 -0.0713212 0.0853484 0.146141 -0.154597 0.0858849 -0.214615 0.0765867 0.0140588 0.0313724 0.0165405 0.0099001 0.131584 -0.122887 0.152723 0.146034 -0.126604 0.000205421 -0.0268593 -0.0352748 -0.0744017 -0.0470875 -0.0370583 -0.133591 0.088809 0.0164205 0.195721 -0.0518461 0.0956972 -0.174102 0.0659945 -0.0859557 0.0412373 -0.0743087 -0.0460509 -0.112594 -0.185793 -0.101701 0.00784888 0.0323116 -0.0743103 0.00600319 0.0479334 -0.0119568 0.0938815 -0.022247
Q185 0.255461 0.108231 -0.00450908 -0.122626 -0.0126186 -0.213603 -0.0696423 -0.0548963 -0.104608 0.112855 0.0420282 0.0965604 0.169833 0.0530867 -0.0575625 0.0703061 -0.16992 0.033172 0.0505472 0.0472603 0.0668498 0.0119972 0.250623 -0.000603793 0.0727186 -0.0248097 -0.112512 -0.0506469 -0.151 0.0324425 -0.0606452 -0.0915816 -0.113205 0.0668986 -0.1145 0.00377219 -0.0972344 -0.0193723 -0.0514461 -0.0664266 0.00115319 0.0313584 -0.102595 -0.0549954 0.141706 -0.0623018 -0.046757 0.212903 -0.132672 0.0169435 -0.0936507 -0.010721 0.00952704 -0.172188 0.0411141 -0.198444 -0.144657 -0.119784 0.0334838 0.0725594 -0.095564 -0.0437682 -0.0280479 0.0304671 0.0213127 0.0384216 -0.00470115 -0.0442592 -0.0136812 0.0984303 -0.0582527 0.0869872 -0.0247277 -0.0607962 -0.14705 -0.0779027 -0.00240012 -0.108027 -0.113791 -0.142035 -0.0212003 -0.138003 0.100321 -0.149272 0.189028 -0.0194804 0.0522429 -0.00160807 0.163645 -0.117755 0.137213 -0.129188 -0.10158 0.033908 -0.0680211 0.0661205 0.0221001 0.0587218 0.0797436 -0.18953
Q182 0.0201686 0.09434 0.115855 -0.197146 -0.0458013 -0.0832408 -0.0483794 -0.186471 -0.0178166 0.141672 -0.0293569 0.0703132 -0.0856005 -0.0845446 -0.152308 0.16098 0.0866903 -0.0893058 0.00343067 0.205534 0.012758 -0.0107668 0.283232 -0.0491894 -0.0591302 -0.00299713 -0.119327 -0.0244572 -0.0975357 0.221134 -0.0637654 0.0470896 0.0585863 0.143512 -0.0318552 0.0540237 -0.0913055 -0.0634825 0.0583037 -0.117705 -0.0492077 0.0284382 0.00271739 -0.0835553 0.139156 -0.0644623 -0.140827 0.014505 0.0841469 0.0330931 -0.161133 -0.0671859 0.0742102 -0.0556318 0.160505 -0.0768963 0.0996792 0.167349 -0.107732 0.0984297 -0.0967827 -0.0502336 -0.0604689 -0.020351 -0.0524364 -0.104491 0.123114 -0.146798 0.0331457 0.0143199 -0.100418 -0.0353922 0.00354717 -0.125772 -0.0342514 0.0118872 0.0617553 -0.0933002 0.00482109 -0.0733711 0.138159 -0.169611 0.115356 0.0102876 0.0744105 0.0569568 -0.162773 0.102674 0.0416574 -0.0966185 -0.0943745 -0.082042 -0.0986225 0.0177783 -0.134841 0.0483727 0.130833 0.144715 0.105251 -0.041305
Q183 0.03301 -0.0188462 0.107987 0.0183826 -0.209925 0.0510276 -0.0457645 0.0160474 -0.0470602 0.224662 -0.0923919 -0.0309195 -0.0106981 -0.00524838 -0.0215479 0.0879687 0.0961819 -0.086761 0.187609 0.24366 0.0229425 0.0515692 0.268561 -0.0970209 0.0365824 0.00679301 -0.089071 0.0546008 -0.0833902 0.262739 0.000366565 -0.0520094 -0.059485 0.117654 0.0209465 0.0442069 -0.0578264 -0.104374 0.00570884 -0.00993323 0.0521326 0.0885561 -0.00849033 -0.119055 0.0696445 0.0347215 -0.0527253 0.0336032 0.0908954 0.121074 -0.120296 -0.0527897 0.00970753 -0.0956235 0.0986437 -0.131751 -0.037641 0.119993 0.060731 0.115283 -0.0515915 0.0962345 -0.0331275 -0.233643 -0.0202717 -0.225929 0.0442665 -0.187399 -0.173007 0.0824455 -0.0179541 -0.052307 0.00608058 0.0102581 -0.00518221 -0.0531731 -0.0077678 -0.0673676 -0.0310272 0.0820142 -0.039161 0.00688268 -0.0485706 -0.0888912 0.122695 -0.0253336 -0.026462 -0.18434 0.0498859 -0.156926 0.122332 -0.05697 -0.0725418 0.0961231 -0.166056 0.0679412 0.073311 0.0262362 0.144481 -0.0966682
Q180 0.283963 0.0454023 0.0436217 -0.130382 -0.0421539 -0.102768 -0.136418 0.0690836 -0.0481358 0.0937291 -0.145438 0.115351 0.108352 0.0151104 -0.0612782 0.269052 -0.0214541 -0.0982803 0.0747193 -0.0585502 -0.0249366 -0.0769332 0.356514 0.0844285 0.0246754 -0.112688 -0.056527 -0.0227092 0.0371554 0.205667 -0.0926971 0.229034 -0.0278858 0.0371772 -0.0579283 0.0146768 0.020333 -0.0636724 -0.0239204 -0.047683 -0.00765713 0.102022 -0.0697748 0.0181865 0.0845936 -0.201606 0.0582861 0.00600879 0.00824529 0.061223 -0.0887441 0.0561538 -0.0112317 -0.200264 0.0760927 0.0939917 -0.0422469 -0.0763355 -0.00786 0.0569126 -0.0646147 0.0613624 -0.00407364 0.0810054 -0.0557295 0.0764089 -0.0405821 -0.0292098 -0.0780689 0.0448329 -0.0840095 0.0289518 -0.15394 -0.140167 -0.0283058 0.0303606 0.0829929 0.012916 -0.0358584 0.082728 -0.00765857 -0.0220152 0.0736511 -0.223829 0.201363 -0.145632 -0.068038 -0.180542 0.0887109 -0.00646438 -0.0393367 -0.0542393 -0.081748 0.0369477 -0.0393791 0.00752728 0.0417271 -0.0348387 0.0313732 -0.0595185
Q181 0.074979 0.0528517 0.00198118 0.0442005 -0.0372638 0.151309 -0.155973 0.0608303 0.0557037 0.264048 -0.212679 -0.0722167 -0.146972 -0.014449 -0.0932009 0.126022 -0.042304 0.0177156 0.188198 0.137366 -0.0160303 0.0664125 0.236818 -0.0772684 0.0284627 -0.142349 -0.00963828 -0.0649992 -0.0676121 0.189741 0.152869 -0.150873 -0.059844 -0.0281179 -0.0336665 0.0439646 -0.00888703 -0.033226 -0.0727604 0.0144717 -0.0471059 0.0992971 -0.0764595 0.013682 0.0558979 -0.115528 -0.0373044 0.0631729 0.112766 0.231642 -0.150878 0.00076038 0.052153 -0.182919 -0.0206707 -0.108909 -0.0868725 0.12895 -0.0190941 0.120444 -0.126381 -0.0227865 -0.0435846 -0.0958097 -0.0437886 -0.0743241 0.131178 -0.174478 -0.0989955 0.0448864 0.0212927 -0.0777116 -0.0619749 0.12195 -0.0363085 -0.022283 -0.0867586 -0.0327662 -0.0173323 0.107913 -0.0430208 0.0706216 0.0233658 -0.084924 0.0937655 0.0348097 -0.0672283 -0.0628465 0.133234 -0.191388 -0.0467924 -0.072624 -0.0119668 0.0297818 -0.0466937 0.0159391 -0.047455 0.0940456 0.223852 0.00933972
Q106 0.00324773 -0.0397655 0.183442 0.0366438 -0.0238086 0.0711711 0.0276167 0.0731346 -0.0246462 0.216994 -0.180242 -0.0561515 0.15766 -0.00917339 0.0504005 0.153159 0.130798 -0.0199803 0.099129 0.313018 -0.00722277 -0.0319623 0.259372 -0.0923488 -0.0191746 -0.0151776 -0.102224 0.0278333 -0.152126 0.0164081 0.0263364 -0.0343811 -0.120705 0.0949898 -0.191882 -0.106423 -0.0676738 -0.138487 -0.0334719 -0.0250513 -0.0361401 0.00883228 -0.063238 -0.132381 0.0402931 -0.0186231 0.011278 0.0460547 0.0792265 -0.0505082 -0.056691 0.0751243 0.0354661 -0.0101229 0.0590038 -0.115185 0.0193946 0.151837 -0.0126248 -0.102703 -0.108342 0.0727057 -0.0179936 -0.0391872 0.0733157 -0.232876 -0.0378561 -0.130616 -0.124488 0.159026 0.0581002 -0.103081 0.0275432 0.0839988 -0.125388 -0.0416146 -0.00478808 0.100333 -0.0021382 0.082584 0.105974 0.0255772 0.140349 -0.0655234 0.028793 -0.127494 0.0549775 -0.10619 0.117869 -0.110116 -0.0759938 -0.0365571 -0.00904273 0.127271 -0.0854788 -0.0739919 0.174531 0.121398 0.118665 -0.0333614
Q107 0.144361 0.0197435 0.136185 -0.127601 -0.0964381 0.00672738 -0.127033 0.00488292 -0.0263082 0.075393 -0.000426839 0.131225 -0.137239 0.0693236 -0.00452501 0.0501926 0.0299563 -0.143806 0.153613 0.129588 -0.0593773 0.111159 0.25272 -0.0308004 -0.0136071 -0.0723222 -0.00453104 0.104037 -0.0884403 0.267517 -0.0552057 0.0162641 -0.00434896 0.0708516 -0.0548415 0.0510754 -0.0565363 -0.0505139 0.0839531 -0.0232126 -0.204193 0.136193 -0.0264879 -0.0823165 0.094526 0.015199 -0.0687504 0.0545271 -0.0331485 0.00311845 -0.115294 0.118134 -0.134732 -0.141183 0.147242 0.0473925 -0.0415053 0.046018 -0.102831 -0.0461337 -0.12381 -0.0826742 -0.00166953 -0.128005 -0.0548937 -0.0579381 0.0706765 -0.157603 -0.0584491 0.109789 -0.0855217 -0.0361722 -0.0782767 0.0526951 -0.111411 -0.0993915 0.134946 -0.119436 0.0715958 -0.00824704 0.123981 -0.0536907 0.282582 0.112957 -8.33646e-05 -0.0878374 -0.0538739 0.123863 0.00886059 -0.105616 -0.0213675 -0.0862917 -0.0722056 0.0860625 -0.0511309 0.0933662 0.156036 0.0646697 0.123304 -0.142075
Q104 0.00137242 0.0879923 0.107702 -0.0495833 -0.00843014 -0.0330502 -0.00850599 -0.108756 0.0125978 0.15142 0.0408998 0.190334 0.0407046 -0.0976441 0.012582 0.303607 -0.0323056 -0.133249 0.0559478 0.0684343 0.112925 -0.067006 0.18094 0.221726 0.0161418 -0.0327766 -0.139479 -0.0388212 -0.0147192 0.0871451 -0.0544415 0.0962478 -0.121364 -0.0834196 -0.0685536 -0.0271869 0.0795722 -0.0719861 -0.0626902 -0.124332 -0.00162888 -0.0675809 -0.0498786 -0.111094 -0.017047 -0.00913767 -0.126211 0.141784 -0.0233411 0.104498 -0.208859 0.109279 0.0183936 0.0401096 -0.0815486 -0.00206654 -0.146071 0.0729627 -0.291709 -0.109719 -0.0206396 -0.0964943 -0.000671903 0.0942745 0.0867561 0.127832 -0.0153815 -0.109853 -0.0294307 -0.098195 -0.00169393 -0.107729 -0.125955 -0.0130602 -0.00531967 -0.0566 0.103278 -0.0894405 -0.0501904 -0.0793499 -0.044238 0.062678 0.0721753 -0.191556 0.141854 0.0269799 0.179857 -0.0067625 0.106325 -0.0378388 0.0109518 -0.151397 0.00423097 0.0763985 0.0818817 -0.00898064 0.071643 -0.0608499 -0.108694 -0.159715
Q105 0.0470621 0.143861 0.06588 -0.0598448 -0.134513 0.0435973 -0.0777502 0.0677801 -0.0014425 0.14399 -0.125319 -0.0545539 -0.136379 -0.127946 -0.069621 0.139961 0.0718959 -0.173658 0.126602 0.253191 0.0540185 0.0760365 0.253044 -0.115632 0.0324538 -0.0796462 -0.086051 0.0588987 -0.097359 0.263354 -0.0180705 0.0225422 -0.0445274 0.109888 0.0476093 0.0275249 -0.025633 -0.0712721 0.0928719 0.0306061 -0.0150748 0.0227658 0.0158212 -0.0679308 0.0870024 -0.00802877 -0.0525223 0.0464587 0.0844414 0.0832963 -0.124846 -0.0484841 -0.120097 -0.11021 0.10017 -0.0395682 -0.0334699 0.189379 -0.0349888 0.0911015 -0.0792691 0.0725756 0.0131972 -0.179758 -0.00816603 -0.168513 0.0447266 -0.166887 -0.0455465 0.0770583 -0.0177951 0.0164489 -0.141135 0.0138038 -0.110249 -0.106078 -0.0207881 -0.106931 -0.114573 0.0234406 0.0477195 0.0565064 -0.0393169 -0.0467262 0.0463833 -0.0373548 -0.0211895 -0.12145 0.0682225 -0.170652 0.027353 -0.10364 -0.100932 0.091984 -0.078528 0.0789894 0.0858254 0.131438 0.190919 -0.166181
