3167 100
Q117 0.0603832 -0.0177288 0.0232598 -0.0416317 -0.129949 -0.0282778 -0.0655359 0.0647304 0.048864 -0.0781821 0.0610839 0.082667 -0.0707952 0.0416684 -0.0566872 0.0338484 -0.123432 -0.0896445 -0.0160344 -0.0899232 -0.0602242 0.138963 -0.141401 -0.0724688 -0.00385653 -0.0626905 -0.0569431 0.0687006 -0.107179 0.0276357 0.102226 0.000506136 -0.0320057 0.0290489 0.0314423 0.00174219 0.11535 -0.00661283 0.0825044 -0.0348 -0.0895941 -0.0461017 0.0569601 0.0316249 -0.0720871 0.032295 -0.0406634 0.0907261 -0.0368084 0.043287 -0.0342349 -0.0611635 0.122222 0.0172205 0.0854289 -0.0723235 -0.0889707 -0.0480872 -0.000700985 0.126817 0.0694695 -0.0583211 -0.0560266 0.0287997 0.0542971 0.0384677 0.132008 0.0972353 0.114546 -0.0404602 -0.0448253 -0.017863 -0.158423 -0.127132 0.101149 0.0187684 -0.0696557 0.0085474 -0.0998782 -0.125948 0.00558734 0.145062 0.0894784 -0.0574342 -0.0180381 -0.0799789 0.0284674 0.00704288 -0.0867041 0.0567823 0.0369355 0.0614287 -0.0328083 0.0526297 -0.0636699 0.0395812 0.141205 0.0284237 -0.0327183 0.071208
Q116 0.0728237 -0.117523 -0.14238 0.113748 0.0582649 0.0579997 0.012622 0.0836849 0.0444742 -0.129324 0.0162619 0.137373 0.160471 -0.174777 0.0573715 0.0494899 0.00793352 -0.162678 -0.214515 0.143169 -0.152177 0.0147263 -0.126128 0.0705433 0.0393267 0.0968361 0.0560843 0.00835943 0.00307387 0.00184046 -0.0313556 0.0816687 0.0499856 0.0367299 0.0301028 0.0403523 -0.00541774 -0.052032 0.0386278 -0.143853 -0.0114577 -0.0807495 0.100502 0.0278773 -0.0676925 0.0336282 -0.0213724 0.0378881 0.130626 -0.125086 -0.0536401 -0.00593296 -0.0714153 -0.0156259 0.014198 0.0429938 -0.0150885 -0.0141023 -0.0718596 0.112367 -0.0284339 -0.0450611 -0.0417895 -0.129266 -0.179167 0.00134719 -0.139572 0.00194058 0.107256 0.0337743 -0.111297 -0.0667152 0.0907116 0.0471203 -0.0583573 -0.0185673 -0.0185467 -0.085486 0.0686835 -0.0216004 -0.0990164 0.164423 0.060657 0.120253 0.0191312 -0.0211031 0.0205499 0.140141 0.0283116 0.0265663 -0.0822966 0.0364566 -0.0029564 0.0191215 -0.0652606 0.0607694 0.00374897 0.0477326 0.0291174 0.0366448
Q200 0.0690372 0.0455589 -0.0546127 -0.00986421 -0.0630495 0.0418136 -0.0643089 0.0336665 0.11329 0.00687891 -0.0808141 0.0740467 0.0475582 0.0366759 0.0540017 0.0359163 -0.102921 0.217957 -0.0741712 -0.189578 -0.0567878 0.0502066 -0.201872 0.0285329 -0.16174 0.063814 0.112976 -0.00208433 0.150771 -0.0577447 -0.206116 0.0486121 -0.128938 -0.135105 -0.142626 0.00599787 0.0422539 -0.0116588 -0.0159221 -0.0794983 0.0231173 0.0608572 0.107727 0.102399 -0.0946919 0.00987707 -0.0757026 0.125865 -0.101493 0.0846151 -0.0631426 -0.201015 -0.0572388 -0.0101863 -0.0646076 0.0166731 -0.165929 -0.014146 0.0773486 -0.132526 0.0314395 -0.0138474 -0.0090689 0.0587465 0.0961088 0.133565 -0.111525 -0.155156 0.0499826 -0.0395828 0.0116141 0.0865988 -0.0153199 0.0105034 0.0018691 -0.0897456 0.0697479 0.0260204 -0.0304568 0.0140101 -0.162384 -0.0240819 -0.0766004 -0.133042 -0.0120444 -0.056614 -0.0396808 0.10756 -0.119679 -0.0113273 -0.0737216 -0.0622665 0.0200602 -0.0992388 -0.0433943 0.0518236 0.0175858 -0.0236208 -0.167664 -0.0962371
Q51 0.0756494 0.0113338 -0.0163222 0.0204124 0.00786937 -0.055286 -0.0205171 -0.015463 0.089352 -0.159057 -0.00646858 0.0502974 0.068668 0.0985287 0.00264719 0.0317482 -0.103966 0.010389 0.0114243 -0.0222356 -0.00186299 0.0352863 0.101646 0.129652 -0.0553964 -0.0248103 -0.0764432 0.0158943 -0.067668 -0.193678 0.0772272 0.0299981 -0.0393387 0.0277432 0.0218615 -0.0298908 0.0487099 0.131912 -0.00465411 -0.0455541 -0.0139247 0.0116486 0.00481695 0.00655345 0.0129348 -0.157733 0.0604996 0.149798 0.0277073 0.018292 -0.0212107 0.0688458 -0.0347334 0.0328767 0.0756647 0.0181488 -0.0962834 -0.178791 0.0132616 -0.00617156 -0.0473797 0.00202781 -0.0633637 0.0150295 0.0482652 -0.0139338 0.01247 -0.0161889 -0.052661 -0.00748371 -0.0499504 0.116516 -0.0890136 0.0782614 -0.162043 -0.0770426 0.0584946 -0.0259555 -0.022747 0.0529935 -0.0549211 0.0488509 0.0642189 -0.0171406 0.0868892 -0.0299613 -0.0460412 -0.00879757 -0.10501 -0.0663272 0.0686228 -0.000540359 -0.109643 0.028897 -0.0758183 -0.0655047 0.000143678 -0.0278773 -0.0548788 0.0260747
Q50 -0.0568678 0.0612956 -0.100443 0.0944767 -0.0336617 0.121869 -0.0388216 -0.00641249 0.0615211 0.0223844 -0.134293 -0.0324798 -0.0553257 -0.105718 0.0984023 0.0179854 -0.0140953 -0.0194451 0.11461 0.0304694 -0.0411822 0.0246933 0.102466 -0.00998258 0.0486551 0.00743786 0.0343462 -0.00581961 0.0306426 0.085447 0.106002 -0.0699423 -0.0135515 -0.0542791 0.0331463 0.0487341 -0.0527092 -0.0752454 -0.0580243 0.0591533 0.00513454 0.02681 0.0131323 -0.046153 -0.00781545 0.0951391 -0.0164832 0.00114247 0.0418929 0.0497335 0.0252848 -0.0201026 -0.0525707 -0.0975985 0.00788678 -0.0916602 0.0069667 0.102603 0.0603181 0.131255 -0.0665089 0.0395361 -0.0156717 -0.0258672 -0.0328786 -0.127526 0.039543 0.0130441 -0.0987615 -0.0278755 0.0772604 -0.00783621 -0.00413347 0.0828643 0.0512796 0.0113979 -0.0123032 0.0779879 -0.0654328 -0.0323193 0.013216 0.0437864 -0.00665451 -0.00765249 -0.00956907 -0.0629091 -0.0879211 -0.063816 0.0283746 -0.051625 -0.00449489 0.0350204 -0.0947273 -0.0107462 0.00395469 -0.0257927 -0.0613145 0.0124092 0.0449351 -0.0071442
Q53 0.0609955 -0.00806434 -0.0589183 -0.0725286 0.0311707 0.0653582 0.0717479 -0.0544136 -0.0356959 -0.0515478 0.0961701 0.0207865 -0.0799809 -0.0231172 -0.140834 0.00822791 -0.0109567 0.0711672 -0.0132379 -0.000894181 0.00639679 0.0436325 0.0679027 -0.105868 -0.0656799 -0.118573 -0.19954 0.0192947 0.128659 -0.158196 -0.136378 -0.0889352 -0.028804 0.0639063 -0.0558716 -0.0420072 0.186015 0.00161412 0.115145 -0.00628538 -0.0455659 0.0414885 0.096038 0.0453224 -0.0890846 -0.0383655 -0.115073 -0.072521 0.032337 -0.00262073 -0.117502 0.0356772 0.0473826 -0.0828579 -0.0245388 -0.058427 -0.0588085 -0.0176614 0.0313204 -0.0409418 -0.0406531 0.00443996 0.000174028 0.0104823 0.112369 0.139161 -0.159479 0.0968383 -0.0820592 -0.0364526 -0.196619 0.0258742 0.0841027 -0.0657448 0.0870272 0.0177265 0.0247334 0.187424 0.0720171 0.0745515 0.0301993 0.0721772 0.0551636 -0.0404911 -0.107156 0.0208921 0.0278635 0.0371791 -0.109066 -0.0631712 -0.116672 0.102723 -0.0150501 -0.0487239 -0.133606 0.064111 0.103791 0.00965919 0.0254656 0.108946
Q52 -0.0239771 0.0783871 0.12699 0.00857606 -0.00280646 0.0812359 -0.0153325 0.0844082 0.00494596 -0.0145581 0.00263489 0.018935 0.147615 0.0182695 0.000494511 -0.0168669 0.0939535 0.0569513 0.113626 0.0826371 0.0218078 0.0140172 -0.0204852 -0.105629 0.129342 -0.0318286 -0.0396846 -0.0248853 -0.153332 -0.110442 0.0648914 -0.0145576 0.0591064 0.0521297 -0.0473926 -0.179506 -0.00661954 -0.0646429 -0.10057 0.0169131 0.120916 0.0286314 0.0610035 -0.108731 0.0182142 -0.0729535 0.10655 0.00684481 0.0619217 -0.124864 0.00167579 0.0994724 -0.03939 0.0980236 0.0630281 -0.0583513 0.00231019 0.00449895 0.0918794 -0.0232882 -0.0500751 0.00837574 -0.000119161 0.0784895 0.029054 -0.0570143 -0.0236544 0.01621 -0.0195277 0.0957186 0.0479957 -0.0505074 -0.00229555 0.0713705 -0.0492108 -0.0573832 -0.0278805 0.0620216 -0.00171348 0.00395469 0.0264045 -0.0546309 -0.0121355 0.0668023 0.0299777 0.0556266 0.0138809 0.077188 -0.0729029 -0.015903 -0.0428662 -0.00773034 -0.0511458 0.0382282 -0.0293749 -0.0363022 0.0343993 0.118161 0.113909 -0.084656
Q55 0.175444 0.0301295 0.0399299 0.0518315 -0.0783266 0.106194 -0.0115874 0.120071 0.0807098 0.094091 0.108822 0.0477516 0.0859884 0.0452558 -0.0405578 0.060038 -0.0637418 0.00677199 -0.20081 -0.0393862 0.0975685 0.0123184 0.00764008 0.0806808 0.104691 -0.108659 0.0857231 0.0901391 0.145316 -0.0769258 -0.160952 0.160846 0.0053519 0.0900894 -0.0131648 -0.0481103 0.00718532 -0.0900912 0.0323875 -0.00551589 0.100189 0.0416261 -0.0836077 0.0824301 -0.0919954 -0.036029 0.0461924 -0.135765 -0.027292 -0.0803939 0.0806118 -0.0386352 0.0877544 -0.0262262 -0.0352871 -0.0628562 -0.00599715 -0.0610892 -0.230658 0.0167428 -0.0227789 -0.00957667 0.0298646 -0.0746259 -0.00688625 0.14831 0.000759923 0.0493528 -0.026283 -0.029243 -0.132236 -0.0903551 0.0417952 -0.0904521 0.0376221 0.0671788 -0.0152948 0.0212746 -0.00925779 -0.0654332 0.143036 0.0845492 0.147118 0.0410387 -0.016347 -0.125003 -0.057892 0.076148 0.0492379 0.221868 0.138246 0.0584938 0.107249 0.0229632 0.0518817 0.108674 -0.0328355 0.106267 -0.0861265 0.0150433
Q54 -0.0140252 0.112746 -0.00391725 0.0474353 0.103504 -0.0308611 0.0205822 0.0834156 0.120704 -0.0540723 -0.0242847 0.150305 -0.00420128 -0.0711988 -0.151385 0.0411501 0.0476969 -0.0726908 0.00250417 0.0984102 0.12371 0.0591912 -0.0671226 -0.0898666 -0.139655 0.119767 -0.0186707 0.0163624 0.0397737 0.0550086 -0.0582255 -0.0531416 -0.01787 -0.0614132 0.0522551 0.0930753 -0.153114 0.00228566 -0.0128163 -0.0688543 -0.0770712 0.0388897 0.0552143 0.0188153 0.0606153 0.131167 -0.00973866 0.0348932 -0.0114315 0.0480673 -0.00160333 -0.0196595 -0.00509532 -0.0122707 0.033143 0.0223759 0.033317 0.095958 0.0138931 0.072878 -0.0395119 -0.076472 -0.0981698 -0.11448 -0.0834676 0.0646319 0.0689182 0.0435549 -0.0239744 -0.152042 -0.0144128 -0.111937 0.0311155 -0.0284091 -7.74546e-05 0.0930353 0.0506728 -0.0125327 -0.00547456 -0.105555 0.121136 -0.0372311 -0.0377183 0.10993 0.0468202 0.11493 -0.0474767 0.108625 0.0853665 0.101644 -0.0500751 0.0906362 -0.0242727 0.177295 0.00610946 -0.125187 -0.0321719 -0.0153581 0.034953 0.0561668
Q57 0.126623 0.101641 0.10336 -0.0784039 0.0048646 -0.0365663 0.0436857 -0.00197559 -0.0533965 -0.0932564 0.160051 0.0142135 0.000356041 -0.00319652 -0.0516878 0.140158 -0.00417852 0.0357367 -0.0352717 0.100623 0.064286 0.017704 0.0526739 -0.0354026 0.0140868 0.00603041 0.000605262 0.0178855 -0.00696814 -0.047774 -0.12744 -0.0111253 0.0362595 0.0438466 0.014514 0.0214652 0.0739618 -0.0349487 0.0521008 -0.0294052 -0.0368773 0.0260669 -0.0377295 0.010006 0.0662171 0.018231 0.0253973 0.0134698 -0.0606143 0.0869215 -0.0588342 -0.0818323 0.124515 0.0232733 0.0371471 -0.0385353 0.0160833 0.0327355 -0.0612529 0.0441516 0.00602371 0.0341171 -0.0251127 0.027939 0.0392527 0.0451647 0.0409796 -0.0205454 0.0258085 0.0241151 0.0408247 -0.0758473 -0.0358629 -0.0693039 -0.109506 -0.11306 -0.00229839 -0.125373 0.00556329 -0.0548546 0.105596 -0.0155085 0.0636554 -0.0332078 -0.0699279 -0.0198236 -0.0294113 0.0295174 0.0561572 -0.0796921 0.0034229 -0.0230509 0.0229327 0.0144593 0.00997716 0.0430973 0.058734 -0.0468062 -0.0594895 0.00272291
Q56 -0.0218563 0.0990362 0.0421437 0.0175948 0.117514 0.0354763 0.0355963 0.048418 0.143282 0.0119926 -0.0519744 0.153047 -0.0860745 -0.157907 0.00431916 0.0588119 -0.0292561 0.0019544 0.0258998 0.0328645 -0.0447246 0.0863832 0.0215714 -0.0477124 0.0783585 0.114584 -0.0409057 0.0940742 -0.0220576 0.0795254 -0.0118706 0.0515354 0.00792527 0.0294013 -0.0415486 0.00227321 -0.0995341 0.00403335 -0.0355511 0.0843502 -0.0270847 -0.0381007 -0.145187 -0.0426034 -0.0683811 0.0277916 -0.0829667 0.0199602 0.0534566 -0.0297552 -0.033207 -0.040699 0.0481042 0.102905 -0.0330372 0.0299949 -0.0433653 0.038239 0.00419431 0.102588 0.0428413 0.0540859 -0.0271571 -0.0913778 -0.0437151 -0.00051643 0.0119515 0.0510909 0.00449028 -0.0527788 0.0658909 0.0178391 0.0979582 0.0726625 -0.0846807 0.0350761 -0.0410034 0.0120504 0.00587195 -0.163106 -0.00657292 0.0971803 -0.0959246 0.0476999 -0.0057359 -0.0296976 -0.039072 0.0482896 0.0219372 -0.0386356 -0.0232884 0.0259027 -0.0558583 0.14143 -0.0788214 -0.0444332 0.07199 -0.00917458 0.0278997 -0.135131
Q59 -0.00150689 0.137883 0.0818024 -0.0993469 0.0648117 -0.0540455 -0.0368336 0.0295224 0.120769 -0.0936593 0.0992962 0.245988 -0.0407277 -0.106146 -0.038397 0.0885894 0.0333027 -0.0737172 -0.121769 0.0299037 0.0380588 0.0281599 0.00607611 -0.012676 -0.0201508 0.0890847 -0.0502005 8.61074e-05 0.00765486 0.0251986 -0.0481868 0.0701637 0.039337 -0.0298036 -0.0750625 -0.0118272 -0.171302 -0.0185298 0.0459911 0.0282496 -0.0770883 -0.0216874 0.0579468 -0.0219619 -0.00823148 0.0306701 0.0409087 0.0176187 -0.0461053 0.0539247 -0.00443819 -0.0850945 -0.0259728 0.0780166 -0.0537318 0.0326573 -0.042613 0.0571625 -0.0622015 0.0718481 0.0423318 0.012778 -0.0705586 -0.0206178 0.0405437 -0.0169078 -0.0458207 -0.034135 0.0688721 -0.191845 -0.0116869 -0.0372725 0.00651388 -0.10666 -0.0104908 -0.0493007 -0.0836224 -0.0398124 0.00275317 -0.152257 -0.00805063 -0.0868191 -0.0552784 0.000629103 -0.0381026 -0.0224913 -0.0783176 0.0362698 0.00366194 0.0052672 -0.108448 0.0900643 -0.146804 0.179146 0.023736 -0.00510697 0.102356 0.0358511 -0.00912571 0.0251997
Q58 0.0674591 0.0437936 -0.0048451 -0.0324256 0.0415687 0.00673425 0.0968192 0.106853 0.0431987 0.0436731 -0.104484 -0.092868 0.153802 -0.0337686 0.0558141 -0.106673 -0.0052185 -0.0221088 0.0151048 0.132333 -0.0278852 -0.0186077 -0.0122081 0.0528166 -0.0295595 -0.0211158 0.151112 0.0209911 0.0335743 0.0619158 0.0608987 0.116362 -0.0680054 -0.0404157 -0.0686343 -0.0766984 0.0497561 0.0729976 0.0340748 0.0165361 -0.0609727 0.0165719 0.00779234 0.0228227 -0.0294406 -0.0628245 0.0122521 0.0967119 0.0345593 -0.0311765 0.149141 0.0478354 0.102159 0.0674946 0.0531637 -0.0173693 0.0187915 0.0549054 -0.0301364 -0.137389 -0.00959735 0.090197 0.055314 -0.0995566 0.0460872 -0.0936257 -0.0998657 -0.0343914 -0.0201562 0.00171898 -0.086628 -0.0289385 -0.041724 0.0152789 0.0135383 0.142291 0.0266359 0.0526055 -0.0295757 0.148084 -0.0574507 0.069537 0.0690561 0.102707 -0.0621871 -0.0449913 -0.0649157 0.0455294 0.0600058 -0.0109432 -0.0670924 -0.00242728 -0.170153 0.0957377 -0.0808896 -0.0214017 0.0775691 -0.0104359 0.0725317 0.023693
Q148 -0.0374212 -0.0155339 0.0634396 -0.0777084 0.139838 0.000767507 -0.0245643 0.059693 -0.0054223 0.000907282 0.0165444 0.0336451 0.128776 -0.0630508 0.0481538 0.112231 0.0515393 0.0814616 -0.0340712 -0.0209344 -0.0589213 0.00570165 0.138731 0.0690977 -0.0372541 0.141581 -0.128982 -0.0310926 -0.030745 -0.0453193 -0.034288 -0.0468264 -0.0577485 0.0153657 0.0541844 0.00900558 0.086138 -0.081311 0.015493 -0.108267 0.0368049 0.0517709 -0.079303 -0.159578 -0.0743575 -0.0549457 -0.0101058 -0.0396668 -0.074077 -0.0186749 -0.00566177 -0.118211 -0.0022693 0.140596 0.0197505 -0.0705502 0.0835333 -0.00518236 -0.0258435 -0.0371669 -0.178272 -0.0257106 -0.0921739 -0.0920814 -0.097812 0.0146293 -0.0586895 0.0552467 0.0462425 -0.0285051 -0.0303805 0.0473557 0.0471576 -0.0934083 -0.0516576 -0.0723577 -0.0163912 -0.00612094 0.0705478 0.0510073 -0.0109597 -0.0613478 0.0807385 0.046367 0.0426805 -0.0922614 0.0257465 0.0562019 0.217454 0.0579592 0.0382 0.0333344 0.12012 0.0263473 0.040569 -0.0706668 -0.0240924 0.0802922 0.0127021 0.0212662
Q149 0.227812 0.00386372 -0.00278986 -0.0712323 -0.0918888 -0.184895 -0.0291842 0.0376196 -0.0128142 -0.0816395 0.121331 0.034932 0.0416223 0.0732446 0.156108 0.0205441 0.00992039 0.00487196 -0.103985 -0.177442 -0.0162434 -0.00503291 -0.0134213 -0.0310216 -0.0286779 0.00986717 0.0358666 0.00403406 -0.0361615 -0.124401 -0.166972 0.0235342 0.130882 0.0294243 -0.0476914 0.0942247 -0.123274 0.0312482 0.0226526 0.135652 -0.0432388 -0.0230433 -0.0572743 -0.0818901 0.0118316 0.0420966 -0.0757424 0.0476589 -0.0737827 -0.0201668 0.112546 -0.098197 -0.0334662 0.055895 -0.0170399 0.0413161 -0.0776525 0.125547 0.0209585 0.0431711 -0.0180191 0.0806054 -0.015416 -0.0868804 0.0408821 0.075407 0.0564861 -0.0405257 0.0501609 -0.0667268 -0.0199405 0.0160387 0.0139576 -0.0400352 -0.111149 -0.0692722 0.0339165 -0.0321776 0.0718577 -0.0658691 0.102438 0.0141026 -0.0316389 -0.0389573 0.0981146 -0.116097 0.050613 0.00706634 0.0404813 -0.0729249 -0.0118818 -0.0402828 0.00196881 0.0141063 0.049027 0.0140197 -0.0234438 0.0884552 0.072384 0.118335
Q145 -0.076063 -0.0904766 -0.0710418 -0.0667494 0.152352 -0.0701259 0.0117237 0.0259076 -0.0226464 0.0673083 -0.113055 0.101496 0.120838 0.0176487 0.0877631 0.147283 0.0719489 0.0169513 -0.0127653 0.0112252 -0.00603543 0.0680036 -0.112507 0.039408 -0.0230526 0.113671 -0.0325985 -0.00606497 -0.0768079 -0.00769808 0.111934 0.0754851 -0.0377733 -0.076719 -0.0786666 -0.108742 0.073241 0.0518917 -0.00413208 0.0140846 -0.0168795 -0.0220507 -0.159352 -0.11994 -0.00205098 -0.063317 -0.0217461 0.0483579 0.0546163 -0.105032 0.00364033 0.00510674 -0.0176331 0.07629 0.095682 -0.00339216 -0.0927811 0.106176 -0.0638502 -0.0394604 -0.0539885 0.0203271 -0.0859997 0.015248 -0.0678642 -0.0211504 0.028932 -0.0470754 0.0313863 -0.0139613 0.0103351 0.0130312 -0.0666765 0.0264388 -0.0600704 -0.0986201 -0.0311548 0.10491 0.02254 -0.0940976 -0.0780876 0.0969121 -0.0373303 -0.028217 0.0700785 -0.092051 -0.0858992 0.0220737 -0.0375396 -0.0596704 0.00319103 0.0310212 -0.0096202 0.0601621 -0.0778264 -0.0464004 -0.0146221 -0.0399203 -0.00775479 -0.136768
Q159 -0.0472368 0.0474387 0.0721573 0.0283196 0.175671 -0.123143 -0.0624504 -0.0981554 0.0204804 -0.0731115 0.0282897 0.0832684 0.104821 0.116274 -0.0657126 0.0460926 0.0496417 0.121286 -0.0640158 -0.132768 0.160969 -0.00108287 -0.00208542 0.0231022 0.00446513 -0.0481048 -0.100357 0.0185277 -0.0710295 -0.228098 0.0187353 0.0644393 -0.0176551 0.0266609 0.0182767 -0.079801 0.0635929 -0.0520971 -0.0385595 0.0093563 0.0512652 -0.0299716 0.0685716 -0.0677075 0.0523495 -0.096936 -0.000538429 0.0278878 0.17248 -0.0182188 0.0178136 0.0459871 -0.149419 0.0540672 0.0310533 -0.0211639 -0.138991 -0.213638 0.0686105 0.0248928 0.0485681 -0.112623 -0.0809975 0.0359902 0.0395728 0.139539 -0.0143029 -0.0177583 -0.176614 -0.0693702 -0.00295953 0.0214953 -0.0028202 0.0185874 -0.00326566 -0.0883791 0.0227682 -0.00135663 -0.0294396 -0.0337029 -0.147984 0.0317236 0.0541659 0.00724873 0.0918217 0.0444708 -0.0273887 0.12212 -0.0655733 -0.0584262 0.0373882 -0.208239 -0.0884431 -0.00816473 -0.0205898 0.00521532 -0.152825 0.00901681 0.0313089 0.0110548
Q158 0.111504 -0.124511 0.0688695 0.140516 0.00725846 -0.087704 0.0651535 -0.0816518 0.0381467 0.0323386 -0.00892719 0.0774046 0.113552 -0.0420632 0.192981 -0.241128 -0.00676414 0.0585598 -0.0149632 -0.13929 -0.0439502 -0.0548722 -0.153646 0.00256364 0.0136072 -0.0454679 0.0767097 0.0261121 0.0345995 0.0904946 -0.0144443 -0.0230934 -0.0104302 -0.101335 -0.180278 -0.0296839 0.1578 -0.0592546 -0.0226798 0.111588 0.0303425 0.0714462 0.00694903 0.114713 -0.095547 0.00371451 0.029868 0.011448 -0.0659129 0.0407773 -0.106157 -0.0183628 0.00268381 -0.0638523 -0.0943788 0.169546 -0.0321277 -0.247018 -0.0741304 -0.100257 0.0481318 -0.059469 0.0888195 0.098577 0.252072 0.152008 0.106529 -0.0361444 0.0673163 0.0347322 -0.0146923 0.0507548 -0.042021 -0.142796 -0.00772232 -0.04815 -0.0514637 -0.139863 0.0835866 0.0492951 -0.0760053 0.0374725 0.0987589 0.0558025 0.0117075 0.0749276 -0.0101705 0.0318883 -0.136036 0.104111 0.0106623 -0.159384 -0.0258915 -0.0369398 -0.0634793 -0.0585779 0.0372016 -0.157283 -0.00374324 -0.0141743
Q46 -0.0440226 0.0503218 0.0561471 0.0845434 0.11149 -0.0393165 0.0115081 -0.0192947 0.107065 -0.0934975 -0.0195159 0.00721888 0.246977 0.134562 -0.0415061 0.0098501 -0.0616975 0.0365727 0.0127775 -0.101379 0.0909744 0.0719385 0.0525317 0.0126042 -0.0183618 -0.0452451 -0.0799764 0.0186039 -0.114516 -0.25788 0.0157327 0.0764395 -0.024944 -0.00106818 0.0525944 -0.0405977 -0.0397037 0.103711 -0.0706751 -0.0182001 0.0354922 0.0272107 0.0252401 0.01978 0.139942 -0.0956417 -0.0225633 0.110942 0.0899208 0.0487033 0.102816 0.075883 -0.0362467 0.0920302 0.143507 -0.040001 -0.0431993 -0.245804 0.0694592 -0.0202942 -0.0117891 -0.108978 -0.0814941 -0.00566715 0.016408 0.116352 0.00412218 0.00617908 -0.13238 -0.0797418 -0.00634355 0.0197151 -0.0428572 0.0468583 -0.0762915 -0.0761968 0.0505651 0.0410661 -0.0163313 0.062791 -0.0121937 -0.0545016 0.0646587 -0.000637037 0.0669809 0.156907 0.0286262 0.0251655 -0.0661984 -0.0964712 0.0731929 -0.0560628 -0.0571881 -0.0226216 -0.0540537 -0.0425519 -0.060052 -0.00149908 0.0798928 0.0480995
Q47 -0.0532814 0.0889435 0.122145 -0.112695 0.0749031 0.0113607 0.110037 0.081965 0.014935 -0.135735 -0.0413928 -0.0413914 -0.0348241 -0.0547951 -0.0718774 0.0894981 0.039729 -0.0564427 -0.193417 0.0376978 0.0166178 0.0221003 -0.0128439 0.0298351 0.0369242 0.000558874 -0.116391 -0.0337085 -0.0400213 -0.0213234 -0.0113705 0.222803 -0.12045 -0.0954696 0.0206079 0.0177242 -0.0093045 0.0847969 -0.0659067 0.0047782 -0.0939381 -0.0075213 0.0264784 -0.118894 0.0274047 0.00666729 -0.0625664 0.126345 -0.00106182 -0.0143792 -0.0611685 0.0183185 0.116804 0.0981864 0.0441747 -0.0197873 -0.010051 0.132812 0.00175204 -0.0275761 -0.0272777 -0.0892094 0.0677936 -0.0209496 -0.0826113 -0.0424358 -0.07219 -0.0101528 0.12988 0.0125587 -0.134553 0.0492573 -0.0260777 -0.0210635 -0.0433779 -0.0894787 0.0515292 0.0148545 -0.060265 -0.014105 -0.0291313 -0.030399 0.0263275 0.0346934 -0.0850598 -0.0218618 -0.0130899 -0.0761727 0.0428361 0.0509797 0.0206507 0.0454164 -0.0962439 0.0264667 -0.000443344 0.0577776 0.0653653 -0.0608851 -0.0296041 -0.170906
Q44 0.0575937 0.039749 0.0732459 -0.115225 -0.00578262 0.0480804 0.178248 0.0221907 0.00906101 -0.0727597 0.0821334 0.0102831 0.101721 -0.0946063 -0.051123 0.0299636 0.00959764 0.0989853 0.0111453 0.0671604 0.0506828 -0.0257328 0.093344 -0.0336638 -0.143129 0.0133048 -0.0689089 0.0176085 0.0767504 -0.00434657 -0.0664552 0.0349484 -0.0515653 0.0212946 -0.0982386 0.0226385 0.0144353 -0.0878673 0.0268836 -0.000349148 -0.0537082 0.0236467 0.0474986 -0.0189933 -0.0765652 0.0496975 -0.0848345 0.060548 0.0470919 -0.0655228 0.0516144 -0.0603696 0.161287 0.107915 -0.00175954 -0.0493534 0.020844 0.00588213 0.0678039 -0.0663386 -0.136233 -0.0082018 0.127085 -0.0116497 0.0294971 0.0501556 0.0616822 0.0793167 0.023994 0.0161013 0.0445861 0.0352295 0.033682 0.0479908 -0.111685 -0.0574612 -0.0704097 0.113008 0.068753 0.0331193 0.213515 0.0227231 0.0724906 -0.05491 -0.144782 -0.157905 0.0394858 -0.028866 0.115426 0.0770927 -0.0640973 0.0139658 -0.0187197 0.0922735 0.010194 -0.00378357 -0.0543412 -0.043703 0.0502613 -0.0381375
Q45 -0.00303978 -0.0546906 -0.0286148 0.045569 -0.0501725 0.0354652 0.0519506 0.067682 -0.0934217 -0.041422 0.10639 -0.0625144 -0.0301936 0.00887844 -0.100857 -0.0367479 0.0495883 0.0507297 -0.102734 -0.0986358 -0.151051 0.0408451 -0.0322526 0.0462014 0.0299891 -0.0358636 0.0653994 0.0858489 0.130575 -0.0168451 -0.169244 0.0313333 -0.05291 0.0104663 -0.131128 -0.00119215 0.0306194 -0.132123 0.166528 -0.0775958 0.0425879 -0.123085 -0.115083 0.269503 -0.0609363 -0.130668 0.0103684 0.150098 0.194131 0.0573497 0.214744 -0.0987964 0.0763233 0.117627 -0.156555 -0.0838854 -0.00921599 0.069476 -0.153779 -0.0416993 -0.0150617 0.0280258 -0.0102166 0.0209115 -0.0802516 -0.0678321 0.00537606 0.0368878 0.0405929 0.119638 0.0463301 0.021285 0.0535115 -0.00224718 0.0845026 0.0568673 0.0664885 -0.0125355 -0.00853695 0.121213 0.0453996 0.00984521 -0.0126012 0.0311674 -0.0827077 -0.0590246 0.00489036 0.0761609 0.0277711 0.115035 -0.0904359 0.138127 0.0124152 0.0585709 0.0998534 0.00320448 0.12947 -0.0364145 -0.190952 0.057243
Q42 0.117796 0.0812007 -0.0631043 0.0314909 0.160166 -0.0411261 -0.106808 0.0257966 -0.0264529 0.104426 0.200059 -0.0923767 -0.0204337 0.10778 -0.136243 -0.0237508 0.023342 0.0280346 0.0100156 0.108718 -0.0501611 -0.00591503 0.0794013 -0.0762525 -0.0897201 -0.0344872 0.116126 0.149177 -0.0810083 -0.155194 -0.0880872 0.00585576 0.0394218 0.0427505 -0.0292188 -0.0488479 0.0126786 0.0483149 0.0526664 -0.0814764 0.000650523 -0.09568 0.0374937 0.0373384 0.049295 -0.0915242 0.087565 -0.0473645 -0.136339 0.0534984 -0.019408 0.039333 0.0196016 0.0210814 -0.0481713 0.216532 -0.041981 -0.0266361 0.00627264 -0.0441077 -0.0557031 -0.090173 0.0461468 0.00748113 0.0483615 0.0891876 -0.145494 -0.0453066 -0.0672301 -0.089985 -0.0587367 0.0592832 0.0619259 -0.0589522 0.0344995 -0.0252879 -0.0479189 0.0791657 0.100398 0.0370761 0.050243 0.00856539 0.0298134 -0.194133 -0.0560423 -0.0204424 0.0783799 0.0875174 1.85149e-05 0.00392263 -0.0593141 -0.0189863 -0.0451716 -0.129789 0.147937 -0.0147077 -0.165724 0.0380514 0.0122529 0.0500504
Q43 -0.143619 0.0622474 0.0699224 -0.0326393 -0.0386773 -0.0624151 0.151594 0.0982187 -0.0283583 -0.00822679 -0.0425905 0.0297791 0.0926243 0.0946169 -0.00502995 -0.0457014 -0.013261 0.113226 -0.203082 0.0247775 -0.0260062 0.0393688 0.0676457 0.0779826 -0.0438603 -0.0878277 0.0726861 -0.0144631 0.0634995 -0.09043 -0.0227036 -0.0182991 -0.0695671 0.0705971 -0.086488 -0.130373 -0.167314 0.0504848 -0.0910597 0.0524296 -0.0578703 -0.080191 0.00392084 -0.0519751 0.114289 -0.0643633 -0.0588406 0.046809 0.0463203 -0.00696056 0.0377149 0.00343498 0.0717704 0.0735391 0.0343904 -0.0235987 0.0647946 0.133223 -0.0456066 -0.0634503 0.0438011 -0.0180391 0.125558 -0.0178235 0.0965063 -0.0949929 -0.155483 0.050964 0.0523958 0.0972015 0.0126381 -0.0228179 -0.0413966 0.0213644 0.0305961 0.27848 0.0239522 0.0903731 -0.0972849 -0.0272645 0.00420134 -0.0441157 0.0540551 0.0422986 -0.105195 -0.187076 0.0787072 0.00536007 0.129109 0.132999 -0.0225463 0.00381601 -0.120587 0.0240312 0.125275 0.0130686 0.0781923 -0.0954561 0.0320672 -0.00858675
Q40 0.108712 0.00320619 -0.0835886 0.00359116 0.137237 -0.0117625 0.0499525 -0.019383 0.0396171 0.0104905 0.101825 0.0405706 0.0162752 0.00873423 -0.120022 -0.0369027 0.0479547 -0.0209978 -0.128346 0.0495533 0.0757294 0.0817958 0.113435 0.0657774 -0.193757 -0.0793458 0.0187999 0.0559052 0.147302 -0.198848 -0.0785206 0.0706541 -0.104619 0.038918 -0.124464 -0.0339321 0.0667395 0.00325256 0.0816413 0.0576506 -0.0674379 -0.047953 0.104378 0.0299939 0.095903 -0.071733 -0.0602464 0.0956028 -0.101924 0.0088832 0.0877918 -0.000579715 -0.0460313 -0.0232891 -0.111769 -0.0626927 0.0878024 -0.000880191 -0.0520359 0.012767 -0.0577122 -0.014565 0.0173941 0.0588185 0.156639 0.0945489 -0.164225 0.0561728 0.0814496 0.0828985 -0.123673 0.00308874 0.0464683 -0.0161286 0.0971308 0.151376 -0.0526288 0.155214 0.0993424 0.140603 0.179947 -0.0444594 0.039809 -0.10973 -0.0837486 -0.0231339 0.0377941 -0.0632584 -0.088145 0.0701294 -0.126924 -0.0871887 -0.0382623 -0.0499767 -0.0141978 -0.0199393 0.0234881 0.0335681 0.0629651 0.144029
Q41 -0.0522239 -0.000883707 0.00343673 -0.0162216 -0.0511142 0.0788173 -0.0134181 -0.0392432 0.00331679 0.0560698 -0.0237468 -0.0816784 -0.158408 0.0279978 -0.00436631 -0.0303975 0.0404005 -0.0860637 0.0635047 0.042353 0.0189462 -0.069369 0.0746869 -0.0503528 -0.0417734 0.0642668 -0.0552121 0.00075547 0.0471254 0.133419 0.0888905 -0.05584 -0.0065734 0.047103 0.0981976 0.0244285 -0.0130805 -0.0155393 0.109052 0.0198813 -0.0169451 0.0582375 0.0129646 0.01852 0.0113199 0.103024 -0.12883 -0.0693043 0.0350443 0.078052 -0.0617543 -0.0294272 -0.0157754 -0.111668 0.0784253 -0.00326264 -0.0561865 -0.0104165 0.098732 0.0649968 0.00911141 0.0873388 0.0381178 -0.121859 -0.0128238 -0.0591296 0.0408544 -0.0201195 -0.108555 -0.0452309 0.0284556 -0.0106474 -0.0397639 -0.0495133 0.129753 -0.0173736 -0.113701 -0.0600645 0.00813797 0.0434488 -0.00186989 0.0469365 -0.0713893 0.00603582 -0.0531793 0.103404 0.0806679 -0.0451582 -0.0767203 -0.0429717 0.0252741 0.000526452 -0.0372124 -0.0715725 0.0545965 0.0111826 -0.00270969 0.0719159 0.044729 -0.00246397
Q155 0.122694 0.053726 0.06115 -0.0361176 0.0750802 -0.0578717 0.00510074 0.113703 -0.0514616 0.0507304 0.118167 0.065104 0.0242105 -0.0318291 0.022314 0.028399 -0.0184902 0.0344541 -0.0887685 -0.0155505 -0.0820789 0.0135418 -0.0851541 0.0520407 0.0437395 0.00302483 -0.0749049 0.151514 -0.0167512 -0.0626984 0.0634891 0.135813 -0.0240344 -0.0411994 -0.0463418 -0.104738 -0.0722647 -0.0575515 0.0765077 0.00502819 -0.0410009 -0.0554144 -0.0777517 0.0411065 -0.0814882 -0.0260089 -0.0191548 0.156214 -0.0664089 -0.0136122 -0.0426073 -0.120634 0.0445633 -0.0922256 -0.112753 -0.011351 -0.0782062 -0.0146286 -0.0144654 0.0191308 -0.0927457 -0.0432985 0.00253778 -0.0433088 0.0925882 0.0382668 0.0258171 0.0626395 0.12905 0.0689146 -0.0865908 0.0977093 -0.106525 0.0531799 0.0662203 0.021607 -0.0349715 -0.0465713 -0.0420086 -0.145993 0.0511872 -0.00353573 -0.128604 0.0267278 -0.0547358 -0.0502672 -0.01424 -0.059927 0.0762297 -0.0484286 -0.0445083 -0.0539001 -0.0177467 -0.0348032 -0.0853396 0.0181268 0.0991196 -0.215586 0.0309258 -0.0176378
Q154 -0.0201672 -0.0736621 -0.115333 -0.0269716 -0.0353428 -0.154441 -0.12264 -0.0197232 0.107596 0.0422463 -0.0415622 -0.0161439 0.00126014 0.0778919 0.0942764 -0.0701632 -0.0875428 -0.0338618 -0.0291778 -0.253383 -0.0749923 -0.0297091 -0.0621022 0.0457026 -0.141131 -0.0879577 0.224959 -0.110754 0.130927 -0.200219 -0.100206 -0.0670585 0.168126 -0.0760322 0.00355433 0.035546 0.0817548 -0.00086177 0.011906 0.0415112 0.066701 -0.0560162 0.124605 0.0333765 -0.0222166 0.111361 0.0562761 -0.0437166 -0.15914 -0.157842 0.0802631 -0.193198 -0.166212 -0.000939652 -0.0361063 -0.0526524 -0.0025397 0.0730453 0.090805 0.0305733 0.0659323 -0.0253002 0.0493623 -0.201235 0.0582167 0.0624188 -0.0322645 0.0243155 0.114216 -0.166787 -0.267613 0.144197 0.0995316 -0.00532188 0.100757 0.020993 0.118569 -0.0216873 -0.135801 -0.0145809 -0.0900685 0.0274246 -0.0400384 0.00895298 0.0758883 -0.135505 -0.0118926 -0.0233536 -0.105963 -0.171479 -0.0479881 0.0572553 -0.0266981 0.0379633 0.0758895 -0.0320779 0.0933756 0.0378242 -0.122785 0.0467544
Q157 -0.0108655 -0.104924 -0.212246 0.198395 -0.101131 -0.165583 0.143641 -0.0748045 -0.034953 -0.178399 -0.16463 0.0982545 0.031774 0.0159265 0.084585 -0.0810604 -0.0985634 0.179065 -0.0479634 -0.144649 -0.160413 -0.0477549 -0.173428 0.0147677 -0.0371325 -0.0868563 0.102386 -0.197817 0.0849262 -0.130992 -0.203472 -0.000536551 0.0877588 -0.0516371 -0.032875 -0.0189193 -0.00731343 0.00660748 0.0457536 -0.0687452 0.111728 0.150412 0.0790094 0.155843 -0.136432 0.060873 0.0565011 0.00733109 0.0245886 -0.050931 0.159412 -0.102635 -0.107518 -0.00431415 -0.186474 0.00605935 0.120772 -0.190131 -0.0180717 0.0914176 0.147666 0.01161 -0.0586362 0.0233912 0.0238964 -0.0816979 0.171451 0.128866 0.0837951 0.0351674 0.0629138 0.0729182 0.143051 0.137025 -0.0392995 -0.0797634 0.174988 0.0472901 0.148151 -0.0354421 -0.0673755 -0.0715425 -0.054596 0.211187 -0.0925155 -0.0288454 -0.0801199 0.0220235 -0.00117079 -0.0392621 -0.00449726 -0.0256398 -0.0382051 -0.0312868 -0.105142 0.0993951 0.0998242 -0.150451 -0.105349 -0.0527784
Q156 -0.0113434 0.0402936 -0.0788314 0.00471591 0.0684605 -0.0182073 -0.0376618 0.045875 -0.0526325 -0.0861755 -0.0859712 -0.0121814 -0.0341238 0.0636862 -0.0533153 0.0865554 0.0125777 -0.00182393 0.0855356 0.0185394 -0.00999824 0.0137321 0.0667885 -0.0219301 -0.121078 0.0334267 -0.0221961 -0.022741 0.00570922 -0.109628 -0.00727419 -0.155347 -0.0282097 0.0509086 0.0778555 0.0839356 0.0121137 0.0160339 -0.113811 0.00481665 -0.052971 -0.0389841 0.0271819 0.0146381 0.0715158 -0.100161 -0.0603234 0.118786 0.0587435 0.0483352 -0.106066 0.00469039 -0.00343315 0.0138524 0.0239175 0.00641596 -0.0418111 -0.0195054 0.0799957 -0.0374967 -0.0642824 0.0144046 -0.0334125 -0.0169002 0.0414663 -0.0437001 0.0928212 -0.0375977 -0.120906 -0.00542237 0.0164529 -0.0379164 -0.052661 0.0567119 -0.0782761 -0.0494567 -0.00137508 0.0421388 -0.0338191 0.0276386 0.0207756 0.0347323 0.0786591 -0.0802026 0.162026 0.0592204 -0.0321588 0.014454 -0.00323936 -0.0292835 -0.00409097 -0.0517457 -0.0266836 -0.0265372 0.00948346 0.0160647 -0.153646 -0.0141355 -0.00768202 0.00187278
Q151 -0.024441 -0.103952 -0.0791395 0.0917392 0.212702 -0.0262091 -0.048285 -0.126584 0.110801 0.0197025 -0.0115854 0.0497602 0.0256148 0.129806 -0.0922948 -0.038296 0.174277 -0.0266891 -0.015564 -0.0774754 0.0385933 -0.0493395 0.034328 0.0106999 -0.0347171 -0.0240114 0.00262771 -0.0391465 -0.0200423 -0.0790043 0.0950805 -0.0602803 0.00731171 -0.0631711 -0.0595886 -0.0349596 0.0899369 -0.0120502 -0.0963642 -0.0439394 -0.0997244 -0.123983 0.0796643 -0.0958618 0.00207162 -0.0423277 -0.0501998 0.129344 0.0588404 0.0354022 0.144394 -0.0175764 0.0495337 0.0475408 -0.0761042 0.209477 0.00286068 -0.0677094 -0.0303351 0.0146345 0.0683445 -0.00347483 0.085581 0.076252 0.0108644 0.0982379 -0.0105771 -0.000770415 -0.0720235 0.096038 -0.019812 -0.0801973 0.0257337 -8.04937e-06 0.145313 -0.0234834 0.0447181 -0.0407968 -0.196333 0.034173 -0.0482439 -0.0397634 0.00642991 -0.079549 0.0880523 -0.1593 -0.033992 0.0894616 0.177091 -0.070164 -0.0698983 0.0266979 -0.0275423 -0.0280843 -0.0919028 -0.0591591 -0.237642 -0.0046294 0.0297542 0.0265647
Q150 -0.0524542 0.0465906 -0.0482335 0.00737665 0.01891 0.160367 0.0177381 -0.0107189 -0.0448838 0.0372083 -0.0925117 0.0919517 -0.0458889 -0.124104 -0.092152 0.050289 0.027676 -0.0492747 0.0206067 0.124792 -0.0163552 0.102771 -0.0270476 -0.0690409 0.014059 -0.049106 -0.103211 0.12511 0.00919495 -0.040759 0.0317337 0.0166562 -0.00945121 0.0620202 0.0290145 0.0473309 0.122261 -0.0738261 0.0836275 -0.0682867 0.0338499 0.0771943 0.147801 -0.0328424 0.0636095 0.0108875 -0.10951 -0.0773065 -0.00645834 -0.0448409 0.054868 -0.0220182 -0.0837757 -0.0220456 -0.0127966 -0.0144689 -0.123545 0.0668085 0.00688466 -0.0105143 0.0941604 0.00859047 0.0128452 0.0398072 0.0090242 -0.0176339 -0.0434437 0.0567418 -0.100123 -0.0762859 -0.072633 0.126184 0.0477082 -0.0173018 0.0764475 -0.0562289 -0.0671151 -0.120805 0.0575115 -0.0230905 0.0113209 -0.0356213 -0.0671336 -0.0134545 -0.0802642 -0.0295537 -0.0379569 -0.00611418 -0.0840514 -0.129296 0.139901 0.0290943 -0.088519 0.0352755 -0.0738406 0.107619 -0.00267314 0.0728619 -0.0295092 -0.0456274
Q48 0.167641 -0.0982442 0.0302483 -0.0368406 -0.0663371 -0.00101783 -0.0861483 0.123309 -0.00983528 -0.18981 0.173429 0.0866254 0.139571 0.0411895 0.0810638 -0.0337977 -0.0650517 -0.0896404 -0.128237 -0.0722862 0.14734 0.180091 -0.0994955 0.0626769 -0.00856329 0.047326 -0.0798892 0.102459 0.0250585 -0.27992 0.0624712 0.184296 0.00404281 0.0774253 0.0323024 -0.0421624 -0.0442588 0.0181471 -0.111913 0.0348171 -0.0409952 0.119356 0.0413057 0.00241015 0.0776774 0.127912 0.01903 -0.0518178 -0.088352 0.0700071 0.107154 -0.0298065 0.162456 0.000439778 0.0285244 -0.0447161 -0.0787255 0.0204526 -0.0506272 0.00698767 0.0323144 0.108595 -0.0507659 0.12623 -0.0140259 0.0653054 -0.0349392 -0.0115785 0.062793 0.0905023 0.0211566 -0.0362929 0.118405 -0.0062051 -0.0424002 0.132909 -0.0164021 -0.0854789 -0.0292657 -0.132487 -0.0360126 0.0133104 0.0327193 -0.0514324 -0.116239 -0.136556 -0.0483177 -0.039323 0.125655 0.0782652 0.0770162 -0.0785072 0.142068 0.0392912 -0.0722042 0.0483263 -0.0385577 -0.106926 -0.13292 0.161194
Q49 0.0911614 0.114734 0.108638 0.0210823 -0.0385822 -0.121615 0.0218826 0.0616942 -0.0476468 0.0250705 0.0468288 0.139148 0.0632979 0.0247877 0.0177334 -0.0445688 -0.0563393 0.142443 -0.113161 -0.121312 -0.0167387 0.000535834 -0.147333 -0.0423512 0.120863 0.0316488 0.0568768 0.0242112 -0.060331 -0.096045 -0.0635587 0.124379 0.0143959 0.0987833 -0.0297444 -0.049612 0.114655 -0.0855671 -0.141366 -0.0308342 0.0916878 0.15296 -0.0301685 -0.0453351 0.108617 -0.0318655 0.112097 0.0830117 -0.259267 -0.0281962 -0.0180297 -0.0160354 -0.0966802 -0.152516 -0.0102194 0.0535774 -0.0120258 -0.14353 0.0787733 -0.117424 -0.0807555 -0.0490922 0.0464353 0.0165449 0.0690351 0.154359 -0.0542429 0.0555332 0.0812347 0.17088 0.00812894 0.0616952 -0.0481758 -0.0494451 0.105961 0.0342048 -0.00697876 0.0373583 0.00271879 -0.197861 0.0261331 -0.0258251 -0.0586892 0.176784 -0.0218056 -0.0519649 -0.0127146 -0.0200769 0.0281257 0.0601861 0.0224404 -0.125518 0.0375677 0.0949948 -0.0528076 0.0307529 0.122308 -0.0816887 -0.0479802 0.0931318
Q153 -0.0166512 0.244646 -0.0466596 0.00667458 0.0217679 0.00684054 0.021803 -0.0303947 -0.0595385 -0.0660984 0.199573 0.10563 0.0922924 -0.00754941 0.0635255 0.0246327 0.00119537 0.0712005 -0.174302 -0.153678 0.0164353 0.0282889 -0.225327 -0.104408 0.0944249 -0.0972499 -0.0469605 -0.0119725 0.0898567 -0.113461 -0.0582762 0.136256 -0.00951301 0.0470064 -0.0767303 -0.111024 -0.136085 0.193897 0.0492053 0.00141535 -0.0182425 -0.0514586 -0.049682 -0.0439154 0.0158103 0.153139 0.0145582 -0.0396272 -0.0706957 -0.0866573 0.0189115 0.00758891 0.0713065 -0.0242235 -0.154544 -0.0189072 0.0143884 0.0379057 0.00826038 0.0351132 -0.0397093 -0.000791744 0.00623596 0.197823 -0.123174 -0.0365529 -0.210884 0.160756 0.237414 -0.0588605 0.0733344 -0.0381093 0.00981535 -0.158044 -0.0801356 -0.0690566 0.179762 -0.060176 -0.14435 0.0250612 0.0206351 -0.109912 0.0705449 0.115611 -0.0266595 0.0795264 -0.0855606 -0.0725416 0.0383606 0.0660168 -0.119626 -0.0135799 0.158739 -0.12902 0.00643641 -0.0718464 0.226995 0.00618803 0.034101 0.00389922
Q152 -0.0968953 -0.0200693 -0.0460107 -0.0149304 0.0533408 0.0663299 -0.0344505 -0.106233 0.00404031 -0.0309858 -0.0581046 0.0393392 -0.133039 0.0477493 -0.0870719 -0.0742719 0.211614 0.11789 0.00875183 0.0754981 0.0872012 0.0460368 0.0551763 -0.0127358 -0.0749163 0.0244684 -0.0547417 0.00987376 -0.0497418 0.000910782 0.0525664 -0.0813403 -0.0441047 -0.124206 -0.0716184 -0.021502 0.129739 0.0282488 -0.0476453 -0.016049 -0.145763 -0.0507268 0.0992686 -0.0727215 -0.0648145 0.028245 -0.0603612 0.150086 -0.0432641 0.0582609 0.0366363 0.0154123 0.0238015 -0.0270972 0.0258283 0.132905 -0.0212415 -0.0410374 0.0831536 -0.0189846 0.0706343 0.0487573 0.0124655 -0.0201258 0.0210009 0.00935845 0.0492372 0.0427761 0.0625842 0.0929695 0.00922595 -0.0431436 -0.0109955 0.0352274 0.0486821 -0.0384614 0.0421456 -0.057454 -0.120457 0.0363812 0.00711828 0.00695207 0.0884337 0.0312464 0.0039486 -0.0306719 -0.0276681 0.0442692 0.149817 -0.0533861 -0.121821 0.0626424 -0.0778703 0.0126673 -0.0956664 -0.0433866 -0.172858 0.0487338 0.0194232 -0.0328102
Q128 -0.0738532 -0.0909358 0.0228363 0.0332051 -0.0411779 -0.0406406 0.0717874 -0.0246486 -0.00828733 0.0357679 -0.133063 -0.159735 -0.045275 0.0342791 -0.030107 -0.163769 0.10415 -0.0816307 0.0127742 0.0708514 0.0151615 -0.0262105 -0.00403552 -0.0594613 -0.0166746 0.0489159 0.0798298 -0.0258984 0.00871579 0.161516 0.0325748 -0.0770705 0.0355698 0.0657575 0.0800692 -0.00211154 0.0385291 0.0197106 0.00598609 0.0220332 0.0193021 0.0126407 -0.0882577 0.0528297 0.0542106 -0.0308054 -0.0844053 -0.124202 0.0675979 0.111437 0.00147656 -0.0383815 0.139562 -0.0298777 0.0470206 -0.0607446 -0.0564385 0.0416929 -0.038621 0.0880963 0.0911857 0.0209441 0.0771223 0.0014093 -0.0210791 -0.011067 0.0635993 -0.139994 -0.0754973 -0.0929327 -0.0339009 -0.110554 0.0128195 -0.0469783 0.00522029 -0.0436287 -0.0167443 -0.00928997 0.0301822 -0.0132361 0.0967164 -0.0245569 -0.0456114 -0.0731112 -0.0410544 0.110207 0.00878835 -0.136881 0.0316493 -0.0207119 0.0271855 0.0850419 0.0064387 -0.0408119 0.0697147 0.0470466 -0.00142299 -0.0732664 0.0314397 -0.0780772
Q129 0.015421 0.128813 -0.00931766 0.0910547 -0.089705 -0.140398 0.116885 -0.00430035 0.116026 -0.0484664 -0.0189486 0.0685042 0.115336 -0.0128171 0.0891941 0.181596 -0.161624 -0.0198856 -0.0634328 -0.106829 0.00968774 -0.134917 -0.0489267 0.129237 -0.0373314 -0.0750547 0.131668 -0.0450571 -0.0468654 -0.0949858 -0.102065 -0.134002 0.045369 0.0448576 0.104447 0.0277216 -0.0317061 0.143602 -0.0233048 0.108523 0.00834904 0.0619988 -0.00884909 0.0246698 -0.0548571 0.0692333 0.0338359 0.170038 -0.0518712 -0.00879685 -0.0089434 -0.198523 0.0335665 0.0894244 -0.0430163 -0.117424 0.00204507 -0.0458476 -0.0315768 0.0925081 0.209158 -0.0313453 -0.077074 -0.126161 -0.0283925 -0.0804703 -0.0205482 -0.036207 0.0247848 -0.024265 -0.105528 0.12161 0.00366824 0.0637483 -0.128131 -0.0199909 0.0773969 -0.0457304 0.0745434 -0.00080249 0.000311106 0.0415949 -0.0299741 0.0541667 0.0576771 -0.00204715 -0.104749 0.179023 0.0072843 0.00911427 -0.0922033 -0.0994666 -0.0130085 -0.112731 0.0642901 0.0197931 -0.0818596 -0.0349819 -0.0331582 0.0310887
Q120 -0.0148152 0.052755 0.0710419 0.0761 0.193848 0.033727 0.0237094 0.00382701 0.14047 -0.0803976 -0.0289285 0.0210584 -0.00794864 0.0791786 -0.0806178 0.0802495 0.01717 0.0956136 -0.0668173 -0.0501224 0.0959297 0.0725514 0.128211 0.0139805 -0.0373595 0.0900872 -0.0493184 -0.0282223 -0.0213789 -0.244316 -0.00278338 -0.0327358 -0.0442062 0.0170871 0.0124927 -0.0135625 0.0561217 0.0262989 -0.0514766 -0.00147935 0.0853793 -0.0351758 0.0397375 -0.0265962 0.0302229 -0.089579 -0.160531 0.0884136 0.0646859 0.0191032 0.0220958 0.015406 -0.0453313 0.0556089 0.00947934 0.0551146 -0.0927689 -0.219706 -0.0375336 -0.0248556 0.0153005 0.011321 -0.144523 -0.0170781 0.0848154 0.0178975 -0.00149083 0.0541557 -0.106143 -0.0311198 0.0470284 0.0140583 0.0337188 0.0147655 -0.0309894 -0.109796 0.130025 0.0137409 0.0409204 -0.0428446 -0.0656741 0.018143 0.00648317 -0.0904197 0.121645 0.0769228 0.0174616 -0.0137624 -0.0644224 -0.0883276 0.0889244 -0.147977 -0.135455 0.0324152 -0.0436172 0.00928498 -0.142964 0.0717121 -0.0432493 0.029919
Q121 -0.0485438 0.0757708 -0.0560649 -0.0382054 0.0451568 -0.0302345 -0.0785719 0.0420295 -0.0417853 0.0319466 0.0595694 -0.0270031 0.161304 0.00886327 0.0465263 0.0778872 0.0522222 0.0315649 0.00362931 -0.0317196 0.0871872 0.0995862 -0.204893 0.122361 -0.0198353 0.0660854 0.114774 0.00036464 -0.0352422 0.157704 -0.0781788 0.0521402 0.0701729 -0.0287793 -0.0739849 -0.0346283 0.0978612 -0.0285943 0.0131981 0.0285836 -0.0490964 -0.0427497 0.0439584 -0.0759833 0.000355067 0.0125285 0.00928332 -0.0110471 0.0858084 -0.100522 0.142235 -0.0685428 0.0236147 0.0767535 -0.1267 -0.0414943 0.104626 -0.0238104 -0.219048 -0.0455476 -0.0520232 0.00371528 0.0118494 0.02311 -0.0625511 -0.00136119 -0.00282289 -0.00264619 -0.166733 -0.0676124 -0.190783 0.063837 -0.0619645 0.0344485 -0.023519 -0.0950647 0.0965147 -0.0632695 -0.125305 0.0314343 -0.0914671 0.00549088 -0.0256346 0.0772022 0.00643896 -0.0351381 -0.0384547 0.00722828 -0.0543381 -0.155588 -0.0390378 -0.00309338 -0.011728 0.0524659 0.0412571 0.0529339 0.108533 -0.0502267 0.00057407 -0.0423315
Q122 -0.0353191 -0.0447715 -0.118388 0.0182605 0.00549293 -0.0183003 0.0297246 0.0479101 0.0865818 -0.0731807 -0.000389584 -0.014109 -0.000351685 0.0169851 0.0788516 0.11516 -0.0955969 -0.0816154 0.0107086 0.00324419 -0.00396048 -0.123032 0.0661084 -0.0351912 -0.0700229 0.0906265 -0.0554685 -0.0332412 -0.144092 -0.0966708 0.0102513 -0.0774346 -0.0495479 0.0429371 -0.000365026 0.0752973 -0.0214269 0.0318757 -0.0122359 -0.00611141 0.0451636 -0.0036796 0.0084935 -0.000308075 0.0898569 -0.0993257 -0.00325966 0.0307091 -0.0292913 0.0383192 -0.033587 0.0540775 0.0418454 -0.0611918 0.14662 0.0365822 -0.0725148 -0.093634 0.117938 0.0188685 0.0446508 -0.0490837 -0.100582 -0.0819211 -0.047331 -0.0161982 -0.0180953 -0.131355 -0.0317562 -0.0533693 0.0305342 0.0618182 -0.0716867 0.0595981 -0.0674428 0.0417668 -0.0528843 0.0129496 -0.0367243 0.0450345 -0.0426768 0.0733324 0.0718159 0.0108414 0.110461 0.0220322 0.0197677 0.0234846 -0.00453752 -0.00476534 -0.0253178 -0.0569605 -0.0303508 0.00303365 0.114004 -0.02618 -0.067582 0.10494 0.0801563 -0.0954278
Q123 0.128585 -0.0683267 -0.0986383 0.0993103 0.0368996 -0.0269323 0.0695817 0.020051 -0.015515 0.0963499 0.209014 0.0680156 -0.0870635 -0.12208 -0.115783 -0.0522307 0.0426657 -0.0542057 -0.161345 -0.0597857 0.0817535 -0.0716094 -0.0477001 0.00101844 -0.130949 -0.0710312 -0.00410805 0.0606631 0.162005 -0.0501814 0.0302332 0.0788636 0.0605458 -0.0814781 -0.0394635 -0.114482 -0.0759211 0.0399524 0.0862963 0.083338 -0.115859 0.0708521 -0.0401218 -0.0304636 0.12361 -0.0451927 -0.0456014 -0.139973 -0.0945667 0.0702147 0.0607083 0.0859866 -0.0873389 -0.0760468 -0.0309682 0.00994314 0.0163452 -0.14259 -0.185157 0.0633988 0.00122892 0.0154793 0.0287662 0.00268031 0.216152 0.164755 -0.0948039 0.182244 0.0875111 -0.0543754 -0.120831 -0.0275442 -0.00222583 -0.0561625 -0.0042476 0.0429541 0.0077938 0.0870233 0.0255298 0.00309028 0.0896558 0.0515671 0.0636813 -0.0940438 -0.0612733 -0.0150386 0.0383092 0.0932327 0.0975142 0.064537 -0.0964898 -0.123315 0.102602 -0.00102731 0.0618648 0.0612572 0.0486596 0.134912 0.0212488 0.171064
Q124 -0.00785975 -0.0583326 0.0320157 0.011541 -0.0342068 -0.115282 -0.0762519 0.0972856 -0.0527531 -0.102974 -0.0449339 0.188367 0.00614684 -0.0905087 0.0488837 0.0626661 -0.0821115 -0.0200899 -0.133929 -0.0495274 -0.102551 -0.0123276 -0.0495222 -0.0214126 0.0089298 0.0367344 0.100878 -0.193742 -0.0759864 -0.0410091 -0.0758781 0.0162983 -0.126424 0.0343034 -0.101883 -0.055116 -0.0437343 0.00916609 0.0266287 0.0180802 -0.0537809 0.0188719 0.0580423 0.0328185 0.107042 -0.062768 0.0743635 -0.0923495 -0.0696635 -0.0626872 0.0138867 -0.0950751 -0.190981 0.0813973 -0.0196162 -0.103826 0.151382 -0.0784936 -0.0455881 -0.185871 0.0355086 0.0285606 -0.0160043 0.0465044 -0.011627 -0.0371008 -0.150801 0.0325415 -0.0564051 0.0591886 0.0067342 0.115651 -0.138392 -0.0114806 0.00533079 -0.0729953 0.205139 0.024053 -0.145583 -0.0503105 -0.109741 -0.0682931 -0.041263 0.11882 0.0154437 0.037477 -0.0795034 -0.0783085 -0.0874893 0.0284061 -0.151758 0.0720587 0.00701065 0.11263 -0.0109481 -0.00847879 0.0364414 -0.143127 -0.125146 0.00117443
Q125 -0.00798233 0.0422708 0.034743 -0.0946628 -0.0350692 -0.145525 0.0040018 -0.0750384 0.0217497 -0.0398025 0.0577262 0.143315 0.0210092 0.12581 0.0305038 -0.0738622 -0.17172 0.0124904 -0.0575512 -0.102175 -0.0503399 -0.0135554 -0.0406695 0.079305 0.0507515 -0.00631304 -0.0324141 0.116356 -0.132655 -0.134043 -0.0160116 -0.0867625 0.0167228 0.0213058 0.0184066 -0.0332793 0.111402 0.045176 0.022564 0.00106505 -0.0273154 0.0531339 0.0569976 0.00664044 -0.00604132 -0.0832861 0.111653 0.0810369 -0.153928 0.0117442 -0.0265268 -0.0135206 0.0346473 -0.0159262 0.0743847 -0.0671775 -0.0830315 -0.143812 -0.0374482 0.0835808 0.00848713 -0.151033 -0.155935 -0.00780276 0.0497761 0.0748616 -0.020495 -0.00861143 -0.0356609 0.0571732 0.0651506 0.0234696 -0.162513 -0.00665739 -0.0876004 -0.101879 0.01274 -0.0466533 -0.183441 -0.157271 0.0610032 0.0345869 -0.0153409 -0.0882395 0.0550081 -0.048903 0.0270636 0.00993886 -0.0433331 -0.0187766 0.0891593 -0.0224264 0.0129409 0.0171527 -0.00507697 0.0451407 0.106136 -0.0673121 0.00205511 0.0472745
Q126 0.0265706 0.115598 0.0357696 0.00065188 0.0405314 -0.079764 0.0856478 0.0407638 -0.0942513 -0.0392505 0.0171688 0.0361155 -0.0318036 0.00964406 -0.0453833 -0.0853791 0.00661044 -0.129769 0.0586976 0.109333 0.0514197 -0.00358501 0.0365031 0.0643379 0.0425792 0.0342002 -0.192913 0.000149159 0.0441928 -0.0111248 0.0611743 -0.025438 -0.00940351 -0.0224268 -0.0232125 0.026869 -0.032641 0.00429415 0.0722025 -0.0282474 -0.0638085 -0.0207259 -0.0174258 0.0318208 0.0515422 -0.119374 -0.0939052 -0.0765781 -0.0412855 -0.0274082 0.00324778 -0.0502129 -0.0299374 -0.0542807 0.187628 0.0377267 0.0246346 -0.0380143 -0.0986055 -0.0122656 -0.00358777 0.0455894 0.0651141 0.0518082 0.038415 0.0928799 -0.0505058 -0.0761739 0.0755649 -0.00620134 0.000593566 0.0538891 -0.0618124 0.00439153 0.0547357 -0.0290229 -0.0427963 -0.0819402 0.0367551 0.00119912 0.00364135 -0.0812709 0.0473169 0.0480046 -0.0398883 -0.129698 0.0952369 0.0414264 -0.0607577 -0.0520679 0.0197572 -0.122299 -0.0919307 0.0480964 -0.0250283 -0.102481 0.100893 -0.0675478 0.0809905 0.0500442
Q127 -0.133559 -0.0751502 -0.132797 -0.00512859 0.0193808 0.120006 -0.0322089 -0.103183 0.0166151 0.0899115 -0.0777484 -0.133255 -0.132748 0.0481724 0.0589177 -0.0226049 0.0815274 0.00746264 0.0671825 0.0569386 0.107704 -0.0150714 0.0804022 0.0446319 0.0144487 0.0836669 -0.0651573 -0.00558699 -0.00743686 0.10126 0.0147623 -0.0819428 0.0380568 -0.0278263 0.146542 -0.0535942 -0.0390358 -0.0122899 0.0427596 -0.018635 -0.00722353 0.0228121 0.050933 0.107948 -0.0573607 0.0975788 0.0923142 -0.0402391 -0.0215159 -0.0299106 -0.00999018 0.0197707 -0.0627408 -0.114584 0.020983 0.0638668 -0.110979 0.124804 0.130603 0.0102403 -0.0697525 -0.0132481 0.0422916 -0.00912916 -0.121768 -0.106984 0.0436866 -0.0366037 -0.0977749 0.0154808 0.0145786 -0.0707524 0.0167395 0.0267421 0.00747088 0.107028 0.0983197 -0.0686698 -0.0150903 0.0801404 -0.0390252 0.0826022 -0.0865926 -0.0034275 -0.0728808 0.0617378 0.0623496 -0.0262471 0.0178294 -0.025251 -0.0694324 0.0659238 0.0643851 -0.00770311 0.117564 0.105408 -0.103602 -0.0215359 0.080389 0.0169403
Q33 0.0690832 0.0588443 0.0534047 -0.0206836 0.126704 -0.00999709 0.081031 0.0769339 -0.00782619 -0.135212 -0.0373616 0.176086 0.0493125 0.0252589 -0.098307 0.0615966 0.0531854 -0.0593162 -0.0600255 0.0851746 0.0653197 0.0292401 0.0863097 0.100886 -0.163996 0.0953054 -0.0454142 -0.00586287 0.0604992 -0.0801849 0.0286986 0.0390384 -0.0486933 0.0357646 -0.0810587 0.00460824 -0.12008 -0.0531681 -0.0270727 -0.00151743 -0.14737 -0.114958 0.066761 0.000222671 -0.0143913 -0.0254598 -0.0837254 0.177813 -0.0687333 0.0320431 0.0187569 0.0447793 0.067135 0.0349744 -0.0231506 0.135711 0.0112902 0.0734536 -0.0686966 0.0407371 0.0361593 0.0138814 0.0289096 -0.0558545 0.0163675 0.0517259 -0.0250246 -0.00460106 0.0130463 0.0398507 0.0178302 -0.0558514 -0.0165326 0.0495633 -0.025157 0.139599 -0.00622998 0.0573672 -0.0602193 0.0113129 0.0463254 0.00477763 -0.0175265 0.0107128 -0.0178217 -0.0665488 -0.0119902 0.00628572 0.162033 0.0491788 -0.0744374 0.00476527 -0.135372 0.107314 -0.032294 -0.00383888 0.0328693 -0.0186141 -0.0132987 0.0959668
Q32 0.0145251 0.0973981 0.0174701 -0.0949264 0.0240081 -0.0669353 -0.029662 0.0902788 -0.0901773 -0.0401535 0.0568471 -0.0468251 -0.0995171 0.0238393 -0.0229713 0.00784048 0.0100298 -0.10558 0.0753098 0.0317509 0.0288935 0.0674445 0.0498286 -0.0942518 -0.0651033 0.0912753 0.0237604 0.101927 -0.092794 0.031213 0.0284558 -0.083767 -0.0263515 0.0502856 -0.0203525 0.0893219 -0.0101004 0.0399458 0.0957786 -0.0090528 -0.0257325 -0.0205916 0.0746845 -0.0255582 0.0632445 -0.0341998 0.000773288 -0.0107241 -0.0684463 -0.0125375 -0.0224733 -0.0553799 -0.122358 -0.0425912 0.0522116 0.0667285 -0.0311944 -0.0108065 0.028786 -0.0434166 0.0420662 0.034026 -0.00391015 -0.0276477 0.0149241 -0.0627844 0.0419176 -0.135291 -0.04644 -0.05878 0.0965977 0.0235018 -0.0634957 0.0371146 -0.0848822 -0.0534411 -0.00873878 0.0378028 0.115334 0.0263245 0.0471764 0.0212339 0.0588905 0.00200515 -0.0026832 0.0634925 -0.00804957 0.0893306 -0.0384415 -0.023256 0.0358444 -0.0461228 0.0285871 -0.00930786 0.029111 -0.00954011 -0.13004 0.115492 0.00206803 -0.072311
Q31 -0.02932 -0.0234329 -0.107107 0.00942411 0.0974091 0.0382843 -0.0332514 -0.0372868 -0.0407875 -0.00174351 -0.00166901 0.00744543 -0.035089 0.0880493 -0.115164 0.00283836 0.104132 0.0539932 0.0500736 0.0143778 0.130072 -0.0495994 0.0788109 0.00525709 -0.0814219 0.00293881 -0.0228522 -0.0320157 -0.0448182 -0.0271915 -0.00188713 -0.0148203 -0.0196067 -0.0949849 -0.00694577 -0.0324297 0.0680327 -0.0441236 0.00414682 -0.0634572 -0.0405179 -0.044544 0.0228717 -0.0790457 -0.0106725 -0.137677 -0.0200585 0.140292 0.0698803 0.0565073 0.0464689 -0.0667382 -0.0637612 0.0185724 0.0369198 0.123446 -0.0833098 0.0273348 0.0391255 -0.00719788 0.0293418 0.116355 -0.070108 -0.0219467 -0.0239429 -0.0406601 0.0927314 0.027669 -0.115446 0.0529132 0.00692263 -0.0234163 0.0198774 -0.00283263 0.0187393 0.0294751 0.157815 -0.0954833 -0.118932 0.0563172 -0.037056 -0.039577 0.111796 0.0500443 0.0660252 -0.0705395 0.00727824 -0.0612599 0.0687464 -0.0472552 0.0385971 0.0142392 0.0141063 0.0609272 -0.00807362 0.097493 -0.0710478 -0.0158187 -0.0306643 0.0341671
Q30 0.0680697 0.135803 0.040061 -0.0273453 0.0337184 -0.172009 0.0390739 -0.0167416 0.0289467 0.205979 0.148719 0.0503563 0.0515493 0.15583 0.0760457 -0.0636204 0.044547 0.0704024 -0.022457 -0.318802 -0.0463625 0.0173108 -0.0716257 -0.120455 0.0720207 -0.115692 -0.060645 -0.0480369 -0.151543 0.00374651 -0.0436734 0.0891102 0.153584 -0.0485788 -0.0174072 -0.00287861 0.143297 -0.0877676 0.0507863 -0.0772693 0.0989447 0.0771068 -0.0285831 -0.0469038 -0.0739394 -0.0245797 0.10736 0.0805772 -0.0880793 -0.0574142 -0.0641403 -0.115983 0.0382959 -0.00113992 -0.125323 -0.0155863 0.0308055 -0.220476 -0.0309338 -0.0704331 0.0137744 -0.091285 0.0081443 0.0607604 0.0329503 0.114233 -0.112701 0.112747 0.223565 0.0910929 0.0597873 0.0116585 -0.0374777 -0.0109721 0.0656234 -0.0159464 0.011386 0.023164 0.064903 -0.090777 -0.0539839 -0.0222014 -0.0411482 0.097197 0.0491254 -0.0655241 0.0560302 0.0415642 0.108374 0.140682 -0.114119 -0.0205907 -0.0632381 0.044472 0.0451261 0.0874776 0.0487262 -0.0264962 -0.176599 -0.00457001
Q37 0.202415 -0.0369762 0.0790784 0.0401059 -0.0272786 -0.125946 0.0903185 -0.0041117 0.106984 -0.0139171 -0.116441 0.0553355 0.0993034 0.0649388 0.0828839 -0.153485 -0.0020969 0.0203625 -0.0547639 -0.0388429 -0.0325581 0.00450946 -0.0438891 -0.0355652 -0.0266738 -0.0831322 0.0368159 -0.0341745 0.0338819 -0.0346811 0.0256703 -0.015796 0.0954484 -0.0676403 -0.163297 -0.0246674 0.0195458 -0.129186 -0.069109 0.0111573 -0.0116155 -0.0382319 -0.00779533 0.101871 -0.0680586 -0.0394769 0.0618496 0.00756268 -0.0492201 0.00508339 -0.0702876 -0.0275424 -0.100474 -0.0214206 -0.00746175 -0.0277973 -0.0424164 -0.121827 -0.036521 -0.0391125 0.00709728 -0.0626499 0.0267189 0.0205534 0.124943 0.092278 0.0061054 -0.11653 0.0412024 0.130506 -0.0388338 0.0538525 -0.0685706 0.0326525 -0.0748363 -0.076024 0.0418637 -0.0720625 -0.0745899 -0.00114567 -0.164854 -0.0467081 0.0892297 0.0148919 -0.0504321 -0.0720045 -0.0495593 0.0120352 -0.172109 -0.0222814 0.0356594 -0.151298 -0.0659945 0.00770179 -0.0355354 -0.0490811 0.0701211 -0.159229 -0.00841246 -0.038017
Q36 -0.0931487 -0.00399527 -0.194462 -0.0238298 0.0603198 0.0250505 -0.0963193 -0.00691845 -0.0281459 -0.0561763 -0.0527414 0.0717726 -0.124786 0.0801617 -0.108713 0.0525608 0.0799526 -0.124706 0.0727629 0.0194244 0.158039 -0.0582805 0.0642693 0.000808237 -0.0244624 0.0898954 -0.0267087 -0.0208882 0.0369818 0.0185808 -0.00365339 -0.0710563 -0.0436222 -0.00695625 0.142253 0.157233 -0.0853375 0.00437083 -0.0782622 -0.0435285 0.0270994 -0.0454504 -0.118848 0.0424062 0.0925453 -0.0190582 0.0407731 0.0560862 -0.0394888 0.0352425 -0.0222866 0.0705191 -0.0241501 -0.0533716 0.0721537 0.127346 -0.139188 0.0204947 -0.0265986 0.0900443 -0.000392003 -0.00516586 -0.0049953 -0.093441 -0.02976 0.0891318 0.0777785 -0.0751727 -0.051179 3.75837e-05 0.029563 -0.0666226 -0.0246577 -0.019586 0.01405 0.07279 0.0122644 0.0123455 0.0192504 0.00439778 -0.0168344 0.05695 -0.0256956 0.0279958 0.0822051 0.13127 0.0165131 0.0161663 0.0683407 0.126561 -0.0417328 0.049383 0.105255 0.0270557 0.0252243 0.0378545 -0.0489731 -0.0410834 0.0632225 -0.0213391
Q35 0.19724 -0.0305386 -0.00291374 -0.0562433 0.119179 -0.0779204 -0.0524613 0.0465647 0.0347181 -0.1297 0.0439561 0.176882 0.0459509 0.19601 0.0890359 -0.00128833 0.0886495 -0.0742051 -0.0928258 -0.204585 -0.000593819 -0.0404132 -0.0705136 0.142343 0.00774164 0.00857227 -0.0103351 -0.00577556 0.015622 -0.199456 0.00672765 -0.0153292 -0.107944 -0.0134457 0.0161169 -0.0609784 -0.106329 -0.0191239 0.0155375 -0.00210136 -0.0481501 -0.131068 0.0492475 0.0151709 -0.0459723 0.0573488 -0.184743 0.0896295 -0.133283 -0.0911249 0.0687293 0.0341943 -0.0140778 0.0107443 -0.0350916 0.0534232 -0.0267812 -0.0828119 -0.0507054 0.00741953 0.0344869 0.00109344 0.0282073 0.0547754 -0.0414812 0.0926665 0.00147792 0.00950577 0.00699129 -0.107727 -0.103514 0.12465 -0.0484004 -0.147247 -0.104502 0.0967151 0.0941716 0.108235 0.00643133 0.0150306 0.127279 -0.0910752 -0.179742 -0.0369271 0.0974984 0.150389 -0.0234736 0.0532379 0.151597 -0.05613 -0.0233006 -0.12914 0.0162221 0.0670887 -0.00141044 0.14692 0.0716795 -0.117623 0.0772174 0.0975968
Q34 -0.0577009 0.135397 -0.0604472 -0.00688375 0.10253 -0.0768834 -0.0860126 -0.0201342 0.0139197 -0.0604116 -0.0865896 -0.095971 0.0413011 -0.0499415 0.0594058 0.0167879 -0.0304445 -0.0562388 0.105196 -0.0174788 -0.0485793 0.0742944 0.0449838 0.0783051 -0.0590015 0.153155 -0.0845125 0.0298343 0.0518319 0.119305 -0.037304 0.078891 0.0311786 -0.0422159 0.0494719 0.0315033 -0.0995985 0.0344007 0.0282134 0.0410523 -0.141723 0.0517034 -0.0192059 -0.0874402 -0.121353 0.114278 0.0215607 0.0601235 -0.014663 0.0802065 0.00801229 -0.0896867 -0.0298462 0.0180382 0.0705508 0.0385235 -0.00187724 0.124178 0.054214 0.0494278 -0.123078 0.0869673 0.0445206 -0.0337657 -0.0384556 0.0648044 -0.0662193 0.0805297 -0.00997284 -0.0946998 -0.00309715 0.109814 -0.0374159 0.0461753 -0.0303922 0.0223694 0.0719179 -0.0532226 0.0815893 0.0278748 -0.0029422 -0.0349821 -0.0980395 0.121627 0.0583457 -0.00234474 0.105559 0.0774815 0.0901126 -0.0359888 -0.15431 -0.0270731 -0.0542493 0.105528 0.00107456 -0.0256561 -0.00496788 0.116837 0.0202636 0.0861414
Q39 -0.0777753 0.0404776 -0.139105 0.0206591 -0.0786685 0.0692829 -0.0957022 -0.0308797 -0.0655791 -0.0898458 -0.0653332 0.115057 -0.0269818 -0.173157 -0.104636 0.0140073 0.0740691 0.165223 -0.0762034 0.0327388 0.014619 0.0325411 0.00233101 -0.028223 0.190126 0.00549099 0.0655745 0.0625253 -0.0118193 0.0755694 0.0853367 0.167275 0.0409995 -0.0181306 -0.0806845 0.0105157 0.185523 -0.0175146 0.00571838 0.022483 0.0369163 -0.033409 0.0362558 -0.176001 0.0505424 -0.0556879 -0.00180706 -0.0816996 0.00143901 0.0713796 0.0103589 0.00946956 0.039269 0.0836871 -0.000858775 -0.104627 -0.00035551 0.033718 0.0916237 0.0302843 0.0872301 0.0197521 -0.0478862 0.0666742 -0.0643934 -0.0477254 -0.00227158 -0.094154 -0.0714588 0.015001 -0.00765643 0.17591 -0.00856956 -0.108334 0.104998 -0.0311172 0.0160216 -0.0117441 -0.0975827 -0.0558587 0.0250783 0.0364703 -0.0392166 0.0376832 -0.102896 0.0109967 -0.0202615 0.0838918 -0.0660557 0.0116356 -0.00734373 0.126078 -0.0302171 0.00548679 -0.160399 0.107703 0.0858737 -0.0322457 0.0108053 -0.0446376
Q38 -0.0353664 -0.0815789 0.0178507 0.0790133 -0.0852043 0.0820636 -0.0584176 -0.0128324 -0.0620363 0.0331872 -0.065533 -0.0603914 -0.0999972 0.0608883 -0.00415354 -0.0329241 0.0104175 -0.0177723 0.0368932 0.0507175 -0.0283062 -0.0195423 0.0413683 -0.0208374 0.0385869 -0.00601235 -0.00319395 -0.0525159 -0.0455126 0.104624 0.188339 -0.154907 -0.0194169 0.0103335 0.0469498 0.0396589 -0.0290753 0.0410968 0.0341251 -0.021959 0.00856315 0.0135953 -0.0109003 0.00457644 -0.024615 0.121563 0.0136835 -0.0178691 0.140103 0.0587577 -0.0577375 0.0180019 -0.023661 -0.115074 0.0890476 -0.115306 -0.0756468 0.0217118 0.111496 0.061902 -0.0409113 0.0335431 0.019908 -0.0901746 0.00226194 -0.0300527 0.0464158 0.0131789 -0.0146506 0.0140473 0.0607158 -0.0633064 0.0179829 0.0418528 0.0961257 -0.00764669 -0.0990023 -0.00826525 0.0796853 0.0693973 0.00233271 0.0045291 -0.0234222 -0.0121102 -0.0816877 0.0536171 -0.0154671 -0.0604805 -0.0848797 -0.0844913 0.0130005 -0.0453423 0.0212494 -0.0830225 -0.018178 -0.00346532 -0.0474042 0.0556052 0.0163706 -0.0764668
Q142 0.159145 0.083539 0.0615663 -0.0287013 0.0166601 -0.0498405 0.0241294 0.124718 0.0140461 0.012543 0.160582 0.101108 -0.0229899 0.023535 -0.0725509 0.0278969 -0.0387347 -0.133895 0.0468738 0.0271703 0.0903381 0.0104381 -0.0969784 -0.0755148 -0.0181665 0.031971 -0.0501416 0.00959084 0.0600683 -0.175906 -0.00395877 -0.0627928 -0.00914378 0.0697238 0.0639003 0.103138 -0.049395 0.060356 0.081054 -0.156188 -0.0525244 0.109173 0.0641729 -0.0171884 0.187563 -0.0482825 0.0786816 0.0362501 -0.0731234 -0.0731627 0.039077 -0.0343267 0.0281579 0.0361132 0.0895718 0.0417325 -0.042524 -0.00566482 -0.12657 -0.0753862 -0.0810687 -0.0131758 -0.0683203 0.0111391 0.00688409 0.0494566 -0.0156946 0.0204136 0.0914897 -0.0464453 0.00291192 0.00830078 0.0119864 -0.00300734 -0.0755525 -0.017969 -0.0327808 -0.0801443 0.0389719 0.0411607 0.146994 -0.0529425 -0.0152515 -0.0347522 -0.029244 0.0871209 0.0291238 0.0201104 -0.108443 -0.0167245 0.122107 -0.0503939 0.0100226 0.105924 0.00255793 -0.0400761 -0.0302646 0.00918449 0.0473418 0.00300087
Q143 0.16602 0.120928 -0.0179743 -0.0525446 0.0294381 -0.0140654 -0.041267 -0.0140933 -0.11366 -0.15742 0.142494 0.121752 0.0108515 0.00557061 -0.0366497 0.101268 -0.107832 -0.0130257 -0.082484 -0.0744641 -0.0045734 0.0412964 -0.125025 0.0454018 -0.131343 -0.084504 0.0207888 -0.0604976 -0.0012853 -0.0475106 -0.144891 0.172792 0.038894 -0.0118583 -0.0636913 0.0838882 0.0272039 0.0263988 0.0411359 0.0220949 -0.101006 -0.0172873 0.0559158 -0.0314393 -0.0310806 0.00343585 -0.029651 0.0371033 -0.086948 -0.126375 0.0537506 -0.00368081 0.131977 -0.0439404 0.0331511 0.0235731 -0.0941124 0.018964 -0.190088 0.0670199 -0.0779929 -0.042423 -0.00224344 0.112083 -0.253762 0.0694443 0.0363047 -0.034283 0.121661 -0.10041 -0.0346876 0.0315261 0.0314791 -0.0777563 -0.0295834 -0.0667867 0.0834797 -0.079445 -0.0788562 -0.0497049 -0.00435769 -0.00883393 0.0821071 0.0010323 -0.0521973 -0.00561099 0.0333125 -0.0755682 0.0371792 -0.0824121 0.00969965 -0.00129507 -0.0710747 -0.0314745 0.0266795 -0.0175955 0.151507 0.0147396 0.0134485 0.0721785
Q140 0.0036066 0.151146 -0.0223962 -0.0479813 0.115488 -0.0255001 0.0689366 0.0265309 -0.00886864 -0.0273746 0.0121051 0.0744272 0.151965 -0.0133583 0.0365657 0.0446864 -0.106305 0.105612 -0.0312687 0.105902 -0.165823 0.111126 0.112561 -0.0158388 -0.0622232 0.0618177 0.0503923 -0.00855226 0.0695534 -0.0498961 -0.011239 -0.0363978 -0.0176767 0.0179758 -0.158989 0.0128137 -0.0271059 -0.0375796 -0.0390354 0.0897333 0.0585922 -0.0176898 -0.0592238 -0.0550882 -0.0788206 -0.0329374 0.0235221 0.132269 0.0382616 0.05209 -0.0121331 0.0379269 0.083779 -0.0244097 0.00190393 0.0787303 0.0354285 0.11874 -0.0199245 0.0282209 -0.00796734 0.0185292 0.0950079 0.0223326 0.0270198 0.0301616 -0.00110594 0.0184305 0.0598276 0.0293524 0.000911226 -0.00683231 0.0521474 0.0936278 -0.138168 0.0587782 -0.0766275 0.0838756 0.03879 0.0244858 0.0861708 -0.0654475 -0.0444195 0.0224471 -0.0365178 -0.122713 0.0308071 -0.126986 0.0316287 0.0237902 0.0572817 0.0097774 -0.0543184 0.0895035 -0.0245497 -0.124614 0.0921656 -0.120931 0.0764308 0.0418754
Q141 -0.021753 -0.0384245 -0.159298 0.115683 -0.076262 -0.135191 -0.0776065 -0.129705 0.0265809 -0.132025 0.0650636 -0.204926 -0.107494 0.0946097 0.251123 0.0894839 0.0253311 0.0545481 0.0176906 -0.199135 0.00371403 -0.227524 0.0431936 0.176748 0.00894367 -0.112798 0.144918 -0.0594382 -0.148321 -0.0562676 0.0134925 -0.0737871 -0.0612544 -0.0369779 0.0116176 0.00496397 0.0587186 0.135674 0.0136693 -0.210883 -0.0240979 -0.0548316 0.0961914 0.0648556 -0.0865098 -0.0279527 -0.0156914 -0.104536 -0.0652166 -0.045881 -0.057502 -0.0432859 -0.0585567 -0.021824 -0.0102568 -0.00851403 0.0169955 -0.106606 0.0812101 0.0299435 0.050906 -0.0324124 -0.0582807 -0.13776 -0.0752619 0.0838686 -0.110108 0.0790287 0.132538 -0.027781 -0.0452658 0.00629643 0.0538258 0.0691541 -0.0581501 0.0083005 0.0484311 -0.118579 -0.0877448 -0.14805 -0.0972096 0.0597621 0.00696968 -0.00364965 0.0856224 -0.0492031 0.0419172 0.0631277 -0.0348024 0.0865257 0.0557088 0.0367355 -0.0832521 -0.0829624 -0.039956 -0.0342725 0.0700636 0.0985997 0.00877126 0.0841621
Q146 -0.00492956 0.0199823 -0.0582116 0.0324424 -0.11266 0.0297418 -0.0409091 0.0376323 -0.1938 -0.0247398 -0.0718244 -0.162985 0.0361915 -0.100748 0.153859 -0.0070267 -0.109163 0.0209267 -0.0734705 -0.0339595 -0.0174715 -0.00947456 -0.00666053 0.0972767 -0.00577615 -0.0966414 0.15713 -0.130965 -0.0190388 -0.00587893 -0.137431 -0.026007 -0.0113008 -0.00676494 -0.174865 -0.0300494 0.169951 -0.0686755 0.0324784 0.053325 0.0996854 -0.0667374 0.0044788 -0.00961117 0.0139716 0.0408467 0.0192163 -0.0385529 -0.0866454 -0.047143 0.036632 -0.0897349 -0.0719709 0.167197 -0.0757503 -0.0523479 0.0322344 0.0618434 -0.0505302 -0.143969 0.0273445 -0.0335452 0.126512 -0.00259429 0.0141611 -0.0302438 -0.00988694 -0.0934546 -0.0137564 -0.0573628 -0.0666627 -0.046213 -0.0418505 0.0375593 0.00990725 -0.182832 0.0362628 0.0257824 -0.109218 0.0200222 -0.0599344 0.0088578 -0.0430084 -0.152101 0.0643096 0.0655199 -0.0292372 0.107962 -0.0659338 -0.0796735 0.0305131 0.141513 0.134134 0.127565 0.0285053 -0.0664954 0.0478215 -0.0871351 -0.0312455 0.0137032
Q147 -0.0569387 0.0449764 0.0435497 -0.104723 0.0752071 -0.079718 -0.0205367 0.00849644 -0.0739107 -0.0876911 0.0036276 0.00435895 0.10417 -0.0445531 0.156679 0.090042 -0.030396 0.0186581 0.0266119 -0.0185746 -0.103392 0.0713453 -0.0516955 -0.0680675 -0.0704311 0.0905515 -0.109363 0.0100374 -0.041408 0.0697806 -0.0194742 0.0524923 -0.011613 0.0763929 0.0121491 0.0287691 -0.0834901 0.130555 0.0201294 -0.0118861 -0.0647031 0.00615199 -0.0913783 -0.0361968 -0.0520272 0.146481 0.0510218 0.0572787 0.00933122 0.081563 0.012704 -0.173683 0.0198998 -0.0213193 0.0979833 -0.0516113 0.0391419 -0.0538015 0.0405235 0.00600989 -0.0943585 0.0292673 -0.0391128 -0.0989172 0.0906948 0.0727539 -0.0108904 0.0485909 0.148133 -0.024504 0.00443768 0.0746536 0.00961358 0.0306329 -0.0827607 0.0169169 -0.0640557 -0.00525657 0.0423853 -0.00765037 0.0767181 0.09607 -0.0598679 0.0228812 0.0799046 0.0247093 -0.0551112 0.0834041 0.0540269 0.0745705 -0.0761368 -0.0220518 0.0201878 0.103677 -0.179756 -0.000138658 -0.0518248 0.0816874 0.0724143 0.0585754
Q139 0.124098 0.090062 0.119534 -0.052793 -0.0827274 0.0128724 -0.00644383 -0.159201 -0.0473947 0.0298962 0.153997 0.158838 -0.00700986 -0.077678 -0.0704959 0.0172237 -0.00940367 -0.114057 -0.0518812 -0.0182415 0.0951798 -0.102175 0.00532258 0.0901698 -0.0722589 -0.0615604 0.0099017 0.0638102 0.136611 -0.0555668 -0.0827926 0.0364284 0.107169 -0.00281633 0.0404968 -0.0674806 -0.0309692 -0.0981909 0.0581908 -0.13648 0.0192213 -0.0198417 0.0294769 0.1132 0.0664949 -0.0757852 0.0105041 -0.0042514 -0.0713299 -0.0343333 -0.0467979 -0.0378443 0.0802517 0.00822422 -0.0904092 0.0213073 0.0795169 0.0132406 -0.0835883 -0.114657 -0.0300884 -0.00496044 -0.100071 0.0812328 0.0739352 0.083176 0.0649838 -0.0135576 -0.00826255 -0.0884525 0.02174 0.0587262 0.0972728 -0.169162 0.00201563 0.0189967 -0.0464698 -0.0883321 0.0589693 -0.0522541 0.121159 -0.116432 0.0283618 -0.0478961 0.0291595 -0.0369447 0.0543592 0.0939544 -0.0259149 -0.139841 0.0977865 0.0179073 0.141398 0.0120087 0.0174016 0.0662556 0.024635 -0.0208254 -0.0438756 -0.0341855
Q138 -0.0702647 -0.0591522 -0.0166429 0.0413155 -0.00812284 -0.0268771 -0.0555643 -0.0877047 -0.0582179 -0.0282434 0.0395328 -0.0249438 -0.0327851 0.0848701 -0.0543551 0.126847 0.0189447 -0.123984 0.0191705 0.0920549 0.0444272 0.0828921 0.113542 0.0978545 0.11233 0.0432898 -0.0160698 -0.0200313 -0.0176114 -0.00145887 -0.0286107 0.0414864 0.0115007 0.0163689 0.0827255 0.0716682 0.0164119 -0.0914909 0.0308049 0.0704897 0.0689366 -0.0125553 -0.00907601 -0.152892 0.0237515 0.0201186 0.00932611 -0.00740251 0.045512 -0.00533589 -0.147669 -0.0344175 0.0214798 0.0277059 -0.0539625 -0.0969942 0.131884 0.079085 -0.0891114 -0.0308662 -0.0033714 0.00309602 -0.0560085 0.00323122 0.0886799 0.0178627 0.0419179 -0.00160454 0.022972 -0.00935441 0.0664692 -0.109279 -0.0361869 -0.093751 0.0386773 0.00934154 -0.0353488 0.0668654 0.018278 -0.0615701 0.0778179 -0.0342941 0.110091 0.0620336 -0.0531934 0.0100043 -0.0221734 0.249388 0.00897424 -0.137865 0.0559866 0.0595147 0.0146805 -0.114605 -0.0560932 -0.0483261 -0.013671 0.0346918 -0.0776313 -0.0492734
Q144 0.108443 -0.0879102 -0.000754857 0.000501662 0.169957 -0.0629836 -0.0321583 -0.131431 0.0993529 -0.033025 0.0119981 -0.00486373 -0.0422704 0.143033 -0.100777 0.00453313 0.00508497 -0.0117094 0.00878977 0.0375597 0.0856767 0.0222517 0.153244 0.0236168 -0.0884478 0.0127069 0.00915846 0.00150769 0.0120365 -0.100111 -0.0519526 0.0147479 0.0488435 0.0604523 0.000452806 -0.112661 0.042579 -0.00289309 -0.0182552 -0.011249 -0.0395245 -0.0270839 0.00335734 -0.00645135 0.0968053 -0.167164 -0.0699369 -0.00426693 0.0519307 0.0627817 0.0131142 0.0066574 0.0330358 0.0832932 0.0166562 0.094352 0.0280555 -0.216022 -0.0392623 -0.0254485 -0.046828 -0.0482737 0.0377022 0.0429911 0.111127 0.140244 0.0107255 -0.00230658 -0.041735 -0.00699971 -0.031714 -0.00388566 -0.0288481 0.0383897 0.0236491 -0.0902265 0.0446573 0.0298278 -0.0471469 -0.0156295 -0.037232 -0.0155079 0.0438035 -0.137839 0.101325 -0.011681 0.0427979 0.0707862 0.0671978 -0.144889 0.0307655 -0.0350831 -0.0558896 -0.0497055 -0.0267854 0.0221503 -0.13799 0.0199748 0.0271473 0.0423021
Q133 -0.116601 -0.0352319 -0.00469935 0.00132709 -0.0462228 0.10938 -0.0234324 -0.0483934 -0.0673955 0.0898032 -3.914e-05 -0.104329 -0.0374761 -0.0340483 0.048672 -0.0420426 0.114535 -0.0241001 0.0937917 0.126015 -0.00499753 -0.0341774 0.0671429 0.0160344 -0.0335941 0.043823 -0.0509622 -0.0317852 0.0248095 0.12118 0.0765925 -0.0164962 -0.0798513 0.0224178 -0.00675234 0.0228851 -0.0419768 -0.052469 0.0324312 0.0970728 -0.0355472 0.00200597 0.00421964 -0.0539286 -0.0214217 0.0172607 -0.0931858 -0.0979927 0.0624502 0.0556069 0.0405777 0.00809556 0.0315434 -0.0977964 -0.0218805 -0.0788758 -0.0653784 0.101607 0.0690198 0.0610035 0.0280558 0.0656784 -0.0331724 -0.0553873 -0.0265897 -0.0872766 -0.00541293 -0.0332171 -0.101981 -0.056501 0.0262867 -0.00503141 -0.00503903 0.0532731 0.0376916 -0.0270462 -0.0512262 -0.014772 -0.03583 0.00371233 -0.0371471 0.0622377 0.0421178 -0.0430113 0.0156561 0.0861334 -0.0601307 -0.0739426 -0.0429102 0.0551273 -0.0955464 0.0316445 -0.00427072 0.0232415 0.0947979 0.0351889 -0.0413281 0.0460002 0.0549417 -0.0734409
Q132 0.087611 -0.0428927 0.127877 0.0353068 -0.0440064 -0.0882681 0.0958301 0.112646 -0.0169106 -0.116562 -0.0237616 0.126103 0.0310488 0.000667595 0.0940993 -0.144745 -0.0799651 0.0849621 -0.0561389 -0.00446352 -0.0495197 -0.0452825 -0.110065 0.0711849 0.0755612 0.109462 -0.0253865 -0.180401 -0.0184054 0.0569158 0.114226 -0.0269408 -0.0280421 -0.0111567 0.0431682 0.042831 -0.0225699 -0.070383 -0.0603663 0.0282211 -0.0238673 0.0352516 -0.0121334 0.0257585 -0.0496119 0.0268484 -0.00802401 0.018048 -0.0363247 -0.0332481 -0.116116 0.0652672 -0.0569901 -0.0283726 0.0247048 0.128827 0.0606582 -0.0928876 -0.0823722 -0.0584229 0.0361025 0.0173698 0.0506946 -0.000233495 0.088399 0.0934485 -0.00371864 -0.0672346 0.100305 0.0226253 0.0015155 0.0968205 -0.087267 -0.0675517 -0.0558011 -0.0118155 0.0863636 -0.124679 0.0403988 -0.0492283 0.0443197 -0.050215 0.120797 0.0950411 -0.0167847 0.0272542 -0.0257628 -0.0716652 -0.0859234 0.108364 0.135618 -0.162518 -0.189559 0.138056 0.0475583 0.0021279 0.0444723 -0.129172 -0.0493076 -0.169242
Q131 0.00108261 0.0416336 -0.0350181 0.0113245 -0.0669689 0.102504 -0.0716573 -0.00691313 0.0427437 0.122234 0.0230433 -0.0901524 -0.0897595 -0.0578276 -0.0686126 -0.061316 0.0134054 -0.00628688 0.112468 0.0177686 0.0206933 0.0642985 -0.0118996 -0.0943703 0.0275095 0.0103371 -0.0238214 0.0649387 0.0484254 0.185225 0.0236345 -0.174469 -0.00368411 -0.0179922 0.0940768 0.0905519 -0.0845957 -0.13763 -0.00619625 0.056402 0.0577625 0.00780547 0.135926 0.0279132 -0.0773758 0.109609 0.00494522 -0.0237858 0.0642247 0.0176467 -0.0572604 0.0247637 -0.0374486 0.00990325 0.0238203 0.112823 0.019553 0.0130644 0.0548172 0.0357504 -0.06574 0.0223872 0.0634544 -0.0801134 -0.0999994 -0.0911902 0.120751 0.037206 -0.114226 -0.0109237 -0.0303126 0.0988884 -0.0533825 -0.0147197 0.0199633 0.0575304 -0.0404244 0.0461482 0.0564395 -0.0912599 -0.08729 -0.0460299 -0.139553 0.0926679 -0.036203 0.0168791 0.0385073 -0.0187541 0.102486 0.036188 0.0199327 0.0697513 0.0143835 0.000138186 0.114238 0.0905795 -0.0262097 0.0203441 0.0817044 0.0344021
Q130 -0.0453795 0.0012429 0.00849095 -0.00851366 0.0648817 0.0277955 -0.0353612 0.0209822 0.0291755 -0.0444349 -0.00799658 0.0554305 -0.00223344 -0.0138797 -0.117419 0.081929 -0.0985173 -0.0698171 -0.0168868 0.0132388 -0.0148352 0.092991 0.014548 -0.0702775 0.0627797 0.0882388 -0.0475064 0.127108 -0.0201243 -0.0655885 0.0100785 0.0831042 0.00695822 -0.00131038 -0.00671639 0.0497702 0.199388 -0.0620648 0.0627125 0.0127915 -0.0294876 -0.0412647 -0.00697705 -0.0539638 0.00746703 -0.0247407 -0.041474 0.0440697 -0.0347954 0.0688089 0.00424279 0.0744693 0.135966 0.0570759 0.0108694 0.0297722 0.00879211 0.149022 -0.031749 0.0124627 0.0413236 -0.0853191 -0.133421 -0.0640268 0.067868 -0.0611194 0.0454255 0.0377195 0.0869545 0.0127325 -0.0471387 0.0453406 -0.0986218 -0.041472 0.0358855 -0.0496975 -0.0254207 -0.125406 -0.0282177 -0.0941325 0.0589011 0.138636 0.0701525 0.0435811 -0.0474039 -0.114341 -0.0259286 -0.0500205 0.0030851 -0.0432866 -0.0226029 0.072756 -0.111222 0.114807 0.00514652 0.0270427 0.0778894 0.025725 -0.0578522 0.0364642
Q137 -0.106197 -0.124061 -0.0486543 0.00885159 -4.64407e-05 0.0744722 -0.0115953 -0.0225755 -0.153206 0.0168336 -0.0251414 -0.126048 -0.034522 0.0298547 0.0392372 -0.116105 0.0832211 -0.0624171 0.124553 0.0854479 0.0257458 -0.0117914 0.050396 -0.0112277 0.0624976 0.100744 -0.0106434 -0.0873973 0.0450111 0.102147 0.0700828 -0.142656 0.011169 -0.00088216 0.149793 0.0360003 0.0145468 0.101987 0.03599 -0.0516941 0.0437226 -0.0297089 -0.0267539 0.0912311 -0.0202884 -0.0342146 -0.0461585 -0.0866145 0.0559796 0.104639 0.0155386 0.0956108 -0.0534567 -0.118368 0.0670171 -0.0228556 -0.0932268 0.0376187 0.0627904 0.0548738 0.109772 0.0691715 0.0506367 -0.139278 -0.0569343 -0.0720901 0.0531689 -0.0534209 -0.0535908 -0.120035 -0.0472399 -0.0836667 -0.00400408 0.0214571 0.077535 0.0485687 -0.0718236 -0.102258 0.00682112 0.0694415 -0.0423522 0.0820214 -0.0939813 0.0336197 -0.0714525 0.145751 0.0730456 0.0252364 -0.0186997 -0.00316276 -0.0223742 -0.076048 0.0296047 -0.0370054 0.0968782 -0.0583698 -0.0366671 0.0518806 0.0968266 0.00854075
Q136 0.150372 0.0147424 0.1168 -0.0573592 -0.00578923 0.0480744 0.0465908 -0.0485219 0.00111664 0.0396247 0.188051 0.0868642 0.0330136 0.05782 -0.00225385 -0.00297692 -0.0929834 0.0409908 -0.260252 0.0180383 -0.0668775 0.0491262 0.00096329 0.183571 0.158363 -0.0587487 0.0840374 -0.0210871 0.0378493 -0.170989 -0.100049 0.0720293 6.1196e-05 0.0775326 0.0757285 -0.110258 -0.0570072 -0.0423121 -0.0372191 -0.0354068 0.0596197 0.0370047 -0.211737 -0.0454539 -0.000207039 -0.145726 -0.0318805 -0.00348131 -0.119312 -0.0802994 0.126805 -0.0922793 0.0688896 -0.0451737 0.0473583 -0.0178712 0.00390841 -0.0978283 -0.0480368 -0.0941356 -0.112177 -0.0297685 0.00428272 -0.0533405 -0.0387727 0.167632 -0.159227 0.0901823 0.105782 -0.0318695 -0.0371682 -0.0557253 0.040206 -0.123725 6.35644e-05 0.130038 -0.156138 0.0651977 0.138983 -0.0709693 0.0641972 -0.0165464 -0.0704443 0.0149246 -0.0369968 -0.163617 0.011611 0.0218331 0.217297 0.225532 0.0635191 -0.0568348 0.123579 -0.0696104 -0.0525713 0.101325 0.00519098 0.0975441 -0.123663 0.119543
Q135 -0.0315829 0.20374 0.134594 -0.1187 -0.0525771 0.0998614 0.0788452 -0.048995 -0.0836426 0.00943498 -0.0129342 0.121149 0.0981388 -0.077454 0.0110957 -0.0147817 0.0253257 -0.0503289 0.0360437 -0.0308433 0.032242 -0.0522404 -0.07106 0.0574297 0.029765 -0.0359335 -0.0932058 0.0191507 0.0328404 0.0889888 -0.110039 0.113807 0.086593 0.120028 0.0346515 0.0636108 0.0400609 0.064676 -0.0551116 0.0503061 -0.10278 -0.0120177 -0.000914855 0.00880282 0.0947594 -0.0838382 0.0316321 -0.0271238 -0.074104 -0.0719387 -0.102424 -0.0104261 0.00898596 0.00457373 -0.034818 0.0707968 0.168762 -0.0431919 -0.226329 -0.0400236 -0.00935365 -0.00983761 -0.00166003 0.0705239 0.0356308 0.00674567 0.0249756 -0.014811 -0.0870165 0.0134271 0.0158436 0.0292154 0.0972717 -0.0400816 0.04327 0.136628 0.0319047 -0.0109975 -0.0399411 -0.0350225 -0.0561579 -0.0287739 -0.0327739 -0.00803116 0.10581 -0.0594863 -0.0188846 0.0934084 -0.0900635 -0.0272706 0.0639955 -0.147166 0.0456686 -0.072131 0.00492499 0.00251347 0.09041 0.0385459 0.0672118 -0.00357402
Q134 0.0556375 0.0974877 -0.054434 0.0402769 0.0771809 -0.096066 -0.108407 0.000570536 0.0211755 -0.0111125 -0.0748736 0.0710658 0.00295037 0.119157 -0.083582 0.00961845 -0.0400477 0.0502891 -0.000461921 -0.029948 0.0226061 0.0417269 0.0661357 0.108457 0.0154426 0.0403186 0.0351261 -0.0914226 0.00697816 -0.0194322 -0.00207278 -0.042988 -0.0334144 0.000616339 0.0360404 0.0441729 -0.105441 0.0400271 -0.108693 -0.0661606 -0.0146763 0.0335338 0.0129525 0.0545478 0.0531765 -0.167693 0.0310892 0.114049 -0.0119765 -0.0196258 -0.0251519 0.0624778 0.00914127 0.0635326 0.0597806 0.0218941 -0.0059932 -0.11568 -0.0491301 0.0618445 -0.0920799 -0.115074 -0.114689 -0.060332 0.0350622 0.0709143 0.0267278 0.0757397 -0.0630458 -0.00426721 0.0600728 0.0609906 -0.0415368 0.0139569 -0.00708572 -0.0360844 0.0544149 0.0492521 -0.0444873 0.0109657 -0.0302369 0.0139683 0.0715951 -0.0839229 0.153491 -0.00188589 0.0254233 0.0440251 0.0499449 -0.106656 0.0903436 -0.0187788 0.0102535 0.00879028 -0.0725753 0.0295013 -0.171919 -0.0385973 0.0700465 -0.0288687
Q20 -0.0295407 0.00612673 0.0210348 0.0389815 0.0168767 0.156034 0.034565 -0.0361065 0.0128902 0.0516018 -0.0768761 -0.0699723 -0.0838871 -0.0547414 0.00518815 0.00673283 -0.0226979 0.0701058 0.0852704 0.0290478 -0.0214918 -0.0446079 0.0868134 -0.0381868 -0.00383809 -0.0334452 -0.025668 0.0294088 -0.0624146 0.00584995 0.163943 -0.0493952 -0.0293714 -0.018397 -0.00831868 -0.0802618 0.0638812 -0.0994703 0.0221053 0.122841 0.00870566 0.0118487 -0.0325528 -0.0535234 0.000138418 0.105451 -0.0650743 -0.0409748 0.0346035 0.0550385 -0.0152722 -0.0100521 0.0530348 -0.0866905 0.0213966 -0.028496 -0.0984554 0.0595561 0.0882762 0.0467819 -0.102935 0.0477205 0.0358361 0.00539763 -0.111797 -0.118864 0.00890669 -0.00501386 -0.17986 0.0458517 0.0690445 0.0410671 -0.0116578 0.0824532 0.0379875 -0.0413822 -0.0417154 0.146567 0.0992871 0.0411883 -0.0192277 0.0617575 0.0124011 0.0248549 -0.073202 0.0486062 0.0224472 -0.115015 -0.0200238 -0.0194371 -0.0228799 0.138767 -0.0744274 -0.0869858 0.00297912 0.0346873 0.00297176 -0.0390887 0.0534038 -0.0444026
Q21 0.0886337 -0.0543007 0.0653215 -0.0325039 -0.0891528 -0.0948436 -0.00572726 0.021661 -0.0902727 -0.057068 0.151059 0.159841 0.0969003 0.188879 0.0144754 -0.105835 0.0562915 -0.0189964 -0.0432797 -0.0271356 0.0202557 -0.0699361 -0.138292 0.0554442 0.0665 -0.0131267 -0.079574 -0.0311782 0.202004 -0.0273102 -0.0828102 0.0184546 -0.0095184 -0.0511377 0.0447648 0.116228 -0.0483435 -0.0495323 0.0120343 0.0685166 -0.0756394 -0.0562229 0.0454448 0.0259153 -0.0672338 -0.011717 -0.0650039 -0.0513712 -0.0118935 -0.0194278 -0.132817 -0.0556672 -0.0294681 -0.0432959 -0.124099 -0.130196 0.0313963 0.0177894 -0.0844883 -0.0600751 -0.029809 -0.141956 -0.0600942 0.0387822 -0.000769795 0.219627 0.043359 0.0404271 0.0887804 0.0121069 0.0640672 -0.0921345 -0.023944 0.0298336 0.0869107 -0.0124131 0.0678629 0.00839194 -0.0152984 -0.228711 0.17305 -0.00052124 -0.0115809 -0.0754597 -0.0450623 -0.0554793 0.0738603 0.271168 0.0858668 -0.0843779 0.0437458 0.0526823 0.331707 -0.118201 -0.050391 0.0759769 -0.0863138 0.0122321 -0.00832744 0.0013317
Q22 -0.0340772 0.0862519 -0.0225093 0.0789894 0.0104769 0.0795532 0.00594169 -0.043205 -0.0585869 0.0427297 -0.0429605 -0.0656427 -0.104686 0.0952597 -0.0791446 0.0373951 0.0156041 0.0459784 0.160706 0.125757 -0.0565078 0.0712768 0.0100636 -0.0409299 0.0829782 -0.00240497 -0.0233467 0.0352938 0.0224999 -0.0448695 0.0455032 -0.086074 -0.040452 -0.0264928 0.102861 -0.0283353 0.00594952 -0.00699787 -0.0134468 -0.00223628 0.0408425 -0.0305967 0.103974 0.0803239 -0.11148 0.116935 0.055081 -0.0469359 0.0454151 0.0190424 -0.112839 0.00632128 0.0444731 -0.0380557 0.00211897 0.0147275 0.0663666 0.0525186 -0.0182073 0.0307465 -0.0204517 0.0377404 0.107319 -0.0766722 -0.059438 -0.188086 0.170223 0.0489355 -0.092787 -0.00155907 0.031326 0.0107606 0.0679854 0.0130191 -0.0364169 -0.0382181 -0.0300036 0.0363846 -0.00589751 0.0835184 0.00551882 0.0414502 -0.0660991 0.00750727 -0.0215476 0.0408393 -0.0917773 -0.0120668 0.0927902 -0.0476045 -0.0427683 -0.0362826 0.129469 -0.0643162 -0.00257468 0.0111359 -0.0515345 0.0381705 0.106483 -0.00265355
Q23 0.080135 0.119776 -0.0410773 -0.0953355 0.0113616 0.003541 -0.0338773 -0.0491174 -0.0514829 -0.0287789 0.0993586 0.0627391 -0.0800705 -0.0109446 -0.0466755 -0.0103723 -0.207995 0.00599204 -0.0485705 -0.0230424 0.107049 -0.0856578 -0.0582204 0.00142382 -0.0406292 -0.0337479 0.0110164 0.00809934 0.0890568 -0.0194374 -0.137393 0.0475938 -0.0590531 -0.0176831 0.0240706 -0.132661 -0.0894208 0.0831583 -0.0226083 -0.0736147 0.0263083 -0.0887147 -0.053026 -0.0824382 0.135005 0.0460551 -0.0518182 -0.0345754 -0.0581384 -0.048025 0.0525184 -0.0576101 0.071377 0.142034 -0.0791135 -0.00635928 0.0574778 0.0745678 0.0988545 -0.0553827 -0.00327416 0.0126023 0.118032 0.119184 -0.0210461 0.0176575 -0.00389984 0.00774906 0.123603 -0.0332626 0.0693909 0.162368 0.072815 -0.143793 0.00467494 -0.197308 0.0850642 -0.0397427 -0.0906504 0.0805809 -0.0402652 -0.112233 -0.0457146 -0.0849704 0.00567818 -0.120784 0.0474633 -0.0496115 -0.0314956 -0.153104 -0.0317289 0.0847303 0.00694498 0.0476274 -0.0466345 0.034332 0.143164 -0.0357904 0.0348093 0.0180714
Q24 -0.0435182 -0.0743552 -0.0444398 -0.0365192 -0.0306359 0.0410725 -0.0245635 0.0116306 -0.0665325 0.138299 -0.0207622 0.206671 -0.024786 0.026491 0.0298908 -0.0119757 -0.0665644 0.179011 -0.015843 -0.159656 -0.0861005 0.187386 -0.212237 -0.00183834 -0.0563155 -0.0601733 0.00935383 -0.0323215 -0.019859 -0.0147556 -0.233554 0.0386876 -0.142198 0.0349367 -0.126711 0.035103 0.0968951 -0.0396514 -0.0414075 -0.0634883 -0.0802039 0.049554 0.0409337 -0.0347508 -0.092269 -0.0137839 -0.079418 0.0684869 0.0190377 0.020909 0.025103 -0.0786098 -0.0517686 -0.0214368 -0.0150798 -0.0125228 -0.0822024 -0.0288985 0.049998 -0.126427 -0.00167697 -0.0584446 0.0768108 0.103217 0.0832998 0.0925071 -0.204003 -0.0846397 0.0332048 -0.0325458 0.0441743 0.0356915 -0.0490521 0.0493092 -0.0259676 0.00741479 0.0670512 0.106145 -0.0233895 -0.0457861 -0.166835 -0.00557736 -0.0731381 -0.0775811 -0.0909606 -0.103045 -0.122752 -0.0158418 -0.129155 -0.0639006 -0.0111896 0.055284 0.158837 -0.139211 0.00590922 0.0246151 0.119474 -0.0258831 -0.0302269 -0.0434991
Q25 -0.0029862 0.104325 0.0391302 0.0792804 0.0260249 0.0620445 -0.034064 0.012791 -0.015135 -0.0470639 -0.0677233 -0.123882 0.0196514 0.0422538 0.0211843 0.0764694 -0.0174309 0.0042126 0.141184 0.057121 0.00250879 0.0360893 0.0753086 -0.156967 0.0515242 0.0161608 -0.0348867 -0.0257761 0.00297504 0.0185047 0.0517994 -0.0893056 0.0931424 0.00892057 0.026012 0.0408242 0.0095348 0.070265 -0.0131764 0.0163443 0.0718325 -0.000926112 0.0702027 -0.0857907 -0.046059 0.0810556 0.0183508 0.0150172 0.0852723 -0.0634874 -0.122702 0.00637726 -0.0659159 0.0517874 -0.0501289 -0.0588881 -0.00168427 0.0181567 0.109078 -0.000879486 -0.144012 0.0414303 0.018811 -0.0559565 -0.0566133 -0.0960971 0.0560177 -7.63688e-05 -0.0926678 -0.00375574 -0.13096 -0.00126037 0.0314701 0.073364 0.0261584 0.0195793 -0.0364046 0.0698676 0.108303 0.0561853 -0.0777091 0.00174712 0.0145238 -0.0370493 0.0774192 0.00419083 -0.118038 0.0801235 0.0176226 -0.0664019 -0.0579129 0.0439941 -0.0484259 -0.0654607 -0.0562679 0.0471725 -0.0301475 0.0775555 -0.00963418 -0.027356
Q26 0.000713929 0.0897968 0.00477412 -0.0156374 0.0727953 0.0822427 0.0362127 0.007505 0.0180217 -0.0557091 -0.0742697 0.00794721 -0.0538041 -0.0806825 -0.0771768 0.0114116 -0.0113946 -0.0209273 0.0374434 0.0724086 0.0223066 0.126019 0.0183264 0.00418117 0.0576328 -0.00827199 -0.0749852 0.0520884 0.0478511 -0.0217823 -0.012639 -0.0254545 -0.0233336 0.0324595 -0.0894084 -0.021163 0.113845 0.0885608 -0.0175005 0.0598998 0.0709396 0.0438241 0.0833259 -0.0013259 0.0224489 -0.0976328 -0.154184 -0.063956 -0.0243714 0.0179782 0.0110325 0.0064346 -0.109718 -0.105566 0.0381152 -0.12006 -0.070005 0.0355285 0.00149778 0.0556829 0.0656101 0.0310251 0.0183886 -0.0449795 0.13214 -0.0489111 -0.132185 -0.0159632 0.00220217 -0.00116035 -0.0343048 0.0551097 -0.0869284 -0.0129755 0.111767 -0.083452 -0.0602706 0.00791129 0.0223742 0.0580012 0.0755416 0.078271 -0.00898554 -0.0316497 -0.0781729 -0.0883272 0.0260676 -0.00585641 -0.070667 -0.152336 0.101846 -0.0193162 -0.0529784 0.00413231 -0.0584746 -0.00866646 0.166164 -0.0107088 -0.00871111 0.0261492
Q27 0.0491218 0.0119804 -0.185502 -0.00499057 0.000384245 -0.021873 -0.0275162 -0.104105 0.0436816 -0.0989244 0.104268 0.15835 0.0520696 -0.0130062 -0.0612617 0.00599158 -0.170595 0.169197 -0.133769 -0.0300713 -0.0468949 -0.044109 -0.215304 -0.0912127 0.197497 0.0497452 -0.0604834 0.00461344 -0.0572904 -0.0383987 -0.0535231 0.195276 -0.0133681 -0.100397 -0.041625 0.10532 0.1381 0.118605 -0.0273697 -0.0453155 -0.123559 -0.0413437 0.0958782 -0.0187525 0.0482166 0.0571053 0.0988728 -0.0751144 -0.149233 0.161607 0.0427686 0.0154184 -0.000911767 -0.00121192 -0.106699 -0.0925298 -0.0285125 0.00585728 0.0291444 -0.0564359 0.0583776 -0.118213 -0.174016 0.0355699 -0.00792286 0.0731936 -0.0580445 -0.00306848 0.0584991 0.125675 0.0324206 0.115208 -0.14185 -0.128247 -0.00603589 -0.0814814 0.104623 -0.072096 -0.0203514 -0.18758 0.0418379 0.204681 0.0921553 0.120935 -0.000493882 -0.0333931 -0.0562615 -0.0353166 -0.100551 0.0483054 0.123934 0.0238417 0.038495 0.0508209 0.0397846 -0.00234212 0.08652 -0.00822777 -0.0446087 0.15469
Q28 -0.00441513 0.0236965 0.0191254 0.0714744 0.0142104 -0.0383091 0.0318756 -0.0331231 -0.00209257 -0.029629 0.0638518 0.168951 -0.147914 -0.0460007 -0.0144941 0.0390632 -0.123701 0.106658 -0.0724317 -0.110483 -0.102468 -0.120916 -0.0175287 0.03798 -0.0663201 -0.0414373 0.0436167 0.045252 -0.0724147 0.0362353 -0.0258815 0.0203879 0.0177072 0.104129 -0.0104803 0.0425792 0.0650778 0.1215 0.0735915 -0.112049 -0.0441648 -0.124085 0.0611605 -0.067477 0.0951753 0.0749971 -0.0339955 -0.0318218 -0.139902 0.0524614 -0.119645 0.0428904 0.0233741 -0.0585892 -0.0501429 -0.216087 -0.0105328 -0.0769324 0.0371197 -0.035731 -0.0241017 -0.0165152 -0.00149004 -0.00116114 -0.00454992 0.0139658 -0.0309328 0.093278 0.00116031 -0.00669384 0.100985 0.130645 -0.24086 -0.0244094 0.00879634 0.0371987 -0.00978004 -0.133056 -0.126085 -0.113194 0.0463251 -0.0058505 0.0631852 -0.0595903 -0.0558903 0.021448 0.0842775 -0.0139546 -0.132614 0.0119774 0.137058 0.0697243 0.00603081 -0.0129892 -0.0455694 -0.0263213 0.145784 -0.0240027 -0.054295 0.101041
Q29 -0.0274393 0.107269 -0.0536122 -0.094179 -0.0136666 -0.0398969 0.0598106 0.0692332 0.211003 -0.0583465 -0.0466775 0.0833782 -0.151295 -0.074303 -0.0239806 0.057159 -0.061553 -0.116917 0.0473451 -0.0738102 0.0511034 0.0968582 -0.0475978 -0.100655 -0.127993 0.147533 -0.0348318 0.100008 -0.121811 0.0436824 -0.0799652 0.014094 -0.03707 -0.00175011 -0.0309556 0.0984119 -0.00544106 0.0351021 0.0403477 -0.00314288 -0.0285815 0.0916749 0.0306442 0.144571 0.104936 -0.000731503 0.0500732 -0.0509723 -0.0696159 -0.057672 -0.0609384 0.064837 0.023128 0.00551877 0.0172501 0.207174 0.0744207 0.0551307 -0.0486802 0.0278468 0.0387787 -0.0275954 -0.0330843 0.00365193 -0.117357 -0.064646 -0.0957025 -0.0637425 0.148555 -0.0553492 0.0209463 0.0207002 0.0142333 0.116575 -0.0253684 0.0321517 -0.100487 0.0323171 0.0778846 -0.0726806 0.0584074 0.00286355 -0.0641428 0.0931971 0.0921484 0.0628532 -0.0107684 0.0515894 0.0991463 0.163713 -0.121484 0.06697 0.0383922 0.00895594 0.0981393 0.00544504 -0.0440592 0.0675195 -0.0475177 -0.13368
Q188 0.0876377 -0.08816 -0.0937091 0.0661023 -0.0208587 -0.0725287 0.137687 -0.0629432 0.0382288 0.0602582 0.110217 0.017053 0.0134701 -0.0920423 0.0428364 0.125244 -0.00589264 -0.00724375 0.047378 -0.161156 -0.0563071 0.0358462 -0.235281 -0.003136 -0.0759722 -0.0104238 0.0461763 0.0634097 -0.128489 -0.107287 -0.0794969 -0.0484247 -0.0179679 0.00630789 0.00840754 0.0514908 -0.0196699 -0.0405518 0.0801319 -0.100533 -0.0671653 0.088473 -0.0748287 0.1504 -0.0110752 -0.00930971 -0.0661701 0.14552 0.0862344 0.0674027 -0.0195926 -0.102941 0.0305185 0.0507617 -0.118026 -0.075564 -0.145874 -0.0696708 -0.0413198 0.0402062 0.0229463 -0.0374373 -0.129034 0.191544 0.0559763 -0.019416 -0.121028 0.0572468 0.114575 0.0127263 -0.0381014 -0.00895529 -0.0663497 -0.0904026 -0.0533715 -0.113846 -0.0548492 0.0368909 -0.0708673 0.112171 -0.0225949 0.142889 0.0354082 -0.0497693 0.0639938 0.112373 0.0906753 0.0951113 -0.028686 -0.0305473 0.0373266 -0.0357946 0.0667472 -0.012482 -0.0232883 -0.1143 0.0146015 -0.0396024 -0.107659 -0.113652
Q189 0.0555702 0.00814661 -0.0432327 -0.0506463 -0.0237223 0.0349978 -0.041328 0.0195479 0.0515004 -0.0420501 -0.11638 -0.000655225 -0.0244461 -0.0813063 0.0818812 -0.0106272 -0.111608 0.00614495 0.0111313 0.0393271 -0.0883709 0.0109028 -0.0448506 -0.0267719 -0.0593015 0.0532044 0.00649047 -0.0458151 -0.0795396 0.0305955 -0.00446622 -0.00180721 0.0762741 -0.0750404 0.0381403 -0.0288852 -0.0806535 -0.110511 -0.0448104 0.0573989 -0.0647194 0.0747507 -0.0104816 -0.00507843 -0.0179015 -0.0359454 0.0348516 0.0031271 0.00479899 0.0139597 -0.0283996 0.0236477 0.0289525 -0.0195893 0.114842 0.0575814 -0.0202924 0.0722809 -0.130049 -0.0796639 -0.0004737 -0.0165373 -0.0359222 -0.061084 -0.0880066 -0.0500943 -0.00639679 0.026413 -0.00912213 0.0309353 0.127452 -0.0118586 -0.0084974 0.117011 -0.1482 -0.0302105 0.074098 0.102335 0.0701132 -0.149736 -0.000408815 -0.0515204 -0.0598863 0.127554 0.0621031 -0.00733794 0.0959862 0.0120987 0.176127 -0.067073 -0.11721 0.00246738 -0.0623379 0.105604 -0.0940614 -0.035338 0.0368307 0.00660637 0.0256985 -0.00156831
Q186 -0.106794 0.0182106 -0.0531762 0.0431839 0.0426878 0.0295401 0.00319343 -0.00237208 -0.00450119 -0.037049 -0.0234247 -0.0069016 -0.0225865 0.0356124 -0.10172 0.11598 0.126161 -0.0293977 -0.0743389 -0.0524894 -0.0457478 0.0512604 0.118502 -0.034677 0.102554 -0.00994457 0.0102517 -0.0187222 0.00271006 -0.0475441 0.0886623 0.129336 0.00334743 -0.000340543 0.00974082 -0.0702321 0.0300144 -0.0382723 -0.0302101 -0.0531084 0.0343025 -0.166801 -0.078592 -0.13369 -0.139077 0.0833637 -0.059353 -0.0230786 0.0510918 0.0482028 -0.0801417 0.027586 0.146628 0.152737 0.0681696 -0.0928203 -0.0796011 0.0850689 -0.0577381 -0.0288131 0.0310623 0.0645024 -0.00517666 -0.0447815 -0.0177544 -0.0193839 -0.0234481 -0.128302 0.0233778 -0.117993 -0.123124 0.0320226 0.00988077 -0.0167732 0.0365246 0.0737783 -0.0993666 0.0724002 0.0731185 0.0335751 -0.00350131 0.0318699 -0.0580147 0.0981846 0.0754661 -0.0429723 -0.0406056 0.0960652 0.0553751 -0.0683432 0.0538715 0.232824 -0.0596003 0.0352952 -0.104171 0.0553184 0.124695 -0.035664 -0.120118 -0.0977286
Q187 0.112492 -0.0158426 -0.0408123 -0.0228171 0.0934396 -0.174691 0.164843 0.0442369 0.0516074 0.0040612 0.18298 0.100539 0.111869 0.0467633 -0.0161378 0.0679728 -0.024174 -0.00576496 -0.0889095 -0.15268 0.0270891 0.0644465 -0.0525964 -0.151967 -0.0304445 -0.0659271 -0.0248627 0.0186124 -0.0079134 -0.0826905 0.092378 -0.0274774 0.00496885 -0.160129 -0.0579086 0.020177 0.000159645 0.15906 0.00819088 0.00104031 -0.110712 0.149553 0.00331253 0.00113574 0.0139984 -0.0157436 0.0894963 0.0180751 0.00673066 0.0558238 0.0360269 0.0263856 -0.0594058 0.0359323 -0.0233803 -0.0889457 -0.0768849 -0.102471 -0.126641 0.11097 0.00550785 -0.0420922 -0.180062 -0.0151613 0.0543897 0.109831 -0.0607037 0.152347 0.0777585 0.0447342 0.041054 -0.0279037 -0.0320481 -0.0271188 -0.193258 -0.0719751 0.0359367 -0.0762378 -0.0412717 0.0752175 -0.0255187 0.0142268 0.0747707 -0.000937257 0.0460835 0.0338407 0.0333057 -0.0181119 0.030164 -0.02457 0.0110978 -0.12815 0.0433693 0.0818684 -0.0200701 0.0318074 0.0824543 -0.0662739 0.0166881 0.104169
Q184 0.0320552 0.0207096 0.123525 -0.0551686 0.0886271 -0.0527322 0.112258 0.0995359 -0.0926021 -0.064326 0.145886 0.130215 0.00226538 0.0485327 -0.0526347 0.0590666 0.0632279 -0.152858 -0.0797564 0.0211167 0.103484 -0.0698087 0.0140414 0.0208049 -0.0747069 -0.0930382 -0.117891 0.027278 0.0427668 -0.136597 0.0102894 0.0631841 -0.0426279 -0.0331121 0.000486716 0.0699253 -0.127794 -0.158983 -0.00239604 0.0227093 0.0158291 -0.0635824 -0.0700091 -0.059658 -0.0375707 -0.0117667 -0.00498182 0.0499546 -0.149093 -0.0632298 -0.081028 -0.0656 0.057048 0.00587438 -0.119954 0.0581663 0.014585 0.0356095 -0.0826185 0.0312542 -0.0601702 -0.0277121 -0.0130682 0.0828985 0.105094 0.0225166 0.00456261 -0.0462228 0.125426 0.0497689 0.0703645 -0.110986 0.0533939 0.135883 0.0772989 0.0039109 -0.113512 -0.0125978 0.142446 -0.0101542 0.12336 -0.022159 -0.107339 -0.00935121 -0.0537993 0.00847082 0.107282 0.0636644 -0.0334776 -0.146142 -0.128215 0.0130097 0.130822 0.011225 0.0136789 0.0972607 -0.0606028 -0.0136248 -0.0929699 -0.0160914
Q185 0.151164 0.0387407 0.0247203 -0.021011 -0.0191668 -0.232836 0.0998369 -0.117435 -0.0413382 -0.0877089 0.0666824 0.103025 0.143719 0.117049 -0.103462 -0.062353 -0.0647093 0.00209326 -0.0194251 0.0119898 -0.00229914 0.0180452 0.0388612 0.0212834 0.131098 0.0555607 0.0194355 -0.0411463 -0.0188514 -0.118136 -0.0597407 -0.0117606 0.025674 0.00941313 -0.0672404 -0.0293776 -0.0539461 0.141521 -0.0314895 0.100337 -0.00328321 -0.00229568 0.0575137 -0.0234324 0.0334054 -0.0306415 0.0643091 0.122323 -0.19523 -0.0634176 -0.0111344 0.0245928 0.090614 -0.036513 0.0102561 -0.129328 -0.15916 -0.203439 0.0450117 0.0913175 -0.0808964 0.00804096 -0.114839 -0.00280767 -0.0256696 0.247654 -0.138488 -0.0015531 0.0221822 0.0283729 -0.0724224 0.0552021 -0.0140527 -0.0509476 -0.0437732 -0.0525511 0.0043328 -0.0698936 -0.0705257 -0.153231 -0.0104379 -0.127509 -0.0459528 -0.112329 0.0913866 0.0260459 0.0269285 0.0666004 0.00827168 0.0348291 0.0261669 -0.102021 -0.0876228 -0.0318703 -0.00724944 0.0350519 -0.0148425 -0.0859941 -0.0716266 -0.022505
Q182 -0.126341 0.0239771 0.0873876 -0.0478391 -0.0855247 -0.0864051 0.039851 -0.163272 -0.0378163 -0.148825 0.118995 0.100662 -0.0445589 -0.013406 -0.0496836 0.0935762 0.0356878 -0.0958458 0.00933835 0.044666 0.054097 -0.00967472 0.121457 0.0813907 0.0434584 -0.020567 -0.0442729 -0.0482209 0.0757777 0.0724861 -0.0510419 0.0724334 -0.019717 0.0128736 0.0335483 0.0265485 -0.000745531 -0.0306072 0.0603264 0.00534185 0.00675434 0.0565057 -0.0103283 -0.0816985 0.0967738 -0.0194336 -0.0531321 -0.0612887 0.0374504 0.0253905 -0.189228 -0.0782646 -0.00539002 0.0564049 -0.0194907 0.0684245 0.125048 0.0823351 -0.0480911 0.00169318 0.001679 0.0513518 0.0375131 -0.101454 0.0360048 0.0778089 -0.0584639 0.0804641 0.118949 -0.0907576 0.00874386 -0.0708759 0.00313799 -0.114665 0.0058419 0.00984439 -0.0223233 -0.00380425 0.0109411 -0.059179 0.0908802 -0.0875314 0.0601574 0.168601 -0.0382457 0.0867627 -0.0123359 0.142298 0.0737318 -0.043114 -0.0367959 0.0539775 -0.0649851 -0.0631785 0.0059115 -0.0529015 0.0348178 0.157954 -0.0462166 -0.0850067
Q183 -0.0543542 0.0120548 -0.0268116 0.074307 -0.0391832 0.104255 -0.0170548 -0.0311906 0.0391399 0.0822324 -0.0862987 -0.156354 0.0600033 0.00870912 0.0149825 -0.0443228 -0.0431818 -0.0270586 0.0419937 0.150317 0.0428976 0.0058386 0.0169334 -0.0175616 0.0915693 -0.090216 -0.0502601 0.0271919 -0.0203017 0.0629394 0.0224067 -0.0240081 0.00605473 0.0248432 0.0117065 0.0558502 0.00120274 0.0213258 0.0369685 0.0365491 0.0485012 0.0779614 0.0233355 -0.0604515 0.019765 0.119907 -0.0119248 -0.0820308 0.0952076 0.0326488 -0.0629452 -0.0231668 -0.000194327 -0.0306988 0.0762513 -0.0968353 -0.0629006 0.063604 0.0556075 0.0602126 0.0340277 0.0698453 0.0372086 -0.0952042 -0.0647082 -0.106497 0.0715031 -0.0882136 -0.123708 -0.0373714 0.0636234 -0.0815694 0.0526951 -0.0787826 0.0273224 0.0237004 0.0330597 0.0616547 -0.05718 -0.0414096 -0.0211773 -0.0687036 -0.124235 0.0628557 -0.0498002 0.00876169 -0.01951 -0.0901605 0.0073432 -0.0237104 0.0820821 0.0210377 0.00042765 0.0105392 -0.033268 0.00354934 0.0297606 -0.0455741 0.0728623 -0.0296554
Q180 0.0762333 -0.0817427 -0.00118722 -0.0212977 0.204764 -0.0157547 -0.0393133 -0.0369479 0.123441 -0.0491144 0.0205093 0.160423 0.108917 0.0463094 -0.0659407 -0.0180754 0.0161216 -0.0988294 0.0123193 -0.0356171 -0.0269714 -0.152991 0.0265478 0.167708 -0.0607935 0.0793302 -0.128345 -0.0356958 0.0587273 0.0309117 -0.0359548 0.0426819 -0.0343115 0.0988558 -0.0167288 0.0515359 0.0582764 -0.0536988 0.0396158 0.041055 0.0470588 0.00980801 -0.0901715 0.0589815 0.0305925 -0.0176854 0.0720711 -0.0970301 -0.175161 -0.0394995 0.0507868 0.0279384 0.201929 -0.0558016 -0.134346 0.0106464 -0.020843 -0.106255 -0.0800807 -0.0510382 0.00784084 -0.0537094 -0.0602397 -0.0673588 0.0828007 0.304918 -0.100674 0.0822523 -0.0363932 -0.000964497 -0.000250677 -0.0590756 -0.00458816 -0.0287193 -0.0484551 -0.053417 0.0324074 0.202662 0.0153201 0.000596466 -0.143984 0.0159994 -0.00863983 -0.0484431 -0.0221406 -0.134369 -0.0716437 -0.0466343 0.123953 -0.0176946 0.0648899 -0.0540646 -0.0182191 -0.00525595 0.0826284 0.0697149 0.0830191 -0.216566 -0.0773932 -0.00346904
Q181 0.0258893 -0.0423255 -0.0937613 0.0996465 0.0991829 0.116533 -0.0540903 -0.0564831 0.0465867 0.164054 -0.135994 -0.0995315 -0.124056 0.033085 -0.0120081 0.00303811 0.0219874 0.0672237 0.0667856 0.012118 -0.09316 0.0619464 0.0504211 -0.0194984 -0.023868 0.00133007 0.010826 -0.110365 0.022736 0.0517461 0.129497 -0.0551151 0.0230183 -0.0691102 0.104152 -0.0774816 -0.0131046 -0.0275957 -0.048768 -0.00456923 0.0184029 0.00998336 -0.038565 0.0154649 -0.0823086 -0.0741731 0.0232707 -0.0478437 0.00142737 0.16177 -0.0431219 0.0536794 0.102236 -0.098133 -0.0589834 -0.109078 -0.00369315 0.0349646 0.0347693 0.0840549 -0.0175346 -0.0218679 -0.0244989 -0.0582785 -0.0815574 -0.0424719 0.0939212 -0.0990294 -0.005856 -0.0581636 0.0132235 -0.0572906 0.0274616 0.145668 0.0334655 0.0657398 -0.0776951 0.0319715 -0.0320663 0.029415 -0.0748785 0.0622281 0.00424343 -0.0145666 0.039319 0.0912884 -0.0324227 0.0306119 0.00080707 -0.0130299 -0.0913506 0.0104471 0.0250246 -0.0167286 -0.0292306 -0.0465144 -0.0990446 0.0416652 0.014788 0.0365604
Q106 0.0271503 0.00519914 0.130021 -0.0320701 -0.0369671 0.0837523 0.140263 -0.0151171 -0.024905 0.0876039 -0.097599 -0.123598 0.179376 -0.0283128 0.027572 0.00885056 0.0374137 0.0544713 -0.0114563 0.100302 -0.00394339 -0.0358417 0.0237506 -0.00974166 0.0572287 -0.0524603 -0.00721457 0.0251298 0.000520463 -0.048734 -0.0051684 0.00239787 -0.049843 0.00911268 -0.174919 -0.118996 0.063341 0.00294388 -0.048201 0.00223671 -0.0319481 -0.0677818 -0.0120926 -0.144703 0.00550222 0.0129837 -0.0268824 -0.0259493 0.138151 -0.135688 0.12526 0.086518 -0.0336084 0.14091 0.00908046 -0.069977 0.0317612 0.121511 0.101941 -0.147819 -0.0176542 0.00499909 0.0210337 0.0706857 -0.0154429 -0.0893735 -0.0635 -0.0078809 -0.0366961 0.0477913 0.0966093 -0.142083 0.0341263 0.111999 -0.0811246 0.0960497 -0.0280161 0.207556 0.0719316 0.0456393 0.0541599 -0.0128618 0.0116154 -0.0313314 -0.0334348 -0.0524014 0.0677609 -0.0607465 0.0361654 0.0995947 -0.0705063 0.0475603 -0.0570934 0.0522897 -0.0308653 -0.0366427 0.0202014 0.0690928 0.0559552 -0.0502157
Q107 0.0411493 -0.0183047 0.0454752 -0.164199 -0.042818 -0.028838 0.0110669 -0.0733478 -0.0100106 -0.128992 0.0468131 0.0112949 -0.119085 -0.0271523 0.0187699 0.0667716 -0.0576075 -0.00204439 0.00897638 0.0553656 -0.0117187 0.101296 0.0107786 -0.0349752 -0.114562 0.0209269 -0.0797923 -0.0250602 0.0111149 0.0364298 -0.158086 -0.0366211 0.0492649 -0.0196759 -0.0118195 0.0656536 -0.0109136 0.0560024 0.0986309 0.100734 -0.1114 -0.0430666 0.0329866 0.0265611 0.0751621 -0.118084 0.0360619 -0.0457977 -0.0631641 -0.0981306 -0.0836352 0.0336048 -0.18763 -0.10519 0.0817026 0.137633 -0.0220483 0.0136702 -0.0568648 -0.0407823 -0.0347885 -0.0300783 0.0386011 -0.0380924 0.00721304 0.0129344 0.0275643 0.054397 -0.0660967 0.102606 0.046625 8.0717e-05 0.0209173 0.00641762 0.0252734 0.00903 -0.0147387 -0.00512653 0.0185962 -0.0025382 -0.0374719 0.0738651 0.139643 0.137158 -0.0925328 -0.0960519 -0.0155795 0.157486 -0.0348789 -0.0147467 0.0707867 0.000421325 0.0549879 0.0234846 0.0950568 0.0251423 0.137653 0.0652154 0.0124658 -0.0885084
Q104 -0.0202037 0.163179 0.054438 -0.0375836 0.132419 0.055712 0.0228771 -0.0772384 -0.014891 0.0769399 0.126992 0.0938782 -0.0850452 0.00407994 -0.0389944 0.181142 0.0526059 -0.0674295 -0.0414494 -0.114242 -0.0765181 -0.0375403 -0.178031 0.244297 0.02111 0.0726017 -0.110969 -0.0572861 0.0968986 -0.0743263 -0.170271 0.215001 -0.0418913 -0.171705 -0.0517754 0.05453 0.0314012 0.0999423 -0.0448615 -0.0056371 0.0218238 -0.172439 -0.0176085 -0.00626151 -0.0112929 0.0253403 0.065837 0.102378 -0.0305389 -0.0523663 -0.0251038 0.0900271 0.063052 0.0515383 -0.0149137 -0.061402 -0.0663778 0.00961002 -0.0739228 0.0092332 0.129428 -0.0391354 -0.0312159 0.258905 0.131624 0.231115 -0.162917 -0.0257081 -0.0976543 0.00824808 -0.0264922 -0.112018 -0.0332181 -0.0681289 0.033964 -0.0740329 0.142529 -0.047699 0.0369268 0.0150418 -0.0783413 -0.101373 0.0137724 -0.13066 0.019854 0.00569369 0.150563 -0.0234833 0.00231861 0.160499 -0.0427378 -0.0220528 0.0477301 -0.133255 0.0698826 0.0241172 -0.0275006 -0.0550791 -0.272808 -0.105386
