1999 100
Q133_R79 0.00932921 0.0124284 -0.0516689 0.162102 -0.0735757 0.22947 0.00629 -0.0150429 0.0176075 0.113024 -0.133094 -0.165237 -0.105819 -0.0456247 0.016222 0.0364392 -0.063377 0.0649037 0.102505 0.0418313 -0.0112881 -0.0363408 0.0798053 -0.0655706 0.0150095 -0.0143946 -0.0177942 -0.0431916 0.0526903 -0.0117379 0.153182 -0.0748847 -0.08608 -0.0103112 0.0573652 -0.0564499 0.0238761 -0.010414 -0.0213934 0.121802 0.060867 -0.00293071 0.0321895 -0.0647183 -0.0307144 0.124479 0.0456897 -0.0818883 0.0452335 0.0410027 -0.0302804 0.00929697 0.0670046 -0.0978014 -0.0206295 -0.15333 -0.0284202 0.0478496 0.12512 0.0794597 -0.0845329 0.0594366 0.000868637 -0.0632315 -0.0302764 -0.0387756 -0.00996871 0.0572801 -0.161804 0.0286794 0.0796795 -0.00883667 0.0508523 0.0844548 0.0484742 -0.00754799 -0.0196702 0.10126 0.0466033 0.0580416 -0.0248711 0.0763766 -0.0130479 0.00270194 -0.0311357 0.0338547 -0.0742845 -0.127324 -0.0626651 -0.0553215 -0.0730033 0.047929 -0.0403512 -0.0849406 -0.00264245 0.0268406 -0.0566337 0.0345847 0.0324305 -0.0232124
Q188_R16 0.0434262 -0.00353393 -0.0569714 0.0286347 -0.0392461 -0.180668 0.0356862 -0.0347485 0.0864427 0.0370449 0.0275598 0.0224082 0.00256084 0.116538 0.0531204 0.0553813 0.00613109 -0.0708462 0.0158636 -0.0180197 -0.0379773 0.0842617 0.0225462 -0.120224 -0.0625405 0.0307596 0.00584722 0.0951699 -0.117871 -0.0810421 -0.0126452 -0.046744 -0.0208181 0.102588 0.0439185 0.044387 -0.0474 -0.0121427 -0.0365223 -0.0891106 -0.119315 0.0859819 0.03941 0.0645679 0.0120645 -0.0336062 0.105426 0.0590054 0.0892031 0.0453926 -0.109856 -0.0510938 -0.0505904 0.0570437 0.0341073 -0.0061314 -0.0459212 0.0042583 0.00699487 0.0610347 0.000450143 -0.00399858 -0.166661 -0.0334461 0.036323 -0.0271812 -0.0876036 -0.041013 0.0380808 -0.0611075 0.0261402 -0.0791373 -0.0510756 -0.0505767 -0.125997 0.00643831 -0.143824 0.118628 -0.0504881 0.06023 -0.0602684 0.0270279 0.0497957 -0.0953482 0.109894 0.0277766 0.0721851 0.0380357 -0.0325236 0.0249158 0.0352805 -0.0643479 -0.0158995 0.0439264 -0.0281693 -0.0874537 0.0115666 -0.016752 -0.110226 0.0279173
Q5_R4 0.171371 0.0649802 0.188733 -0.15647 -0.041989 -0.0597977 0.0940934 0.03247 0.148593 -0.0849894 0.0998233 0.077586 0.0157676 0.0747185 -0.0552368 0.0162291 -0.109739 -0.0577797 -0.152497 -0.113925 -0.0413964 0.0644469 -0.102786 -0.0128865 0.130479 -0.0595216 -0.0948802 -0.00236909 -0.0602114 -0.08175 0.00567305 0.0231332 -0.0324762 -0.0180384 0.0642736 0.0759794 0.0110279 0.120244 0.0470666 -0.103433 -0.0386193 0.0534121 -0.103101 0.080346 -0.0427908 -0.0554271 -0.0621805 0.159104 -0.102717 0.0241152 0.0563129 -0.0386715 0.103267 -0.0202646 -0.00258201 -0.0413051 -0.13622 -0.100749 -0.0386534 0.016035 -0.034361 -0.193982 -0.0801237 0.00203908 -0.000326816 0.104501 -0.0114011 0.0708493 0.0743198 -0.012212 -0.0530014 -0.00273475 -0.129252 -0.0675171 -0.0306622 -0.0352988 -0.0700908 0.0181746 -0.0303398 -0.0298451 0.0203579 0.0798601 0.0367325 -0.0155104 -0.0783844 -0.0277964 0.137493 0.0284558 0.0096884 0.0961767 0.0301491 -0.0423708 -0.0622754 -0.0142276 -0.0781941 -0.0142827 0.122574 0.0113111 -0.0304454 -0.0232209
Q188_R10 -0.0116673 0.0264392 -0.068608 -0.00291184 -0.124509 -0.0690711 0.0111899 0.0348333 0.058081 0.0275807 0.0202153 -0.0309675 -0.00735297 -0.0326985 -0.00297294 0.0522017 0.0463159 -0.140157 0.0874195 -0.0587248 0.115725 -0.101051 -0.0846967 0.00155334 -0.132792 -0.11207 0.0309706 0.145682 -0.0761501 -0.0375267 0.118454 -0.108914 -0.145105 0.0105387 0.0143009 0.0693987 -0.038942 -0.0109449 0.0732953 -0.168707 -0.0911973 0.00485964 -0.0322809 0.0678077 0.0772587 0.0271413 0.121715 0.0724437 0.142464 0.0252474 -0.0023473 -0.0506723 -0.0271339 0.0496839 -0.00581989 -0.0287346 -0.0490089 0.00443884 0.124668 -0.0482932 0.0763805 -0.131755 -0.110685 0.112421 0.0680099 0.0165908 -0.060225 0.00602524 0.0563808 0.0101435 -0.0509224 -0.0174583 -0.0314304 -0.0814032 0.0136659 -0.073264 -0.0374743 0.122132 -0.00339606 0.136084 -0.104065 0.0541819 0.0638503 -0.103736 0.0691314 0.08844 0.0749361 0.0978962 -0.0378593 0.0389312 0.08086 -0.0213509 0.00149694 -0.0734435 0.0128342 -0.1772 -0.0791688 -0.105418 -0.0589218 -0.0690104
Q51_R37 0.0281604 -0.0251572 0.0894463 -0.015961 0.184676 -0.0189527 0.0113638 0.0699121 0.052824 -0.0715444 -0.0377177 0.0733292 0.000799563 0.0422895 -0.00665942 0.0595046 -0.0953682 0.00211156 -0.0323307 0.0206184 0.0221012 0.0855957 0.048292 -0.000536809 0.00591447 0.105275 -0.000117748 0.00746905 0.0286427 -0.234464 0.115198 -0.0545823 -0.0250824 -0.0226317 -0.013555 -0.0230738 -0.0842323 -0.0389403 -0.0308267 0.0939844 0.0338652 0.0263641 0.0351916 -0.0470511 -0.0125749 -0.0633464 0.0035441 0.137797 0.00560332 -0.0494778 -0.062526 -0.0745166 -0.0658793 0.0250853 0.0763379 -0.0184244 -0.00510727 -0.0920126 -0.0317703 0.0227944 -0.0625074 0.0347603 -0.147684 -0.00177 0.00741759 0.0207678 0.0249937 -0.0560215 -0.110329 -0.0293999 -0.00537049 -0.033787 0.062836 0.00250117 -0.0759024 -0.122592 0.096872 0.0241007 0.0229894 -0.0218095 0.122115 0.085458 0.134236 -0.0590804 0.0755092 0.0791436 -0.0564228 -0.0472257 -0.0708936 -0.0675449 0.00287813 -0.0756625 -0.130518 0.0637032 0.0256822 -0.00930038 -0.11712 -0.0997648 -0.0138523 -0.0374503
Q49_R15 0.060858 0.046417 0.0992587 0.0226394 0.0259253 -0.077006 0.0822814 0.0781155 0.0626515 0.0216197 0.0665265 0.121074 0.0955049 -0.0255723 0.1343 -0.077989 -0.039012 0.0452369 -0.05925 -0.0190949 -0.0444322 -0.0218444 -0.156083 -0.105114 0.162293 0.00889179 -0.00759715 0.0713297 -0.0908673 -0.126728 -0.033162 0.142749 0.0776046 0.0320451 -0.0387814 0.00457554 0.15925 -0.0757671 -0.0473005 -0.0978089 0.0902419 0.0817213 0.0142415 -0.0317022 0.0547293 0.0577788 0.0738354 0.181538 -0.104373 0.0539428 -0.102876 -0.00630094 -0.0951779 -0.118188 0.0839138 0.0508796 -0.00993147 -0.0703323 0.155553 -0.00466385 0.000426803 -0.0825594 0.0266829 -0.0311501 0.0474087 0.0961355 0.0151862 0.0413258 0.0507688 0.112207 0.0348201 0.0930095 -0.0260644 -0.0729657 0.0165789 0.0116295 0.0192038 -0.047908 0.00111194 -0.0572336 0.0490488 -0.0216215 0.00694898 0.138717 -0.0462522 0.0629518 -0.0363776 -0.103794 -0.0566537 0.0847937 0.0186979 -0.120904 0.0163581 0.164361 -0.0313956 0.0161249 0.135833 -0.0356492 -0.0229207 0.0931957
Q25_R2 -0.0795549 0.021011 0.0104013 0.0398171 0.043492 0.078637 -0.0335147 -0.0752752 0.0157287 -0.0220793 -0.0633415 -0.1489 0.0312941 -0.0302393 -0.0717688 0.0183674 0.0199517 0.00394289 0.171151 0.0273292 -0.0363279 0.0297125 0.139043 -0.132548 0.0308942 0.0242039 -0.0604062 -0.0956018 -0.0222136 0.0445771 0.0980494 -0.0913138 0.0497338 0.0418851 0.0575171 -0.104197 -0.0198337 -0.0103798 -0.0584745 0.0233249 0.0594427 0.000118319 0.106949 -0.0667634 -0.0280815 0.0939711 0.0561909 -0.0742847 0.070004 -0.0249124 -0.13198 0.107994 -0.0836048 0.0670501 -0.0320005 -0.0850968 -0.000168936 0.099036 0.0817125 0.022662 -0.103648 0.000690168 -0.00966934 0.0240158 -0.0996932 -0.11059 0.100647 0.056076 -0.00816087 0.0628879 -0.0206847 -0.0484365 -0.0335953 0.0952476 -0.0204619 -0.046047 -0.09583 0.00876534 0.114344 -0.0408191 -0.020492 0.0432184 0.0427453 0.0310754 0.072676 0.0954685 -0.13014 0.115398 0.0389664 0.00893976 -0.0561257 0.0691552 -0.0133407 0.0532433 -0.0333108 -0.0674774 -0.000388242 0.0530092 -0.0748882 0.0291033
Q58_R64 0.0942576 0.0371037 0.0145403 0.0422786 -0.0475989 0.0462698 0.111209 0.0541737 -0.0784972 -0.0238211 -0.0419842 0.0146823 0.0536134 -0.00446212 0.0189637 0.00716034 0.0375365 0.0394339 -0.0598813 0.139778 0.00282215 0.049262 0.0978637 0.0970894 -0.0535222 0.0128062 0.0901359 0.0266035 0.0316856 -0.012229 -0.0142156 0.00378457 -0.0967648 -0.0192406 -0.0728964 -0.0785028 -0.0764992 0.0498292 0.0199321 -0.0193501 -0.149638 -0.0420725 0.0231792 -0.00551271 0.0252406 -0.0608963 -0.0648041 0.0246289 0.0232367 0.0264456 0.0150682 0.0132885 0.119132 -0.0359327 -0.0484508 0.0172901 0.045451 0.0929942 -0.0300504 -0.0166606 -0.0183397 0.0182881 0.0961598 0.0342072 0.0564588 -0.106144 -0.0562387 0.000604678 -0.0342723 0.152181 -0.042875 0.00160397 -0.0663244 0.0207134 -0.0344291 0.0882601 0.0372513 0.131438 -0.0189637 0.045293 0.0802998 -0.0909071 0.0947693 -0.0140527 -0.0900575 -0.0429775 0.0224979 -0.00469676 -0.0202881 0.0423597 -0.10506 -0.0875496 -0.133145 -0.018371 -0.0742224 -0.045909 0.0844025 -0.0363583 0.0635402 -0.00521019
Q122_R17 -0.108417 -0.041368 -0.00395011 -0.111507 -0.0818612 0.0426776 -0.043364 -0.0237439 0.0051639 0.000527374 -0.0152452 -0.0943782 -0.0659445 -0.00672142 0.0452012 0.00923394 0.0199838 -0.0557457 0.0191342 0.0360642 0.0555181 -0.0515809 0.0446698 0.035306 -0.117919 0.114173 -0.0458769 -0.118838 -0.0406975 0.133467 -0.0192096 -0.0215547 -0.0243376 0.0392527 0.0203176 0.0533485 -0.00187214 0.0270373 0.0140953 0.104782 0.0749328 0.0273937 -0.0400259 0.142898 0.0317072 -0.0669202 -0.00812363 -0.0403345 0.0914023 0.0150325 -0.0272825 0.0131693 -0.0945455 -0.0786699 0.0717939 0.0904127 -0.0944319 0.0791459 0.017078 -0.0411847 0.0549781 0.0621859 0.0672694 -0.103501 -0.109702 -0.129495 0.100921 -0.0459789 -0.136906 -0.0495953 0.0782671 -0.0538269 -0.019484 -0.0413321 -0.00196247 0.00237813 -0.0276968 0.103051 -0.043834 0.0599584 -0.0153194 0.0934861 0.0294007 0.134979 0.0207061 -0.0165014 0.122975 0.0052857 -0.0320022 0.0281515 0.0404542 -0.0141193 0.0617922 0.00578509 0.147391 0.0751024 -0.0786863 0.039264 0.136193 -0.0162441
Q68_R24 0.0308463 0.0693649 -0.0408585 -0.138314 0.141778 -0.116755 -0.164913 -0.265089 -0.0304634 -0.00818665 -0.0121485 0.186644 -0.00737124 -0.0643418 -0.0130988 0.0101307 0.0448811 -0.0739829 0.08544 -0.12047 0.0658479 0.0820167 -0.0290255 0.0690476 -0.0193493 0.0132046 0.00190118 0.0986719 -0.0137476 0.0261906 -0.000799031 -0.0541692 -0.0270902 0.0838269 0.102947 0.144899 -0.0203053 0.0275969 0.00156909 0.0375855 -0.0435901 -0.0427336 -0.02777 0.124016 0.176846 -0.0225429 -0.0608069 -0.0253732 -0.251317 -0.031034 -0.043152 -0.0301332 0.0100801 0.0167015 -0.0526023 0.00767428 -0.00392042 -0.00615441 -0.0961143 0.0275159 -0.032109 -0.0010669 -0.0211742 0.00628875 -0.00940506 0.121886 -0.0455062 -0.152193 0.192249 -0.0180475 0.0934133 0.0192404 -0.00552438 0.023625 -0.00708073 0.087499 0.016244 -0.0222654 0.131705 0.142829 -0.00893376 -0.108636 -0.0573153 0.0592409 0.03825 0.155511 0.00743976 -0.00235267 -0.0197526 0.0614553 -0.0052198 0.0390708 -0.0141851 -0.0618447 -0.0413127 -0.0136963 -0.0749484 0.0361074 -0.0364545 0.0249373
Q99_R52 -0.0366061 -0.0267301 0.0606341 -0.0502718 -0.0188683 0.00478314 0.0354168 0.0405909 0.0240401 0.0280557 -0.0220571 -0.11814 -0.0957901 0.139898 0.0699357 -0.153737 0.143078 -0.0228212 -0.0468145 0.0945526 0.109251 0.039999 0.138376 -0.0876311 0.0651086 0.131454 0.0105684 0.0609027 0.0514115 0.106337 0.00278175 -0.0745664 0.0895722 0.0534141 0.0762378 0.115537 0.0238434 -0.0663615 0.0854288 0.0884437 0.126804 0.125223 0.0149609 0.0561598 -0.094999 0.0569921 -0.107075 -0.0585481 0.00657281 -0.111435 -0.0605816 0.00358588 -0.128671 0.00583239 0.108953 0.130029 0.0196915 -0.0722795 0.140466 0.0269669 0.131796 0.0110766 0.0157464 -0.0495189 -0.0220189 -0.0719577 0.0541783 0.0383522 -0.149402 -0.00689002 -0.00734266 -0.057497 -0.0653297 -0.0425688 0.0367337 -0.0265126 -0.00879101 -0.00984013 0.0347322 0.139039 -0.0281483 0.0131571 -0.11636 -0.0176215 -0.0072078 0.0627212 0.13555 0.0522901 0.08649 -0.0108281 0.118162 -0.122401 0.0718167 -0.0745297 0.0729142 -0.0776931 -0.0868283 0.114417 0.0428881 0.0807785
Q68_R22 0.166118 -0.0209104 -0.0196235 -0.0788532 -0.0349567 -0.192404 -0.0686837 0.0209166 0.0419446 -0.0572831 0.0214424 0.0460765 -0.0362292 -0.0848362 0.0116108 0.0567711 0.0538182 -0.0627724 -0.0265784 0.0281392 -0.0457944 -0.0286616 0.0211268 -0.0799461 -0.0980393 -0.0608522 -0.0788459 0.0583111 -0.0887219 0.0400122 -0.192302 0.0042447 -0.099044 0.108376 0.0559257 0.0381369 -0.00933661 -0.0192506 -0.0657316 -0.0694023 -0.0660123 0.00362259 -0.0313309 0.0340352 0.0842899 0.0295273 0.0231779 -0.00212867 -0.0609342 -0.0130655 0.0252851 -0.0111415 0.0838137 -0.00272246 0.00329377 0.0363895 0.110264 0.091635 0.0178387 -0.091298 -0.0755893 -0.0350364 -0.065731 -0.194991 -0.0321759 0.145172 -0.0404898 0.0146023 0.109599 -0.210151 0.0165514 0.0550986 0.0175964 -0.0448089 -0.0356171 0.0462589 -0.0472775 0.0330698 0.0275729 -0.00781544 -0.0241981 0.0699127 -0.0557175 -0.0430019 0.0113268 0.0512163 0.0005197 -0.0405087 0.115625 0.150826 -0.0119553 0.0565345 0.11671 -0.196249 -0.0585081 -0.0233749 -0.199519 0.0604235 -0.10475 -0.0078036
Q68_R29 0.146731 0.0358193 0.0235676 -0.0255306 0.075881 -0.0927826 -0.0964575 -0.0802489 2.11724e-05 -0.0611809 0.033771 0.0682069 0.0840958 0.112891 -0.0602119 0.06429 -0.0422569 -0.135348 0.0193433 -0.00389348 0.0896766 0.0395444 0.0441588 0.0435349 -0.0793917 -0.00657165 -0.0122843 0.0225846 -0.108793 -0.101837 -0.0233425 -0.036793 -0.112662 -0.0261874 -0.0251024 0.111151 -0.0410317 -0.0020337 -0.0372406 0.0362397 0.0306981 0.0479557 -0.0354719 0.0350035 0.0340897 0.0149119 -0.0490412 0.126155 -0.0987708 -0.0749783 -0.0414642 -0.0153757 -0.0551439 0.00822126 0.0186976 0.115584 0.0204708 0.0590377 -0.100043 0.114049 -0.0631503 -0.0856895 -0.0558095 0.00225736 0.0254344 0.0858955 -0.0891059 -0.0830673 0.142164 0.0173713 0.0411036 0.0269024 0.0561137 0.026425 -0.103551 0.0825433 0.0678556 0.0217334 0.00357686 0.0952451 -0.0511061 0.00328085 0.0178356 -0.0353425 0.0864387 0.0109972 0.0303437 0.0435049 0.0120399 -0.0817613 -0.00865512 0.0210124 -0.0633282 0.0245836 -0.0237325 0.0213648 -0.0414529 -0.0229916 -0.0637905 0.0437285
Q95_R21 -0.0260368 -0.0483601 -0.0394262 -0.0171416 0.0312972 0.0284646 -0.0572974 0.0408294 -0.124298 -0.0262859 -0.0962272 -0.151221 0.0201462 0.0674851 0.109869 -0.00941339 0.0215581 0.0055719 0.18952 0.0306858 -0.0360119 0.112257 0.0754333 0.017176 -0.0364114 0.139734 -0.0766232 -0.0698923 0.0787699 0.0726097 0.0661443 -0.0603509 0.0435433 -0.0396135 0.0969715 0.024549 -0.0431664 -0.00423313 0.0204535 0.00414819 -0.07597 0.00779193 -0.100082 -0.00635276 -0.102353 0.0268284 0.0745635 0.0113815 0.049387 0.0640882 -0.053094 -0.0187388 0.0184144 -0.0726054 0.0595595 -0.0257048 0.00453465 0.188999 0.0938986 0.0678959 -0.10141 -0.00775463 0.0123526 -0.0447915 0.0148375 -0.00382158 0.0549963 -0.00245051 -0.0751201 -0.0721001 -0.0133844 -0.0597348 -0.0120847 0.0220631 -0.0144943 -0.00820393 0.0104971 -0.0164893 -0.0206926 0.0743518 0.0647763 0.0441713 -0.0519803 -0.00617147 -0.0156691 0.0296904 0.0723676 0.0354946 0.0173618 -0.0063516 -0.0295874 -0.102332 -0.00787298 0.0468675 0.0149209 0.0360261 -0.0790234 0.0574271 0.117979 0.0268118
Q34_R85 0.050084 0.0597725 -0.0325208 0.036407 -0.0295326 0.0346234 -0.0367617 -0.0553814 0.101498 0.0260655 -0.134356 0.0272697 0.00897559 0.0197457 0.00172365 0.0381265 -0.0634146 0.0624842 0.0232946 0.0133219 -0.0681664 -0.0306226 0.0692797 -0.143322 -0.0943879 -0.0351328 -0.0493629 0.0132021 -0.0427678 0.0685106 -0.00241623 -0.0275748 -0.00130044 0.0581884 -0.0246141 -0.0329274 -0.0591682 -0.0245998 -0.0481317 -0.0639917 0.0355535 -0.0417805 -0.0958622 -0.032856 -0.0595786 -0.0326025 0.0224879 0.0320747 0.0240101 0.0108349 -0.0738307 0.0672286 -0.0217533 0.0339922 0.0185485 -0.0344146 0.117179 -0.0277743 0.0939781 0.0203259 -0.113733 -0.0797867 0.0353516 -0.0841817 0.0457205 -0.150418 -0.0042573 0.0185223 0.0152281 -0.0410195 -0.0080506 -0.0218966 0.0509367 0.0312646 -0.0311635 -0.0102043 0.0443254 0.0997732 0.00955075 -0.0305522 0.0209281 0.00600048 -0.00949048 0.0786468 0.183526 0.0706567 0.0636557 -0.0170728 0.0381892 0.0315818 -0.10244 -0.0962382 -0.0566659 -0.0444948 -0.0287517 0.00277313 -0.0107127 0.101143 0.0574411 -0.0559803
Q33_R27 0.106737 0.0396939 0.00697723 -0.0735832 0.110908 0.00195211 0.0565082 0.0465285 0.0164646 -0.168326 -0.047238 0.106338 0.0486897 0.0738044 -0.0558045 0.0854026 0.00276793 -0.0259288 -0.0989169 0.0208225 0.0372946 0.00134715 0.0795168 0.0911828 -0.0853005 0.0284857 0.00598749 -0.0444258 -0.00648888 -0.0865451 0.124703 0.0326984 -0.101565 0.0320356 -0.107292 -0.00534974 -0.141595 -0.017207 -0.0207858 -0.0324351 -0.0963998 -0.154029 0.113532 0.00450811 0.0167547 0.0246562 -0.00912597 0.220171 -0.091276 -0.0177592 0.0410565 0.063326 0.0406742 -0.0140782 -0.00294911 0.0443772 0.0782387 0.0257921 -0.0560336 0.0245061 0.0190593 0.0297745 0.0186452 -0.0394438 0.0330422 -0.00721429 -0.0577096 -0.0417439 0.0166791 0.0932958 -0.00128203 -0.0104947 -0.0732818 0.0376564 -0.030759 0.104048 0.0917315 0.161463 -0.0585901 0.0262741 0.142987 -0.0245136 -0.016095 0.0288915 -0.0240235 -0.0232609 0.0525568 -0.0515074 0.112563 0.0582601 -0.106581 -0.0949074 -0.124139 0.021284 -0.0628555 -0.0384018 -0.0241768 -0.0197424 -0.0168452 0.0713537
Q33_R26 -0.0726882 -0.051613 -0.106062 0.00776219 0.12223 0.00461289 -0.0207952 -0.0285795 -0.0664003 -0.0470306 0.00480108 0.0279603 -0.11431 0.0884707 -0.122316 -0.0656689 0.142471 0.0182691 0.00647217 0.0143224 0.0787097 -0.0142565 0.0158356 0.10034 -0.0186345 0.0196338 0.0105298 -0.0811238 -0.00759321 0.0129654 0.102976 -0.130909 0.0026727 -0.0986305 -0.0419929 0.0478097 0.0810755 -0.0569225 -0.0995828 -0.0999749 -0.0670941 -0.129187 -0.0263502 -0.0818655 -0.0670603 0.00830982 -0.00800615 0.206066 -0.048121 0.117566 0.0707341 0.0658033 -0.0860377 -0.0625336 0.0202314 0.154082 -0.0432949 -0.0340232 0.0439705 0.0498153 0.127665 0.120617 -0.0439049 -0.0388512 -0.0196026 0.0667072 -0.00135777 0.00692708 0.0183604 0.0960126 0.0649779 -0.0725772 0.0296461 -0.0151658 0.0905539 0.110351 0.0830154 0.0700802 -0.185887 0.0992041 -0.0465014 0.0392771 0.0459737 0.0893225 0.00242613 -0.113313 0.0056606 -0.0109707 0.185738 0.00244161 -0.124186 0.0398495 -0.0318502 0.00731272 -0.109252 -0.00309092 -0.172781 0.0137023 0.0204162 0.113611
Q83_R34 -0.0272462 0.0761737 0.0133178 0.0608454 0.113341 0.0210539 -0.0173199 -0.0375195 0.0276527 -0.0102915 0.00782698 0.0315763 0.112371 0.0566639 -0.0208764 0.0672582 0.0222741 0.0682001 0.0244468 -0.0765431 0.149014 0.0499402 0.0302114 -0.0524322 -0.0493562 -0.00133678 -0.111702 0.085284 -0.0553307 -0.178346 0.00523229 0.0206919 -0.0374862 -0.0166528 0.00912181 0.0145434 0.0297784 0.0574017 -0.121447 -0.0114081 0.071458 0.0268426 0.0640148 0.0203539 0.0304757 -0.0961269 -0.011766 0.0838265 0.0929382 0.0183393 0.0489058 -0.00688142 -0.112553 0.0580096 0.0494966 -0.019469 -0.0411003 -0.155428 -0.00723747 -0.0129136 -0.034485 -0.0557046 -0.20249 -0.0428191 0.0526399 0.0324943 -0.00736076 0.0108313 -0.150843 -0.028251 0.0166591 0.0410018 0.0106864 0.112861 -0.0560632 -0.118225 0.0572571 0.0471892 0.0130442 -0.0562208 -0.0252826 0.00236715 0.0628044 -0.0156751 0.102319 0.104025 -0.0428245 0.0291048 -0.109091 -0.146598 0.0454287 -0.0482727 -0.0817725 0.0108016 -0.0199933 0.0450551 -0.144673 0.110067 0.0828204 -0.0644802
Q83_R31 -0.0549481 0.110297 -0.0467514 -0.0243099 0.0503951 -0.117374 0.0468037 -0.011129 0.136544 -0.0547478 -0.0686153 0.0476003 0.0402436 -0.0032818 -0.00760278 -0.00231651 -0.149836 -0.0240515 -0.012971 -0.00197425 0.0990896 -0.0313176 0.116473 -0.0612257 -0.0841859 -0.0151134 0.00937418 -0.00537581 -0.0464708 0.0264994 0.01007 -0.087727 -0.0119617 0.101547 0.129058 0.126649 -0.0202014 0.141344 -0.118624 -0.0342844 -0.0686357 0.000261572 0.0360008 0.0117273 0.0426729 -0.121535 -0.0541906 0.131347 0.042576 0.0294484 -0.0424455 0.0401176 0.130952 0.0787064 -0.0779332 0.0167316 -0.00483386 -0.204646 0.062098 -0.0164709 -0.117258 -0.0858608 -0.0218008 0.0680085 0.0224469 0.0156591 0.0671088 0.0506993 -0.0968581 -0.0107725 -0.0626528 0.0893961 0.00292653 0.0838681 -0.0748307 0.00906269 0.0278032 -0.00767152 0.0774264 0.00304226 -0.05208 -0.0938214 0.0674229 0.0219902 0.111627 0.0671227 -0.0235836 0.0539379 -0.0890185 0.0179161 -0.0118544 0.0600909 -0.0640028 0.110996 0.0329385 -0.0410797 -0.116775 0.0946198 0.0228973 -0.0471684
Q5_R9 0.0671891 0.119432 0.0960441 -0.114398 0.118906 -0.0639503 -0.0193496 -0.0211243 0.0980704 0.0905861 0.0803628 0.00950025 -0.0650247 0.0184691 -0.0108851 0.102252 -0.0895261 -0.119908 -0.0742096 -0.074852 0.078278 -0.0310971 -0.0266968 -0.0424615 -0.0124812 -0.0286855 -0.0945757 -0.0110405 -0.0979266 -0.0787461 -0.0817685 0.149668 -0.0684501 -0.00531762 0.0143483 0.0200216 -0.0382667 0.0200309 -0.00419259 -0.0694104 0.0630015 -0.0477954 -0.139577 0.0290323 0.176273 -0.069392 0.0811981 0.0474247 -0.084156 -0.0473869 -0.0168885 -0.0137362 -0.0221633 0.0118779 -0.0878501 0.101814 -0.00297613 -0.0771985 -0.110863 0.0402229 -0.0966827 -0.103053 -0.10185 0.0112067 0.0559473 0.117949 -0.180956 -0.0683149 0.0896579 0.0336833 0.0115237 0.061926 0.064323 -0.0369302 -0.0749118 0.0273895 -0.0137181 -0.0407953 -0.0161518 0.103657 -0.0449329 -0.0455487 -0.0108335 -0.0186771 0.0104037 0.0759334 0.0186567 0.0558606 -0.0419949 -0.00272353 0.0126236 0.0461448 -0.0152346 -0.0285779 -0.0829232 0.0194611 0.00689858 0.0484512 -0.0720606 0.042903
Q24_R78 0.061657 0.0030539 -0.0134059 0.00323349 0.0750511 0.0878179 -0.135043 -0.101277 -0.0790516 -0.0243934 -0.0106308 -0.00784336 0.0601869 -0.049812 -0.16743 0.00751914 0.0176222 0.110496 0.0128134 -0.182647 -0.159701 0.0252856 -0.097713 -0.10064 0.0524078 -0.0489843 0.0997396 -0.140721 0.0151109 0.076941 -0.0694317 0.19905 0.0547075 -0.0705811 -0.0513161 -0.0429226 0.102553 0.174525 -0.0255404 0.0916577 -0.0155147 -0.00807908 -0.0250124 -0.102777 0.0553173 0.088385 0.0262237 -0.0545792 0.263393 -0.00708963 0.0163699 -0.0525426 -0.0415326 0.049732 -0.106665 -0.0182521 0.138811 0.0478671 -0.0424037 -0.00205573 -0.000620439 -0.0798662 0.0681566 0.143247 -0.112434 0.0590128 0.0978923 -0.0238171 0.0555735 0.0239642 0.0825302 0.0626634 0.0840695 -0.00668175 -0.0767823 -0.00661511 0.0893829 0.0190463 -0.0345255 0.0456059 -0.0448525 0.0964033 0.0206863 0.0795806 0.058974 0.0363392 -0.0320716 0.0146921 -0.0832859 -0.0954522 -0.00335162 0.195476 -0.0101943 -0.0111381 0.00895499 0.0252816 -0.0464485 -0.117362 0.114683 -0.0122837
Q24_R70 0.0577875 0.0145209 0.0417518 0.0150365 -0.0567078 0.0526714 -0.0129359 0.019925 0.0446621 -0.024704 0.127703 0.0193208 0.00961008 -0.0817658 -0.00423371 0.0304401 -0.0712411 -0.0109045 0.0154842 -0.0256484 0.137983 0.0612329 -0.0552676 -0.089406 0.0415117 -0.0157101 0.0338942 0.00730395 -0.0412602 -0.0583109 0.041186 0.168693 0.0199266 -0.0155353 -0.138662 -0.0157934 0.161178 -0.148161 0.0539067 0.0378528 -0.033979 -0.00441951 -0.0091403 -0.0275656 0.0247057 0.00635361 0.0560437 0.00462535 -0.0406225 -0.0125935 -0.0261293 -0.0762721 -0.0431546 -0.101111 0.0515629 -0.0590764 0.00522073 -0.000460402 -0.0385273 -0.0379345 -0.0224199 0.076289 0.0555033 -0.0459539 0.0756475 0.0383754 0.0171038 0.0475974 -0.0871508 0.0807382 -0.0882593 0.0507956 -0.0320356 -0.0171583 0.00273959 -0.00748681 -0.0329114 -0.120923 -0.0621247 -0.123412 -0.0179616 0.0471298 0.10893 0.0751886 -0.0644584 -0.0722401 -0.0762749 -0.0173482 0.0313335 0.0929525 -0.0177819 -0.00842959 -0.0276723 0.154454 -0.0269686 0.00917659 0.156691 -0.0542005 -0.0259562 -0.108606
Q181_R11 -0.048599 -0.06372 -0.130812 0.0930438 -0.00144205 0.123643 -0.0596309 -0.0128067 0.0434316 0.130052 -0.204334 -0.143383 -0.0611291 0.0615652 0.0155396 -0.0607448 0.0333426 -0.00256421 0.096131 0.0252167 -0.0370135 0.0308639 0.0436846 -0.0828029 -0.00847201 0.0193245 0.0742746 -0.0738323 0.0143737 0.103917 0.124399 -0.0758058 0.01044 -0.046121 0.0819586 -0.0606017 0.030185 -0.0363742 -0.0630931 0.0325106 0.0471295 0.0283426 -0.0440152 0.0638379 -0.0515667 -0.0226819 -0.0720834 -0.0295307 0.0867189 0.137346 -0.108703 0.0200758 0.00308081 -0.0350195 0.0355974 -0.0389913 -0.0310673 0.0585721 -0.0322026 0.0782114 -0.0779804 0.014831 -0.0218391 -0.0375435 -0.0796921 -0.0746653 0.0709513 -0.0577491 -0.0591275 -0.0351067 0.056553 -0.0661509 0.0815731 0.0612086 0.0342483 0.000181307 -0.0374854 0.0409704 0.0145498 0.0829313 -0.00498537 -0.00736119 -0.0451008 -0.0118481 0.00459009 0.03207 -0.0505494 -0.0574232 0.0161511 -0.0666352 -0.0549922 0.0432354 0.0821153 -0.00530369 -0.000717775 0.108811 -0.0330602 -0.016048 0.0227305 -0.0585461
Q22_R24 -0.00527279 -0.00183352 0.0635956 0.0277006 0.0447405 0.110183 -0.0659285 0.119206 0.0450208 0.0143566 0.0806318 -0.0768524 0.0309293 -0.0243162 0.0645295 0.0174574 0.0927143 -0.0262399 0.0570221 0.0580829 -0.0500605 -0.0367695 0.0466111 -0.125826 -0.00174792 -0.134848 -0.110757 0.0698483 -0.0772069 -0.103107 0.112343 -0.0472064 0.0319156 0.0811176 0.0176321 -0.076632 -0.0543578 -0.100781 0.0325373 -0.0557843 0.105154 -0.0577122 0.0472358 -0.177628 0.0259263 0.00276608 0.103301 -0.127505 0.0775692 -0.101259 0.0307407 0.00129019 -0.0282709 -0.0176549 0.0839315 -0.0595739 -0.0593559 -0.0349133 0.149131 0.0144809 -0.00640552 0.0867857 -0.0488407 -0.0019076 0.0553455 -0.0924889 0.0138669 0.0276247 0.0593713 0.0535981 -0.0197525 -0.0867368 0.00593724 0.0378166 -0.1001 -0.00450871 -0.102564 -0.0543115 0.0551982 0.121867 -0.000368425 0.0199197 0.0197156 0.0314083 -0.00748117 0.0882487 -0.0494495 0.054465 -0.0689583 -0.00302805 -0.0290863 -0.0432988 -0.0782609 -0.00759067 -0.0493121 -0.0586419 -0.00517252 0.103942 -0.0336955 0.0874477
Q108_R14 -0.0343817 -0.119287 0.165383 -0.0239207 -0.0265452 -0.157343 0.048887 0.102549 0.0143842 -0.0130093 -0.00323735 0.000668366 0.0207772 0.00367613 0.0497287 -0.172111 -0.158698 0.0794192 -0.00486138 0.110652 0.0346505 -0.0305652 0.0217759 0.00729832 0.016698 -0.0508453 -0.0178001 0.0682754 0.0520731 -0.0329516 -0.0264608 -0.13 0.0212704 0.0147959 0.012579 -0.0839512 0.0415361 -0.174773 -0.0537751 -0.0207883 -0.0581243 0.0101085 -0.12145 -0.0229351 0.0199039 0.0830136 0.0673081 0.140472 0.00799916 0.0181033 -0.0185045 0.144847 0.0318832 -0.0209836 -0.0146293 -0.0186737 -0.0136127 0.0224888 0.0863803 -0.0246608 -0.087658 -0.0820958 0.0969531 -0.0519563 0.0107955 0.0437245 0.0443069 -0.0881559 0.0796146 0.0695774 0.0166693 0.0489345 -0.0147903 0.0332241 0.136247 -0.0904125 -0.052245 -0.11027 0.0309928 -0.0166454 0.0560074 -0.00247883 0.0197191 0.107985 -0.0498051 -0.0292836 -0.0620005 -0.0148635 -0.0798068 0.00853209 -0.0583195 -0.0982751 0.0466958 -0.0345384 0.0726802 -0.118018 0.0857782 -0.0577139 -0.0684899 -0.0936462
Q198_R27 0.126227 0.033527 -0.122466 0.106277 0.011139 -0.0822909 -0.031757 0.169037 0.179371 0.108817 -0.0249223 -0.0852822 0.173422 0.0515872 0.0897796 0.0657873 -0.0519976 -0.0347341 0.0135638 -0.0841361 0.00660439 -0.141037 -0.0452296 0.0547486 -0.0683521 0.00855454 0.148866 -0.0566296 0.113987 0.00704812 -0.174992 0.0284313 0.0303693 -0.072185 -0.0276956 0.0376237 0.0760069 -0.0494012 0.0914385 0.0520197 -0.0186353 0.0748768 -0.0504249 -0.00859568 -0.0447521 -0.00257018 0.0254095 0.0518082 -0.0840337 -0.0409217 0.0995833 -0.010571 0.0671905 0.0971067 -0.141343 0.0125847 -0.0569458 0.0602758 0.0499994 0.0979441 0.0932172 0.0878233 -0.0836885 -0.0540192 0.0187378 0.0752115 0.0171129 -0.077409 0.00199115 0.0545524 -0.0932207 0.0398666 0.198099 -0.0288381 -0.0852189 -0.0999404 -0.0850144 0.0182189 0.0631679 0.120511 -0.00048434 -0.10984 -0.00391814 0.0553758 0.131959 -0.0899392 -0.0603045 -0.018027 0.00181589 -0.038397 -0.08725 0.0947742 -0.0802103 -0.026919 0.0608795 0.0223561 0.0149762 -0.0795493 -0.0450825 -0.0159634
Q110_R20 -0.0563656 0.0644395 0.093702 0.0239284 -0.0300502 -0.0268858 0.157583 -0.0584845 -0.0629523 -0.0257175 0.0541645 0.0909849 0.101991 -0.0362721 -0.0118156 -0.124683 0.144093 -0.0188314 -0.0472569 -0.00225319 -0.0961227 0.0119653 0.0686724 0.0362237 -0.142982 0.020345 0.10378 0.0026616 0.00411113 0.0442887 -0.0330101 0.164233 0.0413343 0.0643078 -0.136265 0.00805165 -0.083003 0.0118355 0.0318969 -0.0185697 0.0136819 0.0582532 -0.00224686 -0.0795415 -0.0129027 -0.0903279 -0.143226 0.0239141 0.0425307 -0.0727093 0.134042 0.106765 0.083819 -0.00979314 -0.0285157 0.0692852 -0.0058182 0.180946 -0.0315915 0.0164888 0.000236262 -0.0472595 0.0501579 0.202602 -0.0875034 -0.0475113 -0.0112684 0.0880441 0.0361349 0.0707255 0.0627877 0.15479 0.0618293 0.142922 0.0404004 0.0498405 0.0610479 0.0927636 -0.12409 0.00259931 0.0813767 0.076015 -0.00716474 -0.00140065 -0.131603 -0.158668 0.110474 0.0121746 -0.11414 0.0698738 -0.0472125 0.113349 0.0531455 -0.0371371 -0.0829403 0.0428434 0.0187095 -0.0803566 0.122695 0.067946
Q110_R23 -0.0772338 0.0737268 0.127275 0.113888 -0.0872537 -0.0509353 0.110731 -0.0170261 -0.153255 -0.0149211 0.0152619 0.250378 -0.0549311 -0.0272637 -0.0942332 -0.0727994 0.22108 0.113052 -0.109405 -0.194285 -0.219129 -0.0627649 -0.0231244 0.0603865 -0.181811 0.0388948 0.104815 -0.0887198 0.00646992 -0.0260275 0.00127739 0.0998611 0.0618646 -0.0647794 -0.0897313 0.0994433 -0.0681989 0.0549209 -0.0521624 -0.0619589 0.0884409 0.0538 -0.0510124 -0.0196672 -0.0305541 0.00152274 -0.107858 -0.0709517 -0.006081 -0.158741 0.12688 0.0158819 -0.0117088 -0.0132122 -0.0143983 0.00105564 0.0613968 0.0728329 -0.106569 0.0750713 0.0885498 -0.0492225 -0.0274624 0.207443 -0.057804 -0.038999 0.0321876 0.0601047 -0.0154759 0.034762 0.012303 0.254646 0.0693424 0.0153067 0.061146 -0.0301644 0.0884103 -0.0784198 -0.0477702 0.0562687 -0.00889423 0.0997876 0.0103804 -0.0449713 0.0314497 -0.0208284 0.0346946 0.0917563 -0.232564 0.0687712 -0.0400149 0.141185 0.172909 -0.0302837 -0.0281124 -0.00435896 0.0199349 -0.120611 -0.102531 0.0665054
Q167_R58 0.0577875 0.0145209 0.0417518 0.0150365 -0.0567078 0.0526714 -0.0129359 0.019925 0.0446621 -0.024704 0.127703 0.0193208 0.00961008 -0.0817658 -0.00423371 0.0304401 -0.0712411 -0.0109045 0.0154842 -0.0256484 0.137983 0.0612329 -0.0552676 -0.089406 0.0415117 -0.0157101 0.0338942 0.00730395 -0.0412602 -0.0583109 0.041186 0.168693 0.0199266 -0.0155353 -0.138662 -0.0157934 0.161178 -0.148161 0.0539067 0.0378528 -0.033979 -0.00441951 -0.0091403 -0.0275656 0.0247057 0.00635361 0.0560437 0.00462535 -0.0406225 -0.0125935 -0.0261293 -0.0762721 -0.0431546 -0.101111 0.0515629 -0.0590764 0.00522073 -0.000460402 -0.0385273 -0.0379345 -0.0224199 0.076289 0.0555033 -0.0459539 0.0756475 0.0383754 0.0171038 0.0475974 -0.0871508 0.0807382 -0.0882593 0.0507956 -0.0320356 -0.0171583 0.00273959 -0.00748681 -0.0329114 -0.120923 -0.0621247 -0.123412 -0.0179616 0.0471298 0.10893 0.0751886 -0.0644584 -0.0722401 -0.0762749 -0.0173482 0.0313335 0.0929525 -0.0177819 -0.00842959 -0.0276723 0.154454 -0.0269686 0.00917659 0.156691 -0.0542005 -0.0259562 -0.108606
Q198_R22 0.18168 0.000441637 -0.10433 0.0905929 -0.0566796 -0.141671 0.00341173 0.0783227 0.129565 0.0517888 0.0347407 -0.0436895 0.12044 0.105055 0.166087 0.015228 -0.0190593 -0.0280207 -0.0553203 -0.11565 0.00491928 -0.204838 -0.0776089 0.0053452 -0.0664005 -0.0659377 0.129715 -0.122467 0.0212165 -0.173687 -0.207202 -0.129418 0.209554 0.0489472 -0.0547002 0.0446644 0.0770795 0.069306 0.037881 0.0543523 -0.0674345 0.107326 0.0106069 -0.0556587 -0.0172857 0.0230803 0.029142 -0.0428197 -0.0768922 -0.112833 0.115044 -0.0271115 0.0721931 0.0258523 -0.181884 0.00360597 -0.0614587 -0.0056563 0.0831683 0.105433 0.125334 0.091324 -0.0816555 -0.0639597 -0.0144843 0.023237 -0.0674998 -0.00463628 0.104306 -0.11144 -0.103636 0.0188908 -0.00623268 0.152918 -0.0514649 -0.0339676 0.0346288 0.00230242 0.053672 0.0861764 -0.00110987 -0.0559643 -0.108187 0.0210006 0.13626 -0.0551543 -0.0076611 0.0351707 -0.0220693 -0.101835 0.0499423 -0.0606989 -0.0574658 -0.138329 0.0477216 0.0727327 -0.0852513 -0.0516829 0.125631 0.0938193
Q95_R9 0.034868 0.0710052 0.104319 -0.0443045 -0.0147503 -0.0689576 0.124013 0.0635559 -0.0316158 -0.0996376 0.128855 0.0122422 0.0959337 -0.121381 0.0685063 0.112725 -0.0118895 0.0779564 -0.0845155 -0.0415479 0.0784693 -0.038101 0.102322 0.0371974 -0.0428457 0.0204144 -0.0941196 -0.00205493 -0.0564522 -0.0440259 -0.108583 0.110578 -0.0220886 -0.0432338 -0.00603045 0.0024244 -0.0181764 0.0363247 -0.0603097 -0.0277335 -0.0307061 -0.0557574 0.0462573 0.00347572 -0.0935908 -0.0301504 -0.00657061 0.0523242 -0.0551276 0.0408016 -0.045118 -0.110152 0.159743 0.0438845 0.0247129 0.141058 -0.0191901 0.116057 -0.121002 0.127169 0.0511679 0.0176588 0.0312813 -0.0180456 -0.00873837 -0.0569735 0.0493996 0.04276 0.0580468 -0.0030969 -0.0820417 -0.0178389 -0.0146057 -0.0729823 -0.0457424 -0.0255462 0.0288231 -0.078292 -0.0467165 0.120608 0.125458 -0.111954 0.0662954 -0.120173 -0.0472356 -0.0328405 0.0550835 -0.0770491 -0.0429953 0.0202164 -0.0108742 0.0276552 0.0687217 -0.0284549 0.0363741 -0.00554082 0.143118 -0.0528195 -0.0127303 -0.0387128
Q167_R53 -0.0822887 0.164753 -0.00913093 -0.0638979 0.000573178 -0.010396 -0.0543736 -0.00327505 -0.0908712 -0.0724515 -0.0719428 0.0197385 0.00312904 -0.131114 -0.170655 0.131 0.0297996 -0.0865421 -0.0590449 0.0252273 0.0707411 0.00528453 -0.010437 -0.0449283 -0.0528814 -0.0466133 -0.0229659 0.0188073 -0.0507672 0.0670396 -0.0693252 0.0548594 0.0787393 -0.0582 0.0255884 0.0525403 0.0113747 0.0614355 0.0546655 0.0034085 -0.0083038 0.0596044 -0.0395328 -0.0714369 0.0369035 -0.0645364 0.0496711 0.0864002 0.0181284 0.0368845 0.0140286 0.0148405 0.0752169 -0.00298047 -0.0191165 0.134977 0.027538 0.0131322 -0.119642 0.0297095 0.0326055 -0.124273 -0.0477104 -0.144126 -0.0297907 -0.0106024 0.0181723 -0.0334612 0.0685021 -0.0555903 -0.0202806 0.00787371 0.091234 -0.0103042 -0.109421 0.0461339 0.104062 0.00943495 -0.00359961 -0.10339 -0.0337232 -0.0409094 -0.0179641 -0.0233291 0.0492844 0.10528 -0.0412686 0.0155716 0.0595678 0.0596905 -0.0872958 0.0425768 0.0565538 0.131056 0.0238872 0.0207567 0.0338454 -0.106079 0.0122986 -0.0149629
Q167_R52 0.0934726 0.159126 0.125499 -0.0627718 -0.00967425 -0.131937 -0.0397585 0.139031 0.147732 -0.127392 0.0997455 0.146477 0.0836132 -0.05305 -0.0817598 0.0348372 -0.0180901 -0.0787609 -0.0553909 0.0275687 0.00410301 0.0359101 -0.0149492 -0.0559788 0.0472229 0.0111409 0.0618552 0.0272823 0.00149526 -0.0729651 -0.018092 0.0488636 0.0389585 -0.0563686 0.00671729 0.0468685 -0.0840992 0.0130824 0.0249179 -0.0382608 0.00184761 0.0523061 0.0361823 0.108472 0.0728894 0.0218203 0.0335419 0.0669089 0.0280166 0.00801836 0.0586667 0.0145738 -0.105773 0.0363849 0.0626655 0.0259665 -0.0189597 0.0303977 0.0112674 0.0799191 0.0266425 -0.0792059 -0.121447 -0.147958 -0.0367148 0.0778303 -0.0953596 0.0258557 -0.00257745 -0.12122 -0.00727686 -0.0311779 -0.0861055 -0.0720004 -0.0518234 0.0129598 0.00540882 -0.0843917 -0.048077 -0.0254297 -0.042305 -0.0485931 -0.0487093 0.0227271 0.0285927 0.049146 0.0814888 -0.0168167 -0.00217873 0.0681663 -0.0991195 0.0225202 -0.0571138 0.235353 -0.0766173 -0.0727976 0.139498 -0.0314203 -0.068935 0.0181856
Q49_R9 0.154337 0.152598 0.138223 -0.00560955 -0.0119286 -0.109553 0.125878 0.153252 -0.00994009 -0.0341467 0.113303 0.0995379 0.0449078 0.0481815 0.0593725 0.00827366 -0.122616 0.129854 -0.0830345 -0.0805079 0.00881988 -0.0100554 -0.102702 -0.0837241 0.169535 0.0486587 0.0531274 -0.00787255 -0.0319775 -0.128845 -0.0541493 0.0766417 0.060687 0.137717 -0.0261158 -0.0540574 0.125448 -0.0230749 -0.120114 -0.0136096 0.00084279 0.0830002 -0.0301669 -0.0267737 0.140527 -0.0519646 0.169535 0.107105 -0.173172 -0.0275629 -0.0119338 -0.0258583 -0.148737 -0.0657514 0.00419457 0.0365447 -0.064997 -0.0642393 0.111193 -0.0673637 -0.079827 -0.0659404 0.0208734 0.036393 0.033813 0.0725406 -0.00661453 0.0448661 -0.0579792 0.138211 0.0317195 0.0243337 -0.067698 -0.05545 0.101272 0.0431017 -0.00980835 0.018804 -0.00788129 -0.12789 0.0418313 -0.0358701 0.0020728 0.149239 -0.0435975 0.0149832 -0.0260842 -0.0421959 -0.039468 0.0753927 0.074106 -0.118776 0.0484635 0.1194 -0.0360592 0.00532819 0.0622128 -0.132579 -0.0327017 0.0703737
Q13_R30 -0.140982 0.000311868 0.00163737 0.019379 0.0437913 0.0810663 0.0378303 -0.0934265 -0.161112 0.0154556 0.0308177 -0.0959227 0.0661164 -0.00653164 0.0713739 0.0177336 0.0734995 -0.00815926 0.0597048 0.0863905 0.0125512 0.00485085 -0.0133668 0.102577 -0.00160646 -0.0355636 0.115252 -0.0877759 -0.144282 0.00760107 -0.0889443 0.0293515 0.0421154 -0.050248 -0.0562061 -0.0951437 0.00928631 -0.0697956 0.150099 -0.014191 -0.016101 -0.0618945 0.0190322 -0.0626923 0.0293738 0.0666092 -0.0468493 -0.0781262 -0.0467155 -0.148904 0.100435 0.0374257 -0.0670735 0.0426572 -0.0496204 -0.0112121 0.0842932 0.0558216 -0.0716166 0.004764 0.0528795 -0.119367 0.075485 -0.00788331 -0.21917 0.0239298 -0.0184516 0.0512224 -0.0610223 -0.00832268 -0.0232521 0.00673008 -0.096078 0.00262485 -0.0422145 -0.139281 0.188814 0.0209812 -0.0841562 0.02993 -0.0900596 -0.0505343 0.112787 -0.112899 0.061064 -0.0611437 0.0273375 0.0297819 -0.0464012 -0.0973781 -0.0413255 0.0629283 0.115974 0.0491399 0.0670631 -0.0259766 0.0325109 -0.137778 0.0300432 -0.09962
Q49_R6 0.0612141 0.064973 0.0911143 -0.0273353 -0.0281736 -0.0645669 0.0398973 0.0479404 -0.0582376 -0.0287953 0.0716789 0.0726864 -0.0487463 -0.0379907 0.0141384 0.00423603 -0.110951 0.146088 -0.0901432 -0.0762823 0.0220983 0.0233219 -0.0785146 -0.0221841 0.119395 0.0146211 -0.0244987 0.00757651 -0.0607162 -0.0594628 -0.135564 0.134138 0.0356155 0.129893 -0.0359109 -0.0288342 0.162483 -0.0434285 -0.124542 -0.000171879 0.0769701 0.103425 0.0313386 0.00120017 0.13303 -0.0357988 0.0280478 -0.0132355 -0.179535 -0.0472802 -0.0327708 -0.0180756 -0.126601 -0.176008 0.0258715 0.0070734 -0.0180746 -0.018788 0.140333 -0.0983876 -0.107833 0.0200098 0.0913344 0.0201 -0.00557536 0.0777786 -0.0434057 -0.0115523 -0.0474797 0.156277 0.0366731 0.0372816 0.00890046 -0.0121465 0.16773 0.0941498 0.0421014 0.0477393 0.00600458 -0.16383 -0.0518695 -0.0363499 -0.0343532 0.253868 -0.120653 -0.0381576 -0.0589792 -0.0329167 -0.00703812 0.0319729 0.03205 -0.0735822 0.0105796 0.0497372 -0.067523 0.0822079 0.153344 -0.0887668 -0.000192527 0.0285774
Q13_R32 -0.0219919 0.0125581 0.123299 0.0722688 0.0207234 0.072769 -0.0171351 -0.0318519 -0.0093958 -0.0316178 0.00584937 0.107609 0.0348663 -0.0628003 -0.119839 0.130952 -0.0987295 0.0286842 -0.0271191 -0.024492 0.0547366 -0.127596 0.0250379 -0.040657 0.00427177 -0.0884714 0.103833 -0.102592 -0.0127835 0.0189348 -0.123301 0.0592603 -0.0468791 0.0241058 -0.0663484 0.057637 -0.0773139 0.128594 0.0969058 -0.0557693 -0.03737 -0.060166 0.0880664 -0.0512898 -0.0834035 -0.0460479 -0.0526191 -0.0948038 -0.0796069 0.0302274 -0.0788029 -0.0400121 0.0585666 0.127511 -0.186131 -0.0135986 0.0695492 -0.0622055 -0.0777898 -0.0203341 -0.0104283 0.0566297 0.0248508 0.143648 -0.108642 -0.0152136 -0.0676685 0.0704051 -0.154883 -0.018214 0.0116807 0.109722 0.0116332 -0.101802 -0.0217743 -0.0822311 0.12504 -0.087395 0.0243369 0.0299355 0.0540146 -0.0345211 -0.0840889 -0.0564193 0.087856 -0.0246071 -0.0180702 -0.0895421 -0.197464 -0.0733608 -0.0544441 0.032801 -0.0429496 -0.00340751 0.0489573 -0.0861223 0.124727 -0.0176161 -0.0439465 0.0859758
Q13_R33 -0.00766857 -0.0117357 0.0942559 0.0618297 0.0378734 0.0875838 -0.0122284 0.0937308 0.0253207 0.0406709 -0.0455676 -0.0958859 0.150193 -0.0235485 0.0204051 0.0110157 0.116429 -0.0485456 0.0984652 0.1269 -0.0432054 -0.00524507 0.0359133 -0.116763 -0.00476726 -0.0645286 -0.0774563 0.0321985 -0.138191 -0.088351 0.125451 -0.079772 -0.00774205 0.0518578 -0.0190926 -0.116078 -0.045188 -0.104269 0.0143082 -0.049658 0.125089 0.0100335 0.0494348 -0.138536 0.018592 0.0644097 0.0885846 -0.0554981 0.120164 -0.0668844 -0.0143242 0.004938 -0.0208809 0.0768122 0.059179 -0.100926 -0.0415609 0.0336722 0.102185 0.0309414 -0.0254114 0.0185231 -0.067731 0.0495472 -0.00264036 -0.0872398 -0.0242903 0.0101014 -0.0202016 0.0243406 -0.00606618 -0.0696286 0.0503459 0.0216795 -0.0953501 -0.0259278 -0.0554089 0.067125 0.0715723 -0.00770741 0.00423194 -0.0802834 0.0278522 0.0379171 -0.0195798 0.059928 -0.0111073 0.0906805 -0.0164403 0.0118812 -0.0458135 0.0147864 -0.0231824 0.0072525 -0.0496657 -0.101484 -0.0364872 0.0608435 0.0739418 -0.00516986
Q49_R3 0.0603759 0.0488891 0.0915316 0.0247538 0.00817773 0.0048008 -0.0041208 0.0843248 -0.0971799 0.157818 -0.0144095 -0.0380676 0.0617114 0.0927952 0.0545126 0.11337 -0.0176054 0.082987 -0.0105827 -0.0321476 -0.0916032 -0.0316742 0.00908479 -0.0443269 0.0853835 0.0569444 0.0229656 0.0281153 -0.0778326 -0.122925 -0.0662452 0.0424741 0.029955 0.0414385 0.0605154 -0.115681 0.0890128 -0.0197047 -0.171825 0.00636482 0.059547 0.0831187 -0.0525288 -0.0291327 0.0728863 0.0151549 0.052069 0.019658 -0.0947392 -0.0129022 -0.0652902 0.0119539 -0.0991659 -0.0602824 0.0557548 -0.111068 -0.0192146 0.0721201 0.0322526 -0.0156435 -0.0745137 0.00127894 -0.0334243 -0.0436732 0.0320286 -0.000716768 -0.0157175 -0.00161134 0.0191614 0.0712772 -0.0227951 -0.00218187 -0.0409236 -0.0560911 -0.0337951 0.0548935 0.0404869 0.0628896 0.0106633 0.0176057 0.0608542 -0.0327692 -0.0403585 -0.00917978 0.00207343 0.0174215 -0.0710846 0.0425324 -0.118836 -0.0311033 -0.0168857 -0.164472 0.0533016 0.0743843 -0.0217899 0.103097 0.0214165 -0.0102348 0.070764 -0.0180459
Q162_R41 -0.0627094 0.0103153 -0.146543 0.065411 -0.059414 0.000988395 -0.144094 -0.0230914 -0.0206942 -0.0238832 -0.0216168 0.00767839 0.0482317 -0.120945 -0.0280189 0.033958 -0.0650517 0.0160581 -0.0156934 -0.0247437 -0.038462 -0.0567367 -0.041015 -0.0204092 0.0130844 0.0189942 0.0604646 -0.0572664 -0.0425602 0.0771075 -0.0779111 0.202007 0.0182453 -0.0231843 -0.0735214 -0.0398469 0.146619 0.0587877 0.14668 -0.0614992 -0.00923107 0.0614767 0.00743597 -0.142205 0.0110248 0.0242012 0.0439893 -0.0395691 0.035587 0.0543507 0.0881239 0.0865409 0.015613 -0.0241417 -0.0397826 -0.108883 0.100694 0.0486443 -0.0596781 -0.0116199 0.0758304 -0.0480375 -0.168303 0.0530401 -0.0824034 -0.0228397 -0.0829162 -0.00534331 0.0108684 -0.0668849 0.0153689 0.198919 -0.0956057 0.0466278 -0.0327856 -0.106647 0.041599 -0.149551 -0.0466664 -0.0295237 0.0275107 0.123074 0.0421392 0.060783 -0.0262474 -0.0847209 -0.0443607 -0.0283298 -0.0941381 -0.0127147 0.0351553 -0.0185335 0.010303 0.00922816 -0.100568 0.0410352 0.059417 -0.00531783 -0.0574608 0.000675501
Q165_R95 -0.0661245 0.000589041 -0.0645949 0.0258163 0.138474 -0.0557565 -0.0924445 -0.0564328 -0.0943132 0.0728685 -0.0398108 0.00531912 0.00979933 0.0555303 -0.0701114 -0.015204 0.0945914 -0.0191691 0.0514903 0.0269205 -0.0257815 -0.0692569 0.101776 0.0770101 -0.001506 -0.00012005 -0.0198382 -0.0662797 -0.0272637 0.0109164 0.0666536 -0.00410659 -0.0791353 -0.027567 -0.0496139 -0.0722923 0.0589142 0.00138028 -0.154051 -0.0989796 -0.0610247 0.0448425 0.0213333 -0.0199864 -0.00112354 -0.083551 -0.0162582 0.118768 0.0511794 0.138628 0.130035 0.0455346 0.0207953 -0.0100784 0.0036718 0.0198658 0.0384451 0.115928 -0.0546776 0.0481822 0.0520747 0.0145585 0.0264494 -0.0447063 0.020826 0.0402611 0.00725293 0.0428646 0.0108647 -0.0597869 0.0173674 -0.118575 -0.0826162 0.0693048 0.0317855 0.0719572 0.0483668 0.0773816 -0.0964307 0.0864953 0.021093 0.00373294 -0.00113924 -0.0524956 0.0508471 -0.0201049 -0.116448 0.0558783 0.181923 -0.0330103 -0.0358761 -0.0733242 -0.0210782 0.0298013 -0.00577033 -0.0631538 -0.156312 0.0538758 -0.0462664 0.00449748
Q198_R28 0.072843 -0.0986984 -0.0651401 0.0782363 0.0440829 -0.0744969 -0.0272191 -0.0596534 -0.0361204 -0.0349454 0.0469605 -0.00171273 0.14589 0.025383 0.153934 -0.049993 -0.130416 0.0402388 -0.0920758 -0.0395359 0.0383126 -0.0856229 -0.0536648 -0.0287679 -0.192168 -0.00989363 0.167832 -0.253394 0.0174181 0.0343835 -0.162304 -0.00675452 0.0681211 0.0952552 0.0563202 -0.0823089 0.0963187 -0.0179824 0.133597 0.12837 0.0383939 -0.0550044 0.106209 -0.109318 -0.0135524 -0.0807244 -0.0466236 0.123839 -0.0673794 -0.103561 0.0935861 -0.0104538 0.115702 0.153646 0.00658159 0.164837 -0.0450055 -0.107077 -0.0449729 -0.0143262 0.231921 0.082656 -0.0509956 0.0100256 0.00806761 0.118328 0.0988737 0.112225 -0.124334 -0.00785184 0.124932 -0.0146592 0.156748 -0.0827865 -0.0161783 -0.103025 -0.0265042 -0.012896 -0.103564 0.0929273 0.0547696 -0.0610028 0.0477493 0.127357 0.0648698 -0.0670195 -0.0478367 -0.121552 -0.0393177 -0.0973544 -0.126091 0.106019 0.121881 0.00632772 0.0499347 -0.112407 -0.114371 -0.0954112 -0.128175 -0.0760548
Q149_R19 -0.126128 -0.0891231 -0.0209735 -0.034532 -0.143206 -0.0917942 0.0698247 0.120082 -0.148172 0.100426 -0.00570402 0.0581871 0.0889924 0.0335483 -0.0542594 0.0100306 -0.0743815 -0.123063 -0.0852382 -0.0393442 0.00383702 -0.0812294 0.034291 -0.0532219 -0.0319169 -0.0797119 0.13338 -0.0669141 0.0159944 -0.167175 -0.0723511 0.0917423 0.0963054 -0.260155 0.0899759 0.136384 -0.0760914 -0.103117 -0.0357139 0.204681 0.00140558 0.0266759 0.128275 0.0829191 -0.0842282 -0.068106 0.0572668 -0.0942688 -0.0561721 -0.0606502 -0.0403126 0.0179531 0.0895336 0.161566 -0.149495 0.0313883 -0.00123437 -0.118781 0.0646028 -0.0927116 0.0432789 0.0231007 0.0848457 -0.0124328 -0.138516 0.113098 -0.143998 0.0831602 -0.0266982 -0.141926 0.0836727 -0.0645918 -0.0766828 -0.0716107 0.0728081 -0.023198 0.163226 -0.17219 0.0390651 0.0526027 0.0345869 0.227042 -0.117232 0.107168 0.0150979 -0.0785123 0.0780957 -0.0174919 -0.00270268 0.0296996 0.00591418 -0.0357777 0.0338993 -0.122189 -0.269348 -0.0486513 -0.0329486 -0.0597337 -0.0667716 0.179093
Q63_R13 0.0518192 -0.0289194 0.0333692 -0.0689004 0.0194437 0.0327988 0.0109788 0.0796787 -0.105522 0.101052 0.0264407 0.0608912 0.0170728 -0.0129091 -0.0099951 -0.0329332 -0.0453805 -0.0672851 0.0885772 0.0247493 -0.0167518 -0.0258986 -0.00197511 -0.0314593 -0.024986 -0.0223086 -0.0273308 0.100286 0.153175 -0.218938 -0.0654139 0.00739548 0.0225041 0.0123839 -0.0456145 -0.0746834 0.118112 -0.0410523 -0.00423799 -0.0359886 0.0800203 0.200911 -0.0208294 -0.0358517 0.133593 -0.0697691 0.0365692 -0.0572921 0.0289309 -0.0345225 -0.000558328 -0.13565 0.0394976 0.0849928 0.0251081 -0.0376389 -0.00509398 0.0291315 -0.100865 -0.0767581 -0.0209853 0.0425661 -0.0394012 -0.00730401 0.0956901 -0.0813684 0.0456597 0.0630391 -0.0276601 -0.030433 -0.0667012 0.0586322 0.18791 -0.0244706 -0.0432077 0.0533987 0.0519923 -0.0681659 0.0771085 0.0422457 -0.0425718 -0.165183 -0.0559129 -0.0701722 0.0117662 0.103616 -0.079582 -0.123214 -0.0618386 -0.122869 0.123871 -0.00608883 0.0613149 0.00976768 0.0197031 0.0397501 -0.101481 0.0398058 -0.0249821 0.0541735
Q63_R11 -0.139653 -0.0577375 0.0416972 0.0137636 -0.0128044 0.0220092 -0.0103429 -0.0293584 -0.0496434 -0.0277454 -0.0197705 -0.0352413 0.050347 -0.171326 0.0611184 -0.0286525 0.0228807 0.0501721 0.0379592 0.107621 -0.0455708 -0.031029 0.00631764 -0.00084266 0.115444 -0.00201371 0.0126688 0.0154354 0.0543108 0.0990599 0.121047 0.0942768 -0.0178144 0.055384 -0.0154622 0.0946182 0.078268 0.0432234 0.030341 0.0472562 -0.0413987 0.0192462 -0.0704998 -0.0864905 -0.0758677 -0.0875101 -0.0489031 0.0112517 0.0233274 0.0599835 0.0410548 0.0215019 0.0786178 -0.139333 0.025199 -0.01574 0.00415181 0.113015 0.0764729 0.0663304 -0.0135119 0.0296696 0.0904133 -0.0337697 0.00617389 -0.0279966 -0.000840021 0.0180407 0.0205318 0.0274206 -0.0151073 0.0172076 0.148388 0.106857 0.024012 0.0287154 0.0222177 -0.000851709 0.111519 -0.0140737 -0.0250933 0.0429458 0.0858296 0.0791492 0.0888133 -0.0241764 -0.0960155 -0.129723 -0.077679 0.0382061 0.0302971 -0.0841406 -0.0199178 -0.0529673 -0.122266 -0.0646925 0.160035 0.0122452 0.0499104 -0.0993987
Q5_R47 0.00196842 -0.0206833 0.159007 -0.133713 0.0221449 -0.0470711 0.0545111 0.150474 -0.0203531 -0.0669405 -0.00105137 -0.00388336 -0.0816965 -0.164405 -0.0307383 0.0868894 -0.0161683 -0.0351986 -0.0449762 0.0650008 0.0406444 0.0353689 0.0105905 -0.0986085 -0.0608119 -0.00292031 -0.0477708 0.10173 0.00116139 0.0227694 -0.018602 -0.0177477 0.0137887 -0.00757314 -0.00447468 -0.0299301 0.0133196 0.0775708 -0.0227293 0.0226651 -0.0383508 -0.0854877 0.0215535 0.00187292 0.00511191 -0.0199314 -0.0397673 -0.0196921 -0.0741811 0.0350154 -0.0374595 -0.0656036 0.125445 0.0516014 -0.0156416 -0.0116201 -0.0706077 -0.0215172 -0.0691774 0.0753464 -0.0583569 0.026817 0.153494 0.0163594 -0.0688651 -0.0236843 0.0214535 0.00837084 -0.00908932 -0.0607914 -0.0343771 -0.0487409 0.0168634 -0.118867 -0.0605737 -0.100796 -0.105909 -0.0803034 0.0701827 0.00927083 0.0309503 -0.0900984 -0.0162787 -0.100203 -0.0801371 0.00709738 0.0237604 -0.0217562 -0.0483418 -0.0833049 0.0886632 0.0351262 -0.0549509 0.0659786 0.0695372 0.141842 0.0126895 -0.066092 0.0643043 -0.0538206
Q5_R44 -0.116945 0.139558 -0.193207 0.0378072 0.0288546 0.0391882 -0.0363546 -0.0965839 -0.0425422 0.0160686 -0.0107711 0.0561285 -0.104817 -0.055873 0.0259363 0.0982494 0.0208052 0.0413462 -0.115526 0.00184588 -0.0922015 -0.102159 -0.103172 -0.0108758 0.0932765 -0.127933 0.0510274 0.00584356 -0.0481221 -0.0113504 -0.0165319 0.086672 -0.0222505 -0.027568 -0.0362244 0.0623002 0.15107 0.030993 0.0192458 -0.0187621 -0.0337227 -0.28717 -0.0143369 -0.105113 0.0313541 0.0712364 -0.0333075 -0.0926025 -0.030175 0.0547252 -0.0991692 0.0606353 0.099578 0.0217368 0.0438097 -0.146381 -0.0104076 -0.0648323 0.087925 -0.0207637 -0.00284535 0.0661878 -0.101059 0.197506 0.0364866 -0.0152027 0.0269355 -0.0239208 0.0823731 -0.00779744 0.0598489 0.113028 -0.0812444 -0.0931054 0.011392 0.0359493 -0.0772544 -0.0634446 -0.0408383 -0.104183 0.0743629 -0.0107344 -0.0429892 0.039549 -0.0562958 0.00758873 0.0761175 0.0314249 -0.017468 -0.17229 0.133331 0.158151 0.0870924 -0.0156973 -0.0347696 -0.0108784 0.170404 0.000318777 -0.00140021 0.123337
Q72_R71 0.0195998 0.0807834 0.0653266 -0.101732 0.0450356 0.014182 0.0177549 0.0547717 -0.00852248 0.0742222 0.0147424 0.0423126 -0.0874231 -0.0323066 -0.0597413 0.0229101 0.0286521 -0.157791 0.0371652 0.0601774 0.128282 0.00786157 0.0544117 -0.043927 -0.0766451 0.16398 -0.105698 0.0768861 0.109138 0.107186 0.00527042 -0.0207835 0.0538691 0.0192765 0.0570944 0.0111305 -0.107748 0.0529938 0.0994089 -0.0145489 -0.0889774 0.0712353 0.0249254 0.0652492 0.0364201 0.0626384 -0.0840746 -0.0206007 0.00836695 -0.0318054 -0.0740984 0.0255126 -0.0813477 -0.0982198 0.0843693 0.0939832 -0.0207455 -0.0140838 -0.0937653 0.021259 0.0318801 0.0490337 0.0228832 -0.108714 -0.0512235 0.0066584 0.0196942 -0.0169833 -0.00768447 -0.0623129 0.0338717 -0.00124511 -0.0572938 -0.0208868 -0.0113781 0.00220496 -0.0583195 -0.0409401 -0.0506104 -0.105332 0.038577 -0.0255947 -0.122991 0.0850756 -0.0647009 -0.0330452 0.0554023 0.0601827 0.0535787 0.00619624 -0.00963357 -0.0914593 -0.00749452 -0.00447335 0.0701943 0.00228303 -0.00132413 0.104754 0.0359133 0.0275156
Q73_R33 -0.0163488 0.0599416 0.00676047 -0.0521019 -0.112181 0.021119 -0.0242694 0.10335 0.0698872 -0.0683247 -0.218656 -0.0229722 -0.187377 -0.0998351 -0.00408485 -0.0899254 -0.0542507 0.038615 0.0646723 0.0434632 -0.0379299 0.0577894 -0.0975777 -0.0607868 -0.0908997 0.0762212 0.0589192 -0.00505821 -0.106584 0.0736273 -0.00527115 -0.0209502 -0.0142398 -0.112254 0.040491 0.0221235 0.0635284 -0.0214719 -0.0117612 0.0637795 -0.0810302 0.0612059 0.0185536 0.101568 0.0207046 -0.0207509 0.111084 -0.010842 -0.00797644 -0.0639841 -0.0232818 0.0953585 0.037193 -0.06748 0.0797122 0.0862585 0.103645 -0.0382516 -0.106381 -0.099541 0.0112231 -0.0223169 0.0422156 0.0899513 -0.0675835 -0.131616 -0.0950192 -0.0428158 0.0186093 0.068175 0.0423552 -0.103879 -0.0467327 0.12941 -0.0622791 0.0255776 -0.0673818 -0.0153845 -0.01049 -0.111412 0.0126514 -0.0326873 0.0245991 0.0180559 0.071522 0.0620661 0.0945808 0.0805435 0.0911373 0.0970056 -0.027938 -0.0282775 -0.0969503 0.0339265 0.0761374 -0.0193689 -0.0835653 0.175844 -0.00027726 -0.060379
Q127_R51 -0.092981 0.0307914 -0.0176403 0.05615 0.0381838 0.0959945 -0.0802054 -0.0472473 -0.0204229 0.0863178 -0.0758568 -0.183149 -0.0780395 -0.00488309 0.0926752 -0.0466402 0.0317809 0.00418426 0.13791 0.0285556 0.0431088 0.0254207 0.101693 -0.0355821 0.0082828 0.083517 -0.106204 -0.0153361 0.0146195 0.112939 0.0730191 -0.11679 -0.00458485 -0.0533098 0.137996 0.0404915 -0.0643811 -0.0253676 0.00197231 0.0413841 -0.004224 0.0739032 0.0251358 -0.025861 -0.047135 0.0820951 -0.0341491 -0.0260729 0.02828 0.0606857 -0.0446306 -0.0051463 -0.0558063 -0.0729427 0.0294453 0.00299524 -0.0660553 0.0940736 0.15838 0.0705656 -0.0605908 0.053117 0.0395327 -0.0772631 -0.0702409 -0.108282 0.0243592 0.0176001 -0.129615 -0.0382512 0.00506114 0.00448752 -0.0254637 0.0411303 -0.00826133 0.0557865 0.0259238 0.0144573 0.0398535 0.0391623 -0.024513 0.0939659 -0.10717 0.0676757 -0.028537 0.112756 0.0481991 0.0200613 0.0252343 -0.0642997 -0.0317488 -0.0381604 0.0304898 0.00394767 0.0756936 -0.00297305 -0.127317 0.119246 0.103585 0.0147501
Q5_R48 0.00677221 -0.0121667 -0.0791638 0.0841353 -0.14578 0.0219614 0.0332373 0.0403676 -0.00169088 -0.0625803 0.00239638 -0.017199 0.0814298 -0.0595881 0.0362469 0.109179 -0.177666 0.0263094 -0.0417044 -0.218726 -0.00545873 -0.0532602 -0.0705858 0.0912191 -0.101267 0.042665 -0.0545866 0.115054 -0.0190345 0.0442845 0.0649834 0.0106347 -0.113982 -0.0397619 0.0976321 0.0612184 -0.0598266 0.081883 -0.0961403 0.0121172 0.124933 0.0338647 -0.0881652 0.117555 0.0277432 -0.0262803 -0.0749684 0.137428 -0.0169158 0.0179073 -0.0299514 0.0131933 0.120457 0.0970361 0.0861013 -0.0137712 -0.00952077 -0.123445 0.0344192 0.0736891 -0.0149467 -0.118128 -0.0714419 0.103941 0.184259 -0.0194627 0.000190838 0.102805 -0.030061 0.0100914 -0.0820928 -0.0413137 0.0468044 -0.0136527 -0.00394467 -0.0743751 -0.117051 0.0756364 -0.0457212 0.169768 0.0232766 0.138118 0.130857 -0.0215911 0.05721 0.0843425 0.202344 -0.0168433 -0.035043 0.0042568 -0.153874 0.0162161 -0.0186337 0.129573 -0.0110559 -0.036573 0.00496764 -0.055367 -0.0610768 -0.0209078
Q193_R41 -0.0623419 0.0845373 0.0424868 0.093899 0.101989 -0.0362884 -0.0649916 -0.000274822 0.0630666 -0.0930832 -0.0415626 0.0389987 0.135303 0.0421368 -0.0264286 -0.0297472 -0.0744498 -0.0360202 -0.0333355 0.0140334 -0.0553224 0.0260435 0.0137047 0.0317664 -0.0144822 -0.0243568 0.0558415 -0.0956983 -0.10195 -0.0295082 -0.110727 0.0937544 -0.0616981 0.0321603 0.00989227 0.0773982 -0.0805433 0.0177892 -0.165742 -0.0424103 0.0473673 0.0863348 -0.0298619 0.00693745 0.11404 -0.0726299 0.0251373 0.0218804 0.0932521 0.0617953 0.0297531 0.0109338 0.0347844 0.18191 -0.0973928 -0.125089 0.0525021 -0.202327 -0.0570296 0.071822 -0.124926 0.00281345 -0.0169779 0.109179 -0.0174942 0.0521361 -0.0304311 0.0704227 -0.0424756 0.00723211 -0.0273466 0.147552 -0.140614 0.0059398 0.0477373 0.050691 0.00816943 0.131247 -0.0938926 -0.0663822 -0.0623415 -0.148335 0.0794522 -0.00489899 0.0790311 0.0781631 0.0239119 -0.0248609 0.0314055 -0.0324658 0.13822 0.0227749 -0.132068 -0.00143723 0.0111375 0.169707 -0.0495265 0.0339629 -0.0426502 0.136741
Q193_R43 0.00483631 0.04512 0.0367897 -0.00127199 0.156174 -0.095943 0.033984 0.0456246 0.11367 -0.116525 -0.0514718 0.0922592 0.0699989 0.0557861 -0.0156842 0.056375 -0.0908238 -0.0455483 -0.0393332 -0.0198795 0.0641141 0.0705677 0.0418081 0.0931916 -0.0631756 0.0656175 -0.00773099 -0.0507028 -0.0668264 -0.160343 0.038919 -0.0227558 0.0336208 0.0468991 0.0656827 -0.0332587 -0.0416329 0.0677579 -0.13501 -0.0265725 -0.0460095 0.0066461 0.0544408 0.0269849 0.0807524 -0.112688 0.00323642 0.13834 0.0109716 0.0079038 -0.0417101 0.0125898 -0.0231263 0.0720194 0.104279 -0.00950645 0.0257899 -0.154824 -0.0899504 0.0452013 -0.0336064 0.00619012 -0.130226 -0.00815942 0.0120233 0.0550863 -0.0254369 -0.0657803 -0.133119 -0.0313761 0.0087566 -0.0182667 -0.0944366 0.00714573 -0.117525 -0.102133 0.109061 0.00545052 -0.0223541 -0.0231461 0.0048242 0.0268238 0.0653039 -0.0524085 0.11636 0.109399 -0.0672954 0.0647012 -0.0280149 -0.0286121 0.0444015 -0.0615139 -0.069358 0.0726475 -0.0512442 -0.00189481 -0.122635 -0.0672751 0.0338817 0.0431947
Q193_R46 -0.0187843 0.0646522 0.044785 -0.00293451 0.158264 -0.175238 0.0396559 0.0565335 0.200882 -0.10737 -0.0113165 0.00117429 0.0307769 0.0266287 -0.0387685 -0.0983238 -0.101389 -0.0612389 -0.113314 0.00345333 0.0852675 0.00159655 0.0370533 0.0367569 -0.00435126 -0.0808656 0.00232099 -0.142243 0.0229555 -0.105506 -0.0147665 0.0363215 0.0120586 0.0321694 0.0585172 -0.0213082 0.00333899 0.038483 -0.139874 0.014294 0.0905202 0.0344652 0.040709 0.0182982 0.198112 -0.16415 -0.0694582 0.149674 0.00978858 0.123546 0.0897446 0.0714813 0.0457017 0.153666 -0.104818 -0.0158857 -0.00888571 -0.26027 0.140862 -0.0273508 -0.117959 -0.0389643 -0.0867699 0.146669 0.00286858 -0.0726145 0.0867648 0.133384 -0.127147 -0.0572281 0.0267327 0.123342 -0.0851719 0.0432181 0.0608298 0.0527504 0.0939355 -0.0799687 0.0952997 0.010794 -0.0984405 -0.172469 -0.0332287 0.0227057 0.146357 0.0906655 0.0281328 0.0260443 -0.0679517 0.0543014 0.104466 -0.0147026 0.0368352 0.0603291 0.0120621 -0.0482927 -0.103266 -0.0516145 -0.0332982 0.0442198
Q193_R49 -0.0272462 0.0761737 0.0133178 0.0608454 0.113341 0.0210539 -0.0173199 -0.0375195 0.0276527 -0.0102915 0.00782698 0.0315763 0.112371 0.0566639 -0.0208764 0.0672582 0.0222741 0.0682001 0.0244468 -0.0765431 0.149014 0.0499402 0.0302114 -0.0524322 -0.0493562 -0.00133678 -0.111702 0.085284 -0.0553307 -0.178346 0.00523229 0.0206919 -0.0374862 -0.0166528 0.00912181 0.0145434 0.0297784 0.0574017 -0.121447 -0.0114081 0.071458 0.0268426 0.0640148 0.0203539 0.0304757 -0.0961269 -0.011766 0.0838265 0.0929382 0.0183393 0.0489058 -0.00688142 -0.112553 0.0580096 0.0494966 -0.019469 -0.0411003 -0.155428 -0.00723747 -0.0129136 -0.034485 -0.0557046 -0.20249 -0.0428191 0.0526399 0.0324943 -0.00736076 0.0108313 -0.150843 -0.028251 0.0166591 0.0410018 0.0106864 0.112861 -0.0560632 -0.118225 0.0572571 0.0471892 0.0130442 -0.0562208 -0.0252826 0.00236715 0.0628044 -0.0156751 0.102319 0.104025 -0.0428245 0.0291048 -0.109091 -0.146598 0.0454287 -0.0482727 -0.0817725 0.0108016 -0.0199933 0.0450551 -0.144673 0.110067 0.0828204 -0.0644802
Q118_R43 -0.113052 0.200078 -0.0118991 0.0623533 -0.10935 0.0425752 -0.0855725 -0.0410218 -0.0380291 -0.0238232 -0.049193 -0.253285 -0.01479 -0.0645297 0.042217 -0.0578896 0.0892175 -0.0507256 -0.0456607 0.0468276 -0.148485 -0.070588 -0.0445669 -0.0797514 -0.0234854 0.0572351 -0.00729265 0.0195465 -0.0983903 -0.0464756 0.0245147 0.120081 0.0509903 -0.0715766 -0.000542438 -0.0631218 0.0528229 -0.0107103 0.112146 -0.0354293 0.0511895 -0.0887061 0.0907029 -0.00815544 0.0896902 -0.123625 -0.0984894 -0.00369861 0.059936 -0.0286891 0.0424852 0.0402578 -0.051887 0.0659752 -0.0124258 -0.0325647 0.134468 -0.00452519 -0.0474168 -0.0229651 0.0175389 -0.0182859 -0.0453089 0.0272851 -0.258995 -0.0150431 -0.117675 0.0475666 -0.0475399 0.0108114 -0.0339368 0.0599668 -0.0477757 -0.00754243 0.0561756 -0.0149856 0.0437109 0.0216239 -0.0412225 0.046161 -0.056292 0.0967837 -0.0156496 -0.0868363 0.0507688 -0.0198485 -0.0590587 -0.0149041 -0.0581045 -0.10178 -0.0958311 0.102023 -0.0741689 0.140314 0.000987766 -0.0356972 0.101679 -0.0520231 -0.0464738 0.0723159
Q70_R38 0.0392286 0.125229 0.0276298 -0.0108109 0.0475414 -0.0544926 0.0630788 -0.0145253 -0.0122339 -0.0324851 -0.0405981 0.0128543 0.183147 -0.0330175 -0.0211213 0.10587 0.0767612 -0.00963744 0.0429401 -0.00875655 -0.0751455 0.0179248 -0.0395579 -0.0443827 0.155936 -0.0721901 0.0728518 0.0152782 0.0192561 0.055658 -0.110115 0.218003 0.0491843 -0.00425135 -0.0522487 0.0959 0.0475548 -0.000262764 -0.015419 -0.0456308 0.00566971 0.0915147 -0.0860001 -0.0424699 0.0615527 -0.00276999 0.0409824 0.135431 -0.0128697 0.0391265 0.00727298 0.031104 0.0761972 -0.0107186 -0.0481658 -0.0262993 0.076949 -0.00420179 -0.0871667 -0.03943 -0.0591053 -0.0799534 -0.0270991 -0.0184137 0.0075038 0.111084 -0.103261 -0.0243617 0.142024 0.0525406 -0.0882314 0.134659 0.0193895 -0.0132902 0.01979 -0.0594774 0.09154 0.127956 -0.110508 -0.0438938 -0.0575316 0.0232439 0.0396907 0.00987316 0.0339153 -0.0788926 -0.0244014 -0.0911931 -0.0135788 -0.00304971 0.0747296 0.0135173 0.00127654 -0.0937805 -0.0443055 0.00381351 0.0483247 -0.0638118 0.0530959 -0.0503038
Q96_R21 -0.0594637 0.0600994 0.0260773 -0.0124898 0.0163105 0.0728546 -0.0244926 -0.0543196 0.0474562 -0.00661234 -0.104695 -0.110685 0.163141 -0.0171191 -0.117146 0.0718037 0.0763615 0.00975004 0.0160022 0.0701772 -0.114913 -0.0300877 0.0489694 -0.0628115 0.0794818 -0.0118464 0.0008719 0.0582691 -0.0440318 0.00476201 0.0474069 0.16131 -0.0153831 -0.103125 -0.0772883 -0.0858264 0.07102 0.0744607 0.00556502 -0.0773998 0.0237076 0.0158073 0.0228676 -0.125347 0.0594063 0.0471417 0.130741 -0.0648092 0.106284 -0.0275042 0.0121769 0.0665638 0.00937291 0.1403 0.0549144 0.0245452 0.0273287 0.0845207 0.0264302 -0.0390093 0.0135284 -0.149814 -0.047162 0.0203868 -0.0550583 -0.106886 -0.0492434 -0.0490996 0.00492503 0.128637 -0.0607423 -0.00277967 0.0311575 -0.0204158 -0.0472077 -0.120464 -0.0549157 0.0872811 -0.0356576 0.0543974 -0.00704435 -0.0348683 0.0883862 0.0604379 -0.0510373 -0.0354325 -0.00314385 -0.025442 0.00756977 0.0508579 0.0360963 0.00311659 0.000285413 0.0526479 -0.0949624 -0.0494103 0.0687541 0.0177469 0.0695316 -0.044733
Q96_R24 0.0296302 0.0252646 -0.0250938 -0.050325 0.068172 -0.0823768 0.0050386 0.0459531 0.0837882 -0.134108 0.058411 0.172879 -0.0880881 0.0721294 -0.164814 0.0212667 -0.0038189 -0.137036 -0.0815479 -0.159866 0.0691851 -0.104329 0.0391848 0.112787 -0.044222 0.0083168 -0.0588525 -0.104863 0.0836952 -0.0799552 -0.0205301 0.0521713 -0.0640494 -0.0632754 0.108039 0.00334585 -0.0701282 0.0118783 -0.0787044 -0.0888409 0.00190354 -0.0207155 -0.0384786 -0.0223618 0.149609 -0.111344 -0.03582 0.184137 -0.0355459 0.0483884 -0.00195665 0.110195 0.0847218 0.0448381 -0.0059098 0.0915287 -0.0488323 -0.105626 -0.0387542 -0.058146 -0.0250999 -0.0767509 -0.0100091 0.0979727 0.0382568 0.0845071 0.0409018 0.0171188 -0.0784927 -0.0253909 0.0155542 0.0921103 -0.0289942 -0.00719328 -0.0147419 -0.0469053 0.103079 0.00873786 0.00901298 0.0523887 -0.0318999 -0.0750217 0.0732942 -0.0721329 0.184722 0.0399886 0.0344947 -0.0722033 -0.0609291 -0.0962068 0.0318239 -0.0385119 -0.0261676 -0.0244879 -0.0220628 0.0515439 -0.11793 0.0716243 -0.0644524 0.0665659
Q70_R30 0.0363841 0.0175542 0.0147492 -0.00733758 -0.0143949 0.022151 -0.0496256 -0.0324277 0.104824 0.0992801 -0.00687044 -0.140915 -0.0280839 0.0853732 0.0569696 -0.0101662 0.0653448 -0.0374329 0.093125 0.0719746 0.0982595 -0.00204405 0.0336491 -0.0825356 0.0895991 0.00384731 -0.030069 0.0339439 -0.0187926 0.044668 0.0947827 -0.119934 -0.0299065 0.00302997 0.142455 0.0819738 -0.0780102 0.0295741 0.0241112 0.0373436 0.00895924 0.0934048 0.0329794 0.0171132 0.00560795 0.0872379 0.0127151 -0.0660692 0.146178 0.0188265 -0.0117868 0.00714063 -0.114439 -0.0472376 0.0517689 -0.00694715 -0.104561 0.00383693 0.122738 0.119953 -0.000413416 0.0045611 -0.0483877 -0.159594 -0.0535894 -0.076456 0.028666 -0.0184348 -0.157326 0.0187002 0.0349492 -0.0386002 0.0308119 0.0190028 0.0105731 -0.0246281 -0.0397428 -0.0348974 0.0315876 0.0692373 -0.041052 0.0372002 -0.0152678 0.00492203 -0.036339 0.0927616 0.122825 -0.053233 -0.061817 -0.0301518 0.0348655 -0.0629617 0.00109985 -0.043808 0.0241398 -0.0287055 -0.0820793 0.0687186 0.0930151 -0.0273279
Q70_R35 -0.0305122 -0.00578162 0.0237033 0.0197225 0.108007 -0.197182 0.0786912 -0.0430226 0.128706 0.098553 -0.0186828 0.00299725 0.101847 -0.111907 0.0019317 0.085923 -0.0600841 -0.0393256 -0.139278 -0.207196 -0.113446 0.0719475 -0.160505 -0.00210678 0.057945 -0.0700059 -0.0816247 -0.0883077 -0.00723489 -0.0508901 -0.0159599 0.0736155 -0.0722 0.0429529 -0.0350981 -0.114175 0.00582889 0.0498524 0.0724354 -0.151527 -0.0284536 0.0545497 -0.0996347 0.0102022 -0.0311429 0.0583986 -0.116219 -0.121945 0.0228934 -0.108644 -0.0188242 0.0372951 0.0743482 0.110635 -0.126768 -0.222004 0.145474 0.0193664 -0.109406 -0.0619976 -0.0259882 0.0113994 -0.0884023 0.0245457 -0.0398389 0.146378 -0.0935969 0.118885 0.0244967 0.00540494 -0.0879154 -0.00876149 0.0351432 -0.106776 0.0109636 0.0857248 0.191571 -0.0322668 -0.00197537 0.0776477 -0.0515657 -0.0791288 0.11675 -0.0390459 0.160615 0.0465566 -0.0174458 -0.0685747 -0.035893 -0.0333213 -0.0113109 0.21071 -0.042789 0.0217145 0.0394559 -0.00136246 0.0585119 -0.0810996 -0.0404517 0.0582825
Q70_R37 -0.0804838 -0.010948 0.072945 0.00205402 0.0249575 0.059632 0.0461354 0.0573946 0.071764 -0.0213676 -0.114149 0.0674528 0.0214773 -0.159462 -0.102638 0.098511 0.0413823 -0.172248 0.044992 0.0567779 0.0109474 -0.0459181 0.00207122 -0.0956797 -0.0302242 -0.0100846 -0.109775 0.00655368 -0.0849864 0.00921442 0.0150343 -0.00861869 -0.0159077 0.143431 0.0522947 -0.0517839 -0.0803936 0.0364364 0.0437212 -0.0790904 0.0324451 -0.0285695 0.0316044 -0.0332608 0.0785572 0.0700067 0.0636388 -0.0633048 0.0689527 -0.0340824 -0.00948658 0.0200773 -0.074973 0.134478 0.0745852 0.0391954 -0.0555539 0.12582 -0.00846563 0.0244905 0.114391 -0.0756204 -0.0519775 -0.0317412 -0.0736474 0.0530824 -0.0125469 0.00553104 0.0210604 -0.0424878 -0.0279593 -0.0132521 0.0349499 0.0114104 -0.0957713 -0.0191329 -0.0874275 0.106007 0.0564216 0.012831 -0.0589602 0.0357233 0.0181695 0.118228 0.0597932 0.000995147 0.0199315 0.130329 0.0399605 0.036472 -0.096533 0.072832 -0.0708529 0.131396 0.0287776 -0.089828 -0.0690849 0.0590093 0.0911406 -0.0737308
Q70_R36 0.00759614 0.0277847 -7.8982e-05 0.0973867 -0.0659894 0.0378685 -0.0619588 0.0652391 0.043605 0.0533859 -0.0635815 -0.153725 -0.0211864 -0.0821762 -0.0557198 0.0267445 0.0422417 0.0879343 0.0340145 -0.0156828 0.0871535 0.0609278 0.118679 -0.0548822 -0.0470036 -0.00753038 -0.00684368 0.123766 0.0505048 0.0731053 -0.0603892 0.106846 -0.00168633 -0.0103741 -0.0138649 0.0393381 0.0996602 -0.0942738 0.0992039 -0.118629 0.112329 0.00801514 0.0776568 -0.0510344 -0.0681212 0.0708477 -0.0302365 -0.022894 0.129028 0.0710334 -0.0240571 -0.0421756 0.0205247 0.0980136 -0.079471 0.0297099 0.031793 -0.0709753 0.146525 0.0325118 -0.0190005 -0.0495668 0.00894118 -0.0600611 -0.0726817 0.0393892 -0.0162458 0.0351534 -0.0177128 0.0381992 -0.0411732 0.120026 0.0497559 -0.11399 0.0345868 -0.0533581 -0.0606558 0.0111119 -0.012781 -0.00226693 -0.0136184 0.0388524 -0.0876842 -0.0714713 -0.0384735 -0.0468232 -0.0771303 -0.0361735 -0.0628 -0.129454 -0.0360222 0.0481212 -0.130454 -0.0185786 -0.0726957 -0.0915458 0.0544927 0.00139208 -0.085487 -0.0704282
Q144_R14 0.105351 0.0216858 -0.117897 -0.0604477 0.0342151 -0.0630366 0.00738285 -0.0405365 0.0637766 -0.053073 -0.0478501 0.051664 0.0099304 0.221297 -0.155035 0.0175889 0.0403094 0.055684 0.0676208 -0.129662 0.0158513 -0.14945 0.0646062 0.0525608 -0.042054 -0.165276 0.0237801 -0.0634704 0.0298854 0.0292865 -0.13431 -0.0654774 0.0815103 -0.0957338 -0.00358752 0.0460724 0.145129 -0.104037 0.0320005 -0.0390591 0.0564052 -0.0495686 -0.0403151 0.012915 0.00938623 0.0248574 0.0385493 -0.0921913 -0.0190905 -0.0407828 -0.0387136 0.0215 0.150631 0.0655483 -0.232411 0.123052 0.032504 -0.0804643 0.0621441 -0.0682717 0.00315231 -0.0234035 0.156761 -0.00636867 0.013501 0.151559 -0.0857433 -0.0413744 -0.0222034 -0.0566314 0.00895488 -0.045107 0.0333431 0.0156305 0.100086 0.02839 0.0685852 0.0751599 -0.0977141 0.032117 0.0800272 -0.0301646 -0.0525656 -0.069057 0.132324 -0.0736534 -0.00942577 -0.120735 0.164396 -0.0947717 0.0516155 -0.106866 0.0718807 -0.0229256 0.0905502 0.0560257 0.0188322 -0.167759 -0.0787709 0.0693501
Q144_R15 0.0633052 -0.123171 -0.20615 0.0816834 0.0436783 0.0122641 -0.0416917 -0.0270596 -0.00481179 0.124339 -0.0804241 -0.0357221 0.0718662 0.153108 -0.0600222 0.0379356 0.00752849 0.0458363 -0.00484723 -0.0643466 0.0592706 -0.0715285 0.0442026 0.0345928 0.0491337 -0.126037 0.117355 -0.0281785 0.00383386 0.0116703 -0.0536365 -0.135435 0.0619339 0.00900339 -0.0139634 -0.0953119 0.0226914 -0.0561589 0.0225751 -0.0759286 0.0429211 -0.154791 -0.000824712 0.105856 0.0253262 -0.108376 -0.0292188 0.00500696 0.0184464 0.0143133 0.0848363 -0.00956676 0.0771508 0.108048 0.0393265 0.0674084 0.0150793 0.0699153 -0.0823947 0.000880247 0.057322 -0.0802779 0.0486602 0.0387488 -0.0143989 0.124448 0.0172345 -0.0755731 -0.034973 -0.0104839 0.00347185 -0.13274 0.0531566 0.0862187 0.0981901 -0.0660505 0.0790222 0.017905 -0.0387161 0.081888 -0.0236816 -0.00218154 -0.00771523 -0.14901 0.139316 -0.0444381 -0.084286 0.0169291 0.125237 -0.156924 -0.0942565 0.104527 0.0428245 0.00634148 0.0695694 0.0454608 -0.12821 0.01821 -0.0821556 0.0485591
Q152_R70 -0.109965 -0.0123278 -0.0296614 0.0776999 0.0624926 0.207421 -0.0701292 -0.0831193 -0.022502 0.0886462 -0.103325 -0.0366301 -0.00802716 -0.0185693 -0.0238105 -0.00671614 0.157595 0.106873 0.0874987 0.104378 0.0479255 -0.0545608 0.060175 0.0363078 0.0627652 -0.0929243 -0.118573 0.0291295 -0.0128394 0.0495805 0.0798111 -0.150279 -0.0354957 -0.0723446 0.0311604 -0.0806342 0.100036 0.0024816 -0.0463519 0.0233472 -0.06003 0.0288654 0.0964904 -0.00097564 -0.0359603 0.00951136 -0.0068459 0.0744311 -0.0222073 0.0487386 0.0451315 0.00374761 -0.0329727 -0.0572515 -0.0316592 0.0405532 -0.0863797 0.0486802 0.0955938 0.0640129 0.0994273 0.0196934 0.0109488 0.021542 0.0120376 0.00457716 0.057271 -0.0488196 0.0359917 -0.0345876 -0.0872198 -0.144411 -0.0592867 -0.0382838 0.0531601 -0.0104587 0.0463678 -0.060466 -0.0938263 0.0343951 -0.0827577 0.0294269 -0.0579661 0.00268548 -0.0370821 -0.0413107 -0.031336 0.0144815 0.12089 -0.090188 -0.00472728 0.0455354 0.0288597 0.0157844 -0.0530502 -0.00237803 -0.080469 0.126802 0.0555681 0.0458921
Q144_R11 0.150638 -0.167024 -0.158156 0.0266967 0.126359 -0.00985321 0.0489464 -0.112008 0.150574 -0.0157895 -0.11003 -0.00229852 0.0321673 0.262523 -0.104245 -0.0878184 0.0164627 -0.0313922 0.0115781 -0.122478 -0.0770149 -0.155314 -0.00835833 -0.0839361 0.0168566 -0.101443 0.0511186 0.0042378 0.0314248 -0.0100031 -0.0388074 -0.062711 0.114076 -0.0896517 -0.0625086 -0.0251542 0.0298604 -0.0914478 0.0294279 -0.0960558 0.0673503 -0.129608 0.0250274 0.0731208 0.0254365 0.0175368 0.0240298 -0.0649026 0.0304367 0.0236696 0.0866575 0.0414262 0.142585 -0.00125028 -0.0577011 0.11059 0.0421991 0.0136277 -0.0492776 0.0374519 0.0902811 -0.0109933 0.258405 0.0787525 -0.0152667 0.0685077 0.0215302 -0.114395 -0.0597633 -0.0585162 -0.0299424 -0.0921192 -0.000492908 0.0911994 0.142331 -0.0600514 -0.0734144 0.00432239 -0.0978777 0.107853 0.0309861 0.011926 -0.0292929 -0.174933 0.17283 -0.0685942 -0.00912022 -0.000795641 0.130967 -0.0174106 0.0592798 0.0214131 0.0384839 -0.0642813 0.0584745 -0.040823 -0.0568501 0.0214256 -0.107837 -0.00390642
Q47_R24 0.0613406 0.0326166 -0.013637 0.0573895 -0.0427889 0.0456879 -0.0047985 0.0598243 0.0595677 -0.0533287 -0.0557597 0.019911 0.0290998 -0.0690922 0.0195889 0.0282987 0.0113966 -0.043581 0.170733 0.0718368 -0.0344919 0.0479075 0.058224 0.0388174 0.0568856 0.0167433 -0.0817236 0.0849734 -0.0826281 0.0436268 0.137766 0.00463072 0.0602601 0.00372966 0.0213156 -0.0495231 0.0920055 0.0136521 0.0699817 0.00664186 0.00491343 -0.086747 0.0796752 -0.157735 0.0743287 -0.0173183 -0.00981426 0.00155184 -0.0197709 0.0483512 0.0576647 -0.111804 0.0122343 0.0376962 0.0864805 -0.0498591 -0.0943224 0.0136729 0.0693224 -0.0277968 0.0302758 0.0270104 0.00177408 -0.0272475 -0.0962993 -0.115407 -0.0217067 -0.0103223 -0.030919 -0.0528226 -0.0185649 0.0536289 -0.0568944 0.0262808 -0.0113476 -0.0206272 -0.00130176 0.00116427 0.0581644 0.114999 0.0315683 -0.00639021 0.0398761 0.0374696 0.0482763 0.0460827 0.000441046 -0.0542302 0.0246749 -0.0547608 -0.0348776 0.00236711 -0.0746875 0.0543814 -0.049529 -0.0793129 0.0673632 0.00908049 0.0764394 -0.0607482
Q47_R26 -0.0250563 0.135484 0.093888 -0.0622139 -0.0195861 0.0961749 0.0598725 -0.0652161 -0.0191515 0.0195384 -0.0530376 -0.0144052 -0.15911 0.00587635 0.000209751 -0.0473195 0.0114422 0.0278764 -0.0474483 0.0874587 0.0403957 0.122721 0.0725183 -0.0295898 -0.0737748 -0.052039 -0.0415431 0.12835 0.0496764 0.0908156 -0.0575658 -0.0284069 -0.0635471 -0.0530118 -0.0330903 0.0416418 -0.0130217 0.00750731 0.106962 -0.109453 -0.0410151 0.0219733 0.0546207 -0.0169554 0.00165846 -0.0140786 -0.0428725 0.00025685 -0.0771652 -0.0614057 -0.0600374 -0.107363 0.0411901 -0.0943735 -0.06714 0.0344113 0.00472573 -0.0347428 0.00588453 -0.0904905 -0.0487083 0.0357975 0.0292012 -0.0519455 -0.064455 -0.0261338 0.00184172 -0.0406342 0.011477 -0.0314071 0.00100829 0.0413455 -0.00973776 -0.00179113 -0.030063 -0.0663375 -0.0731679 -0.0134542 0.0714544 0.0104661 0.0241593 -0.030023 -0.0192855 -0.0829178 -0.0376029 -0.0380134 -0.0094747 -0.142873 -0.147075 -0.093859 -0.0544952 0.0345148 -0.0974764 -0.0160946 -0.0901296 0.055077 0.0528207 -0.0556643 -0.0705233 0.0147035
Q47_R27 0.112213 0.113873 -0.100139 0.0459419 0.034371 0.00225719 0.0218657 -0.0130556 -0.0351832 0.00416291 0.0338529 0.00480719 -0.0809052 -0.0031602 -0.10694 0.159974 0.00946226 0.0330139 -0.00318038 -0.0139649 -0.0104205 0.0114876 -0.0317211 0.123821 -0.0514086 -0.0479736 -0.0201465 -0.0232455 -0.0167084 -0.0473849 -0.140394 0.167334 -0.00440429 0.0235176 0.0249174 0.038665 0.118687 0.0513489 -0.0234371 -0.0323181 -0.0423807 -0.125918 0.0947089 -0.0552914 0.0837761 0.0174746 -0.0667882 -0.0868563 0.0687908 0.00862229 -0.0613277 -0.0206337 0.108716 0.00688424 -0.15641 0.0342606 0.0068516 -0.0388536 -0.134029 -0.0700182 0.0818529 -0.0540504 0.0961612 0.075413 0.0271653 0.0540426 -0.0793108 -0.0142311 -0.0585962 0.0410171 0.0696281 -0.0706648 0.0398654 -0.058665 0.116415 -0.098614 -0.0011964 0.0242469 -0.0681783 0.0984202 -7.69339e-05 0.0249163 0.0544175 -0.0636393 -0.0840028 0.0601227 -0.0580337 -0.112879 0.0200084 -0.186225 0.0040263 0.0142733 0.0213616 -0.117202 -0.110911 0.096003 0.108521 0.0039801 -0.00121545 -0.0675226
Q37_R71 0.023139 -0.0273526 0.041906 0.0258061 -0.0367199 -0.0569098 0.0544236 0.142865 0.0203454 -0.124188 -0.0308714 0.0192707 -0.0154173 -0.0443703 0.0300359 -0.108001 0.00798821 0.0526147 -0.0730926 -0.00865573 -0.00599509 -0.0651038 0.0920872 0.0913712 0.0532468 -0.00840369 0.0417412 -0.0512306 0.0219448 0.0270949 0.159497 -0.151844 0.0206353 0.0142502 -0.0578709 0.119545 -0.0706097 -0.0146432 0.12708 -0.0274608 -0.0589795 0.00790845 0.0106394 0.0478561 -0.0324455 0.0209489 0.14339 0.0768151 0.0782601 0.154676 -0.11191 -0.0155913 -0.0574479 0.00926142 0.169545 -0.0181476 -0.0954762 -0.0872513 0.0220155 -0.128526 0.0227665 0.0669287 0.0605803 -0.0147243 0.0298097 0.027724 -0.0860041 -0.0191618 0.0581416 0.122884 -0.0413536 0.0689793 0.0204365 0.0818136 0.071855 -0.0493747 -0.0166889 -0.0540165 0.0601418 -0.021568 0.0812162 -0.0446571 0.0579814 0.0633927 -0.010642 -0.0342582 -0.0371344 -0.0537191 -0.0505491 0.0263781 0.0211505 -0.117607 -0.0167548 0.133648 -0.0585931 5.17118e-06 0.0399659 -0.0102626 -0.0932652 -0.0812015
Q31_R27 0.102993 0.0562392 -0.000351367 0.0837873 0.021681 -0.0628968 -0.0589507 0.0141055 0.0463733 0.0585404 0.0874052 0.0319029 -0.0182478 0.100045 -0.0872041 0.051815 0.164793 0.0170897 -0.157782 0.0282107 0.0747507 0.0217172 -0.0151174 0.0130323 0.0150399 -0.0421136 0.0224282 0.0379286 0.103741 -0.153645 -0.0993343 0.0643305 -0.0262705 0.0386275 0.148353 -0.109552 0.0466817 0.0527652 -0.0661328 -0.0747255 0.103444 -0.196037 -0.0627953 0.106754 -0.149246 0.00348204 -0.0963738 -0.0730731 0.0300661 0.0458247 0.12221 0.0221638 0.0884112 -0.0790747 0.0565826 0.0415187 -0.0624091 -0.00272866 -0.0324279 -0.0290988 0.132778 0.223966 0.000100577 0.0203891 0.00243042 0.182246 -0.0235957 0.0713473 0.00587326 0.0224471 0.0355011 -0.013286 0.136675 -0.122005 -0.0897943 0.0616971 0.160976 -0.116859 -0.0430733 0.0493866 0.136462 -0.0653192 0.0113079 -0.0509525 0.0918432 0.029649 -0.0562853 -0.0346068 0.050924 -0.107299 -0.00932525 0.114176 0.13681 0.0358669 0.0137067 0.0197147 -0.00608165 0.136542 -0.114369 0.00249119
Q141_R48 -0.026661 -0.0184234 -0.105594 0.0120736 -0.133738 -0.164781 -0.0606066 -0.0319513 0.092116 -0.058277 0.0610393 -0.0873645 -0.0275015 0.0711254 0.205808 0.117944 -0.0254105 0.052428 -0.0155496 -0.145325 0.017625 -0.266984 -0.0284347 0.0817171 -0.0865074 -0.0982679 0.17664 -0.0363804 -0.0603271 -0.0790177 -0.115439 -0.187456 0.0247512 0.0683942 0.0186399 0.0114497 0.0383708 0.142782 0.0755021 -0.0466662 -0.0380802 0.0232426 0.0868046 0.0679892 -0.0974819 0.157961 0.0159712 0.0896251 -0.146808 -0.0494711 -0.0313528 -0.0795506 -0.161141 -0.0346716 -0.00805972 -0.022714 -0.0509204 -0.0272204 0.0556466 0.0698638 0.0848564 -0.0597305 -0.0439105 -0.15053 0.0314669 -0.0146017 -0.0709276 0.0509639 0.0658611 -0.00311481 -0.0337735 -0.064401 0.0015493 0.104857 -0.0643356 -0.00236099 0.0328328 -0.0589503 -0.0605945 -0.0711581 -0.0156521 0.0458923 0.0378879 0.0696746 0.145712 -0.0633805 0.0100153 0.110624 -0.0630269 -0.0225843 -0.0212199 0.0478055 -0.0555859 -0.115504 -0.0507094 0.100057 -0.0640233 0.0389267 0.0304864 0.0536516
Q31_R23 0.224648 0.0806925 0.0382994 0.0481747 -0.00776209 -0.0143513 0.0114685 -0.0295174 -0.0106137 0.066291 0.144759 0.083376 -0.0387524 0.034305 0.00366212 0.0595688 -0.00928283 0.0234391 -0.0421814 -0.0256473 -0.0209059 0.13613 -0.0685015 0.0235171 0.010771 -0.0271242 -0.054716 -0.0894209 0.00972959 -0.00100954 -0.172448 -0.0111866 -0.0349835 -0.0387855 -0.0990764 0.00867733 -0.0540264 0.0598955 -0.0542295 0.0509392 -0.110386 -0.0426231 0.0103883 -0.000738885 0.0495516 0.00739227 0.072916 8.76209e-05 0.00525114 0.0263069 0.0522935 0.114623 0.121765 -0.0999462 -0.105981 -0.0827639 0.0438146 -0.10679 0.00535299 0.0160923 -0.153239 0.00779863 0.0397027 0.0878383 0.0362673 -0.0415902 -0.0294359 0.0904949 0.127679 0.095813 0.156674 -0.0428843 0.000998647 -0.175727 0.11524 -0.0168286 0.0888713 -0.0426442 -0.12885 -0.039686 0.0638969 -0.0881242 0.0128951 -0.0788576 -0.216386 0.0272789 -0.0320811 0.0750392 0.0399454 -0.0452356 -0.0445052 0.00124996 0.0611571 0.0229583 -0.0244712 0.0767516 0.0438012 -0.0542882 -0.077468 0.0396707
Q31_R22 -0.0669919 0.0527295 -0.200439 -0.0352957 0.00397264 0.126582 0.0255985 0.0453184 -0.00420695 -0.084985 -0.0290586 0.0158928 -0.0533439 -0.0792594 -0.151082 0.097752 0.0140315 0.146151 -0.0253426 -0.0675795 -0.00170707 0.005246 -0.0710679 -0.0109808 0.0792919 0.0214881 0.0468758 -0.0389759 -0.0560603 -0.00332299 -0.017622 0.20592 0.031293 -0.0380166 -0.0632568 0.0555127 0.245593 -0.0688075 0.02577 -0.0352823 0.0143056 -0.0267559 -0.0158578 -0.117411 0.0627046 -0.00852224 0.0264398 0.00423138 -0.0862841 0.138493 0.0480843 -0.0246574 0.12105 0.108362 -0.0461442 -0.0544522 0.00560896 0.0414344 0.0406667 -0.0235005 0.163231 -0.0752504 -0.185209 0.0628995 -0.0762799 -0.0514987 0.0705787 -0.0932146 -0.0190129 0.0179327 -0.00384362 0.132115 0.0306206 -0.074309 0.0705414 -0.14859 -0.0853422 -0.0589185 -0.0272712 -0.0213621 -0.00370399 0.00186687 0.0564099 0.109528 -0.0708926 0.0324535 -0.0421869 -0.025049 -0.0246523 0.0837969 0.135557 0.115698 0.0699792 -0.0090539 -0.0536975 0.118299 0.0928375 0.0182422 0.106226 0.00204224
Q184_R21 0.0223471 -0.0672302 -0.0688084 -0.091034 0.0799659 -0.0504414 0.0128168 -0.0402795 -0.0436792 -0.0390123 0.0316935 0.104318 0.16136 0.149692 -0.169927 0.0771857 0.000438636 -0.0860677 -0.0184983 -0.0711584 0.137089 -0.130264 0.0535142 0.00303397 -0.0146061 -0.00827925 -0.0141327 0.0431551 0.0430308 -0.10998 -0.101248 0.0239916 -0.0687667 0.0645459 0.049457 0.0801615 -0.102561 -0.0712631 -0.0870936 -0.0509443 -0.0400918 0.023233 -0.112389 -0.0140323 0.163561 -0.0277725 0.0515554 0.0381437 -0.143773 -0.0361758 -0.0456282 0.0285631 -0.0356539 -0.0221889 -0.11033 -0.0253681 0.0949456 0.00283969 -0.18273 0.0279422 -0.0806834 -0.00349889 -0.0119274 -0.0497025 -0.0256706 0.160453 -0.0971992 -0.0530841 0.0354097 0.0839115 -0.0147666 0.00835241 0.00401552 0.063083 0.0503727 0.197512 -0.0406459 0.00854414 0.0406199 0.0638045 -0.0184294 -0.0295758 -0.0574213 -0.0615818 0.0615724 0.0218023 0.0284328 -0.106506 0.0230042 0.00671116 -0.085559 -0.079195 0.0851262 -0.0809062 -0.00852518 -0.0314882 -0.099403 -0.169231 -0.0687969 0.0554193
Q31_R20 -0.0834336 0.0027997 -0.0855181 0.0303814 0.00801573 0.084406 -0.062605 -0.127654 -0.0510434 0.131251 -0.00170726 -0.177642 -0.209386 0.0170045 0.00801524 -0.00503172 0.0435071 0.00376569 0.0920558 -0.00616925 0.0360298 -0.114992 0.0888298 0.0206925 0.0477993 0.0169754 0.0534656 -0.0308747 0.000804406 0.1183 0.0496938 -0.0479681 -0.161016 -0.00370246 0.164313 -0.00129248 -0.00220687 0.0493505 -0.00984493 0.0479364 0.00517658 0.0114047 0.115304 0.113242 -0.0589569 0.0904987 -0.0608791 -0.144272 -0.00443969 0.0604117 0.0448779 0.0850746 -0.0595466 -0.059927 0.0199234 0.0126372 0.00471218 0.0468242 0.184311 -0.0047248 0.0422201 0.0561643 0.0265119 -0.183495 -0.0760292 -0.0869215 0.0789378 -0.045044 -0.152598 -0.000592647 -0.0233147 -0.0476082 0.032629 -0.0272639 0.0759508 0.0672362 -8.46425e-05 0.0263468 -0.00973778 0.0340472 -0.17706 0.117912 -0.0713722 0.000424084 -0.0319558 0.174029 0.0516585 -0.0443674 0.016888 0.044234 -0.0174283 -0.0376705 0.0607594 -0.093414 0.110457 0.073215 -0.0874837 0.0639369 0.0961128 -0.0568724
Q88_R44 0.0903392 0.0255567 -0.0271696 -0.0381006 -0.0363805 0.0038196 -0.070318 0.104847 0.0345825 0.051926 -0.0328638 0.128917 -0.00354561 -0.0277397 0.00805847 0.0307502 -0.0270415 0.139951 -0.0308035 -0.0951486 -0.0923697 0.0845715 -0.139101 -0.00422639 -0.12679 -0.0131409 -0.0032773 0.0636421 0.0930428 0.0238039 -0.140205 0.0796536 -0.106129 -0.14894 -0.153469 -0.034673 0.072897 -0.0244929 0.121918 -0.0579157 -0.0377934 0.0972257 0.0643138 0.0773791 -0.0698309 -0.0248218 -0.0358337 0.0757777 0.00951493 0.0224677 -0.050539 -0.112331 -0.0807339 -0.0047517 -0.0233056 -0.0640556 -0.157524 -0.0959204 0.0266227 -0.0362897 0.0133603 -0.0321058 -0.0532511 0.132376 0.143566 0.0993919 -0.131783 -0.0420222 0.0787447 -0.0106555 -0.0996325 0.0147753 -0.0425203 0.01592 -0.106352 -0.0863875 0.0492452 -0.0104942 0.0340252 0.0283691 -0.102113 0.0202901 -0.0446473 -0.135978 -0.0575186 -0.0177524 -0.0129388 0.086313 -0.128547 -0.0213522 -0.0608869 -0.0200329 0.053982 -0.0269312 -0.0282584 -0.0106194 0.134544 0.0230678 -0.124325 -0.050906
Q84_R18 0.225664 -0.0487605 0.0334151 -0.0627158 -0.0674638 -0.0547349 -0.0295766 0.116227 0.0162314 -0.181484 0.10962 0.0866268 0.0898184 0.0729343 0.116283 -0.0241551 0.0191049 -0.0689724 -0.13738 -0.046 0.103642 0.0967772 0.0372489 -0.0491925 0.0376653 0.0591261 -0.0438138 0.0309561 0.0451982 -0.175766 0.100736 0.0779595 -0.00277773 0.0643393 0.000662824 -0.00563686 -0.0908976 -0.000470286 -0.103932 0.00880462 -0.017365 0.161541 0.0465852 -0.0167684 0.15868 0.00915754 0.0393017 -0.0609841 -0.0566019 0.0676075 0.0216058 -0.0361427 0.0314144 0.00866841 0.0404299 -0.00387249 -0.0844596 -0.0112491 -0.00180893 -0.0210706 0.0539138 0.0993763 -0.0754525 0.0577781 0.0237818 0.00102305 -0.0286316 -0.0219023 0.00794624 0.127431 0.0231868 -0.0319907 0.045909 0.0222473 -0.0686062 0.0262486 0.0775542 -0.0948191 -0.0357546 -0.106184 -0.0397058 -0.0487309 0.0768228 -0.0463775 -0.0601044 -0.0892496 -0.0277307 0.0370978 0.0417535 0.0434862 0.046035 -0.189391 0.0548094 0.0653158 -0.0516841 -0.00756324 -0.0930711 -0.0455614 -0.0764376 0.115435
Q88_R41 -0.0968299 -0.0510831 0.00140786 0.0883138 -0.0716659 -0.0257298 -0.00256779 0.0504953 0.0448748 -0.0264198 -0.117025 -0.0186631 0.0504852 -0.03983 -0.0217803 0.0679063 -0.0880405 0.212084 -0.0640612 0.0331764 -0.0767818 0.10646 0.0757754 0.00805089 0.11527 -0.066318 -0.114755 0.19774 0.0589307 0.129205 -0.0730357 -0.0730756 -0.0408268 -0.00565508 0.0403237 0.139331 -0.117519 0.00983102 -0.0464538 -0.0564994 0.00439873 -0.0432663 -0.0133157 -0.0707583 -0.105036 0.0038373 0.114517 0.00163458 0.12677 -0.0160019 0.126611 0.0495784 -0.0492963 0.123598 -0.0568687 0.114075 0.0546171 -0.00243312 0.0569383 0.0133369 -0.0899856 -0.136366 0.000937475 -0.151102 -0.113481 -0.0278216 -0.0228414 0.132105 0.191747 -0.0725177 0.0903854 0.029808 0.108999 0.0490807 -0.0841032 0.137642 -0.0548472 0.182665 0.119005 -0.0121148 -0.145406 0.0257186 -0.0448065 -0.00430236 -0.0761915 -0.0277981 -0.0205472 -0.0134967 0.0464557 -0.049474 0.0802307 0.0081312 -0.062537 -0.0627094 0.00994011 -0.112883 0.0160461 0.0391366 -0.115941 -0.0636895
Q184_R29 0.0724804 0.0664928 0.0840818 -0.0899636 0.016716 0.0931887 -0.00394313 0.113773 -0.048209 0.0901242 0.0810587 0.044416 0.00807733 0.0181718 -0.00332922 0.0890632 0.0411878 -0.0945594 -0.0600418 0.0701611 0.0691957 -0.0340457 -0.0341015 0.0628119 0.0301559 0.0164524 -0.0709516 0.0317836 0.0429255 -0.156602 -0.0430521 0.132573 0.0808444 0.0150488 0.127301 -0.0565836 -0.101948 -0.0588559 0.0310731 -0.01206 -0.00029532 -0.0670399 -0.112836 -0.0661814 0.0507935 -0.0483682 -0.00755587 -0.0166429 -0.0951804 -0.0196354 0.0560427 -0.0125917 0.123863 -0.0738284 -0.0799661 0.119636 0.0151987 -0.0302521 -0.173324 -0.144615 -0.00783413 -0.0564362 -0.0918513 0.0274579 -0.0199636 0.142788 -0.000870146 0.0187771 0.150925 -0.0409007 -0.0469945 0.0021864 0.0354264 -0.0225421 -0.125996 0.12624 -0.0504625 -0.0494638 0.0739928 0.023716 0.0937635 -0.161098 -0.0570892 -0.0570944 -0.0286237 -0.053551 0.00607275 0.02986 0.0545733 -0.0593442 0.0565406 -0.035757 0.0330626 -0.0396254 -0.0190248 0.0835128 0.0797505 0.141828 -0.0689142 0.0299595
Q31_R28 0.0577963 -0.106278 -0.0655762 0.0563263 0.0723491 -0.0559852 0.0633776 0.022788 -0.0315193 0.00523537 0.10356 0.0180222 -0.0781174 -0.0533378 0.0149019 -0.0506174 0.0618873 -0.0280715 -0.132514 -0.195803 -0.0563315 0.0843509 -0.0506326 -0.164083 -0.0880445 -0.0816244 -0.0741208 0.0371788 0.0600206 0.0936509 0.127492 -0.00207238 -0.0494161 -0.165302 -0.132682 0.0864848 -0.0277571 0.0832356 0.103158 0.0197877 -0.0409037 0.145563 0.0425696 0.00852564 -0.0534465 -0.0114459 -0.0221934 -0.0515123 0.0855304 0.108628 -0.00142499 0.0464341 -0.0921852 -0.0634328 -0.0515677 -0.0483918 -0.0431321 -0.123013 -0.0265693 0.0336437 -0.00464431 -0.0132938 -0.115313 0.0316759 0.156935 0.0410146 -0.0527432 0.122871 0.0992375 0.0801939 0.0189387 0.0156309 0.0108015 -0.0559127 -0.0896972 0.0397234 0.0583753 -0.137865 -0.0175085 0.0770034 -0.12852 0.0492493 0.069892 -0.0533031 -0.000902276 0.0690092 -0.0374894 -0.0501991 0.0778129 -0.00399618 -0.0673868 -0.0839748 -0.0495693 0.0102871 0.00210173 0.0913315 0.116681 0.0446596 -0.0737101 0.0831837
Q136_R12 0.111198 -0.0104529 0.0919354 -0.136727 -0.0314119 0.043062 0.028235 -0.0312527 0.0167355 0.0657488 0.108476 0.0695761 0.0415596 0.0589112 -0.0971448 0.0408821 -0.0987296 -0.0146473 -0.119533 -0.0346101 -0.00484181 -3.89677e-05 -0.0531726 0.107951 0.0964179 -0.0184474 -0.0207662 -0.0594567 0.0416756 -0.103597 -0.0241817 0.00501034 0.0389475 0.0243066 0.0829594 0.00732712 -0.0805377 0.00789588 0.0365669 -0.0961751 0.0111643 0.123834 -0.211188 -0.0094544 0.0575228 -0.160332 -0.00940662 -0.0564795 -0.240566 -0.0937659 0.0847185 -0.0744178 0.0694277 -0.07225 0.0667606 0.0399843 0.0236302 -0.132176 -0.0684682 0.0243057 -0.102988 -0.106844 -0.0269265 -0.0904855 -0.0633406 0.216921 -0.131924 0.0185812 0.103713 -0.0245247 -0.0512944 0.0287925 -0.0818139 -0.112612 0.00522961 0.0632611 -0.105803 0.0349397 0.0242846 -0.0170106 0.0390476 0.0220284 -0.055537 0.0180677 0.0250326 -0.0559884 -0.00332099 0.0272553 0.133853 0.159138 0.231297 -0.123869 0.0888896 -0.088102 -0.0781124 0.0543095 -0.0479644 0.0617207 -0.0396181 0.0907724
Q136_R15 0.187419 0.0608621 0.0720893 -0.075391 0.0332424 -0.0250448 0.0307097 0.0221082 -0.0116304 -0.0515207 0.212107 0.149519 -0.00858607 0.0716992 -0.00625111 0.0823865 -0.064722 -0.0369637 -0.121504 -0.0672369 0.0291416 0.0154349 -0.0802124 0.00522247 0.0285143 -0.0313574 -0.103365 0.0495268 0.101923 -0.0756846 -0.0604762 0.0161385 0.0278836 0.00599484 -0.0597372 0.0320856 0.0121129 0.0399519 0.029754 -0.0722373 -0.0420582 0.00121948 -0.0074035 0.0384895 0.0391132 -0.0210203 -0.00367348 0.118261 -0.141713 0.016337 -0.00882894 -0.154844 0.0503459 -0.0305594 -0.0126434 0.0124582 -0.0348864 -0.030402 -0.16679 0.0489938 -0.1076 -0.0544289 -0.0314973 0.0643975 -0.104405 0.0709804 0.0157992 0.00982261 0.128632 -0.0275756 0.0202585 -0.027614 -0.02349 -0.156022 -0.0856064 -0.12074 0.0324262 -0.0453519 -0.0659398 0.0339496 0.0718123 0.00661216 -0.0347299 -0.0815385 -0.0140667 -0.0422165 0.0023879 -0.0640449 0.0413022 -0.012565 0.0591833 -0.00586404 -0.0459781 0.00879389 -0.090307 0.0347623 0.0787058 0.00892971 -0.0416734 0.140001
Q136_R16 0.138732 0.0406845 0.164376 -0.126394 -0.0310956 0.0109019 0.0253469 -0.0156215 -0.0201024 -0.0258932 0.130507 0.149723 0.0173775 0.0775583 0.00113042 0.00948395 -0.134877 0.0419352 -0.157036 -0.0605391 -0.057077 -0.0131681 -0.0496371 0.163528 0.141054 -0.000144456 0.0310471 -0.0196867 -0.0385748 -0.0594815 -0.0890253 -0.0397448 0.107335 0.0333972 0.0315367 -0.0393876 -0.0785292 -0.0134524 -0.00987128 -0.0740557 0.0379925 0.0877281 -0.112701 0.0384512 0.0284037 -0.108298 -0.0879236 0.0161888 -0.249784 -0.0637301 0.0728572 -0.112861 0.121861 -0.0677844 -0.0302485 -0.0502837 -0.0167899 -0.130024 -0.137917 0.0427423 -0.113878 -0.126354 -0.0789835 -0.032661 0.0026689 0.193912 -0.0624461 0.0455732 0.0605285 -0.0367054 -0.0891792 -0.0153581 -0.112386 -0.0865985 -0.00869412 0.0127197 -0.132084 0.0210223 -0.0178158 -0.0923038 0.0808168 0.0115468 -0.0960254 -0.0588017 -0.0106267 -0.0360845 0.0143041 0.0441955 0.136057 0.129349 0.134465 -0.0634394 0.0126334 -0.0652193 -0.00151381 0.0506909 0.0310374 -0.0161234 -0.104073 0.101491
Q196_R26 0.0156005 -0.026381 0.0237403 -0.0197655 0.0774821 0.0608018 -0.00566967 0.0378732 0.025469 0.0719191 -0.0598347 -0.0609314 0.00319566 -0.025495 -0.0678111 0.0357246 0.0707272 -0.00933674 0.119599 0.068332 0.0149807 0.0733276 -0.0122053 -0.0667217 0.0181721 0.029037 0.0338249 0.00284881 -0.0653861 0.173375 0.0156488 -0.0155644 0.0342412 0.00219941 0.00408765 -0.0235887 -0.0302625 -0.0830872 0.00967816 0.0703138 0.0468529 0.0256975 -0.0177383 -0.0162081 -0.0330371 0.0343379 -0.0336236 0.053745 0.108873 0.0297363 -0.0335315 -0.0133795 -0.0476659 0.0109384 0.102784 0.00453729 0.03664 0.0349072 -0.10033 0.0563248 -0.0321733 0.104017 -0.0238044 -0.113376 -0.0468038 -0.0977147 0.00608048 -0.00727455 -0.0584076 -0.0286061 0.0121446 0.00810148 -0.00159826 0.0628095 -0.033825 -0.0451678 0.0240621 0.00326573 -0.0206619 -0.0518404 -0.0170098 0.0217471 -0.0207859 0.0919952 0.00692907 0.0370264 0.0482062 0.0308138 0.0732454 -0.0307907 -0.00908172 0.0301407 -0.0707179 0.0256862 0.0133987 0.0457208 0.0759467 0.0112001 0.106396 -0.0485622
Q196_R27 -0.183258 -0.0177557 -0.020097 -0.0300175 -0.0180754 -0.0346484 -0.0170976 -0.110256 0.0580023 0.0435093 -0.0908883 -0.0791858 0.0217237 0.00820805 -0.0519139 0.10234 0.0746037 -0.0873952 0.0814008 0.0909759 -0.0402084 0.103445 0.0394275 0.0612889 0.0950932 0.121208 -0.033341 -0.0289421 -0.0233785 0.0782637 0.0436664 -0.0825673 0.0814681 0.00748246 0.0914372 0.0943132 -0.102633 -0.00762575 0.0401314 0.0392109 0.0350374 -0.0328253 0.107909 -0.0162683 0.0126221 0.00608787 0.0678061 -0.0449271 -0.000947636 0.062202 -0.0137179 0.0315128 0.0443783 -0.020138 0.0575891 -0.0223372 0.0504759 0.153265 0.0196317 0.0488677 0.0506929 0.0171696 -0.124122 -0.167969 0.0474932 -0.164495 -0.0259042 0.0060681 -0.0315154 -0.0976302 -0.0600509 -0.0603391 0.00694799 -0.0711067 0.0267399 0.00817699 -0.065198 0.111288 -0.0775947 0.0423705 -0.0566725 0.0759143 -0.0385526 0.0655014 -0.0284741 0.0353818 -0.0978288 -0.0732271 0.094236 0.0692001 0.00872557 -0.029765 -0.0329748 -0.00437283 0.0637318 -0.0916648 -0.0433834 0.0996594 0.0119106 -0.106611
Q75_R52 -0.0967152 0.0649092 -0.0831201 0.0578554 0.187018 -0.00667313 -0.0431637 0.0262733 0.0151142 -0.18147 0.100383 0.0252136 0.0735648 0.0649655 -0.0864873 -0.0778744 -0.113363 -0.03682 -0.0784105 0.0858555 0.0562533 -0.0234791 0.0115385 0.0116618 0.00468053 0.00723053 0.0224199 -0.0362164 -0.0673726 -0.1013 0.0242439 0.146617 -0.0099484 0.0821757 -0.049631 0.049808 -0.13294 -0.0491489 -0.0129451 0.0626219 0.0814793 0.0412638 -0.0629741 0.0309389 -0.0196249 0.00293193 0.0928204 -0.0142094 -0.154945 0.181194 0.00821386 0.0277812 -0.0520174 -0.00856419 0.0912427 0.0123988 -0.0244595 0.00352975 -0.0115219 0.0263718 0.0237961 -0.0025662 -0.104775 0.174148 0.0425307 0.224953 0.0140047 0.0153597 0.00547595 -0.0185289 -0.0794156 0.0369133 -0.178378 -0.0120268 -0.0085248 0.0542099 -0.0916174 -0.141035 -0.0321218 0.0702954 0.0398033 -0.0772146 0.0735465 -0.0215173 0.106694 -0.128953 0.156512 0.0647216 -0.0168919 0.0164272 0.126093 -0.0389636 -0.0758349 0.104348 0.0386187 0.0080123 -0.0109553 -0.132387 -0.0877224 0.140521
Q3_R25 -0.122785 -0.0199557 -0.00337906 -0.0679023 -0.0450094 0.0438962 -0.0532265 -0.00797555 0.0296119 0.156977 -0.0551949 -0.0673797 -0.133904 -0.0221931 -0.0142895 -0.0655145 0.123177 -0.0740589 0.124405 0.0878843 0.100104 -0.0340031 -0.00568708 0.000753415 -0.0353169 0.0965733 -0.0578388 -0.0114312 0.04088 0.153534 0.0960808 -0.0723138 0.0297633 0.0859668 0.0875852 0.00790997 -0.03256 -0.0100214 0.043928 0.0109682 -0.00269732 0.0665292 0.0436881 0.0286421 0.0497661 0.102206 -0.0972208 -0.068195 0.101179 0.0125505 -0.0131972 0.0715603 -0.0650077 -0.121007 0.0715792 0.021831 -0.0249524 0.0218793 0.0757116 0.0638683 0.0603695 0.114206 0.00993946 -0.12367 -0.0473714 -0.0784426 0.0501994 -0.0478777 -0.0955299 -0.0304437 0.0458903 -0.00511429 -0.0511966 -0.048869 0.110176 0.0504309 -0.0529041 -0.0200912 -0.0232528 -0.0224883 0.0279268 0.014158 -0.137215 0.0266715 -0.0402928 0.0534623 0.0895379 -0.0155706 0.00266523 0.0466911 -0.0194277 -0.052602 -0.00336782 -0.0182469 0.0390451 -0.0511411 -0.0456525 0.101203 0.0678346 -0.00831919
Q75_R55 0.0612797 -0.046098 -0.0881227 0.0479596 0.0173009 -0.0864287 -0.0985582 -0.00735307 0.0691859 -0.145334 -0.0259246 -0.046805 0.0730491 0.308123 -0.0213192 0.0656147 0.08049 -0.0693029 -0.0227516 0.00842602 0.114109 -0.101799 0.0497129 -0.112581 -0.131835 -0.0235512 0.0416433 -0.0776845 0.0948133 -0.0383631 -0.0265638 0.0422844 0.0092769 0.00227299 0.00665766 0.059164 0.0399332 -0.0554863 0.0368 0.0114725 -0.006428 0.0342738 0.0363353 -0.0228651 -0.0545546 -0.0468055 -0.0060333 0.0378615 -0.0552815 -0.0527102 0.0731799 0.018847 0.0455553 0.0670302 0.0146377 0.177977 -0.095487 0.0697814 -0.0191143 0.0997292 0.147945 -0.0914687 0.0441594 0.100588 -0.0188054 0.11351 0.115439 -0.00148117 -0.0447066 -0.0391329 0.0474042 -0.0246083 -0.0379289 -0.0206616 0.0295548 -0.0631837 -0.0974035 -0.00212058 0.0109339 0.157733 -0.0965657 -0.033442 0.0843614 -0.0659154 0.137399 -0.0653193 -0.0497686 0.0199819 0.229916 -0.0125911 -0.0195487 -0.018679 -0.058037 -0.11343 0.0514871 -0.087199 -0.112708 -0.0935883 0.0257295 0.0758068
Q21_R71 0.055958 -0.0271799 -0.056478 0.09221 0.143565 -0.130772 -0.0549034 -0.0184668 0.0970355 0.0236364 0.0432377 -0.0806423 0.039136 0.260698 -0.0409805 0.0444822 0.0510018 -0.081596 0.0427545 -0.0785071 -0.0222717 0.0141525 0.0415995 -0.183289 -0.0088395 -0.123773 0.137168 0.100981 -0.0235581 -0.0914635 -0.0312145 -0.0989558 -0.0102286 0.0405753 -0.0187498 -0.0162324 -0.0222614 -0.0278568 -0.0254426 -0.0952822 0.0261212 -0.0779527 0.100544 0.00958617 0.0517991 -0.0388468 0.0437732 -0.0719707 0.0555593 0.0489582 0.0248779 -0.0550798 -0.00122536 0.0709367 0.0323925 0.164221 -0.0248708 -0.0779828 0.0124962 0.0274748 0.00409777 -0.105676 0.0707236 0.0180757 -0.00138267 0.0456755 -0.00489297 -0.0653747 -0.152975 0.0159216 -0.0440304 -0.0689634 0.0474096 0.0171218 0.0192322 -0.125772 -0.101119 -0.0120975 -0.0670928 0.093061 -0.0154836 0.0867462 0.0932683 -0.166414 0.0195886 -0.0762809 0.0806872 0.0674567 0.0812507 -0.040819 0.0189432 0.0158938 -0.0109885 -0.0917356 0.040612 -0.0541675 -0.153059 0.0699952 -0.0759685 -0.0100831
Q21_R77 0.0123343 0.13841 0.113997 -0.0441056 0.0338045 0.023251 0.00406429 0.0284709 -0.138685 -0.100245 -0.0852012 -0.0166138 -0.0205215 -0.0665285 0.144954 0.0754674 0.0095147 -0.05951 -0.067021 -0.00586918 0.0218758 -0.0583537 -0.0131553 0.016215 -0.00306318 0.0289574 -0.00511037 -0.0443499 0.04389 0.0159223 -0.0940525 0.0946984 0.0815889 -0.0645621 -0.121838 -0.0226323 0.0704012 0.0230477 0.0917372 0.0752281 -0.107869 -0.0333395 0.0416494 -0.0450195 -0.0459247 0.018922 -0.0271649 0.0639542 -0.131803 -0.100489 0.0662605 -0.0094427 -0.0522747 0.0728909 0.0548738 -0.0366665 0.0707171 0.111134 -0.0354698 0.0386526 -0.00294145 -0.0395399 0.0556595 -0.0249556 -0.147205 0.000358006 -0.0181303 0.0156063 0.0733505 0.0644178 -0.030268 0.00111145 0.0672576 -0.0615624 0.0264093 -0.19495 0.0529276 0.0308092 -0.0227549 0.0065203 -0.0548582 0.000127672 0.122322 -0.100914 0.0273424 -0.0755079 -0.079672 -0.0651909 -0.0865023 -0.104688 0.0335007 0.0358684 -0.0671997 0.0476099 0.0211036 -0.00171845 0.0971914 -0.0878499 0.0805117 -0.0408617
Q123_R49 0.175264 0.0565727 -0.0814706 0.0516387 -0.070697 -0.0183336 -0.0195759 0.109454 -0.0464006 -0.0619635 0.0578313 0.029777 -0.105905 -0.0687172 -0.0569414 0.0172784 -0.0471455 -0.0975177 0.0458855 0.0935902 -0.00121356 0.0491864 0.0855337 -0.00837389 -0.0568234 0.0488468 0.00513005 0.0711049 -0.0347297 0.0264453 0.0133938 0.0631748 0.0166947 -0.0192262 -0.0512303 -0.0172947 -0.0619221 0.100606 0.0559925 -0.147726 -0.0529895 0.058727 0.100964 0.0754137 0.0834442 -0.0378418 0.0212618 0.0240107 -0.100059 -0.0727712 -0.00708654 -0.0152663 0.0227984 -0.00889162 0.00575532 0.134878 0.0228754 -0.0375451 -0.0766446 -0.0970149 -0.0757337 -0.0765244 -0.10017 0.0320147 0.00414054 0.0360818 0.00225842 -0.0460073 0.0824364 0.0167958 0.0458949 0.0397924 -0.0598519 0.0381929 -0.0686521 -0.116774 0.0634837 -0.0343453 0.0606347 0.00866108 0.102623 -0.0589472 0.0724607 -0.0284085 -0.0179678 0.0393981 0.0591745 0.0359132 -0.0593298 0.0363171 -0.0225172 -0.0992672 -0.0234255 -0.0698294 0.0126334 -0.037239 0.0755719 0.0398236 -0.0282405 -0.0285693
Q164_R30 0.061657 0.0030539 -0.0134059 0.00323349 0.0750511 0.0878179 -0.135043 -0.101277 -0.0790516 -0.0243934 -0.0106308 -0.00784336 0.0601869 -0.049812 -0.16743 0.00751914 0.0176222 0.110496 0.0128134 -0.182647 -0.159701 0.0252856 -0.097713 -0.10064 0.0524078 -0.0489843 0.0997396 -0.140721 0.0151109 0.076941 -0.0694317 0.19905 0.0547075 -0.0705811 -0.0513161 -0.0429226 0.102553 0.174525 -0.0255404 0.0916577 -0.0155147 -0.00807908 -0.0250124 -0.102777 0.0553173 0.088385 0.0262237 -0.0545792 0.263393 -0.00708963 0.0163699 -0.0525426 -0.0415326 0.049732 -0.106665 -0.0182521 0.138811 0.0478671 -0.0424037 -0.00205573 -0.000620439 -0.0798662 0.0681566 0.143247 -0.112434 0.0590128 0.0978923 -0.0238171 0.0555735 0.0239642 0.0825302 0.0626634 0.0840695 -0.00668175 -0.0767823 -0.00661511 0.0893829 0.0190463 -0.0345255 0.0456059 -0.0448525 0.0964033 0.0206863 0.0795806 0.058974 0.0363392 -0.0320716 0.0146921 -0.0832859 -0.0954522 -0.00335162 0.195476 -0.0101943 -0.0111381 0.00895499 0.0252816 -0.0464485 -0.117362 0.114683 -0.0122837
Q197_R11 0.0463825 0.0264792 0.0186178 0.0689466 0.0336757 0.149983 0.0592076 0.0937599 -0.106176 0.0166145 0.305911 -0.0486366 -0.0297949 -0.0707964 0.0122189 -0.0608829 -0.0572646 -0.00659362 -0.0989622 -0.0104304 0.116163 0.0890617 -0.00517284 0.109368 -0.0610626 0.140283 0.0607602 0.0202359 0.106683 -0.155247 -0.0671742 0.0739761 -0.0543945 0.0956566 -0.120839 -0.123727 -0.125392 0.0324687 -0.0350012 0.0674335 -0.118735 -0.0961461 -0.00012603 -0.0295845 -0.106065 0.0348473 -0.0250573 0.00499233 -0.183627 0.0574331 0.0908711 0.0816575 0.0445721 -0.00669379 -0.0586642 0.124592 -0.000847055 0.0454032 0.118683 0.032069 0.0251511 -0.0458671 0.0554144 0.193682 0.0471813 -0.079691 -0.125644 0.023758 0.112387 0.0725035 0.126274 -0.0570931 0.0906117 -0.0344336 0.119666 -0.0512381 -0.0777956 -0.0870069 -0.0767366 -0.0983933 0.0716464 -0.0921221 0.0357552 -0.126651 -0.194577 -0.0926085 0.0403751 -0.0763558 -0.0529629 0.124825 -0.0630756 -0.0427466 0.134425 -0.0293278 -0.0814295 -0.140201 0.0320719 -0.0458805 0.114627 0.142292
Q72_R1 0.0674059 -0.0452522 0.0218982 -0.0558129 -0.0207285 -0.0354549 -0.0243351 0.036917 -0.0491994 0.0328478 0.136375 0.120616 -0.113408 -0.0841005 -0.00330861 0.0473179 -0.00677314 -0.201487 -0.0814262 -0.0534843 0.192707 -0.0864917 -0.196037 0.0973279 -0.113724 -0.0436421 -0.0410255 0.0253126 0.175798 -0.133024 0.0687683 0.0662439 0.037489 -0.0918782 0.0861381 -0.0317346 -0.053368 0.0158992 0.000242662 0.0866286 0.0509089 -0.0740457 0.000272885 -0.0129876 0.175058 -0.0109288 -0.0165318 -0.0623657 -0.111164 0.0438496 -0.00582542 0.0525949 0.112154 -0.039277 -0.0900815 0.0841735 0.0665602 -0.0142118 -0.219122 -0.170238 0.0599328 -0.0227802 -0.0212776 0.163595 -0.0529776 0.135653 0.0731045 0.0125351 0.0916015 -0.0792113 0.0498612 0.00909677 0.0289503 0.00910501 0.0383079 0.0345831 -0.0267717 -0.0966667 0.0620785 -0.0673134 0.122291 -0.221125 0.00351417 -0.0237387 -0.0797367 -0.0736605 -0.0651316 0.0669276 -0.143779 -0.0976423 -0.0102878 -0.0598637 0.0539444 -0.092064 0.0945236 0.0745022 0.0724506 0.182704 -0.0542801 0.107768
